svm_type c_svc
kernel_type rbf
gamma 0.000122
nr_class 2
total_sv 4352
rho 386.005
label 1 -1
probA -1.08638
probB 3.88325
nr_sv 82 4270
SV
516096 1:-0.544409 2:0.21628 3:-0.454615 4:-0.13911 5:-0.863577 6:-0.171327 7:-0.460379 8:-0.114186 9:-0.174587 10:1 11:-1 12:-1 13:-1 14:-1 15:-1 16:-1 17:-1 18:-1 19:-1 20:1 21:-1 22:-1 23:-1 24:-1 25:-1 26:-1 27:-1 28:-1 
304102.8709456492 1:-0.354863 2:0.27819 3:-0.930533 4:-0.389334 5:0.666262 6:0.248489 7:-0.805938 8:0.0788465 9:0.148574 10:-1 11:1 12:-1 13:-1 14:-1 15:-1 16:-1 17:-1 18:-1 19:-1 20:1 21:-1 22:-1 23:-1 24:-1 25:-1 26:-1 27:-1 28:-1 
516096 1:0.231081 2:0.602206 3:-0.909693 4:-0.321603 5:0.916644 6:-0.0754178 7:-0.380247 8:-0.125521 9:0.115224 10:1 11:-1 12:-1 13:-1 14:-1 15:-1 16:-1 17:-1 18:-1 19:-1 20:1 21:-1 22:-1 23:-1 24:-1 25:-1 26:-1 27:-1 28:-1 
516096 1:-0.0356798 2:0.604794 3:0.0386414 4:-0.354194 5:-0.859218 6:0.0478859 7:-0.591283 8:-0.435573 9:-0.487077 10:1 11:-1 12:-1 13:-1 14:-1 15:-1 16:-1 17:-1 18:-1 19:-1 20:-1 21:1 22:-1 23:-1 24:-1 25:-1 26:-1 27:-1 28:-1 
68476.84923917626 1:-0.145932 2:0.630008 3:-0.882362 4:-0.173216 5:-0.958714 6:0.0438142 7:-0.522197 8:-0.494916 9:-0.178589 10:-1 11:1 12:-1 13:-1 14:-1 15:-1 16:-1 17:-1 18:-1 19:-1 20:-1 21:-1 22:-1 23:1 24:-1 25:-1 26:-1 27:-1 28:-1 
186548.544547454 1:0.524533 2:0.638659 3:-0.99154 4:-0.160807 5:-0.965516 6:0.671492 7:-0.873248 8:-0.248541 9:-0.319326 10:-1 11:-1 12:1 13:-1 14:-1 15:-1 16:-1 17:-1 18:-1 19:-1 20:1 21:-1 22:-1 23:-1 24:-1 25:-1 26:-1 27:-1 28:-1 
516096 1:0.550381 2:0.54082 3:-0.995558 4:-0.108827 5:0.560548 6:-0.253034 7:-0.358619 8:-0.155526 9:0.0218443 10:-1 11:1 12:-1 13:-1 14:-1 15:-1 16:-1 17:-1 18:-1 19:-1 20:1 21:-1 22:-1 23:-1 24:-1 25:-1 26:-1 27:-1 28:-1 
516096 1:-0.343768 2:0.861284 3:0.924084 4:-0.235845 5:-0.646209 6:-0.363622 7:-0.316984 8:0.456576 9:0.189595 10:1 11:-1 12:-1 13:-1 14:-1 15:-1 16:-1 17:-1 18:-1 19:-1 20:1 21:-1 22:-1 23:-1 24:-1 25:-1 26:-1 27:-1 28:-1 
472540.5564205705 1:-0.21362 2:0.348243 3:-0.349581 4:-0.226372 5:-0.800934 6:0.631452 7:-1 8:-0.71862 9:-0.343338 10:-1 11:-1 12:-1 13:1 14:-1 15:-1 16:-1 17:-1 18:-1 19:-1 20:1 21:-1 22:-1 23:-1 24:-1 25:-1 26:-1 27:-1 28:-1 
516096 1:-0.342413 2:0.245485 3:-0.99034 4:-0.45868 5:-0.394277 6:0.00456666 7:-0.434902 8:-0.146858 9:0.1996 10:1 11:-1 12:-1 13:-1 14:-1 15:-1 16:-1 17:-1 18:-1 19:-1 20:1 21:-1 22:-1 23:-1 24:-1 25:-1 26:-1 27:-1 28:-1 
516096 1:0.357421 2:0.71103 3:-0.971988 4:-0.661047 5:0.295088 6:0.0569204 7:-0.711778 8:0.114852 9:-0.132233 10:1 11:-1 12:-1 13:-1 14:-1 15:-1 16:-1 17:-1 18:-1 19:-1 20:-1 21:-1 22:-1 23:1 24:-1 25:-1 26:-1 27:-1 28:-1 
218156.7740880167 1:0.435157 2:0.398595 3:-0.934352 4:-0.166647 5:-0.24453 6:0.152496 7:-1 8:0.258876 9:-0.30065 10:-1 11:1 12:-1 13:-1 14:-1 15:-1 16:-1 17:-1 18:-1 19:-1 20:-1 21:-1 22:1 23:-1 24:-1 25:-1 26:-1 27:-1 28:-1 
308966.0261988163 1:-0.266031 2:0.422145 3:-0.239497 4:-0.139788 5:-0.400508 6:0.270084 7:-0.854296 8:-0.907318 9:0.31399 10:1 11:-1 12:-1 13:-1 14:-1 15:-1 16:-1 17:-1 18:-1 19:-1 20:-1 21:-1 22:1 23:-1 24:-1 25:-1 26:-1 27:-1 28:-1 
516096 1:0.0297036 2:0.710687 3:-0.879498 4:-0.026113 5:-0.194544 6:-0.620633 7:0.554422 8:-0.0388398 9:-0.15958 10:-1 11:-1 12:-1 13:-1 14:1 15:-1 16:-1 17:-1 18:-1 19:-1 20:1 21:-1 22:-1 23:-1 24:-1 25:-1 26:-1 27:-1 28:-1 
136033.7317035057 1:0.253505 2:0.439905 3:-0.893877 4:0.231163 5:-0.997195 6:0.101969 7:-0.659066 8:-0.34289 9:-0.226613 10:-1 11:1 12:-1 13:-1 14:-1 15:-1 16:-1 17:-1 18:-1 19:-1 20:1 21:-1 22:-1 23:-1 24:-1 25:-1 26:-1 27:-1 28:-1 
516096 1:-0.114057 2:0.577318 3:-0.29733 4:-0.536444 5:-0.465039 6:0.275268 7:-1 8:0.0101684 9:-0.0688678 10:1 11:-1 12:-1 13:-1 14:-1 15:-1 16:-1 17:-1 18:-1 19:-1 20:-1 21:1 22:-1 23:-1 24:-1 25:-1 26:-1 27:-1 28:-1 
12156.58527356841 1:-0.0982575 2:0.630391 3:-0.0469873 4:-0.371699 5:0.412069 6:0.399145 7:-0.958318 8:0.125854 9:0.0878773 10:-1 11:-1 12:1 13:-1 14:-1 15:-1 16:-1 17:-1 18:-1 19:-1 20:-1 21:-1 22:-1 23:1 24:-1 25:-1 26:-1 27:-1 28:-1 
516096 1:-0.666456 2:0.574468 3:0.805401 4:-0.378285 5:-0.76643 6:0.189535 7:-0.859425 8:-0.289882 9:-0.224279 10:-1 11:1 12:-1 13:-1 14:-1 15:-1 16:-1 17:-1 18:-1 19:-1 20:-1 21:1 22:-1 23:-1 24:-1 25:-1 26:-1 27:-1 28:-1 
516096 1:-0.434562 2:0.377001 3:-0.769635 4:0.0534384 5:-0.999974 6:0.480356 7:-0.403884 8:-0.17853 9:0.325329 10:-1 11:-1 12:1 13:-1 14:-1 15:-1 16:-1 17:-1 18:-1 19:-1 20:-1 21:1 22:-1 23:-1 24:-1 25:-1 26:-1 27:-1 28:-1 
516096 1:0.202705 2:0.306588 3:-0.919062 4:-0.553967 5:-0.626479 6:0.28579 7:-0.856166 8:-0.375563 9:0.106887 10:-1 11:-1 12:-1 13:1 14:-1 15:-1 16:-1 17:-1 18:-1 19:-1 20:1 21:-1 22:-1 23:-1 24:-1 25:-1 26:-1 27:-1 28:-1 
516096 1:0.564409 2:0.528583 3:-0.975119 4:-0.340755 5:-0.461585 6:0.026863 7:-0.603751 8:-0.0108351 9:0.0261798 10:1 11:-1 12:-1 13:-1 14:-1 15:-1 16:-1 17:-1 18:-1 19:-1 20:1 21:-1 22:-1 23:-1 24:-1 25:-1 26:-1 27:-1 28:-1 
516096 1:-0.769307 2:0.287256 3:0.0729287 4:-0.0928649 5:0.151395 6:-0.0604988 7:-0.44742 8:0.0711785 9:0.0158413 10:1 11:-1 12:-1 13:-1 14:-1 15:-1 16:-1 17:-1 18:-1 19:-1 20:1 21:-1 22:-1 23:-1 24:-1 25:-1 26:-1 27:-1 28:-1 
516096 1:0.51427 2:0.734802 3:-0.840646 4:-0.5331 5:-1 6:-0.198406 7:-0.299847 8:0.100183 9:-0.0925463 10:1 11:-1 12:-1 13:-1 14:-1 15:-1 16:-1 17:-1 18:-1 19:-1 20:1 21:-1 22:-1 23:-1 24:-1 25:-1 26:-1 27:-1 28:-1 
516096 1:-0.689309 2:0.80835 3:-0.36295 4:-0.604154 5:-0.0710505 6:0.0175058 7:-0.304169 8:0.16186 9:0.0451893 10:1 11:-1 12:-1 13:-1 14:-1 15:-1 16:-1 17:-1 18:-1 19:-1 20:1 21:-1 22:-1 23:-1 24:-1 25:-1 26:-1 27:-1 28:-1 
409416.6535247272 1:-0.443481 2:0.628187 3:-0.698251 4:-0.476685 5:-0.996502 6:0.624624 7:-0.803324 8:0.0855143 9:0.526096 10:-1 11:-1 12:-1 13:1 14:-1 15:-1 16:-1 17:-1 18:-1 19:-1 20:-1 21:-1 22:-1 23:1 24:-1 25:-1 26:-1 27:-1 28:-1 
516096 1:0.526666 2:0.675808 3:-0.911147 4:-0.396743 5:-0.714786 6:0.118529 7:-0.85153 8:-0.130188 9:-0.0712023 10:1 11:-1 12:-1 13:-1 14:-1 15:-1 16:-1 17:-1 18:-1 19:-1 20:-1 21:1 22:-1 23:-1 24:-1 25:-1 26:-1 27:-1 28:-1 
516096 1:-0.070009 2:0.349124 3:-0.971233 4:-0.325488 5:0.259447 6:-0.0981229 7:-0.415043 8:-0.124854 9:0.305653 10:1 11:-1 12:-1 13:-1 14:-1 15:-1 16:-1 17:-1 18:-1 19:-1 20:-1 21:1 22:-1 23:-1 24:-1 25:-1 26:-1 27:-1 28:-1 
97999.45238225385 1:-0.48101 2:0.511577 3:-0.648186 4:-0.484686 5:-0.635228 6:0.16576 7:-0.814907 8:-0.173529 9:-0.325663 10:-1 11:-1 12:-1 13:-1 14:1 15:-1 16:-1 17:-1 18:-1 19:-1 20:-1 21:-1 22:-1 23:1 24:-1 25:-1 26:-1 27:-1 28:-1 
477798.9440222502 1:0.321203 2:0.796388 3:-0.9195 4:-0.432718 5:0.467793 6:0.143584 7:-0.630214 8:-0.148858 9:0.15291 10:-1 11:1 12:-1 13:-1 14:-1 15:-1 16:-1 17:-1 18:-1 19:-1 20:-1 21:-1 22:-1 23:1 24:-1 25:-1 26:-1 27:-1 28:-1 
109528.2792264021 1:-0.176261 2:0.289232 3:-0.676998 4:-0.214103 5:-0.999978 6:0.214244 7:-0.933494 8:-0.0181697 9:-0.202268 10:1 11:-1 12:-1 13:-1 14:-1 15:-1 16:-1 17:-1 18:-1 19:-1 20:-1 21:1 22:-1 23:-1 24:-1 25:-1 26:-1 27:-1 28:-1 
261400.8621364931 1:0.739629 2:0.792309 3:-0.992102 4:-0.0434309 5:-0.361549 6:0.0284548 7:-0.623505 8:0.494582 9:-0.0638653 10:-1 11:-1 12:-1 13:-1 14:1 15:-1 16:-1 17:-1 18:-1 19:-1 20:1 21:-1 22:-1 23:-1 24:-1 25:-1 26:-1 27:-1 28:-1 
516096 1:-0.243511 2:0.802515 3:0.314209 4:-0.370435 5:-0.99989 6:0.0254205 7:-0.858482 8:-0.102517 9:-0.00283475 10:-1 11:1 12:-1 13:-1 14:-1 15:-1 16:-1 17:-1 18:-1 19:-1 20:1 21:-1 22:-1 23:-1 24:-1 25:-1 26:-1 27:-1 28:-1 
516096 1:0.0412569 2:0.342362 3:-0.102929 4:-0.480362 5:0.396238 6:-0.0985544 7:-0.379783 8:-0.507251 9:-0.00750375 10:1 11:-1 12:-1 13:-1 14:-1 15:-1 16:-1 17:-1 18:-1 19:-1 20:1 21:-1 22:-1 23:-1 24:-1 25:-1 26:-1 27:-1 28:-1 
156615.8234951625 1:0.0876408 2:0.340835 3:-0.797731 4:-0.35404 5:0.522361 6:0.228997 7:-0.820488 8:-0.423571 9:0.444722 10:-1 11:-1 12:-1 13:1 14:-1 15:-1 16:-1 17:-1 18:-1 19:-1 20:1 21:-1 22:-1 23:-1 24:-1 25:-1 26:-1 27:-1 28:-1 
516096 1:-0.355705 2:0.399923 3:-0.517368 4:-0.656829 5:0.219092 6:-0.178867 7:-0.302268 8:-0.966994 9:-0.11389 10:-1 11:1 12:-1 13:-1 14:-1 15:-1 16:-1 17:-1 18:-1 19:-1 20:1 21:-1 22:-1 23:-1 24:-1 25:-1 26:-1 27:-1 28:-1 
516096 1:-0.660771 2:0.309274 3:-0.599827 4:-0.48017 5:0.860219 6:-0.0147098 7:-0.542869 8:0.062177 9:-0.135901 10:-1 11:1 12:-1 13:-1 14:-1 15:-1 16:-1 17:-1 18:-1 19:-1 20:-1 21:1 22:-1 23:-1 24:-1 25:-1 26:-1 27:-1 28:-1 
516096 1:0.305564 2:0.58904 3:-0.941795 4:-0.318104 5:0.525895 6:0.0401283 7:-0.345616 8:-0.241207 9:-0.762548 10:1 11:-1 12:-1 13:-1 14:-1 15:-1 16:-1 17:-1 18:-1 19:-1 20:1 21:-1 22:-1 23:-1 24:-1 25:-1 26:-1 27:-1 28:-1 
516096 1:0.115441 2:0.279035 3:-0.818679 4:-0.263867 5:-0.287303 6:0.184596 7:-0.794479 8:0.424904 9:0.0832083 10:-1 11:1 12:-1 13:-1 14:-1 15:-1 16:-1 17:-1 18:-1 19:-1 20:1 21:-1 22:-1 23:-1 24:-1 25:-1 26:-1 27:-1 28:-1 
485335.7706753933 1:0.0088586 2:0.79583 3:-0.89495 4:-0.0474454 5:-0.275904 6:-0.182133 7:-0.414784 8:-0.0651775 9:-0.435718 10:-1 11:-1 12:-1 13:-1 14:-1 15:1 16:-1 17:-1 18:-1 19:-1 20:-1 21:-1 22:-1 23:-1 24:1 25:-1 26:-1 27:-1 28:-1 
516096 1:-0.365232 2:0.487627 3:-0.642995 4:-0.171087 5:0.161543 6:0.61697 7:-0.762408 8:-0.125188 9:-0.0121728 10:-1 11:-1 12:-1 13:-1 14:-1 15:-1 16:-1 17:-1 18:-0.333333 19:-1 20:-1 21:-1 22:-1 23:-1 24:-1 25:-1 26:1 27:-1 28:-1 
452684.5245001736 1:-0.0424539 2:0.846235 3:-0.0395603 4:0.358497 5:-0.239153 6:0.02941 7:-0.770757 8:-0.0185031 9:-0.0772053 10:-1 11:-1 12:-1 13:-1 14:-1 15:1 16:-1 17:-1 18:-1 19:-1 20:-1 21:-1 22:-1 23:-1 24:-1 25:1 26:-1 27:-1 28:-1 
516096 1:0.041769 2:0.505469 3:-0.812076 4:-0.609713 5:0.858115 6:0.292107 7:-1 8:-0.24054 9:-0.165249 10:-1 11:-1 12:-1 13:-1 14:-1 15:1 16:-1 17:-1 18:-1 19:-1 20:-1 21:-1 22:-1 23:-1 24:-1 25:1 26:-1 27:-1 28:-1 
516096 1:0.153707 2:0.365619 3:-0.813556 4:-0.67128 5:0.124695 6:0.0381327 7:-0.950659 8:-0.209535 9:-0.277639 10:-1 11:-1 12:-1 13:-1 14:-1 15:-1 16:-1 17:1 18:-1 19:-1 20:-1 21:-1 22:-1 23:-1 24:-1 25:1 26:-1 27:-1 28:-1 
380970.9536053438 1:-0.422198 2:0.318463 3:-0.954599 4:-0.162258 5:-0.0580815 6:-0.0529174 7:-0.734409 8:0.581264 9:-0.191262 10:-1 11:-1 12:-1 13:-1 14:-1 15:-1 16:-1 17:1 18:-1 19:-1 20:-1 21:-1 22:-1 23:-1 24:-1 25:1 26:-1 27:-1 28:-1 
516096 1:-0.698476 2:0.399216 3:-0.35873 4:-0.646337 5:0.740732 6:0.285451 7:-1 8:-0.297216 9:0.169251 10:-1 11:-1 12:-1 13:-1 14:-1 15:-1 16:-1 17:1 18:-1 19:-1 20:-1 21:-1 22:-1 23:-1 24:1 25:-1 26:-1 27:-1 28:-1 
333371.8168367303 1:0.00790916 2:0.461623 3:-0.0400594 4:0.183745 5:0.727781 6:-0.059292 7:-0.87809 8:-0.316553 9:-0.14724 10:-1 11:-1 12:-1 13:-1 14:-1 15:1 16:-1 17:-1 18:-1 19:-1 20:-1 21:-1 22:-1 23:-1 24:1 25:-1 26:-1 27:-1 28:-1 
516096 1:0.224232 2:0.43805 3:-0.955253 4:-0.157045 5:-0.32973 6:-0.00710501 7:-0.769762 8:0.00950158 9:-0.0481908 10:-1 11:-1 12:-1 13:-1 14:-1 15:-1 16:1 17:-1 18:-1 19:-1 20:-1 21:-1 22:-1 23:-1 24:-1 25:-1 26:1 27:-1 28:-1 
216335.1433330849 1:-0.501023 2:0.637216 3:-0.49564 4:-0.625691 5:-0.955653 6:0.161532 7:-1 8:-0.486581 9:-0.225279 10:-1 11:-1 12:-1 13:-1 14:-1 15:-1 16:1 17:-1 18:-1 19:-1 20:-1 21:-1 22:-1 23:-1 24:-1 25:-1 26:-1 27:-1 28:1 
516096 1:-0.63224 2:0.250808 3:0.320434 4:0.297732 5:0.880219 6:-0.162697 7:-0.435458 8:-0.258876 9:-0.211272 10:-1 11:-1 12:-1 13:-1 14:-1 15:-1 16:-1 17:1 18:-1 19:-1 20:-1 21:-1 22:-1 23:-1 24:-1 25:-1 26:1 27:-1 28:-1 
194562.6981642691 1:0.327657 2:0.517255 3:-0.916551 4:-0.420041 5:-0.555744 6:0.409974 7:-1 8:-0.415236 9:-0.476071 10:-1 11:-1 12:-1 13:-1 14:-1 15:-1 16:-1 17:-1 18:-0.333333 19:-1 20:-1 21:-1 22:-1 23:-1 24:-1 25:1 26:-1 27:-1 28:-1 
516096 1:0.277934 2:0.55105 3:-0.879441 4:-0.532261 5:-0.751869 6:0.305078 7:-1 8:0.0885148 9:-0.105219 10:-1 11:-1 12:-1 13:-1 14:-1 15:-1 16:-1 17:1 18:-1 19:-1 20:-1 21:-1 22:-1 23:-1 24:-1 25:-1 26:1 27:-1 28:-1 
516096 1:-0.492723 2:0.778258 3:-0.748604 4:-0.341445 5:0.539807 6:0.627189 7:-0.357408 8:-0.210202 9:-0.296648 10:-1 11:-1 12:-1 13:-1 14:-1 15:-1 16:-1 17:-1 18:-0.333333 19:-1 20:-1 21:-1 22:-1 23:-1 24:-1 25:1 26:-1 27:-1 28:-1 
164051.0806639153 1:-0.466555 2:0.549084 3:-0.610652 4:-0.422852 5:0.0850335 6:0.171628 7:-0.885338 8:0.449242 9:-0.210939 10:-1 11:-1 12:-1 13:-1 14:-1 15:-1 16:1 17:-1 18:-1 19:-1 20:-1 21:-1 22:-1 23:-1 24:-1 25:-1 26:-1 27:0.333333 28:-1 
516096 1:0.0755221 2:0.592087 3:-0.757776 4:-0.162954 5:-0.999939 6:0.20653 7:-0.938994 8:-0.535923 9:-0.0328498 10:-1 11:-1 12:-1 13:-1 14:-1 15:-1 16:-1 17:-1 18:0.333333 19:-1 20:-1 21:-1 22:-1 23:-1 24:-1 25:-1 26:1 27:-1 28:-1 
516096 1:0.394396 2:0.286528 3:-0.994628 4:0.124387 5:-0.978803 6:0.0256658 7:-0.696852 8:0.191865 9:-0.25296 10:-1 11:-1 12:-1 13:-1 14:-1 15:-1 16:-1 17:1 18:-1 19:-1 20:-1 21:-1 22:-1 23:-1 24:1 25:-1 26:-1 27:-1 28:-1 
516096 1:0.0212547 2:0.527527 3:-0.595316 4:-0.519146 5:0.155469 6:-0.050693 7:-0.657164 8:0.687615 9:-0.332333 10:-1 11:-1 12:-1 13:-1 14:-1 15:-1 16:1 17:-1 18:-1 19:-1 20:-1 21:-1 22:-1 23:-1 24:1 25:-1 26:-1 27:-1 28:-1 
516096 1:-0.701861 2:0.300251 3:-0.865753 4:-0.487357 5:-0.0293613 6:0.125115 7:-0.560068 8:-0.212202 9:-0.0145073 10:-1 11:-1 12:-1 13:-1 14:-1 15:-1 16:-1 17:1 18:-1 19:-1 20:-1 21:-1 22:-1 23:-1 24:-1 25:-1 26:1 27:-1 28:-1 
411684.1245041005 1:0.351425 2:0.86952 3:-0.552435 4:-0.190191 5:-0.346096 6:0.0189313 7:-0.851248 8:-0.309218 9:-0.213607 10:-1 11:-1 12:-1 13:-1 14:-1 15:-1 16:1 17:-1 18:-1 19:-1 20:-1 21:-1 22:-1 23:-1 24:1 25:-1 26:-1 27:-1 28:-1 
516096 1:-0.292786 2:0.445015 3:-0.983019 4:-0.579688 5:-0.214462 6:0.233138 7:-0.940791 8:-0.215869 9:-0.144239 10:-1 11:-1 12:-1 13:-1 14:-1 15:-1 16:1 17:-1 18:-1 19:-1 20:-1 21:-1 22:-1 23:-1 24:-1 25:-1 26:1 27:-1 28:-1 
516096 1:0.174915 2:0.725854 3:-0.667858 4:-0.45395 5:-0.709106 6:-0.129547 7:-0.497522 8:-0.220203 9:0.0418543 10:-1 11:-1 12:-1 13:-1 14:-1 15:1 16:-1 17:-1 18:-1 19:-1 20:-1 21:-1 22:-1 23:-1 24:1 25:-1 26:-1 27:-1 28:-1 
454019.8492285616 1:-0.223765 2:0.320511 3:-0.897612 4:-0.279916 5:-0.310773 6:0.056391 7:-0.877922 8:-0.279213 9:0.174587 10:-1 11:-1 12:-1 13:-1 14:-1 15:-1 16:-1 17:1 18:-1 19:-1 20:-1 21:-1 22:-1 23:-1 24:-1 25:1 26:-1 27:-1 28:-1 
516096 1:-0.347576 2:0.653467 3:-0.366761 4:-0.360257 5:-0.999994 6:0.11379 7:-0.886903 8:-0.250875 9:0.317992 10:-1 11:-1 12:-1 13:-1 14:-1 15:-1 16:1 17:-1 18:-1 19:-1 20:-1 21:-1 22:-1 23:-1 24:-1 25:1 26:-1 27:-1 28:-1 
489505.7239807135 1:-0.921092 2:0.771497 3:-0.834632 4:-0.230425 5:-1 6:-0.363673 7:-0.115049 8:-0.229205 9:-0.877939 10:-1 11:-1 12:-1 13:-1 14:-1 15:-1 16:-1 17:1 18:-1 19:-1 20:-1 21:-1 22:-1 23:-1 24:1 25:-1 26:-1 27:-1 28:-1 
173865.1691601024 1:0.297531 2:0.787759 3:-0.963601 4:-0.479035 5:-0.999841 6:0.213154 7:-0.954758 8:-0.520253 9:0.198599 10:-1 11:-1 12:-1 13:-1 14:-1 15:-1 16:-1 17:-1 18:0.333333 19:-1 20:-1 21:-1 22:-1 23:-1 24:-1 25:-1 26:1 27:-1 28:-1 
456803.7390050807 1:0.240671 2:0.648741 3:-0.950783 4:0.688642 5:0.669849 6:-0.0893367 7:-0.208172 8:-0.297883 9:0.276972 10:-1 11:-1 12:-1 13:-1 14:-1 15:-1 16:-1 17:-1 18:-1 19:1 20:-1 21:-1 22:-1 23:-1 24:-1 25:1 26:-1 27:-1 28:-1 
483413.0194154729 1:-0.715222 2:0.488877 3:-0.997755 4:-0.214675 5:0.966977 6:-0.44642 7:-0.175694 8:-0.523587 9:-0.481741 10:-1 11:-1 12:-1 13:-1 14:-1 15:-1 16:1 17:-1 18:-1 19:-1 20:-1 21:-1 22:-1 23:-1 24:-1 25:1 26:-1 27:-1 28:-1 
262026.9763092453 1:-0.604606 2:0.224993 3:-0.875311 4:-0.540365 5:-0.85415 6:0.0982106 7:-0.89984 8:-0.438906 9:0.426046 10:-1 11:-1 12:-1 13:-1 14:-1 15:-1 16:1 17:-1 18:-1 19:-1 20:-1 21:-1 22:-1 23:-1 24:1 25:-1 26:-1 27:-1 28:-1 
6825.761981412777 1:-0.182384 2:0.710595 3:-0.628863 4:-0.473451 5:-0.0985426 6:0.0102426 7:-0.796726 8:-0.230872 9:-0.54644 10:-1 11:-1 12:-1 13:-1 14:-1 15:-1 16:-1 17:1 18:-1 19:-1 20:-1 21:-1 22:-1 23:-1 24:-1 25:-1 26:-1 27:0.333333 28:-1 
130683.659015302 1:-0.95067 2:0.729888 3:-0.342819 4:-0.36456 5:-0.990598 6:-0.0584581 7:-0.631397 8:-0.282214 9:-0.483742 10:-1 11:-1 12:-1 13:-1 14:-1 15:-1 16:1 17:-1 18:-1 19:-1 20:-1 21:-1 22:-1 23:-1 24:-1 25:1 26:-1 27:-1 28:-1 
516096 1:-0.112371 2:0.448583 3:-0.907329 4:-0.0928127 5:-0.6887 6:0.0503145 7:-0.743505 8:-0.650275 9:-0.91329 10:-1 11:-1 12:-1 13:-1 14:-1 15:-1 16:1 17:-1 18:-1 19:-1 20:-1 21:-1 22:-1 23:-1 24:-1 25:1 26:-1 27:-1 28:-1 
516096 1:0.330346 2:0.226938 3:-0.914327 4:0.125838 5:0.465943 6:0.151406 7:-0.894234 8:-0.507251 9:-0.471736 10:-1 11:-1 12:-1 13:-1 14:-1 15:-1 16:1 17:-1 18:-1 19:-1 20:-1 21:-1 22:-1 23:-1 24:1 25:-1 26:-1 27:-1 28:-1 
428756.8119412087 1:-0.918114 2:0.567664 3:0.735769 4:0.3537 5:-1 6:0.100435 7:-0.950781 8:-0.315553 9:-0.302985 10:-1 11:-1 12:-1 13:-1 14:-1 15:-1 16:1 17:-1 18:-1 19:-1 20:-1 21:-1 22:-1 23:-1 24:-1 25:-1 26:1 27:-1 28:-1 
333542.5516415306 1:0.0487991 2:0.608502 3:-0.941474 4:-0.462646 5:0.157023 6:0.272535 7:-0.933079 8:-0.00483414 9:0.0638653 10:-1 11:-1 12:-1 13:-1 14:-1 15:1 16:-1 17:-1 18:-1 19:-1 20:-1 21:-1 22:-1 23:-1 24:-1 25:-1 26:-1 27:-0.333333 28:-1 
516096 1:0.247808 2:0.539609 3:-0.905684 4:0.154192 5:0.025605 6:-0.0649663 7:-0.640732 8:-0.305884 9:0.0882108 10:-1 11:-1 12:-1 13:-1 14:-1 15:-1 16:1 17:-1 18:-1 19:-1 20:-1 21:-1 22:-1 23:-1 24:-1 25:1 26:-1 27:-1 28:-1 
516096 1:-0.353134 2:0.833092 3:-0.196051 4:-0.0757033 5:-0.0977305 6:0.896132 7:-0.819103 8:-0.188198 9:-0.0702018 10:-1 11:-1 12:-1 13:-1 14:-1 15:-1 16:-1 17:-1 18:-0.333333 19:-1 20:-1 21:-1 22:-1 23:-1 24:-1 25:-1 26:-1 27:0.333333 28:-1 
489663.5414829859 1:-0.0910247 2:0.743869 3:-0.581338 4:-0.0729836 5:0.808545 6:0.0111099 7:-0.665203 8:-0.35956 9:-0.2673 10:-1 11:-1 12:-1 13:-1 14:-1 15:1 16:-1 17:-1 18:-1 19:-1 20:-1 21:-1 22:-1 23:-1 24:-1 25:-1 26:1 27:-1 28:-1 
516096 1:-0.168687 2:0.714693 3:-0.548191 4:-0.503067 5:-0.938216 6:0.143945 7:-0.7084 8:-0.231205 9:-0.0882108 10:-1 11:-1 12:-1 13:-1 14:-1 15:-1 16:-1 17:1 18:-1 19:-1 20:-1 21:-1 22:-1 23:-1 24:-1 25:-1 26:1 27:-1 28:-1 
516096 1:0.156257 2:0.319192 3:-0.73804 4:-0.127344 5:-0.0198205 6:0.374494 7:-1 8:-0.239873 9:-0.304319 10:-1 11:-1 12:-1 13:-1 14:-1 15:1 16:-1 17:-1 18:-1 19:-1 20:-1 21:-1 22:-1 23:-1 24:-1 25:-1 26:1 27:-1 28:-1 
516096 1:-0.825992 2:0.664886 3:-0.351356 4:-0.653811 5:-0.734788 6:-0.0677602 7:-0.60573 8:-0.353892 9:-0.800233 10:-1 11:-1 12:-1 13:-1 14:-1 15:-1 16:-1 17:1 18:-1 19:-1 20:-1 21:-1 22:-1 23:-1 24:-1 25:1 26:-1 27:-1 28:-1 
516096 1:-0.767099 2:0.738903 3:-0.683861 4:-0.506133 5:-0.994305 6:-0.0323232 7:-0.489706 8:0.487581 9:-0.309321 10:-1 11:-1 12:-1 13:-1 14:-1 15:1 16:-1 17:-1 18:-1 19:-1 20:-1 21:-1 22:-1 23:-1 24:-1 25:1 26:-1 27:-1 28:-1 
516096 1:0.199814 2:0.802012 3:-0.820736 4:-0.408136 5:0.11134 6:-0.203585 7:-0.521728 8:0.130522 9:0.122561 10:-1 11:-1 12:-1 13:-1 14:-1 15:-1 16:-1 17:1 18:-1 19:-1 20:-1 21:-1 22:-1 23:-1 24:-1 25:1 26:-1 27:-1 28:-1 
516096 1:0.397094 2:0.362222 3:-0.921959 4:-0.577488 5:0.414383 6:0.0511055 7:-0.776627 8:-0.0731789 9:-0.148908 10:-1 11:-1 12:-1 13:-1 14:-1 15:-1 16:1 17:-1 18:-1 19:-1 20:-1 21:-1 22:-1 23:-1 24:-1 25:-1 26:1 27:-1 28:-1 
-8192 1:0.459342 2:0.621652 3:-0.851031 4:-0.318288 5:-0.969814 6:-0.272541 7:-0.0897904 8:-0.0308385 9:0.125896 10:1 11:-1 12:-1 13:-1 14:-1 15:-1 16:-1 17:-1 18:-1 19:-1 20:1 21:-1 22:-1 23:-1 24:-1 25:-1 26:-1 27:-1 28:-1 
-8192 1:-0.311978 2:0.863679 3:0.680081 4:-0.141552 5:0.820314 6:-0.170495 7:-0.565399 8:-0.327555 9:0.118893 10:-1 11:1 12:-1 13:-1 14:-1 15:-1 16:-1 17:-1 18:-1 19:-1 20:1 21:-1 22:-1 23:-1 24:-1 25:-1 26:-1 27:-1 28:-1 
-8192 1:-0.348152 2:-0.0624255 3:-0.795314 4:-0.142951 5:0.16757 6:0.0967332 7:-1 8:-0.837973 9:0.0798733 10:-1 11:1 12:-1 13:-1 14:-1 15:-1 16:-1 17:-1 18:-1 19:-1 20:1 21:-1 22:-1 23:-1 24:-1 25:-1 26:-1 27:-1 28:-1 
-8192 1:0.42114 2:0.907871 3:-0.919052 4:-0.700007 5:-0.206525 6:0.0124828 7:-0.469387 8:-0.158193 9:-0.0808738 10:-1 11:1 12:-1 13:-1 14:-1 15:-1 16:-1 17:-1 18:-1 19:-1 20:-1 21:-1 22:-1 23:1 24:-1 25:-1 26:-1 27:-1 28:-1 
-8192 1:-0.422059 2:0.153071 3:-0.988833 4:-0.0761465 5:-0.307441 6:0.0445155 7:-0.348728 8:-0.300883 9:-0.222945 10:-1 11:-1 12:-1 13:-1 14:1 15:-1 16:-1 17:-1 18:-1 19:-1 20:-1 21:-1 22:-1 23:1 24:-1 25:-1 26:-1 27:-1 28:-1 
-8192 1:-0.258852 2:0.475508 3:-0.494573 4:-0.352395 5:-0.435883 6:-0.197942 7:-0.493166 8:-0.0438406 9:-0.0625313 10:1 11:-1 12:-1 13:-1 14:-1 15:-1 16:-1 17:-1 18:-1 19:-1 20:1 21:-1 22:-1 23:-1 24:-1 25:-1 26:-1 27:-1 28:-1 
-8192 1:-0.435 2:0.770906 3:0.107386 4:-0.267168 5:-0.0409942 6:-0.0874488 7:-0.856265 8:0.740623 9:-0.974654 10:-1 11:-1 12:-1 13:-1 14:-1 15:-1 16:-1 17:1 18:-1 19:-1 20:-1 21:-1 22:-1 23:-1 24:-1 25:-1 26:1 27:-1 28:-1 
-8192 1:-0.737492 2:0.639084 3:0.0286689 4:-0.133627 5:0.224832 6:-0.0224794 7:-0.572829 8:0.944324 9:-0.37302 10:1 11:-1 12:-1 13:-1 14:-1 15:-1 16:-1 17:-1 18:-1 19:-1 20:1 21:-1 22:-1 23:-1 24:-1 25:-1 26:-1 27:-1 28:-1 
-8192 1:-0.658972 2:0.829768 3:-0.761994 4:-0.446846 5:-0.306591 6:0.106841 7:-0.78603 8:-0.0311719 9:-0.137235 10:1 11:-1 12:-1 13:-1 14:-1 15:-1 16:-1 17:-1 18:-1 19:-1 20:1 21:-1 22:-1 23:-1 24:-1 25:-1 26:-1 27:-1 28:-1 
-8192 1:-0.658972 2:0.829768 3:-0.761994 4:-0.382006 5:-0.666646 6:0.224387 7:-1 8:-0.0311719 9:-0.682841 10:1 11:-1 12:-1 13:-1 14:-1 15:-1 16:-1 17:-1 18:-1 19:-1 20:-1 21:1 22:-1 23:-1 24:-1 25:-1 26:-1 27:-1 28:-1 
-8192 1:-0.658972 2:0.275556 3:0.206521 4:-0.382006 5:-0.415809 6:-0.164133 7:-1 8:-0.68228 9:-0.0315158 10:-1 11:1 12:-1 13:-1 14:-1 15:-1 16:-1 17:-1 18:-1 19:-1 20:1 21:-1 22:-1 23:-1 24:-1 25:-1 26:-1 27:-1 28:-1 
-8192 1:-0.783589 2:0.571033 3:-0.551277 4:-0.460033 5:-0.957982 6:0.119381 7:-0.461334 8:0.0345058 9:0.30732 10:1 11:-1 12:-1 13:-1 14:-1 15:-1 16:-1 17:-1 18:-1 19:-1 20:1 21:-1 22:-1 23:-1 24:-1 25:-1 26:-1 27:-1 28:-1 
-8192 1:-0.263866 2:0.252111 3:-0.715402 4:-0.487194 5:0.675297 6:0.160417 7:-0.822487 8:0.110185 9:-0.410038 10:1 11:-1 12:-1 13:-1 14:-1 15:-1 16:-1 17:-1 18:-1 19:-1 20:-1 21:-1 22:0.333333 23:-1 24:-1 25:-1 26:-1 27:-1 28:-1 
-8192 1:-0.843967 2:0.242767 3:-0.837634 4:-0.476071 5:0.626955 6:-0.131308 7:-0.0504734 8:-0.0101684 9:0.0345173 10:1 11:-1 12:-1 13:-1 14:-1 15:-1 16:-1 17:-1 18:-1 19:-1 20:1 21:-1 22:-1 23:-1 24:-1 25:-1 26:-1 27:-1 28:-1 
-8192 1:0.256321 2:0.497235 3:-0.990466 4:-0.260451 5:-1 6:0.161398 7:-0.483329 8:-0.0118353 9:-0.18726 10:1 11:-1 12:-1 13:-1 14:-1 15:-1 16:-1 17:-1 18:-1 19:-1 20:1 21:-1 22:-1 23:-1 24:-1 25:-1 26:-1 27:-1 28:-1 
-8192 1:0.440587 2:0.645086 3:-0.9473 4:-0.542758 5:-0.199392 6:0.021613 7:-0.481232 8:-0.191532 9:0.118559 10:1 11:-1 12:-1 13:-1 14:-1 15:-1 16:-1 17:-1 18:-1 19:-1 20:1 21:-1 22:-1 23:-1 24:-1 25:-1 26:-1 27:-1 28:-1 
-8192 1:0.0148219 2:0.276407 3:-0.938791 4:-0.361865 5:-0.31832 6:-0.143295 7:-0.243532 8:-0.856309 9:-0.819576 10:-1 11:-1 12:-1 13:1 14:-1 15:-1 16:-1 17:-1 18:-1 19:-1 20:-1 21:-1 22:-1 23:1 24:-1 25:-1 26:-1 27:-1 28:-1 
-8192 1:0.0148219 2:0.276407 3:-0.938791 4:-0.361865 5:-0.619101 6:-0.123418 7:-0.471885 8:-0.856309 9:-0.805236 10:-1 11:-1 12:-1 13:1 14:-1 15:-1 16:-1 17:-1 18:-1 19:-1 20:-1 21:1 22:-1 23:-1 24:-1 25:-1 26:-1 27:-1 28:-1 
-8192 1:0.0148219 2:0.276407 3:-0.938791 4:-0.417264 5:-0.679291 6:-0.150168 7:-0.243532 8:-0.856309 9:-0.302651 10:-1 11:-1 12:-1 13:1 14:-1 15:-1 16:-1 17:-1 18:-1 19:-1 20:1 21:-1 22:-1 23:-1 24:-1 25:-1 26:-1 27:-1 28:-1 
-8192 1:0.0148219 2:0.414994 3:-0.914981 4:-0.361865 5:-0.31832 6:-0.115894 7:-0.329899 8:-0.47758 9:-0.819576 10:-1 11:-1 12:-1 13:1 14:-1 15:-1 16:-1 17:-1 18:-1 19:-1 20:-1 21:-1 22:-1 23:1 24:-1 25:-1 26:-1 27:-1 28:-1 
-8192 1:0.0148219 2:0.414994 3:-0.914981 4:-0.417264 5:-0.679291 6:-0.122095 7:-0.329899 8:-0.47758 9:-0.302651 10:-1 11:-1 12:-1 13:1 14:-1 15:-1 16:-1 17:-1 18:-1 19:-1 20:1 21:-1 22:-1 23:-1 24:-1 25:-1 26:-1 27:-1 28:-1 
-8192 1:0.0148219 2:0.475178 3:-0.915038 4:-0.361865 5:-0.31832 6:-0.114783 7:-0.378077 8:-0.0291715 9:-0.819576 10:-1 11:-1 12:-1 13:1 14:-1 15:-1 16:-1 17:-1 18:-1 19:-1 20:-1 21:-1 22:-1 23:1 24:-1 25:-1 26:-1 27:-1 28:-1 
-8192 1:0.0148219 2:0.475178 3:-0.915038 4:-0.417264 5:-0.679291 6:-0.12054 7:-0.378077 8:-0.0291715 9:-0.302651 10:-1 11:-1 12:-1 13:1 14:-1 15:-1 16:-1 17:-1 18:-1 19:-1 20:1 21:-1 22:-1 23:-1 24:-1 25:-1 26:-1 27:-1 28:-1 
-8192 1:0.342411 2:0.901368 3:-0.892086 4:-0.574229 5:0.184735 6:0.0388883 7:-0.677156 8:0.0531755 9:-0.0255128 10:-1 11:1 12:-1 13:-1 14:-1 15:-1 16:-1 17:-1 18:-1 19:-1 20:-1 21:1 22:-1 23:-1 24:-1 25:-1 26:-1 27:-1 28:-1 
-8192 1:0.476965 2:0.618438 3:-0.898948 4:-0.149798 5:-1 6:-0.0261003 7:-0.546324 8:-0.474246 9:-0.17292 10:-1 11:-1 12:-1 13:-1 14:-1 15:1 16:-1 17:-1 18:-1 19:-1 20:-1 21:-1 22:-1 23:-1 24:-1 25:-1 26:1 27:-1 28:-1 
-8192 1:-0.385181 2:-0.188397 3:-0.120641 4:-0.0793442 5:-0.27395 6:0.22331 7:-0.945983 8:-0.607935 9:-0.741204 10:-1 11:1 12:-1 13:-1 14:-1 15:-1 16:-1 17:-1 18:-1 19:-1 20:-1 21:1 22:-1 23:-1 24:-1 25:-1 26:-1 27:-1 28:-1 
-8192 1:0.399441 2:0.765464 3:-0.903849 4:-0.525094 5:0.253391 6:0.12761 7:-0.682947 8:0.164194 9:0.16058 10:1 11:-1 12:-1 13:-1 14:-1 15:-1 16:-1 17:-1 18:-1 19:-1 20:-1 21:-1 22:-1 23:1 24:-1 25:-1 26:-1 27:-1 28:-1 
-8192 1:0.399441 2:0.765464 3:-0.903849 4:-0.84965 5:0.856877 6:0.12761 7:-0.682947 8:0.164194 9:-0.252626 10:1 11:-1 12:-1 13:-1 14:-1 15:-1 16:-1 17:-1 18:-1 19:-1 20:-1 21:-1 22:-1 23:1 24:-1 25:-1 26:-1 27:-1 28:-1 
-8192 1:-0.0725586 2:0.837805 3:-0.730852 4:-0.787017 5:-0.860283 6:0.324933 7:-0.26617 8:-0.355893 9:-0.0281808 10:-1 11:-1 12:-1 13:1 14:-1 15:-1 16:-1 17:-1 18:-1 19:-1 20:1 21:-1 22:-1 23:-1 24:-1 25:-1 26:-1 27:-1 28:-1 
-8192 1:-0.0725586 2:0.837805 3:-0.730852 4:-0.7444 5:0.444429 6:0.345045 7:-0.26617 8:-0.355893 9:-0.0511923 10:-1 11:-1 12:-1 13:1 14:-1 15:-1 16:-1 17:-1 18:-1 19:-1 20:-1 21:-1 22:-1 23:1 24:-1 25:-1 26:-1 27:-1 28:-1 
-8192 1:0.164802 2:0.379404 3:-0.6646 4:-0.653126 5:-0.971584 6:0.133793 7:-1 8:-0.423237 9:-0.00316825 10:-1 11:1 12:-1 13:-1 14:-1 15:-1 16:-1 17:-1 18:-1 19:-1 20:1 21:-1 22:-1 23:-1 24:-1 25:-1 26:-1 27:-1 28:-1 
-8192 1:0.452706 2:0.403902 3:-0.945086 4:-0.855187 5:0.537404 6:0.12711 7:-0.643033 8:-0.190865 9:-0.203602 10:1 11:-1 12:-1 13:-1 14:-1 15:-1 16:-1 17:-1 18:-1 19:-1 20:1 21:-1 22:-1 23:-1 24:-1 25:-1 26:-1 27:-1 28:-1 
-8192 1:-0.09702 2:0.488175 3:-0.69938 4:-0.246877 5:-0.107545 6:0.367324 7:-0.699478 8:-0.42257 9:0.298316 10:-1 11:-1 12:-1 13:1 14:-1 15:-1 16:-1 17:-1 18:-1 19:-1 20:1 21:-1 22:-1 23:-1 24:-1 25:-1 26:-1 27:-1 28:-1 
-8192 1:-0.136032 2:-0.0208464 3:-0.966063 4:-0.517797 5:-0.999645 6:0.079804 7:-0.819793 8:-0.267211 9:-0.345339 10:-1 11:1 12:-1 13:-1 14:-1 15:-1 16:-1 17:-1 18:-1 19:-1 20:1 21:-1 22:-1 23:-1 24:-1 25:-1 26:-1 27:-1 28:-1 
-8192 1:-0.136032 2:-0.0543251 3:-0.96731 4:-0.517797 5:-0.999645 6:0.079665 7:-0.817758 8:-0.467578 9:-0.345339 10:-1 11:1 12:-1 13:-1 14:-1 15:-1 16:-1 17:-1 18:-1 19:-1 20:1 21:-1 22:-1 23:-1 24:-1 25:-1 26:-1 27:-1 28:-1 
-8192 1:0.0292129 2:0.547779 3:-0.84959 4:-0.476299 5:-0.515317 6:0.253271 7:-0.876825 8:0.0828471 9:0.0361848 10:-1 11:-1 12:-1 13:-1 14:1 15:-1 16:-1 17:-1 18:-1 19:-1 20:-1 21:1 22:-1 23:-1 24:-1 25:-1 26:-1 27:-1 28:-1 
-8192 1:0.0279968 2:0.274172 3:-0.950548 4:0.0560974 5:-0.0990686 6:-0.0585443 7:-0.222523 8:-0.125521 9:-0.0748708 10:1 11:-1 12:-1 13:-1 14:-1 15:-1 16:-1 17:-1 18:-1 19:-1 20:1 21:-1 22:-1 23:-1 24:-1 25:-1 26:-1 27:-1 28:-1 
-8192 1:0.0279968 2:0.509618 3:-0.935991 4:0.0560974 5:-0.0990686 6:-0.039159 7:-0.358371 8:-0.426571 9:-0.0748708 10:-1 11:-1 12:-1 13:1 14:-1 15:-1 16:-1 17:-1 18:-1 19:-1 20:1 21:-1 22:-1 23:-1 24:-1 25:-1 26:-1 27:-1 28:-1 
-8192 1:0.0279968 2:0.492845 3:-0.938051 4:0.0560974 5:-0.0990686 6:-0.0416978 7:-0.358371 8:-0.772962 9:-0.0748708 10:-1 11:-1 12:-1 13:1 14:-1 15:-1 16:-1 17:-1 18:-1 19:-1 20:1 21:-1 22:-1 23:-1 24:-1 25:-1 26:-1 27:-1 28:-1 
-8192 1:0.0585282 2:0.34842 3:-0.713893 4:-0.143932 5:-0.44979 6:0.399672 7:-0.702923 8:0.0885148 9:-0.28731 10:-1 11:-1 12:-1 13:1 14:-1 15:-1 16:-1 17:-1 18:-1 19:-1 20:1 21:-1 22:-1 23:-1 24:-1 25:-1 26:-1 27:-1 28:-1 
-8192 1:-0.0557887 2:0.577689 3:0.706851 4:-0.259236 5:-0.648669 6:-0.0182663 7:-0.736661 8:-0.144191 9:-0.488077 10:1 11:-1 12:-1 13:-1 14:-1 15:-1 16:-1 17:-1 18:-1 19:-1 20:-1 21:1 22:-1 23:-1 24:-1 25:-1 26:-1 27:-1 28:-1 
-8192 1:-0.618773 2:0.555605 3:-0.254998 4:-0.553331 5:-0.93264 6:0.113987 7:-0.568678 8:-0.0448408 9:-0.576455 10:1 11:-1 12:-1 13:-1 14:-1 15:-1 16:-1 17:-1 18:-1 19:-1 20:-1 21:1 22:-1 23:-1 24:-1 25:-1 26:-1 27:-1 28:-1 
-8192 1:0.208081 2:0.214258 3:-0.949358 4:0.237575 5:-0.998436 6:-0.0914621 7:-0.805348 8:-0.110852 9:-0.924629 10:-1 11:-1 12:-1 13:-1 14:-1 15:1 16:-1 17:-1 18:-1 19:-1 20:-1 21:-1 22:-1 23:-1 24:-1 25:-1 26:-1 27:0.333333 28:-1 
-8192 1:-0.572124 2:0.542965 3:0.84846 4:-0.327883 5:0.608086 6:0.254313 7:-0.881594 8:0.236873 9:0.0725363 10:1 11:-1 12:-1 13:-1 14:-1 15:-1 16:-1 17:-1 18:-1 19:-1 20:1 21:-1 22:-1 23:-1 24:-1 25:-1 26:-1 27:-1 28:-1 
-8192 1:0.120285 2:0.566145 3:-0.2817 4:0.291258 5:-0.988902 6:-0.10621 7:-0.544139 8:0.0718453 9:-0.0698683 10:1 11:-1 12:-1 13:-1 14:-1 15:-1 16:-1 17:-1 18:-1 19:-1 20:-1 21:-1 22:-1 23:1 24:-1 25:-1 26:-1 27:-1 28:-1 
-8192 1:0.120285 2:0.566145 3:-0.2817 4:-0.51919 5:-0.989656 6:-0.131047 7:-0.544139 8:0.0718453 9:-0.273303 10:1 11:-1 12:-1 13:-1 14:-1 15:-1 16:-1 17:-1 18:-1 19:-1 20:1 21:-1 22:-1 23:-1 24:-1 25:-1 26:-1 27:-1 28:-1 
-8192 1:0.120285 2:0.375648 3:-0.899635 4:-0.378603 5:0.290917 6:0.079449 7:-0.544139 8:-0.749958 9:0.136235 10:1 11:-1 12:-1 13:-1 14:-1 15:-1 16:-1 17:-1 18:-1 19:-1 20:1 21:-1 22:-1 23:-1 24:-1 25:-1 26:-1 27:-1 28:-1 
-8192 1:0.120285 2:0.375648 3:-0.899635 4:-0.543725 5:0.0936442 6:0.0748623 7:-0.544139 8:-0.749958 9:0.481407 10:1 11:-1 12:-1 13:-1 14:-1 15:-1 16:-1 17:-1 18:-1 19:-1 20:1 21:-1 22:-1 23:-1 24:-1 25:-1 26:-1 27:-1 28:-1 
-8192 1:0.120285 2:0.375648 3:-0.899635 4:-0.51919 5:0.874624 6:0.0735561 7:-0.544139 8:-0.749958 9:-0.864265 10:1 11:-1 12:-1 13:-1 14:-1 15:-1 16:-1 17:-1 18:-1 19:-1 20:1 21:-1 22:-1 23:-1 24:-1 25:-1 26:-1 27:-1 28:-1 
-8192 1:0.40644 2:0.666068 3:-0.776136 4:0.396609 5:0.812688 6:-0.0180754 7:-0.787668 8:-0.118853 9:-0.0101718 10:1 11:-1 12:-1 13:-1 14:-1 15:-1 16:-1 17:-1 18:-1 19:-1 20:1 21:-1 22:-1 23:-1 24:-1 25:-1 26:-1 27:-1 28:-1 
-8192 1:-0.840237 2:0.482089 3:-0.313517 4:-0.608695 5:-0.913749 6:0.211555 7:-1 8:-0.0685114 9:-0.688177 10:1 11:-1 12:-1 13:-1 14:-1 15:-1 16:-1 17:-1 18:-1 19:-1 20:-1 21:1 22:-1 23:-1 24:-1 25:-1 26:-1 27:-1 28:-1 
-8192 1:-0.840237 2:0.482089 3:-0.313517 4:-0.259343 5:-0.678933 6:0.219943 7:-0.751867 8:-0.0685114 9:-0.29398 10:1 11:-1 12:-1 13:-1 14:-1 15:-1 16:-1 17:-1 18:-1 19:-1 20:-1 21:-1 22:-1 23:1 24:-1 25:-1 26:-1 27:-1 28:-1 
-8192 1:-0.840237 2:0.482089 3:-0.313517 4:-0.259343 5:-0.5015 6:0.221285 7:-0.751867 8:-0.0685114 9:-0.135901 10:1 11:-1 12:-1 13:-1 14:-1 15:-1 16:-1 17:-1 18:-1 19:-1 20:-1 21:-1 22:-1 23:1 24:-1 25:-1 26:-1 27:-1 28:-1 
-8192 1:-0.840237 2:0.482089 3:-0.313517 4:-0.464055 5:-0.855486 6:0.204221 7:-0.751867 8:-0.0685114 9:-0.448057 10:1 11:-1 12:-1 13:-1 14:-1 15:-1 16:-1 17:-1 18:-1 19:-1 20:-1 21:-1 22:-1 23:1 24:-1 25:-1 26:-1 27:-1 28:-1 
-8192 1:-0.840237 2:0.482089 3:-0.313517 4:-0.464055 5:-0.627147 6:0.205563 7:-0.751867 8:-0.0685114 9:-0.269635 10:1 11:-1 12:-1 13:-1 14:-1 15:-1 16:-1 17:-1 18:-1 19:-1 20:-1 21:-1 22:-1 23:1 24:-1 25:-1 26:-1 27:-1 28:-1 
-8192 1:-0.840237 2:0.844786 3:0.600727 4:-0.608695 5:-0.90774 6:0.12464 7:-1 8:-0.687615 9:-0.0688678 10:-1 11:1 12:-1 13:-1 14:-1 15:-1 16:-1 17:-1 18:-1 19:-1 20:1 21:-1 22:-1 23:-1 24:-1 25:-1 26:-1 27:-1 28:-1 
-8192 1:0.118087 2:0.832427 3:-0.528437 4:-0.38991 5:-0.091114 6:-0.157918 7:-0.664748 8:-0.135856 9:-0.332333 10:-1 11:1 12:-1 13:-1 14:-1 15:-1 16:-1 17:-1 18:-1 19:-1 20:-1 21:-1 22:-1 23:1 24:-1 25:-1 26:-1 27:-1 28:-1 
-8192 1:0.118087 2:0.832427 3:-0.528437 4:-0.38991 5:-0.997165 6:-0.170703 7:-0.832448 8:-0.135856 9:0.0912123 10:-1 11:1 12:-1 13:-1 14:-1 15:-1 16:-1 17:-1 18:-1 19:-1 20:-1 21:1 22:-1 23:-1 24:-1 25:-1 26:-1 27:-1 28:-1 
-8192 1:0.118087 2:0.832427 3:-0.528437 4:-0.517847 5:0.17517 6:-0.175708 7:-0.664748 8:-0.135856 9:-0.195931 10:-1 11:1 12:-1 13:-1 14:-1 15:-1 16:-1 17:-1 18:-1 19:-1 20:1 21:-1 22:-1 23:-1 24:-1 25:-1 26:-1 27:-1 28:-1 
-8192 1:0.684188 2:0.704496 3:-0.990538 4:-0.20446 5:0.459894 6:-0.110172 7:-0.319492 8:-0.412902 9:0.0868768 10:-1 11:1 12:-1 13:-1 14:-1 15:-1 16:-1 17:-1 18:-1 19:-1 20:1 21:-1 22:-1 23:-1 24:-1 25:-1 26:-1 27:-1 28:-1 
-8192 1:-0.232854 2:0.585598 3:-0.408124 4:0.13319 5:0.387373 6:-0.00788852 7:-0.540377 8:-0.0101684 9:-0.360347 10:-1 11:-1 12:-1 13:-1 14:-1 15:-1 16:-1 17:1 18:-1 19:-1 20:-1 21:-1 22:-1 23:-1 24:-1 25:-1 26:1 27:-1 28:-1 
-8192 1:-0.008242 2:0.257593 3:-0.450822 4:0.332151 5:-0.229111 6:-0.0209028 7:-0.294215 8:-0.752625 9:-0.0148408 10:-1 11:1 12:-1 13:-1 14:-1 15:-1 16:-1 17:-1 18:-1 19:-1 20:1 21:-1 22:-1 23:-1 24:-1 25:-1 26:-1 27:-1 28:-1 
-8192 1:-0.167225 2:0.648326 3:-0.965624 4:-0.393082 5:0.0235808 6:-0.045939 7:-0.354349 8:-0.0668445 9:0.180924 10:1 11:-1 12:-1 13:-1 14:-1 15:-1 16:-1 17:-1 18:-1 19:-1 20:1 21:-1 22:-1 23:-1 24:-1 25:-1 26:-1 27:-1 28:-1 
-8192 1:0.574843 2:0.399535 3:-0.989666 4:-0.0177798 5:-0.0362258 6:-0.0228821 7:-0.393246 8:0.0895149 9:-0.158913 10:1 11:-1 12:-1 13:-1 14:-1 15:-1 16:-1 17:-1 18:-1 19:-1 20:-1 21:1 22:-1 23:-1 24:-1 25:-1 26:-1 27:-1 28:-1 
-8192 1:0.32946 2:0.720803 3:-0.52971 4:-0.527686 5:-0.453802 6:0.35532 7:-0.959208 8:-0.753292 9:0.874937 10:1 11:-1 12:-1 13:-1 14:-1 15:-1 16:-1 17:-1 18:-1 19:-1 20:-1 21:1 22:-1 23:-1 24:-1 25:-1 26:-1 27:-1 28:-1 
-8192 1:0.32946 2:0.557504 3:-0.710279 4:-0.527686 5:-0.709198 6:0.37418 7:-0.959208 8:-0.326221 9:0.0275138 10:1 11:-1 12:-1 13:-1 14:-1 15:-1 16:-1 17:-1 18:-1 19:-1 20:-1 21:1 22:-1 23:-1 24:-1 25:-1 26:-1 27:-1 28:-1 
-8192 1:-0.662567 2:0.700177 3:-0.283033 4:-0.499444 5:0.12107 6:0.277937 7:-0.752764 8:0.0955159 9:0.110222 10:-1 11:1 12:-1 13:-1 14:-1 15:-1 16:-1 17:-1 18:-1 19:-1 20:1 21:-1 22:-1 23:-1 24:-1 25:-1 26:-1 27:-1 28:-1 
-8192 1:-0.662567 2:0.700177 3:-0.283033 4:-0.636377 5:-0.88088 6:0.227591 7:-0.752764 8:0.0955159 9:-0.563782 10:-1 11:1 12:-1 13:-1 14:-1 15:-1 16:-1 17:-1 18:-1 19:-1 20:1 21:-1 22:-1 23:-1 24:-1 25:-1 26:-1 27:-1 28:-1 
-8192 1:-0.0965186 2:0.453319 3:-0.685216 4:-0.555554 5:-1 6:0.271253 7:-1 8:-0.126854 9:-0.0131733 10:1 11:-1 12:-1 13:-1 14:-1 15:-1 16:-1 17:-1 18:-1 19:-1 20:-1 21:-1 22:-1 23:1 24:-1 25:-1 26:-1 27:-1 28:-1 
-8192 1:-0.831652 2:0.500001 3:-0.760296 4:-0.498069 5:0.729457 6:0.0536941 7:-0.650268 8:0.115519 9:-0.0942138 10:1 11:-1 12:-1 13:-1 14:-1 15:-1 16:-1 17:-1 18:-1 19:-1 20:1 21:-1 22:-1 23:-1 24:-1 25:-1 26:-1 27:-1 28:-1 
-8192 1:0.694205 2:0.86082 3:-0.895455 4:-0.802731 5:0.191974 6:0.077436 7:-0.569375 8:-0.816636 9:-0.243622 10:-1 11:1 12:-1 13:-1 14:-1 15:-1 16:-1 17:-1 18:-1 19:-1 20:1 21:-1 22:-1 23:-1 24:-1 25:-1 26:-1 27:-1 28:-1 
-8192 1:0.0473483 2:0.620096 3:-0.579947 4:-0.655798 5:-0.644087 6:0.0542482 7:-0.587243 8:0.0618436 9:0.148908 10:1 11:-1 12:-1 13:-1 14:-1 15:-1 16:-1 17:-1 18:-1 19:-1 20:1 21:-1 22:-1 23:-1 24:-1 25:-1 26:-1 27:-1 28:-1 
-8192 1:0.256951 2:-0.159559 3:-0.965715 4:-0.177502 5:0.343573 6:0.116677 7:-0.788885 8:-0.213869 9:-0.0245123 10:-1 11:1 12:-1 13:-1 14:-1 15:-1 16:-1 17:-1 18:-1 19:-1 20:1 21:-1 22:-1 23:-1 24:-1 25:-1 26:-1 27:-1 28:-1 
-8192 1:-0.463173 2:0.563872 3:-0.221194 4:-0.676722 5:-0.931096 6:0.281405 7:-0.798636 8:0.0101684 9:-0.860597 10:1 11:-1 12:-1 13:-1 14:-1 15:-1 16:-1 17:-1 18:-1 19:-1 20:1 21:-1 22:-1 23:-1 24:-1 25:-1 26:-1 27:-1 28:-1 
-8192 1:-0.463173 2:-0.0822609 3:-0.531768 4:-0.676722 5:0.542399 6:0.223149 7:-0.798636 8:-0.859977 9:0.00983825 10:1 11:-1 12:-1 13:-1 14:-1 15:-1 16:-1 17:-1 18:-1 19:-1 20:1 21:-1 22:-1 23:-1 24:-1 25:-1 26:-1 27:-1 28:-1 
-8192 1:-0.225173 2:0.769076 3:-0.110375 4:-0.692692 5:0.794794 6:0.445855 7:-0.925461 8:-0.338223 9:-0.121894 10:1 11:-1 12:-1 13:-1 14:-1 15:-1 16:-1 17:-1 18:-1 19:-1 20:1 21:-1 22:-1 23:-1 24:-1 25:-1 26:-1 27:-1 28:-1 
-8192 1:-0.144567 2:0.422466 3:-0.986279 4:0.267701 5:0.361039 6:0.0648402 7:-0.893163 8:-0.406568 9:-0.0498583 10:-1 11:-1 12:-1 13:-1 14:1 15:-1 16:-1 17:-1 18:-1 19:-1 20:1 21:-1 22:-1 23:-1 24:-1 25:-1 26:-1 27:-1 28:-1 
-8192 1:-0.101063 2:0.487777 3:-0.218294 4:-0.134461 5:-0.22607 6:0.13252 7:-0.795842 8:-0.0798466 9:0.4007 10:1 11:-1 12:-1 13:-1 14:-1 15:-1 16:-1 17:-1 18:-1 19:-1 20:-1 21:1 22:-1 23:-1 24:-1 25:-1 26:-1 27:-1 28:-1 
-8192 1:-0.554298 2:0.558521 3:-0.553267 4:-0.412118 5:-0.921993 6:-0.0454575 7:-0.419617 8:0.00450075 9:-0.0418543 10:1 11:-1 12:-1 13:-1 14:-1 15:-1 16:-1 17:-1 18:-1 19:-1 20:1 21:-1 22:-1 23:-1 24:-1 25:-1 26:-1 27:-1 28:-1 
-8192 1:-0.0686222 2:0.328326 3:-0.158171 4:-0.560627 5:-0.222274 6:0.0862181 7:-0.536662 8:0.355893 9:-0.0668668 10:-1 11:-1 13:-1 14:-1 15:-1 16:-1 17:-1 18:-1 19:-1 20:1 21:-1 22:-1 23:-1 24:-1 25:-1 26:-1 27:-1 28:-1 
-8192 1:-0.639143 2:0.693218 3:-0.837728 4:-0.373721 5:-0.666748 6:-0.0071991 7:-0.487953 8:-0.201534 9:0.0101718 10:1 11:-1 12:-1 13:-1 14:-1 15:-1 16:-1 17:-1 18:-1 19:-1 20:-1 21:1 22:-1 23:-1 24:-1 25:-1 26:-1 27:-1 28:-1 
-8192 1:-0.945058 2:0.470555 3:-0.408645 4:-0.478777 5:0.402536 6:-0.115881 7:-0.439222 8:0.062177 9:0.0595298 10:1 11:-1 12:-1 13:-1 14:-1 15:-1 16:-1 17:-1 18:-1 19:-1 20:-1 21:1 22:-1 23:-1 24:-1 25:-1 26:-1 27:-1 28:-1 
-8192 1:0.122215 2:0.599384 3:-0.270181 4:-0.710581 5:-0.810997 6:0.257539 7:-0.783095 8:0.226871 9:0.650825 10:-1 11:1 12:-1 13:-1 14:-1 15:-1 16:-1 17:-1 18:-1 19:-1 20:1 21:-1 22:-1 23:-1 24:-1 25:-1 26:-1 27:-1 28:-1 
-8192 1:0.122215 2:0.633766 3:-0.230961 4:-0.708553 5:-0.790998 6:0.296707 7:-0.783095 8:-0.405901 9:0.650825 10:-1 11:1 12:-1 13:-1 14:-1 15:-1 16:-1 17:-1 18:-1 19:-1 20:1 21:-1 22:-1 23:-1 24:-1 25:-1 26:-1 27:-1 28:-1 
-8192 1:-0.426604 2:0.556048 3:-0.301761 4:-0.509013 5:-0.166438 6:0.0737814 7:-0.66805 8:0.896649 9:0.20627 10:-1 11:1 12:-1 13:-1 14:-1 15:-1 16:-1 17:-1 18:-1 19:-1 20:1 21:-1 22:-1 23:-1 24:-1 25:-1 26:-1 27:-1 28:-1 
-8192 1:0.449474 2:0.658519 3:-0.829881 4:-0.702457 5:-0.968946 6:-0.402197 7:-0.735432 8:0.658943 9:0.829581 10:-1 11:-1 12:-1 13:-1 14:-1 15:-1 16:-1 17:1 18:-1 19:-1 20:-1 21:-1 22:-1 23:-1 24:-1 25:-1 26:1 27:-1 28:-1 
-8192 1:-0.055778 2:0.255997 3:-0.942697 4:0.010061 5:-0.37449 6:0.790084 7:-0.78912 8:-0.111185 9:-0.191929 10:-1 11:-1 12:1 13:-1 14:-1 15:-1 16:-1 17:-1 18:-1 19:-1 20:-1 21:-1 22:-1 23:1 24:-1 25:-1 26:-1 27:-1 28:-1 
-8192 1:0.106086 2:0.114388 3:-0.895711 4:-0.32801 5:-0.065202 6:0.108326 7:-0.684911 8:0.276879 9:-0.642488 10:1 11:-1 12:-1 13:-1 14:-1 15:-1 16:-1 17:-1 18:-1 19:-1 20:1 21:-1 22:-1 23:-1 24:-1 25:-1 26:-1 27:-1 28:-1 
-8192 1:-0.427425 2:0.27365 3:-0.940053 4:0.145077 5:0.0639599 6:-0.115617 7:-0.154374 8:-0.738623 9:0.195598 10:1 11:-1 12:-1 13:-1 14:-1 15:-1 16:-1 17:-1 18:-1 19:-1 20:1 21:-1 22:-1 23:-1 24:-1 25:-1 26:-1 27:-1 28:-1 
-8192 1:-0.600048 2:0.98848 3:0.45536 4:-0.526174 5:-0.447343 6:0.220403 7:-0.95545 8:0.33789 9:-0.290312 10:-1 11:-1 12:-1 13:-1 14:-1 15:-1 16:-1 17:1 18:-1 19:-1 20:-1 21:-1 22:-1 23:-1 24:-1 25:-1 26:1 27:-1 28:-1 
-8192 1:-0.677466 2:0.455403 3:-0.152027 4:-0.374251 5:-0.362435 6:-0.0795162 7:-0.625978 8:0.153192 9:0.0588628 10:1 11:-1 12:-1 13:-1 14:-1 15:-1 16:-1 17:-1 18:-1 19:-1 20:-1 21:1 22:-1 23:-1 24:-1 25:-1 26:-1 27:-1 28:-1 
-8192 1:0.388646 2:0.79529 3:-0.836773 4:-0.673859 5:-0.999209 6:-0.0117224 7:-0.272179 8:-0.378563 9:0.396365 10:1 11:-1 12:-1 13:-1 14:-1 15:-1 16:-1 17:-1 18:-1 19:-1 20:1 21:-1 22:-1 23:-1 24:-1 25:-1 26:-1 27:-1 28:-1 
-8192 1:-0.445625 2:0.452524 3:-0.218867 4:0.318109 5:0.715738 6:-0.184846 7:-0.0913916 8:-0.202867 9:-0.193597 10:1 11:-1 12:-1 13:-1 14:-1 15:-1 16:-1 17:-1 18:-1 19:-1 20:-1 21:1 22:-1 23:-1 24:-1 25:-1 26:-1 27:-1 28:-1 
-8192 1:-0.268783 2:0.981214 3:-0.242459 4:-0.585384 5:0.215398 6:-0.262987 7:-0.105538 8:-0.198533 9:0.380023 10:-1 11:1 12:-1 13:-1 14:-1 15:-1 16:-1 17:-1 18:-1 19:-1 20:1 21:-1 22:-1 23:-1 24:-1 25:-1 26:-1 27:-1 28:-1 
-8192 1:-0.268783 2:0.998424 3:-0.323889 4:-0.585384 5:0.215398 6:-0.273348 7:-0.0913916 8:-0.112852 9:0.380023 10:-1 11:1 12:-1 13:-1 14:-1 15:-1 16:-1 17:-1 18:-1 19:-1 20:1 21:-1 22:-1 23:-1 24:-1 25:-1 26:-1 27:-1 28:-1 
-8192 1:0.218322 2:0.423139 3:-0.647583 4:-0.588232 5:0.810959 6:0.192127 7:-0.890256 8:-0.121854 9:-0.512423 10:-1 11:-1 12:-1 13:-1 14:-1 15:1 16:-1 17:-1 18:-1 19:-1 20:-1 21:-1 22:-1 23:-1 24:-1 25:-1 26:1 27:-1 28:-1 
-8192 1:0.678918 2:0.719713 3:-0.969826 4:-0.451718 5:0.768038 6:0.0211717 7:-0.487048 8:-0.00583431 9:0.396031 10:1 11:-1 12:-1 13:-1 14:-1 15:-1 16:-1 17:-1 18:-1 19:-1 20:1 21:-1 22:-1 23:-1 24:-1 25:-1 26:-1 27:-1 28:-1 
-8192 1:-0.0391148 2:0.792158 3:-0.806863 4:-0.486474 5:-0.842765 6:0.339877 7:-1 8:0.252542 9:0.617809 10:1 11:-1 12:-1 13:-1 14:-1 15:-1 16:-1 17:-1 18:-1 19:-1 20:1 21:-1 22:-1 23:-1 24:-1 25:-1 26:-1 27:-1 28:-1 
-8192 1:-0.0391148 2:0.792158 3:-0.806863 4:-0.548117 5:-0.5561 6:0.326494 7:-1 8:0.252542 9:0.104552 10:1 11:-1 12:-1 13:-1 14:-1 15:-1 16:-1 17:-1 18:-1 19:-1 20:1 21:-1 22:-1 23:-1 24:-1 25:-1 26:-1 27:-1 28:-1 
-8192 1:-0.0391148 2:0.879504 3:0.532102 4:-0.548117 5:0.682826 6:-0.213071 7:-1 8:0.104851 9:0.252293 10:1 11:-1 12:-1 13:-1 14:-1 15:-1 16:-1 17:-1 18:-1 19:-1 20:1 21:-1 22:-1 23:-1 24:-1 25:-1 26:-1 27:-1 28:-1 
-8192 1:0.494375 2:0.220592 3:-0.996992 4:-0.0911444 5:-0.0722766 6:0.140411 7:-0.516214 8:-0.0721787 9:0.0471903 10:1 11:-1 12:-1 13:-1 14:-1 15:-1 16:-1 17:-1 18:-1 19:-1 20:1 21:-1 22:-1 23:-1 24:-1 25:-1 26:-1 27:-1 28:-1 
-8192 1:0.277646 2:0.694981 3:-0.995095 4:-0.0911009 5:-1 6:-0.0856425 7:-0.287892 8:0.231872 9:-0.441721 10:1 11:-1 12:-1 13:-1 14:-1 15:-1 16:-1 17:-1 18:-1 19:-1 20:1 21:-1 22:-1 23:-1 24:-1 25:-1 26:-1 27:-1 28:-1 
-8192 1:-0.0268468 2:2.00047e-05 3:-0.968347 4:-0.76648 5:-0.353462 6:0.296463 7:-0.955894 8:-0.540257 9:-0.573787 10:1 11:-1 12:-1 13:-1 14:-1 15:-1 16:-1 17:-1 18:-1 19:-1 20:-1 21:1 22:-1 23:-1 24:-1 25:-1 26:-1 27:-1 28:-1 
-8192 1:-0.444089 2:0.380466 3:-0.599913 4:-0.241911 5:-0.0336876 6:0.29129 7:-1 8:0.0605101 9:-0.352676 10:1 11:-1 12:-1 13:-1 14:-1 15:-1 16:-1 17:-1 18:-1 19:-1 20:-1 21:1 22:-1 23:-1 24:-1 25:-1 26:-1 27:-1 28:-1 
-8192 1:-0.444089 2:0.380466 3:-0.599913 4:-0.241911 5:-0.0676582 6:0.286484 7:-0.935099 8:0.0605101 9:-0.991329 10:1 11:-1 12:-1 13:-1 14:-1 15:-1 16:-1 17:-1 18:-1 19:-1 20:-1 21:1 22:-1 23:-1 24:-1 25:-1 26:-1 27:-1 28:-1 
-8192 1:-0.444089 2:0.129928 3:-0.852898 4:-0.646368 5:-0.329548 6:0.182012 7:-0.806521 8:0.455909 9:0.218276 10:1 11:-1 12:-1 13:-1 14:-1 15:-1 16:-1 17:-1 18:-1 19:-1 20:1 21:-1 22:-1 23:-1 24:-1 25:-1 26:-1 27:-1 28:-1 
-8192 1:-0.444089 2:0.834319 3:0.550413 4:-0.646368 5:0.237739 6:-0.0461837 7:-0.806521 8:0.218536 9:0.455728 10:1 11:-1 12:-1 13:-1 14:-1 15:-1 16:-1 17:-1 18:-1 19:-1 20:1 21:-1 22:-1 23:-1 24:-1 25:-1 26:-1 27:-1 28:-1 
-8192 1:-0.444089 2:0.834319 3:0.550413 4:-0.0431181 5:-0.579904 6:-0.0212888 7:-0.806521 8:0.218536 9:-0.664832 10:1 11:-1 12:-1 13:-1 14:-1 15:-1 16:-1 17:-1 18:-1 19:-1 20:-1 21:-1 22:-1 23:1 24:-1 25:-1 26:-1 27:-1 28:-1 
-8192 1:-0.264207 2:-0.232062 3:-0.311291 4:-0.193222 5:-0.623979 6:0.245629 7:-0.928744 8:-0.649275 9:-0.0945473 10:1 11:-1 12:-1 13:-1 14:-1 15:-1 16:-1 17:-1 18:-1 19:-1 20:1 21:-1 22:-1 23:-1 24:-1 25:-1 26:-1 27:-1 28:-1 
-8192 1:-0.181296 2:0.737161 3:-0.476082 4:-0.236037 5:0.681892 6:-0.0373426 7:-0.515477 8:-0.617603 9:0.0348508 10:-1 11:1 12:-1 13:-1 14:-1 15:-1 16:-1 17:-1 18:-1 19:-1 20:-1 21:1 22:-1 23:-1 24:-1 25:-1 26:-1 27:-1 28:-1 
-8192 1:0.184345 2:0.583434 3:-0.684108 4:-0.507182 5:0.758503 6:0.7931 7:-1 8:-0.117853 9:0.236618 10:-1 11:-1 12:1 13:-1 14:-1 15:-1 16:-1 17:-1 18:-1 19:-1 20:-1 21:-1 22:-1 23:1 24:-1 25:-1 26:-1 27:-1 28:-1 
-8192 1:0.212444 2:0.589454 3:-0.751351 4:-0.082064 5:0.00505139 6:-0.00517565 7:-0.758681 8:-0.15886 9:-0.0185093 10:-1 11:1 12:-1 13:-1 14:-1 15:-1 16:-1 17:-1 18:-1 19:-1 20:1 21:-1 22:-1 23:-1 24:-1 25:-1 26:-1 27:-1 28:-1 
-8192 1:0.212444 2:0.124348 3:-0.95429 4:-0.22752 5:0.262735 6:0.0537465 7:-0.75235 8:-0.17853 9:-0.0185093 10:-1 11:1 12:-1 13:-1 14:-1 15:-1 16:-1 17:-1 18:-1 19:-1 20:1 21:-1 22:-1 23:-1 24:-1 25:-1 26:-1 27:-1 28:-1 
-8192 1:-0.0878457 2:0.361889 3:-0.719768 4:-0.0686823 5:-0.781641 6:-0.055278 7:-0.481084 8:-0.681614 9:0.0812073 10:-1 11:1 12:-1 13:-1 14:-1 15:-1 16:-1 17:-1 18:-1 19:-1 20:1 21:-1 22:-1 23:-1 24:-1 25:-1 26:-1 27:-1 28:-1 
-8192 1:-0.647429 2:0.447381 3:-0.618258 4:-0.892823 5:-0.999702 6:0.0208447 7:-0.687813 8:-0.922654 9:0.549441 10:1 11:-1 12:-1 13:-1 14:-1 15:-1 16:-1 17:-1 18:-1 19:-1 20:-1 21:1 22:-1 23:-1 24:-1 25:-1 26:-1 27:-1 28:-1 
-8192 1:-0.497161 2:-0.0701627 3:-0.749794 4:-0.0879901 5:-0.157987 6:0.958216 7:-0.782072 8:-0.937323 9:-0.00616975 10:-1 11:-1 12:-1 13:1 14:-1 15:-1 16:-1 17:-1 18:-1 19:-1 20:1 21:-1 22:-1 23:-1 24:-1 25:-1 26:-1 27:-1 28:-1 
-8192 1:-0.235404 2:0.835332 3:-0.464676 4:-0.792285 5:-0.635658 6:0.196803 7:-0.524529 8:-0.015836 9:0.320994 10:-1 11:-1 12:-1 13:-1 14:1 15:-1 16:-1 17:-1 18:-1 19:-1 20:1 21:-1 22:-1 23:-1 24:-1 25:-1 26:-1 27:-1 28:-1 
-8192 1:-0.57142 2:0.635184 3:-0.0264906 4:-0.113259 5:-1 6:0.178295 7:-0.738535 8:-0.24054 9:-0.400033 10:1 11:-1 12:-1 13:-1 14:-1 15:-1 16:-1 17:-1 18:-1 19:-1 20:1 21:-1 22:-1 23:-1 24:-1 25:-1 26:-1 27:-1 28:-1 
-8192 1:-0.0477238 2:0.361375 3:-0.450192 4:-0.223668 5:-0.73484 6:0.0424024 7:-0.422724 8:0.0721787 9:-0.800567 10:1 11:-1 12:-1 13:-1 14:-1 15:-1 16:-1 17:-1 18:-1 19:-1 20:1 21:-1 22:-1 23:-1 24:-1 25:-1 26:-1 27:-1 28:-1 
-8192 1:0.0287969 2:0.778222 3:-0.833209 4:-0.530068 5:0.514683 6:0.415088 7:-0.697432 8:-0.628271 9:-0.178923 10:-1 11:-1 12:-1 13:1 14:-1 15:-1 16:-1 17:-1 18:-1 19:-1 20:1 21:-1 22:-1 23:-1 24:-1 25:-1 26:-1 27:-1 28:-1 
-8192 1:-0.0348263 2:0.640691 3:-0.965375 4:-0.437101 5:0.649679 6:0.111108 7:-0.647511 8:0.976663 9:0.189595 10:1 11:-1 12:-1 13:-1 14:-1 15:-1 16:-1 17:-1 18:-1 19:-1 20:1 21:-1 22:-1 23:-1 24:-1 25:-1 26:-1 27:-1 28:-1 
-8192 1:-0.516779 2:0.659862 3:0.00181206 4:-0.612578 5:-0.0824934 6:-0.330779 7:-0.0274003 8:-0.0588431 9:0.12056 10:1 11:-1 12:-1 13:-1 14:-1 15:-1 16:-1 17:-1 18:-1 19:-1 20:1 21:-1 22:-1 23:-1 24:-1 25:-1 26:-1 27:-1 28:-1 
-8192 1:-0.666622 2:0.598828 3:0.529266 4:0.271038 5:0.413729 6:-0.309754 7:-0.577447 8:-0.610602 9:0.805569 10:-1 11:-1 12:-1 13:-1 14:-1 15:-1 16:1 17:-1 18:-1 19:-1 20:-1 21:-1 22:-1 23:-1 24:-1 25:-1 26:1 27:-1 28:-1 
-8192 1:-0.666622 2:0.423462 3:-0.996453 4:-0.232429 5:0.614368 6:-0.0334589 7:-0.577447 8:0.0568428 9:0.0115058 10:-1 11:-1 12:-1 13:-1 14:1 15:-1 16:-1 17:-1 18:-1 19:-1 20:-1 21:1 22:-1 23:-1 24:-1 25:-1 26:-1 27:-1 28:-1 
-8192 1:-0.666622 2:0.423462 3:-0.996453 4:-0.74061 5:0.53138 6:-0.0946714 7:-0.277069 8:0.0568428 9:0.421044 10:-1 11:-1 12:-1 13:-1 14:1 15:-1 16:-1 17:-1 18:-1 19:-1 20:1 21:-1 22:-1 23:-1 24:-1 25:-1 26:-1 27:-1 28:-1 
-8192 1:0.609855 2:0.509365 3:-0.996595 4:0.531372 5:0.610114 6:-0.11395 7:-0.538707 8:-0.21887 9:-0.107887 10:1 11:-1 12:-1 13:-1 14:-1 15:-1 16:-1 17:-1 18:-1 19:-1 20:1 21:-1 22:-1 23:-1 24:-1 25:-1 26:-1 27:-1 28:-1 
-8192 1:0.326004 2:0.638183 3:-0.700889 4:-0.0838453 5:0.784701 6:0.14521 7:-0.816519 8:-0.0821804 9:0.796565 10:1 11:-1 12:-1 13:-1 14:-1 15:-1 16:-1 17:-1 18:-1 19:-1 20:-1 21:1 22:-1 23:-1 24:-1 25:-1 26:-1 27:-1 28:-1 
-8192 1:0.0853793 2:0.827166 3:-0.0865915 4:-0.586688 5:-0.983199 6:0.221695 7:-0.751611 8:-0.591265 9:-0.14724 10:-1 11:1 12:-1 13:-1 14:-1 15:-1 16:-1 17:-1 18:-1 19:-1 20:-1 21:1 22:-1 23:-1 24:-1 25:-1 26:-1 27:-1 28:-1 
-8192 1:-0.159811 2:0.343589 3:-0.809767 4:-0.30775 5:-0.946917 6:0.453019 7:-0.493326 8:-0.473246 9:-0.0842088 10:-1 11:-1 12:-1 13:1 14:-1 15:-1 16:-1 17:-1 18:-1 19:-1 20:-1 21:-1 22:-1 23:1 24:-1 25:-1 26:-1 27:-1 28:-1 
-8192 1:-0.890585 2:0.568453 3:-0.363893 4:-0.698456 5:0.158803 6:0.0466475 7:-0.243744 8:-0.0945158 9:-0.242955 10:-1 11:1 12:-1 13:-1 14:-1 15:-1 16:-1 17:-1 18:-1 19:-1 20:1 21:-1 22:-1 23:-1 24:-1 25:-1 26:-1 27:-1 28:-1 
-8192 1:-0.427713 2:0.64661 3:0.229042 4:-0.396501 5:-0.102461 6:-0.0257818 7:-0.743993 8:-0.0945158 9:-0.634817 10:1 11:-1 12:-1 13:-1 14:-1 15:-1 16:-1 17:-1 18:-1 19:-1 20:-1 21:1 22:-1 23:-1 24:-1 25:-1 26:-1 27:-1 28:-1 
-8192 1:-0.334978 2:-0.413086 3:-0.462833 4:0.365275 5:0.758671 6:0.45116 7:-0.735796 8:-0.0105018 9:-0.198933 10:-1 11:-1 12:1 13:-1 14:-1 15:-1 16:-1 17:-1 18:-1 19:-1 20:-1 21:1 22:-1 23:-1 24:-1 25:-1 26:-1 27:-1 28:-1 
-8192 1:-0.246765 2:0.785615 3:-0.999546 4:-0.24092 5:0.148666 6:0.0027061 7:-0.498536 8:0.0185031 9:0.367684 10:-1 11:1 12:-1 13:-1 14:-1 15:-1 16:-1 17:-1 18:-1 19:-1 20:1 21:-1 22:-1 23:-1 24:-1 25:-1 26:-1 27:-1 28:-1 
-8192 1:-0.246765 2:0.393515 3:-0.998517 4:-0.24092 5:0.148666 6:-0.0238528 7:-0.322174 8:-0.16286 9:0.367684 10:-1 11:1 12:-1 13:-1 14:-1 15:-1 16:-1 17:-1 18:-1 19:-1 20:1 21:-1 22:-1 23:-1 24:-1 25:-1 26:-1 27:-1 28:-1 
-8192 1:0.147402 2:0.665798 3:0.250022 4:0.486179 5:-0.997463 6:-0.403938 7:-0.529377 8:-0.683281 9:0.245289 10:1 11:-1 12:-1 13:-1 14:-1 15:-1 16:-1 17:-1 18:-1 19:-1 20:1 21:-1 22:-1 23:-1 24:-1 25:-1 26:-1 27:-1 28:-1 
-8192 1:-0.303102 2:0.859536 3:0.00286919 4:-0.888754 5:-0.0142061 6:0.0494393 7:-0.702505 8:-0.429572 9:0.0631983 10:-1 11:1 12:-1 13:-1 14:-1 15:-1 16:-1 17:-1 18:-1 19:-1 20:1 21:-1 22:-1 23:-1 24:-1 25:-1 26:-1 27:-1 28:-1 
-8192 1:-0.901181 2:-0.272004 3:-0.875336 4:-0.333313 5:0.748003 6:0.212831 7:-0.688393 8:0.145858 9:0.770218 10:1 11:-1 12:-1 13:-1 14:-1 15:-1 16:-1 17:-1 18:-1 19:-1 20:-1 21:1 22:-1 23:-1 24:-1 25:-1 26:-1 27:-1 28:-1 
-8192 1:-0.0602052 2:0.486299 3:-0.702883 4:-0.706257 5:0.133701 6:0.223197 7:-0.746527 8:0.0138356 9:-0.00550275 10:-1 11:1 12:-1 13:-1 14:-1 15:-1 16:-1 17:-1 18:-1 19:-1 20:1 21:-1 22:-1 23:-1 24:-1 25:-1 26:-1 27:-1 28:-1 
-8192 1:0.194576 2:0.541963 3:-0.673033 4:-0.463523 5:-0.493437 6:0.232938 7:-0.815368 8:-0.102184 9:0.0508588 10:-1 11:-1 12:-1 13:-1 14:1 15:-1 16:-1 17:-1 18:-1 19:-1 20:1 21:-1 22:-1 23:-1 24:-1 25:-1 26:-1 27:-1 28:-1 
-8192 1:-0.927726 2:0.114718 3:0.437854 4:0.449944 5:0.827081 6:0.232334 7:-0.815368 8:0.0511752 9:-0.102551 10:1 11:-1 12:-1 13:-1 14:-1 15:-1 16:-1 17:-1 18:-1 19:-1 20:-1 21:-1 22:-1 23:1 24:-1 25:-1 26:-1 27:-1 28:-1 
-8192 1:-0.978274 2:0.122849 3:-0.217219 4:-0.237237 5:0.100585 6:-0.0272651 7:-0.284645 8:-0.0821804 9:0.0158413 10:1 11:-1 12:-1 13:-1 14:-1 15:-1 16:-1 17:-1 18:-1 19:-1 20:1 21:-1 22:-1 23:-1 24:-1 25:-1 26:-1 27:-1 28:-1 
-8192 1:-0.402591 2:0.5085 3:-0.578626 4:0.259846 5:0.976576 6:0.179403 7:-0.853008 8:-0.339557 9:0.0965483 10:1 11:-1 12:-1 13:-1 14:-1 15:-1 16:-1 17:-1 18:-1 19:-1 20:-1 21:-1 22:-1 23:1 24:-1 25:-1 26:-1 27:-1 28:-1 
-8192 1:0.417993 2:0.28831 3:-0.96115 4:-0.686457 5:-0.183991 6:0.162806 7:-0.859044 8:-0.686614 9:0.0438553 10:1 11:-1 12:-1 13:-1 14:-1 15:-1 16:-1 17:-1 18:-1 19:-1 20:1 21:-1 22:-1 23:-1 24:-1 25:-1 26:-1 27:-1 28:-1 
-8192 1:-0.2125 2:0.709139 3:-0.838967 4:-0.477384 5:-0.912998 6:0.0267558 7:-0.404683 8:0.348891 9:0.0638653 10:-1 11:-1 12:-1 13:-1 14:1 15:-1 16:-1 17:-1 18:-1 19:-1 20:1 21:-1 22:-1 23:-1 24:-1 25:-1 26:-1 27:-1 28:-1 
-8192 1:-0.0469877 2:0.558683 3:-0.658416 4:-0.681901 5:0.436869 6:0.132031 7:-0.912811 8:-0.0368395 9:-0.281974 10:1 11:-1 12:-1 13:-1 14:-1 15:-1 16:-1 17:-1 18:-1 19:-1 20:-1 21:-1 22:1 23:-1 24:-1 25:-1 26:-1 27:-1 28:-1 
-8192 1:0.477434 2:0.467054 3:-0.96606 4:-0.414783 5:-0.995453 6:0.208163 7:-0.764565 8:0.310552 9:-0.441054 10:1 11:-1 12:-1 13:-1 14:-1 15:-1 16:-1 17:-1 18:-1 19:-1 20:1 21:-1 22:-1 23:-1 24:-1 25:-1 26:-1 27:-1 28:-1 
-8192 1:0.450135 2:0.687599 3:-0.770473 4:-0.254501 5:-0.0312094 6:0.123374 7:-0.666537 8:-0.53959 9:-0.112556 10:-1 11:-1 12:-1 13:-1 14:1 15:-1 16:-1 17:-1 18:-1 19:-1 20:1 21:-1 22:-1 23:-1 24:-1 25:-1 26:-1 27:-1 28:-1 
-8192 1:-0.769037 2:0.150218 3:-0.466292 4:0.370662 5:-0.98197 6:0.162775 7:-0.755793 8:0.668945 9:-0.116558 10:-1 11:-1 12:-1 13:-1 14:-1 15:-1 16:1 17:-1 18:-1 19:-1 20:-1 21:-1 22:-1 23:-1 24:-1 25:-1 26:1 27:-1 28:-1 
-8192 1:-0.859464 2:0.15807 3:0.268637 4:0.285089 5:-0.881032 6:-0.307098 7:-0.639676 8:-0.78063 9:-0.564782 10:-1 11:1 12:-1 13:-1 14:-1 15:-1 16:-1 17:-1 18:-1 19:-1 20:-1 21:-1 22:-1 23:1 24:-1 25:-1 26:-1 27:-1 28:-1 
-8192 1:-0.859464 2:-0.202194 3:0.210077 4:0.285089 5:-0.881032 6:-0.291694 7:-0.49772 8:-0.934656 9:-0.564782 10:-1 11:1 12:-1 13:-1 14:-1 15:-1 16:-1 17:-1 18:-1 19:-1 20:-1 21:-1 22:-1 23:1 24:-1 25:-1 26:-1 27:-1 28:-1 
-8192 1:-0.064451 2:0.258562 3:-0.0507067 4:0.220674 5:-0.768416 6:-0.0567834 7:-0.756322 8:-0.662944 9:-0.678506 10:-1 11:-1 12:-1 13:-1 14:-1 15:-1 16:-1 17:1 18:-1 19:-1 20:-1 21:-1 22:-1 23:-1 24:-1 25:-1 26:1 27:-1 28:-1 
-8192 1:0.0890597 2:0.844284 3:-0.67541 4:-0.237587 5:-0.592459 6:0.303107 7:-0.139868 8:0.0795133 9:0.182925 10:-1 11:-1 12:1 13:-1 14:-1 15:-1 16:-1 17:-1 18:-1 19:-1 20:1 21:-1 22:-1 23:-1 24:-1 25:-1 26:-1 27:-1 28:-1 
-8192 1:0.575237 2:0.661514 3:-0.953948 4:0.0417251 5:-0.662768 6:-0.0935967 7:-0.40814 8:-0.0205034 9:0.0738703 10:-1 11:1 12:-1 13:-1 14:-1 15:-1 16:-1 17:-1 18:-1 19:-1 20:-1 21:1 22:-1 23:-1 24:-1 25:-1 26:-1 27:-1 28:-1 
-8192 1:0.209223 2:0.550521 3:-0.647781 4:-0.540321 5:-0.318155 6:0.233054 7:-0.749852 8:0.224204 9:-0.0241788 10:-1 11:-1 12:1 13:-1 14:-1 15:-1 16:-1 17:-1 18:-1 19:-1 20:1 21:-1 22:-1 23:-1 24:-1 25:-1 26:-1 27:-1 28:-1 
-8192 1:0.209223 2:0.550521 3:-0.647781 4:-0.537286 5:-0.344952 6:0.22669 7:-0.749852 8:0.224204 9:0.79423 10:-1 11:-1 12:1 13:-1 14:-1 15:-1 16:-1 17:-1 18:-1 19:-1 20:1 21:-1 22:-1 23:-1 24:-1 25:-1 26:-1 27:-1 28:-1 
-8192 1:0.224115 2:0.23004 3:-0.83392 4:-0.886212 5:-0.94687 6:0.0806725 7:-0.808583 8:0.138856 9:-0.34634 10:1 11:-1 12:-1 13:-1 14:-1 15:-1 16:-1 17:-1 18:-1 19:-1 20:-1 21:1 22:-1 23:-1 24:-1 25:-1 26:-1 27:-1 28:-1 
-8192 1:0.224115 2:0.6778 3:-0.953955 4:-0.886212 5:-0.852677 6:0.4025 7:-0.808583 8:-0.345891 9:0.138569 10:-1 11:1 12:-1 13:-1 14:-1 15:-1 16:-1 17:-1 18:-1 19:-1 20:1 21:-1 22:-1 23:-1 24:-1 25:-1 26:-1 27:-1 28:-1 
-8192 1:-0.0382721 2:0.881437 3:0.0619174 4:-0.536451 5:0.487907 6:-0.125577 7:-0.525451 8:-0.604934 9:-0.402701 10:-1 11:1 12:-1 13:-1 14:-1 15:-1 16:-1 17:-1 18:-1 19:-1 20:1 21:-1 22:-1 23:-1 24:-1 25:-1 26:-1 27:-1 28:-1 
-8192 1:0.0640648 2:0.716679 3:0.434504 4:-0.19219 5:0.286241 6:0.203877 7:-0.870619 8:-0.377563 9:-0.917625 10:-1 11:-1 13:-1 14:-1 15:-1 16:-1 17:-1 18:-1 19:-1 20:-1 21:-1 22:1 23:-1 24:-1 25:-1 26:-1 27:-1 28:-1 
-8192 1:-0.435128 2:0.697138 3:-0.846498 4:-0.179696 5:-0.364201 6:-0.0334082 7:-0.714089 8:-0.101517 9:0.124229 10:1 11:-1 12:-1 13:-1 14:-1 15:-1 16:-1 17:-1 18:-1 19:-1 20:1 21:-1 22:-1 23:-1 24:-1 25:-1 26:-1 27:-1 28:-1 
-8192 1:-0.283334 2:0.192662 3:-0.891723 4:-0.68029 5:0.217888 6:0.784179 7:-1 8:-0.237873 9:-0.381357 10:-1 11:-1 12:-1 13:1 14:-1 15:-1 16:-1 17:-1 18:-1 19:-1 20:1 21:-1 22:-1 23:-1 24:-1 25:-1 26:-1 27:-1 28:-1 
-8192 1:-0.283334 2:0.192662 3:-0.891723 4:-0.455372 5:0.469515 6:0.802621 7:-1 8:-0.237873 9:-0.405703 10:-1 11:-1 12:-1 13:1 14:-1 15:-1 16:-1 17:-1 18:-1 19:-1 20:1 21:-1 22:-1 23:-1 24:-1 25:-1 26:-1 27:-1 28:-1 
-8192 1:0.0757142 2:0.334511 3:-0.994534 4:-0.130403 5:-0.712368 6:0.181773 7:-0.802252 8:-0.990998 9:-0.0338503 10:1 11:-1 12:-1 13:-1 14:-1 15:-1 16:-1 17:-1 18:-1 19:-1 20:1 21:-1 22:-1 23:-1 24:-1 25:-1 26:-1 27:-1 28:-1 
-8192 1:-0.163566 2:0.445035 3:-0.918763 4:-0.454125 5:-0.104531 6:-0.0043552 7:-0.296916 8:0.128188 9:-0.206937 10:-1 11:1 12:-1 13:-1 14:-1 15:-1 16:-1 17:-1 18:-1 19:-1 20:-1 21:-1 22:-1 23:1 24:-1 25:-1 26:-1 27:-1 28:-1 
-8192 1:-0.773863 2:0.160802 3:-0.465973 4:-0.591394 5:-0.771208 6:0.171669 7:-0.677054 8:-0.0665111 9:0.0778723 10:1 11:-1 12:-1 13:-1 14:-1 15:-1 16:-1 17:-1 18:-1 19:-1 20:1 21:-1 22:-1 23:-1 24:-1 25:-1 26:-1 27:-1 28:-1 
-8192 1:-0.529016 2:0.540604 3:-0.855066 4:-0.426133 5:-0.879876 6:0.157328 7:-0.704692 8:0.115186 9:0.0468568 10:1 11:-1 12:-1 13:-1 14:-1 15:-1 16:-1 17:-1 18:-1 19:-1 20:1 21:-1 22:-1 23:-1 24:-1 25:-1 26:-1 27:-1 28:-1 
-8192 1:0.468761 2:0.539146 3:-0.965587 4:-0.383455 5:0.99747 6:0.0784795 7:-0.449802 8:-0.648608 9:-0.836585 10:-1 11:1 12:-1 13:-1 14:-1 15:-1 16:-1 17:-1 18:-1 19:-1 20:-1 21:1 22:-1 23:-1 24:-1 25:-1 26:-1 27:-1 28:-1 
-8192 1:0.468761 2:0.7313 3:-0.937809 4:-0.420869 5:0.989573 6:0.0201161 7:-0.449802 8:-0.215869 9:-0.836585 10:-1 11:1 12:-1 13:-1 14:-1 15:-1 16:-1 17:-1 18:-1 19:-1 20:-1 21:1 22:-1 23:-1 24:-1 25:-1 26:-1 27:-1 28:-1 
-8192 1:-0.389 2:0.266883 3:-0.281772 4:0.173508 5:0.992731 6:0.0424142 7:-0.634509 8:-0.00183364 9:0.152243 10:1 11:-1 12:-1 13:-1 14:-1 15:-1 16:-1 17:-1 18:-1 19:-1 20:1 21:-1 22:-1 23:-1 24:-1 25:-1 26:-1 27:-1 28:-1 
-8192 1:-0.604827 2:0.823703 3:-0.804297 4:-0.34246 5:0.153121 6:-0.136761 7:-0.416946 8:0.202534 9:0.294314 10:-1 11:-1 12:1 13:-1 14:-1 15:-1 16:-1 17:-1 18:-1 19:-1 20:1 21:-1 22:-1 23:-1 24:-1 25:-1 26:-1 27:-1 28:-1 
-8192 1:-0.604827 2:0.823703 3:-0.804297 4:-0.399133 5:-0.783287 6:-0.123281 7:-0.416946 8:0.202534 9:-0.451726 10:-1 11:-1 12:1 13:-1 14:-1 15:-1 16:-1 17:-1 18:-1 19:-1 20:-1 21:-1 22:-1 23:1 24:-1 25:-1 26:-1 27:-1 28:-1 
-8192 1:-0.56535 2:-0.430334 3:-0.804699 4:0.18689 5:0.591075 6:0.0972103 7:-0.615808 8:-0.413236 9:-0.526763 10:1 11:-1 12:-1 13:-1 14:-1 15:-1 16:-1 17:-1 18:-1 19:-1 20:1 21:-1 22:-1 23:-1 24:-1 25:-1 26:-1 27:-1 28:-1 
-8192 1:0.504403 2:0.739498 3:-0.811145 4:-0.722066 5:0.653907 6:0.0570266 7:-0.266511 8:-0.227871 9:0.783558 10:1 11:-1 12:-1 13:-1 14:-1 15:-1 16:-1 17:-1 18:-1 19:-1 20:1 21:-1 22:-1 23:-1 24:-1 25:-1 26:-1 27:-1 28:-1 
-8192 1:-0.863386 2:0.673668 3:-0.00638042 4:-0.881165 5:-0.806639 6:-0.397088 7:-0.120069 8:-0.087848 9:0.240954 10:1 11:-1 12:-1 13:-1 14:-1 15:-1 16:-1 17:-1 18:-1 19:-1 20:-1 21:-1 22:-1 23:1 24:-1 25:-1 26:-1 27:-1 28:-1 
-8192 1:-0.277744 2:0.671885 3:-0.895514 4:-0.136825 5:-0.276226 6:0.266252 7:-1 8:0.00950158 9:0.956978 10:1 11:-1 12:-1 13:-1 14:-1 15:-1 16:-1 17:-1 18:-1 19:-1 20:-1 21:1 22:-1 23:-1 24:-1 25:-1 26:-1 27:-1 28:-1 
-8192 1:-0.853243 2:0.355102 3:-0.916147 4:-0.700134 5:-0.680059 6:0.143495 7:-0.461499 8:-0.0815136 9:0.0328498 10:1 11:-1 12:-1 13:-1 14:-1 15:-1 16:-1 17:-1 18:-1 19:-1 20:1 21:-1 22:-1 23:-1 24:-1 25:-1 26:-1 27:-1 28:-1 
-8192 1:-0.0284256 2:0.625149 3:-0.536221 4:-0.501647 5:-0.65637 6:0.127237 7:-0.686498 8:-0.273546 9:-0.00917125 10:1 11:-1 12:-1 13:-1 14:-1 15:-1 16:-1 17:-1 18:-1 19:-1 20:1 21:-1 22:-1 23:-1 24:-1 25:-1 26:-1 27:-1 28:-1 
-8192 1:-0.287026 2:0.187227 3:-0.806435 4:-0.139397 5:-0.527464 6:-0.0670179 7:-0.383091 8:-0.607935 9:-0.0982158 10:1 11:-1 12:-1 13:-1 14:-1 15:-1 16:-1 17:-1 18:-1 19:-1 20:1 21:-1 22:-1 23:-1 24:-1 25:-1 26:-1 27:-1 28:-1 
-8192 1:-0.873911 2:0.835076 3:0.110687 4:-0.868494 5:-0.751067 6:0.474486 7:-1 8:-0.242207 9:-0.276972 10:-1 11:1 12:-1 13:-1 14:-1 15:-1 16:-1 17:-1 18:-1 19:-1 20:-1 21:-1 22:-1 23:1 24:-1 25:-1 26:-1 27:-1 28:-1 
-8192 1:-0.319221 2:0.891251 3:-0.997381 4:-0.29689 5:-0.0464206 6:-0.171878 7:-0.395979 8:0.177196 9:0.0995498 10:1 11:-1 12:-1 13:-1 14:-1 15:-1 16:-1 17:-1 18:-1 19:-1 20:1 21:-1 22:-1 23:-1 24:-1 25:-1 26:-1 27:-1 28:-1 
-8192 1:-0.318837 2:0.189178 3:-0.0578068 4:0.344359 5:-0.442473 6:0.0552065 7:-0.714602 8:-0.131522 9:-0.111556 10:1 11:-1 12:-1 13:-1 14:-1 15:-1 16:-1 17:-1 18:-1 19:-1 20:1 21:-1 22:-1 23:-1 24:-1 25:-1 26:-1 27:-1 28:-1 
-8192 1:0.212786 2:0.747017 3:-0.587729 4:-0.639866 5:0.872976 6:-0.0710722 7:-0.43054 8:-0.276879 9:-0.262965 10:1 11:-1 12:-1 13:-1 14:-1 15:-1 16:-1 17:-1 18:-1 19:-1 20:-1 21:1 22:-1 23:-1 24:-1 25:-1 26:-1 27:-1 28:-1 
-8192 1:-0.243415 2:0.206382 3:-0.109913 4:-0.00388551 5:-1 6:0.239094 7:-0.949201 8:-0.0185031 9:-0.12723 10:1 11:-1 12:-1 13:-1 14:-1 15:-1 16:-1 17:-1 18:-1 19:-1 20:1 21:-1 22:-1 23:-1 24:-1 25:-1 26:-1 27:-1 28:-1 
-8192 1:0.447362 2:0.390995 3:-0.946663 4:-0.708542 5:0.219354 6:0.442902 7:-0.922269 8:0.740957 9:0.0301818 10:-1 11:1 12:-1 13:-1 14:-1 15:-1 16:-1 17:-1 18:-1 19:-1 20:1 21:-1 22:-1 23:-1 24:-1 25:-1 26:-1 27:-1 28:-1 
-8192 1:0.0317412 2:0.825526 3:-0.524909 4:-0.697076 5:0.121402 6:-0.0379808 7:-0.735282 8:0.637273 9:0.503085 10:-1 11:-1 12:-1 13:-1 14:-1 15:-1 16:1 17:-1 18:-1 19:-1 20:-1 21:-1 22:-1 23:-1 24:-1 25:-1 26:1 27:-1 28:-1 
-8192 1:0.0317412 2:0.309317 3:-0.675621 4:-0.628576 5:0.578586 6:0.0261345 7:-0.668932 8:-0.104851 9:-0.0925463 10:1 11:-1 12:-1 13:-1 14:-1 15:-1 16:-1 17:-1 18:-1 19:-1 20:-1 21:1 22:-1 23:-1 24:-1 25:-1 26:-1 27:-1 28:-1 
-8192 1:0.125565 2:0.757559 3:-0.93204 4:-0.585852 5:0.742782 6:0.0596337 7:-0.726625 8:0.776963 9:0.596131 10:1 11:-1 12:-1 13:-1 14:-1 15:-1 16:-1 17:-1 18:-1 19:-1 20:1 21:-1 22:-1 23:-1 24:-1 25:-1 26:-1 27:-1 28:-1 
-8192 1:-0.404223 2:0.637288 3:-0.423765 4:0.138742 5:0.562734 6:-0.0807649 7:-0.730123 8:0.00650108 9:-0.0735368 10:1 11:-1 12:-1 13:-1 14:-1 15:-1 16:-1 17:-1 18:-1 19:-1 20:1 21:-1 22:-1 23:-1 24:-1 25:-1 26:-1 27:-1 28:-1 
-8192 1:-0.824479 2:0.556133 3:-0.370691 4:-0.50613 5:0.883755 6:-0.347238 7:-0.132254 8:0.397233 9:-0.0565283 10:-1 11:1 12:-1 13:-1 14:-1 15:-1 16:-1 17:-1 18:-1 19:-1 20:1 21:-1 22:-1 23:-1 24:-1 25:-1 26:-1 27:-1 28:-1 
-8192 1:0.387621 2:0.960111 3:-0.579248 4:-0.120184 5:0.680541 6:-0.122431 7:-0.57183 8:0.565928 9:0.861931 10:-1 11:-1 12:-1 13:-1 14:-1 15:-1 16:-1 17:-1 18:0.333333 19:-1 20:-1 21:-1 22:-1 23:-1 24:-1 25:-1 26:1 27:-1 28:-1 
-8192 1:-0.268463 2:0.479779 3:-0.859506 4:-0.309027 5:0.198706 6:-0.00520674 7:-0.813644 8:0.0118353 9:-0.0395198 10:1 11:-1 12:-1 13:-1 14:-1 15:-1 16:-1 17:-1 18:-1 19:-1 20:-1 21:1 22:-1 23:-1 24:-1 25:-1 26:-1 27:-1 28:-1 
-8192 1:0.410643 2:0.541069 3:-0.978616 4:0.0454007 5:-0.0282232 6:0.0111919 7:-0.739988 8:-0.0558426 9:-0.330999 10:1 11:-1 12:-1 13:-1 14:-1 15:-1 16:-1 17:-1 18:-1 19:-1 20:1 21:-1 22:-1 23:-1 24:-1 25:-1 26:-1 27:-1 28:-1 
-8192 1:-0.301897 2:0.669591 3:0.0853276 4:0.625174 5:-0.259285 6:0.0113795 7:-0.739988 8:-0.330555 9:-0.0561948 10:1 11:-1 12:-1 13:-1 14:-1 15:-1 16:-1 17:-1 18:-1 19:-1 20:1 21:-1 22:-1 23:-1 24:-1 25:-1 26:-1 27:-1 28:-1 
-8192 1:-0.611906 2:0.654336 3:0.596004 4:-0.720975 5:-0.198234 6:0.20268 7:-0.654553 8:-0.943657 9:-0.832249 10:1 11:-1 12:-1 13:-1 14:-1 15:-1 16:-1 17:-1 18:-1 19:-1 20:-1 21:1 22:-1 23:-1 24:-1 25:-1 26:-1 27:-1 28:-1 
-8192 1:0.10823 2:0.922671 3:-0.372698 4:-0.65081 5:-0.923921 6:-0.0296038 7:-0.645603 8:0.133189 9:-0.697515 10:1 11:-1 12:-1 13:-1 14:-1 15:-1 16:-1 17:-1 18:-1 19:-1 20:1 21:-1 22:-1 23:-1 24:-1 25:-1 26:-1 27:-1 28:-1 
-8192 1:0.10823 2:0.581033 3:-0.180465 4:-0.316258 5:-0.666088 6:0.0209236 7:-0.645603 8:-0.196866 9:-0.342671 10:1 11:-1 12:-1 13:-1 14:-1 15:-1 16:-1 17:-1 18:-1 19:-1 20:1 21:-1 22:-1 23:-1 24:-1 25:-1 26:-1 27:-1 28:-1 
-8192 1:0.10823 2:0.420932 3:-0.378038 4:-0.316258 5:-0.883164 6:0.0325322 7:-0.645603 8:-0.852642 9:-0.697515 10:1 11:-1 12:-1 13:-1 14:-1 15:-1 16:-1 17:-1 18:-1 19:-1 20:1 21:-1 22:-1 23:-1 24:-1 25:-1 26:-1 27:-1 28:-1 
-8192 1:-0.944032 2:0.757388 3:0.397008 4:0.44845 5:0.689574 6:-0.1622 7:-0.82962 8:-0.0125021 9:-0.0371853 10:1 11:-1 12:-1 13:-1 14:-1 15:-1 16:-1 17:-1 18:-1 19:-1 20:1 21:-1 22:-1 23:-1 24:-1 25:-1 26:-1 27:-1 28:-1 
-8192 1:-0.524471 2:0.474448 3:-0.888076 4:-0.373236 5:0.242178 6:-0.0218404 7:-0.315243 8:-0.0331722 9:0.137902 10:-1 11:1 12:-1 13:-1 14:-1 15:-1 16:-1 17:-1 18:-1 19:-1 20:-1 21:1 22:-1 23:-1 24:-1 25:-1 26:-1 27:-1 28:-1 
-8192 1:-0.809406 2:0.271355 3:0.373739 4:-0.200069 5:0.854623 6:0.10481 7:-0.708918 8:-0.595933 9:0.955644 10:-1 11:-1 12:-1 13:-1 14:-1 15:-1 16:-1 17:-1 18:-1 19:1 20:-1 21:-1 22:-1 23:-1 24:-1 25:-1 26:1 27:-1 28:-1 
-8192 1:-0.441678 2:0.799815 3:0.893708 4:-0.350724 5:0.725459 6:-0.532132 7:-0.232089 8:-0.232539 9:-0.161914 10:1 11:-1 12:-1 13:-1 14:-1 15:-1 16:-1 17:-1 18:-1 19:-1 20:1 21:-1 22:-1 23:-1 24:-1 25:-1 26:-1 27:-1 28:-1 
-8192 1:-0.441678 2:0.605981 3:-0.712327 4:-0.350724 5:-0.743944 6:0.000200431 7:-0.232089 8:-0.161527 9:-0.23295 10:1 11:-1 12:-1 13:-1 14:-1 15:-1 16:-1 17:-1 18:-1 19:-1 20:1 21:-1 22:-1 23:-1 24:-1 25:-1 26:-1 27:-1 28:-1 
-8192 1:-0.0133092 2:0.811107 3:0.040819 4:-0.357348 5:0.0901279 6:0.497707 7:-0.767527 8:-0.291882 9:-0.642821 10:-1 11:-1 13:-1 14:-1 15:-1 16:-1 17:-1 18:-1 19:-1 20:1 21:-1 22:-1 23:-1 24:-1 25:-1 26:-1 27:-1 28:-1 
-8192 1:-0.0133092 2:0.811107 3:0.040819 4:-0.48566 5:-0.883113 6:0.515883 7:-0.767527 8:-0.291882 9:-0.680507 10:-1 11:-1 13:-1 14:-1 15:-1 16:-1 17:-1 18:-1 19:-1 20:-1 21:-1 22:-1 23:1 24:-1 25:-1 26:-1 27:-1 28:-1 
-8192 1:-0.0464116 2:0.930473 3:-0.93465 4:-0.653535 5:0.456508 6:-0.0455433 7:-0.467741 8:0.910318 9:0.0605303 10:-1 11:1 12:-1 13:-1 14:-1 15:-1 16:-1 17:-1 18:-1 19:-1 20:1 21:-1 22:-1 23:-1 24:-1 25:-1 26:-1 27:-1 28:-1 
-8192 1:-0.174394 2:0.586067 3:-0.99417 4:-0.0206213 5:-0.502206 6:0.114186 7:-0.957254 8:0.09985 9:0.104219 10:1 11:-1 12:-1 13:-1 14:-1 15:-1 16:-1 17:-1 18:-1 19:-1 20:1 21:-1 22:-1 23:-1 24:-1 25:-1 26:-1 27:-1 28:-1 
-8192 1:-0.465723 2:0.868138 3:0.308001 4:-0.2266 5:0.71527 6:0.0691879 7:-0.656716 8:0.272212 9:-0.149908 10:-1 11:-1 12:-1 13:-1 14:-1 15:-1 16:-1 17:1 18:-1 19:-1 20:-1 21:-1 22:-1 23:-1 24:-1 25:1 26:-1 27:-1 28:-1 
-8192 1:-0.0148561 2:0.63045 3:-0.620174 4:-0.462818 5:0.0212206 6:0.135833 7:-0.363263 8:0.0161694 9:-0.0952143 10:-1 11:1 12:-1 13:-1 14:-1 15:-1 16:-1 17:-1 18:-1 19:-1 20:1 21:-1 22:-1 23:-1 24:-1 25:-1 26:-1 27:-1 28:-1 
-8192 1:-0.396894 2:0.780476 3:-0.723981 4:-0.025218 5:0.0388 6:0.057909 7:-1 8:-0.0775129 9:-0.272303 10:1 11:-1 12:-1 13:-1 14:-1 15:-1 16:-1 17:-1 18:-1 19:-1 20:-1 21:1 22:-1 23:-1 24:-1 25:-1 26:-1 27:-1 28:-1 
-8192 1:0.367779 2:0.699437 3:-0.791814 4:-0.394051 5:0.43067 6:0.257098 7:-0.760416 8:0.150192 9:-0.225279 10:-1 11:-1 12:-1 13:1 14:-1 15:-1 16:-1 17:-1 18:-1 19:-1 20:1 21:-1 22:-1 23:-1 24:-1 25:-1 26:-1 27:-1 28:-1 
-8192 1:-0.849287 2:-0.110597 3:0.0775367 4:-0.176196 5:0.723383 6:0.156937 7:-0.682912 8:-0.521254 9:-0.139236 10:-1 11:1 12:-1 13:-1 14:-1 15:-1 16:-1 17:-1 18:-1 19:-1 20:1 21:-1 22:-1 23:-1 24:-1 25:-1 26:-1 27:-1 28:-1 
-8192 1:0.0644489 2:0.641986 3:-0.836594 4:-0.390252 5:-0.530342 6:0.0169 7:-0.60341 8:-0.0631772 9:0.100884 10:1 11:-1 12:-1 13:-1 14:-1 15:-1 16:-1 17:-1 18:-1 19:-1 20:1 21:-1 22:-1 23:-1 24:-1 25:-1 26:-1 27:-1 28:-1 
-8192 1:-0.5334 2:0.682542 3:0.253366 4:-0.472969 5:-0.174986 6:0.0946868 7:-0.730405 8:0.0748458 9:0.675838 10:1 11:-1 12:-1 13:-1 14:-1 15:-1 16:-1 17:-1 18:-1 19:-1 20:-1 21:1 22:-1 23:-1 24:-1 25:-1 26:-1 27:-1 28:-1 
-8192 1:-0.5334 2:0.682542 3:0.253366 4:-0.472969 5:-0.890835 6:0.082781 7:-0.688302 8:0.0748458 9:-0.92763 10:1 11:-1 12:-1 13:-1 14:-1 15:-1 16:-1 17:-1 18:-1 19:-1 20:-1 21:1 22:-1 23:-1 24:-1 25:-1 26:-1 27:-1 28:-1 
-8192 1:-0.5334 2:0.3756 3:-0.735035 4:-0.472969 5:-0.378846 6:0.166544 7:-0.730405 8:0.675946 9:0.0745373 10:-1 11:1 12:-1 13:-1 14:-1 15:-1 16:-1 17:-1 18:-1 19:-1 20:1 21:-1 22:-1 23:-1 24:-1 25:-1 26:-1 27:-1 28:-1 
-8192 1:-0.5334 2:0.269604 3:-0.744916 4:-0.472969 5:-0.378846 6:0.154248 7:-0.688302 8:-0.926988 9:0.0745373 10:-1 11:1 12:-1 13:-1 14:-1 15:-1 16:-1 17:-1 18:-1 19:-1 20:1 21:-1 22:-1 23:-1 24:-1 25:-1 26:-1 27:-1 28:-1 
-8192 1:-0.402548 2:0.771333 3:-0.732089 4:-0.300102 5:0.889459 6:-0.080257 7:-0.328932 8:-0.218536 9:0.18726 10:-1 11:1 12:-1 13:-1 14:-1 15:-1 16:-1 17:-1 18:-1 19:-1 20:-1 21:1 22:-1 23:-1 24:-1 25:-1 26:-1 27:-1 28:-1 
-8192 1:-0.298899 2:0.717388 3:-0.385111 4:-0.584306 5:-0.809882 6:0.612923 7:-0.656338 8:-0.330888 9:-0.125563 10:-1 11:-1 12:1 13:-1 14:-1 15:-1 16:-1 17:-1 18:-1 19:-1 20:1 21:-1 22:-1 23:-1 24:-1 25:-1 26:-1 27:-1 28:-1 
-8192 1:-0.693683 2:0.453496 3:-0.69494 4:0.100257 5:0.193814 6:0.4992 7:-0.399657 8:-0.147525 9:-0.0792063 10:-1 11:-1 12:-1 13:1 14:-1 15:-1 16:-1 17:-1 18:-1 19:-1 20:1 21:-1 22:-1 23:-1 24:-1 25:-1 26:-1 27:-1 28:-1 
-8192 1:-0.228107 2:0.784274 3:-0.444605 4:-0.274418 5:0.723789 6:0.102374 7:-0.349583 8:0.641607 9:0.611806 10:-1 11:-1 13:-1 14:-1 15:-1 16:-1 17:-1 18:-1 19:-1 20:1 21:-1 22:-1 23:-1 24:-1 25:-1 26:-1 27:-1 28:-1 
-8192 1:0.226921 2:0.712104 3:-0.502035 4:-0.177695 5:-0.985468 6:0.228775 7:-0.750499 8:0.608601 9:0.268301 10:1 11:-1 12:-1 13:-1 14:-1 15:-1 16:-1 17:-1 18:-1 19:-1 20:-1 21:1 22:-1 23:-1 24:-1 25:-1 26:-1 27:-1 28:-1 
-8192 1:0.226921 2:0.472951 3:-0.62794 4:-0.177695 5:0.499945 6:0.274301 7:-0.750499 8:0.268545 9:0.608471 10:-1 11:1 12:-1 13:-1 14:-1 15:-1 16:-1 17:-1 18:-1 19:-1 20:1 21:-1 22:-1 23:-1 24:-1 25:-1 26:-1 27:-1 28:-1 
-8192 1:0.566927 2:0.42936 3:-0.983753 4:-0.537505 5:-0.203813 6:0.206975 7:-1 8:-0.169195 9:-0.153243 10:1 11:-1 12:-1 13:-1 14:-1 15:-1 16:-1 17:-1 18:-1 19:-1 20:1 21:-1 22:-1 23:-1 24:-1 25:-1 26:-1 27:-1 28:-1 
-8192 1:0.332533 2:0.809016 3:-0.781166 4:-0.522051 5:0.976396 6:0.195195 7:-0.763604 8:0.0835139 9:0.0361848 10:1 11:-1 12:-1 13:-1 14:-1 15:-1 16:-1 17:-1 18:-1 19:-1 20:1 21:-1 22:-1 23:-1 24:-1 25:-1 26:-1 27:-1 28:-1 
-8192 1:-0.151063 2:0.377044 3:-0.588736 4:-0.917367 5:0.417025 6:0.0214574 7:-0.447064 8:-0.3979 9:0.0271803 10:1 11:-1 12:-1 13:-1 14:-1 15:-1 16:-1 17:-1 18:-1 19:-1 20:1 21:-1 22:-1 23:-1 24:-1 25:-1 26:-1 27:-1 28:-1 
-8192 1:-0.437293 2:0.563848 3:0.524191 4:-0.240312 5:-0.882749 6:-0.0810332 7:-0.692688 8:-0.242874 9:-0.751209 10:1 11:-1 12:-1 13:-1 14:-1 15:-1 16:-1 17:-1 18:-1 19:-1 20:1 21:-1 22:-1 23:-1 24:-1 25:-1 26:-1 27:-1 28:-1 
-8192 1:-0.437293 2:-0.465527 3:-0.278775 4:-0.142785 5:-0.89499 6:-0.0464821 7:-0.692688 8:-0.948991 9:-0.751209 10:1 11:-1 12:-1 13:-1 14:-1 15:-1 16:-1 17:-1 18:-1 19:-1 20:1 21:-1 22:-1 23:-1 24:-1 25:-1 26:-1 27:-1 28:-1 
-8192 1:-0.0130745 2:0.830491 3:0.361812 4:-0.00459804 5:-0.556248 6:-0.186494 7:-0.880116 8:0.0165028 9:-0.0922128 10:1 11:-1 12:-1 13:-1 14:-1 15:-1 16:-1 17:-1 18:-1 19:-1 20:1 21:-1 22:-1 23:-1 24:-1 25:-1 26:-1 27:-1 28:-1 
-8192 1:-0.334156 2:0.570258 3:-0.247353 4:-0.425228 5:-0.676503 6:0.290141 7:-1 8:-0.887315 9:-0.0682008 10:-1 11:1 12:-1 13:-1 14:-1 15:-1 16:-1 17:-1 18:-1 19:-1 20:1 21:-1 22:-1 23:-1 24:-1 25:-1 26:-1 27:-1 28:-1 
-8192 1:0.123048 2:0.641256 3:-0.94654 4:-0.548884 5:0.65894 6:0.12266 7:-1 8:-0.101517 9:-0.0278473 10:1 11:-1 12:-1 13:-1 14:-1 15:-1 16:-1 17:-1 18:-1 19:-1 20:-1 21:1 22:-1 23:-1 24:-1 25:-1 26:-1 27:-1 28:-1 
-8192 1:-0.0826931 2:0.2547 3:-0.550756 4:-0.04357 5:0.471361 6:-0.0755694 7:-0.586808 8:0.0691782 9:0.668834 10:1 11:-1 12:-1 13:-1 14:-1 15:-1 16:-1 17:-1 18:-1 19:-1 20:1 21:-1 22:-1 23:-1 24:-1 25:-1 26:-1 27:-1 28:-1 
-8192 1:-0.702698 2:0.416935 3:-0.27449 4:-0.422028 5:0.0464726 6:0.0113583 7:-0.636678 8:0.0178363 9:0.0445223 10:1 11:-1 12:-1 13:-1 14:-1 15:-1 16:-1 17:-1 18:-1 19:-1 20:1 21:-1 22:-1 23:-1 24:-1 25:-1 26:-1 27:-1 28:-1 
-8192 1:-0.222314 2:0.539431 3:0.956706 4:0.38831 5:0.288189 6:-0.000232237 7:-0.604703 8:0.104184 9:-0.242288 10:1 11:-1 12:-1 13:-1 14:-1 15:-1 16:-1 17:-1 18:-1 19:-1 20:1 21:-1 22:-1 23:-1 24:-1 25:-1 26:-1 27:-1 28:-1 
-8192 1:-0.0774658 2:0.679608 3:-0.828723 4:-0.817299 5:-0.16315 6:-0.12733 7:-0.255676 8:-0.00283381 9:0.25296 10:1 11:-1 12:-1 13:-1 14:-1 15:-1 16:-1 17:-1 18:-1 19:-1 20:1 21:-1 22:-1 23:-1 24:-1 25:-1 26:-1 27:-1 28:-1 
-8192 1:-0.0774658 2:0.863269 3:-0.849686 4:-0.806635 5:-0.0291752 6:-0.0892756 7:-0.390522 8:0.287881 9:0.25296 10:-1 11:1 12:-1 13:-1 14:-1 15:-1 16:-1 17:-1 18:-1 19:-1 20:1 21:-1 22:-1 23:-1 24:-1 25:-1 26:-1 27:-1 28:-1 
-8192 1:0.24272 2:0.565731 3:-0.814707 4:-0.284509 5:0.836277 6:0.314429 7:-0.953098 8:0.225538 9:0.0955478 10:-1 11:-1 12:-1 13:1 14:-1 15:-1 16:-1 17:-1 18:-1 19:-1 20:-1 21:1 22:-1 23:-1 24:-1 25:-1 26:-1 27:-1 28:-1 
-8192 1:-0.2617 2:0.225867 3:-0.694614 4:-0.23613 5:-0.99305 6:0.92011 7:-0.941201 8:-0.169195 9:-0.291646 10:-1 11:-1 12:1 13:-1 14:-1 15:-1 16:-1 17:-1 18:-1 19:-1 20:-1 21:-1 22:-1 23:1 24:-1 25:-1 26:-1 27:-1 28:-1 
-8192 1:-0.2617 2:0.225867 3:-0.694614 4:-0.353658 5:-0.992725 6:0.896978 7:-0.941201 8:-0.169195 9:-0.631816 10:-1 11:-1 12:1 13:-1 14:-1 15:-1 16:-1 17:-1 18:-1 19:-1 20:1 21:-1 22:-1 23:-1 24:-1 25:-1 26:-1 27:-1 28:-1 
-8192 1:-0.0481505 2:0.530807 3:-0.860705 4:-0.771426 5:-0.93278 6:0.094831 7:-0.593031 8:0.470245 9:0.743538 10:1 11:-1 12:-1 13:-1 14:-1 15:-1 16:-1 17:-1 18:-1 19:-1 20:-1 21:1 22:-1 23:-1 24:-1 25:-1 26:-1 27:-1 28:-1 
-8192 1:-0.0481505 2:0.530807 3:-0.860705 4:-0.702206 5:0.737498 6:0.0537254 7:-0.372577 8:0.470245 9:0.0665333 10:1 11:-1 12:-1 13:-1 14:-1 15:-1 16:-1 17:-1 18:-1 19:-1 20:1 21:-1 22:-1 23:-1 24:-1 25:-1 26:-1 27:-1 28:-1 
-8192 1:-0.0481505 2:0.526162 3:-0.350099 4:0.202253 5:0.259759 6:0.0981686 7:-0.776969 8:-0.223871 9:0.0665333 10:-1 11:1 12:-1 13:-1 14:-1 15:-1 16:-1 17:-1 18:-1 19:-1 20:1 21:-1 22:-1 23:-1 24:-1 25:-1 26:-1 27:-1 28:-1 
-8192 1:0.289125 2:0.76748 3:-0.601763 4:-0.0297799 5:-0.25183 6:0.453823 7:-0.905501 8:0.687615 9:0.0878773 10:-1 11:-1 12:-1 13:1 14:-1 15:-1 16:-1 17:-1 18:-1 19:-1 20:1 21:-1 22:-1 23:-1 24:-1 25:-1 26:-1 27:-1 28:-1 
-8192 1:0.377348 2:0.714809 3:-0.852788 4:-0.0390428 5:0.142288 6:0.00743554 7:-0.835252 8:0.119187 9:-0.12723 10:1 11:-1 12:-1 13:-1 14:-1 15:-1 16:-1 17:-1 18:-1 19:-1 20:1 21:-1 22:-1 23:-1 24:-1 25:-1 26:-1 27:-1 28:-1 
-8192 1:0.228531 2:0.69086 3:-0.717307 4:-0.0181796 5:-0.993178 6:0.385732 7:-0.818448 8:0.0405068 9:0.193597 10:-1 11:-1 12:-1 13:-1 14:1 15:-1 16:-1 17:-1 18:-1 19:-1 20:-1 21:-1 22:-1 23:1 24:-1 25:-1 26:-1 27:-1 28:-1 
-8192 1:0.214887 2:0.0368533 3:-0.95029 4:0.129931 5:-0.0552073 6:0.0148934 7:-0.713589 8:-0.4009 9:-0.174587 10:-1 11:-1 12:-1 13:1 14:-1 15:-1 16:-1 17:-1 18:-1 19:-1 20:1 21:-1 22:-1 23:-1 24:-1 25:-1 26:-1 27:-1 28:-1 
-8192 1:-0.610241 2:0.535749 3:-0.45785 4:-0.513357 5:0.0530131 6:0.144727 7:-0.903902 8:0.0178363 9:-0.777889 10:1 11:-1 12:-1 13:-1 14:-1 15:-1 16:-1 17:-1 18:-1 19:-1 20:-1 21:-1 22:-1 23:1 24:-1 25:-1 26:-1 27:-1 28:-1 
-8192 1:-0.891485 2:0.780652 3:-0.784264 4:-0.138528 5:0.683882 6:0.0402334 7:-0.893424 8:-0.176863 9:0.105219 10:1 11:-1 12:-1 13:-1 14:-1 15:-1 16:-1 17:-1 18:-1 19:-1 20:1 21:-1 22:-1 23:-1 24:-1 25:-1 26:-1 27:-1 28:-1 
-8192 1:-0.514806 2:0.784775 3:-0.790823 4:-0.569744 5:-0.712704 6:0.0300405 7:-0.486401 8:0.530588 9:0.0468568 10:-1 11:1 12:-1 13:-1 14:-1 15:-1 16:-1 17:-1 18:-1 19:-1 20:1 21:-1 22:-1 23:-1 24:-1 25:-1 26:-1 27:-1 28:-1 
-8192 1:-0.689203 2:0.623913 3:-0.852716 4:-0.885298 5:-0.0548272 6:-0.415366 7:-0.00903469 8:-0.0985164 9:0.00950475 10:1 11:-1 12:-1 13:-1 14:-1 15:-1 16:-1 17:-1 18:-1 19:-1 20:1 21:-1 22:-1 23:-1 24:-1 25:-1 26:-1 27:-1 28:-1 
-8192 1:-0.0420272 2:0.343752 3:0.00211087 4:-0.561277 5:0.592047 6:0.0334848 7:-0.878819 8:0.021837 9:-0.0338503 10:1 11:-1 12:-1 13:-1 14:-1 15:-1 16:-1 17:-1 18:-1 19:-1 20:-1 21:-1 22:1 23:-1 24:-1 25:-1 26:-1 27:-1 28:-1 
-8192 1:0.068652 2:0.181475 3:-0.865893 4:-0.681178 5:0.870704 6:0.117537 7:-0.721395 8:0.160527 9:-0.0321828 10:-1 11:1 12:-1 13:-1 14:-1 15:-1 16:-1 17:-1 18:-1 19:-1 20:1 21:-1 22:-1 23:-1 24:-1 25:-1 26:-1 27:-1 28:-1 
-8192 1:-0.66518 2:0.373902 3:0.0364317 4:-0.189968 5:-0.999858 6:0.547361 7:-1 8:-0.348891 9:-0.874937 10:-1 11:-1 12:-1 13:1 14:-1 15:-1 16:-1 17:-1 18:-1 19:-1 20:1 21:-1 22:-1 23:-1 24:-1 25:-1 26:-1 27:-1 28:-1 
-8192 1:-0.111358 2:0.861177 3:0.038177 4:-0.686784 5:-0.213995 6:0.119579 7:-0.491259 8:-0.191532 9:-0.950308 10:1 11:-1 12:-1 13:-1 14:-1 15:-1 16:-1 17:-1 18:-1 19:-1 20:-1 21:-1 22:-1 23:1 24:-1 25:-1 26:-1 27:-1 28:-1 
-8192 1:-0.194951 2:0.669877 3:-0.893932 4:-0.600829 5:-0.978621 6:-0.129818 7:-0.58968 8:0.0325054 9:-0.0588628 10:1 11:-1 12:-1 13:-1 14:-1 15:-1 16:-1 17:-1 18:-1 19:-1 20:1 21:-1 22:-1 23:-1 24:-1 25:-1 26:-1 27:-1 28:-1 
-8192 1:0.562297 2:0.430299 3:-0.988777 4:-0.455811 5:-0.639804 6:0.0969738 7:-0.873298 8:-0.0601767 9:-0.126563 10:1 11:-1 12:-1 13:-1 14:-1 15:-1 16:-1 17:-1 18:-1 19:-1 20:-1 21:1 22:-1 23:-1 24:-1 25:-1 26:-1 27:-1 28:-1 
-8192 1:-0.458042 2:0.560375 3:-0.99227 4:-0.21472 5:-0.879998 6:0.504817 7:-0.51493 8:0.150525 9:-0.902951 10:-1 11:-1 12:-1 13:1 14:-1 15:-1 16:-1 17:-1 18:-1 19:-1 20:1 21:-1 22:-1 23:-1 24:-1 25:-1 26:-1 27:-1 28:-1 
-8192 1:0.550979 2:0.625821 3:-0.921364 4:-0.213016 5:0.86569 6:0.0624937 7:-0.570038 8:-0.0845141 9:-0.163915 10:1 11:-1 12:-1 13:-1 14:-1 15:-1 16:-1 17:-1 18:-1 19:-1 20:1 21:-1 22:-1 23:-1 24:-1 25:-1 26:-1 27:-1 28:-1 
-8192 1:0.525152 2:0.544784 3:-0.930434 4:-0.599441 5:-0.881465 6:0.107376 7:-0.62375 8:-0.648275 9:-0.0812073 10:-1 11:-1 12:-1 13:-1 14:1 15:-1 16:-1 17:-1 18:-1 19:-1 20:1 21:-1 22:-1 23:-1 24:-1 25:-1 26:-1 27:-1 28:-1 
-8192 1:0.588711 2:0.53849 3:-0.970748 4:-0.283871 5:-0.180649 6:0.0147321 7:-0.212433 8:-0.43824 9:-0.192596 10:1 11:-1 12:-1 13:-1 14:-1 15:-1 16:-1 17:-1 18:-1 19:-1 20:1 21:-1 22:-1 23:-1 24:-1 25:-1 26:-1 27:-1 28:-1 
-8192 1:0.624384 2:0.654537 3:-0.976346 4:-0.645223 5:0.280705 6:0.019332 7:-0.401981 8:-0.0721787 9:-0.0235118 10:1 11:-1 12:-1 13:-1 14:-1 15:-1 16:-1 17:-1 18:-1 19:-1 20:1 21:-1 22:-1 23:-1 24:-1 25:-1 26:-1 27:-1 28:-1 
-8192 1:-0.0660192 2:-0.664826 3:-0.911631 4:-0.153778 5:-0.19678 6:0.130711 7:-0.950526 8:-0.7983 9:-0.0178423 10:-1 11:1 12:-1 13:-1 14:-1 15:-1 16:-1 17:-1 18:-1 19:-1 20:1 21:-1 22:-1 23:-1 24:-1 25:-1 26:-1 27:-1 28:-1 
-8192 1:-0.142999 2:0.919104 3:-0.8107 4:-0.733904 5:-0.999344 6:0.0988406 7:-0.557819 8:0.329888 9:0.0165083 10:-1 11:1 12:-1 13:-1 14:-1 15:-1 16:-1 17:-1 18:-1 19:-1 20:-1 21:1 22:-1 23:-1 24:-1 25:-1 26:-1 27:-1 28:-1 
-8192 1:-0.142999 2:0.815088 3:-0.691489 4:-0.733904 5:-0.999381 6:0.024589 7:-0.557819 8:-0.0558426 9:0.302651 10:-1 11:1 12:-1 13:-1 14:-1 15:-1 16:-1 17:-1 18:-1 19:-1 20:-1 21:1 22:-1 23:-1 24:-1 25:-1 26:-1 27:-1 28:-1 
-8192 1:-0.37032 2:0.670723 3:-0.326363 4:-0.184214 5:-0.103221 6:0.508157 7:-0.533825 8:-0.679613 9:0.283642 10:-1 11:-1 13:-1 14:-1 15:-1 16:-1 17:-1 18:-1 19:-1 20:1 21:-1 22:-1 23:-1 24:-1 25:-1 26:-1 27:-1 28:-1 
-8192 1:-0.0645897 2:0.521535 3:-0.814528 4:-0.546439 5:-0.659716 6:-0.102312 7:-0.307449 8:0.215203 9:-0.0868768 10:1 11:-1 12:-1 13:-1 14:-1 15:-1 16:-1 17:-1 18:-1 19:-1 20:1 21:-1 22:-1 23:-1 24:-1 25:-1 26:-1 27:-1 28:-1 
-8192 1:0.316072 2:0.849854 3:-0.95039 4:-0.577718 5:0.0768549 6:0.0471641 7:-0.663131 8:0.131855 9:0.00150075 10:-1 11:1 12:-1 13:-1 14:-1 15:-1 16:-1 17:-1 18:-1 19:-1 20:1 21:-1 22:-1 23:-1 24:-1 25:-1 26:-1 27:-1 28:-1 
-8192 1:-0.151864 2:0.491165 3:-0.914177 4:-0.446165 5:-0.238925 6:0.0882896 7:-0.741698 8:0.0535089 9:-0.392029 10:-1 11:1 12:-1 13:-1 14:-1 15:-1 16:-1 17:-1 18:-1 19:-1 20:-1 21:1 22:-1 23:-1 24:-1 25:-1 26:-1 27:-1 28:-1 
-8192 1:-0.0400536 2:0.280229 3:-0.992137 4:-0.363901 5:-0.746927 6:-0.0107775 7:-0.409169 8:0.233872 9:-0.332666 10:1 11:-1 12:-1 13:-1 14:-1 15:-1 16:-1 17:-1 18:-1 19:-1 20:1 21:-1 22:-1 23:-1 24:-1 25:-1 26:-1 27:-1 28:-1 
-8192 1:-0.031402 2:0.544071 3:-0.376101 4:-0.391966 5:-0.974111 6:0.0221538 7:-0.641357 8:0.166528 9:0.383692 10:-1 11:1 12:-1 13:-1 14:-1 15:-1 16:-1 17:-1 18:-1 19:-1 20:-1 21:1 22:-1 23:-1 24:-1 25:-1 26:-1 27:-1 28:-1 
-8192 1:0.232255 2:0.545204 3:-0.812752 4:-0.655199 5:0.334075 6:0.0187173 7:-0.770622 8:-0.334889 9:-0.0998833 10:-1 11:1 12:-1 13:-1 14:-1 15:-1 16:-1 17:-1 18:-1 19:-1 20:1 21:-1 22:-1 23:-1 24:-1 25:-1 26:-1 27:-1 28:-1 
-8192 1:0.331455 2:0.797209 3:-0.966692 4:-0.343218 5:-0.327606 6:0.0100015 7:-0.369192 8:-0.0125021 9:-0.323995 10:-1 11:1 12:-1 13:-1 14:-1 15:-1 16:-1 17:-1 18:-1 19:-1 20:1 21:-1 22:-1 23:-1 24:-1 25:-1 26:-1 27:-1 28:-1 
-8192 1:-0.183152 2:0.597417 3:-0.642575 4:-0.618221 5:0.294976 6:-0.0187684 7:-0.165118 8:0.0718453 9:0.692513 10:1 11:-1 12:-1 13:-1 14:-1 15:-1 16:-1 17:-1 18:-1 19:-1 20:1 21:-1 22:-1 23:-1 24:-1 25:-1 26:-1 27:-1 28:-1 
-8192 1:0.420863 2:0.487598 3:-0.920167 4:-0.241307 5:0.850919 6:-0.0241385 7:-0.906879 8:0.586931 9:-0.144906 10:-1 11:1 12:-1 13:-1 14:-1 15:-1 16:-1 17:-1 18:-1 19:-1 20:1 21:-1 22:-1 23:-1 24:-1 25:-1 26:-1 27:-1 28:-1 
-8192 1:-0.521047 2:0.51279 3:-0.280404 4:-0.532168 5:-0.183081 6:0.0991146 7:-0.863746 8:-0.972329 9:0.144239 10:1 11:-1 12:-1 13:-1 14:-1 15:-1 16:-1 17:-1 18:-1 19:-1 20:1 21:-1 22:-1 23:-1 24:-1 25:-1 26:-1 27:-1 28:-1 
-8192 1:0.474234 2:0.569293 3:-0.937385 4:-0.789042 5:-0.257737 6:0.327997 7:-0.945949 8:-0.335889 9:0.00216775 10:1 11:-1 12:-1 13:-1 14:-1 15:-1 16:-1 17:-1 18:-1 19:-1 20:1 21:-1 22:-1 23:-1 24:-1 25:-1 26:-1 27:-1 28:-1 
-8192 1:-0.162798 2:0.685805 3:-0.00667569 4:-0.514358 5:-0.412051 6:-0.0690582 7:-0.317759 8:-0.938656 9:0.864265 10:1 11:-1 12:-1 13:-1 14:-1 15:-1 16:-1 17:-1 18:-1 19:-1 20:-1 21:-1 22:-1 23:1 24:-1 25:-1 26:-1 27:-1 28:-1 
-8192 1:-0.44683 2:0.902574 3:0.781075 4:-0.496444 5:0.537654 6:-0.0669784 7:-0.588195 8:-0.149192 9:-0.356345 10:1 11:-1 12:-1 13:-1 14:-1 15:-1 16:-1 17:-1 18:-1 19:-1 20:1 21:-1 22:-1 23:-1 24:-1 25:-1 26:-1 27:-1 28:-1 
-8192 1:-0.111603 2:0.750795 3:-0.735191 4:-0.574514 5:-0.999982 6:-0.163898 7:-0.295308 8:-0.612269 9:0.0765383 10:-1 11:1 12:-1 13:-1 14:-1 15:-1 16:-1 17:-1 18:-1 19:-1 20:1 21:-1 22:-1 23:-1 24:-1 25:-1 26:-1 27:-1 28:-1 
-8192 1:-0.463525 2:0.47732 3:0.0287527 4:0.0208966 5:0.565497 6:0.328062 7:-0.896585 8:-0.503584 9:-0.672836 10:-1 11:-1 12:-1 13:-1 14:-1 15:-1 16:-1 17:-1 18:0.333333 19:-1 20:-1 21:-1 22:-1 23:-1 24:-1 25:-1 26:1 27:-1 28:-1 
-8192 1:0.290682 2:0.154025 3:-0.996768 4:0.240964 5:-0.00957174 6:0.0248448 7:-0.512157 8:-0.693616 9:0.0501918 10:-1 11:-1 12:-1 13:1 14:-1 15:-1 16:-1 17:-1 18:-1 19:-1 20:1 21:-1 22:-1 23:-1 24:-1 25:-1 26:-1 27:-1 28:-1 
-8192 1:0.290682 2:0.154025 3:-0.996768 4:0.240964 5:-1 6:0.0188804 7:-0.764177 8:-0.693616 9:-0.203602 10:-1 11:-1 12:-1 13:1 14:-1 15:-1 16:-1 17:-1 18:-1 19:-1 20:-1 21:-1 22:1 23:-1 24:-1 25:-1 26:-1 27:-1 28:-1 
-8192 1:-0.187057 2:0.287506 3:-0.0286823 4:-0.905263 5:-0.558884 6:0.0651819 7:-0.795926 8:0.0131689 9:0.0238453 10:1 11:-1 12:-1 13:-1 14:-1 15:-1 16:-1 17:-1 18:-1 19:-1 20:1 21:-1 22:-1 23:-1 24:-1 25:-1 26:-1 27:-1 28:-1 
-8192 1:-0.0323514 2:0.163932 3:-0.925912 4:-0.623979 5:-0.914498 6:0.15945 7:-0.818858 8:-0.78163 9:0.0211773 10:-1 11:-1 12:-1 13:1 14:-1 15:-1 16:-1 17:-1 18:-1 19:-1 20:1 21:-1 22:-1 23:-1 24:-1 25:-1 26:-1 27:-1 28:-1 
-8192 1:-0.500351 2:0.833236 3:-0.370895 4:-0.682583 5:0.0733746 6:-0.0915765 7:-0.124672 8:-0.569262 9:-0.0121728 10:-1 11:1 12:-1 13:-1 14:-1 15:-1 16:-1 17:-1 18:-1 19:-1 20:1 21:-1 22:-1 23:-1 24:-1 25:-1 26:-1 27:-1 28:-1 
-8192 1:-0.500351 2:0.922388 3:-0.23215 4:-0.682583 5:0.0733746 6:-0.0740708 7:-0.189072 8:-0.142524 9:-0.0121728 10:-1 11:1 12:-1 13:-1 14:-1 15:-1 16:-1 17:-1 18:-1 19:-1 20:1 21:-1 22:-1 23:-1 24:-1 25:-1 26:-1 27:-1 28:-1 
-8192 1:0.382864 2:0.377338 3:-0.993561 4:-0.721489 5:0.564198 6:0.288076 7:-0.679998 8:0.188865 9:-0.0895448 10:1 11:-1 12:-1 13:-1 14:-1 15:-1 16:-1 17:-1 18:-1 19:-1 20:1 21:-1 22:-1 23:-1 24:-1 25:-1 26:-1 27:-1 28:-1 
-8192 1:0.382864 2:0.44727 3:-0.92917 4:-0.010585 5:0.29507 6:0.0438629 7:-0.679998 8:0.416903 9:-0.0895448 10:1 11:-1 12:-1 13:-1 14:-1 15:-1 16:-1 17:-1 18:-1 19:-1 20:1 21:-1 22:-1 23:-1 24:-1 25:-1 26:-1 27:-1 28:-1 
-8192 1:-0.0638216 2:0.138893 3:-0.442067 4:-0.140865 5:-0.446797 6:-0.0468002 7:-0.400504 8:0.299217 9:0.134901 10:1 11:-1 12:-1 13:-1 14:-1 15:-1 16:-1 17:-1 18:-1 19:-1 20:1 21:-1 22:-1 23:-1 24:-1 25:-1 26:-1 27:-1 28:-1 
-8192 1:0.0962925 2:0.375399 3:-0.835145 4:-0.244582 5:0.223364 6:0.217416 7:-0.857246 8:-0.337223 9:-0.585126 10:1 11:-1 12:-1 13:-1 14:-1 15:-1 16:-1 17:-1 18:-1 19:-1 20:-1 21:1 22:-1 23:-1 24:-1 25:-1 26:-1 27:-1 28:-1 
-8192 1:-0.803914 2:0.689523 3:-0.230321 4:-0.582094 5:0.236397 6:-0.565803 7:0.277177 8:-0.262877 9:0.328331 10:-1 11:-1 12:1 13:-1 14:-1 15:-1 16:-1 17:-1 18:-1 19:-1 20:1 21:-1 22:-1 23:-1 24:-1 25:-1 26:-1 27:-1 28:-1 
-8192 1:0.553923 2:0.762367 3:-0.863002 4:0.0504666 5:-0.983224 6:0.0349797 7:-0.944412 8:-0.0695116 9:-0.625813 10:-1 11:-1 12:-1 13:-1 14:-1 15:-1 16:-1 17:1 18:-1 19:-1 20:-1 21:-1 22:-1 23:-1 24:-1 25:1 26:-1 27:-1 28:-1 
-8192 1:-0.528973 2:0.586544 3:0.14534 4:-0.584313 5:-1 6:0.461178 7:-0.900528 8:-0.161527 9:-0.149241 10:-1 11:1 12:-1 13:-1 14:-1 15:-1 16:-1 17:-1 18:-1 19:-1 20:1 21:-1 22:-1 23:-1 24:-1 25:-1 26:-1 27:-1 28:-1 
-2515.964446712481 1:0.593543 2:0.649874 3:-0.941573 4:-0.356119 5:-0.544975 6:0.0360909 7:-0.172644 8:-0.00883481 9:0.0631983 10:1 11:-1 12:-1 13:-1 14:-1 15:-1 16:-1 17:-1 18:-1 19:-1 20:1 21:-1 22:-1 23:-1 24:-1 25:-1 26:-1 27:-1 28:-1 
-8192 1:-0.0147494 2:0.846619 3:-0.153263 4:-0.894604 5:-0.601055 6:0.398712 7:-0.803613 8:0.362894 9:-0.0151743 10:-1 11:1 12:-1 13:-1 14:-1 15:-1 16:-1 17:-1 18:-1 19:-1 20:1 21:-1 22:-1 23:-1 24:-1 25:-1 26:-1 27:-1 28:-1 
-8192 1:-0.989729 2:0.650896 3:-0.500263 4:-0.528197 5:0.534216 6:-0.117518 7:-0.177471 8:-0.401567 9:0.0848758 10:-1 11:1 12:-1 13:-1 14:-1 15:-1 16:-1 17:-1 18:-1 19:-1 20:1 21:-1 22:-1 23:-1 24:-1 25:-1 26:-1 27:-1 28:-1 
-8192 1:-0.134294 2:0.508196 3:-0.967621 4:-0.537769 5:0.669293 6:0.322609 7:-1 8:0.068178 9:-0.113223 10:1 11:-1 12:-1 13:-1 14:-1 15:-1 16:-1 17:-1 18:-1 19:-1 20:-1 21:-1 22:-1 23:1 24:-1 25:-1 26:-1 27:-1 28:-1 
-8192 1:-0.134294 2:0.253051 3:-0.741495 4:-0.501675 5:0.0745747 6:0.155874 7:-1 8:-0.250208 9:0.00116725 10:1 11:-1 12:-1 13:-1 14:-1 15:-1 16:-1 17:-1 18:-1 19:-1 20:1 21:-1 22:-1 23:-1 24:-1 25:-1 26:-1 27:-1 28:-1 
-8192 1:0.0619526 2:0.841917 3:-0.891326 4:-0.739951 5:-0.357016 6:-0.0879793 7:-0.327608 8:-0.927988 9:-0.0945473 10:1 11:-1 12:-1 13:-1 14:-1 15:-1 16:-1 17:-1 18:-1 19:-1 20:1 21:-1 22:-1 23:-1 24:-1 25:-1 26:-1 27:-1 28:-1 
-8192 1:0.380783 2:0.358114 3:-0.943157 4:-0.359968 5:-0.647571 6:0.563033 7:-0.768807 8:-0.411902 9:-0.00817075 10:-1 11:-1 13:-1 14:-1 15:-1 16:-1 17:-1 18:-1 19:-1 20:1 21:-1 22:-1 23:-1 24:-1 25:-1 26:-1 27:-1 28:-1 
-8192 1:-0.492723 2:0.384413 3:-0.546559 4:-0.71377 5:-0.619223 6:0.201885 7:-0.618005 8:0.118186 9:-0.0872103 10:1 11:-1 12:-1 13:-1 14:-1 15:-1 16:-1 17:-1 18:-1 19:-1 20:-1 21:-1 22:-1 23:1 24:-1 25:-1 26:-1 27:-1 28:-1 
-8192 1:0.525429 2:0.962333 3:-0.639411 4:0.0258148 5:-0.116334 6:0.00756928 7:-0.664484 8:-0.353226 9:-0.829248 10:-1 11:-1 12:-1 13:-1 14:-1 15:-1 16:-1 17:1 18:-1 19:-1 20:-1 21:-1 22:-1 23:-1 24:-1 25:-1 26:1 27:-1 28:-1 
-8192 1:-0.526071 2:0.306033 3:-0.632259 4:0.119043 5:-0.585178 6:-0.0713318 7:-0.493696 8:-0.509252 9:0.0915458 10:1 11:-1 12:-1 13:-1 14:-1 15:-1 16:-1 17:-1 18:-1 19:-1 20:-1 21:1 22:-1 23:-1 24:-1 25:-1 26:-1 27:-1 28:-1 
-8192 1:-0.526071 2:0.241958 3:-0.586504 4:0.334592 5:-0.522455 6:-0.0220599 7:-0.748521 8:0.754959 9:0.0915458 10:-1 11:1 12:-1 13:-1 14:-1 15:-1 16:-1 17:-1 18:-1 19:-1 20:-1 21:1 22:-1 23:-1 24:-1 25:-1 26:-1 27:-1 28:-1 
-8192 1:0.318344 2:0.555434 3:-0.689703 4:-0.339221 5:0.384343 6:0.135024 7:-0.785012 8:-0.285548 9:0.701184 10:1 11:-1 12:-1 13:-1 14:-1 15:-1 16:-1 17:-1 18:-1 19:-1 20:1 21:-1 22:-1 23:-1 24:-1 25:-1 26:-1 27:-1 28:-1 
-8192 1:0.0828936 2:0.78204 3:-0.515491 4:-0.815994 5:-0.499359 6:0.295927 7:-0.67869 8:-0.208868 9:0.0201768 10:1 11:-1 12:-1 13:-1 14:-1 15:-1 16:-1 17:-1 18:-1 19:-1 20:1 21:-1 22:-1 23:-1 24:-1 25:-1 26:-1 27:-1 28:-1 
-8192 1:-0.609583 2:0.810069 3:-0.991703 4:0.0754139 5:0.931531 6:-0.0112117 7:-0.588357 8:0.164527 9:0.441387 10:1 11:-1 12:-1 13:-1 14:-1 15:-1 16:-1 17:-1 18:-1 19:-1 20:1 21:-1 22:-1 23:-1 24:-1 25:-1 26:-1 27:-1 28:-1 
-8192 1:-0.0416644 2:-0.576774 3:-0.947863 4:0.296455 5:0.442461 6:0.0288745 7:-0.746029 8:-0.574262 9:-0.170585 10:1 11:-1 12:-1 13:-1 14:-1 15:-1 16:-1 17:-1 18:-1 19:-1 20:-1 21:1 22:-1 23:-1 24:-1 25:-1 26:-1 27:-1 28:-1 
-8192 1:-0.0416644 2:0.381172 3:-0.970721 4:-0.492275 5:0.215748 6:0.30003 7:-0.746029 8:0.22187 9:-0.170585 10:1 11:-1 12:-1 13:-1 14:-1 15:-1 16:-1 17:-1 18:-1 19:-1 20:-1 21:1 22:-1 23:-1 24:-1 25:-1 26:-1 27:-1 28:-1 
-8192 1:-1 2:0.420348 3:0.48043 4:-0.22942 5:0.480742 6:0.105591 7:-0.715774 8:0.0815136 9:0.861597 10:1 11:-1 12:-1 13:-1 14:-1 15:-1 16:-1 17:-1 18:-1 19:-1 20:-1 21:-1 22:-1 23:1 24:-1 25:-1 26:-1 27:-1 28:-1 
-8192 1:0.196538 2:0.821314 3:-0.265133 4:-0.741291 5:0.678049 6:-0.028855 7:-0.411179 8:-0.499917 9:0.708521 10:1 11:-1 12:-1 13:-1 14:-1 15:-1 16:-1 17:-1 18:-1 19:-1 20:1 21:-1 22:-1 23:-1 24:-1 25:-1 26:-1 27:-1 28:-1 
-8192 1:-0.426465 2:0.723497 3:-0.660965 4:-0.876673 5:-0.560936 6:0.17083 7:-1 8:0.167195 9:-0.102885 10:-1 11:-1 12:1 13:-1 14:-1 15:-1 16:-1 17:-1 18:-1 19:-1 20:1 21:-1 22:-1 23:-1 24:-1 25:-1 26:-1 27:-1 28:-1 
-8192 1:-0.426465 2:0.723497 3:-0.660965 4:-0.910635 5:-0.351144 6:0.171592 7:-1 8:0.167195 9:-0.0715358 10:-1 11:-1 12:1 13:-1 14:-1 15:-1 16:-1 17:-1 18:-1 19:-1 20:1 21:-1 22:-1 23:-1 24:-1 25:-1 26:-1 27:-1 28:-1 
-8192 1:0.0529489 2:0.375138 3:-0.869412 4:-0.705955 5:-1 6:0.300569 7:-0.943548 8:0.110852 9:-0.36735 10:-1 11:1 12:-1 13:-1 14:-1 15:-1 16:-1 17:-1 18:-1 19:-1 20:-1 21:-1 22:1 23:-1 24:-1 25:-1 26:-1 27:-1 28:-1 
-8192 1:0.198811 2:0.72694 3:0.115407 4:-0.192069 5:-0.995349 6:0.160788 7:-1 8:0.00883481 9:-0.305319 10:1 11:-1 12:-1 13:-1 14:-1 15:-1 16:-1 17:-1 18:-1 19:-1 20:1 21:-1 22:-1 23:-1 24:-1 25:-1 26:-1 27:-1 28:-1 
-8192 1:0.184334 2:0.757717 3:-0.717812 4:-0.406445 5:-0.663854 6:0.149212 7:-0.497099 8:0.0181697 9:0.530098 10:1 11:-1 12:-1 13:-1 14:-1 15:-1 16:-1 17:-1 18:-1 19:-1 20:-1 21:1 22:-1 23:-1 24:-1 25:-1 26:-1 27:-1 28:-1 
-8192 1:0.385306 2:0.541743 3:-0.811635 4:-0.099043 5:0.287825 6:0.251056 7:-1 8:-0.796299 9:-0.471736 10:-1 11:-1 12:-1 13:-1 14:1 15:-1 16:-1 17:-1 18:-1 19:-1 20:-1 21:-1 22:-1 23:1 24:-1 25:-1 26:-1 27:-1 28:-1 
-8192 1:-0.374171 2:0.6309 3:-0.116706 4:-0.746086 5:0.233879 6:0.0706243 7:-0.890418 8:-0.31722 9:-0.168251 10:-1 11:1 12:-1 13:-1 14:-1 15:-1 16:-1 17:-1 18:-1 19:-1 20:-1 21:1 22:-1 23:-1 24:-1 25:-1 26:-1 27:-1 28:-1 
-8192 1:-0.374171 2:0.191794 3:-0.359744 4:-0.663582 5:0.159503 6:0.0958765 7:-0.890418 8:-0.8013 9:-0.168251 10:-1 11:1 12:-1 13:-1 14:-1 15:-1 16:-1 17:-1 18:-1 19:-1 20:-1 21:1 22:-1 23:-1 24:-1 25:-1 26:-1 27:-1 28:-1 
-8192 1:-0.204307 2:0.423678 3:-0.78786 4:-0.450632 5:0.845044 6:-0.0954266 7:-0.423232 8:-0.171862 9:0.222945 10:1 11:-1 12:-1 13:-1 14:-1 15:-1 16:-1 17:-1 18:-1 19:-1 20:-1 21:-1 22:-1 23:1 24:-1 25:-1 26:-1 27:-1 28:-1 
-8192 1:-0.0314553 2:0.181764 3:-0.75437 4:-0.0496352 5:0.220868 6:-0.00755605 7:-0.540086 8:-0.00750125 9:0.151576 10:-1 11:1 12:-1 13:-1 14:-1 15:-1 16:-1 17:-1 18:-1 19:-1 20:1 21:-1 22:-1 23:-1 24:-1 25:-1 26:-1 27:-1 28:-1 
-8192 1:-0.103335 2:0.576779 3:-0.9673 4:-0.0648155 5:-1 6:0.520223 7:-0.845647 8:0.198866 9:0.449058 10:-1 11:-1 12:-1 13:1 14:-1 15:-1 16:-1 17:-1 18:-1 19:-1 20:1 21:-1 22:-1 23:-1 24:-1 25:-1 26:-1 27:-1 28:-1 
-8192 1:-0.347736 2:0.364725 3:-0.6194 4:-0.241788 5:0.830849 6:-0.0630629 7:-0.283734 8:-0.261877 9:-0.0145073 10:-1 11:1 12:-1 13:-1 14:-1 15:-1 16:-1 17:-1 18:-1 19:-1 20:1 21:-1 22:-1 23:-1 24:-1 25:-1 26:-1 27:-1 28:-1 
-8192 1:0.22499 2:0.820606 3:-0.461142 4:-0.281801 5:-0.476502 6:0.0597702 7:-0.772318 8:-0.420237 9:-0.0611973 10:-1 11:1 12:-1 13:-1 14:-1 15:-1 16:-1 17:-1 18:-1 19:-1 20:1 21:-1 22:-1 23:-1 24:-1 25:-1 26:-1 27:-1 28:-1 
-8192 1:-0.191132 2:0.391213 3:-0.916048 4:-0.100946 5:-0.998968 6:-0.0604014 7:-0.177359 8:0.123854 9:-0.0588628 10:1 11:-1 12:-1 13:-1 14:-1 15:-1 16:-1 17:-1 18:-1 19:-1 20:1 21:-1 22:-1 23:-1 24:-1 25:-1 26:-1 27:-1 28:-1 
-8192 1:-0.170735 2:0.726256 3:-0.152742 4:-0.469363 5:0.124187 6:0.155032 7:-0.696354 8:0.21787 9:-0.0175088 10:-1 11:1 12:-1 13:-1 14:-1 15:-1 16:-1 17:-1 18:-1 19:-1 20:1 21:-1 22:-1 23:-1 24:-1 25:-1 26:-1 27:-1 28:-1 
-8192 1:-0.151522 2:0.0621516 3:-0.50388 4:-0.433261 5:-0.487125 6:0.224541 7:-0.959622 8:-0.673946 9:-0.136902 10:1 11:-1 12:-1 13:-1 14:-1 15:-1 16:-1 17:-1 18:-1 19:-1 20:1 21:-1 22:-1 23:-1 24:-1 25:-1 26:-1 27:-1 28:-1 
-8192 1:-0.234081 2:0.495695 3:-0.689206 4:-0.256147 5:0.550339 6:0.0661068 7:-0.950199 8:0.224537 9:-0.0318493 10:1 11:-1 12:-1 13:-1 14:-1 15:-1 16:-1 17:-1 18:-1 19:-1 20:1 21:-1 22:-1 23:-1 24:-1 25:-1 26:-1 27:-1 28:-1 
-8192 1:-0.274171 2:0.726279 3:-0.653332 4:-0.281791 5:-0.850959 6:-0.116689 7:-0.29357 8:0.0545091 9:0.733533 10:1 11:-1 12:-1 13:-1 14:-1 15:-1 16:-1 17:-1 18:-1 19:-1 20:-1 21:1 22:-1 23:-1 24:-1 25:-1 26:-1 27:-1 28:-1 
-8192 1:-0.922609 2:0.595465 3:-0.877031 4:-0.901729 5:0.200078 6:0.895778 7:-0.47139 8:-0.0645108 9:0.114891 10:-1 11:-1 12:1 13:-1 14:-1 15:-1 16:-1 17:-1 18:-1 19:-1 20:1 21:-1 22:-1 23:-1 24:-1 25:-1 26:-1 27:-1 28:-1 
-8192 1:-0.0584663 2:0.364038 3:-0.979071 4:-0.717107 5:-0.821136 6:-0.0276535 7:-0.605899 8:0.0285048 9:0.137902 10:1 11:-1 12:-1 13:-1 14:-1 15:-1 16:-1 17:-1 18:-1 19:-1 20:1 21:-1 22:-1 23:-1 24:-1 25:-1 26:-1 27:-1 28:-1 
-8192 1:0.344651 2:0.172719 3:-0.959677 4:0.13299 5:-0.978435 6:0.171614 7:-0.433053 8:-0.192532 9:0.0305153 10:-1 11:-1 12:-1 13:1 14:-1 15:-1 16:-1 17:-1 18:-1 19:-1 20:1 21:-1 22:-1 23:-1 24:-1 25:-1 26:-1 27:-1 28:-1 
-8192 1:-0.000667809 2:0.0948885 3:-0.695748 4:-0.0546924 5:-0.541123 6:0.049309 7:-0.762763 8:-0.914319 9:0.321994 10:1 11:-1 12:-1 13:-1 14:-1 15:-1 16:-1 17:-1 18:-1 19:-1 20:1 21:-1 22:-1 23:-1 24:-1 25:-1 26:-1 27:-1 28:-1 
-8192 1:0.0237936 2:0.820686 3:-0.902875 4:-0.916884 5:0.559776 6:-0.0150216 7:-0.537913 8:0.274879 9:-0.0898783 10:1 11:-1 12:-1 13:-1 14:-1 15:-1 16:-1 17:-1 18:-1 19:-1 20:1 21:-1 22:-1 23:-1 24:-1 25:-1 26:-1 27:-1 28:-1 
-8192 1:0.0237936 2:0.833385 3:-0.904326 4:-0.587221 5:0.868394 6:-0.0502402 7:-0.758291 8:0.068178 9:-0.0898783 10:-1 11:1 12:-1 13:-1 14:-1 15:-1 16:-1 17:-1 18:-1 19:-1 20:1 21:-1 22:-1 23:-1 24:-1 25:-1 26:-1 27:-1 28:-1 
-8192 1:-0.0903846 2:0.527711 3:-0.992878 4:-0.192295 5:0.678625 6:0.0345303 7:-0.51225 8:0.190532 9:-0.0565283 10:-1 11:1 12:-1 13:-1 14:-1 15:-1 16:-1 17:-1 18:-1 19:-1 20:-1 21:1 22:-1 23:-1 24:-1 25:-1 26:-1 27:-1 28:-1 
-8192 1:0.423444 2:0.878818 3:-0.569164 4:-0.386283 5:-1 6:-0.213571 7:-0.876633 8:-0.365228 9:0.338336 10:-1 11:1 12:-1 13:-1 14:-1 15:-1 16:-1 17:-1 18:-1 19:-1 20:1 21:-1 22:-1 23:-1 24:-1 25:-1 26:-1 27:-1 28:-1 
-8192 1:-0.724501 2:0.573277 3:-0.937644 4:0.0249633 5:-0.857599 6:-0.0775181 7:-0.107099 8:-0.126188 9:-0.312323 10:-1 11:-1 12:-1 13:-1 14:1 15:-1 16:-1 17:-1 18:-1 19:-1 20:1 21:-1 22:-1 23:-1 24:-1 25:-1 26:-1 27:-1 28:-1 
-8192 1:-0.56183 2:0.306433 3:-0.719181 4:-0.202353 5:-0.991566 6:-0.110058 7:-0.638244 8:0.544257 9:0.743872 10:-1 11:-1 12:-1 13:-1 14:-1 15:-1 16:-1 17:1 18:-1 19:-1 20:-1 21:-1 22:-1 23:-1 24:-1 25:-1 26:-1 27:0.333333 28:-1 
-8192 1:-0.597738 2:0.252186 3:-0.685797 4:-0.887139 5:-0.181927 6:0.276717 7:-1 8:0.0238373 9:0.0585293 10:1 11:-1 12:-1 13:-1 14:-1 15:-1 16:-1 17:-1 18:-1 19:-1 20:1 21:-1 22:-1 23:-1 24:-1 25:-1 26:-1 27:-1 28:-1 
-8192 1:-0.59207 2:0.717008 3:-0.476214 4:-0.180658 5:0.793302 6:0.324677 7:-0.139035 8:-0.0928488 9:0.0481908 10:-1 11:-1 12:1 13:-1 14:-1 15:-1 16:-1 17:-1 18:-1 19:-1 20:1 21:-1 22:-1 23:-1 24:-1 25:-1 26:-1 27:-1 28:-1 
-8192 1:0.0314532 2:0.498026 3:-0.572389 4:-0.551588 5:-0.30232 6:-0.277383 7:-0.399036 8:-0.221537 9:-0.192263 10:1 11:-1 12:-1 13:-1 14:-1 15:-1 16:-1 17:-1 18:-1 19:-1 20:1 21:-1 22:-1 23:-1 24:-1 25:-1 26:-1 27:-1 28:-1 
-8192 1:0.0229722 2:0.833995 3:-0.0172464 4:-0.307979 5:-0.999983 6:0.0221035 7:-0.773036 8:-0.0411735 9:-0.69985 10:1 11:-1 12:-1 13:-1 14:-1 15:-1 16:-1 17:-1 18:-1 19:-1 20:1 21:-1 22:-1 23:-1 24:-1 25:-1 26:-1 27:-1 28:-1 
-8192 1:-0.292391 2:-0.139964 3:-0.703246 4:-0.410306 5:-0.564312 6:0.229161 7:-0.632529 8:-0.545924 9:-0.123895 10:1 11:-1 12:-1 13:-1 14:-1 15:-1 16:-1 17:-1 18:-1 19:-1 20:1 21:-1 22:-1 23:-1 24:-1 25:-1 26:-1 27:-1 28:-1 
-8192 1:-0.266671 2:0.733716 3:-0.697473 4:-0.541051 5:-0.263057 6:0.75109 7:-0.583166 8:0.0231705 9:0.0798733 10:-1 11:-1 12:1 13:-1 14:-1 15:-1 16:-1 17:-1 18:-1 19:-1 20:-1 21:-1 22:-1 23:1 24:-1 25:-1 26:-1 27:-1 28:-1 
-8192 1:0.358477 2:0.757741 3:-0.968679 4:-0.805137 5:-0.863633 6:0.108902 7:-0.48276 8:-0.0495083 9:-0.698849 10:1 11:-1 12:-1 13:-1 14:-1 15:-1 16:-1 17:-1 18:-1 19:-1 20:-1 21:-1 22:1 23:-1 24:-1 25:-1 26:-1 27:-1 28:-1 
-8192 1:-0.623832 2:0.587485 3:-0.252326 4:-0.186568 5:-1 6:-0.0901052 7:-0.401399 8:-0.978663 9:0.603802 10:-1 11:-1 12:-1 13:-1 14:-1 15:-1 16:1 17:-1 18:-1 19:-1 20:-1 21:-1 22:-1 23:-1 24:-1 25:-1 26:1 27:-1 28:-1 
-8192 1:-0.569425 2:0.424789 3:-0.43773 4:-0.470414 5:0.849004 6:0.0119708 7:-0.452998 8:0.70295 9:-0.426046 10:1 11:-1 12:-1 13:-1 14:-1 15:-1 16:-1 17:-1 18:-1 19:-1 20:-1 21:1 22:-1 23:-1 24:-1 25:-1 26:-1 27:-1 28:-1 
-8192 1:-0.569425 2:0.846499 3:0.542985 4:-0.470414 5:0.335637 6:-0.25338 7:-0.452998 8:-0.425571 9:0.702851 10:-1 11:1 12:-1 13:-1 14:-1 15:-1 16:-1 17:-1 18:-1 19:-1 20:1 21:-1 22:-1 23:-1 24:-1 25:-1 26:-1 27:-1 28:-1 
-8192 1:0.293616 2:0.383057 3:-0.816166 4:-0.191473 5:-0.845531 6:0.0399908 7:-0.784593 8:-0.0528421 9:-0.245623 10:1 11:-1 12:-1 13:-1 14:-1 15:-1 16:-1 17:-1 18:-1 19:-1 20:1 21:-1 22:-1 23:-1 24:-1 25:-1 26:-1 27:-1 28:-1 
-8192 1:0.269229 2:0.761647 3:-0.912203 4:-0.247132 5:0.0185724 6:-0.0182427 7:-0.23802 8:-0.252209 9:-0.143238 10:1 11:-1 12:-1 13:-1 14:-1 15:-1 16:-1 17:-1 18:-1 19:-1 20:-1 21:1 22:-1 23:-1 24:-1 25:-1 26:-1 27:-1 28:-1 
-8192 1:-0.0917181 2:0.677044 3:0.139801 4:0.400623 5:-0.514121 6:-0.22828 7:-0.246612 8:0.045841 9:-0.0638653 10:1 11:-1 12:-1 13:-1 14:-1 15:-1 16:-1 17:-1 18:-1 19:-1 20:1 21:-1 22:-1 23:-1 24:-1 25:-1 26:-1 27:-1 28:-1 
-8192 1:-0.257678 2:0.802258 3:0.982931 4:-0.439611 5:0.34986 6:0.0482984 7:-0.780863 8:0.748291 9:-0.0992163 10:-1 11:1 12:-1 13:-1 14:-1 15:-1 16:-1 17:-1 18:-1 19:-1 20:1 21:-1 22:-1 23:-1 24:-1 25:-1 26:-1 27:-1 28:-1 
-8192 1:-0.00941546 2:0.300233 3:-0.706272 4:-0.74107 5:-0.933558 6:0.247739 7:-0.933866 8:0.104184 9:-0.15391 10:1 11:-1 12:-1 13:-1 14:-1 15:-1 16:-1 17:-1 18:-1 19:-1 20:-1 21:1 22:-1 23:-1 24:-1 25:-1 26:-1 27:-1 28:-1 
-8192 1:-0.00941546 2:0.268345 3:-0.838593 4:-0.38554 5:0.789874 6:0.370084 7:-0.933866 8:-0.153526 9:0.0378523 10:-1 11:1 12:-1 13:-1 14:-1 15:-1 16:-1 17:-1 18:-1 19:-1 20:-1 21:-1 22:-1 23:1 24:-1 25:-1 26:-1 27:-1 28:-1 
-8192 1:-0.00941546 2:0.268345 3:-0.838593 4:-0.74107 5:0.425534 6:0.34385 7:-0.933866 8:-0.153526 9:0.103885 10:-1 11:1 12:-1 13:-1 14:-1 15:-1 16:-1 17:-1 18:-1 19:-1 20:1 21:-1 22:-1 23:-1 24:-1 25:-1 26:-1 27:-1 28:-1 
-8192 1:0.215399 2:0.930184 3:-0.471826 4:-0.296742 5:-0.88519 6:-0.236083 7:-0.00935492 8:-0.111852 9:0.104552 10:1 11:-1 12:-1 13:-1 14:-1 15:-1 16:-1 17:-1 18:-1 19:-1 20:1 21:-1 22:-1 23:-1 24:-1 25:-1 26:-1 27:-1 28:-1 
-8192 1:0.203014 2:0.308709 3:-0.742519 4:0.0249372 5:0.422268 6:0.0682553 7:-0.797109 8:-0.224871 9:-0.123895 10:1 11:-1 12:-1 13:-1 14:-1 15:-1 16:-1 17:-1 18:-1 19:-1 20:1 21:-1 22:-1 23:-1 24:-1 25:-1 26:-1 27:-1 28:-1 
-8192 1:0.203014 2:0.953063 3:-0.394742 4:0.0249372 5:0.0698724 6:0.0322947 7:-0.797109 8:-0.123521 9:-0.225279 10:1 11:-1 12:-1 13:-1 14:-1 15:-1 16:-1 17:-1 18:-1 19:-1 20:1 21:-1 22:-1 23:-1 24:-1 25:-1 26:-1 27:-1 28:-1 
-8192 1:0.0179156 2:0.496451 3:-0.589992 4:-0.595929 5:-0.851576 6:0.000104448 7:-0.546198 8:0.0318386 9:0.64082 10:1 11:-1 12:-1 13:-1 14:-1 15:-1 16:-1 17:-1 18:-1 19:-1 20:-1 21:1 22:-1 23:-1 24:-1 25:-1 26:-1 27:-1 28:-1 
-8192 1:-0.356463 2:0.476014 3:-0.521204 4:-0.28933 5:-0.444557 6:-0.0229692 7:-0.492717 8:0.0721787 9:0.0381858 10:-1 11:1 12:-1 13:-1 14:-1 15:-1 16:-1 17:-1 18:-1 19:-1 20:1 21:-1 22:-1 23:-1 24:-1 25:-1 26:-1 27:-1 28:-1 
-8192 1:-0.356463 2:-0.160039 3:-0.609999 4:-0.28933 5:-0.998184 6:-0.0605615 7:-0.492717 8:-0.659277 9:0.638486 10:-1 11:1 12:-1 13:-1 14:-1 15:-1 16:-1 17:-1 18:-1 19:-1 20:1 21:-1 22:-1 23:-1 24:-1 25:-1 26:-1 27:-1 28:-1 
-8192 1:0.339776 2:0.632181 3:-0.650174 4:-0.440222 5:-0.544307 6:-0.214772 7:-0.29135 8:-0.0805134 9:-0.251292 10:1 11:-1 12:-1 13:-1 14:-1 15:-1 16:-1 17:-1 18:-1 19:-1 20:1 21:-1 22:-1 23:-1 24:-1 25:-1 26:-1 27:-1 28:-1 
