svm_type c_svc
kernel_type rbf
gamma 0.000122
nr_class 2
total_sv 4873
rho 19.0708
label 1 -1
probA -1.25851
probB 3.93883
nr_sv 95 4778
SV
7168 1:0.5117 2:0.524613 3:-0.911966 4:-0.345689 5:0.0267133 6:0.0608653 7:-0.721469 8:-0.0988498 9:-0.0808738 10:0.00802666 11:0.412812 12:1 13:-1 14:-1 15:-1 16:-1 17:-1 18:-1 19:-1 20:-1 21:-1 22:-1 23:-1 24:-1 25:1 26:-1 27:-1 28:-1 29:-1 30:-1 
3188.662081936835 1:-0.0847564 2:0.231194 3:-0.551273 4:-0.538758 5:-0.896079 6:0.132802 7:-0.505298 8:0.0165028 9:-0.0905453 10:0.68015 11:-0.878952 12:-1 13:-1 14:1 15:-1 16:-1 17:-1 18:-1 19:-1 20:-1 21:-1 22:1 23:-1 24:-1 25:-1 26:-1 27:-1 28:-1 29:-1 30:-1 
7168 1:-0.657181 2:0.455403 3:-0.14999 4:-0.52984 5:-0.179646 6:-0.0541505 7:-0.798051 8:0.153192 9:0.0588628 10:-0.128902 11:0.0764592 12:1 13:-1 14:-1 15:-1 16:-1 17:-1 18:-1 19:-1 20:-1 21:-1 22:-1 23:1 24:-1 25:-1 26:-1 27:-1 28:-1 29:-1 30:-1 
1562.10378166753 1:-0.313703 2:0.265608 3:-0.563634 4:-0.10281 5:-0.580236 6:0.207414 7:-0.874931 8:0.363894 9:-0.0885443 10:-0.000609501 11:-0.829574 12:-1 13:-1 14:-1 15:-1 16:1 17:-1 18:-1 19:-1 20:-1 21:-1 22:1 23:-1 24:-1 25:-1 26:-1 27:-1 28:-1 29:-1 30:-1 
7168 1:0.136971 2:0.753985 3:-0.718542 4:-0.695079 5:-0.762787 6:0.29041 7:-0.632314 8:-0.121854 9:-0.10722 10:-0.534388 11:-0.715824 12:1 13:-1 14:-1 15:-1 16:-1 17:-1 18:-1 19:-1 20:-1 21:-1 22:1 23:-1 24:-1 25:-1 26:-1 27:-1 28:-1 29:-1 30:-1 
7168 1:-0.17574 2:0.232844 3:-0.848679 4:-0.742356 5:0.417321 6:0.426404 7:-0.83032 8:-0.0888481 9:-0.26063 10:0.124041 11:-0.72431 12:-1 13:-1 15:-1 16:-1 17:-1 18:-1 19:-1 20:-1 21:-1 22:-1 23:1 24:-1 25:-1 26:-1 27:-1 28:-1 29:-1 30:-1 
7168 1:-0.0387197 2:0.475957 3:-0.959275 4:-0.211588 5:0.798485 6:-0.0858146 7:-0.571566 8:0.301217 9:0.338336 10:-0.596661 11:0.89636 12:1 13:-1 14:-1 15:-1 16:-1 17:-1 18:-1 19:-1 20:-1 21:-1 22:1 23:-1 24:-1 25:-1 26:-1 27:-1 28:-1 29:-1 30:-1 
7168 1:0.065192 2:0.623039 3:-0.794323 4:-0.313964 5:-0.887117 6:0.254274 7:-0.746219 8:0.174529 9:0.337335 10:-0.073437 11:-0.993908 12:-1 13:-1 14:-1 15:-1 16:1 17:-1 18:-1 19:-1 20:-1 21:-1 22:-1 23:1 24:-1 25:-1 26:-1 27:-1 28:-1 29:-1 30:-1 
3862.685213496515 1:0.470975 2:0.377338 3:-0.993594 4:-0.805 5:0.433204 6:0.317613 7:-0.916875 8:0.188865 9:-0.0895448 10:-0.223834 11:-0.178847 12:1 13:-1 14:-1 15:-1 16:-1 17:-1 18:-1 19:-1 20:-1 21:-1 22:1 23:-1 24:-1 25:-1 26:-1 27:-1 28:-1 29:-1 30:-1 
7168 1:0.409956 2:0.696829 3:-0.682667 4:-0.72946 5:-1 6:0.17858 7:-0.73931 8:0.115519 9:-0.0325163 10:-0.0776754 11:0.359643 12:-1 13:-1 14:-1 15:-1 16:1 17:-1 18:-1 19:-1 20:-1 21:-1 22:-1 23:-1 24:-1 25:1 26:-1 27:-1 28:-1 29:-1 30:-1 
7168 1:0.346247 2:0.313678 3:-0.936827 4:-0.0894524 5:-0.887873 6:0.0530243 7:-0.802347 8:0.062177 9:-0.0405203 10:-0.416586 11:-0.905929 12:1 13:-1 14:-1 15:-1 16:-1 17:-1 18:-1 19:-1 20:-1 21:-1 22:1 23:-1 24:-1 25:-1 26:-1 27:-1 28:-1 29:-1 30:-1 
7168 1:-0.578444 2:0.679734 3:-0.256911 4:0.130682 5:-0.39152 6:-0.35489 7:-0.223063 8:0.0388398 9:0.0115058 10:0.475886 11:-0.97944 12:1 13:-1 14:-1 15:-1 16:-1 17:-1 18:-1 19:-1 20:-1 21:-1 22:-1 23:1 24:-1 25:-1 26:-1 27:-1 28:-1 29:-1 30:-1 
7168 1:0.183428 2:0.392447 3:-0.325321 4:-0.608427 5:0.87794 6:-0.056275 7:-0.545826 8:-0.128188 9:0.00416875 10:-0.165359 11:0.528473 12:-1 13:-1 14:-1 15:-1 16:1 17:-1 18:-1 19:-1 20:-1 21:-1 22:1 23:-1 24:-1 25:-1 26:-1 27:-1 28:-1 29:-1 30:-1 
1563.658047294239 1:0.86836 2:0.810894 3:-0.972712 4:-0.607829 5:0.0331861 6:0.202368 7:-0.779546 8:0.21787 9:0.0558613 10:0.0608907 11:0.309472 12:-1 13:1 14:-1 15:-1 16:-1 17:-1 18:-1 19:-1 20:-1 21:-1 22:1 23:-1 24:-1 25:-1 26:-1 27:-1 28:-1 29:-1 30:-1 
7168 1:-0.703735 2:0.706304 3:0.4392 4:-0.889874 5:-0.83548 6:-0.231322 7:-0.204674 8:-0.482247 9:-0.216275 10:0.417708 11:-0.269832 12:1 13:-1 14:-1 15:-1 16:-1 17:-1 18:-1 19:-1 20:-1 21:-1 22:1 23:-1 24:-1 25:-1 26:-1 27:-1 28:-1 29:-1 30:-1 
7168 1:0.170761 2:0.471108 3:-0.518843 4:0.0799778 5:-0.924211 6:0.129286 7:-0.747955 8:0.283881 9:0.157579 10:-0.559559 11:-0.954225 12:-1 13:-1 14:-1 15:1 16:-1 17:-1 18:-1 19:-1 20:-1 21:-1 22:1 23:-1 24:-1 25:-1 26:-1 27:-1 28:-1 29:-1 30:-1 
7168 1:0.164473 2:0.569304 3:-0.621784 4:-0.688365 5:-0.420028 6:0.59946 7:-0.839404 8:-0.691282 9:-0.127897 10:-0.504682 11:-0.972364 12:-1 13:-1 14:-1 15:1 16:-1 17:-1 18:-1 19:-1 20:-1 21:-1 22:-1 23:1 24:-1 25:-1 26:-1 27:-1 28:-1 29:-1 30:-1 
7168 1:-0.132972 2:0.572907 3:-0.0553979 4:-0.415151 5:-1 6:0.113164 7:-0.697191 8:0.014169 9:-0.0298483 10:-0.717073 11:-0.563064 12:1 13:-1 14:-1 15:-1 16:-1 17:-1 18:-1 19:-1 20:-1 21:-1 22:1 23:-1 24:-1 25:-1 26:-1 27:-1 28:-1 29:-1 30:-1 
7168 1:-0.180292 2:0.598405 3:-0.916088 4:-0.364491 5:-0.976828 6:0.144653 7:-0.393377 8:-0.294549 9:-0.494747 10:-0.086496 11:-0.993957 12:1 13:-1 14:-1 15:-1 16:-1 17:-1 18:-1 19:-1 20:-1 21:-1 22:1 23:-1 24:-1 25:-1 26:-1 27:-1 28:-1 29:-1 30:-1 
7168 1:-0.325768 2:0.609974 3:-0.0674117 4:-0.204475 5:-0.41928 6:-0.0335925 7:-0.602257 8:0.0371729 9:0.0188428 10:0.158311 11:0.235587 12:1 13:-1 14:-1 15:-1 16:-1 17:-1 18:-1 19:-1 20:-1 21:-1 22:-1 23:1 24:-1 25:-1 26:-1 27:-1 28:-1 29:-1 30:-1 
7168 1:0.659662 2:0.584065 3:-0.991351 4:-0.532484 5:-0.0939538 6:0.0322976 7:-0.457847 8:-0.589932 9:-0.171919 10:0.231316 11:-0.244896 12:-1 13:1 14:-1 15:-1 16:-1 17:-1 18:-1 19:-1 20:-1 21:-1 22:1 23:-1 24:-1 25:-1 26:-1 27:-1 28:-1 29:-1 30:-1 
5874.08997149784 1:0.168718 2:0.688904 3:-0.845832 4:-0.772538 5:-1 6:0.84117 7:-0.786875 8:-0.363561 9:0.729531 10:0.286553 11:-0.683228 12:-1 13:-1 14:-1 15:1 16:-1 17:-1 18:-1 19:-1 20:-1 21:-1 22:-1 23:-1 24:-1 25:1 26:-1 27:-1 28:-1 29:-1 30:-1 
7168 1:-0.127853 2:0.210276 3:-0.870664 4:-0.127578 5:-1 6:0.0785648 7:-1 8:-0.191865 9:0.744205 10:0.031147 11:-0.976359 12:-1 13:1 14:-1 15:-1 16:-1 17:-1 18:-1 19:-1 20:-1 21:-1 22:1 23:-1 24:-1 25:-1 26:-1 27:-1 28:-1 29:-1 30:-1 
3112.480484981734 1:-0.121384 2:0.835672 3:-0.0962053 4:-0.529335 5:0.542772 6:0.0667897 7:-0.629789 8:0.163861 9:0.0315158 10:-0.125813 11:0.335532 12:1 13:-1 14:-1 15:-1 16:-1 17:-1 18:-1 19:-1 20:-1 21:-1 22:-1 23:1 24:-1 25:-1 26:-1 27:-1 28:-1 29:-1 30:-1 
7168 1:0.0776773 2:0.476451 3:-0.76956 4:-0.655018 5:-0.937247 6:0.0664667 7:-0.745799 8:-0.332222 9:0.00850425 10:0.166381 11:-0.877474 12:-1 13:1 14:-1 15:-1 16:-1 17:-1 18:-1 19:-1 20:-1 21:-1 22:1 23:-1 24:-1 25:-1 26:-1 27:-1 28:-1 29:-1 30:-1 
7168 1:-0.344984 2:0.53515 3:0.0370632 4:-0.692206 5:0.111201 6:-0.187485 7:-0.331789 8:-0.0475079 9:-0.148908 10:0.0157876 11:-0.953503 12:1 13:-1 14:-1 15:-1 16:-1 17:-1 18:-1 19:-1 20:-1 21:-1 22:1 23:-1 24:-1 25:-1 26:-1 27:-1 28:-1 29:-1 30:-1 
7168 1:-0.0734516 2:0.574672 3:-0.303378 4:-0.0727665 5:-1 6:-0.0326393 7:-0.649529 8:-0.226538 9:-0.0135068 10:-0.615077 11:0.312576 12:-1 13:1 14:-1 15:-1 16:-1 17:-1 18:-1 19:-1 20:-1 21:-1 22:1 23:-1 24:-1 25:-1 26:-1 27:-1 28:-1 29:-1 30:-1 
4569.424181313228 1:-0.702482 2:0.406945 3:-0.121202 4:-0.383916 5:0.673113 6:0.523377 7:-0.827329 8:-0.0538423 9:-0.172253 10:-0.473873 11:-0.52656 12:-1 13:-1 14:1 15:-1 16:-1 17:-1 18:-1 19:-1 20:-1 21:-1 22:-1 23:-1 24:0.333333 25:-1 26:-1 27:-1 28:-1 29:-1 30:-1 
6217.086214655825 1:0.329358 2:0.253994 3:-0.9018 4:-0.0849925 5:-0.365273 6:0.13738 7:-0.896665 8:-0.236206 9:-0.139236 10:-0.00165347 11:-0.802086 12:1 13:-1 14:-1 15:-1 16:-1 17:-1 18:-1 19:-1 20:-1 21:-1 22:-1 23:-1 24:1 25:-1 26:-1 27:-1 28:-1 29:-1 30:-1 
7168 1:0.198875 2:0.45144 3:-0.668881 4:-0.0804812 5:0.692552 6:-0.134028 7:-0.190196 8:-0.582264 9:0.104219 10:-0.133187 11:0.120515 12:-1 13:1 14:-1 15:-1 16:-1 17:-1 18:-1 19:-1 20:-1 21:-1 22:1 23:-1 24:-1 25:-1 26:-1 27:-1 28:-1 29:-1 30:-1 
5548.913577529293 1:0.155801 2:0.338258 3:-0.981304 4:-0.302799 5:0.845913 6:0.122152 7:-0.836144 8:-0.94199 9:0.0261798 10:-0.10751 11:0.532588 12:-1 13:1 14:-1 15:-1 16:-1 17:-1 18:-1 19:-1 20:-1 21:-1 22:1 23:-1 24:-1 25:-1 26:-1 27:-1 28:-1 29:-1 30:-1 
7168 1:1 2:0.834436 3:-0.994265 4:-0.389363 5:-0.546578 6:0.216779 7:-0.867416 8:0.0675113 9:-0.109221 10:-0.528684 11:-0.543134 12:-1 13:1 14:-1 15:-1 16:-1 17:-1 18:-1 19:-1 20:-1 21:-1 22:1 23:-1 24:-1 25:-1 26:-1 27:-1 28:-1 29:-1 30:-1 
7168 1:0.184654 2:0.771357 3:-0.985641 4:-0.268243 5:-0.786419 6:-0.205114 7:-0.422124 8:-0.0565094 9:-0.427714 10:-0.148346 11:-0.938524 12:1 13:-1 14:-1 15:-1 16:-1 17:-1 18:-1 19:-1 20:-1 21:-1 22:-1 23:1 24:-1 25:-1 26:-1 27:-1 28:-1 29:-1 30:-1 
7168 1:0.0804694 2:0.643305 3:0.601999 4:-0.392469 5:-0.94183 6:0.00208702 7:-0.803696 8:-0.069845 9:-0.0295148 10:0.196925 11:-0.0523454 12:1 13:-1 14:-1 15:-1 16:-1 17:-1 18:-1 19:-1 20:-1 21:-1 22:1 23:-1 24:-1 25:-1 26:-1 27:-1 28:-1 29:-1 30:-1 
7168 1:0.0923759 2:0.392179 3:-0.9168 4:-0.585311 5:-0.164796 6:0.502833 7:-0.63148 8:-0.311552 9:-0.301984 10:0.540602 11:-0.198543 12:-1 13:-1 14:-1 15:1 16:-1 17:-1 18:-1 19:-1 20:-1 21:-1 22:-1 23:1 24:-1 25:-1 26:-1 27:-1 28:-1 29:-1 30:-1 
1750.678863152139 1:-0.27232 2:0.314441 3:0.0643396 4:-0.558992 5:-0.326959 6:0.165357 7:-0.84056 8:-0.16186 9:-0.853927 10:0.436815 11:0.864325 12:1 13:-1 14:-1 15:-1 16:-1 17:-1 18:-1 19:-1 20:-1 21:-1 22:-1 23:1 24:-1 25:-1 26:-1 27:-1 28:-1 29:-1 30:-1 
7168 1:0.126495 2:0.431443 3:-0.848191 4:-0.578508 5:0.0238501 6:-0.0923287 7:-0.571503 8:-0.0825138 9:-0.500417 10:-0.260807 11:-0.00842802 12:1 13:-1 14:-1 15:-1 16:-1 17:-1 18:-1 19:-1 20:-1 21:-1 22:1 23:-1 24:-1 25:-1 26:-1 27:-1 28:-1 29:-1 30:-1 
7168 1:0.397312 2:0.197319 3:-0.982012 4:-0.0504158 5:-0.669794 6:0.0705459 7:-0.663697 8:0.103184 9:-0.0201768 10:0.344127 11:-0.689252 12:1 13:-1 14:-1 15:-1 16:-1 17:-1 18:-1 19:-1 20:-1 21:-1 22:-1 23:-1 24:-1 25:1 26:-1 27:-1 28:-1 29:-1 30:-1 
7168 1:0.470158 2:0.635452 3:-0.910088 4:-0.665868 5:-0.926498 6:0.314858 7:-0.621353 8:0.411569 9:0.220277 10:-0.076844 11:-0.926367 12:-1 13:-1 14:1 15:-1 16:-1 17:-1 18:-1 19:-1 20:-1 21:-1 22:-1 23:1 24:-1 25:-1 26:-1 27:-1 28:-1 29:-1 30:-1 
7168 1:-0.151848 2:0.67156 3:0.63785 4:-0.404108 5:-0.755068 6:-0.10292 7:-0.552462 8:-0.165861 9:0.196265 10:0.351422 11:0.886824 12:1 13:-1 14:-1 15:-1 16:-1 17:-1 18:-1 19:-1 20:-1 21:-1 22:1 23:-1 24:-1 25:-1 26:-1 27:-1 28:-1 29:-1 30:-1 
7168 1:-0.195308 2:0.649732 3:0.471623 4:-0.366022 5:-0.9272 6:0.00405073 7:-0.751189 8:-0.0545091 9:-0.132566 10:-0.115177 11:-0.787149 12:1 13:-1 14:-1 15:-1 16:-1 17:-1 18:-1 19:-1 20:-1 21:-1 22:1 23:-1 24:-1 25:-1 26:-1 27:-1 28:-1 29:-1 30:-1 
71.25366384672165 1:-0.623831 2:0.376189 3:-0.00079143 4:-0.0621496 5:-0.218669 6:-0.0105536 7:-0.677757 8:-0.226538 9:0.0955478 10:-0.00317565 11:-0.202728 12:1 13:-1 14:-1 15:-1 16:-1 17:-1 18:-1 19:-1 20:-1 21:-1 22:1 23:-1 24:-1 25:-1 26:-1 27:-1 28:-1 29:-1 30:-1 
7168 1:-0.237304 2:0.289592 3:-0.908778 4:0.0558638 5:-0.969976 6:0.0791888 7:-0.81757 8:0.238206 9:-0.0755378 10:0.123851 11:-0.982004 12:-1 13:1 14:-1 15:-1 16:-1 17:-1 18:-1 19:-1 20:-1 21:-1 22:1 23:-1 24:-1 25:-1 26:-1 27:-1 28:-1 29:-1 30:-1 
7168 1:0.270121 2:0.71048 3:-0.351166 4:-0.245922 5:-1 6:-0.0986454 7:-0.538612 8:0.0558426 9:-0.571452 10:-0.406775 11:0.298733 12:-1 13:-1 14:-1 15:-1 16:-1 17:1 18:-1 19:-1 20:-1 21:-1 22:-1 23:-1 24:-1 25:-1 26:1 27:-1 28:-1 29:-1 30:-1 
558.0678256484535 1:-0.686677 2:0.835417 3:-0.559707 4:-0.563929 5:0.440981 6:0.00491814 7:-0.872374 8:-0.308885 9:-0.11956 10:-0.345409 11:0.847553 12:-1 13:-1 14:-1 15:-1 16:-1 17:-1 18:1 19:-1 20:-1 21:-1 22:-1 23:-1 24:-1 25:-1 26:-1 27:-1 28:1 29:-1 30:-1 
7168 1:-0.647282 2:0.737099 3:-0.0733892 4:-0.63418 5:-0.79152 6:0.0371341 7:-0.928209 8:-0.274879 9:-0.311322 10:-0.093735 11:-0.948362 12:-1 13:-1 14:-1 15:-1 16:-1 17:-1 18:-1 19:1 20:-1 21:-1 22:-1 23:-1 24:-1 25:-1 26:-1 27:-1 28:1 29:-1 30:-1 
7168 1:-0.440372 2:0.702291 3:0.259898 4:0.13706 5:-0.999407 6:-0.101908 7:-0.544879 8:0.284547 9:-0.0181758 10:0.541099 11:-0.800403 12:-1 13:-1 14:-1 15:-1 16:-1 17:-1 18:1 19:-1 20:-1 21:-1 22:-1 23:-1 24:-1 25:-1 26:-1 27:-1 28:1 29:-1 30:-1 
7168 1:-0.457408 2:0.788759 3:-0.277355 4:-0.184123 5:-0.881477 6:-0.0375492 7:-0.765849 8:-0.132522 9:-0.176588 10:-0.204267 11:-0.744755 12:-1 13:-1 14:-1 15:-1 16:-1 17:1 18:-1 19:-1 20:-1 21:-1 22:-1 23:-1 24:-1 25:-1 26:1 27:-1 28:-1 29:-1 30:-1 
7168 1:-0.300219 2:0.542252 3:-0.662229 4:-0.598816 5:-0.944892 6:0.243873 7:-0.71353 8:-0.44224 9:-0.0591963 10:0.135775 11:-0.947687 12:-1 13:-1 14:-1 15:-1 16:-1 17:-1 18:-1 19:-1 20:-1 21:1 22:-1 23:-1 24:-1 25:-1 26:-1 27:-1 28:-1 29:-1 30:1 
7168 1:-0.0370966 2:0.410722 3:-0.661935 4:-0.514583 5:-0.883738 6:0.0385954 7:-0.749801 8:-0.578263 9:-0.147574 10:0.214307 11:-0.973875 12:-1 13:-1 14:-1 15:-1 16:-1 17:-1 18:1 19:-1 20:-1 21:-1 22:-1 23:-1 24:-1 25:-1 26:-1 27:1 28:-1 29:-1 30:-1 
7168 1:-0.981249 2:0.349481 3:-0.497026 4:-0.161699 5:0.318209 6:-0.0141531 7:-0.937851 8:0.0718453 9:-0.30065 10:-0.218576 11:-0.6534 12:-1 13:-1 14:-1 15:-1 16:-1 17:-1 18:1 19:-1 20:-1 21:-1 22:-1 23:-1 24:-1 25:-1 26:-1 27:1 28:-1 29:-1 30:-1 
7168 1:-0.196023 2:0.492723 3:-0.694556 4:-0.174572 5:-0.461146 6:0.296366 7:-0.941624 8:0.138523 9:-0.197265 10:0.800334 11:-0.205446 12:-1 13:-1 14:-1 15:-1 16:-1 17:-1 18:-1 19:-1 20:0.333333 21:-1 22:-1 23:-1 24:-1 25:-1 26:1 27:-1 28:-1 29:-1 30:-1 
7168 1:0.238193 2:0.339196 3:-0.921582 4:-0.426621 5:0.353716 6:-0.112408 7:-0.746299 8:-0.22287 9:-0.271302 10:-0.341414 11:0.349846 12:-1 13:-1 14:-1 15:-1 16:-1 17:1 18:-1 19:-1 20:-1 21:-1 22:-1 23:-1 24:-1 25:-1 26:-1 27:1 28:-1 29:-1 30:-1 
7168 1:0.478387 2:0.651817 3:-0.960274 4:-0.335056 5:-0.180545 6:0.000279995 7:-0.403407 8:-0.0838473 9:-0.0762048 10:0.845718 11:-0.826311 12:-1 13:-1 14:-1 15:-1 16:-1 17:-1 18:-1 19:1 20:-1 21:-1 22:-1 23:-1 24:-1 25:-1 26:-1 27:-1 28:1 29:-1 30:-1 
7168 1:-0.359478 2:0.526717 3:-0.946644 4:-0.213454 5:-0.00898981 6:-0.185604 7:-0.490829 8:-0.14119 9:-0.144239 10:0.135409 11:-0.428515 12:-1 13:-1 14:-1 15:-1 16:-1 17:-1 18:1 19:-1 20:-1 21:-1 22:-1 23:-1 24:-1 25:-1 26:-1 27:-1 28:1 29:-1 30:-1 
7168 1:0.05761 2:0.651237 3:0.0582185 4:-0.0075513 5:-0.425731 6:0.0472147 7:-0.58573 8:-0.245208 9:-0.894947 10:-0.0468597 11:-0.698581 12:-1 13:-1 14:-1 15:-1 16:-1 17:-1 18:-1 19:1 20:-1 21:-1 22:-1 23:-1 24:-1 25:-1 26:-1 27:1 28:-1 29:-1 30:-1 
1101.499808503956 1:-0.932578 2:0.725143 3:-0.643664 4:-0.491405 5:0.629919 6:-0.169702 7:-0.805009 8:-0.225204 9:-0.145239 10:-0.0774191 11:0.373957 12:-1 13:-1 14:-1 15:-1 16:-1 17:-1 18:-1 19:-1 20:0.333333 21:-1 22:-1 23:-1 24:-1 25:-1 26:-1 27:1 28:-1 29:-1 30:-1 
7168 1:0.443621 2:0.386049 3:-0.878067 4:0.0244024 5:0.523954 6:0.129109 7:-0.803819 8:-0.255209 9:-0.54644 10:0.16174 11:-0.559126 12:-1 13:-1 14:-1 15:-1 16:-1 17:-1 18:-1 19:1 20:-1 21:-1 22:-1 23:-1 24:-1 25:-1 26:-1 27:-1 28:1 29:-1 30:-1 
7168 1:0.617836 2:0.718322 3:-0.934479 4:-0.559767 5:-0.634791 6:0.0201894 7:-1 8:-0.35856 9:-0.105553 10:-0.827658 11:-0.880499 12:-1 13:-1 14:-1 15:-1 16:-1 17:1 18:-1 19:-1 20:-1 21:-1 22:-1 23:-1 24:-1 25:-1 26:-1 27:1 28:-1 29:-1 30:-1 
7168 1:-0.00121845 2:0.749103 3:-0.83501 4:-0.510051 5:0.120145 6:0.022956 7:-0.316983 8:-0.113186 9:-0.813573 10:0.415095 11:0.618408 12:-1 13:-1 14:-1 15:-1 16:-1 17:-1 18:1 19:-1 20:-1 21:-1 22:-1 23:-1 24:-1 25:-1 26:-1 27:1 28:-1 29:-1 30:-1 
7168 1:0.0714346 2:0.637672 3:-0.622577 4:-0.214718 5:-0.23119 6:0.0622235 7:-0.905243 8:-0.395899 9:-0.0201768 10:-0.125707 11:-0.3293 12:-1 13:-1 14:-1 15:-1 16:-1 17:-1 18:-1 19:1 20:-1 21:-1 22:-1 23:-1 24:-1 25:-1 26:-1 27:-1 28:1 29:-1 30:-1 
7168 1:-0.343894 2:0.70168 3:-0.839453 4:-0.0389466 5:0.805598 6:-0.0660397 7:-0.620679 8:-0.181864 9:0.268968 10:0.0281839 11:0.729639 12:-1 13:-1 14:-1 15:-1 16:-1 17:-1 18:-1 19:1 20:-1 21:-1 22:-1 23:-1 24:-1 25:-1 26:-1 27:-1 28:1 29:-1 30:-1 
7168 1:-0.0487193 2:0.462019 3:-0.722267 4:-0.683492 5:-0.13137 6:0.704531 7:-1 8:0.249542 9:-0.223612 10:-0.0638288 11:-0.119843 12:-1 13:-1 14:-1 15:-1 16:-1 17:-1 18:-1 19:-1 20:0.333333 21:-1 22:-1 23:-1 24:-1 25:-1 26:-1 27:-1 28:1 29:-1 30:-1 
7168 1:0.00619327 2:0.480648 3:-0.852292 4:-0.0524143 5:0.866399 6:0.0496265 7:-0.525636 8:-0.581264 9:-0.597465 10:-0.0970575 11:0.896839 12:-1 13:-1 14:-1 15:-1 16:-1 17:-1 18:-1 19:1 20:-1 21:-1 22:-1 23:-1 24:-1 25:-1 26:-1 27:1 28:-1 29:-1 30:-1 
7168 1:0.295148 2:0.634686 3:-0.479826 4:-0.340132 5:-0.714219 6:0.0721948 7:-0.735243 8:-0.154526 9:-0.215608 10:0.154226 11:-0.859099 12:-1 13:-1 14:-1 15:-1 16:-1 17:-1 18:-1 19:1 20:-1 21:-1 22:-1 23:-1 24:-1 25:-1 26:-1 27:-1 28:1 29:-1 30:-1 
7168 1:0.715403 2:0.522328 3:-0.985449 4:-0.389178 5:-1 6:0.0803547 7:-0.822509 8:-0.12052 9:-0.0561948 10:0.195181 11:0.88453 12:-1 13:-1 14:-1 15:-1 16:-1 17:-1 18:-1 19:1 20:-1 21:-1 22:-1 23:-1 24:-1 25:-1 26:-1 27:1 28:-1 29:-1 30:-1 
7168 1:-0.99597 2:0.484746 3:-0.10712 4:-0.638862 5:0.648067 6:0.222734 7:-0.917856 8:0.861644 9:-0.726196 10:-0.460779 11:-0.0607636 12:-1 13:-1 14:-1 15:-1 16:-1 17:-1 18:1 19:-1 20:-1 21:-1 22:-1 23:-1 24:-1 25:-1 26:-1 27:-1 28:1 29:-1 30:-1 
7168 1:-0.608158 2:0.26212 3:-0.818172 4:-0.612418 5:0.852391 6:0.0971529 7:-0.949007 8:-0.474579 9:-0.73987 10:0.120637 11:0.685714 12:-1 13:-1 14:-1 15:-1 16:-1 17:-1 18:1 19:-1 20:-1 21:-1 22:-1 23:-1 24:-1 25:-1 26:-1 27:1 28:-1 29:-1 30:-1 
7168 1:0.512234 2:0.496485 3:-0.918574 4:-0.766815 5:-0.814112 6:0.15924 7:-0.674381 8:-0.317553 9:-0.138903 10:0.852813 11:-0.616603 12:-1 13:-1 14:-1 15:-1 16:-1 17:-1 18:-1 19:1 20:-1 21:-1 22:-1 23:-1 24:-1 25:-1 26:-1 27:-1 28:1 29:-1 30:-1 
7168 1:-0.416695 2:0.52733 3:-0.566385 4:-0.373687 5:-0.965973 6:0.128168 7:-1 8:0.197533 9:0.0108388 10:0.0830703 11:-0.394197 12:-1 13:-1 14:-1 15:-1 16:-1 17:1 18:-1 19:-1 20:-1 21:-1 22:-1 23:-1 24:-1 25:-1 26:-1 27:1 28:-1 29:-1 30:-1 
7168 1:0.0723653 2:0.598185 3:0.224377 4:0.156119 5:-0.0252467 6:0.0657997 7:-0.838328 8:-0.213536 9:0.124896 10:-0.267824 11:0.93221 12:-1 13:-1 14:-1 15:-1 16:-1 17:1 18:-1 19:-1 20:-1 21:-1 22:-1 23:-1 24:-1 25:-1 26:-1 27:1 28:-1 29:-1 30:-1 
7168 1:0.00881519 2:0.728453 3:-0.89223 4:-0.293349 5:-0.457966 6:0.124579 7:-1 8:-0.0161694 9:-0.218276 10:-0.187757 11:-0.86125 12:-1 13:-1 14:-1 15:-1 16:-1 17:-1 18:1 19:-1 20:-1 21:-1 22:-1 23:-1 24:-1 25:-1 26:1 27:-1 28:-1 29:-1 30:-1 
7168 1:-0.56178 2:0.297339 3:-0.777386 4:-0.477484 5:0.260392 6:0.169768 7:-0.691095 8:-0.170528 9:-0.0125063 10:-0.0796758 11:0.76951 12:-1 13:-1 14:-1 15:-1 16:-1 17:-1 18:-1 19:1 20:-1 21:-1 22:-1 23:-1 24:-1 25:-1 26:-1 27:1 28:-1 29:-1 30:-1 
7168 1:0.328337 2:0.423057 3:-0.994259 4:-0.413076 5:-0.938268 6:0.0895703 7:-0.898417 8:-0.292215 9:0.0208438 10:0.829527 11:-0.995368 12:-1 13:-1 14:-1 15:-1 16:-1 17:-1 18:1 19:-1 20:-1 21:-1 22:-1 23:-1 24:-1 25:-1 26:-1 27:-1 28:1 29:-1 30:-1 
7168 1:-0.715274 2:0.599337 3:0.343438 4:-0.212241 5:-0.331949 6:0.0131115 7:-0.586227 8:-0.222204 9:-0.401701 10:0.354448 11:-0.0464643 12:-1 13:-1 14:-1 15:-1 16:-1 17:-1 18:-1 19:1 20:-1 21:-1 22:-1 23:-1 24:-1 25:-1 26:-1 27:1 28:-1 29:-1 30:-1 
7168 1:-0.0806136 2:0.470601 3:-0.611517 4:-0.454765 5:0.0846679 6:-0.0109372 7:-0.690949 8:-0.764627 9:-0.403035 10:-0.117709 11:-0.481449 12:-1 13:-1 14:-1 15:-1 16:-1 17:-1 18:1 19:-1 20:-1 21:-1 22:-1 23:-1 24:-1 25:-1 26:-1 27:1 28:-1 29:-1 30:-1 
7168 1:-0.139204 2:0.382821 3:-0.538394 4:-0.225562 5:-0.460443 6:-0.018154 7:-0.862739 8:-0.377563 9:-0.202935 10:0.0317128 11:-0.76364 12:-1 13:-1 14:-1 15:-1 16:-1 17:-1 18:1 19:-1 20:-1 21:-1 22:-1 23:-1 24:-1 25:-1 26:1 27:-1 28:-1 29:-1 30:-1 
7168 1:0.123362 2:0.731901 3:-0.414123 4:-0.584313 5:-0.999509 6:-0.245328 7:-0.196869 8:-0.565261 9:-0.392363 10:0.0090675 11:-0.292165 12:-1 13:-1 14:-1 15:-1 16:-1 17:-1 18:1 19:-1 20:-1 21:-1 22:-1 23:-1 24:-1 25:-1 26:1 27:-1 28:-1 29:-1 30:-1 
7168 1:-0.0146345 2:0.532758 3:-0.736542 4:-0.536368 5:0.508262 6:0.0333067 7:-0.954306 8:-0.223204 9:-0.255294 10:-0.248439 11:0.809763 12:-1 13:-1 14:-1 15:-1 16:-1 17:1 18:-1 19:-1 20:-1 21:-1 22:-1 23:-1 24:-1 25:-1 26:1 27:-1 28:-1 29:-1 30:-1 
7168 1:0.34165 2:0.556377 3:-0.903261 4:-0.573324 5:-0.161591 6:0.220468 7:-0.772634 8:0.0915153 9:-0.230615 10:-0.307851 11:0.898607 12:-1 13:-1 14:-1 15:-1 16:-1 17:1 18:-1 19:-1 20:-1 21:-1 22:-1 23:-1 24:-1 25:-1 26:-1 27:-1 28:1 29:-1 30:-1 
6668.930190503347 1:-0.852974 2:0.522926 3:-0.896907 4:-0.633905 5:0.49048 6:0.178389 7:-0.906778 8:-0.459577 9:-0.603468 10:-0.00916439 11:-0.729154 12:-1 13:-1 14:-1 15:-1 16:-1 17:1 18:-1 19:-1 20:-1 21:-1 22:-1 23:-1 24:-1 25:-1 26:-1 27:-1 28:-1 29:1 30:-1 
7168 1:0.347859 2:0.63809 3:-0.919937 4:-0.267501 5:-0.584114 6:0.334077 7:-0.942027 8:-0.406901 9:-0.363682 10:0.0309845 11:-0.865754 12:-1 13:-1 14:-1 15:-1 16:-1 17:-1 18:-1 19:-1 20:0.333333 21:-1 22:-1 23:-1 24:-1 25:-1 26:-1 27:1 28:-1 29:-1 30:-1 
7168 1:-0.0631115 2:0.74786 3:-0.329774 4:-0.297516 5:0.546344 6:0.141752 7:-0.955936 8:-0.0868478 9:-0.338669 10:-0.81083 11:0.89661 12:-1 13:-1 14:-1 15:-1 16:-1 17:-1 18:-1 19:1 20:-1 21:-1 22:-1 23:-1 24:-1 25:-1 26:1 27:-1 28:-1 29:-1 30:-1 
7168 1:0.542777 2:0.561632 3:-0.912605 4:-0.193932 5:-0.989284 6:-0.0976902 7:-0.691242 8:-0.244874 9:0.114891 10:-0.0898248 11:0.42737 12:-1 13:-1 14:-1 15:-1 16:-1 17:-1 18:-1 19:1 20:-1 21:-1 22:-1 23:-1 24:-1 25:-1 26:-1 27:1 28:-1 29:-1 30:-1 
7168 1:0.490679 2:0.444865 3:-0.989888 4:-0.180714 5:-0.358258 6:-0.0270516 7:-0.381333 8:-0.104517 9:0.227614 10:-0.0271744 11:-0.335039 12:-1 13:-1 14:-1 15:-1 16:-1 17:-1 18:1 19:-1 20:-1 21:-1 22:-1 23:-1 24:-1 25:-1 26:-1 27:1 28:-1 29:-1 30:-1 
1194.365552223955 1:-0.246906 2:0.751612 3:-0.75527 4:-0.366187 5:-0.970862 6:0.248774 7:-1 8:0.244207 9:-0.113557 10:-0.159633 11:0.705798 12:-1 13:-1 14:-1 15:-1 16:-1 17:1 18:-1 19:-1 20:-1 21:-1 22:-1 23:-1 24:-1 25:-1 26:-1 27:-1 28:1 29:-1 30:-1 
7168 1:0.476378 2:0.873226 3:-0.80433 4:0.0649011 5:-0.250632 6:-0.00624229 7:-1 8:0.389565 9:0.259963 10:-0.424178 11:0.197963 12:-1 13:-1 14:-1 15:-1 16:-1 17:-1 18:1 19:-1 20:-1 21:-1 22:-1 23:-1 24:-1 25:-1 26:-1 27:-1 28:1 29:-1 30:-1 
2879.171156978906 1:0.219351 2:0.886429 3:-0.887102 4:-0.676437 5:-0.504302 6:0.0878347 7:-0.735107 8:0.104184 9:-0.431382 10:0.331543 11:-0.499061 12:-1 13:-1 14:-1 15:-1 16:-1 17:1 18:-1 19:-1 20:-1 21:-1 22:-1 23:-1 24:-1 25:-1 26:1 27:-1 28:-1 29:-1 30:-1 
7168 1:-0.00209242 2:0.853193 3:-0.170546 4:-0.507546 5:0.32012 6:-0.000763437 7:-0.826141 8:-0.33989 9:0.0248458 10:-0.0968794 11:0.106776 12:-1 13:-1 14:-1 15:-1 16:-1 17:-1 18:-1 19:1 20:-1 21:-1 22:-1 23:-1 24:-1 25:-1 26:-1 27:-1 28:1 29:-1 30:-1 
7168 1:-0.34798 2:0.357304 3:-0.635855 4:-0.782742 5:-0.998836 6:-0.136835 7:-0.320598 8:-0.366561 9:-0.0511923 10:0.0636037 11:-0.999674 12:-1 13:-1 14:-1 15:-1 16:-1 17:-1 18:-1 19:1 20:-1 21:-1 22:-1 23:-1 24:-1 25:-1 26:-1 27:1 28:-1 29:-1 30:-1 
2322.695155593878 1:-0.765094 2:0.795102 3:-0.167687 4:-0.10267 5:-0.999995 6:-0.134583 7:-0.700466 8:-0.276213 9:-0.536101 10:-0.109244 11:-0.610882 12:-1 13:-1 14:-1 15:-1 16:-1 17:-1 18:-1 19:1 20:-1 21:-1 22:-1 23:-1 24:-1 25:-1 26:-1 27:1 28:-1 29:-1 30:-1 
7168 1:-0.165287 2:0.342969 3:-0.748205 4:-0.121377 5:0.919196 6:0.208876 7:-0.939874 8:-0.0748458 9:-0.345339 10:-0.151219 11:0.41445 12:-1 13:-1 14:-1 15:-1 16:-1 17:-1 18:-1 19:1 20:-1 21:-1 22:-1 23:-1 24:-1 25:-1 26:1 27:-1 28:-1 29:-1 30:-1 
7168 1:0.038882 2:0.688612 3:-0.444724 4:-0.335124 5:-0.377082 6:0.0972062 7:-0.763203 8:-0.234539 9:-0.424045 10:0.117868 11:-0.763234 12:-1 13:-1 14:-1 15:-1 16:-1 17:-1 18:-1 19:1 20:-1 21:-1 22:-1 23:-1 24:-1 25:-1 26:-1 27:1 28:-1 29:-1 30:-1 
7168 1:-0.143732 2:0.830604 3:-0.492671 4:-0.285634 5:-0.859165 6:0.0632561 7:-0.827463 8:0.0368395 9:-0.299983 10:0.00744529 11:-0.966631 12:-1 13:-1 14:-1 15:-1 16:-1 17:1 18:-1 19:-1 20:-1 21:-1 22:-1 23:-1 24:-1 25:-1 26:-1 27:-1 28:1 29:-1 30:-1 
7168 1:-0.0387197 2:0.522822 3:-0.70636 4:-0.0857493 5:-0.972155 6:-0.155793 7:-0.438889 8:-0.203201 9:-0.0285143 10:0.361965 11:-0.594509 12:-1 13:-1 14:-1 15:-1 16:-1 17:-1 18:-1 19:1 20:-1 21:-1 22:-1 23:-1 24:-1 25:-1 26:-1 27:-1 28:1 29:-1 30:-1 
-128 1:0.159967 2:0.602734 3:-0.645008 4:-0.499504 5:-0.687526 6:-0.0866996 7:-0.18318 8:-0.221537 9:-0.464399 10:-0.33571 11:-0.887183 12:1 13:-1 14:-1 15:-1 16:-1 17:-1 18:-1 19:-1 20:-1 21:-1 22:1 23:-1 24:-1 25:-1 26:-1 27:-1 28:-1 29:-1 30:-1 
-128 1:-0.0604895 2:0.320192 3:-0.551226 4:-0.767057 5:0.528986 6:0.11023 7:-0.744082 8:0.314219 9:-0.0581958 10:-0.285149 11:-0.0886355 12:1 13:-1 14:-1 15:-1 16:-1 17:-1 18:-1 19:-1 20:-1 21:-1 22:-1 23:-1 24:1 25:-1 26:-1 27:-1 28:-1 29:-1 30:-1 
-128 1:0.429536 2:0.716892 3:-0.512713 4:-0.366013 5:-0.995813 6:0.108355 7:-0.870643 8:-0.0351725 9:-0.841254 10:-0.843358 11:-0.766229 12:-1 13:-1 14:-1 15:-1 16:-1 17:1 18:-1 19:-1 20:-1 21:-1 22:-1 23:-1 24:-1 25:-1 26:-1 27:-1 28:1 29:-1 30:-1 
-128 1:0.552345 2:0.621652 3:-0.850714 4:-0.484004 5:-0.984809 6:-0.259164 7:-0.340871 8:-0.0308385 9:0.125896 10:0.06346 11:0.22356 12:1 13:-1 14:-1 15:-1 16:-1 17:-1 18:-1 19:-1 20:-1 21:-1 22:1 23:-1 24:-1 25:-1 26:-1 27:-1 28:-1 29:-1 30:-1 
-128 1:0.552345 2:0.621652 3:-0.850714 4:-0.443253 5:-0.989063 6:-0.262964 7:-0.274856 8:-0.0308385 9:0.125896 10:-0.278833 11:-0.764695 12:1 13:-1 14:-1 15:-1 16:-1 17:-1 18:-1 19:-1 20:-1 21:-1 22:1 23:-1 24:-1 25:-1 26:-1 27:-1 28:-1 29:-1 30:-1 
-128 1:0.552345 2:0.240865 3:-0.982612 4:-0.484004 5:0.266829 6:-0.175892 7:-0.340871 8:0.126188 9:-0.0311823 10:0.06346 11:0.22356 12:1 13:-1 14:-1 15:-1 16:-1 17:-1 18:-1 19:-1 20:-1 21:-1 22:1 23:-1 24:-1 25:-1 26:-1 27:-1 28:-1 29:-1 30:-1 
-128 1:0.5117 2:0.524613 3:-0.911966 4:-0.543435 5:0.0993841 6:0.0460457 7:-0.460998 8:-0.0988498 9:-0.0808738 10:-0.713938 11:0.370709 12:1 13:-1 14:-1 15:-1 16:-1 17:-1 18:-1 19:-1 20:-1 21:-1 22:-1 23:-1 24:-1 25:1 26:-1 27:-1 28:-1 29:-1 30:-1 
-128 1:0.5117 2:0.524613 3:-0.911966 4:-0.68458 5:-0.0439346 6:0.0467932 7:-0.407047 8:-0.0988498 9:-0.0808738 10:-0.592713 11:0.179793 12:1 13:-1 14:-1 15:-1 16:-1 17:-1 18:-1 19:-1 20:-1 21:-1 22:-1 23:-1 24:-1 25:1 26:-1 27:-1 28:-1 29:-1 30:-1 
-128 1:-0.385436 2:0.153071 3:-0.988855 4:-0.0727665 5:-0.38151 6:0.107665 7:-0.767523 8:-0.300883 9:-0.222945 10:0.109132 11:-0.907205 12:-1 13:-1 14:-1 15:-1 16:1 17:-1 18:-1 19:-1 20:-1 21:-1 22:-1 23:-1 24:-1 25:1 26:-1 27:-1 28:-1 29:-1 30:-1 
-128 1:0.293696 2:0.808621 3:-0.727606 4:-0.393146 5:-0.972298 6:-0.0695093 7:-0.420165 8:-0.868645 9:0.294981 10:-0.860787 11:-0.99932 12:-1 13:1 14:-1 15:-1 16:-1 17:-1 18:-1 19:-1 20:-1 21:-1 22:1 23:-1 24:-1 25:-1 26:-1 27:-1 28:-1 29:-1 30:-1 
-128 1:0.293696 2:0.95815 3:-0.717728 4:-0.393146 5:-0.972298 6:-0.0550634 7:-0.553027 8:0.910652 9:0.294981 10:-0.860787 11:-0.99932 12:-1 13:1 14:-1 15:-1 16:-1 17:-1 18:-1 19:-1 20:-1 21:-1 22:1 23:-1 24:-1 25:-1 26:-1 27:-1 28:-1 29:-1 30:-1 
-128 1:0.293696 2:0.879649 3:-0.684575 4:-0.393146 5:-0.972298 6:-0.0719485 7:-0.405388 8:-0.524921 9:0.294981 10:-0.860787 11:-0.99932 12:-1 13:1 14:-1 15:-1 16:-1 17:-1 18:-1 19:-1 20:-1 21:-1 22:1 23:-1 24:-1 25:-1 26:-1 27:-1 28:-1 29:-1 30:-1 
-128 1:-0.783566 2:0.544159 3:0.869265 4:-0.152919 5:-0.772916 6:0.651347 7:-0.722002 8:-0.357226 9:-0.0748708 10:-0.217801 11:-0.785427 12:-1 13:-1 14:-1 15:1 16:-1 17:-1 18:-1 19:-1 20:-1 21:-1 22:1 23:-1 24:-1 25:-1 26:-1 27:-1 28:-1 29:-1 30:-1 
-128 1:-0.783566 2:0.544159 3:0.869265 4:-0.17416 5:-0.568787 6:0.64121 7:-0.660734 8:-0.357226 9:-0.0748708 10:-0.224349 11:-0.518809 12:-1 13:-1 14:-1 15:1 16:-1 17:-1 18:-1 19:-1 20:-1 21:-1 22:1 23:-1 24:-1 25:-1 26:-1 27:-1 28:-1 29:-1 30:-1 
-128 1:-0.783566 2:0.544159 3:0.869265 4:-0.29299 5:-0.37714 6:0.533724 7:-0.530934 8:-0.357226 9:-0.0748708 10:-0.184163 11:-0.369129 12:-1 13:-1 14:-1 15:1 16:-1 17:-1 18:-1 19:-1 20:-1 21:-1 22:1 23:-1 24:-1 25:-1 26:-1 27:-1 28:-1 29:-1 30:-1 
-128 1:-0.783566 2:0.544159 3:0.869265 4:-0.298644 5:-0.616145 6:0.504791 7:-0.469743 8:-0.357226 9:-0.0748708 10:-0.430361 11:-0.694078 12:-1 13:-1 14:-1 15:1 16:-1 17:-1 18:-1 19:-1 20:-1 21:-1 22:1 23:-1 24:-1 25:-1 26:-1 27:-1 28:-1 29:-1 30:-1 
-128 1:0.0630922 2:0.862642 3:-0.231079 4:-0.781753 5:-0.43847 6:0.900476 7:-0.7737 8:0.389232 9:0.803568 10:-0.186667 11:0.0923285 12:-1 13:-1 14:-1 15:1 16:-1 17:-1 18:-1 19:-1 20:-1 21:-1 22:1 23:-1 24:-1 25:-1 26:-1 27:-1 28:-1 29:-1 30:-1 
-128 1:-0.721047 2:0.639084 3:0.0311498 4:-0.0872702 5:0.471212 6:0.017001 7:-0.912687 8:0.944324 9:-0.37302 10:-0.0946852 11:0.56771 12:1 13:-1 14:-1 15:-1 16:-1 17:-1 18:-1 19:-1 20:-1 21:-1 22:1 23:-1 24:-1 25:-1 26:-1 27:-1 28:-1 29:-1 30:-1 
-128 1:-0.637503 2:0.829768 3:-0.761458 4:-0.435372 5:0.0633248 6:0.213302 7:-1 8:-0.0311719 9:-0.137235 10:-0.201535 11:-0.254535 12:1 13:-1 14:-1 15:-1 16:-1 17:-1 18:-1 19:-1 20:-1 21:-1 22:1 23:-1 24:-1 25:-1 26:-1 27:-1 28:-1 29:-1 30:-1 
-128 1:-0.781565 2:0.172359 3:-0.632061 4:-0.672888 5:-0.899318 6:0.0130702 7:-0.585537 8:-0.0745124 9:-0.102218 10:0.209918 11:-0.138666 12:1 13:-1 14:-1 15:-1 16:-1 17:-1 18:-1 19:-1 20:-1 21:-1 22:-1 23:1 24:-1 25:-1 26:-1 27:-1 28:-1 29:-1 30:-1 
-128 1:0.336339 2:0.497235 3:-0.990492 4:-0.405462 5:-0.999999 6:0.170714 7:-0.66821 8:-0.0118353 9:-0.18726 10:-0.20809 11:-0.484421 12:1 13:-1 14:-1 15:-1 16:-1 17:-1 18:-1 19:-1 20:-1 21:-1 22:1 23:-1 24:-1 25:-1 26:-1 27:-1 28:-1 29:-1 30:-1 
-128 1:0.336339 2:0.497235 3:-0.990492 4:-0.461046 5:-1 6:0.170954 7:-0.794493 8:-0.0118353 9:-0.18726 10:0.319272 11:-0.970949 12:1 13:-1 14:-1 15:-1 16:-1 17:-1 18:-1 19:-1 20:-1 21:-1 22:1 23:-1 24:-1 25:-1 26:-1 27:-1 28:-1 29:-1 30:-1 
-128 1:0.336339 2:0.497235 3:-0.990492 4:-0.458355 5:-0.999999 6:0.174469 7:-0.720726 8:-0.0118353 9:-0.18726 10:0.237933 11:-0.614917 12:1 13:-1 14:-1 15:-1 16:-1 17:-1 18:-1 19:-1 20:-1 21:-1 22:1 23:-1 24:-1 25:-1 26:-1 27:-1 28:-1 29:-1 30:-1 
-128 1:0.336339 2:0.497235 3:-0.990492 4:-0.416049 5:-1 6:0.171334 7:-0.652727 8:-0.0118353 9:-0.18726 10:-0.0563616 11:-0.766666 12:1 13:-1 14:-1 15:-1 16:-1 17:-1 18:-1 19:-1 20:-1 21:-1 22:1 23:-1 24:-1 25:-1 26:-1 27:-1 28:-1 29:-1 30:-1 
-128 1:-0.0802731 2:0.763982 3:0.273968 4:-0.540136 5:-0.322333 6:0.849574 7:-0.947301 8:0.0895149 9:-0.446056 10:-0.245582 11:0.11023 12:-1 13:-1 14:-1 15:1 16:-1 17:-1 18:-1 19:-1 20:-1 21:-1 22:1 23:-1 24:-1 25:-1 26:-1 27:-1 28:-1 29:-1 30:-1 
-128 1:0.0793911 2:0.276407 3:-0.93869 4:-0.333289 5:0.28884 6:-0.105465 7:-0.512476 8:-0.856309 9:-0.819576 10:-0.963002 11:-0.247148 12:-1 13:-1 14:-1 15:1 16:-1 17:-1 18:-1 19:-1 20:-1 21:-1 22:-1 23:-1 24:-1 25:1 26:-1 27:-1 28:-1 29:-1 30:-1 
-128 1:0.0793911 2:0.276407 3:-0.93869 4:-0.506869 5:-0.771809 6:-0.117802 7:-0.463536 8:-0.856309 9:-0.302651 10:-0.420049 11:-0.196717 12:-1 13:-1 14:-1 15:1 16:-1 17:-1 18:-1 19:-1 20:-1 21:-1 22:1 23:-1 24:-1 25:-1 26:-1 27:-1 28:-1 29:-1 30:-1 
-128 1:0.0793911 2:0.276407 3:-0.93869 4:-0.553899 5:-0.486642 6:-0.112267 7:-0.512476 8:-0.856309 9:-0.302651 10:-0.0903061 11:0.917926 12:-1 13:-1 14:-1 15:1 16:-1 17:-1 18:-1 19:-1 20:-1 21:-1 22:1 23:-1 24:-1 25:-1 26:-1 27:-1 28:-1 29:-1 30:-1 
-128 1:0.0793911 2:0.414994 3:-0.914821 4:-0.401805 5:-0.448882 6:-0.093228 7:-0.463536 8:-0.47758 9:-0.819576 10:-0.753874 11:-0.769495 12:-1 13:-1 14:-1 15:1 16:-1 17:-1 18:-1 19:-1 20:-1 21:-1 22:-1 23:-1 24:-1 25:1 26:-1 27:-1 28:-1 29:-1 30:-1 
-128 1:0.0793911 2:0.414994 3:-0.914821 4:-0.558363 5:-0.806179 6:-0.0993965 7:-0.463536 8:-0.47758 9:-0.302651 10:-0.271762 11:-0.266318 12:-1 13:-1 14:-1 15:1 16:-1 17:-1 18:-1 19:-1 20:-1 21:-1 22:1 23:-1 24:-1 25:-1 26:-1 27:-1 28:-1 29:-1 30:-1 
-128 1:0.0793911 2:0.475178 3:-0.914878 4:-0.359827 5:-0.0449971 6:-0.085003 7:-0.587716 8:-0.0291715 9:-0.819576 10:-0.86295 11:-0.352971 12:-1 13:-1 14:-1 15:1 16:-1 17:-1 18:-1 19:-1 20:-1 21:-1 22:-1 23:-1 24:-1 25:1 26:-1 27:-1 28:-1 29:-1 30:-1 
-128 1:0.0793911 2:0.475178 3:-0.914878 4:-0.401805 5:-0.448882 6:-0.0918944 7:-0.512476 8:-0.0291715 9:-0.819576 10:-0.753874 11:-0.769495 12:-1 13:-1 14:-1 15:1 16:-1 17:-1 18:-1 19:-1 20:-1 21:-1 22:-1 23:-1 24:-1 25:1 26:-1 27:-1 28:-1 29:-1 30:-1 
-128 1:0.0793911 2:0.475178 3:-0.914878 4:-0.592543 5:-0.479113 6:-0.0906988 7:-0.587716 8:-0.0291715 9:-0.302651 10:-0.0284371 11:0.747289 12:-1 13:-1 14:-1 15:1 16:-1 17:-1 18:-1 19:-1 20:-1 21:-1 22:1 23:-1 24:-1 25:-1 26:-1 27:-1 28:-1 29:-1 30:-1 
-128 1:0.0793911 2:0.475178 3:-0.914878 4:-0.558363 5:-0.806179 6:-0.0975969 7:-0.512476 8:-0.0291715 9:-0.302651 10:-0.271762 11:-0.266318 12:-1 13:-1 14:-1 15:1 16:-1 17:-1 18:-1 19:-1 20:-1 21:-1 22:1 23:-1 24:-1 25:-1 26:-1 27:-1 28:-1 29:-1 30:-1 
-128 1:0.427935 2:0.901368 3:-0.89187 4:-0.647102 5:0.100821 6:0.0714211 7:-0.89214 8:0.0531755 9:-0.0255128 10:-0.379222 11:-0.447422 12:-1 13:1 14:-1 15:-1 16:-1 17:-1 18:-1 19:-1 20:-1 21:-1 22:-1 23:1 24:-1 25:-1 26:-1 27:-1 28:-1 29:-1 30:-1 
-128 1:-0.346198 2:0.282626 3:-0.545542 4:-0.46446 5:-0.110757 6:0.453457 7:-0.945129 8:-0.529255 9:-0.741204 10:-0.175964 11:0.0888142 12:-1 13:-1 14:-1 15:-1 16:1 17:-1 18:-1 19:-1 20:-1 21:-1 22:-1 23:1 24:-1 25:-1 26:-1 27:-1 28:-1 29:-1 30:-1 
-128 1:0.129491 2:0.199008 3:-0.527544 4:-0.582619 5:0.175192 6:0.228892 7:-0.898153 8:-0.00383397 9:-0.295981 10:0.784205 11:-0.515196 12:-1 13:1 14:-1 15:-1 16:-1 17:-1 18:-1 19:-1 20:-1 21:-1 22:-1 23:-1 24:-1 25:1 26:-1 27:-1 28:-1 29:-1 30:-1 
-42.12926054906094 1:0.129491 2:0.199008 3:-0.527544 4:-0.796414 5:0.980726 6:0.143145 7:-0.624134 8:-0.00383397 9:-0.295981 10:0.169879 11:0.999027 12:-1 13:1 14:-1 15:-1 16:-1 17:-1 18:-1 19:-1 20:-1 21:-1 22:-1 23:-1 24:-1 25:1 26:-1 27:-1 28:-1 29:-1 30:-1 
-128 1:0.129491 2:0.256686 3:-0.482483 4:-0.582619 5:0.175192 6:0.23362 7:-0.898153 8:0.352225 9:-0.295981 10:0.784205 11:-0.515196 12:-1 13:1 14:-1 15:-1 16:-1 17:-1 18:-1 19:-1 20:-1 21:-1 22:-1 23:-1 24:-1 25:1 26:-1 27:-1 28:-1 29:-1 30:-1 
-128 1:-0.0135789 2:0.837805 3:-0.730239 4:-0.439526 5:0.668311 6:0.364651 7:-0.91211 8:-0.355893 9:-0.0511923 10:-0.542884 11:0.371792 12:-1 13:-1 14:-1 15:1 16:-1 17:-1 18:-1 19:-1 20:-1 21:-1 22:-1 23:-1 24:-1 25:1 26:-1 27:-1 28:-1 29:-1 30:-1 
-128 1:0.0934087 2:0.274172 3:-0.950476 4:-0.00566303 5:0.154954 6:-0.0436943 7:-0.49545 8:-0.125521 9:-0.0748708 10:0.218395 11:-0.940094 12:1 13:-1 14:-1 15:-1 16:-1 17:-1 18:-1 19:-1 20:-1 21:-1 22:1 23:-1 24:-1 25:-1 26:-1 27:-1 28:-1 29:-1 30:-1 
-128 1:0.0934087 2:0.274172 3:-0.950476 4:-0.0670209 5:-0.629675 6:-0.0248405 7:-0.348227 8:-0.125521 9:-0.0748708 10:-0.067367 11:-0.994659 12:1 13:-1 14:-1 15:-1 16:-1 17:-1 18:-1 19:-1 20:-1 21:-1 22:1 23:-1 24:-1 25:-1 26:-1 27:-1 28:-1 29:-1 30:-1 
-128 1:0.0934087 2:0.274172 3:-0.950476 4:-0.0784166 5:-0.373624 6:-0.026043 7:-0.348227 8:-0.125521 9:-0.0748708 10:-0.0298874 11:-0.985259 12:1 13:-1 14:-1 15:-1 16:-1 17:-1 18:-1 19:-1 20:-1 21:-1 22:1 23:-1 24:-1 25:-1 26:-1 27:-1 28:-1 29:-1 30:-1 
-128 1:0.0934087 2:0.509618 3:-0.935882 4:-0.00566303 5:0.154954 6:-0.0307137 7:-0.633446 8:-0.426571 9:-0.0748708 10:0.218395 11:-0.940094 12:-1 13:-1 14:-1 15:1 16:-1 17:-1 18:-1 19:-1 20:-1 21:-1 22:1 23:-1 24:-1 25:-1 26:-1 27:-1 28:-1 29:-1 30:-1 
-128 1:0.0934087 2:0.492845 3:-0.937948 4:-0.00566303 5:0.154954 6:-0.0327854 7:-0.633446 8:-0.772962 9:-0.0748708 10:0.218395 11:-0.940094 12:-1 13:-1 14:-1 15:1 16:-1 17:-1 18:-1 19:-1 20:-1 21:-1 22:1 23:-1 24:-1 25:-1 26:-1 27:-1 28:-1 29:-1 30:-1 
-128 1:0.125893 2:0.34842 3:-0.713238 4:-0.208972 5:-0.22121 6:0.445289 7:-1 8:0.0885148 9:-0.28731 10:0.00124088 11:0.211055 12:-1 13:-1 14:-1 15:1 16:-1 17:-1 18:-1 19:-1 20:-1 21:-1 22:1 23:-1 24:-1 25:-1 26:-1 27:-1 28:-1 29:-1 30:-1 
-128 1:0.169796 2:0.69896 3:-0.812758 4:-0.35298 5:0.403479 6:0.176923 7:-0.893128 8:-0.145858 9:-0.366016 10:0.0512981 11:0.450422 12:1 13:-1 14:-1 15:-1 16:-1 17:-1 18:-1 19:-1 20:-1 21:-1 22:-1 23:1 24:-1 25:-1 26:-1 27:-1 28:-1 29:-1 30:-1 
-128 1:0.00426373 2:0.577689 3:0.711 4:-0.278043 5:-0.925364 6:0.0906603 7:-0.948166 8:-0.144191 9:-0.488077 10:-0.187539 11:-0.804261 12:1 13:-1 14:-1 15:-1 16:-1 17:-1 18:-1 19:-1 20:-1 21:-1 22:-1 23:1 24:-1 25:-1 26:-1 27:-1 28:-1 29:-1 30:-1 
-128 1:-0.0847564 2:0.231194 3:-0.551273 4:-0.555744 5:-0.234111 6:0.0991258 7:-0.216577 8:0.0165028 9:-0.0905453 10:-0.222524 11:0.415239 12:-1 13:-1 14:1 15:-1 16:-1 17:-1 18:-1 19:-1 20:-1 21:-1 22:1 23:-1 24:-1 25:-1 26:-1 27:-1 28:-1 29:-1 30:-1 
-128 1:-0.0847564 2:0.231194 3:-0.551273 4:-0.555744 5:-0.999545 6:0.141057 7:-0.61609 8:0.0165028 9:-0.406703 10:-0.222524 11:0.415239 12:-1 13:-1 14:1 15:-1 16:-1 17:-1 18:-1 19:-1 20:-1 21:-1 22:-1 23:-1 24:1 25:-1 26:-1 27:-1 28:-1 29:-1 30:-1 
-128 1:-0.0282321 2:0.296212 3:-0.303092 4:-0.703833 5:0.72734 6:0.214373 7:-0.820068 8:-0.654942 9:0.959313 10:0.278339 11:0.0941968 12:-1 13:-1 14:-1 15:-1 16:-1 17:-1 18:-1 19:1 20:-1 21:-1 22:-1 23:-1 24:-1 25:-1 26:-1 27:-1 28:1 29:-1 30:-1 
-128 1:-0.594733 2:0.555605 3:-0.253214 4:-0.656195 5:-0.999411 6:0.153556 7:-0.811032 8:-0.0448408 9:-0.576455 10:-0.208099 11:-0.999117 12:1 13:-1 14:-1 15:-1 16:-1 17:-1 18:-1 19:-1 20:-1 21:-1 22:-1 23:1 24:-1 25:-1 26:-1 27:-1 28:-1 29:-1 30:-1 
-128 1:0.1916 2:0.566145 3:-0.279983 4:0.212524 5:-0.97907 6:-0.0778003 7:-0.792431 8:0.0718453 9:-0.0698683 10:-0.308623 11:0.578904 12:1 13:-1 14:-1 15:-1 16:-1 17:-1 18:-1 19:-1 20:-1 21:-1 22:-1 23:-1 24:-1 25:1 26:-1 27:-1 28:-1 29:-1 30:-1 
-128 1:0.1916 2:0.566145 3:-0.279983 4:-0.594537 5:-0.977613 6:-0.102529 7:-0.792431 8:0.0718453 9:-0.273303 10:-0.341633 11:0.186447 12:1 13:-1 14:-1 15:-1 16:-1 17:-1 18:-1 19:-1 20:-1 21:-1 22:1 23:-1 24:-1 25:-1 26:-1 27:-1 28:-1 29:-1 30:-1 
-128 1:0.1916 2:0.375648 3:-0.899438 4:-0.461723 5:0.542476 6:0.101508 7:-0.792431 8:-0.749958 9:0.136235 10:-0.195078 11:0.968578 12:1 13:-1 14:-1 15:-1 16:-1 17:-1 18:-1 19:-1 20:-1 21:-1 22:1 23:-1 24:-1 25:-1 26:-1 27:-1 28:-1 29:-1 30:-1 
-128 1:0.1916 2:0.375648 3:-0.899438 4:-0.63175 5:0.338506 6:0.0968955 7:-0.792431 8:-0.749958 9:0.481407 10:-0.325117 11:0.605568 12:1 13:-1 14:-1 15:-1 16:-1 17:-1 18:-1 19:-1 20:-1 21:-1 22:1 23:-1 24:-1 25:-1 26:-1 27:-1 28:-1 29:-1 30:-1 
-128 1:0.1916 2:0.375648 3:-0.899438 4:-0.594537 5:0.889917 6:0.095444 7:-0.792431 8:-0.749958 9:-0.864265 10:-0.341633 11:0.186447 12:1 13:-1 14:-1 15:-1 16:-1 17:-1 18:-1 19:-1 20:-1 21:-1 22:1 23:-1 24:-1 25:-1 26:-1 27:-1 28:-1 29:-1 30:-1 
-128 1:0.496059 2:0.666068 3:-0.775634 4:0.250606 5:0.82958 6:0.00545645 7:-0.953518 8:-0.118853 9:-0.0101718 10:-0.19309 11:-0.351401 12:1 13:-1 14:-1 15:-1 16:-1 17:-1 18:-1 19:-1 20:-1 21:-1 22:1 23:-1 24:-1 25:-1 26:-1 27:-1 28:-1 29:-1 30:-1 
-128 1:-0.830363 2:0.482089 3:-0.311878 4:-0.468865 5:-0.761021 6:0.259295 7:-1 8:-0.0685114 9:-0.29398 10:0.517863 11:-0.34215 12:1 13:-1 14:-1 15:-1 16:-1 17:-1 18:-1 19:-1 20:-1 21:-1 22:-1 23:-1 24:-1 25:1 26:-1 27:-1 28:-1 29:-1 30:-1 
-128 1:-0.830363 2:0.482089 3:-0.311878 4:-0.468865 5:-0.641344 6:0.260636 7:-1 8:-0.0685114 9:-0.135901 10:0.517863 11:-0.34215 12:1 13:-1 14:-1 15:-1 16:-1 17:-1 18:-1 19:-1 20:-1 21:-1 22:-1 23:-1 24:-1 25:1 26:-1 27:-1 28:-1 29:-1 30:-1 
-128 1:-0.830363 2:0.482089 3:-0.311878 4:-0.656516 5:-0.891164 6:0.243545 7:-1 8:-0.0685114 9:-0.448057 10:0.183344 11:-0.18957 12:1 13:-1 14:-1 15:-1 16:-1 17:-1 18:-1 19:-1 20:-1 21:-1 22:-1 23:-1 24:-1 25:1 26:-1 27:-1 28:-1 29:-1 30:-1 
-128 1:-0.830363 2:0.482089 3:-0.311878 4:-0.656516 5:-0.775113 6:0.244886 7:-1 8:-0.0685114 9:-0.269635 10:0.183344 11:-0.18957 12:1 13:-1 14:-1 15:-1 16:-1 17:-1 18:-1 19:-1 20:-1 21:-1 22:-1 23:-1 24:-1 25:1 26:-1 27:-1 28:-1 29:-1 30:-1 
-128 1:-0.830363 2:0.482089 3:-0.311878 4:-0.428696 5:-0.778542 6:0.252428 7:-0.922922 8:-0.0685114 9:-0.29398 10:0.16229 11:-0.404552 12:1 13:-1 14:-1 15:-1 16:-1 17:-1 18:-1 19:-1 20:-1 21:-1 22:-1 23:-1 24:-1 25:1 26:-1 27:-1 28:-1 29:-1 30:-1 
-128 1:-0.830363 2:0.482089 3:-0.311878 4:-0.615379 5:-0.89537 6:0.236676 7:-0.922922 8:-0.0685114 9:-0.448057 10:-0.117037 11:-0.268464 12:1 13:-1 14:-1 15:-1 16:-1 17:-1 18:-1 19:-1 20:-1 21:-1 22:-1 23:-1 24:-1 25:1 26:-1 27:-1 28:-1 29:-1 30:-1 
-128 1:-0.830363 2:0.482089 3:-0.311878 4:-0.615379 5:-0.780793 6:0.238017 7:-0.922922 8:-0.0685114 9:-0.269635 10:-0.117037 11:-0.268464 12:1 13:-1 14:-1 15:-1 16:-1 17:-1 18:-1 19:-1 20:-1 21:-1 22:-1 23:-1 24:-1 25:1 26:-1 27:-1 28:-1 29:-1 30:-1 
-128 1:-0.201914 2:0.42209 3:-0.55205 4:-0.464695 5:-0.112624 6:-0.117675 7:-0.214987 8:-0.00783464 9:0.0565283 10:-0.124748 11:0.805668 12:1 13:-1 14:-1 15:-1 16:-1 17:-1 18:-1 19:-1 20:-1 21:-1 22:1 23:-1 24:-1 25:-1 26:-1 27:-1 28:-1 29:-1 30:-1 
-128 1:0.189262 2:0.832427 3:-0.527327 4:-0.504536 5:-0.992485 6:-0.144496 7:-0.829799 8:-0.135856 9:-0.332333 10:0.101652 11:-0.999674 12:-1 13:1 14:-1 15:-1 16:-1 17:-1 18:-1 19:-1 20:-1 21:-1 22:-1 23:-1 24:-1 25:1 26:-1 27:-1 28:-1 29:-1 30:-1 
-128 1:0.189262 2:0.832427 3:-0.527327 4:-0.446916 5:-0.993182 6:-0.162474 7:-0.829799 8:-0.135856 9:-0.195931 10:-0.851713 11:-0.999645 12:-1 13:1 14:-1 15:-1 16:-1 17:-1 18:-1 19:-1 20:-1 21:-1 22:1 23:-1 24:-1 25:-1 26:-1 27:-1 28:-1 29:-1 30:-1 
-128 1:0.294297 2:0.594175 3:-0.842991 4:-0.268603 5:-0.754268 6:-0.0419666 7:-0.657491 8:-0.0471745 9:0.0268468 10:0.207365 11:-0.249801 12:1 13:-1 14:-1 15:-1 16:-1 17:-1 18:-1 19:-1 20:-1 21:-1 22:1 23:-1 24:-1 25:-1 26:-1 27:-1 28:-1 29:-1 30:-1 
-128 1:0.791575 2:0.704496 3:-0.990564 4:0.0994851 5:0.172759 6:0.00136696 7:-0.879055 8:-0.412902 9:0.0868768 10:-0.70151 11:-0.421889 12:-1 13:1 14:-1 15:-1 16:-1 17:-1 18:-1 19:-1 20:-1 21:-1 22:1 23:-1 24:-1 25:-1 26:-1 27:-1 28:-1 29:-1 30:-1 
-128 1:-0.184128 2:0.585598 3:-0.406718 4:-0.00737496 5:0.218525 6:0.0288686 7:-0.750028 8:-0.0101684 9:-0.360347 10:0.0636475 11:0.178635 12:-1 13:-1 14:-1 15:-1 16:-1 17:-1 18:-1 19:1 20:-1 21:-1 22:-1 23:-1 24:-1 25:-1 26:-1 27:-1 28:1 29:-1 30:-1 
-128 1:-0.184128 2:0.585598 3:-0.406718 4:0.0168052 5:-0.0254608 6:0.018244 7:-0.710058 8:-0.0101684 9:-0.360347 10:-0.395879 11:-0.215005 12:-1 13:-1 14:-1 15:-1 16:-1 17:-1 18:-1 19:1 20:-1 21:-1 22:-1 23:-1 24:-1 25:-1 26:-1 27:-1 28:1 29:-1 30:-1 
-128 1:0.0548519 2:0.195284 3:-0.950584 4:-0.467354 5:-0.987483 6:0.111848 7:-0.456888 8:-0.129522 9:-0.0148408 10:-0.0777098 11:-0.985891 12:1 13:-1 14:-1 15:-1 16:-1 17:-1 18:-1 19:-1 20:-1 21:-1 22:1 23:-1 24:-1 25:-1 26:-1 27:-1 28:-1 29:-1 30:-1 
-128 1:0.0548519 2:0.257593 3:-0.44952 4:0.121674 5:-0.283792 6:0.042027 7:-0.553469 8:-0.752625 9:-0.0148408 10:0.617555 11:0.374277 12:-1 13:1 14:-1 15:-1 16:-1 17:-1 18:-1 19:-1 20:-1 21:-1 22:1 23:-1 24:-1 25:-1 26:-1 27:-1 28:-1 29:-1 30:-1 
-128 1:-0.114301 2:0.648326 3:-0.965589 4:-0.571924 5:-0.883588 6:-0.0201448 7:-0.532124 8:-0.0668445 9:0.180924 10:0.314593 11:-0.993206 12:1 13:-1 14:-1 15:-1 16:-1 17:-1 18:-1 19:-1 20:-1 21:-1 22:1 23:-1 24:-1 25:-1 26:-1 27:-1 28:-1 29:-1 30:-1 
-128 1:-0.616114 2:0.367662 3:-0.842378 4:-0.672739 5:-0.998963 6:0.216829 7:-0.770643 8:-0.7993 9:0.432716 10:-0.832603 11:-0.937041 12:-1 13:-1 14:-1 15:1 16:-1 17:-1 18:-1 19:-1 20:-1 21:-1 22:-1 23:1 24:-1 25:-1 26:-1 27:-1 28:-1 29:-1 30:-1 
-128 1:-0.616114 2:0.322962 3:-0.82682 4:-0.672739 5:-0.998963 6:0.213611 7:-0.693825 8:-0.968995 9:0.432716 10:-0.832603 11:-0.937041 12:-1 13:-1 14:-1 15:1 16:-1 17:-1 18:-1 19:-1 20:-1 21:-1 22:-1 23:1 24:-1 25:-1 26:-1 27:-1 28:-1 29:-1 30:-1 
-128 1:0.0234343 2:0.749456 3:0.246947 4:-0.64315 5:-0.955829 6:0.037533 7:-0.474268 8:-0.0228371 9:-0.745539 10:-0.954869 11:-0.99467 12:1 13:-1 14:-1 15:-1 16:-1 17:-1 18:-1 19:-1 20:-1 21:-1 22:1 23:-1 24:-1 25:-1 26:-1 27:-1 28:-1 29:-1 30:-1 
-128 1:-0.00939064 2:0.330534 3:-0.168015 4:-0.356938 5:-0.923403 6:0.189778 7:-0.959225 8:0.787298 9:-0.0668668 10:-0.289935 11:-0.946926 12:1 13:-1 14:-1 15:-1 16:-1 17:-1 18:-1 19:-1 20:-1 21:-1 22:1 23:-1 24:-1 25:-1 26:-1 27:-1 28:-1 29:-1 30:-1 
-128 1:-0.00939064 2:0.328326 3:-0.156149 4:-0.356938 5:-0.923403 6:0.18709 7:-0.959225 8:0.355893 9:-0.0668668 10:-0.289935 11:-0.946926 12:-1 13:-1 15:-1 16:-1 17:-1 18:-1 19:-1 20:-1 21:-1 22:1 23:-1 24:-1 25:-1 26:-1 27:-1 28:-1 29:-1 30:-1 
-128 1:-0.616406 2:0.693218 3:-0.837378 4:-0.265855 5:-0.773556 6:0.0503997 7:-0.756538 8:-0.201534 9:0.0101718 10:-0.689067 11:-0.310327 12:1 13:-1 14:-1 15:-1 16:-1 17:-1 18:-1 19:-1 20:-1 21:-1 22:-1 23:1 24:-1 25:-1 26:-1 27:-1 28:-1 29:-1 30:-1 
-128 1:-0.94189 2:0.470555 3:-0.407239 4:-0.49241 5:-0.0169432 6:-0.0793528 7:-0.648416 8:0.062177 9:0.0595298 10:-0.890377 11:-0.354092 12:1 13:-1 14:-1 15:-1 16:-1 17:-1 18:-1 19:-1 20:-1 21:-1 22:-1 23:1 24:-1 25:-1 26:-1 27:-1 28:-1 29:-1 30:-1 
-128 1:-0.94189 2:0.470555 3:-0.407239 4:-0.450558 5:-0.930039 6:-0.0792698 7:-0.629824 8:0.062177 9:0.0595298 10:-0.821022 11:-0.988235 12:1 13:-1 14:-1 15:-1 16:-1 17:-1 18:-1 19:-1 20:-1 21:-1 22:-1 23:1 24:-1 25:-1 26:-1 27:-1 28:-1 29:-1 30:-1 
-128 1:0.326101 2:0.161476 3:-0.977595 4:-0.292672 5:0.263606 6:-0.00121658 7:-0.517548 8:-0.684947 9:-0.392696 10:-0.28871 11:0.947266 12:1 13:-1 14:-1 15:-1 16:-1 17:-1 18:-1 19:-1 20:-1 21:-1 22:-1 23:1 24:-1 25:-1 26:-1 27:-1 28:-1 29:-1 30:-1 
-128 1:0.309484 2:0.602206 3:-0.90952 4:-0.199971 5:0.562733 6:-0.0492773 7:-0.712158 8:-0.125521 9:0.115224 10:-0.510962 11:-0.25167 12:1 13:-1 14:-1 15:-1 16:-1 17:-1 18:-1 19:-1 20:-1 21:-1 22:1 23:-1 24:-1 25:-1 26:-1 27:-1 28:-1 29:-1 30:-1 
-128 1:0.176493 2:0.114388 3:-0.895503 4:-0.324061 5:-0.0123732 6:0.14028 7:-0.854766 8:0.276879 9:-0.642488 10:-0.860821 11:0.873414 12:1 13:-1 14:-1 15:-1 16:-1 17:-1 18:-1 19:-1 20:-1 21:-1 22:1 23:-1 24:-1 25:-1 26:-1 27:-1 28:-1 29:-1 30:-1 
-128 1:0.477127 2:0.319451 3:-0.930893 4:-0.21532 5:-0.734862 6:0.0925112 7:-1 8:0.208868 9:0.392029 10:0.0599124 11:-0.785767 12:-1 13:-1 14:-1 15:-1 16:-1 17:1 18:-1 19:-1 20:-1 21:-1 22:-1 23:-1 24:-1 25:-1 26:-1 27:-1 28:1 29:-1 30:-1 
-128 1:0.477127 2:0.79529 3:-0.836421 4:-0.462296 5:-0.999478 6:0.116718 7:-1 8:-0.378563 9:0.396365 10:0.499178 11:-0.995237 12:1 13:-1 14:-1 15:-1 16:-1 17:-1 18:-1 19:-1 20:-1 21:-1 22:1 23:-1 24:-1 25:-1 26:-1 27:-1 28:-1 29:-1 30:-1 
-128 1:-0.410509 2:0.452524 3:-0.216995 4:0.177617 5:0.72173 6:-0.145168 7:-0.256408 8:-0.202867 9:-0.193597 10:-0.342508 11:0.251047 12:1 13:-1 14:-1 15:-1 16:-1 17:-1 18:-1 19:-1 20:-1 21:-1 22:-1 23:1 24:-1 25:-1 26:-1 27:-1 28:-1 29:-1 30:-1 
-128 1:-0.222356 2:0.981214 3:-0.240645 4:-0.623197 5:-0.413305 6:-0.229593 7:-0.285053 8:-0.198533 9:0.380023 10:-0.916786 11:-0.999926 12:-1 13:1 14:-1 15:-1 16:-1 17:-1 18:-1 19:-1 20:-1 21:-1 22:1 23:-1 24:-1 25:-1 26:-1 27:-1 28:-1 29:-1 30:-1 
-128 1:-0.222356 2:0.998424 3:-0.322275 4:-0.613401 5:0.834864 6:-0.24115 7:-0.256408 8:-0.112852 9:0.380023 10:-0.930786 11:-0.994718 12:-1 13:1 14:-1 15:-1 16:-1 17:-1 18:-1 19:-1 20:-1 21:-1 22:1 23:-1 24:-1 25:-1 26:-1 27:-1 28:-1 29:-1 30:-1 
-128 1:0.785968 2:0.719713 3:-0.969801 4:-0.596559 5:-0.128282 6:0.0348084 7:-0.619803 8:-0.00583431 9:0.396031 10:0.0708084 11:-0.83961 12:1 13:-1 14:-1 15:-1 16:-1 17:-1 18:-1 19:-1 20:-1 21:-1 22:1 23:-1 24:-1 25:-1 26:-1 27:-1 28:-1 29:-1 30:-1 
-128 1:0.785968 2:0.719713 3:-0.969801 4:-0.59075 5:0.762165 6:0.0339553 7:-0.619803 8:-0.00583431 9:0.396031 10:0.0852707 11:-0.29321 12:1 13:-1 14:-1 15:-1 16:-1 17:-1 18:-1 19:-1 20:-1 21:-1 22:1 23:-1 24:-1 25:-1 26:-1 27:-1 28:-1 29:-1 30:-1 
-128 1:0.426925 2:0.513991 3:-0.864479 4:0.0461653 5:-0.404814 6:0.173089 7:-0.756938 8:-0.699617 9:-0.271302 10:0.14358 11:-0.175739 12:-1 13:-1 14:-1 15:1 16:-1 17:-1 18:-1 19:-1 20:-1 21:-1 22:1 23:-1 24:-1 25:-1 26:-1 27:-1 28:-1 29:-1 30:-1 
-128 1:0.58962 2:0.220592 3:-0.997034 4:-0.243967 5:-0.606539 6:0.153062 7:-0.681514 8:-0.0721787 9:0.0471903 10:0.0265086 11:0.31565 12:1 13:-1 14:-1 15:-1 16:-1 17:-1 18:-1 19:-1 20:-1 21:-1 22:1 23:-1 24:-1 25:-1 26:-1 27:-1 28:-1 29:-1 30:-1 
-128 1:0.58962 2:0.220592 3:-0.997034 4:-0.268471 5:-0.705661 6:0.154326 7:-0.694913 8:-0.0721787 9:0.0471903 10:0.0613533 11:0.41462 12:1 13:-1 14:-1 15:-1 16:-1 17:-1 18:-1 19:-1 20:-1 21:-1 22:1 23:-1 24:-1 25:-1 26:-1 27:-1 28:-1 29:-1 30:-1 
-128 1:0.276545 2:0.0404418 3:-0.976843 4:-0.479886 5:-0.894631 6:0.0506837 7:-0.772719 8:-0.0811802 9:-0.222611 10:0.917514 11:-0.917639 12:1 13:-1 14:-1 15:-1 16:-1 17:-1 18:-1 19:-1 20:-1 21:-1 22:1 23:-1 24:-1 25:-1 26:-1 27:-1 28:-1 29:-1 30:-1 
-128 1:0.359028 2:0.694981 3:-0.995132 4:-0.142588 5:-1 6:-0.0564838 7:-0.452704 8:0.231872 9:-0.441721 10:-0.139841 11:-0.790196 12:1 13:-1 14:-1 15:-1 16:-1 17:-1 18:-1 19:-1 20:-1 21:-1 22:1 23:-1 24:-1 25:-1 26:-1 27:-1 28:-1 29:-1 30:-1 
-128 1:0.359028 2:0.694981 3:-0.995132 4:-0.126726 5:-1 6:-0.0539039 7:-0.452704 8:0.231872 9:-0.441721 10:-0.117037 11:-0.987095 12:1 13:-1 14:-1 15:-1 16:-1 17:-1 18:-1 19:-1 20:-1 21:-1 22:1 23:-1 24:-1 25:-1 26:-1 27:-1 28:-1 29:-1 30:-1 
-128 1:0.00918974 2:0.856191 3:0.115007 4:-0.562765 5:-0.266045 6:0.27403 7:-0.15261 8:-0.860643 9:0.308321 10:-0.115921 11:-0.458023 12:-1 13:-1 14:-1 15:1 16:-1 17:-1 18:-1 19:-1 20:-1 21:-1 22:-1 23:1 24:-1 25:-1 26:-1 27:-1 28:-1 29:-1 30:-1 
-128 1:-0.083349 2:0.452184 3:0.690301 4:-0.739723 5:-1 6:0.0151227 7:-0.581292 8:0.126521 9:-0.210939 10:0.0162346 11:-0.253981 12:1 13:-1 14:-1 15:-1 16:-1 17:-1 18:-1 19:-1 20:-1 21:-1 22:1 23:-1 24:-1 25:-1 26:-1 27:-1 28:-1 29:-1 30:-1 
-128 1:0.377756 2:0.538269 3:-0.689044 4:0.0530277 5:-1 6:0.0403945 7:-0.824487 8:0.434239 9:-0.256628 10:0.0660761 11:-0.282934 12:-1 13:-1 14:-1 15:-1 16:1 17:-1 18:-1 19:-1 20:-1 21:-1 22:1 23:-1 24:-1 25:-1 26:-1 27:-1 28:-1 29:-1 30:-1 
-128 1:-0.327107 2:0.0282913 3:0.139497 4:-0.416972 5:-0.87684 6:0.0501341 7:-0.56719 8:0.976663 9:0.0395198 10:0.701504 11:-0.988692 12:-1 13:-1 14:-1 15:1 16:-1 17:-1 18:-1 19:-1 20:-1 21:-1 22:1 23:-1 24:-1 25:-1 26:-1 27:-1 28:-1 29:-1 30:-1 
-128 1:-0.408875 2:0.129928 3:-0.852586 4:-0.602244 5:-0.20234 6:0.250054 7:-1 8:0.455909 9:0.218276 10:-0.715535 11:-0.0573375 12:1 13:-1 14:-1 15:-1 16:-1 17:-1 18:-1 19:-1 20:-1 21:-1 22:1 23:-1 24:-1 25:-1 26:-1 27:-1 28:-1 29:-1 30:-1 
-128 1:-0.408875 2:0.129928 3:-0.852586 4:-0.615203 5:-0.178602 6:0.242743 7:-0.934073 8:0.455909 9:0.218276 10:-0.834113 11:-0.106894 12:1 13:-1 14:-1 15:-1 16:-1 17:-1 18:-1 19:-1 20:-1 21:-1 22:1 23:-1 24:-1 25:-1 26:-1 27:-1 28:-1 29:-1 30:-1 
-128 1:-0.408875 2:0.834319 3:0.554177 4:-0.602244 5:-0.652723 6:-0.0237926 7:-1 8:0.218536 9:0.455728 10:-0.715535 11:-0.0573375 12:1 13:-1 14:-1 15:-1 16:-1 17:-1 18:-1 19:-1 20:-1 21:-1 22:1 23:-1 24:-1 25:-1 26:-1 27:-1 28:-1 29:-1 30:-1 
-128 1:-0.408875 2:0.834319 3:0.554177 4:-0.615203 5:-0.462822 6:-0.0229753 7:-0.934073 8:0.218536 9:0.455728 10:-0.834113 11:-0.106894 12:1 13:-1 14:-1 15:-1 16:-1 17:-1 18:-1 19:-1 20:-1 21:-1 22:1 23:-1 24:-1 25:-1 26:-1 27:-1 28:-1 29:-1 30:-1 
-128 1:-0.408875 2:0.834319 3:0.554177 4:0.00546823 5:-0.449571 6:0.00140295 7:-1 8:0.218536 9:-0.664832 10:-0.95636 11:0.0956745 12:1 13:-1 14:-1 15:-1 16:-1 17:-1 18:-1 19:-1 20:-1 21:-1 22:-1 23:-1 24:-1 25:1 26:-1 27:-1 28:-1 29:-1 30:-1 
-128 1:-0.0298438 2:0.361889 3:-0.719128 4:0.0148508 5:-0.677311 6:-0.00853527 7:-0.80849 8:-0.681614 9:0.0812073 10:-0.331668 11:-0.769531 12:-1 13:1 14:-1 15:-1 16:-1 17:-1 18:-1 19:-1 20:-1 21:-1 22:1 23:-1 24:-1 25:-1 26:-1 27:-1 28:-1 29:-1 30:-1 
-128 1:0.53725 2:0.73888 3:-0.728965 4:-0.273973 5:-0.986042 6:0.0370111 7:-0.562822 8:0.230205 9:-0.171252 10:-0.227062 11:-0.953279 12:1 13:-1 14:-1 15:-1 16:-1 17:-1 18:-1 19:-1 20:-1 21:-1 22:1 23:-1 24:-1 25:-1 26:-1 27:-1 28:-1 29:-1 30:-1 
-128 1:0.53725 2:0.73888 3:-0.728965 4:-0.507251 5:-0.844177 6:0.0284492 7:-0.324054 8:0.230205 9:-0.171252 10:-0.62637 11:-0.223381 12:1 13:-1 14:-1 15:-1 16:-1 17:-1 18:-1 19:-1 20:-1 21:-1 22:1 23:-1 24:-1 25:-1 26:-1 27:-1 28:-1 29:-1 30:-1 
-128 1:0.0128445 2:0.361375 3:-0.448889 4:-0.243519 5:-0.611099 6:0.0655864 7:-0.752816 8:0.0721787 9:-0.800567 10:-0.253096 11:0.50511 12:1 13:-1 14:-1 15:-1 16:-1 17:-1 18:-1 19:-1 20:-1 21:-1 22:1 23:-1 24:-1 25:-1 26:-1 27:-1 28:-1 29:-1 30:-1 
-128 1:0.116098 2:0.292017 3:-0.369384 4:-0.637448 5:0.64532 6:0.111859 7:-0.673166 8:0.205534 9:-0.0988828 10:0.277542 11:0.834537 12:1 13:-1 14:-1 15:-1 16:-1 17:-1 18:-1 19:-1 20:-1 21:-1 22:1 23:-1 24:-1 25:-1 26:-1 27:-1 28:-1 29:-1 30:-1 
-128 1:0.116098 2:0.292017 3:-0.369384 4:-0.683045 5:0.542246 6:0.116619 7:-0.625697 8:0.205534 9:-0.0988828 10:0.434655 11:0.868632 12:1 13:-1 14:-1 15:-1 16:-1 17:-1 18:-1 19:-1 20:-1 21:-1 22:1 23:-1 24:-1 25:-1 26:-1 27:-1 28:-1 29:-1 30:-1 
-128 1:0.116098 2:0.358151 3:-0.49537 4:-0.602808 5:0.164522 6:0.258945 7:-0.922962 8:0.784964 9:-0.0988828 10:0.490026 11:0.713496 12:-1 13:1 14:-1 15:-1 16:-1 17:-1 18:-1 19:-1 20:-1 21:-1 22:1 23:-1 24:-1 25:-1 26:-1 27:-1 28:-1 29:-1 30:-1 
-128 1:0.116098 2:0.358151 3:-0.49537 4:-0.576184 5:0.174718 6:0.256999 7:-0.875492 8:0.784964 9:-0.0988828 10:0.476092 11:0.750925 12:-1 13:1 14:-1 15:-1 16:-1 17:-1 18:-1 19:-1 20:-1 21:-1 22:1 23:-1 24:-1 25:-1 26:-1 27:-1 28:-1 29:-1 30:-1 
-128 1:0.227206 2:0.586545 3:-0.747725 4:-0.523208 5:0.570912 6:-0.0616694 7:-0.242068 8:0.0105018 9:-0.0815408 10:-0.101283 11:0.301443 12:-1 13:1 14:-1 15:-1 16:-1 17:-1 18:-1 19:-1 20:-1 21:-1 22:1 23:-1 24:-1 25:-1 26:-1 27:-1 28:-1 29:-1 30:-1 
-128 1:-0.645642 2:0.423462 3:-0.996494 4:-0.721267 5:0.371257 6:-0.0456946 7:-0.570766 8:0.0568428 9:0.421044 10:-0.765214 11:0.234591 12:-1 13:-1 14:-1 15:-1 16:1 17:-1 18:-1 19:-1 20:-1 21:-1 22:1 23:-1 24:-1 25:-1 26:-1 27:-1 28:-1 29:-1 30:-1 
-128 1:-0.533024 2:0.418828 3:-0.989783 4:-0.193146 5:-0.968811 6:-0.164288 7:-0.458346 8:0.768961 9:-0.11956 10:0.141395 11:-0.997944 12:-1 13:1 14:-1 15:-1 16:-1 17:-1 18:-1 19:-1 20:-1 21:-1 22:1 23:-1 24:-1 25:-1 26:-1 27:-1 28:-1 29:-1 30:-1 
-128 1:0.154462 2:0.532102 3:-0.390382 4:-0.794772 5:-0.99638 6:0.1671 7:-0.747684 8:0.258543 9:-0.14724 10:-0.908028 11:-0.963723 12:1 13:-1 14:-1 15:-1 16:-1 17:-1 18:-1 19:-1 20:-1 21:-1 22:-1 23:1 24:-1 25:-1 26:-1 27:-1 28:-1 29:-1 30:-1 
-128 1:0.522812 2:0.366657 3:-0.932846 4:-0.716246 5:-0.992078 6:0.106247 7:-0.563322 8:-0.6016 9:0.382358 10:0.696953 11:0.184935 12:1 13:-1 14:-1 15:-1 16:-1 17:-1 18:-1 19:-1 20:-1 21:-1 22:-1 23:1 24:-1 25:-1 26:-1 27:-1 28:-1 29:-1 30:-1 
-128 1:0.522812 2:0.366657 3:-0.932846 4:-0.673174 5:-0.997557 6:0.106125 7:-0.436902 8:-0.6016 9:0.382358 10:0.0234767 11:-0.653108 12:1 13:-1 14:-1 15:-1 16:-1 17:-1 18:-1 19:-1 20:-1 21:-1 22:-1 23:1 24:-1 25:-1 26:-1 27:-1 28:-1 29:-1 30:-1 
-128 1:0.522812 2:0.286207 3:-0.972296 4:-0.716246 5:-0.981727 6:0.157807 7:-0.946534 8:0.00883481 9:-0.0488578 10:0.696953 11:0.184935 12:-1 13:-1 14:-1 15:1 16:-1 17:-1 18:-1 19:-1 20:-1 21:-1 22:-1 23:1 24:-1 25:-1 26:-1 27:-1 28:-1 29:-1 30:-1 
-128 1:0.522812 2:0.687335 3:-0.835552 4:-0.560742 5:-0.98095 6:-0.0267481 7:-0.563322 8:-0.168528 9:0.11289 10:-0.517582 11:-0.998172 12:-1 13:1 14:-1 15:-1 16:-1 17:-1 18:-1 19:-1 20:-1 21:-1 22:1 23:-1 24:-1 25:-1 26:-1 27:-1 28:-1 29:-1 30:-1 
-128 1:0.204028 2:0.337578 3:-0.616973 4:-0.323919 5:-0.312472 6:0.0533898 7:-0.954601 8:0.908651 9:0.0331833 10:-0.650572 11:-0.565511 12:1 13:-1 14:-1 15:-1 16:-1 17:-1 18:-1 19:-1 20:-1 21:-1 22:1 23:-1 24:-1 25:-1 26:-1 27:-1 28:-1 29:-1 30:-1 
-128 1:-0.456966 2:0.438515 3:-0.788468 4:-0.647864 5:0.194056 6:0.68856 7:-0.463425 8:-0.214202 9:0.00216775 10:-0.255387 11:0.101508 12:-1 13:-1 14:1 15:-1 16:-1 17:-1 18:-1 19:-1 20:-1 21:-1 22:1 23:-1 24:-1 25:-1 26:-1 27:-1 28:-1 29:-1 30:-1 
-128 1:-0.862859 2:0.600184 3:0.755197 4:-0.124823 5:0.154806 6:0.0177181 7:-0.873546 8:0.533256 9:0.938969 10:-0.23964 11:0.722897 12:1 13:-1 14:-1 15:-1 16:-1 17:-1 18:-1 19:-1 20:-1 21:-1 22:-1 23:1 24:-1 25:-1 26:-1 27:-1 28:-1 29:-1 30:-1 
-128 1:-0.895206 2:-0.272004 3:-0.875079 4:-0.4377 5:0.773282 6:0.280808 7:-0.873546 8:0.145858 9:0.770218 10:-0.1651 11:0.5198 12:1 13:-1 14:-1 15:-1 16:-1 17:-1 18:-1 19:-1 20:-1 21:-1 22:-1 23:1 24:-1 25:-1 26:-1 27:-1 28:-1 29:-1 30:-1 
-128 1:-0.97723 2:0.122849 3:-0.215343 4:-0.32751 5:0.84536 6:0.0333779 7:-0.52748 8:-0.0821804 9:0.0158413 10:-0.214969 11:-0.508886 12:1 13:-1 14:-1 15:-1 16:-1 17:-1 18:-1 19:-1 20:-1 21:-1 22:1 23:-1 24:-1 25:-1 26:-1 27:-1 28:-1 29:-1 30:-1 
-128 1:-0.97723 2:0.122849 3:-0.215343 4:-0.231264 5:0.177113 6:0.0773984 7:-0.690955 8:-0.0821804 9:0.0158413 10:-0.274385 11:-0.845599 12:1 13:-1 14:-1 15:-1 16:-1 17:-1 18:-1 19:-1 20:-1 21:-1 22:1 23:-1 24:-1 25:-1 26:-1 27:-1 28:-1 29:-1 30:-1 
-128 1:0.508352 2:0.28831 3:-0.961104 4:-0.740352 5:-0.35013 6:0.199761 7:-1 8:-0.686614 9:0.0438553 10:-0.799259 11:0.632225 12:1 13:-1 14:-1 15:-1 16:-1 17:-1 18:-1 19:-1 20:-1 21:-1 22:1 23:-1 24:-1 25:-1 26:-1 27:-1 28:-1 29:-1 30:-1 
-128 1:-0.162472 2:0.559942 3:0.335798 4:-0.770346 5:-0.990729 6:-0.142417 7:-0.607631 8:0.0641774 9:0.348674 10:0.719036 11:-0.997087 12:1 13:-1 14:-1 15:-1 16:-1 17:-1 18:-1 19:-1 20:-1 21:-1 22:-1 23:-1 24:-1 25:1 26:-1 27:-1 28:-1 29:-1 30:-1 
-128 1:-0.162472 2:0.709139 3:-0.83862 4:-0.770346 5:-0.999409 6:0.092241 7:-0.607631 8:0.348891 9:0.0638653 10:0.719036 11:-0.997087 12:-1 13:-1 14:-1 15:-1 16:1 17:-1 18:-1 19:-1 20:-1 21:-1 22:1 23:-1 24:-1 25:-1 26:-1 27:-1 28:-1 29:-1 30:-1 
-128 1:0.262346 2:0.370143 3:-0.700937 4:0.133841 5:-1 6:-0.14917 7:-0.425464 8:0.831972 9:-0.224612 10:-0.143073 11:-0.570357 12:1 13:-1 14:-1 15:-1 16:-1 17:-1 18:-1 19:-1 20:-1 21:-1 22:1 23:-1 24:-1 25:-1 26:-1 27:-1 28:-1 29:-1 30:-1 
-128 1:0.54255 2:0.687599 3:-0.769957 4:-0.504339 5:0.0700117 6:0.128765 7:-0.869397 8:-0.53959 9:-0.112556 10:0.770359 11:-0.111029 12:-1 13:-1 14:-1 15:-1 16:1 17:-1 18:-1 19:-1 20:-1 21:-1 22:1 23:-1 24:-1 25:-1 26:-1 27:-1 28:-1 29:-1 30:-1 
-128 1:-0.686561 2:0.0361547 3:-0.801861 4:-0.244687 5:-0.921813 6:0.0241788 7:-0.75981 8:-0.465244 9:-0.519093 10:-0.113364 11:-0.990281 12:1 13:-1 14:-1 15:-1 16:-1 17:-1 18:-1 19:-1 20:-1 21:-1 22:1 23:-1 24:-1 25:-1 26:-1 27:-1 28:-1 29:-1 30:-1 
-128 1:-0.85082 2:0.15807 3:0.271708 4:0.185302 5:-0.968169 6:-0.268856 7:-0.81484 8:-0.78063 9:-0.564782 10:-0.432949 11:0.487056 12:-1 13:1 14:-1 15:-1 16:-1 17:-1 18:-1 19:-1 20:-1 21:-1 22:-1 23:-1 24:-1 25:1 26:-1 27:-1 28:-1 29:-1 30:-1 
-128 1:-0.85082 2:0.15807 3:0.271708 4:0.082667 5:-0.990877 6:-0.251488 7:-0.803159 8:-0.78063 9:-0.564782 10:0.298902 11:-0.927562 12:-1 13:1 14:-1 15:-1 16:-1 17:-1 18:-1 19:-1 20:-1 21:-1 22:-1 23:-1 24:-1 25:1 26:-1 27:-1 28:-1 29:-1 30:-1 
-128 1:-0.85082 2:0.15807 3:0.271708 4:0.26073 5:-0.960513 6:-0.253518 7:-0.830821 8:-0.78063 9:-0.564782 10:-0.342877 11:-0.318237 12:-1 13:1 14:-1 15:-1 16:-1 17:-1 18:-1 19:-1 20:-1 21:-1 22:-1 23:-1 24:-1 25:1 26:-1 27:-1 28:-1 29:-1 30:-1 
-128 1:-0.85082 2:0.15807 3:0.271708 4:0.152996 5:-0.978238 6:-0.231467 7:-0.874433 8:-0.78063 9:-0.564782 10:0.444307 11:0.449889 12:-1 13:1 14:-1 15:-1 16:-1 17:-1 18:-1 19:-1 20:-1 21:-1 22:-1 23:-1 24:-1 25:1 26:-1 27:-1 28:-1 29:-1 30:-1 
-128 1:-0.47381 2:0.096375 3:-0.948766 4:-0.141317 5:-0.735784 6:0.0791288 7:-0.403793 8:-0.605268 9:0.0418543 10:-0.00769221 11:-0.478427 12:1 13:-1 14:-1 15:-1 16:-1 17:-1 18:-1 19:-1 20:-1 21:-1 22:1 23:-1 24:-1 25:-1 26:-1 27:-1 28:-1 29:-1 30:-1 
-128 1:0.126563 2:0.429074 3:-0.898573 4:-0.275842 5:-0.102017 6:0.00572634 7:-0.266435 8:-0.297883 9:0.44072 10:0.352173 11:-0.557762 12:1 13:-1 14:-1 15:-1 16:-1 17:-1 18:-1 19:-1 20:-1 21:-1 22:1 23:-1 24:-1 25:-1 26:-1 27:-1 28:-1 29:-1 30:-1 
-128 1:0.166311 2:0.232472 3:-0.844901 4:-0.227649 5:0.257761 6:-0.0779711 7:-0.356984 8:-0.16186 9:0.0505253 10:0.192702 11:-0.375749 12:1 13:-1 14:-1 15:-1 16:-1 17:-1 18:-1 19:-1 20:-1 21:-1 22:1 23:-1 24:-1 25:-1 26:-1 27:-1 28:-1 29:-1 30:-1 
-128 1:0.35098 2:0.418582 3:-0.837357 4:-0.468702 5:0.547378 6:0.145748 7:-0.780666 8:-0.826304 9:-0.305986 10:-0.174186 11:0.855667 12:-1 13:-1 14:-1 15:-1 16:-1 17:-1 18:1 19:-1 20:-1 21:-1 22:-1 23:-1 24:-1 25:-1 26:-1 27:-1 28:1 29:-1 30:-1 
-128 1:0.35098 2:0.22583 3:-0.882488 4:-0.571232 5:0.341709 6:0.157417 7:-0.780666 8:-0.0908485 9:-0.305986 10:0.420168 11:-0.00038624 12:-1 13:-1 14:-1 15:-1 16:-1 17:-1 18:1 19:-1 20:-1 21:-1 22:-1 23:-1 24:-1 25:-1 26:-1 27:-1 28:1 29:-1 30:-1 
-128 1:0.155824 2:0.72763 3:-0.84374 4:-0.852575 5:0.749948 6:-0.0265197 7:-0.428378 8:-0.0448408 9:-0.18626 10:-0.715835 11:-0.998245 12:1 13:-1 14:-1 15:-1 16:-1 17:-1 18:-1 19:-1 20:-1 21:-1 22:-1 23:1 24:-1 25:-1 26:-1 27:-1 28:-1 29:-1 30:-1 
-128 1:0.0333772 2:0.625149 3:-0.535129 4:-0.530791 5:-0.86368 6:0.139123 7:-0.87499 8:-0.273546 9:-0.00917125 10:-0.783058 11:-0.998594 12:1 13:-1 14:-1 15:-1 16:-1 17:-1 18:-1 19:-1 20:-1 21:-1 22:1 23:-1 24:-1 25:-1 26:-1 27:-1 28:-1 29:-1 30:-1 
-128 1:0.0333772 2:0.625149 3:-0.535129 4:-0.538068 5:0.29278 6:0.144972 7:-0.8458 8:-0.273546 9:-0.00917125 10:-0.523217 11:-0.896973 12:1 13:-1 14:-1 15:-1 16:-1 17:-1 18:-1 19:-1 20:-1 21:-1 22:1 23:-1 24:-1 25:-1 26:-1 27:-1 28:-1 29:-1 30:-1 
-128 1:0.680592 2:0.818955 3:-0.84215 4:-0.522463 5:-1 6:-0.143287 7:-0.937536 8:-0.177863 9:-0.214274 10:-0.251871 11:-0.445902 12:-1 13:-1 14:-1 15:-1 16:-1 17:1 18:-1 19:-1 20:-1 21:-1 22:-1 23:-1 24:-1 25:-1 26:-1 27:-1 28:1 29:-1 30:-1 
-128 1:0.680592 2:0.818955 3:-0.84215 4:-0.45496 5:-1 6:-0.143195 7:-0.937536 8:-0.177863 9:-0.348007 10:-0.740978 11:-0.519521 12:-1 13:-1 14:-1 15:-1 16:-1 17:1 18:-1 19:-1 20:-1 21:-1 22:-1 23:-1 24:-1 25:-1 26:-1 27:-1 28:1 29:-1 30:-1 
-128 1:-0.241765 2:0.187227 3:-0.806008 4:-0.14591 5:-0.801848 6:0.025044 7:-0.784639 8:-0.607935 9:-0.0982158 10:0.380782 11:-0.973385 12:1 13:-1 14:-1 15:-1 16:-1 17:-1 18:-1 19:-1 20:-1 21:-1 22:1 23:-1 24:-1 25:-1 26:-1 27:-1 28:-1 29:-1 30:-1 
-128 1:-0.409124 2:0.731773 3:-0.625817 4:-0.391084 5:-0.59332 6:0.75771 7:-0.486763 8:0.00550092 9:-0.58079 10:-0.422421 11:0.388146 12:-1 13:-1 14:-1 15:1 16:-1 17:-1 18:-1 19:-1 20:-1 21:-1 22:1 23:-1 24:-1 25:-1 26:-1 27:-1 28:-1 29:-1 30:-1 
-128 1:-0.27602 2:0.891251 3:-0.997423 4:-0.38153 5:-0.917125 6:-0.143053 7:-0.570548 8:0.177196 9:0.0995498 10:-0.309736 11:-0.954726 12:1 13:-1 14:-1 15:-1 16:-1 17:-1 18:-1 19:-1 20:-1 21:-1 22:1 23:-1 24:-1 25:-1 26:-1 27:-1 28:-1 29:-1 30:-1 
-128 1:0.290018 2:0.747017 3:-0.586764 4:-0.450872 5:0.895226 6:-0.068122 7:-0.851224 8:-0.276879 9:-0.262965 10:-0.241478 11:0.197378 12:1 13:-1 14:-1 15:-1 16:-1 17:-1 18:-1 19:-1 20:-1 21:-1 22:-1 23:1 24:-1 25:-1 26:-1 27:-1 28:-1 29:-1 30:-1 
-128 1:0.290018 2:-0.160682 3:-0.96963 4:-0.450872 5:0.295151 6:0.181102 7:-0.851224 8:-0.262544 9:-0.277305 10:-0.241478 11:0.197378 12:-1 13:1 14:-1 15:-1 16:-1 17:-1 18:-1 19:-1 20:-1 21:-1 22:1 23:-1 24:-1 25:-1 26:-1 27:-1 28:-1 29:-1 30:-1 
-128 1:-0.487532 2:0.100367 3:0.0894178 4:0.0887506 5:0.165774 6:-0.00192341 7:-0.313088 8:0.153859 9:0.142905 10:0.403618 11:0.170017 12:-1 13:-1 14:-1 15:-1 16:1 17:-1 18:-1 19:-1 20:-1 21:-1 22:1 23:-1 24:-1 25:-1 26:-1 27:-1 28:-1 29:-1 30:-1 
-128 1:-0.196125 2:0.431517 3:0.515368 4:-0.413872 5:0.886332 6:0.159256 7:-0.958586 8:-0.288215 9:-0.567784 10:-0.580779 11:-0.657709 12:1 13:-1 14:-1 15:-1 16:-1 17:-1 18:-1 19:-1 20:-1 21:-1 22:1 23:-1 24:-1 25:-1 26:-1 27:-1 28:-1 29:-1 30:-1 
-128 1:0.0973927 2:0.825526 3:-0.52379 4:-0.562348 5:0.302172 6:-0.0285247 7:-0.917864 8:0.637273 9:0.503085 10:-0.940866 11:-0.848591 12:-1 13:-1 14:-1 15:-1 16:-1 17:-1 18:1 19:-1 20:-1 21:-1 22:-1 23:-1 24:-1 25:-1 26:-1 27:-1 28:1 29:-1 30:-1 
-128 1:0.0973927 2:0.309317 3:-0.674873 4:-0.523811 5:-0.023698 6:0.0566005 7:-0.917864 8:-0.104851 9:-0.0925463 10:-0.256544 11:-0.840728 12:1 13:-1 14:-1 15:-1 16:-1 17:-1 18:-1 19:-1 20:-1 21:-1 22:-1 23:1 24:-1 25:-1 26:-1 27:-1 28:-1 29:-1 30:-1 
-128 1:0.729705 2:0.618939 3:-0.963812 4:0.0921377 5:-0.995969 6:-0.134303 7:-0.811784 8:-0.216536 9:0.25296 10:0.622219 11:-0.991791 12:1 13:-1 14:-1 15:-1 16:-1 17:-1 18:-1 19:-1 20:-1 21:-1 22:-1 23:1 24:-1 25:-1 26:-1 27:-1 28:-1 29:-1 30:-1 
-128 1:0.729705 2:0.618939 3:-0.963812 4:-0.152177 5:-0.850298 6:-0.136982 7:-0.297099 8:-0.216536 9:0.25296 10:0.164756 11:-0.564019 12:1 13:-1 14:-1 15:-1 16:-1 17:-1 18:-1 19:-1 20:-1 21:-1 22:-1 23:1 24:-1 25:-1 26:-1 27:-1 28:-1 29:-1 30:-1 
-128 1:0.729705 2:0.618939 3:-0.963812 4:-0.562113 5:-0.847846 6:-0.137055 7:-0.297099 8:-0.216536 9:-0.483408 10:0.364991 11:-0.976304 12:1 13:-1 14:-1 15:-1 16:-1 17:-1 18:-1 19:-1 20:-1 21:-1 22:-1 23:1 24:-1 25:-1 26:-1 27:-1 28:-1 29:-1 30:-1 
-128 1:0.729705 2:0.788295 3:-0.911551 4:-0.562113 5:-0.774296 6:-0.095161 7:-0.297099 8:-0.482914 9:-0.216942 10:0.364991 11:-0.976304 12:-1 13:1 14:-1 15:-1 16:-1 17:-1 18:-1 19:-1 20:-1 21:-1 22:1 23:-1 24:-1 25:-1 26:-1 27:-1 28:-1 29:-1 30:-1 
-128 1:0.729705 2:0.93629 3:-0.786183 4:0.0921377 5:-0.916178 6:-0.333706 7:-0.811784 8:0.253209 9:-0.216942 10:0.622219 11:-0.991791 12:-1 13:1 14:-1 15:-1 16:-1 17:-1 18:-1 19:-1 20:-1 21:-1 22:1 23:-1 24:-1 25:-1 26:-1 27:-1 28:-1 29:-1 30:-1 
-128 1:0.729705 2:0.93629 3:-0.786183 4:-0.152177 5:0.189322 6:-0.3313 7:-0.297099 8:0.253209 9:-0.216942 10:0.164756 11:-0.564019 12:-1 13:1 14:-1 15:-1 16:-1 17:-1 18:-1 19:-1 20:-1 21:-1 22:1 23:-1 24:-1 25:-1 26:-1 27:-1 28:-1 29:-1 30:-1 
-128 1:0.474585 2:0.260854 3:-0.965774 4:-0.436418 5:0.0716944 6:0.125732 7:-0.662897 8:0.7983 9:0.0228448 10:-0.933393 11:-0.775529 12:1 13:-1 14:-1 15:-1 16:-1 17:-1 18:-1 19:-1 20:-1 21:-1 22:1 23:-1 24:-1 25:-1 26:-1 27:-1 28:-1 29:-1 30:-1 
-128 1:-0.223445 2:-0.0957533 3:-0.674401 4:-0.52034 5:-0.991498 6:0.758638 7:-0.671442 8:-0.0505084 9:-0.337335 10:0.0134434 11:-0.294768 12:-1 13:-1 14:1 15:-1 16:-1 17:-1 18:-1 19:-1 20:-1 21:-1 22:-1 23:1 24:-1 25:-1 26:-1 27:-1 28:-1 29:-1 30:-1 
-128 1:0.0311298 2:0.23742 3:-0.834726 4:-0.712037 5:0.890255 6:-0.0333011 7:-0.408694 8:-0.0898483 9:-0.0708688 10:0.0389893 11:-0.358464 12:1 13:-1 14:-1 15:-1 16:-1 17:-1 18:-1 19:-1 20:-1 21:-1 22:1 23:-1 24:-1 25:-1 26:-1 27:-1 28:-1 29:-1 30:-1 
-128 1:-0.313703 2:0.265608 3:-0.563634 4:-0.051922 5:-0.621395 6:0.217519 7:-0.874931 8:0.363894 9:-0.811906 10:0.140401 11:-0.673521 12:-1 13:-1 14:-1 15:-1 16:1 17:-1 18:-1 19:-1 20:-1 21:-1 22:-1 23:-1 24:-1 25:1 26:-1 27:-1 28:-1 29:-1 30:-1 
-128 1:-0.313703 2:-0.193502 3:-0.593418 4:-0.051922 5:-0.966552 6:0.0712642 7:-0.874931 8:-0.811302 9:0.363682 10:0.140401 11:-0.673521 12:-1 13:-1 14:-1 15:-1 16:1 17:-1 18:-1 19:-1 20:-1 21:-1 22:-1 23:-1 24:-1 25:1 26:-1 27:-1 28:-1 29:-1 30:-1 
-128 1:-0.813598 2:0.556133 3:-0.369192 4:-0.646258 5:0.96126 6:-0.270096 7:-0.314493 8:0.397233 9:-0.0565283 10:0.0487382 11:-0.0877845 12:-1 13:1 14:-1 15:-1 16:-1 17:-1 18:-1 19:-1 20:-1 21:-1 22:1 23:-1 24:-1 25:-1 26:-1 27:-1 28:-1 29:-1 30:-1 
-128 1:-0.813598 2:0.556133 3:-0.369192 4:-0.692414 5:-0.15514 6:-0.299507 7:-0.274111 8:0.397233 9:-0.0565283 10:0.00326317 11:-0.883195 12:-1 13:1 14:-1 15:-1 16:-1 17:-1 18:-1 19:-1 20:-1 21:-1 22:1 23:-1 24:-1 25:-1 26:-1 27:-1 28:-1 29:-1 30:-1 
-128 1:0.476038 2:0.960111 3:-0.578263 4:-0.103883 5:0.95836 6:-0.0394281 7:-0.842087 8:0.565928 9:0.861931 10:0.226937 11:0.791721 12:-1 13:-1 14:-1 15:-1 16:-1 17:-1 18:-1 19:-1 20:0.333333 21:-1 22:-1 23:-1 24:-1 25:-1 26:-1 27:-1 28:1 29:-1 30:-1 
-128 1:0.598201 2:0.482078 3:-0.967341 4:-0.566683 5:-0.918471 6:0.221231 7:-0.75308 8:-0.0155026 9:-0.0315158 10:0.176246 11:-0.865403 12:-1 13:-1 14:-1 15:-1 16:1 17:-1 18:-1 19:-1 20:-1 21:-1 22:1 23:-1 24:-1 25:-1 26:-1 27:-1 28:-1 29:-1 30:-1 
-128 1:-0.587427 2:0.654336 3:0.59988 4:-0.740684 5:0.152219 6:0.211749 7:-0.952922 8:-0.943657 9:-0.832249 10:-0.307001 11:0.623218 12:1 13:-1 14:-1 15:-1 16:-1 17:-1 18:-1 19:-1 20:-1 21:-1 22:-1 23:1 24:-1 25:-1 26:-1 27:-1 28:-1 29:-1 30:-1 
-128 1:-0.599173 2:0.735972 3:-0.851391 4:-0.622302 5:-0.509752 6:0.515999 7:-0.181261 8:0.0151692 9:-0.0185093 10:-0.538777 11:-0.828147 12:-1 13:-1 14:1 15:-1 16:-1 17:-1 18:-1 19:-1 20:-1 21:-1 22:1 23:-1 24:-1 25:-1 26:-1 27:-1 28:-1 29:-1 30:-1 
-128 1:-0.79756 2:0.271355 3:0.377069 4:-0.213733 5:-0.907353 6:0.170953 7:-0.949796 8:-0.595933 9:0.955644 10:-0.0300562 11:-0.994924 12:-1 13:-1 14:-1 15:-1 16:-1 17:-1 18:-1 19:-1 20:-1 21:1 22:-1 23:-1 24:-1 25:-1 26:-1 27:-1 28:1 29:-1 30:-1 
-128 1:-0.79756 2:0.271355 3:0.377069 4:-0.241969 5:-0.791187 6:0.160292 7:-0.883983 8:-0.595933 9:0.955644 10:-0.109613 11:-0.979217 12:-1 13:-1 14:-1 15:-1 16:-1 17:-1 18:-1 19:-1 20:-1 21:1 22:-1 23:-1 24:-1 25:-1 26:-1 27:-1 28:1 29:-1 30:-1 
-128 1:-0.338117 2:0.093245 3:-0.336792 4:0.0638724 5:0.293777 6:0.0447828 7:-0.511402 8:-0.0191699 9:-0.0985493 10:0.491883 11:0.869954 12:1 13:-1 14:-1 15:-1 16:-1 17:-1 18:-1 19:-1 20:-1 21:-1 22:1 23:-1 24:-1 25:-1 26:-1 27:-1 28:-1 29:-1 30:-1 
-128 1:-0.338117 2:-0.279298 3:-0.330296 4:0.0638724 5:-0.982921 6:-0.108813 7:-0.511402 8:-0.098183 9:-0.0195098 10:0.491883 11:0.869954 12:1 13:-1 14:-1 15:-1 16:-1 17:-1 18:-1 19:-1 20:-1 21:-1 22:1 23:-1 24:-1 25:-1 26:-1 27:-1 28:-1 29:-1 30:-1 
-128 1:0.0494605 2:0.811107 3:0.0433298 4:-0.462141 5:0.0789035 6:0.531817 7:-0.945475 8:-0.291882 9:-0.642821 10:0.118531 11:0.316399 12:-1 13:-1 15:-1 16:-1 17:-1 18:-1 19:-1 20:-1 21:-1 22:1 23:-1 24:-1 25:-1 26:-1 27:-1 28:-1 29:-1 30:-1 
-128 1:0.0494605 2:0.811107 3:0.0433298 4:-0.657312 5:-0.795037 6:0.548921 7:-0.945475 8:-0.291882 9:-0.680507 10:0.164643 11:-0.78313 12:-1 13:-1 15:-1 16:-1 17:-1 18:-1 19:-1 20:-1 21:-1 22:-1 23:-1 24:-1 25:1 26:-1 27:-1 28:-1 29:-1 30:-1 
-128 1:0.0342625 2:0.734345 3:0.879515 4:-0.0754556 5:-0.124869 6:0.130796 7:-0.902617 8:0.822304 9:-0.0408538 10:-0.932927 11:-0.683575 12:1 13:-1 14:-1 15:-1 16:-1 17:-1 18:-1 19:-1 20:-1 21:-1 22:1 23:-1 24:-1 25:-1 26:-1 27:-1 28:-1 29:-1 30:-1 
-128 1:-0.343872 2:0.506842 3:-0.379407 4:-0.515692 5:0.114627 6:-0.0607095 7:-0.519507 8:-0.268878 9:0.189928 10:0.0360699 11:0.469603 12:1 13:-1 14:-1 15:-1 16:-1 17:-1 18:-1 19:-1 20:-1 21:-1 22:1 23:-1 24:-1 25:-1 26:-1 27:-1 28:-1 29:-1 30:-1 
-128 1:-0.431893 2:0.868138 3:0.311169 4:-0.200868 5:-0.809037 6:0.0785345 7:-0.845832 8:0.272212 9:-0.149908 10:-0.637163 11:-0.978352 12:-1 13:-1 14:-1 15:-1 16:-1 17:-1 18:-1 19:1 20:-1 21:-1 22:-1 23:-1 24:-1 25:-1 26:-1 27:1 28:-1 29:-1 30:-1 
-128 1:0.15117 2:0.178782 3:-0.883799 4:-0.257509 5:-0.966777 6:-0.0709605 7:-0.389497 8:-0.847975 9:0.0105053 10:0.277007 11:-0.832871 12:-1 13:1 14:-1 15:-1 16:-1 17:-1 18:-1 19:-1 20:-1 21:-1 22:1 23:-1 24:-1 25:-1 26:-1 27:-1 28:-1 29:-1 30:-1 
-128 1:0.15117 2:0.178782 3:-0.883799 4:-0.213505 5:-0.95987 6:-0.0206037 7:-0.539611 8:-0.847975 9:0.0105053 10:0.803303 11:-0.615937 12:-1 13:1 14:-1 15:-1 16:-1 17:-1 18:-1 19:-1 20:-1 21:-1 22:1 23:-1 24:-1 25:-1 26:-1 27:-1 28:-1 29:-1 30:-1 
-128 1:0.0478147 2:0.63045 3:-0.619288 4:-0.500905 5:-0.636156 6:0.183304 7:-0.625113 8:0.0161694 9:-0.0952143 10:-0.185357 11:-0.898603 12:-1 13:1 14:-1 15:-1 16:-1 17:-1 18:-1 19:-1 20:-1 21:-1 22:1 23:-1 24:-1 25:-1 26:-1 27:-1 28:-1 29:-1 30:-1 
-128 1:0.491202 2:0.585359 3:-0.949168 4:-0.340928 5:0.601991 6:-0.0198091 7:-0.684631 8:0.786631 9:0.0251793 10:-0.153222 11:-0.358137 12:-1 13:-1 14:-1 15:-1 16:-1 17:-1 18:1 19:-1 20:-1 21:-1 22:-1 23:-1 24:-1 25:-1 26:-1 27:-1 28:1 29:-1 30:-1 
-128 1:0.0777 2:0.599696 3:0.741152 4:-0.115756 5:-0.868427 6:0.158527 7:-0.810763 8:-0.35856 9:0.685509 10:-0.0138716 11:-0.940057 12:-1 13:1 14:-1 15:-1 16:-1 17:-1 18:-1 19:-1 20:-1 21:-1 22:-1 23:-1 24:-1 25:1 26:-1 27:-1 28:-1 29:-1 30:-1 
-128 1:0.132193 2:0.641986 3:-0.836242 4:-0.496222 5:-0.371059 6:0.0549757 7:-0.800194 8:-0.0631772 9:0.100884 10:-0.234186 11:0.858574 12:1 13:-1 14:-1 15:-1 16:-1 17:-1 18:-1 19:-1 20:-1 21:-1 22:1 23:-1 24:-1 25:-1 26:-1 27:-1 28:-1 29:-1 30:-1 
-128 1:0.132193 2:0.641986 3:-0.836242 4:-0.561637 5:-0.379427 6:0.0537898 7:-0.796575 8:-0.0631772 9:0.100884 10:0.0419055 11:0.706113 12:1 13:-1 14:-1 15:-1 16:-1 17:-1 18:-1 19:-1 20:-1 21:-1 22:1 23:-1 24:-1 25:-1 26:-1 27:-1 28:-1 29:-1 30:-1 
-128 1:0.132193 2:0.641986 3:-0.836242 4:-0.526175 5:-0.398909 6:0.046341 7:-0.774132 8:-0.0631772 9:0.100884 10:-0.234064 11:0.650854 12:1 13:-1 14:-1 15:-1 16:-1 17:-1 18:-1 19:-1 20:-1 21:-1 22:1 23:-1 24:-1 25:-1 26:-1 27:-1 28:-1 29:-1 30:-1 
-128 1:0.019405 2:0.457947 3:-0.215543 4:-0.566938 5:-0.725598 6:-0.220352 7:-0.475001 8:-0.739623 9:-0.797232 10:0.799615 11:-0.949275 12:-1 13:-1 14:-1 15:-1 16:-1 17:-1 18:-1 19:1 20:-1 21:-1 22:-1 23:-1 24:-1 25:-1 26:-1 27:-1 28:1 29:-1 30:-1 
-128 1:0.602389 2:0.508904 3:-0.952579 4:-0.502101 5:0.24543 6:0.364963 7:-0.595661 8:-0.331555 9:0.744205 10:0.809054 11:-0.423599 12:-1 13:-1 14:-1 15:-1 16:-1 17:-1 18:-1 19:-1 20:-0.333333 21:-1 22:-1 23:-1 24:-1 25:-1 26:-1 27:-1 28:1 29:-1 30:-1 
-128 1:-0.179077 2:0.784274 3:-0.443288 4:-0.300906 5:0.734223 6:0.113351 7:-0.542829 8:0.641607 9:0.611806 10:-0.738146 11:-0.152441 12:-1 13:-1 15:-1 16:-1 17:-1 18:-1 19:-1 20:-1 21:-1 22:1 23:-1 24:-1 25:-1 26:-1 27:-1 28:-1 29:-1 30:-1 
-128 1:-0.179077 2:0.784274 3:-0.443288 4:-0.205893 5:0.89143 6:0.116349 7:-0.66823 8:0.641607 9:0.611806 10:0.071074 11:0.145153 12:-1 13:-1 15:-1 16:-1 17:-1 18:-1 19:-1 20:-1 21:-1 22:1 23:-1 24:-1 25:-1 26:-1 27:-1 28:-1 29:-1 30:-1 
-128 1:-0.179077 2:0.784274 3:-0.443288 4:-0.30857 5:-0.210533 6:0.113885 7:-0.504147 8:0.641607 9:0.611806 10:-0.807557 11:-0.823805 12:-1 13:-1 15:-1 16:-1 17:-1 18:-1 19:-1 20:-1 21:-1 22:1 23:-1 24:-1 25:-1 26:-1 27:-1 28:-1 29:-1 30:-1 
-128 1:0.241666 2:0.141072 3:-0.778235 4:-0.468657 5:0.0688792 6:0.0481586 7:-0.863487 8:-0.997666 9:0.0655328 10:-0.932414 11:0.697068 12:1 13:-1 14:-1 15:-1 16:-1 17:-1 18:-1 19:-1 20:-1 21:-1 22:1 23:-1 24:-1 25:-1 26:-1 27:-1 28:-1 29:-1 30:-1 
-128 1:-0.652527 2:0.456296 3:-0.135208 4:-0.349826 5:-0.992378 6:-0.180062 7:-0.17225 8:-0.714619 9:0.277639 10:-0.0778661 11:0.026164 12:1 13:-1 14:-1 15:-1 16:-1 17:-1 18:-1 19:-1 20:-1 21:-1 22:1 23:-1 24:-1 25:-1 26:-1 27:-1 28:-1 29:-1 30:-1 
-128 1:0.216264 2:0.815508 3:-0.730157 4:-0.509471 5:-0.999582 6:-0.0652915 7:-0.469308 8:-0.540923 9:0.0328498 10:-0.542449 11:0.132003 12:1 13:-1 14:-1 15:-1 16:-1 17:-1 18:-1 19:-1 20:-1 21:-1 22:-1 23:-1 24:-1 25:1 26:-1 27:-1 28:-1 29:-1 30:-1 
-128 1:0.216264 2:0.815508 3:-0.730157 4:-0.509471 5:-0.999961 6:-0.0519541 7:-0.653021 8:-0.540923 9:-0.402034 10:-0.542449 11:0.132003 12:1 13:-1 14:-1 15:-1 16:-1 17:-1 18:-1 19:-1 20:-1 21:-1 22:-1 23:1 24:-1 25:-1 26:-1 27:-1 28:-1 29:-1 30:-1 
-128 1:0.290483 2:0.707463 3:-0.176266 4:-0.278117 5:-0.2874 6:-0.2237 7:-0.256694 8:0.852642 9:0.19293 10:0.234498 11:-0.695726 12:-1 13:1 14:-1 15:-1 16:-1 17:-1 18:-1 19:-1 20:-1 21:-1 22:1 23:-1 24:-1 25:-1 26:-1 27:-1 28:-1 29:-1 30:-1 
-128 1:0.370571 2:0.245204 3:-0.881543 4:-0.46961 5:0.893481 6:0.265183 7:-0.851602 8:-0.763294 9:-0.912623 10:0.410172 11:0.225919 12:-1 13:-1 14:-1 15:-1 16:-1 17:-1 18:-1 19:1 20:-1 21:-1 22:-1 23:-1 24:-1 25:-1 26:-1 27:1 28:-1 29:-1 30:-1 
-128 1:-0.317755 2:-0.0196308 3:-0.795104 4:-0.39784 5:-0.667949 6:0.11662 7:-0.840324 8:-0.681947 9:-0.377689 10:-0.341202 11:-0.918293 12:-1 13:1 14:-1 15:-1 16:-1 17:-1 18:-1 19:-1 20:-1 21:-1 22:1 23:-1 24:-1 25:-1 26:-1 27:-1 28:-1 29:-1 30:-1 
-128 1:0.512234 2:0.187353 3:-0.966057 4:-0.352136 5:-0.352451 6:-0.189624 7:-0.275438 8:-0.980663 9:-0.0425213 10:0.382629 11:-0.384317 12:1 13:-1 14:-1 15:-1 16:-1 17:-1 18:-1 19:-1 20:-1 21:-1 22:1 23:-1 24:-1 25:-1 26:-1 27:-1 28:-1 29:-1 30:-1 
-128 1:-0.0909083 2:0.617869 3:-0.823802 4:-0.233093 5:-0.495278 6:0.0639882 7:-0.784901 8:-0.131855 9:0.214941 10:-0.101015 11:-0.768252 12:1 13:-1 14:-1 15:-1 16:-1 17:-1 18:-1 19:-1 20:-1 21:-1 22:1 23:-1 24:-1 25:-1 26:-1 27:-1 28:-1 29:-1 30:-1 
-128 1:-0.578456 2:-0.56928 3:-0.609851 4:0.0256882 5:0.758047 6:0.193121 7:-0.837143 8:-0.129855 9:0.0381858 10:0.349185 11:-0.812998 12:-1 13:1 14:-1 15:-1 16:-1 17:-1 18:-1 19:-1 20:-1 21:-1 22:1 23:-1 24:-1 25:-1 26:-1 27:-1 28:-1 29:-1 30:-1 
-128 1:-0.348934 2:0.263986 3:-0.663148 4:-0.617072 5:-0.492731 6:0.0689754 7:-0.353666 8:-0.950325 9:0.0408538 10:0.106613 11:-0.664219 12:-1 13:-1 14:-1 15:-1 16:1 17:-1 18:-1 19:-1 20:-1 21:-1 22:1 23:-1 24:-1 25:-1 26:-1 27:-1 28:-1 29:-1 30:-1 
-128 1:0.262403 2:0.664685 3:-0.491132 4:-0.416579 5:-0.609763 6:0.290099 7:-0.873954 8:-0.847308 9:-0.710188 10:0.105559 11:-0.590652 12:-1 13:-1 14:-1 15:-1 16:-1 17:-1 18:-1 19:1 20:-1 21:-1 22:-1 23:-1 24:-1 25:-1 26:-1 27:-1 28:1 29:-1 30:-1 
-128 1:0.262403 2:0.664685 3:-0.491132 4:-0.396779 5:-0.659165 6:0.232383 7:-0.820997 8:-0.847308 9:-0.710188 10:-0.997309 11:-0.673725 12:-1 13:-1 14:-1 15:-1 16:-1 17:-1 18:-1 19:1 20:-1 21:-1 22:-1 23:-1 24:-1 25:-1 26:-1 27:-1 28:1 29:-1 30:-1 
-128 1:-0.108217 2:0.716192 3:-0.545848 4:0.0377893 5:0.151448 6:-0.0255123 7:-0.612443 8:0.244207 9:-0.376688 10:-0.221596 11:-0.759701 12:-1 13:1 14:-1 15:-1 16:-1 17:-1 18:-1 19:-1 20:-1 21:-1 22:-1 23:1 24:-1 25:-1 26:-1 27:-1 28:-1 29:-1 30:-1 
-128 1:-0.108217 2:0.716192 3:-0.545848 4:0.248328 5:-0.123226 6:-0.0105787 7:-0.848492 8:0.244207 9:-0.376688 10:0.122135 11:-0.741423 12:-1 13:1 14:-1 15:-1 16:-1 17:-1 18:-1 19:-1 20:-1 21:-1 22:-1 23:1 24:-1 25:-1 26:-1 27:-1 28:-1 29:-1 30:-1 
-128 1:-0.29191 2:0.238401 3:0.332351 4:-0.437676 5:-0.85903 6:0.244923 7:-1 8:-0.129855 9:-0.0682008 10:-0.147155 11:-0.999723 12:1 13:-1 14:-1 15:-1 16:-1 17:-1 18:-1 19:-1 20:-1 21:-1 22:1 23:-1 24:-1 25:-1 26:-1 27:-1 28:-1 29:-1 30:-1 
-128 1:-0.160213 2:0.49872 3:0.46011 4:-0.295133 5:0.581683 6:0.0986767 7:-0.459082 8:0.242207 9:0.0548608 10:0.176264 11:0.331649 12:1 13:-1 14:-1 15:-1 16:-1 17:-1 18:-1 19:-1 20:-1 21:-1 22:1 23:-1 24:-1 25:-1 26:-1 27:-1 28:-1 29:-1 30:-1 
-128 1:-0.190189 2:0.106528 3:-0.623506 4:-0.693238 5:-0.0224275 6:0.0768851 7:-0.728284 8:0.154192 9:0.0858763 10:0.196794 11:-0.390765 12:1 13:-1 14:-1 15:-1 16:-1 17:-1 18:-1 19:-1 20:-1 21:-1 22:-1 23:1 24:-1 25:-1 26:-1 27:-1 28:-1 29:-1 30:-1 
-128 1:0.400433 2:0.223156 3:-0.970858 4:-0.160222 5:-0.706384 6:0.243388 7:-0.60691 8:0.308551 9:-0.136568 10:-0.92114 11:-0.94937 12:-1 13:-1 14:1 15:-1 16:-1 17:-1 18:-1 19:-1 20:-1 21:-1 22:1 23:-1 24:-1 25:-1 26:-1 27:-1 28:-1 29:-1 30:-1 
-128 1:0.400433 2:0.223156 3:-0.970858 4:-0.378478 5:0.125057 6:0.250904 7:-0.546552 8:0.308551 9:-0.136568 10:0.284984 11:-0.538849 12:-1 13:-1 14:1 15:-1 16:-1 17:-1 18:-1 19:-1 20:-1 21:-1 22:1 23:-1 24:-1 25:-1 26:-1 27:-1 28:-1 29:-1 30:-1 
-128 1:0.400433 2:0.223156 3:-0.970858 4:-0.361555 5:-0.459451 6:0.247332 7:-0.463434 8:0.308551 9:-0.136568 10:0.169513 11:-0.855609 12:-1 13:-1 14:1 15:-1 16:-1 17:-1 18:-1 19:-1 20:-1 21:-1 22:1 23:-1 24:-1 25:-1 26:-1 27:-1 28:-1 29:-1 30:-1 
-128 1:0.025886 2:0.498331 3:-0.391906 4:-0.434227 5:0.989229 6:-0.161998 7:-0.501248 8:0.390232 9:0.119893 10:0.175486 11:0.640529 12:-1 13:-1 14:-1 15:1 16:-1 17:-1 18:-1 19:-1 20:-1 21:-1 22:1 23:-1 24:-1 25:-1 26:-1 27:-1 28:-1 29:-1 30:-1 
-128 1:0.025886 2:0.498331 3:-0.391906 4:-0.374525 5:0.968717 6:-0.130785 7:-0.702199 8:0.390232 9:0.119893 10:0.372392 11:0.726646 12:-1 13:-1 14:-1 15:1 16:-1 17:-1 18:-1 19:-1 20:-1 21:-1 22:1 23:-1 24:-1 25:-1 26:-1 27:-1 28:-1 29:-1 30:-1 
-128 1:-0.444878 2:-0.0505457 3:-0.570991 4:-0.123265 5:-0.944672 6:0.0123154 7:-0.352309 8:0.193866 9:-0.246957 10:0.600358 11:-0.985535 12:1 13:-1 14:-1 15:-1 16:-1 17:-1 18:-1 19:-1 20:-1 21:-1 22:-1 23:1 24:-1 25:-1 26:-1 27:-1 28:-1 29:-1 30:-1 
-128 1:0.346497 2:0.423648 3:-0.949062 4:0.0730713 5:0.365527 6:0.0793641 7:-0.826673 8:-0.381897 9:-0.0605303 10:0.0440997 11:0.0281084 12:1 13:-1 14:-1 15:-1 16:-1 17:-1 18:-1 19:-1 20:-1 21:-1 22:-1 23:-1 24:-1 25:1 26:-1 27:-1 28:-1 29:-1 30:-1 
-128 1:-0.172914 2:0.539431 3:0.96147 4:0.1657 5:-0.879596 6:0.0214463 7:-0.836303 8:0.104184 9:-0.242288 10:0.731663 11:-0.889985 12:1 13:-1 14:-1 15:-1 16:-1 17:-1 18:-1 19:-1 20:-1 21:-1 22:1 23:-1 24:-1 25:-1 26:-1 27:-1 28:-1 29:-1 30:-1 
-128 1:-0.172914 2:0.539431 3:0.96147 4:0.203531 5:0.290825 6:0.0330324 7:-0.840545 8:0.104184 9:-0.242288 10:0.48906 11:0.937634 12:1 13:-1 14:-1 15:-1 16:-1 17:-1 18:-1 19:-1 20:-1 21:-1 22:1 23:-1 24:-1 25:-1 26:-1 27:-1 28:-1 29:-1 30:-1 
-128 1:-0.172914 2:0.539431 3:0.96147 4:0.17229 5:-0.265122 6:0.0199829 7:-0.785762 8:0.104184 9:-0.242288 10:0.429767 11:0.124858 12:1 13:-1 14:-1 15:-1 16:-1 17:-1 18:-1 19:-1 20:-1 21:-1 22:1 23:-1 24:-1 25:-1 26:-1 27:-1 28:-1 29:-1 30:-1 
-128 1:0.194256 2:0.321128 3:-0.784479 4:-0.659772 5:0.4254 6:-0.142369 7:-0.479106 8:-0.261877 9:-0.978989 10:-0.856717 11:-0.0616627 12:1 13:-1 14:-1 15:-1 16:-1 17:-1 18:-1 19:-1 20:-1 21:-1 22:-1 23:1 24:-1 25:-1 26:-1 27:-1 28:-1 29:-1 30:-1 
-128 1:0.164984 2:0.797093 3:0.361729 4:-0.345807 5:-0.885726 6:0.0416363 7:-0.691783 8:-0.568928 9:0.120227 10:0.113517 11:-0.549442 12:-1 13:-1 14:-1 15:-1 16:-1 17:-1 18:-1 19:1 20:-1 21:-1 22:-1 23:-1 24:-1 25:-1 26:-1 27:-1 28:1 29:-1 30:-1 
-128 1:0.0463959 2:0.403745 3:-0.500252 4:-0.372382 5:-0.950682 6:0.04227 7:-0.693255 8:0.604267 9:-0.135234 10:0.361978 11:-0.932767 12:1 13:-1 14:-1 15:-1 16:-1 17:-1 18:-1 19:-1 20:-1 21:-1 22:1 23:-1 24:-1 25:-1 26:-1 27:-1 28:-1 29:-1 30:-1 
-128 1:0.0123905 2:0.530807 3:-0.860411 4:-0.699417 5:-0.927657 6:0.154817 7:-0.844458 8:0.470245 9:0.743538 10:-0.865438 11:0.0759686 12:1 13:-1 14:-1 15:-1 16:-1 17:-1 18:-1 19:-1 20:-1 21:-1 22:-1 23:1 24:-1 25:-1 26:-1 27:-1 28:-1 29:-1 30:-1 
-128 1:0.0123905 2:0.530807 3:-0.860411 4:-0.696893 5:-0.956079 6:0.153947 7:-0.773443 8:0.470245 9:0.743538 10:-0.887508 11:-0.373105 12:1 13:-1 14:-1 15:-1 16:-1 17:-1 18:-1 19:-1 20:-1 21:-1 22:-1 23:1 24:-1 25:-1 26:-1 27:-1 28:-1 29:-1 30:-1 
-128 1:0.0123905 2:0.530807 3:-0.860411 4:-0.815629 5:-0.936237 6:0.121079 7:-0.755093 8:0.470245 9:0.743538 10:-0.965615 11:0.105827 12:1 13:-1 14:-1 15:-1 16:-1 17:-1 18:-1 19:-1 20:-1 21:-1 22:-1 23:1 24:-1 25:-1 26:-1 27:-1 28:-1 29:-1 30:-1 
-128 1:0.0123905 2:0.530807 3:-0.860411 4:-0.580645 5:-0.284249 6:0.157994 7:-0.773443 8:0.470245 9:0.0665333 10:-0.147162 11:-0.832088 12:1 13:-1 14:-1 15:-1 16:-1 17:-1 18:-1 19:-1 20:-1 21:-1 22:1 23:-1 24:-1 25:-1 26:-1 27:-1 28:-1 29:-1 30:-1 
-128 1:0.0123905 2:0.530807 3:-0.860411 4:-0.644943 5:-0.825239 6:0.108467 7:-0.586597 8:0.470245 9:0.0665333 10:-0.896075 11:-0.974078 12:1 13:-1 14:-1 15:-1 16:-1 17:-1 18:-1 19:-1 20:-1 21:-1 22:1 23:-1 24:-1 25:-1 26:-1 27:-1 28:-1 29:-1 30:-1 
-128 1:0.0123905 2:0.530807 3:-0.860411 4:-0.690051 5:0.355037 6:0.113934 7:-0.620518 8:0.470245 9:0.0665333 10:-0.601183 11:-0.345914 12:1 13:-1 14:-1 15:-1 16:-1 17:-1 18:-1 19:-1 20:-1 21:-1 22:1 23:-1 24:-1 25:-1 26:-1 27:-1 28:-1 29:-1 30:-1 
-128 1:0.0123905 2:0.530807 3:-0.860411 4:-0.723306 5:0.804871 6:0.106056 7:-0.549502 8:0.470245 9:0.0665333 10:-0.61353 11:0.275187 12:1 13:-1 14:-1 15:-1 16:-1 17:-1 18:-1 19:-1 20:-1 21:-1 22:1 23:-1 24:-1 25:-1 26:-1 27:-1 28:-1 29:-1 30:-1 
-128 1:0.0123905 2:0.530807 3:-0.860411 4:-0.69814 5:0.139109 6:0.11306 7:-0.549502 8:0.470245 9:0.0665333 10:-0.588165 11:-0.645128 12:1 13:-1 14:-1 15:-1 16:-1 17:-1 18:-1 19:-1 20:-1 21:-1 22:1 23:-1 24:-1 25:-1 26:-1 27:-1 28:-1 29:-1 30:-1 
-128 1:0.0123905 2:0.526162 3:-0.34855 4:-0.00367924 5:-0.0931975 6:0.147573 7:-0.941938 8:-0.223871 9:0.0665333 10:0.360074 11:-0.623147 12:-1 13:1 14:-1 15:-1 16:-1 17:-1 18:-1 19:-1 20:-1 21:-1 22:1 23:-1 24:-1 25:-1 26:-1 27:-1 28:-1 29:-1 30:-1 
-128 1:0.0489157 2:0.561333 3:-0.632889 4:-0.85302 5:-0.945897 6:0.431931 7:-0.0473352 8:-0.0415069 9:0.0468568 10:-0.196834 11:-0.983381 12:-1 13:-1 14:1 15:-1 16:-1 17:-1 18:-1 19:-1 20:-1 21:-1 22:1 23:-1 24:-1 25:-1 26:-1 27:-1 28:-1 29:-1 30:-1 
-128 1:0.0489157 2:0.561333 3:-0.632889 4:-0.457745 5:0.421517 6:0.36505 7:-0.453277 8:-0.0415069 9:0.0468568 10:-0.539055 11:0.392541 12:-1 13:-1 14:1 15:-1 16:-1 17:-1 18:-1 19:-1 20:-1 21:-1 22:1 23:-1 24:-1 25:-1 26:-1 27:-1 28:-1 29:-1 30:-1 
-128 1:-0.435832 2:0.305943 3:0.0174311 4:-0.131038 5:-0.690365 6:0.0551674 7:-0.895871 8:0.0971829 9:0.134901 10:0.778611 11:-0.938883 12:1 13:-1 14:-1 15:-1 16:-1 17:-1 18:-1 19:-1 20:-1 21:-1 22:1 23:-1 24:-1 25:-1 26:-1 27:-1 28:-1 29:-1 30:-1 
-128 1:0.588973 2:0.778265 3:-0.79124 4:-0.249404 5:0.189166 6:-0.0267139 7:-0.573365 8:0.310218 9:-0.135901 10:-0.58563 11:0.451898 12:-1 13:1 14:-1 15:-1 16:-1 17:-1 18:-1 19:-1 20:-1 21:-1 22:1 23:-1 24:-1 25:-1 26:-1 27:-1 28:-1 29:-1 30:-1 
-128 1:0.136665 2:0.181475 3:-0.865612 4:-0.818766 5:0.308401 6:0.168569 7:-1 8:0.160527 9:-0.0321828 10:0.0823201 11:-0.0319626 12:-1 13:1 14:-1 15:-1 16:-1 17:-1 18:-1 19:-1 20:-1 21:-1 22:1 23:-1 24:-1 25:-1 26:-1 27:-1 28:-1 29:-1 30:-1 
-128 1:0.136665 2:0.181475 3:-0.865612 4:-0.822919 5:0.0738453 6:0.166201 7:-0.93088 8:0.160527 9:-0.0321828 10:-0.0797633 11:-0.426432 12:-1 13:1 14:-1 15:-1 16:-1 17:-1 18:-1 19:-1 20:-1 21:-1 22:1 23:-1 24:-1 25:-1 26:-1 27:-1 28:-1 29:-1 30:-1 
-128 1:0.622365 2:0.544784 3:-0.930312 4:-0.533227 5:-0.902705 6:0.144094 7:-0.836064 8:-0.648275 9:-0.0812073 10:-0.807767 11:-0.554858 12:-1 13:-1 14:-1 15:-1 16:1 17:-1 18:-1 19:-1 20:-1 21:-1 22:1 23:-1 24:-1 25:-1 26:-1 27:-1 28:-1 29:-1 30:-1 
-128 1:0.68999 2:0.53849 3:-0.970725 4:-0.581305 5:-0.971938 6:0.0248024 7:-0.401481 8:-0.43824 9:-0.192596 10:0.94752 11:-0.980988 12:1 13:-1 14:-1 15:-1 16:-1 17:-1 18:-1 19:-1 20:-1 21:-1 22:1 23:-1 24:-1 25:-1 26:-1 27:-1 28:-1 29:-1 30:-1 
-128 1:-0.590472 2:0.412369 3:-0.632909 4:-0.61509 5:-0.928172 6:0.803537 7:-0.576496 8:0.297216 9:0.714857 10:-0.383617 11:-0.702244 12:-1 13:-1 14:-1 15:1 16:-1 17:-1 18:-1 19:-1 20:-1 21:-1 22:-1 23:1 24:-1 25:-1 26:-1 27:-1 28:-1 29:-1 30:-1 
-128 1:-0.590472 2:0.412369 3:-0.632909 4:-0.566118 5:-0.922216 6:0.803127 7:-0.576496 8:0.297216 9:-0.420377 10:-0.470706 11:-0.942911 12:-1 13:-1 14:-1 15:1 16:-1 17:-1 18:-1 19:-1 20:-1 21:-1 22:-1 23:1 24:-1 25:-1 26:-1 27:-1 28:-1 29:-1 30:-1 
-128 1:0.375928 2:0.731429 3:-0.913325 4:-0.577701 5:-0.0846339 6:0.0344664 7:-0.000825448 8:0.0945158 9:-0.189928 10:-0.0829796 11:-0.155214 12:1 13:-1 14:-1 15:-1 16:-1 17:-1 18:-1 19:-1 20:-1 21:-1 22:1 23:-1 24:-1 25:-1 26:-1 27:-1 28:-1 29:-1 30:-1 
-128 1:-0.330388 2:0.670723 3:-0.324755 4:0.0993161 5:-0.016627 6:0.611837 7:-1 8:-0.679613 9:0.283642 10:-0.0876368 11:-0.242244 12:-1 13:-1 15:-1 16:-1 17:-1 18:-1 19:-1 20:-1 21:-1 22:1 23:-1 24:-1 25:-1 26:-1 27:-1 28:-1 29:-1 30:-1 
-128 1:0.2343 2:0.195638 3:-0.739945 4:0.203876 5:-0.872531 6:-0.137651 7:-0.667605 8:-0.16286 9:0.0775388 10:0.687629 11:0.000518861 12:-1 13:1 14:-1 15:-1 16:-1 17:-1 18:-1 19:-1 20:-1 21:-1 22:1 23:-1 24:-1 25:-1 26:-1 27:-1 28:-1 29:-1 30:-1 
-128 1:0.399911 2:0.849854 3:-0.950317 4:-0.691501 5:-0.211276 6:0.0426981 7:-0.891887 8:0.131855 9:0.00150075 10:-0.11649 11:0.209769 12:-1 13:1 14:-1 15:-1 16:-1 17:-1 18:-1 19:-1 20:-1 21:-1 22:1 23:-1 24:-1 25:-1 26:-1 27:-1 28:-1 29:-1 30:-1 
-128 1:0.399911 2:0.849854 3:-0.950317 4:-0.690708 5:0.15151 6:0.0428514 7:-0.891887 8:0.131855 9:0.00150075 10:-0.126429 11:0.905123 12:-1 13:1 14:-1 15:-1 16:-1 17:-1 18:-1 19:-1 20:-1 21:-1 22:1 23:-1 24:-1 25:-1 26:-1 27:-1 28:-1 29:-1 30:-1 
-128 1:-0.434674 2:0.707983 3:0.786918 4:-0.311328 5:0.812663 6:0.18433 7:-1 8:0.0901817 9:0.109221 10:-0.129289 11:0.279126 12:1 13:-1 14:-1 15:-1 16:-1 17:-1 18:-1 19:-1 20:-1 21:-1 22:1 23:-1 24:-1 25:-1 26:-1 27:-1 28:-1 29:-1 30:-1 
-128 1:0.566999 2:-0.0216128 3:-0.994844 4:-0.786697 5:-1 6:-0.122642 7:-0.627189 8:-0.0601767 9:-0.0608638 10:0.328286 11:0.389153 12:1 13:-1 14:-1 15:-1 16:-1 17:-1 18:-1 19:-1 20:-1 21:-1 22:1 23:-1 24:-1 25:-1 26:-1 27:-1 28:-1 29:-1 30:-1 
-128 1:0.0450452 2:0.595711 3:-0.994309 4:-0.399079 5:0.181095 6:-0.0773563 7:-0.434736 8:0.163527 9:-0.164582 10:-0.980699 11:-0.709198 12:-1 13:-1 14:-1 15:1 16:-1 17:-1 18:-1 19:-1 20:-1 21:-1 22:1 23:-1 24:-1 25:-1 26:-1 27:-1 28:-1 29:-1 30:-1 
-128 1:-0.109591 2:0.685805 3:-0.00428177 4:-0.404862 5:-0.185273 6:0.0759889 7:-0.738043 8:-0.938656 9:0.864265 10:0.491061 11:-0.836362 12:1 13:-1 14:-1 15:-1 16:-1 17:-1 18:-1 19:-1 20:-1 21:-1 22:-1 23:-1 24:-1 25:1 26:-1 27:-1 28:-1 29:-1 30:-1 
-128 1:-0.0551209 2:0.179822 3:-0.750945 4:-0.260154 5:-0.683584 6:-0.167323 7:-0.571236 8:-0.575929 9:0.0765383 10:-0.307404 11:-0.944422 12:1 13:-1 14:-1 15:-1 16:-1 17:-1 18:-1 19:-1 20:-1 21:-1 22:1 23:-1 24:-1 25:-1 26:-1 27:-1 28:-1 29:-1 30:-1 
-128 1:-0.444458 2:0.406463 3:-0.689151 4:-0.12494 5:-0.0203906 6:0.0913294 7:-0.631075 8:0.0118353 9:-0.0868768 10:0.0488663 11:-0.169518 12:1 13:-1 14:-1 15:-1 16:-1 17:-1 18:-1 19:-1 20:-1 21:-1 22:1 23:-1 24:-1 25:-1 26:-1 27:-1 28:-1 29:-1 30:-1 
-128 1:0.145155 2:0.0811437 3:-0.734267 4:-0.557145 5:-0.452414 6:0.243293 7:-0.63249 8:0.302217 9:-0.189261 10:-0.0517169 11:0.131672 12:1 13:-1 14:-1 15:-1 16:-1 17:-1 18:-1 19:-1 20:-1 21:-1 22:1 23:-1 24:-1 25:-1 26:-1 27:-1 28:-1 29:-1 30:-1 
-128 1:0.145155 2:0.218093 3:-0.679176 4:-0.557145 5:0.344486 6:0.22129 7:-0.63249 8:-0.188865 9:0.301984 10:-0.0517169 11:0.131672 12:1 13:-1 14:-1 15:-1 16:-1 17:-1 18:-1 19:-1 20:-1 21:-1 22:1 23:-1 24:-1 25:-1 26:-1 27:-1 28:-1 29:-1 30:-1 
-128 1:0.372898 2:0.154025 3:-0.99681 4:0.049354 5:-0.986322 6:0.0469173 7:-0.760448 8:-0.693616 9:0.0501918 10:0.945332 11:-0.963942 12:-1 13:-1 14:-1 15:1 16:-1 17:-1 18:-1 19:-1 20:-1 21:-1 22:1 23:-1 24:-1 25:-1 26:-1 27:-1 28:-1 29:-1 30:-1 
-128 1:0.166686 2:0.710785 3:-0.727704 4:-0.188392 5:-0.884367 6:-0.0992089 7:-0.239852 8:-0.00416736 9:-0.0121728 10:0.111607 11:-0.634173 12:1 13:-1 14:-1 15:-1 16:-1 17:-1 18:-1 19:-1 20:-1 21:-1 22:-1 23:1 24:-1 25:-1 26:-1 27:-1 28:-1 29:-1 30:-1 
-128 1:0.166686 2:0.710785 3:-0.727704 4:0.0168126 5:-0.637722 6:-0.0737053 7:-0.649607 8:-0.00416736 9:-0.0121728 10:-0.177218 11:-0.111341 12:1 13:-1 14:-1 15:-1 16:-1 17:-1 18:-1 19:-1 20:-1 21:-1 22:-1 23:1 24:-1 25:-1 26:-1 27:-1 28:-1 29:-1 30:-1 
-128 1:-0.107434 2:-0.040765 3:0.033581 4:-0.206173 5:-0.934251 6:0.233217 7:-1 8:0.768628 9:-0.137235 10:0.680612 11:-0.000524408 12:1 13:-1 14:-1 15:-1 16:-1 17:-1 18:-1 19:-1 20:-1 21:-1 22:1 23:-1 24:-1 25:-1 26:-1 27:-1 28:-1 29:-1 30:-1 
-128 1:-0.434277 2:0.0719139 3:-0.772006 4:-0.502537 5:0.356889 6:0.26286 7:-0.734921 8:0.0455076 9:-0.108221 10:-0.138682 11:-0.0387329 12:1 13:-1 14:-1 15:-1 16:-1 17:-1 18:-1 19:-1 20:-1 21:-1 22:1 23:-1 24:-1 25:-1 26:-1 27:-1 28:-1 29:-1 30:-1 
-128 1:-0.434277 2:-0.341273 3:-0.898975 4:-0.430289 5:0.534799 6:0.284463 7:-0.734921 8:-0.467245 9:-0.108221 10:-0.391153 11:0.488022 12:1 13:-1 14:-1 15:-1 16:-1 17:-1 18:-1 19:-1 20:-1 21:-1 22:1 23:-1 24:-1 25:-1 26:-1 27:-1 28:-1 29:-1 30:-1 
-128 1:-0.468736 2:0.635831 3:-0.122472 4:-0.284069 5:-0.483427 6:-0.015931 7:-0.699059 8:-0.289882 9:-0.0121728 10:-0.211784 11:-0.866426 12:1 13:-1 14:-1 15:-1 16:-1 17:-1 18:-1 19:-1 20:-1 21:-1 22:1 23:-1 24:-1 25:-1 26:-1 27:-1 28:-1 29:-1 30:-1 
-128 1:-0.468736 2:0.635831 3:-0.122472 4:-0.826095 5:-0.887782 6:-0.0526546 7:-0.176251 8:-0.289882 9:-0.0121728 10:-0.528509 11:-0.963809 12:1 13:-1 14:-1 15:-1 16:-1 17:-1 18:-1 19:-1 20:-1 21:-1 22:1 23:-1 24:-1 25:-1 26:-1 27:-1 28:-1 29:-1 30:-1 
-128 1:-0.468736 2:0.833236 3:-0.369397 4:-0.693417 5:-0.836727 6:-0.0207361 7:-0.35388 8:-0.569262 9:-0.0121728 10:-0.722796 11:-0.966164 12:-1 13:1 14:-1 15:-1 16:-1 17:-1 18:-1 19:-1 20:-1 21:-1 22:1 23:-1 24:-1 25:-1 26:-1 27:-1 28:-1 29:-1 30:-1 
-128 1:-0.468736 2:0.922388 3:-0.23031 4:-0.77257 5:-0.00273916 6:-0.0260539 7:-0.35388 8:-0.142524 9:-0.0121728 10:-0.462799 11:-0.359094 12:-1 13:1 14:-1 15:-1 16:-1 17:-1 18:-1 19:-1 20:-1 21:-1 22:1 23:-1 24:-1 25:-1 26:-1 27:-1 28:-1 29:-1 30:-1 
-128 1:-0.0656199 2:0.519599 3:-0.866172 4:-0.716145 5:0.054287 6:0.224381 7:-0.794964 8:-0.315219 9:-0.114891 10:0.426229 11:0.611792 12:-1 13:1 14:-1 15:-1 16:-1 17:-1 18:-1 19:-1 20:-1 21:-1 22:-1 23:1 24:-1 25:-1 26:-1 27:-1 28:-1 29:-1 30:-1 
-128 1:-0.00428302 2:0.138893 3:-0.440744 4:-0.312428 5:0.267453 6:-0.0127747 7:-0.609634 8:0.299217 9:0.134901 10:0.129464 11:-0.982402 12:1 13:-1 14:-1 15:-1 16:-1 17:-1 18:-1 19:-1 20:-1 21:-1 22:1 23:-1 24:-1 25:-1 26:-1 27:-1 28:-1 29:-1 30:-1 
-128 1:-0.00428302 2:0.138893 3:-0.440744 4:-0.283896 5:-0.0388505 6:-0.0199766 7:-0.563194 8:0.299217 9:0.134901 10:-0.108804 11:-0.986525 12:1 13:-1 14:-1 15:-1 16:-1 17:-1 18:-1 19:-1 20:-1 21:-1 22:1 23:-1 24:-1 25:-1 26:-1 27:-1 28:-1 29:-1 30:-1 
-128 1:-0.00428302 2:0.138893 3:-0.440744 4:-0.265892 5:-0.843875 6:-0.0140812 7:-0.574149 8:0.299217 9:0.134901 10:0.0271212 11:-0.999098 12:1 13:-1 14:-1 15:-1 16:-1 17:-1 18:-1 19:-1 20:-1 21:-1 22:1 23:-1 24:-1 25:-1 26:-1 27:-1 28:-1 29:-1 30:-1 
-128 1:-0.791717 2:0.689523 3:-0.228477 4:-0.0940885 5:0.170616 6:-0.455593 7:-0.578663 8:-0.262877 9:0.328331 10:-0.0151906 11:-0.364535 12:-1 13:-1 14:1 15:-1 16:-1 17:-1 18:-1 19:-1 20:-1 21:-1 22:1 23:-1 24:-1 25:-1 26:-1 27:-1 28:-1 29:-1 30:-1 
-128 1:-0.0732018 2:0.358551 3:0.648833 4:-0.114463 5:-0.994025 6:0.270293 7:-1 8:-0.0551759 9:0.97332 10:-0.592847 11:-0.742747 12:-1 13:-1 14:-1 15:1 16:-1 17:-1 18:-1 19:-1 20:-1 21:-1 22:1 23:-1 24:-1 25:-1 26:-1 27:-1 28:-1 29:-1 30:-1 
-128 1:0.453995 2:0.857717 3:-0.735917 4:-0.588124 5:0.877548 6:-0.0547043 7:-0.264726 8:-0.148191 9:-0.405036 10:-0.0245988 11:0.404516 12:-1 13:-1 14:-1 15:-1 16:1 17:-1 18:-1 19:-1 20:-1 21:-1 22:-1 23:1 24:-1 25:-1 26:-1 27:-1 28:-1 29:-1 30:-1 
-128 1:0.642296 2:0.806665 3:-0.827552 4:-0.732713 5:-0.770655 6:-0.0418247 7:-0.272406 8:-0.73729 9:-0.131566 10:0.343193 11:0.199395 12:1 13:-1 14:-1 15:-1 16:-1 17:-1 18:-1 19:-1 20:-1 21:-1 22:-1 23:1 24:-1 25:-1 26:-1 27:-1 28:-1 29:-1 30:-1 
-128 1:0.642296 2:0.806665 3:-0.827552 4:-0.577184 5:-0.811077 6:-0.0271995 7:-0.223644 8:-0.73729 9:-0.131566 10:0.297661 11:0.583566 12:1 13:-1 14:-1 15:-1 16:-1 17:-1 18:-1 19:-1 20:-1 21:-1 22:-1 23:1 24:-1 25:-1 26:-1 27:-1 28:-1 29:-1 30:-1 
-128 1:0.695132 2:0.649874 3:-0.941478 4:-0.159208 5:-0.272566 6:0.0695933 7:-0.658042 8:-0.00883481 9:0.0631983 10:-0.098836 11:0.369403 12:1 13:-1 14:-1 15:-1 16:-1 17:-1 18:-1 19:-1 20:-1 21:-1 22:1 23:-1 24:-1 25:-1 26:-1 27:-1 28:-1 29:-1 30:-1 
-128 1:0.411046 2:0.714184 3:-0.429351 4:-0.347919 5:0.0596133 6:0.182733 7:-0.952317 8:-0.727621 9:0.0425213 10:0.144045 11:0.765369 12:-1 13:-1 14:-1 15:-1 16:-1 17:-1 18:-1 19:1 20:-1 21:-1 22:-1 23:-1 24:-1 25:-1 26:-1 27:-1 28:1 29:-1 30:-1 
-128 1:0.129537 2:0.841917 3:-0.891108 4:-0.507102 5:-0.615597 6:-0.0526604 7:-0.694872 8:-0.927988 9:-0.0945473 10:-0.871277 11:-0.344497 12:1 13:-1 14:-1 15:-1 16:-1 17:-1 18:-1 19:-1 20:-1 21:-1 22:1 23:-1 24:-1 25:-1 26:-1 27:-1 28:-1 29:-1 30:-1 
-128 1:-0.460621 2:0.384413 3:-0.545493 4:-0.765474 5:-0.00241702 6:0.22845 7:-0.878471 8:0.118186 9:-0.0872103 10:-0.713294 11:-0.651165 12:1 13:-1 14:-1 15:-1 16:-1 17:-1 18:-1 19:-1 20:-1 21:-1 22:-1 23:-1 24:-1 25:1 26:-1 27:-1 28:-1 29:-1 30:-1 
-128 1:-0.496101 2:0.306033 3:-0.631403 4:0.0517566 5:-0.501124 6:-0.0242819 7:-0.744545 8:-0.509252 9:0.0915458 10:-0.560072 11:-0.376826 12:1 13:-1 14:-1 15:-1 16:-1 17:-1 18:-1 19:-1 20:-1 21:-1 22:-1 23:1 24:-1 25:-1 26:-1 27:-1 28:-1 29:-1 30:-1 
-128 1:-0.174412 2:0.656806 3:-0.581746 4:-0.491624 5:-0.997751 6:0.167722 7:-0.483386 8:0.887648 9:-0.78089 10:-0.7559 11:-0.900152 12:-1 13:1 14:-1 15:-1 16:-1 17:-1 18:-1 19:-1 20:-1 21:-1 22:1 23:-1 24:-1 25:-1 26:-1 27:-1 28:-1 29:-1 30:-1 
-128 1:0.504822 2:0.537238 3:-0.861188 4:-0.452684 5:-0.839332 6:-0.217216 7:-0.364525 8:0.566594 9:-0.201934 10:-0.193424 11:-0.96107 12:1 13:-1 14:-1 15:-1 16:-1 17:-1 18:-1 19:-1 20:-1 21:-1 22:-1 23:1 24:-1 25:-1 26:-1 27:-1 28:-1 29:-1 30:-1 
-128 1:0.0192915 2:-0.576774 3:-0.947784 4:0.339208 5:0.488375 6:0.0834895 7:-1 8:-0.574262 9:-0.170585 10:-0.596164 11:0.306617 12:1 13:-1 14:-1 15:-1 16:-1 17:-1 18:-1 19:-1 20:-1 21:-1 22:-1 23:1 24:-1 25:-1 26:-1 27:-1 28:-1 29:-1 30:-1 
-128 1:0.188762 2:0.892042 3:-0.214976 4:0.102306 5:0.3682 6:-0.0292048 7:-0.953966 8:-0.665611 9:0.612473 10:0.187542 11:-0.394021 12:-1 13:-1 14:-1 15:-1 16:-1 17:-1 18:-1 19:1 20:-1 21:-1 22:-1 23:-1 24:-1 25:-1 26:-1 27:1 28:-1 29:-1 30:-1 
-128 1:0.188762 2:0.892042 3:-0.214976 4:-0.326459 5:0.446881 6:-0.0337152 7:-0.465899 8:-0.665611 9:0.612473 10:-0.344177 11:-0.311525 12:-1 13:-1 14:-1 15:-1 16:-1 17:-1 18:-1 19:1 20:-1 21:-1 22:-1 23:-1 24:-1 25:-1 26:-1 27:1 28:-1 29:-1 30:-1 
-128 1:0.188762 2:0.301314 3:-0.551198 4:-0.661845 5:0.516687 6:-0.00762201 7:-0.294187 8:0.33889 9:0.35301 10:0.699204 11:0.842384 12:1 13:-1 14:-1 15:-1 16:-1 17:-1 18:-1 19:-1 20:-1 21:-1 22:1 23:-1 24:-1 25:-1 26:-1 27:-1 28:-1 29:-1 30:-1 
-128 1:0.188762 2:0.772426 3:-0.24326 4:0.102306 5:-0.427775 6:0.00405273 7:-0.953966 8:0.949992 9:0.35301 10:0.187542 11:-0.394021 12:-1 13:1 14:-1 15:-1 16:-1 17:-1 18:-1 19:-1 20:-1 21:-1 22:1 23:-1 24:-1 25:-1 26:-1 27:-1 28:-1 29:-1 30:-1 
-128 1:0.188762 2:0.772426 3:-0.24326 4:-0.326459 5:-0.451517 6:-0.0147615 7:-0.465899 8:0.949992 9:0.35301 10:-0.344177 11:-0.311525 12:-1 13:1 14:-1 15:-1 16:-1 17:-1 18:-1 19:-1 20:-1 21:-1 22:1 23:-1 24:-1 25:-1 26:-1 27:-1 28:-1 29:-1 30:-1 
-128 1:-0.882601 2:0.248137 3:0.73767 4:-0.163359 5:-0.985108 6:-0.093165 7:-0.750393 8:-0.284214 9:-0.706186 10:-0.0150594 11:-0.998658 12:1 13:-1 14:-1 15:-1 16:-1 17:-1 18:-1 19:-1 20:-1 21:-1 22:-1 23:-1 24:1 25:-1 26:-1 27:-1 28:-1 29:-1 30:-1 
-128 1:0.332377 2:0.313529 3:-0.878225 4:-0.228869 5:-0.950752 6:0.574244 7:-0.702125 8:-0.665278 9:-0.0488578 10:-0.0659605 11:-0.261137 12:-1 13:-1 14:-1 15:1 16:-1 17:-1 18:-1 19:-1 20:-1 21:-1 22:1 23:-1 24:-1 25:-1 26:-1 27:-1 28:-1 29:-1 30:-1 
-128 1:-0.097185 2:0.80788 3:-0.121602 4:-0.851158 5:0.550752 6:0.14483 7:-0.759725 8:0.986664 9:0.0161748 10:-0.907134 11:0.396514 12:-1 13:1 14:-1 15:-1 16:-1 17:-1 18:-1 19:-1 20:-1 21:-1 22:1 23:-1 24:-1 25:-1 26:-1 27:-1 28:-1 29:-1 30:-1 
-128 1:0.296011 2:0.925164 3:0.222611 4:-0.051202 5:-0.623296 6:0.0943704 7:-0.571583 8:-0.608268 9:0.428047 10:-0.122816 11:-0.586961 12:-1 13:-1 14:-1 15:1 16:-1 17:-1 18:-1 19:-1 20:-1 21:-1 22:1 23:-1 24:-1 25:-1 26:-1 27:-1 28:-1 29:-1 30:-1 
-128 1:-0.153755 2:0.423678 3:-0.787387 4:-0.598761 5:0.875899 6:-0.0593119 7:-0.584007 8:-0.171862 9:0.222945 10:-0.216176 11:0.695886 12:1 13:-1 14:-1 15:-1 16:-1 17:-1 18:-1 19:-1 20:-1 21:-1 22:-1 23:-1 24:-1 25:1 26:-1 27:-1 28:-1 29:-1 30:-1 
-128 1:0.727775 2:0.787207 3:-0.993691 4:-0.37761 5:-0.999759 6:0.278125 7:-0.624927 8:-0.0145024 9:0.757212 10:-0.75113 11:0.120911 12:-1 13:-1 14:-1 15:1 16:-1 17:-1 18:-1 19:-1 20:-1 21:-1 22:-1 23:1 24:-1 25:-1 26:-1 27:-1 28:-1 29:-1 30:-1 
-128 1:0.338211 2:0.975166 3:-0.581842 4:-0.18175 5:-0.170888 6:0.155031 7:-0.587192 8:0.656276 9:-0.25296 10:0.976058 11:-0.267621 12:-1 13:-1 14:-1 15:1 16:-1 17:-1 18:-1 19:-1 20:-1 21:-1 22:1 23:-1 24:-1 25:-1 26:-1 27:-1 28:-1 29:-1 30:-1 
-128 1:-0.239915 2:0.259995 3:0.162139 4:-0.654601 5:-0.821072 6:0.299355 7:-0.773505 8:-0.038173 9:-0.763215 10:-0.404308 11:-0.894179 12:1 13:-1 14:-1 15:-1 16:-1 17:-1 18:-1 19:-1 20:-1 21:-1 22:1 23:-1 24:-1 25:-1 26:-1 27:-1 28:-1 29:-1 30:-1 
-128 1:-0.306359 2:0.364725 3:-0.618513 4:-0.243306 5:-0.247141 6:-0.0245553 7:-0.53493 8:-0.261877 9:-0.0145073 10:-0.523842 11:-0.762162 12:-1 13:1 14:-1 15:-1 16:-1 17:-1 18:-1 19:-1 20:-1 21:-1 22:1 23:-1 24:-1 25:-1 26:-1 27:-1 28:-1 29:-1 30:-1 
-128 1:-0.306359 2:0.364725 3:-0.618513 4:-0.320504 5:0.838289 6:-0.0345833 7:-0.464118 8:-0.261877 9:-0.0145073 10:-0.323811 11:0.404728 12:-1 13:1 14:-1 15:-1 16:-1 17:-1 18:-1 19:-1 20:-1 21:-1 22:1 23:-1 24:-1 25:-1 26:-1 27:-1 28:-1 29:-1 30:-1 
-128 1:0.348256 2:0.282131 3:-0.952947 4:0.229445 5:-0.91502 6:-0.000471188 7:-0.647941 8:-0.402567 9:-0.00583625 10:-0.129292 11:-0.878417 12:-1 13:-1 14:-1 15:-1 16:1 17:-1 18:-1 19:-1 20:-1 21:-1 22:1 23:-1 24:-1 25:-1 26:-1 27:-1 28:-1 29:-1 30:-1 
-128 1:-0.139737 2:0.391213 3:-0.915891 4:0.030317 5:0.543162 6:-0.0213241 7:-0.723604 8:0.123854 9:-0.0588628 10:0.131268 11:-0.0350544 12:1 13:-1 14:-1 15:-1 16:-1 17:-1 18:-1 19:-1 20:-1 21:-1 22:1 23:-1 24:-1 25:-1 26:-1 27:-1 28:-1 29:-1 30:-1 
-128 1:-0.228088 2:0.726279 3:-0.652529 4:-0.22327 5:-0.808277 6:-0.0844611 7:-0.66359 8:0.0545091 9:0.733533 10:-0.548116 11:-0.373748 12:1 13:-1 14:-1 15:-1 16:-1 17:-1 18:-1 19:-1 20:-1 21:-1 22:-1 23:1 24:-1 25:-1 26:-1 27:-1 28:-1 29:-1 30:-1 
