svm_type c_svc
kernel_type rbf
gamma 0.000122
nr_class 2
total_sv 7695
rho 0.464884
label 1 -1
probA -2.0968
probB 3.89864
nr_sv 151 7544
SV
84.56958952254467 1:-0.557055 2:0.665114 3:-0.377085 4:0.39372 5:0.946869 6:-0.0176992 7:-0.859331 8:-0.0288381 9:0.0090054 10:0.875862 11:-0.567005 12:-1 13:1 14:-1 15:-1 16:-1 17:-1 18:-1 19:-1 20:-1 21:1 22:-1 23:-1 24:-1 25:-1 26:-1 27:-1 28:-1 29:-1 30:-1 31:1 
66.97705262653085 1:-0.0344181 2:0.304445 3:-0.952985 4:0.155075 5:0.493424 6:0.254654 7:-1 8:0.00483414 9:0.186472 10:0.78683 11:-0.679664 12:-1 13:-1 14:-1 15:1 16:-1 17:-1 18:-1 19:-1 20:-1 21:-1 22:-1 23:-1 24:1 25:-1 26:-1 27:-1 28:-1 29:-1 30:1 31:-1 
102 1:0.730667 2:0.70648 3:-0.988787 4:-0.284336 5:-0.626085 6:0.166955 7:-0.269312 8:-0.154859 9:0.222253 10:0.950161 11:-0.340485 12:-1 13:-1 14:0.333333 15:-1 16:-1 17:-1 18:-1 19:-1 20:-1 21:-1 22:-1 23:-1 24:1 25:-1 26:-1 27:-1 28:-1 29:-1 30:1 31:-1 
102 1:-0.478167 2:0.584191 3:-0.218309 4:-0.641958 5:0.522875 6:0.989356 7:-0.857212 8:0.0138356 9:0.204563 10:0.839817 11:-0.647263 12:-1 13:-1 14:0.333333 15:-1 16:-1 17:-1 18:-1 19:-1 20:-1 21:-1 22:-1 23:-1 24:1 25:-1 26:-1 27:-1 28:-1 29:-1 30:1 31:-1 
102 1:-0.0164491 2:0.404433 3:-0.68524 4:0.261291 5:-0.927993 6:-0.106965 7:-0.267515 8:0.135523 9:-0.0127677 10:0.893308 11:-0.550759 12:1 13:-1 14:-1 15:-1 16:-1 17:-1 18:-1 19:-1 20:-1 21:1 22:-1 23:-1 24:-1 25:-1 26:-1 27:-1 28:-1 29:-1 30:-1 31:1 
102 1:0.561961 2:0.82256 3:-0.935988 4:-0.663836 5:-0.699416 6:0.0351606 7:-0.46203 8:-0.0401734 9:0.257795 10:0.870319 11:-0.572864 12:1 13:-1 14:-1 15:-1 16:-1 17:-1 18:-1 19:-1 20:-1 21:-1 22:-1 23:-1 24:1 25:-1 26:-1 27:-1 28:-1 29:-1 30:1 31:-1 
102 1:0.631754 2:0.686089 3:-0.905827 4:0.0599791 5:-0.588541 6:0.108416 7:-0.777571 8:-0.322887 9:0.176626 10:0.804336 11:-0.719213 12:-1 13:1 14:-1 15:-1 16:-1 17:-1 18:-1 19:-1 20:-1 21:-1 22:-1 23:-1 24:1 25:-1 26:-1 27:-1 28:-1 29:-1 30:1 31:-1 
102 1:0.638012 2:0.678582 3:-0.980845 4:-0.305943 5:-0.991764 6:0.252374 7:-1 8:0.0865144 9:-0.0663998 10:0.78034 11:-0.801817 12:1 13:-1 14:-1 15:-1 16:-1 17:-1 18:-1 19:-1 20:-1 21:-1 22:1 23:-1 24:-1 25:-1 26:-1 27:-1 28:-1 29:-1 30:-1 31:1 
102 1:0.573682 2:0.705992 3:-0.881142 4:-0.292032 5:0.127111 6:0.121381 7:-0.628746 8:-0.0438406 9:0.273884 10:0.966017 11:-0.438969 12:-1 13:-1 14:-1 15:1 16:-1 17:-1 18:-1 19:-1 20:-1 21:-1 22:-1 23:-1 24:1 25:-1 26:-1 27:-1 28:-1 29:-1 30:1 31:-1 
102 1:0.298248 2:0.212615 3:-0.961451 4:-0.588282 5:0.550828 6:0.37059 7:-1 8:0.00616769 9:-0.112668 10:0.962264 11:-0.428398 12:1 13:-1 14:-1 15:-1 16:-1 17:-1 18:-1 19:-1 20:-1 21:1 22:-1 23:-1 24:-1 25:-1 26:-1 27:-1 28:-1 29:-1 30:-1 31:1 
102 1:-0.640786 2:0.488903 3:0.246721 4:-0.456867 5:-1 6:0.164321 7:-0.924934 8:0.0291715 9:0.318711 10:0.997292 11:-0.205619 12:1 13:-1 14:-1 15:-1 16:-1 17:-1 18:-1 19:-1 20:-1 21:-1 22:-1 23:-1 24:-1 25:1 26:-1 27:-1 28:-1 29:-1 30:1 31:-1 
11.653381762987 1:-0.796381 2:0.509065 3:-0.535735 4:-0.219488 5:-0.779973 6:0.300096 7:-0.95603 8:-0.021837 9:-0.0952972 10:0.586182 11:-0.75281 12:1 13:-1 14:-1 15:-1 16:-1 17:-1 18:-1 19:-1 20:-1 21:-1 22:1 23:-1 24:-1 25:-1 26:-1 27:-1 28:-1 29:-1 30:-1 31:1 
102 1:0.0500863 2:0.600954 3:-0.832534 4:-0.179459 5:-0.6991 6:-0.0648169 7:-0.449472 8:-0.0301717 9:0.31663 10:0.829448 11:-0.616366 12:1 13:-1 14:-1 15:-1 16:-1 17:-1 18:-1 19:-1 20:-1 21:-1 22:-1 23:-1 24:1 25:-1 26:-1 27:-1 28:-1 29:-1 30:1 31:-1 
102 1:-0.643778 2:0.583995 3:0.357851 4:-0.493706 5:-0.582924 6:0.207396 7:-0.859924 8:0.0718453 9:0.204323 10:0.865156 11:-0.62122 12:1 13:-1 14:-1 15:-1 16:-1 17:-1 18:-1 19:-1 20:-1 21:-1 22:-1 23:-1 24:1 25:-1 26:-1 27:-1 28:-1 29:-1 30:1 31:-1 
102 1:0.149324 2:0.282679 3:-0.726375 4:-0.442399 5:-0.285267 6:0.250127 7:-0.937242 8:0.0678446 9:0.200961 10:0.909967 11:-0.579344 12:-1 13:1 14:-1 15:-1 16:-1 17:-1 18:-1 19:-1 20:-1 21:-1 22:-1 23:-1 24:1 25:-1 26:-1 27:-1 28:-1 29:-1 30:1 31:-1 
102 1:0.329294 2:0.497116 3:-0.802292 4:-0.461245 5:-0.903953 6:0.275094 7:-0.741517 8:0.214869 9:-0.124355 10:0.956528 11:-0.428388 12:1 13:-1 14:-1 15:-1 16:-1 17:-1 18:-1 19:-1 20:-1 21:1 22:-1 23:-1 24:-1 25:-1 26:-1 27:-1 28:-1 29:-1 30:-1 31:1 
102 1:0.034155 2:0.469353 3:-0.628698 4:-0.495125 5:0.0722269 6:0.272781 7:-0.782692 8:-0.109185 9:0.279568 10:0.45594 11:-0.767864 12:1 13:-1 14:-1 15:-1 16:-1 17:-1 18:-1 19:-1 20:-1 21:-1 22:-1 23:-1 24:1 25:-1 26:-1 27:-1 28:-1 29:-1 30:1 31:-1 
102 1:0.161751 2:0.75199 3:-0.423998 4:-0.153326 5:-0.673448 6:0.0275854 7:-0.627554 8:0.144191 9:0.226736 10:0.918914 11:-0.513281 12:1 13:-1 14:-1 15:-1 16:-1 17:-1 18:-1 19:-1 20:-1 21:-1 22:-1 23:-1 24:-1 25:-1 26:-0.333333 27:-1 28:-1 29:-1 30:1 31:-1 
102 1:-0.169 2:0.793817 3:-0.408495 4:-0.540325 5:-0.975966 6:-0.0913511 7:-0.762762 8:-0.297216 9:-0.140364 10:0.984446 11:-0.240164 12:1 13:-1 14:-1 15:-1 16:-1 17:-1 18:-1 19:-1 20:-1 21:-1 22:1 23:-1 24:-1 25:-1 26:-1 27:-1 28:-1 29:-1 30:-1 31:1 
102 1:0.428778 2:0.519609 3:-0.82489 4:0.0266476 5:-0.96614 6:0.0617746 7:-0.642368 8:0.81797 9:0.254353 10:0.878773 11:-0.543165 12:1 13:-1 14:-1 15:-1 16:-1 17:-1 18:-1 19:-1 20:-1 21:-1 22:-1 23:-1 24:-1 25:1 26:-1 27:-1 28:-1 29:-1 30:1 31:-1 
102 1:0.327054 2:0.581169 3:-0.593957 4:-0.671586 5:-0.907931 6:0.185979 7:-0.816076 8:0.032172 9:0.192395 10:0.890275 11:-0.699539 12:1 13:-1 14:-1 15:-1 16:-1 17:-1 18:-1 19:-1 20:-1 21:-1 22:-1 23:-1 24:-1 25:1 26:-1 27:-1 28:-1 29:-1 30:1 31:-1 
102 1:-0.354086 2:0.480488 3:-0.769979 4:0.111475 5:-0.984877 6:0.0181858 7:-0.531126 8:-0.110518 9:0.207284 10:0.8831 11:-0.562388 12:-1 13:1 14:-1 15:-1 16:-1 17:-1 18:-1 19:-1 20:-1 21:-1 22:-1 23:1 24:-1 25:-1 26:-1 27:-1 28:-1 29:-1 30:1 31:-1 
102 1:0.0722536 2:0.543862 3:-0.833997 4:-0.960739 5:-0.387315 6:-0.00801904 7:-0.342953 8:0.0528421 9:0.21657 10:0.974923 11:-0.257445 12:1 13:-1 14:-1 15:-1 16:-1 17:-1 18:-1 19:-1 20:-1 21:-1 22:-1 23:1 24:-1 25:-1 26:-1 27:-1 28:-1 29:-1 30:1 31:-1 
102 1:-0.003048 2:0.557726 3:-0.913068 4:-0.397967 5:0.27824 6:-0.0401514 7:-0.630698 8:0.03984 9:0.140364 10:0.947058 11:-0.5212 12:1 13:-1 14:-1 15:-1 16:-1 17:-1 18:-1 19:-1 20:-1 21:-1 22:-1 23:-1 24:1 25:-1 26:-1 27:-1 28:-1 29:-1 30:1 31:-1 
102 1:-0.477316 2:0.833846 3:-0.186037 4:0.497247 5:-0.591877 6:-0.423274 7:0.0561981 8:0.331889 9:0.368101 10:0.857274 11:-0.558309 12:1 13:-1 14:-1 15:-1 16:-1 17:-1 18:-1 19:-1 20:-1 21:-1 22:-1 23:-1 24:-1 25:-1 26:-0.333333 27:-1 28:-1 29:-1 30:1 31:-1 
93.66194556792793 1:-0.622844 2:0.675706 3:-0.809093 4:-0.0494419 5:-0.501475 6:0.137631 7:-0.887178 8:-0.256876 9:-0.106184 10:0.99988 11:-0.183678 12:-1 13:-1 14:1 15:-1 16:-1 17:-1 18:-1 19:-1 20:-1 21:1 22:-1 23:-1 24:-1 25:-1 26:-1 27:-1 28:-1 29:-1 30:-1 31:1 
102 1:0.267942 2:0.450324 3:-0.647484 4:-0.172929 5:-1 6:0.225304 7:-0.807532 8:-0.78063 9:0.336002 10:0.89498 11:-0.466466 12:-1 13:1 14:-1 15:-1 16:-1 17:-1 18:-1 19:-1 20:-1 21:-1 22:-1 23:-1 24:-1 25:1 26:-1 27:-1 28:-1 29:-1 30:1 31:-1 
102 1:-0.687527 2:0.747286 3:-0.240316 4:-0.0348723 5:-0.529098 6:-0.0130307 7:-0.239234 8:-0.184864 9:0.217611 10:0.760325 11:-0.717916 12:1 13:-1 14:-1 15:-1 16:-1 17:-1 18:-1 19:-1 20:-1 21:-1 22:-1 23:-1 24:1 25:-1 26:-1 27:-1 28:-1 29:-1 30:1 31:-1 
102 1:0.0638905 2:0.808403 3:-0.562363 4:-0.454935 5:-0.557155 6:0.0730514 7:-0.783501 8:-0.229538 9:0.124675 10:0.892355 11:-0.729944 12:-1 13:1 14:-1 15:-1 16:-1 17:-1 18:-1 19:-1 20:-1 21:-1 22:-1 23:-1 24:-1 25:1 26:-1 27:-1 28:-1 29:-1 30:1 31:-1 
102 1:-0.161981 2:0.663665 3:-0.730088 4:-0.347791 5:0.557515 6:-0.129116 7:-0.465454 8:-0.304884 9:0.290774 10:0.992492 11:-0.0623472 12:1 13:-1 14:-1 15:-1 16:-1 17:-1 18:-1 19:-1 20:-1 21:-1 22:-1 23:-1 24:-1 25:1 26:-1 27:-1 28:-1 29:-1 30:1 31:-1 
102 1:-0.570758 2:0.374968 3:-0.194964 4:-0.450466 5:-0.963502 6:0.874835 7:-0.810418 8:-0.393566 9:0.210006 10:0.940576 11:-0.483905 12:-1 13:-1 14:1 15:-1 16:-1 17:-1 18:-1 19:-1 20:-1 21:-1 22:-1 23:-1 24:-1 25:1 26:-1 27:-1 28:-1 29:-1 30:1 31:-1 
102 1:0.0292961 2:0.448795 3:-0.753728 4:0.179868 5:0.187433 6:0.169639 7:-1 8:-0.0425071 9:0.210486 10:0.863659 11:-0.598091 12:-1 13:1 14:-1 15:-1 16:-1 17:-1 18:-1 19:-1 20:-1 21:-1 22:-1 23:-1 24:1 25:-1 26:-1 27:-1 28:-1 29:-1 30:1 31:-1 
102 1:0.286795 2:0.765334 3:-0.952934 4:-0.269607 5:0.6164 6:0.130124 7:-1 8:0.371229 9:0.310947 10:0.891228 11:-0.496157 12:-1 13:1 14:-1 15:-1 16:-1 17:-1 18:-1 19:-1 20:-1 21:-1 22:-1 23:-1 24:-1 25:1 26:-1 27:-1 28:-1 29:-1 30:1 31:-1 
102 1:0.314672 2:0.643391 3:-0.754285 4:-0.50516 5:-0.999193 6:0.109512 7:-0.654511 8:0.0875146 9:0.522273 10:0.906252 11:-0.431507 12:-1 13:-1 14:1 15:-1 16:-1 17:-1 18:-1 19:-1 20:-1 21:-1 22:-1 23:-1 24:1 25:-1 26:-1 27:-1 28:-1 29:-1 30:1 31:-1 
92.16094015262655 1:-0.583967 2:0.586996 3:-0.62668 4:-0.010958 5:-0.25929 6:-0.10691 7:-0.452193 8:-0.300883 9:0.236902 10:0.960519 11:-0.289708 12:1 13:-1 14:-1 15:-1 16:-1 17:-1 18:-1 19:-1 20:-1 21:-1 22:-1 23:-1 24:-1 25:-1 26:1 27:-1 28:-1 29:-1 30:1 31:-1 
102 1:-0.788649 2:0.414867 3:-0.51115 4:-0.564586 5:-0.92281 6:0.0677175 7:-0.887794 8:0.266544 9:0.0155693 10:0.999467 11:-0.758902 12:1 13:-1 14:-1 15:-1 16:-1 17:-1 18:-1 19:-1 20:-1 21:1 22:-1 23:-1 24:-1 25:-1 26:-1 27:-1 28:-1 29:-1 30:-1 31:1 
102 1:0.0756907 2:0.284527 3:-0.788237 4:-0.538184 5:-1 6:0.00650948 7:0.0415888 8:0.0205034 9:0.33408 10:0.993472 11:-0.740064 12:1 13:-1 14:-1 15:-1 16:-1 17:-1 18:-1 19:-1 20:-1 21:-1 22:-1 23:-1 24:-1 25:1 26:-1 27:-1 28:-1 29:-1 30:1 31:-1 
102 1:0.218715 2:0.325276 3:-0.625205 4:-0.490683 5:0.498953 6:-0.0494295 7:-0.571934 8:-0.236539 9:0.361617 10:0.948146 11:-0.313842 12:1 13:-1 14:-1 15:-1 16:-1 17:-1 18:-1 19:-1 20:-1 21:-1 22:-1 23:-1 24:-1 25:1 26:-1 27:-1 28:-1 29:-1 30:1 31:-1 
102 1:0.787552 2:0.728438 3:-0.986803 4:-0.534984 5:-0.899747 6:0.603684 7:-0.851053 8:-0.531255 9:0.264759 10:0.992915 11:-0.108607 12:-1 13:-1 14:1 15:-1 16:-1 17:-1 18:-1 19:-1 20:-1 21:-1 22:-1 23:-1 24:1 25:-1 26:-1 27:-1 28:-1 29:-1 30:1 31:-1 
102 1:-0.702393 2:0.493453 3:0.536021 4:-0.0355515 5:-0.871559 6:-0.370765 7:0.0947023 8:0.223871 9:0.171183 10:0.998748 11:-0.354398 12:1 13:-1 14:-1 15:-1 16:-1 17:-1 18:-1 19:-1 20:-1 21:-1 22:-1 23:1 24:-1 25:-1 26:-1 27:-1 28:-1 29:-1 30:1 31:-1 
102 1:0.130157 2:0.403137 3:-0.943145 4:-0.661 5:0.442243 6:0.195414 7:-0.833832 8:-0.141524 9:-0.125475 10:0.911675 11:-0.493528 12:-1 13:1 14:-1 15:-1 16:-1 17:-1 18:-1 19:-1 20:-1 21:1 22:-1 23:-1 24:-1 25:-1 26:-1 27:-1 28:-1 29:-1 30:-1 31:1 
102 1:-0.531223 2:0.0591724 3:0.112393 4:-0.161077 5:0.205871 6:-0.193139 7:-0.204363 8:0.108185 9:0.277326 10:0.883265 11:-0.524218 12:1 13:-1 14:-1 15:-1 16:-1 17:-1 18:-1 19:-1 20:-1 21:-1 22:-1 23:-1 24:-1 25:-1 26:-1 27:1 28:-1 29:-1 30:1 31:-1 
102 1:-0.379803 2:0.534396 3:-0.661463 4:-0.363591 5:0.887934 6:0.802438 7:-0.624146 8:0.0315053 9:0.264279 10:0.983345 11:-0.301629 12:-1 13:-1 14:0.333333 15:-1 16:-1 17:-1 18:-1 19:-1 20:-1 21:-1 22:-1 23:-1 24:-1 25:1 26:-1 27:-1 28:-1 29:-1 30:1 31:-1 
102 1:0.267763 2:0.674216 3:-0.993253 4:-0.290505 5:-0.943305 6:0.173273 7:-0.777303 8:-0.21787 9:0.280048 10:0.913311 11:-0.480627 12:-1 13:1 14:-1 15:-1 16:-1 17:-1 18:-1 19:-1 20:-1 21:-1 22:-1 23:-1 24:1 25:-1 26:-1 27:-1 28:-1 29:-1 30:1 31:-1 
102 1:-0.238962 2:0.662301 3:0.648892 4:-0.474309 5:0.445387 6:0.265097 7:-0.79043 8:-0.12152 9:0.218811 10:0.900768 11:-0.564725 12:1 13:-1 14:-1 15:-1 16:-1 17:-1 18:-1 19:-1 20:-1 21:-1 22:-1 23:-1 24:-1 25:1 26:-1 27:-1 28:-1 29:-1 30:1 31:-1 
102 1:-0.517632 2:0.337564 3:0.0501513 4:0.191205 5:0.81889 6:0.222506 7:-1 8:-0.0231705 9:-0.123314 10:0.256684 11:-0.813388 12:1 13:-1 14:-1 15:-1 16:-1 17:-1 18:-1 19:-1 20:-1 21:-1 22:1 23:-1 24:-1 25:-1 26:-1 27:-1 28:-1 29:-1 30:-1 31:1 
102 1:0.496522 2:0.749288 3:-0.967887 4:0.0816931 5:-0.99919 6:0.165779 7:-0.954533 8:-0.00616769 9:0.290694 10:0.928022 11:-0.442072 12:-1 13:-1 14:-1 15:1 16:-1 17:-1 18:-1 19:-1 20:-1 21:-1 22:-1 23:-1 24:1 25:-1 26:-1 27:-1 28:-1 29:-1 30:1 31:-1 
102 1:-0.556216 2:0.544487 3:-0.562134 4:-0.531383 5:-0.528556 6:0.611208 7:-1 8:0.0475079 9:0.25035 10:0.904312 11:-0.503527 12:-1 13:-1 14:1 15:-1 16:-1 17:-1 18:-1 19:-1 20:-1 21:-1 22:-1 23:-1 24:-1 25:1 26:-1 27:-1 28:-1 29:-1 30:1 31:-1 
102 1:-0.0871494 2:0.74539 3:-0.721121 4:-0.0327897 5:-1 6:0.0421366 7:-0.702214 8:-0.427238 9:0.428057 10:0.917041 11:-0.454815 12:-1 13:1 14:-1 15:-1 16:-1 17:-1 18:-1 19:-1 20:-1 21:-1 22:-1 23:-1 24:1 25:-1 26:-1 27:-1 28:-1 29:-1 30:1 31:-1 
44.11558344964638 1:-0.205733 2:0.552372 3:-0.754416 4:-0.380899 5:-0.313114 6:0.0986478 7:-0.71099 8:0.227871 9:0.578627 10:0.732038 11:-0.585893 12:1 13:-1 14:-1 15:-1 16:-1 17:-1 18:-1 19:-1 20:-1 21:-1 22:-1 23:-1 24:-1 25:1 26:-1 27:-1 28:-1 29:-1 30:1 31:-1 
102 1:0.0893829 2:0.662997 3:-0.116226 4:-0.462361 5:0.317445 6:0.145373 7:-0.874104 8:0.477913 9:0.248029 10:0.98578 11:-0.238618 12:-1 13:-1 14:-1 15:1 16:-1 17:-1 18:-1 19:-1 20:-1 21:-1 22:-1 23:-1 24:-1 25:1 26:-1 27:-1 28:-1 29:-1 30:1 31:-1 
102 1:-0.0881234 2:0.68545 3:-0.64289 4:-0.337655 5:-0.713489 6:0.179873 7:-0.807664 8:0.0848475 9:0.0150891 10:0.193989 11:-0.80623 12:-1 13:-1 14:-1 15:-1 16:-1 17:1 18:-1 19:-1 20:-1 21:-1 22:-1 23:-1 24:1 25:-1 26:-1 27:-1 28:1 29:-1 30:-1 31:-1 
102 1:-0.859422 2:0.817816 3:-0.0870616 4:-0.181212 5:-0.0327478 6:0.184178 7:-0.840371 8:-0.455909 9:-0.342646 10:-0.0461798 11:-0.32338 12:-1 13:-1 14:-1 15:-1 16:1 17:-1 18:-1 19:-1 20:-1 21:-1 22:-1 23:1 24:-1 25:-1 26:-1 27:-1 28:-1 29:1 30:-1 31:-1 
102 1:0.156568 2:0.649637 3:-0.973192 4:-0.356574 5:0.0522453 6:0.281695 7:-1 8:-0.165194 9:0.125635 10:0.113811 11:-0.260543 12:-1 13:-1 14:-1 15:-1 16:-1 17:-1 18:1 19:-1 20:-1 21:-1 22:-1 23:1 24:-1 25:-1 26:-1 27:-1 28:-1 29:1 30:-1 31:-1 
102 1:-0.639986 2:0.700576 3:0.00632059 4:-0.14589 5:0.637515 6:0.048445 7:-1 8:-0.0845141 9:-0.0363818 10:0.44777 11:-0.149821 12:-1 13:-1 14:-1 15:-1 16:-1 17:1 18:-1 19:-1 20:-1 21:-1 22:-1 23:-1 24:-1 25:1 26:-1 27:-1 28:-1 29:1 30:-1 31:-1 
102 1:0.403207 2:0.706796 3:-0.819729 4:-0.544765 5:-0.999968 6:-0.121886 7:-0.659043 8:-0.0655109 9:-0.0455874 10:0.932346 11:-0.381646 12:-1 13:-1 14:-1 15:-1 16:-1 17:-1 18:1 19:-1 20:-1 21:-1 22:-1 23:-1 24:1 25:-1 26:-1 27:-1 28:1 29:-1 30:-1 31:-1 
102 1:0.342404 2:0.787769 3:-0.899874 4:-0.51482 5:-0.673614 6:0.107417 7:-0.59391 8:0.0811802 9:0.146928 10:0.712718 11:-0.738392 12:-1 13:-1 14:-1 15:-1 16:1 17:-1 18:-1 19:-1 20:-1 21:-1 22:-1 23:-1 24:-1 25:1 26:-1 27:-1 28:1 29:-1 30:-1 31:-1 
102 1:0.61664 2:0.74651 3:-0.984752 4:0.218433 5:-0.178884 6:0.0588764 7:-0.794507 8:-0.385898 9:0.0428657 10:0.979634 11:-0.176645 12:-1 13:-1 14:-1 15:-1 16:-1 17:-1 18:1 19:-1 20:-1 21:-1 22:-1 23:-1 24:1 25:-1 26:-1 27:-1 28:1 29:-1 30:-1 31:-1 
58.10130740081049 1:0.482561 2:0.649924 3:-0.841761 4:0.0626956 5:0.249166 6:0.116081 7:-1 8:-0.0525088 9:-0.00852512 10:0.881325 11:-0.572248 12:-1 13:-1 14:-1 15:-1 16:-1 17:-1 18:-1 19:-0.333333 20:-1 21:-1 22:-1 23:1 24:-1 25:-1 26:-1 27:-1 28:1 29:-1 30:-1 31:-1 
102 1:0.252369 2:0.680429 3:-0.838946 4:-0.334029 5:-0.78832 6:0.444985 7:-1 8:-0.00416736 9:-0.040064 10:0.858285 11:-0.553466 12:-1 13:-1 14:-1 15:-1 16:-1 17:-1 18:-1 19:-0.333333 20:-1 21:-1 22:-1 23:-1 24:1 25:-1 26:-1 27:-1 28:1 29:-1 30:-1 31:-1 
102 1:-0.336431 2:0.559997 3:-0.621779 4:-0.431983 5:-0.946154 6:0.138807 7:-0.899871 8:-0.163527 9:-0.10082 10:0.995875 11:-0.207176 12:-1 13:-1 14:-1 15:-1 16:-1 17:-1 18:1 19:-1 20:-1 21:-1 22:-1 23:-1 24:1 25:-1 26:-1 27:-1 28:1 29:-1 30:-1 31:-1 
102 1:-0.679726 2:0.639246 3:-0.154244 4:-0.666923 5:-0.0406852 6:0.289558 7:-1 8:-0.144857 9:-0.0763258 10:0.951213 11:-0.462986 12:-1 13:-1 14:-1 15:-1 16:-1 17:-1 18:1 19:-1 20:-1 21:-1 22:-1 23:1 24:-1 25:-1 26:-1 27:-1 28:1 29:-1 30:-1 31:-1 
102 1:-0.00722397 2:0.484022 3:-0.957958 4:-0.00775251 5:0.746687 6:0.151239 7:-1 8:-0.069845 9:-0.0708025 10:-0.436589 11:-0.92908 12:-1 13:-1 14:-1 15:-1 16:-1 17:-1 18:1 19:-1 20:-1 21:-1 22:-1 23:-1 24:1 25:-1 26:-1 27:-1 28:1 29:-1 30:-1 31:-1 
102 1:-0.16431 2:0.812342 3:-0.471543 4:-0.628165 5:0.618014 6:0.00947848 7:-0.607053 8:-0.909985 9:-0.139644 10:0.377569 11:-0.21021 12:-1 13:-1 14:-1 15:-1 16:-1 17:1 18:-1 19:-1 20:-1 21:-1 22:-1 23:1 24:-1 25:-1 26:-1 27:-1 28:-1 29:1 30:-1 31:-1 
102 1:-0.892843 2:0.670038 3:-0.80161 4:-0.157923 5:0.864712 6:0.113955 7:-0.661928 8:-0.216869 9:0.0030018 10:0.832145 11:0.0392927 12:-1 13:-1 14:-1 15:-1 16:-1 17:-1 18:1 19:-1 20:-1 21:-1 22:-1 23:-1 24:1 25:-1 26:-1 27:-1 28:-1 29:1 30:-1 31:-1 
102 1:-0.162451 2:0.535068 3:0.0358408 4:-0.447566 5:-0.1771 6:0.236483 7:-1 8:-0.149525 9:-0.197358 10:0.388524 11:-0.188682 12:-1 13:-1 14:-1 15:-1 16:1 17:-1 18:-1 19:-1 20:-1 21:-1 22:-1 23:-1 24:-1 25:-1 26:0.333333 27:-1 28:-1 29:1 30:-1 31:-1 
102 1:-0.38118 2:0.316026 3:-0.127415 4:-0.478063 5:-0.974434 6:0.184317 7:-1 8:-0.200533 9:-0.188793 10:-0.115733 11:-0.453125 12:-1 13:-1 14:-1 15:-1 16:-1 17:-1 18:1 19:-1 20:-1 21:-1 22:-1 23:-1 24:-1 25:1 26:-1 27:-1 28:-1 29:1 30:-1 31:-1 
102 1:-0.862306 2:0.7727 3:-0.638283 4:-0.193388 5:-0.198821 6:0.00915556 7:-0.884755 8:-0.135856 9:0.144447 10:0.238948 11:-0.295216 12:-1 13:-1 14:-1 15:-1 16:1 17:-1 18:-1 19:-1 20:-1 21:-1 22:-1 23:1 24:-1 25:-1 26:-1 27:-1 28:-1 29:1 30:-1 31:-1 
102 1:-0.865059 2:0.682191 3:-0.653337 4:0.294477 5:-0.988592 6:-0.362067 7:-0.0633335 8:-0.253876 9:0.0872924 10:0.775076 11:-0.0517818 12:-1 13:-1 14:-1 15:-1 16:1 17:-1 18:-1 19:-1 20:-1 21:-1 22:-1 23:-1 24:1 25:-1 26:-1 27:-1 28:-1 29:1 30:-1 31:-1 
102 1:0.187759 2:0.270543 3:-0.842126 4:-0.276188 5:-0.822336 6:0.282357 7:-0.953735 8:-0.285214 9:-0.10034 10:0.893463 11:-0.524869 12:-1 13:-1 14:-1 15:-1 16:-1 17:-1 18:1 19:-1 20:-1 21:-1 22:-1 23:-1 24:1 25:-1 26:-1 27:-1 28:1 29:-1 30:-1 31:-1 
102 1:-0.320052 2:0.758024 3:-0.388539 4:-0.334693 5:-0.694036 6:0.128789 7:-0.446771 8:-0.299217 9:-0.070082 10:0.990227 11:-0.399265 12:-1 13:-1 14:-1 15:-1 16:-1 17:1 18:-1 19:-1 20:-1 21:-1 22:-1 23:1 24:-1 25:-1 26:-1 27:-1 28:1 29:-1 30:-1 31:-1 
102 1:-0.899428 2:0.443701 3:-0.76409 4:0.024085 5:0.274029 6:0.179187 7:-0.660989 8:-0.307885 9:-0.0139684 10:0.652418 11:-0.710932 12:-1 13:-1 14:-1 15:-1 16:-1 17:-1 18:-1 19:-1 20:1 21:-1 22:-1 23:-1 24:-1 25:1 26:-1 27:-1 28:1 29:-1 30:-1 31:-1 
102 1:-0.586431 2:0.803518 3:-0.889586 4:0.274629 5:-0.999447 6:-0.0443997 7:-0.838357 8:-0.0935156 9:0.207925 10:0.797406 11:0.18348 12:-1 13:-1 14:-1 15:-1 16:-1 17:-1 18:1 19:-1 20:-1 21:-1 22:-1 23:-1 24:1 25:-1 26:-1 27:-1 28:-1 29:1 30:-1 31:-1 
102 1:-0.517083 2:0.82402 3:-0.659203 4:-0.122978 5:-0.998356 6:-0.08636 7:-0.349254 8:-0.310218 9:0.407244 10:0.862068 11:-0.42226 12:-1 13:-1 14:-1 15:-1 16:-1 17:1 18:-1 19:-1 20:-1 21:-1 22:-1 23:-1 24:1 25:-1 26:-1 27:-1 28:1 29:-1 30:-1 31:-1 
102 1:0.231724 2:0.549632 3:-0.701609 4:-0.331559 5:-0.963834 6:0.0970504 7:-1 8:-0.264211 9:-0.201281 10:0.224274 11:-0.340782 12:-1 13:-1 14:-1 15:-1 16:1 17:-1 18:-1 19:-1 20:-1 21:-1 22:-1 23:-1 24:1 25:-1 26:-1 27:-1 28:-1 29:1 30:-1 31:-1 
102 1:-0.679877 2:0.741374 3:-0.651932 4:0.152983 5:-0.000800142 6:0.106264 7:-0.897501 8:-0.252209 9:0.736322 10:-0.144693 11:-0.250147 12:-1 13:-1 14:-1 15:-1 16:-1 17:1 18:-1 19:-1 20:-1 21:-1 22:-1 23:-1 24:1 25:-1 26:-1 27:-1 28:-1 29:1 30:-1 31:-1 
102 1:-0.23155 2:0.530923 3:-0.430078 4:-0.183284 5:-0.189154 6:0.203891 7:-1 8:0.0411735 9:0.00852512 10:0.999457 11:-0.189355 12:-1 13:-1 14:-1 15:-1 16:-1 17:1 18:-1 19:-1 20:-1 21:-1 22:-1 23:1 24:-1 25:-1 26:-1 27:-1 28:1 29:-1 30:-1 31:-1 
65.57289428159524 1:-0.595797 2:0.192638 3:-0.675554 4:0.017176 5:-0.998694 6:0.849594 7:-1 8:-0.817636 9:0.0813688 10:0.860023 11:-0.514489 12:-1 13:-1 14:-1 15:-1 16:-1 17:-1 18:-1 19:1 20:-1 21:-1 22:-1 23:1 24:-1 25:-1 26:-1 27:-1 28:1 29:-1 30:-1 31:-1 
102 1:0.224312 2:0.743482 3:-0.851767 4:-0.640804 5:0.0853632 6:0.237957 7:-0.932504 8:-0.378896 9:0.0834501 10:0.740524 11:-0.717859 12:-1 13:-1 14:-1 15:-1 16:-1 17:1 18:-1 19:-1 20:-1 21:-1 22:-1 23:-1 24:-1 25:1 26:-1 27:-1 28:1 29:-1 30:-1 31:-1 
102 1:-0.426186 2:0.794648 3:-0.672005 4:-0.112981 5:-0.821068 6:0.0681899 7:-0.692448 8:0.295216 9:0.0192516 10:0.781243 11:-0.802412 12:-1 13:-1 14:-1 15:-1 16:-1 17:1 18:-1 19:-1 20:-1 21:-1 22:-1 23:-1 24:1 25:-1 26:-1 27:-1 28:1 29:-1 30:-1 31:-1 
102 1:0.161785 2:0.81553 3:-0.423128 4:-0.436188 5:-0.0286291 6:-0.0554885 7:-0.522393 8:-0.575596 9:-0.168621 10:0.9033 11:-0.646622 12:-1 13:-1 14:-1 15:-1 16:-1 17:-1 18:1 19:-1 20:-1 21:-1 22:-1 23:1 24:-1 25:-1 26:-1 27:-1 28:1 29:-1 30:-1 31:-1 
102 1:0.337701 2:0.730207 3:-0.946369 4:-0.161348 5:-0.735721 6:0.106385 7:-0.907169 8:-0.473579 9:-0.0952972 10:0.979512 11:-0.298473 12:-1 13:-1 14:-1 15:-1 16:-1 17:-1 18:1 19:-1 20:-1 21:-1 22:-1 23:-1 24:1 25:-1 26:-1 27:-1 28:1 29:-1 30:-1 31:-1 
102 1:-0.000652144 2:0.397619 3:-0.753878 4:0.289696 5:-0.512193 6:0.120212 7:-1 8:-0.14219 9:-0.0535922 10:0.742893 11:-0.675602 12:-1 13:-1 14:-1 15:-1 16:1 17:-1 18:-1 19:-1 20:-1 21:-1 22:-1 23:-1 24:1 25:-1 26:-1 27:-1 28:1 29:-1 30:-1 31:-1 
102 1:-0.113862 2:0.833721 3:-0.938247 4:-0.289675 5:0.170574 6:0.632158 7:-0.797294 8:-0.27988 9:0.00420252 10:0.999745 11:-0.425734 12:-1 13:-1 14:-1 15:-1 16:-1 17:-1 18:-1 19:-0.333333 20:-1 21:-1 22:-1 23:-1 24:-1 25:1 26:-1 27:-1 28:1 29:-1 30:-1 31:-1 
102 1:0.095283 2:0.583437 3:-0.983995 4:-0.666478 5:-0.860127 6:0.090153 7:-0.843907 8:-0.112852 9:-0.922514 10:0.473348 11:-0.222163 12:-1 13:-1 14:-1 15:-1 16:-1 17:-1 18:1 19:-1 20:-1 21:-1 22:-1 23:-1 24:-1 25:1 26:-1 27:-1 28:-1 29:1 30:-1 31:-1 
102 1:0.0339871 2:0.725828 3:-0.194776 4:0.336683 5:0.50439 6:-0.00841304 7:-0.931677 8:-0.263544 9:-0.205523 10:0.545621 11:-0.105885 12:-1 13:-1 14:-1 15:-1 16:-1 17:-1 18:1 19:-1 20:-1 21:-1 22:-1 23:-1 24:1 25:-1 26:-1 27:-1 28:-1 29:1 30:-1 31:-1 
102 1:-0.270018 2:0.584418 3:-0.503969 4:0.182159 5:-0.999951 6:-0.0587113 7:-0.738292 8:-0.496583 9:0.382189 10:0.681737 11:0.076947 12:-1 13:-1 14:-1 15:-1 16:-1 17:1 18:-1 19:-1 20:-1 21:-1 22:-1 23:-1 24:1 25:-1 26:-1 27:-1 28:-1 29:1 30:-1 31:-1 
102 1:-0.87595 2:0.441036 3:-0.0646196 4:-0.524128 5:-0.999791 6:0.223203 7:-0.568919 8:-0.241207 9:-0.134441 10:0.51394 11:-0.176846 12:-1 13:-1 14:-1 15:-1 16:-1 17:1 18:-1 19:-1 20:-1 21:-1 22:-1 23:1 24:-1 25:-1 26:-1 27:-1 28:-1 29:1 30:-1 31:-1 
102 1:0.0194888 2:0.848199 3:0.16829 4:-0.612794 5:-0.295951 6:0.161538 7:-0.958254 8:-0.687281 9:-0.257955 10:0.407966 11:-0.216105 12:-1 13:-1 14:-1 15:-1 16:-1 17:1 18:-1 19:-1 20:-1 21:-1 22:-1 23:-1 24:1 25:-1 26:-1 27:-1 28:-1 29:1 30:-1 31:-1 
102 1:0.375498 2:0.450387 3:-0.789396 4:-0.453197 5:0.813795 6:0.748035 7:-0.947839 8:-0.500583 9:0.492495 10:-0.192305 11:-0.469182 12:-1 13:-1 14:-1 15:-1 16:-1 17:-1 18:-1 19:1 20:-1 21:-1 22:-1 23:-1 24:-1 25:1 26:-1 27:-1 28:-1 29:1 30:-1 31:-1 
102 1:-0.734091 2:0.258217 3:-0.647766 4:-0.6062 5:-0.151945 6:0.212368 7:-0.810876 8:-0.365228 9:0.691335 10:0.699934 11:0.11127 12:-1 13:-1 14:-1 15:-1 16:-1 17:1 18:-1 19:-1 20:-1 21:-1 22:-1 23:-1 24:-1 25:1 26:-1 27:-1 28:-1 29:1 30:-1 31:-1 
102 1:-0.0613435 2:0.39948 3:-0.107822 4:-0.470667 5:0.714049 6:0.0873005 7:-0.823485 8:-0.444907 9:-0.736322 10:0.108442 11:-0.404492 12:-1 13:-1 14:-1 15:-1 16:-1 17:1 18:-1 19:-1 20:-1 21:-1 22:-1 23:-1 24:-1 25:1 26:-1 27:-1 28:-1 29:1 30:-1 31:-1 
102 1:0.160509 2:0.711766 3:-0.838406 4:-0.170558 5:0.565213 6:0.167322 7:-1 8:-0.129855 9:-0.207044 10:0.470056 11:-0.166974 12:-1 13:-1 14:-1 15:-1 16:-1 17:-1 18:-1 19:-1 20:1 21:-1 22:-1 23:-1 24:-1 25:1 26:-1 27:-1 28:-1 29:1 30:-1 31:-1 
102 1:-0.392913 2:0.181599 3:-0.26014 4:-0.110998 5:-0.984239 6:0.128815 7:-0.52148 8:0.0301717 9:-0.143086 10:0.985917 11:-0.227427 12:-1 13:-1 14:-1 15:-1 16:-1 17:-1 18:1 19:-1 20:-1 21:-1 22:-1 23:1 24:-1 25:-1 26:-1 27:-1 28:1 29:-1 30:-1 31:-1 
102 1:0.580221 2:0.703054 3:-0.886149 4:-0.190392 5:-0.591567 6:0.170945 7:-0.930086 8:-0.199533 9:0.180869 10:0.0137274 11:-0.285773 12:-1 13:-1 14:-1 15:-1 16:-1 17:1 18:-1 19:-1 20:-1 21:-1 22:-1 23:-1 24:1 25:-1 26:-1 27:-1 28:-1 29:1 30:-1 31:-1 
102 1:0.0412754 2:0.630296 3:-0.862847 4:-0.370872 5:0.951691 6:-0.148921 7:-0.565831 8:-0.573596 9:0.0140484 10:0.906324 11:-0.422652 12:-1 13:-1 14:-1 15:-1 16:-1 17:1 18:-1 19:-1 20:-1 21:-1 22:-1 23:1 24:-1 25:-1 26:-1 27:-1 28:1 29:-1 30:-1 31:-1 
102 1:-0.00950787 2:0.67949 3:-0.176921 4:-0.397761 5:-0.91612 6:0.320849 7:-1 8:-0.321554 9:-0.0302181 10:0.855754 11:-0.550895 12:-1 13:-1 14:-1 15:-1 16:1 17:-1 18:-1 19:-1 20:-1 21:-1 22:-1 23:-1 24:1 25:-1 26:-1 27:-1 28:1 29:-1 30:-1 31:-1 
102 1:-0.145512 2:0.348308 3:-0.786077 4:-0.595995 5:0.556939 6:0.144924 7:-0.851426 8:0.230538 9:-0.503942 10:-0.107767 11:-0.46609 12:-1 13:-1 14:-1 15:-1 16:-1 17:-1 18:-1 19:1 20:-1 21:-1 22:-1 23:-1 24:-1 25:1 26:-1 27:-1 28:-1 29:1 30:-1 31:-1 
102 1:-0.93805 2:0.548659 3:-0.288293 4:-0.00490018 5:-0.965133 6:0.774705 7:-0.958303 8:-0.16086 9:0.0630378 10:0.673055 11:-0.759633 12:-1 13:-1 14:-1 15:-1 16:-1 17:-1 18:-1 19:0.333333 20:-1 21:-1 22:-1 23:-1 24:1 25:-1 26:-1 27:-1 28:1 29:-1 30:-1 31:-1 
102 1:-0.947372 2:0.82999 3:-0.92824 4:-0.157898 5:-0.924011 6:-0.0877924 7:-0.595584 8:-0.243207 9:0.361137 10:0.154214 11:-0.321568 12:-1 13:-1 14:-1 15:-1 16:-1 17:1 18:-1 19:-1 20:-1 21:-1 22:-1 23:1 24:-1 25:-1 26:-1 27:-1 28:-1 29:1 30:-1 31:-1 
102 1:0.256332 2:0.613047 3:-0.87371 4:0.329095 5:0.0322157 6:0.0307265 7:-0.784883 8:-0.172862 9:-0.38403 10:0.48781 11:-0.177693 12:-1 13:-1 14:-1 15:-1 16:1 17:-1 18:-1 19:-1 20:-1 21:-1 22:-1 23:-1 24:1 25:-1 26:-1 27:-1 28:-1 29:1 30:-1 31:-1 
102 1:0.547127 2:0.799466 3:-0.959626 4:-0.508702 5:-0.881031 6:0.07563 7:-0.205919 8:0.068178 9:-0.263558 10:0.749947 11:0.0264553 12:-1 13:-1 14:-1 15:-1 16:-1 17:1 18:-1 19:-1 20:-1 21:-1 22:-1 23:-1 24:-1 25:1 26:-1 27:-1 28:-1 29:1 30:-1 31:-1 
102 1:0.514558 2:0.756971 3:-0.977138 4:-0.145892 5:-0.999951 6:0.247538 7:-0.921069 8:-0.550592 9:-0.135321 10:0.911639 11:-0.580229 12:-1 13:-1 14:-1 15:-1 16:-1 17:1 18:-1 19:-1 20:-1 21:-1 22:-1 23:1 24:-1 25:-1 26:-1 27:-1 28:1 29:-1 30:-1 31:-1 
102 1:-0.578058 2:0.619721 3:-0.997818 4:-0.0190713 5:-0.561178 6:0.0729055 7:-0.762403 8:0.0121687 9:0.834461 10:-0.252762 11:-0.445494 12:-1 13:-1 14:-1 15:-1 16:-1 17:-1 18:1 19:-1 20:-1 21:-1 22:-1 23:-1 24:-1 25:1 26:-1 27:-1 28:-1 29:1 30:-1 31:-1 
102 1:0.357898 2:0.820674 3:-0.952595 4:-0.612992 5:-0.443829 6:0.26369 7:-0.812126 8:-0.0735123 9:0.337763 10:0.914315 11:-0.539608 12:-1 13:-1 14:-1 15:-1 16:1 17:-1 18:-1 19:-1 20:-1 21:-1 22:-1 23:-1 24:1 25:-1 26:-1 27:-1 28:1 29:-1 30:-1 31:-1 
102 1:-0.121464 2:0.45806 3:-0.993262 4:-0.426132 5:-0.228965 6:0.0605282 7:-1 8:-0.161194 9:0.14965 10:0.866126 11:0.35293 12:-1 13:-1 14:-1 15:-1 16:-1 17:1 18:-1 19:-1 20:-1 21:-1 22:-1 23:-1 24:1 25:-1 26:-1 27:-1 28:-1 29:1 30:-1 31:-1 
102 1:-0.311968 2:0.802273 3:-0.932579 4:-0.451143 5:0.804035 6:-0.163255 7:-0.473165 8:-0.202867 9:0.871363 10:0.947405 11:0.551147 12:-1 13:-1 14:-1 15:-1 16:1 17:-1 18:-1 19:-1 20:-1 21:-1 22:-1 23:-1 24:1 25:-1 26:-1 27:-1 28:-1 29:1 30:-1 31:-1 
102 1:-0.454399 2:0.604822 3:-0.985161 4:0.131414 5:0.487789 6:0.020257 7:-0.700238 8:-0.214869 9:0.0235741 10:0.906727 11:-0.4737 12:-1 13:-1 14:-1 15:-1 16:-1 17:-1 18:1 19:-1 20:-1 21:-1 22:-1 23:-1 24:1 25:-1 26:-1 27:-1 28:1 29:-1 30:-1 31:-1 
102 1:0.226663 2:0.367548 3:-0.916764 4:-0.533297 5:-0.14702 6:0.0472002 7:-0.518484 8:-0.88298 9:-0.734881 10:0.635901 11:-0.0895314 12:-1 13:-1 14:-1 15:-1 16:-1 17:1 18:-1 19:-1 20:-1 21:-1 22:-1 23:1 24:-1 25:-1 26:-1 27:-1 28:-1 29:1 30:-1 31:-1 
102 1:0.0482055 2:0.708866 3:-0.662837 4:-0.0444707 5:-0.955653 6:0.0317769 7:-0.756102 8:-0.366561 9:0.091615 10:0.208885 11:-0.272385 12:-1 13:-1 14:-1 15:-1 16:-1 17:-1 18:-1 19:1 20:-1 21:-1 22:-1 23:-1 24:-1 25:1 26:-1 27:-1 28:-1 29:1 30:-1 31:-1 
102 1:-0.351825 2:0.318848 3:-0.0128953 4:-0.226374 5:0.959055 6:0.244962 7:-0.79725 8:-0.49725 9:0.106584 10:0.615874 11:-0.685258 12:-1 13:-1 14:-1 15:-1 16:-1 17:1 18:-1 19:-1 20:-1 21:-1 22:-1 23:-1 24:-1 25:1 26:-1 27:-1 28:1 29:-1 30:-1 31:-1 
102 1:0.120451 2:0.902538 3:-0.598536 4:-0.27892 5:0.806608 6:0.256277 7:-1 8:-0.245874 9:0.180308 10:-0.0152318 11:-0.746831 12:-1 13:-1 14:-1 15:-1 16:-1 17:-1 18:1 19:-1 20:-1 21:-1 22:-1 23:-1 24:-1 25:1 26:-1 27:-1 28:1 29:-1 30:-1 31:-1 
102 1:-0.292051 2:0.265075 3:-0.788407 4:-0.39929 5:-0.586278 6:0.0085755 7:-0.784167 8:-0.0451742 9:0.607124 10:0.719772 11:0.158764 12:-1 13:-1 14:-1 15:-1 16:-1 17:-1 18:1 19:-1 20:-1 21:-1 22:-1 23:-1 24:1 25:-1 26:-1 27:-1 28:-1 29:1 30:-1 31:-1 
102 1:-0.57573 2:0.656356 3:-0.356805 4:-0.477965 5:0.376043 6:0.203441 7:-0.701144 8:0.0388398 9:-0.00788473 10:0.948918 11:-0.40803 12:-1 13:-1 14:-1 15:-1 16:-1 17:-1 18:1 19:-1 20:-1 21:-1 22:-1 23:-1 24:-1 25:1 26:-1 27:-1 28:1 29:-1 30:-1 31:-1 
102 1:0.296535 2:0.419422 3:-0.895794 4:0.136041 5:-0.863519 6:0.131897 7:-1 8:-0.114519 9:0.0455073 10:0.862471 11:-0.537724 12:-1 13:-1 14:-1 15:-1 16:-1 17:1 18:-1 19:-1 20:-1 21:-1 22:-1 23:1 24:-1 25:-1 26:-1 27:-1 28:1 29:-1 30:-1 31:-1 
102 1:0.413115 2:0.563497 3:-0.887164 4:-0.382155 5:-1 6:-0.130074 7:-0.395723 8:0.0421737 9:0.530598 10:0.500778 11:-0.0743108 12:-1 13:-1 14:-1 15:-1 16:-1 17:-1 18:1 19:-1 20:-1 21:-1 22:-1 23:-1 24:-1 25:1 26:-1 27:-1 28:-1 29:1 30:-1 31:-1 
102 1:0.44921 2:0.59726 3:-0.89447 4:-0.299139 5:-0.879239 6:0.107314 7:-1 8:-0.149525 9:-0.102421 10:0.904939 11:-0.540464 12:-1 13:-1 14:-1 15:-1 16:-1 17:-1 18:1 19:-1 20:-1 21:-1 22:-1 23:1 24:-1 25:-1 26:-1 27:-1 28:1 29:-1 30:-1 31:-1 
102 1:0.298024 2:0.577531 3:-0.98041 4:-0.42855 5:-0.898597 6:-0.217053 7:-0.0920849 8:0.23854 9:-0.0419051 10:0.907221 11:-0.72668 12:-1 13:-1 14:-1 15:-1 16:-1 17:-1 18:1 19:-1 20:-1 21:-1 22:-1 23:-1 24:-1 25:-1 26:0.333333 27:-1 28:1 29:-1 30:-1 31:-1 
102 1:0.389224 2:0.503755 3:-0.946624 4:-0.353748 5:0.869195 6:0.0856605 7:-0.582784 8:0.387898 9:-0.0384631 10:0.907613 11:-0.565918 12:-1 13:-1 14:-1 15:-1 16:-1 17:1 18:-1 19:-1 20:-1 21:-1 22:-1 23:1 24:-1 25:-1 26:-1 27:-1 28:1 29:-1 30:-1 31:-1 
102 1:-0.331236 2:0.820872 3:-0.204551 4:-0.546309 5:-0.999785 6:0.0178803 7:-1 8:0.166861 9:-0.238343 10:0.997372 11:-0.176427 12:-1 13:-1 14:-1 15:-1 16:-1 17:1 18:-1 19:-1 20:-1 21:-1 22:-1 23:1 24:-1 25:-1 26:-1 27:-1 28:1 29:-1 30:-1 31:-1 
102 1:0.0486309 2:0.220832 3:-0.661158 4:0.0709991 5:-0.776736 6:0.146854 7:-1 8:-0.15986 9:-0.473284 10:-0.00798009 11:-0.359715 12:-1 13:-1 14:-1 15:-1 16:-1 17:1 18:-1 19:-1 20:-1 21:-1 22:-1 23:1 24:-1 25:-1 26:-1 27:-1 28:-1 29:1 30:-1 31:-1 
102 1:0.0335616 2:0.786582 3:-0.868532 4:0.0514493 5:0.767203 6:0.100079 7:-0.944878 8:0.156526 9:0.359216 10:0.942632 11:0.219265 12:-1 13:-1 14:-1 15:-1 16:-1 17:1 18:-1 19:-1 20:-1 21:-1 22:-1 23:-1 24:-1 25:1 26:-1 27:-1 28:-1 29:1 30:-1 31:-1 
102 1:-0.291615 2:0.720972 3:-0.423582 4:-0.288495 5:-0.603215 6:-0.0744602 7:-0.646618 8:0.464911 9:0.805243 10:0.67466 11:0.0974158 12:-1 13:-1 14:-1 15:-1 16:-1 17:-1 18:1 19:-1 20:-1 21:-1 22:-1 23:-1 24:1 25:-1 26:-1 27:-1 28:-1 29:1 30:-1 31:-1 
102 1:-0.835609 2:0.698559 3:-0.933823 4:-0.319797 5:-0.765314 6:0.456494 7:-1 8:-0.0985164 9:-0.729117 10:0.689265 11:-0.0205886 12:-1 13:-1 14:-1 15:-1 16:-1 17:-1 18:-1 19:-0.333333 20:-1 21:-1 22:-1 23:-1 24:1 25:-1 26:-1 27:-1 28:-1 29:1 30:-1 31:-1 
102 1:0.00933434 2:0.4719 3:-0.866514 4:0.327157 5:-0.812161 6:-0.0121078 7:-0.770058 8:-0.476913 9:0.0136482 10:0.795064 11:-0.605373 12:-1 13:-1 14:-1 15:-1 16:1 17:-1 18:-1 19:-1 20:-1 21:-1 22:-1 23:1 24:-1 25:-1 26:-1 27:-1 28:1 29:-1 30:-1 31:-1 
102 1:0.75111 2:0.806693 3:-0.997193 4:-0.50167 5:0.963107 6:0.196791 7:-1 8:-0.311219 9:-0.368261 10:0.549457 11:-0.118405 12:-1 13:-1 14:-1 15:-1 16:-1 17:-1 18:-1 19:-1 20:1 21:-1 22:-1 23:-1 24:1 25:-1 26:-1 27:-1 28:-1 29:1 30:-1 31:-1 
102 1:-0.138504 2:0.599781 3:-0.987339 4:0.415099 5:-0.125118 6:0.0749433 7:-1 8:-0.0821804 9:0.101701 10:0.716106 11:-0.647203 12:-1 13:-1 14:-1 15:-1 16:1 17:-1 18:-1 19:-1 20:-1 21:-1 22:-1 23:-1 24:1 25:-1 26:-1 27:-1 28:1 29:-1 30:-1 31:-1 
102 1:0.406812 2:0.637319 3:-0.650465 4:-0.539756 5:0.445861 6:0.181806 7:-0.788961 8:-0.419903 9:-0.00340204 10:0.849375 11:-0.551238 12:-1 13:-1 14:-1 15:-1 16:-1 17:-1 18:1 19:-1 20:-1 21:-1 22:-1 23:1 24:-1 25:-1 26:-1 27:-1 28:1 29:-1 30:-1 31:-1 
80.19374769546737 1:-0.0111648 2:0.526125 3:-0.903922 4:-0.412913 5:-0.998697 6:0.197389 7:-0.957775 8:0.00416736 9:-0.180628 10:0.911417 11:-0.523071 12:-1 13:-1 14:-1 15:-1 16:-1 17:-1 18:-1 19:-1 20:1 21:-1 22:-1 23:1 24:-1 25:-1 26:-1 27:-1 28:1 29:-1 30:-1 31:-1 
102 1:-0.0277567 2:0.274588 3:-0.465057 4:-0.623293 5:0.549704 6:0.0186877 7:-0.687217 8:0.0298383 9:0.756814 10:0.508009 11:-0.0710432 12:-1 13:-1 14:-1 15:-1 16:1 17:-1 18:-1 19:-1 20:-1 21:-1 22:-1 23:-1 24:-1 25:1 26:-1 27:-1 28:-1 29:1 30:-1 31:-1 
102 1:-0.934877 2:0.345346 3:-0.954874 4:0.723876 5:-0.969621 6:0.0835116 7:-0.664114 8:-0.450575 9:0.0262157 10:0.968342 11:-0.140595 12:-1 13:-1 14:-1 15:-1 16:-1 17:-1 18:1 19:-1 20:-1 21:-1 22:-1 23:-1 24:-1 25:1 26:-1 27:-1 28:1 29:-1 30:-1 31:-1 
102 1:-0.757772 2:0.622979 3:-0.240738 4:-0.266054 5:-0.78695 6:-0.012199 7:-0.693023 8:-0.289882 9:-0.243706 10:0.888556 11:0.160067 12:-1 13:-1 14:-1 15:-1 16:-1 17:-1 18:1 19:-1 20:-1 21:-1 22:-1 23:-1 24:1 25:-1 26:-1 27:-1 28:-1 29:1 30:-1 31:-1 
102 1:-0.224329 2:0.773516 3:-0.698467 4:-0.48033 5:-0.841338 6:0.609687 7:-0.939596 8:-0.156859 9:-0.872003 10:0.968913 11:0.0906847 12:-1 13:-1 14:-1 15:-1 16:-1 17:-1 18:-1 19:0.333333 20:-1 21:-1 22:-1 23:-1 24:-1 25:1 26:-1 27:-1 28:-1 29:1 30:-1 31:-1 
102 1:-0.165082 2:0.722139 3:-0.662989 4:-0.323609 5:0.154878 6:-0.195201 7:-0.443485 8:0.0358393 9:0.23378 10:0.986948 11:-0.811584 12:-1 13:-1 14:-1 15:-1 16:-1 17:-1 18:-1 19:-1 20:1 21:-1 22:-1 23:1 24:-1 25:-1 26:-1 27:-1 28:1 29:-1 30:-1 31:-1 
102 1:-0.257748 2:0.605371 3:-0.901846 4:-0.328338 5:-0.914878 6:0.0781551 7:-0.851963 8:0.0418403 9:0.0306184 10:0.580116 11:-0.0639625 12:-1 13:-1 14:-1 15:-1 16:-1 17:1 18:-1 19:-1 20:-1 21:-1 22:-1 23:-1 24:1 25:-1 26:-1 27:-1 28:-1 29:1 30:-1 31:-1 
102 1:0.780253 2:0.714164 3:-0.961454 4:-0.149427 5:0.563358 6:-0.0415545 7:-0.800789 8:-0.727288 9:0.13308 10:0.925358 11:-0.410879 12:-1 13:-1 14:-1 15:-1 16:-1 17:1 18:-1 19:-1 20:-1 21:-1 22:-1 23:-1 24:1 25:-1 26:-1 27:-1 28:1 29:-1 30:-1 31:-1 
102 1:0.000769698 2:0.783117 3:-0.179141 4:-0.358854 5:-0.905383 6:0.0440738 7:-0.872353 8:-0.409902 9:-0.0235741 10:0.211387 11:-0.342461 12:-1 13:-1 14:-1 15:-1 16:-1 17:1 18:-1 19:-1 20:-1 21:-1 22:-1 23:-1 24:-1 25:1 26:-1 27:-1 28:-1 29:1 30:-1 31:-1 
102 1:0.550911 2:0.562252 3:-0.906459 4:-0.0898726 5:0.0252785 6:0.099354 7:-0.575338 8:0.000166694 9:0.0391035 10:0.0674927 11:-0.289432 12:-1 13:-1 14:-1 15:-1 16:1 17:-1 18:-1 19:-1 20:-1 21:-1 22:-1 23:-1 24:-1 25:1 26:-1 27:-1 28:-1 29:1 30:-1 31:-1 
102 1:-0.600712 2:0.494958 3:-0.772679 4:0.219592 5:-1 6:0.0243147 7:-0.591253 8:0.104184 9:-0.0941765 10:0.84143 11:-0.623168 12:-1 13:-1 14:-1 15:-1 16:-1 17:-1 18:1 19:-1 20:-1 21:-1 22:-1 23:-1 24:-1 25:1 26:-1 27:-1 28:1 29:-1 30:-1 31:-1 
102 1:-0.502193 2:0.625457 3:-0.777302 4:-0.0811888 5:-0.13228 6:0.0052716 7:-0.95274 8:-0.0138356 9:-0.063358 10:0.847912 11:-0.660633 12:-1 13:-1 14:-1 15:-1 16:1 17:-1 18:-1 19:-1 20:-1 21:-1 22:-1 23:-1 24:1 25:-1 26:-1 27:-1 28:1 29:-1 30:-1 31:-1 
102 1:-0.147516 2:0.514352 3:-0.264956 4:-0.0656957 5:0.566747 6:0.0448961 7:-1 8:-0.428571 9:-0.134681 10:0.618367 11:-0.0395534 12:-1 13:-1 14:-1 15:-1 16:1 17:-1 18:-1 19:-1 20:-1 21:-1 22:-1 23:1 24:-1 25:-1 26:-1 27:-1 28:-1 29:1 30:-1 31:-1 
102 1:-0.321339 2:0.43426 3:-0.618728 4:-0.327198 5:-0.966278 6:0.0233981 7:-0.684026 8:-0.11952 9:0.0661597 10:0.823415 11:-0.751939 12:-1 13:-1 14:-1 15:-1 16:-1 17:-1 18:1 19:-1 20:-1 21:-1 22:-1 23:1 24:-1 25:-1 26:-1 27:-1 28:1 29:-1 30:-1 31:-1 
102 1:-0.901929 2:0.811958 3:-0.18281 4:-0.399765 5:-0.752368 6:-0.0139789 7:-0.844157 8:-0.372229 9:-0.700941 10:0.387327 11:-0.263027 12:-1 13:-1 14:-1 15:-1 16:-1 17:1 18:-1 19:-1 20:-1 21:-1 22:-1 23:-1 24:-1 25:1 26:-1 27:-1 28:-1 29:1 30:-1 31:-1 
102 1:-0.444726 2:0.851779 3:-0.747516 4:-0.425803 5:-0.300307 6:0.492455 7:-0.707418 8:-0.0688448 9:0.159176 10:0.901554 11:-0.517122 12:-1 13:-1 14:-1 15:-1 16:-1 17:-1 18:-1 19:0.333333 20:-1 21:-1 22:-1 23:1 24:-1 25:-1 26:-1 27:-1 28:1 29:-1 30:-1 31:-1 
102 1:-0.753682 2:0.603806 3:-0.35944 4:0.249021 5:-0.843747 6:0.257455 7:-0.848903 8:-0.137856 9:0.0640784 10:0.979661 11:-0.141479 12:-1 13:-1 14:-1 15:-1 16:-1 17:-1 18:-1 19:-0.333333 20:-1 21:-1 22:-1 23:-1 24:1 25:-1 26:-1 27:-1 28:1 29:-1 30:-1 31:-1 
102 1:-0.268037 2:0.757869 3:-0.914482 4:0.0918528 5:-0.276777 6:0.261017 7:-0.909861 8:0.318886 9:0.339204 10:0.364385 11:-0.166249 12:-1 13:-1 14:-1 15:-1 16:-1 17:-1 18:-1 19:0.333333 20:-1 21:-1 22:-1 23:-1 24:1 25:-1 26:-1 27:-1 28:-1 29:1 30:-1 31:-1 
102 1:-0.704719 2:0.258569 3:-0.598783 4:-0.0473954 5:-0.210671 6:0.202357 7:-0.904554 8:-0.227205 9:0.0114068 10:0.883344 11:-0.601499 12:-1 13:-1 14:-1 15:-1 16:-1 17:-1 18:1 19:-1 20:-1 21:-1 22:-1 23:-1 24:-1 25:1 26:-1 27:-1 28:1 29:-1 30:-1 31:-1 
102 1:0.318915 2:0.682557 3:-0.890903 4:-0.122271 5:-0.157442 6:0.151156 7:-0.790322 8:-0.588598 9:0.279248 10:0.908301 11:0.11002 12:-1 13:-1 14:-1 15:-1 16:1 17:-1 18:-1 19:-1 20:-1 21:-1 22:-1 23:-1 24:1 25:-1 26:-1 27:-1 28:-1 29:1 30:-1 31:-1 
102 1:-0.784087 2:0.596272 3:0.709538 4:0.281157 5:-1 6:0.577148 7:-0.811422 8:-0.087848 9:0.110346 10:0.799439 11:-0.567493 12:-1 13:-1 14:-1 15:-1 16:-1 17:-1 18:-1 19:-0.333333 20:-1 21:-1 22:-1 23:-1 24:-1 25:1 26:-1 27:-1 28:1 29:-1 30:-1 31:-1 
102 1:-0.0681728 2:0.613506 3:-0.212025 4:-0.00191202 5:-0.999104 6:0.0304264 7:-0.910337 8:-0.160193 9:0.21689 10:0.758589 11:-0.8314 12:-1 13:-1 14:-1 15:-1 16:-1 17:-1 18:1 19:-1 20:-1 21:-1 22:-1 23:1 24:-1 25:-1 26:-1 27:-1 28:1 29:-1 30:-1 31:-1 
102 1:0.0212912 2:0.652126 3:-0.294128 4:-0.594913 5:-0.433253 6:0.319872 7:-0.953517 8:-0.243541 9:0.0514309 10:0.704071 11:-0.772825 12:-1 13:-1 14:-1 15:-1 16:1 17:-1 18:-1 19:-1 20:-1 21:-1 22:-1 23:-1 24:-1 25:1 26:-1 27:-1 28:1 29:-1 30:-1 31:-1 
-2 1:0.145215 2:0.391531 3:-0.819221 4:-0.735523 5:-0.44041 6:-0.0978604 7:0.155644 8:0.0668445 9:-0.130518 10:0.924426 11:-0.579954 12:1 13:-1 14:-1 15:-1 16:-1 17:-1 18:-1 19:-1 20:-1 21:1 22:-1 23:-1 24:-1 25:-1 26:-1 27:-1 28:-1 29:-1 30:-1 31:1 
-2 1:0.145215 2:0.602486 3:-0.644983 4:-0.640183 5:-0.741358 6:-0.0844804 7:0.155644 8:-0.221537 9:-0.130518 10:0.924426 11:-0.579954 12:1 13:-1 14:-1 15:-1 16:-1 17:-1 18:-1 19:-1 20:-1 21:1 22:-1 23:-1 24:-1 25:-1 26:-1 27:-1 28:-1 29:-1 30:-1 31:1 
-2 1:-0.0722369 2:0.554988 3:-0.308807 4:-0.675968 5:-0.926372 6:0.0083617 7:-0.633009 8:-0.164527 9:-0.500901 10:0.0770052 11:-0.388906 12:-1 13:-1 14:-1 15:-1 16:-1 17:1 18:-1 19:-1 20:-1 21:-1 22:-1 23:-1 24:-1 25:-1 26:-0.333333 27:-1 28:-1 29:1 30:-1 31:-1 
-2 1:0.21923 2:0.474583 3:-0.578047 4:-0.333521 5:0.464277 6:0.140039 7:-0.64484 8:0.961994 9:-0.218491 10:0.923817 11:-0.561629 12:-1 13:1 14:-1 15:-1 16:-1 17:-1 18:-1 19:-1 20:-1 21:1 22:-1 23:-1 24:-1 25:-1 26:-1 27:-1 28:-1 29:-1 30:-1 31:1 
-2 1:-0.670332 2:0.301224 3:-0.288955 4:0.457187 5:-0.98127 6:0.10192 7:-0.362454 8:-0.399567 9:0.228017 10:0.993829 11:-0.108835 12:1 13:-1 14:-1 15:-1 16:-1 17:-1 18:-1 19:-1 20:-1 21:-1 22:-1 23:-1 24:1 25:-1 26:-1 27:-1 28:-1 29:-1 30:1 31:-1 
-2 1:0.0496609 2:0.86267 3:-0.231203 4:-0.697843 5:-0.0882217 6:0.820473 7:-0.680182 8:0.389232 9:0.0892135 10:0.712798 11:-0.639637 12:-1 13:-1 14:1 15:-1 16:-1 17:-1 18:-1 19:-1 20:-1 21:1 22:-1 23:-1 24:-1 25:-1 26:-1 27:-1 28:-1 29:-1 30:-1 31:1 
-2 1:-0.871246 2:-0.236243 3:-0.714646 4:-0.702793 5:0.149097 6:-0.0121895 7:-0.423932 8:-0.116853 9:0.257635 10:0.996043 11:-0.228677 12:1 13:-1 14:-1 15:-1 16:-1 17:-1 18:-1 19:-1 20:-1 21:-1 22:-1 23:-1 24:1 25:-1 26:-1 27:-1 28:-1 29:-1 30:1 31:-1 
-2 1:-0.871246 2:-0.236243 3:-0.714646 4:-0.702793 5:-0.676316 6:0.0684345 7:-0.527586 8:-0.116853 9:-0.15013 10:0.997374 11:-0.228677 12:1 13:-1 14:-1 15:-1 16:-1 17:-1 18:-1 19:-1 20:-1 21:-1 22:-1 23:-1 24:1 25:-1 26:-1 27:-1 28:-1 29:-1 30:1 31:-1 
-2 1:-0.852403 2:-0.631822 3:-0.728332 4:-0.658173 5:-0.566519 6:0.0653944 7:-0.442983 8:-0.149858 9:0.2004 10:0.992311 11:-0.0134497 12:1 13:-1 14:-1 15:-1 16:-1 17:-1 18:-1 19:-1 20:-1 21:-1 22:-1 23:-1 24:-1 25:-1 26:1 27:-1 28:-1 29:-1 30:1 31:-1 
-2 1:0.0142828 2:0.60192 3:-0.242834 4:-0.253911 5:-0.430039 6:0.456052 7:-0.819709 8:0.31822 9:0.388353 10:0.782903 11:-0.707476 12:-1 13:-1 14:1 15:-1 16:-1 17:-1 18:-1 19:-1 20:-1 21:-1 22:-1 23:-1 24:1 25:-1 26:-1 27:-1 28:-1 29:-1 30:1 31:-1 
-2 1:-0.981784 2:0.269807 3:0.722452 4:-0.674101 5:-0.456703 6:-0.0456063 7:-0.390052 8:-0.0145024 9:0.276046 10:0.981034 11:-0.185129 12:1 13:-1 14:-1 15:-1 16:-1 17:-1 18:-1 19:-1 20:-1 21:-1 22:-1 23:-1 24:-1 25:1 26:-1 27:-1 28:-1 29:-1 30:1 31:-1 
-2 1:-0.17293 2:0.188904 3:0.792183 4:-0.113035 5:0.244191 6:0.181535 7:-0.823613 8:-0.42257 9:0.475525 10:0.586979 11:-0.656715 12:-1 13:-1 14:-1 15:-1 16:-1 17:-1 18:1 19:-1 20:-1 21:-1 22:-1 23:-1 24:-1 25:1 26:-1 27:-1 28:1 29:-1 30:-1 31:-1 
-2 1:-0.156282 2:0.655622 3:-0.0657996 4:-0.311229 5:-0.945116 6:-0.221539 7:0.188913 8:-0.240873 9:0.393476 10:0.872268 11:-0.641023 12:1 13:-1 14:-1 15:-1 16:-1 17:-1 18:-1 19:-1 20:-1 21:-1 22:-1 23:-1 24:1 25:-1 26:-1 27:-1 28:-1 29:-1 30:1 31:-1 
-2 1:-0.156282 2:0.655622 3:-0.0657996 4:-0.311229 5:-0.995333 6:-0.210729 7:0.183389 8:-0.240873 9:0.434861 10:0.860747 11:-0.641023 12:1 13:-1 14:-1 15:-1 16:-1 17:-1 18:-1 19:-1 20:-1 21:-1 22:-1 23:-1 24:1 25:-1 26:-1 27:-1 28:-1 29:-1 30:1 31:-1 
-2 1:-0.156282 2:0.655622 3:-0.0657996 4:-0.311229 5:-0.999715 6:-0.207628 7:0.179209 8:-0.240873 9:0.439824 10:0.878885 11:-0.641023 12:1 13:-1 14:-1 15:-1 16:-1 17:-1 18:-1 19:-1 20:-1 21:-1 22:-1 23:-1 24:1 25:-1 26:-1 27:-1 28:-1 29:-1 30:1 31:-1 
-2 1:0.12934 2:0.842077 3:-0.122228 4:-0.809644 5:-0.599155 6:-0.0295917 7:-0.401647 8:0.0755126 9:0.274205 10:0.890685 11:-0.529525 12:1 13:-1 14:-1 15:-1 16:-1 17:-1 18:-1 19:-1 20:-1 21:-1 22:-1 23:1 24:-1 25:-1 26:-1 27:-1 28:-1 29:-1 30:1 31:-1 
-2 1:0.174111 2:0.832424 3:-0.527344 4:-0.497559 5:-0.910535 6:-0.149169 7:-0.729533 8:-0.135856 9:0.169502 10:0.883861 11:-0.512369 12:-1 13:1 14:-1 15:-1 16:-1 17:-1 18:-1 19:-1 20:-1 21:1 22:-1 23:-1 24:-1 25:-1 26:-1 27:-1 28:-1 29:-1 30:-1 31:1 
-2 1:0.114663 2:0.165628 3:-0.58033 4:-0.228848 5:0.828499 6:0.117056 7:-0.323151 8:-0.815969 9:0.347448 10:0.327866 11:-0.764102 12:-1 13:1 14:-1 15:-1 16:-1 17:-1 18:-1 19:-1 20:-1 21:-1 22:-1 23:-1 24:-1 25:1 26:-1 27:-1 28:-1 29:-1 30:1 31:-1 
-2 1:-0.961813 2:-0.146991 3:-0.795742 4:-0.711187 5:-0.96669 6:-0.0737972 7:-0.529233 8:0.209202 9:0.553012 10:0.921021 11:-0.575459 12:1 13:-1 14:-1 15:-1 16:-1 17:-1 18:-1 19:-1 20:-1 21:-1 22:-1 23:-1 24:-1 25:-1 26:-1 27:1 28:-1 29:-1 30:1 31:-1 
-2 1:-0.194191 2:0.585331 3:-0.406779 4:0.180873 5:0.333537 6:0.0138099 7:-0.687034 8:-0.0101684 9:0.0102862 10:-0.356065 11:-0.377986 12:-1 13:-1 14:-1 15:-1 16:-1 17:-1 18:1 19:-1 20:-1 21:-1 22:-1 23:-1 24:-1 25:1 26:-1 27:-1 28:-1 29:1 30:-1 31:-1 
-2 1:0.0998732 2:0.619866 3:-0.578962 4:-0.641314 5:-0.809269 6:0.0824307 7:-0.706407 8:0.0618436 9:-0.0571943 10:0.914764 11:-0.546711 12:1 13:-1 14:-1 15:-1 16:-1 17:-1 18:-1 19:-1 20:-1 21:1 22:-1 23:-1 24:-1 25:-1 26:-1 27:-1 28:-1 29:-1 30:-1 31:1 
-2 1:0.0998732 2:0.619866 3:-0.578962 4:-0.641314 5:-0.917502 6:0.0825047 7:-0.705942 8:0.0618436 9:-0.131639 10:0.928068 11:-0.544306 12:1 13:-1 14:-1 15:-1 16:-1 17:-1 18:-1 19:-1 20:-1 21:1 22:-1 23:-1 24:-1 25:-1 26:-1 27:-1 28:-1 29:-1 30:-1 31:1 
-2 1:0.806383 2:0.631555 3:-0.999726 4:-0.916266 5:-0.566399 6:0.0559833 7:-0.749546 8:-0.543591 9:-0.273884 10:0.587553 11:-0.0940806 12:-1 13:-1 14:-1 15:-1 16:-1 17:-1 18:1 19:-1 20:-1 21:-1 22:-1 23:-1 24:-1 25:-1 26:-0.333333 27:-1 28:-1 29:1 30:-1 31:-1 
-2 1:0.637889 2:0.831272 3:-0.850962 4:-0.638481 5:0.807198 6:0.422909 7:0.184798 8:-0.516919 9:0.251471 10:0.919823 11:-0.501783 12:-1 13:-1 14:1 15:-1 16:-1 17:-1 18:-1 19:-1 20:-1 21:-1 22:-1 23:1 24:-1 25:-1 26:-1 27:-1 28:-1 29:-1 30:1 31:-1 
-2 1:0.411794 2:0.95361 3:-0.247874 4:-0.916746 5:-0.901405 6:0.174827 7:-0.505315 8:0.909652 9:0.396438 10:0.851576 11:-0.53568 12:-1 13:1 14:-1 15:-1 16:-1 17:-1 18:-1 19:-1 20:-1 21:-1 22:-1 23:-1 24:1 25:-1 26:-1 27:-1 28:-1 29:-1 30:1 31:-1 
-2 1:-0.941627 2:0.470165 3:-0.4073 4:-0.456845 5:-0.0727169 6:-0.0737145 7:-0.651827 8:0.062177 9:-0.104903 10:0.956472 11:-0.348334 12:1 13:-1 14:-1 15:-1 16:-1 17:-1 18:-1 19:-1 20:-1 21:-1 22:1 23:-1 24:-1 25:-1 26:-1 27:-1 28:-1 29:-1 30:-1 31:1 
-2 1:-0.941627 2:0.470165 3:-0.4073 4:-0.456845 5:-0.934307 6:-0.073512 7:-0.633415 8:0.062177 9:-0.175105 10:0.956739 11:-0.348334 12:1 13:-1 14:-1 15:-1 16:-1 17:-1 18:-1 19:-1 20:-1 21:-1 22:1 23:-1 24:-1 25:-1 26:-1 27:-1 28:-1 29:-1 30:-1 31:1 
-2 1:-0.049353 2:0.508598 3:0.3785 4:-0.60103 5:-0.995992 6:0.492798 7:-0.697786 8:0.2012 9:0.282369 10:0.813185 11:-0.677474 12:-1 13:-1 14:1 15:-1 16:-1 17:-1 18:-1 19:-1 20:-1 21:-1 22:-1 23:1 24:-1 25:-1 26:-1 27:-1 28:-1 29:-1 30:1 31:-1 
-2 1:-0.442207 2:0.136941 3:-0.443801 4:-0.486734 5:-0.889555 6:-0.0731928 7:-0.640776 8:-0.403901 9:-0.00412247 10:0.927338 11:-0.65291 12:1 13:-1 14:-1 15:-1 16:-1 17:-1 18:-1 19:-1 20:-1 21:-1 22:1 23:-1 24:-1 25:-1 26:-1 27:-1 28:-1 29:-1 30:-1 31:1 
-2 1:9.79616e-05 2:0.360869 3:-0.448934 4:-0.191001 5:-0.659043 6:0.0782445 7:-0.506403 8:0.0721787 9:0.11659 10:0.754284 11:-0.717919 12:1 13:-1 14:-1 15:-1 16:-1 17:-1 18:-1 19:-1 20:-1 21:1 22:-1 23:-1 24:-1 25:-1 26:-1 27:-1 28:-1 29:-1 30:-1 31:1 
-2 1:-0.7881 2:-0.89539 3:-0.770066 4:0.699445 5:-0.687836 6:0.197437 7:-0.450979 8:-0.252875 9:0.277246 10:0.993499 11:0.0265718 12:-1 13:-1 14:0.333333 15:-1 16:-1 17:-1 18:-1 19:-1 20:-1 21:-1 22:-1 23:-1 24:1 25:-1 26:-1 27:-1 28:-1 29:-1 30:1 31:-1 
-2 1:-0.7881 2:0.285454 3:-0.640473 4:0.447571 5:-0.833968 6:0.0687593 7:-0.450979 8:0.5996 9:0.277246 10:0.993499 11:0.0265718 12:-1 13:-1 14:0.333333 15:-1 16:-1 17:-1 18:-1 19:-1 20:-1 21:-1 22:-1 23:-1 24:1 25:-1 26:-1 27:-1 28:-1 29:-1 30:1 31:-1 
-2 1:0.0109017 2:0.155393 3:-0.785044 4:-0.863549 5:0.494582 6:-0.266108 7:-0.277321 8:-0.162194 9:0.255233 10:0.968523 11:-0.320085 12:1 13:-1 14:-1 15:-1 16:-1 17:-1 18:-1 19:-1 20:-1 21:-1 22:-1 23:-1 24:1 25:-1 26:-1 27:-1 28:-1 29:-1 30:1 31:-1 
-2 1:0.397508 2:0.945785 3:-0.556984 4:-0.772883 5:0.518204 6:0.0345937 7:-0.605941 8:-0.0245041 9:0.21657 10:0.939568 11:-0.571403 12:1 13:-1 14:-1 15:-1 16:-1 17:-1 18:-1 19:-1 20:-1 21:-1 22:-1 23:-1 24:-1 25:1 26:-1 27:-1 28:-1 29:-1 30:1 31:-1 
-2 1:-0.301366 2:-0.414419 3:-0.461602 4:0.422724 5:0.846009 6:0.499324 7:-0.823563 8:-0.0105018 9:-0.374345 10:0.978363 11:-0.526037 12:-1 13:-1 14:0.333333 15:-1 16:-1 17:-1 18:-1 19:-1 20:-1 21:-1 22:1 23:-1 24:-1 25:-1 26:-1 27:-1 28:-1 29:-1 30:-1 31:1 
-2 1:-0.301366 2:-0.414419 3:-0.461602 4:0.422724 5:0.453397 6:0.500959 7:-0.823563 8:-0.0105018 9:-0.253152 10:0.96764 11:-0.491632 12:-1 13:-1 14:0.333333 15:-1 16:-1 17:-1 18:-1 19:-1 20:-1 21:-1 22:1 23:-1 24:-1 25:-1 26:-1 27:-1 28:-1 29:-1 30:-1 31:1 
-2 1:-0.262461 2:0.394331 3:-0.834969 4:0.0277885 5:-0.814024 6:-0.00488978 7:-0.894539 8:0.0885148 9:0.26748 10:0.98003 11:-0.292287 12:1 13:-1 14:-1 15:-1 16:-1 17:-1 18:-1 19:-1 20:-1 21:-1 22:-1 23:1 24:-1 25:-1 26:-1 27:-1 28:-1 29:-1 30:1 31:-1 
-2 1:-0.89558 2:-0.648613 3:0.622825 4:-0.30526 5:0.754618 6:0.104168 7:-0.874773 8:0.770295 9:-0.196798 10:0.988449 11:-0.079522 12:-1 13:1 14:-1 15:-1 16:-1 17:-1 18:-1 19:-1 20:-1 21:1 22:-1 23:-1 24:-1 25:-1 26:-1 27:-1 28:-1 29:-1 30:-1 31:1 
-2 1:-0.531884 2:0.306551 3:0.0445196 4:-0.282638 5:-1 6:0.341327 7:-0.850548 8:-0.774629 9:0.308385 10:0.98898 11:-0.495455 12:-1 13:-1 14:1 15:-1 16:-1 17:-1 18:-1 19:-1 20:-1 21:-1 22:-1 23:-1 24:-1 25:1 26:-1 27:-1 28:-1 29:-1 30:1 31:-1 
-2 1:-0.851798 2:-0.358383 3:-0.694226 4:0.339164 5:-0.722511 6:0.083048 7:-0.505802 8:0.416236 9:0.471043 10:0.0503622 11:-0.310187 12:-1 13:-1 14:-1 15:-1 16:-1 17:-1 18:1 19:-1 20:-1 21:-1 22:-1 23:-1 24:1 25:-1 26:-1 27:-1 28:-1 29:1 30:-1 31:-1 
-2 1:-0.851798 2:-0.358383 3:-0.694226 4:0.339164 5:-0.930508 6:0.115424 7:-0.564815 8:0.416236 9:0.646908 10:0.0688496 11:-0.310187 12:-1 13:-1 14:-1 15:-1 16:-1 17:-1 18:1 19:-1 20:-1 21:-1 22:-1 23:-1 24:1 25:-1 26:-1 27:-1 28:-1 29:1 30:-1 31:-1 
-2 1:-0.360054 2:-0.141902 3:-0.449445 4:-0.836124 5:0.972391 6:0.376287 7:-0.812312 8:-0.137523 9:0.338163 10:0.801835 11:-0.754892 12:1 13:-1 14:-1 15:-1 16:-1 17:-1 18:-1 19:-1 20:-1 21:-1 22:-1 23:-1 24:-1 25:1 26:-1 27:-1 28:-1 29:-1 30:1 31:-1 
-2 1:-0.360054 2:-0.141902 3:-0.449445 4:-0.816713 5:0.669299 6:0.376287 7:-0.812312 8:-0.137523 9:-0.0860116 10:0.930628 11:-0.754892 12:1 13:-1 14:-1 15:-1 16:-1 17:-1 18:-1 19:-1 20:-1 21:-1 22:-1 23:-1 24:-1 25:1 26:-1 27:-1 28:-1 29:-1 30:1 31:-1 
-2 1:-0.406471 2:0.696991 3:-0.846072 4:-0.145179 5:-0.178586 6:-0.00689305 7:-0.864347 8:-0.101517 9:-0.115069 10:0.927878 11:-0.547967 12:1 13:-1 14:-1 15:-1 16:-1 17:-1 18:-1 19:-1 20:-1 21:1 22:-1 23:-1 24:-1 25:-1 26:-1 27:-1 28:-1 29:-1 30:-1 31:1 
-2 1:0.220651 2:0.90292 3:0.125063 4:-0.453279 5:-0.196421 6:-0.272385 7:-0.179797 8:0.823304 9:0.222013 10:0.93524 11:-0.400605 12:-1 13:-1 14:-1 15:1 16:-1 17:-1 18:-1 19:-1 20:-1 21:-1 22:-1 23:-1 24:-1 25:1 26:-1 27:-1 28:-1 29:-1 30:1 31:-1 
-2 1:0.220651 2:0.90292 3:0.125063 4:-0.59587 5:-0.624735 6:-0.272385 7:-0.179797 8:0.823304 9:-0.14941 10:0.994303 11:-0.400605 12:-1 13:-1 14:-1 15:1 16:-1 17:-1 18:-1 19:-1 20:-1 21:-1 22:-1 23:-1 24:-1 25:1 26:-1 27:-1 28:-1 29:-1 30:1 31:-1 
-2 1:-0.416199 2:-0.827117 3:-0.931822 4:-0.573085 5:-0.93567 6:-0.0305884 7:-0.334809 8:-0.521254 9:0.160776 10:0.979139 11:-0.289268 12:-1 13:1 14:-1 15:-1 16:-1 17:-1 18:-1 19:-1 20:-1 21:-1 22:-1 23:-1 24:-1 25:1 26:-1 27:-1 28:-1 29:-1 30:1 31:-1 
-2 1:-0.416199 2:-0.827117 3:-0.931822 4:-0.663692 5:-0.80768 6:-0.0305884 7:-0.334809 8:-0.521254 9:0.528437 10:0.922318 11:-0.289268 12:-1 13:1 14:-1 15:-1 16:-1 17:-1 18:-1 19:-1 20:-1 21:-1 22:-1 23:-1 24:-1 25:1 26:-1 27:-1 28:-1 29:-1 30:1 31:-1 
-2 1:-0.16104 2:0.412724 3:0.970689 4:-0.348 5:-1 6:-0.00763614 7:-0.724174 8:-0.908651 9:-0.0672003 10:0.910023 11:-0.474484 12:-1 13:-1 14:-1 15:-1 16:-1 17:-1 18:-1 19:-0.333333 20:-1 21:-1 22:-1 23:-1 24:-1 25:1 26:-1 27:-1 28:1 29:-1 30:-1 31:-1 
-2 1:-0.0450427 2:0.589015 3:-0.316187 4:-0.46694 5:-0.382348 6:-0.340173 7:0.375999 8:0.02017 9:0.191435 10:0.746522 11:-0.677778 12:-1 13:-1 14:-1 15:1 16:-1 17:-1 18:-1 19:-1 20:-1 21:1 22:-1 23:-1 24:-1 25:-1 26:-1 27:-1 28:-1 29:-1 30:-1 31:1 
-2 1:-0.433821 2:-0.138676 3:-0.428803 4:0.186695 5:-0.512313 6:0.123794 7:-0.814277 8:0.0575096 9:0.548449 10:0.918758 11:-0.283151 12:-1 13:-1 14:-1 15:1 16:-1 17:-1 18:-1 19:-1 20:-1 21:-1 22:-1 23:-1 24:1 25:-1 26:-1 27:-1 28:-1 29:-1 30:1 31:-1 
-2 1:0.273495 2:0.746923 3:-0.58676 4:-0.624712 5:0.870719 6:-0.0547631 7:-0.574481 8:-0.276879 9:-0.139884 10:0.960981 11:-0.517534 12:1 13:-1 14:-1 15:-1 16:-1 17:-1 18:-1 19:-1 20:-1 21:-1 22:1 23:-1 24:-1 25:-1 26:-1 27:-1 28:-1 29:-1 30:-1 31:1 
-2 1:0.421881 2:0.429398 3:-0.89222 4:-0.667603 5:0.327888 6:0.109805 7:-0.165848 8:-0.156859 9:0.21681 10:0.922255 11:-0.465677 12:1 13:-1 14:-1 15:-1 16:-1 17:-1 18:-1 19:-1 20:-1 21:-1 22:-1 23:-1 24:1 25:-1 26:-1 27:-1 28:-1 29:-1 30:1 31:-1 
-2 1:0.421881 2:0.429398 3:-0.89222 4:-0.667603 5:0.16938 6:0.112417 7:-0.156723 8:-0.156859 9:0.0862518 10:0.944421 11:-0.465677 12:1 13:-1 14:-1 15:-1 16:-1 17:-1 18:-1 19:-1 20:-1 21:-1 22:-1 23:-1 24:1 25:-1 26:-1 27:-1 28:-1 29:-1 30:1 31:-1 
-2 1:-0.598738 2:0.116974 3:0.110953 4:-0.954038 5:-1 6:0.181795 7:-0.795479 8:-0.122187 9:0.451351 10:0.959741 11:-0.64639 12:1 13:-1 14:-1 15:-1 16:-1 17:-1 18:-1 19:-1 20:-1 21:-1 22:-1 23:-1 24:1 25:-1 26:-1 27:-1 28:-1 29:-1 30:1 31:-1 
-2 1:-0.667192 2:0.66479 3:0.782512 4:0.319044 5:-0.999703 6:-0.0710465 7:-0.369564 8:-0.0705118 9:-0.226976 10:0.967383 11:-0.357644 12:1 13:-1 14:-1 15:-1 16:-1 17:-1 18:-1 19:-1 20:-1 21:-1 22:1 23:-1 24:-1 25:-1 26:-1 27:-1 28:-1 29:-1 30:-1 31:1 
-2 1:0.224951 2:0.945184 3:0.0286546 4:-0.739213 5:0.502137 6:-0.471799 7:0.0897091 8:-0.675613 9:0.469362 10:0.967067 11:-0.256084 12:1 13:-1 14:-1 15:-1 16:-1 17:-1 18:-1 19:-1 20:-1 21:-1 22:-1 23:-1 24:-1 25:1 26:-1 27:-1 28:-1 29:-1 30:1 31:-1 
-2 1:-0.183879 2:0.66593 3:0.96982 4:-0.551469 5:-0.999972 6:0.195288 7:-0.608265 8:-0.0181697 9:0.381069 10:0.850939 11:-0.531586 12:1 13:-1 14:-1 15:-1 16:-1 17:-1 18:-1 19:-1 20:-1 21:-1 22:-1 23:-1 24:1 25:-1 26:-1 27:-1 28:-1 29:-1 30:1 31:-1 
-2 1:-0.183879 2:0.66593 3:0.96982 4:-0.551469 5:-0.999998 6:0.186179 7:-0.742434 8:-0.0181697 9:0.198079 10:0.898985 11:-0.531586 12:1 13:-1 14:-1 15:-1 16:-1 17:-1 18:-1 19:-1 20:-1 21:-1 22:-1 23:-1 24:1 25:-1 26:-1 27:-1 28:-1 29:-1 30:1 31:-1 
-2 1:-0.183879 2:0.66593 3:0.96982 4:-0.551469 5:-0.999999 6:0.216232 7:-0.759899 8:-0.0181697 9:0.279007 10:0.880907 11:-0.531586 12:1 13:-1 14:-1 15:-1 16:-1 17:-1 18:-1 19:-1 20:-1 21:-1 22:-1 23:-1 24:1 25:-1 26:-1 27:-1 28:-1 29:-1 30:1 31:-1 
-2 1:-0.183879 2:0.66593 3:0.96982 4:-0.551469 5:-0.999913 6:0.186312 7:-0.640351 8:-0.0181697 9:0.111227 10:0.920887 11:-0.531586 12:1 13:-1 14:-1 15:-1 16:-1 17:-1 18:-1 19:-1 20:-1 21:-1 22:-1 23:-1 24:1 25:-1 26:-1 27:-1 28:-1 29:-1 30:1 31:-1 
-2 1:-0.38418 2:0.293631 3:0.0943475 4:-0.721997 5:-0.9998 6:-0.13019 7:-0.431449 8:-0.70195 9:0.109306 10:0.980565 11:-0.114555 12:-1 13:1 14:-1 15:-1 16:-1 17:-1 18:-1 19:-1 20:-1 21:-1 22:-1 23:-1 24:1 25:-1 26:-1 27:-1 28:-1 29:-1 30:1 31:-1 
-2 1:0.278757 2:0.84049 3:0.16196 4:0.224717 5:-1 6:0.0861703 7:-0.554131 8:-0.950325 9:0.163178 10:0.936471 11:-0.0146731 12:-1 13:-1 14:-1 15:-1 16:-1 17:-1 18:-1 19:-0.333333 20:-1 21:-1 22:-1 23:-1 24:-1 25:1 26:-1 27:-1 28:-1 29:1 30:-1 31:-1 
-2 1:0.278757 2:0.84049 3:0.16196 4:0.224717 5:-1 6:0.0350203 7:-0.607082 8:-0.950325 9:-0.224014 10:-0.784507 11:-0.405138 12:-1 13:-1 14:-1 15:-1 16:-1 17:-1 18:-1 19:-0.333333 20:-1 21:-1 22:-1 23:-1 24:-1 25:1 26:-1 27:-1 28:-1 29:1 30:-1 31:-1 
-2 1:-0.938562 2:-0.779741 3:0.392845 4:0.578932 5:-0.299367 6:0.282411 7:-1 8:-0.0291715 9:0.197599 10:0.976702 11:-0.323305 12:1 13:-1 14:-1 15:-1 16:-1 17:-1 18:-1 19:-1 20:-1 21:-1 22:-1 23:-1 24:1 25:-1 26:-1 27:-1 28:-1 29:-1 30:1 31:-1 
-2 1:-0.13257 2:-0.358858 3:-0.810118 4:-0.864722 5:0.489851 6:-0.13803 7:0.0467995 8:0.267545 9:0.23298 10:0.971318 11:-0.131486 12:1 13:-1 14:-1 15:-1 16:-1 17:-1 18:-1 19:-1 20:-1 21:-1 22:-1 23:-1 24:-1 25:1 26:-1 27:-1 28:-1 29:-1 30:1 31:-1 
-2 1:-0.509604 2:0.682378 3:0.2561 4:-0.450793 5:-0.819826 6:0.104443 7:-0.828933 8:0.0748458 9:-0.226576 10:0.987344 11:-0.514139 12:1 13:-1 14:-1 15:-1 16:-1 17:-1 18:-1 19:-1 20:-1 21:-1 22:1 23:-1 24:-1 25:-1 26:-1 27:-1 28:-1 29:-1 30:-1 31:1 
-2 1:-0.497883 2:0.683984 3:-0.148366 4:0.532335 5:-0.77805 6:-0.394662 7:-0.753246 8:0.283881 9:0.209846 10:0.998279 11:-0.131078 12:-1 13:1 14:-1 15:-1 16:-1 17:-1 18:-1 19:-1 20:-1 21:-1 22:-1 23:-1 24:-1 25:1 26:-1 27:-1 28:-1 29:-1 30:1 31:-1 
-2 1:0.0213696 2:0.96615 3:-0.215428 4:-0.586044 5:-0.0284371 6:0.293676 7:-0.538955 8:-0.0528421 9:-0.065039 10:0.85241 11:0.0443345 12:-1 13:-1 14:-1 15:-1 16:-1 17:-1 18:-1 19:0.333333 20:-1 21:-1 22:-1 23:-1 24:-1 25:1 26:-1 27:-1 28:-1 29:1 30:-1 31:-1 
-2 1:-0.0295256 2:0.283079 3:-0.24761 4:-0.848456 5:-0.397491 6:0.296319 7:-0.466756 8:0.302217 9:-0.0735241 10:0.729072 11:-0.692095 12:-1 13:-1 14:-1 15:-1 16:-1 17:-1 18:1 19:-1 20:-1 21:-1 22:-1 23:-1 24:1 25:-1 26:-1 27:-1 28:1 29:-1 30:-1 31:-1 
-2 1:-0.0295256 2:0.0590676 3:-0.240809 4:-0.809342 5:-0.364351 6:0.290215 7:-0.466756 8:-0.971995 9:-0.0735241 10:0.729072 11:-0.692095 12:-1 13:-1 14:-1 15:-1 16:-1 17:-1 18:1 19:-1 20:-1 21:-1 22:-1 23:-1 24:1 25:-1 26:-1 27:-1 28:1 29:-1 30:-1 31:-1 
-2 1:-0.0295256 2:0.917046 3:-0.213911 4:-0.586044 5:-0.0284371 6:0.282589 7:-0.538955 8:-0.0528421 9:-0.065039 10:0.85241 11:0.0443345 12:-1 13:-1 14:-1 15:-1 16:-1 17:-1 18:-1 19:0.333333 20:-1 21:-1 22:-1 23:-1 24:-1 25:1 26:-1 27:-1 28:-1 29:1 30:-1 31:-1 
-2 1:0.581609 2:0.508555 3:-0.952443 4:-0.246834 5:0.168886 6:0.355391 7:-0.472297 8:-0.331555 9:0.4993 10:0.911786 11:-0.278263 12:-1 13:-1 14:-1 15:-1 16:-1 17:-1 18:-1 19:-0.333333 20:-1 21:-1 22:-1 23:-1 24:-1 25:1 26:-1 27:-1 28:1 29:-1 30:-1 31:-1 
-2 1:-0.449865 2:-0.0702391 3:0.600781 4:0.467256 5:0.826331 6:-0.0335645 7:-0.513199 8:-0.0978496 9:0.224094 10:0.988917 11:-0.0415077 12:1 13:-1 14:-1 15:-1 16:-1 17:-1 18:-1 19:-1 20:-1 21:-1 22:-1 23:1 24:-1 25:-1 26:-1 27:-1 28:-1 29:-1 30:1 31:-1 
-2 1:0.288329 2:0.711972 3:-0.500886 4:-0.143094 5:-0.999996 6:0.251406 7:-0.889863 8:0.608601 9:-0.00980588 10:0.737442 11:-0.666947 12:1 13:-1 14:-1 15:-1 16:-1 17:-1 18:-1 19:-1 20:-1 21:-1 22:1 23:-1 24:-1 25:-1 26:-1 27:-1 28:-1 29:-1 30:-1 31:1 
-2 1:-0.76484 2:-0.144095 3:-0.408178 4:0.480151 5:0.0770577 6:0.620018 7:-0.611995 8:0.112185 9:0.241865 10:0.952811 11:-0.312094 12:-1 13:-1 14:1 15:-1 16:-1 17:-1 18:-1 19:-1 20:-1 21:-1 22:-1 23:-1 24:1 25:-1 26:-1 27:-1 28:-1 29:-1 30:1 31:-1 
-2 1:0.0373234 2:0.570326 3:0.116755 4:0.0558772 5:0.263271 6:-0.281376 7:-0.118646 8:0.09985 9:0.377066 10:0.973235 11:-0.677096 12:-1 13:-1 14:1 15:-1 16:-1 17:-1 18:-1 19:-1 20:-1 21:-1 22:-1 23:1 24:-1 25:-1 26:-1 27:-1 28:-1 29:-1 30:1 31:-1 
-2 1:0.50783 2:0.850874 3:-0.690039 4:-0.485844 5:-0.706208 6:0.164591 7:-0.0927131 8:-0.135523 9:0.206884 10:0.973061 11:-0.446569 12:-1 13:-1 14:-0.333333 15:-1 16:-1 17:-1 18:-1 19:-1 20:-1 21:-1 22:-1 23:1 24:-1 25:-1 26:-1 27:-1 28:-1 29:-1 30:1 31:-1 
-2 1:-0.356751 2:-0.872018 3:-0.711871 4:0.186261 5:-0.999728 6:0.0825381 7:-0.462219 8:-0.0678446 9:-0.323994 10:0.512811 11:-0.826723 12:-1 13:-1 14:-1 15:-1 16:-1 17:-1 18:1 19:-1 20:-1 21:-1 22:-1 23:-1 24:1 25:-1 26:-1 27:-1 28:1 29:-1 30:-1 31:-1 
-2 1:-0.356751 2:0.104111 3:-0.669851 4:-0.838473 5:-0.997971 6:-0.072282 7:0.311707 8:-0.228871 9:-0.0909746 10:0.832859 11:-0.826723 12:1 13:-1 14:-1 15:-1 16:-1 17:-1 18:-1 19:-1 20:-1 21:1 22:-1 23:-1 24:-1 25:-1 26:-1 27:-1 28:-1 29:-1 30:-1 31:1 
-2 1:-0.498353 2:0.975818 3:0.829887 4:-0.758734 5:0.681403 6:0.824569 7:-0.399673 8:-0.190865 9:0.269802 10:0.983995 11:-0.3709 12:-1 13:-1 14:1 15:-1 16:-1 17:-1 18:-1 19:-1 20:-1 21:-1 22:-1 23:-1 24:1 25:-1 26:-1 27:-1 28:-1 29:-1 30:1 31:-1 
-2 1:-0.498353 2:0.975818 3:0.829887 4:-0.758734 5:0.780487 6:0.82715 7:-0.399673 8:-0.190865 9:0.208405 10:0.982264 11:-0.3709 12:-1 13:-1 14:1 15:-1 16:-1 17:-1 18:-1 19:-1 20:-1 21:-1 22:-1 23:-1 24:1 25:-1 26:-1 27:-1 28:-1 29:-1 30:1 31:-1 
-2 1:0.179037 2:0.320579 3:-0.784403 4:-0.605024 5:0.631634 6:-0.13713 7:-0.484159 8:-0.261877 9:-0.0909746 10:0.947248 11:-0.491526 12:1 13:-1 14:-1 15:-1 16:-1 17:-1 18:-1 19:-1 20:-1 21:-1 22:1 23:-1 24:-1 25:-1 26:-1 27:-1 28:-1 29:-1 30:-1 31:1 
-2 1:0.179037 2:0.307306 3:-0.546739 4:-0.377616 5:-0.195725 6:-0.408601 7:-0.484159 8:-0.02017 9:-0.213768 10:0.99805 11:-0.491526 12:-1 13:-1 14:-1 15:1 16:-1 17:-1 18:-1 19:-1 20:-1 21:-1 22:1 23:-1 24:-1 25:-1 26:-1 27:-1 28:-1 29:-1 30:-1 31:1 
-2 1:-0.631394 2:0.365498 3:0.0494607 4:-0.618107 5:-0.399155 6:0.129052 7:-0.569101 8:0.233539 9:0.229137 10:0.999138 11:0.0214983 12:-1 13:-1 14:1 15:-1 16:-1 17:-1 18:-1 19:-1 20:-1 21:-1 22:-1 23:1 24:-1 25:-1 26:-1 27:-1 28:-1 29:-1 30:1 31:-1 
-2 1:0.444004 2:0.169421 3:-0.951783 4:-0.534833 5:-0.821667 6:-0.192565 7:-0.465305 8:-0.0645108 9:0.470322 10:0.91137 11:-0.350241 12:1 13:-1 14:-1 15:-1 16:-1 17:-1 18:-1 19:-1 20:-1 21:-1 22:-1 23:-1 24:1 25:-1 26:-1 27:-1 28:-1 29:-1 30:1 31:-1 
-2 1:0.393198 2:0.511121 3:-0.827463 4:-0.151955 5:0.495884 6:0.0068545 7:0.100179 8:-0.360227 9:0.143886 10:0.968954 11:-0.134722 12:-1 13:-1 14:-0.333333 15:-1 16:-1 17:-1 18:-1 19:-1 20:-1 21:1 22:-1 23:-1 24:-1 25:-1 26:-1 27:-1 28:-1 29:-1 30:-1 31:1 
-2 1:-0.09989 2:0.919193 3:-0.810199 4:-0.722707 5:-0.999971 6:0.116117 7:-0.714298 8:0.329888 9:-0.119312 10:0.905332 11:-0.500348 12:-1 13:1 14:-1 15:-1 16:-1 17:-1 18:-1 19:-1 20:-1 21:-1 22:1 23:-1 24:-1 25:-1 26:-1 27:-1 28:-1 29:-1 30:-1 31:1 
-2 1:-0.200796 2:0.226011 3:-0.631453 4:-0.638404 5:-0.904074 6:-0.114086 7:-0.0680852 8:0.938323 9:0.519392 10:0.680381 11:-0.638027 12:-1 13:1 14:-1 15:-1 16:-1 17:-1 18:-1 19:-1 20:-1 21:-1 22:-1 23:-1 24:1 25:-1 26:-1 27:-1 28:-1 29:-1 30:1 31:-1 
-2 1:-0.200796 2:0.226011 3:-0.631453 4:-0.638404 5:-0.999995 6:-0.107508 7:-0.128229 8:0.938323 9:0.321193 10:0.826344 11:-0.638027 12:-1 13:1 14:-1 15:-1 16:-1 17:-1 18:-1 19:-1 20:-1 21:-1 22:-1 23:-1 24:1 25:-1 26:-1 27:-1 28:-1 29:-1 30:1 31:-1 
-2 1:-0.200796 2:0.296176 3:-0.656792 4:-0.638404 5:-0.904074 6:-0.108465 7:-0.195543 8:0.163861 9:0.519392 10:0.680381 11:-0.638027 12:-1 13:1 14:-1 15:-1 16:-1 17:-1 18:-1 19:-1 20:-1 21:-1 22:-1 23:-1 24:1 25:-1 26:-1 27:-1 28:-1 29:-1 30:1 31:-1 
-2 1:-0.493819 2:0.0425138 3:0.599655 4:-0.60993 5:0.0383508 6:-0.329616 7:-0.266957 8:0.328555 9:0.208805 10:0.996589 11:-0.00582881 12:1 13:-1 14:-1 15:-1 16:-1 17:-1 18:-1 19:-1 20:-1 21:-1 22:-1 23:-1 24:1 25:-1 26:-1 27:-1 28:-1 29:-1 30:1 31:-1 
-2 1:-0.42426 2:-0.836273 3:-0.800318 4:-0.331585 5:-0.880003 6:0.946594 7:-0.571524 8:-0.617936 9:0.18375 10:0.866656 11:-0.445774 12:-1 13:-1 14:1 15:-1 16:-1 17:-1 18:-1 19:-1 20:-1 21:-1 22:1 23:-1 24:-1 25:-1 26:-1 27:-1 28:-1 29:-1 30:-1 31:1 
-2 1:0.0413202 2:0.571469 3:-0.707523 4:-0.441731 5:-0.347686 6:-0.0638086 7:-0.265841 8:0.11752 9:0.244106 10:0.988719 11:-0.13952 12:1 13:-1 14:-1 15:-1 16:-1 17:-1 18:-1 19:-1 20:-1 21:-1 22:-1 23:1 24:-1 25:-1 26:-1 27:-1 28:-1 29:-1 30:1 31:-1 
-2 1:-0.0847759 2:0.358042 3:0.648392 4:-0.682179 5:-0.99782 6:0.0636531 7:-0.433066 8:-0.0551759 9:0.289013 10:0.961221 11:-0.601908 12:-1 13:-1 14:1 15:-1 16:-1 17:-1 18:-1 19:-1 20:-1 21:-1 22:-1 23:-1 24:-1 25:-1 26:-1 27:1 28:-1 29:-1 30:1 31:-1 
-2 1:-0.197572 2:-0.89979 3:-0.801575 4:-0.728326 5:-0.994618 6:0.0871145 7:-0.273066 8:0.0241707 9:0.278287 10:0.955517 11:-0.410307 12:-1 13:-1 14:1 15:-1 16:-1 17:-1 18:-1 19:-1 20:-1 21:-1 22:-1 23:-1 24:-1 25:-1 26:-0.333333 27:-1 28:-1 29:-1 30:1 31:-1 
-2 1:-0.501913 2:-0.119066 3:-0.600737 4:0.39075 5:0.391836 6:-0.0383016 7:-0.625486 8:0.454576 9:-0.385711 10:-0.238705 11:-0.441935 12:-1 13:-1 14:-1 15:-1 16:-1 17:1 18:-1 19:-1 20:-1 21:-1 22:-1 23:-1 24:-1 25:1 26:-1 27:-1 28:-1 29:1 30:-1 31:-1 
-2 1:-0.501913 2:0.30613 3:-0.654099 4:0.166131 5:0.323728 6:-0.0312844 7:-0.534036 8:-0.285881 9:-0.385711 10:-0.238705 11:-0.441935 12:-1 13:-1 14:-1 15:-1 16:-1 17:1 18:-1 19:-1 20:-1 21:-1 22:-1 23:-1 24:-1 25:1 26:-1 27:-1 28:-1 29:1 30:-1 31:-1 
-2 1:-0.326355 2:0.64774 3:0.938261 4:-0.045512 5:0.00425276 6:-0.323795 7:0.0753334 8:-0.996999 9:0.278367 10:0.976716 11:-0.0674102 12:-1 13:-1 14:0.333333 15:-1 16:-1 17:-1 18:-1 19:-1 20:-1 21:-1 22:-1 23:-1 24:1 25:-1 26:-1 27:-1 28:-1 29:-1 30:1 31:-1 
-2 1:-0.326355 2:0.64774 3:0.938261 4:-0.045512 5:0.564432 6:-0.324638 7:0.0140133 8:-0.996999 9:0.379548 10:0.967964 11:-0.0674102 12:-1 13:-1 14:0.333333 15:-1 16:-1 17:-1 18:-1 19:-1 20:-1 21:-1 22:-1 23:-1 24:1 25:-1 26:-1 27:-1 28:-1 29:-1 30:1 31:-1 
-2 1:-0.326355 2:0.64774 3:0.938261 4:-0.045512 5:0.835965 6:-0.318509 7:0.0331567 8:-0.996999 9:0.314229 10:0.973607 11:-0.0674102 12:-1 13:-1 14:0.333333 15:-1 16:-1 17:-1 18:-1 19:-1 20:-1 21:-1 22:-1 23:-1 24:1 25:-1 26:-1 27:-1 28:-1 29:-1 30:1 31:-1 
-2 1:0.384275 2:0.555135 3:-0.688948 4:-0.311417 5:0.617682 6:0.156515 7:-0.895209 8:-0.285548 9:0.0646388 10:0.765383 11:-0.654532 12:1 13:-1 14:-1 15:-1 16:-1 17:-1 18:-1 19:-1 20:-1 21:1 22:-1 23:-1 24:-1 25:-1 26:-1 27:-1 28:-1 29:-1 30:-1 31:1 
-2 1:0.0674171 2:0.424184 3:-0.243768 4:0.0590193 5:0.231009 6:0.00613989 7:-0.600118 8:0.0178363 9:0.256114 10:0.589642 11:-0.0588837 12:-1 13:-1 14:-1 15:-1 16:1 17:-1 18:-1 19:-1 20:-1 21:-1 22:-1 23:-1 24:-1 25:-1 26:-0.333333 27:-1 28:-1 29:1 30:-1 31:-1 
-2 1:0.0378943 2:0.65315 3:-0.255815 4:-0.676928 5:0.430719 6:0.0657059 7:-0.44694 8:0.989332 9:0.257715 10:0.97185 11:-0.195101 12:1 13:-1 14:-1 15:-1 16:-1 17:-1 18:-1 19:-1 20:-1 21:-1 22:-1 23:1 24:-1 25:-1 26:-1 27:-1 28:-1 29:-1 30:1 31:-1 
-2 1:0.0948352 2:0.386048 3:-0.383405 4:-0.732393 5:-0.327062 6:-0.113099 7:-0.116673 8:0.127188 9:0.16654 10:0.905095 11:-0.567715 12:1 13:-1 14:-1 15:-1 16:-1 17:-1 18:-1 19:-1 20:-1 21:-1 22:-1 23:-1 24:1 25:-1 26:-1 27:-1 28:-1 29:-1 30:1 31:-1 
-2 1:-0.0214312 2:-0.080933 3:-0.531322 4:-0.158531 5:-1 6:0.0685327 7:-0.609912 8:-0.0945158 9:-0.630899 10:0.953862 11:0.343651 12:-1 13:-1 14:-1 15:-1 16:-1 17:1 18:-1 19:-1 20:-1 21:-1 22:-1 23:-1 24:-1 25:1 26:-1 27:-1 28:-1 29:1 30:-1 31:-1 
-2 1:0.395672 2:0.815539 3:-0.781946 4:-0.0696255 5:-0.717928 6:0.156222 7:-1 8:-0.0508418 9:0.364659 10:0.686782 11:-0.700065 12:1 13:-1 14:-1 15:-1 16:-1 17:-1 18:-1 19:-1 20:-1 21:-1 22:-1 23:-1 24:-1 25:1 26:-1 27:-1 28:-1 29:-1 30:1 31:-1 
-2 1:0.148205 2:0.680681 3:-0.0523621 4:-0.816323 5:-0.452531 6:-0.187938 7:0.150337 8:0.895316 9:0.190394 10:0.998072 11:-0.509433 12:-1 13:-1 14:-1 15:1 16:-1 17:-1 18:-1 19:-1 20:-1 21:-1 22:-1 23:-1 24:1 25:-1 26:-1 27:-1 28:-1 29:-1 30:1 31:-1 
-2 1:0.148205 2:0.701098 3:0.0431824 4:-0.816323 5:-0.452531 6:-0.217582 7:-0.150087 8:-0.643941 9:0.190394 10:0.998072 11:-0.509433 12:-1 13:1 14:-1 15:-1 16:-1 17:-1 18:-1 19:-1 20:-1 21:-1 22:-1 23:-1 24:1 25:-1 26:-1 27:-1 28:-1 29:-1 30:1 31:-1 
-2 1:-0.107078 2:0.721182 3:0.716155 4:-0.305352 5:0.773012 6:0.220351 7:-0.892486 8:0.0795133 9:-0.965259 10:0.693458 11:-0.109529 12:-1 13:-1 14:-1 15:-1 16:-1 17:-1 18:1 19:-1 20:-1 21:-1 22:-1 23:-1 24:-1 25:1 26:-1 27:-1 28:-1 29:1 30:-1 31:-1 
-2 1:0.0657826 2:0.291149 3:-0.790046 4:-0.492222 5:-0.998559 6:0.197023 7:-0.686894 8:-0.398566 9:0.238503 10:0.992369 11:-0.10087 12:-1 13:-1 14:1 15:-1 16:-1 17:-1 18:-1 19:-1 20:-1 21:-1 22:-1 23:-1 24:1 25:-1 26:-1 27:-1 28:-1 29:-1 30:1 31:-1 
-2 1:0.0657826 2:0.291149 3:-0.790046 4:-0.492222 5:-0.96115 6:0.192124 7:-0.651623 8:-0.398566 9:0.407885 10:0.987272 11:-0.10087 12:-1 13:-1 14:1 15:-1 16:-1 17:-1 18:-1 19:-1 20:-1 21:-1 22:-1 23:-1 24:1 25:-1 26:-1 27:-1 28:-1 29:-1 30:1 31:-1 
-2 1:-0.644556 2:0.378738 3:-0.0813741 4:-0.42763 5:-0.419761 6:0.985748 7:-0.580154 8:-0.530255 9:0.480408 10:0.888694 11:-0.368882 12:-1 13:-1 14:-1 15:-1 16:-1 17:-1 18:-1 19:-0.333333 20:-1 21:-1 22:-1 23:-1 24:1 25:-1 26:-1 27:-1 28:1 29:-1 30:-1 31:-1 
-2 1:-0.644556 2:0.378738 3:-0.0813741 4:-0.42763 5:-0.947287 6:0.979868 7:-0.714324 8:-0.530255 9:-0.948449 10:0.68293 11:-0.124649 12:-1 13:-1 14:-1 15:-1 16:-1 17:-1 18:-1 19:-0.333333 20:-1 21:-1 22:-1 23:-1 24:1 25:-1 26:-1 27:-1 28:-1 29:1 30:-1 31:-1 
-2 1:-0.644556 2:0.378738 3:-0.0813741 4:-0.42763 5:-0.95224 6:0.950043 7:-0.558403 8:-0.530255 9:0.288453 10:-0.738486 11:-0.450917 12:-1 13:-1 14:-1 15:-1 16:-1 17:-1 18:-1 19:-0.333333 20:-1 21:-1 22:-1 23:-1 24:1 25:-1 26:-1 27:-1 28:-1 29:1 30:-1 31:-1 
-2 1:-0.889818 2:0.236133 3:0.335669 4:-0.741535 5:-0.756511 6:-0.0745872 7:-0.310135 8:0.128855 9:-0.079928 10:0.935815 11:-0.363936 12:1 13:-1 14:-1 15:-1 16:-1 17:-1 18:-1 19:-1 20:-1 21:-1 22:1 23:-1 24:-1 25:-1 26:-1 27:-1 28:-1 29:-1 30:-1 31:1 
-2 1:0.178298 2:0.380437 3:-0.473194 4:0.146382 5:-0.870048 6:-0.21904 7:-0.0793844 8:0.323554 9:0.264679 10:0.849747 11:-0.590259 12:1 13:-1 14:-1 15:-1 16:-1 17:-1 18:-1 19:-1 20:-1 21:-1 22:-1 23:-1 24:-1 25:1 26:-1 27:-1 28:-1 29:-1 30:1 31:-1 
-2 1:0.295998 2:-0.0954966 3:-0.935629 4:-0.44263 5:-0.86855 6:0.19729 7:-0.335434 8:-0.119187 9:-0.229858 10:0.755167 11:-0.724428 12:-1 13:-1 14:-1 15:-1 16:-1 17:-1 18:1 19:-1 20:-1 21:-1 22:-1 23:-1 24:-1 25:1 26:-1 27:-1 28:1 29:-1 30:-1 31:-1 
-2 1:-0.60451 2:0.58722 3:-0.250653 4:-0.15234 5:-1 6:-0.0409355 7:-0.548959 8:-0.978663 9:-0.790995 10:-0.0497156 11:-0.385114 12:-1 13:-1 14:-1 15:-1 16:-1 17:1 18:-1 19:-1 20:-1 21:-1 22:-1 23:-1 24:-1 25:1 26:-1 27:-1 28:-1 29:1 30:-1 31:-1 
-2 1:-0.467117 2:0.655867 3:0.219137 4:-0.422932 5:-0.994022 6:0.200437 7:-0.824168 8:0.132855 9:0.234341 10:0.990026 11:-0.170798 12:1 13:-1 14:-1 15:-1 16:-1 17:-1 18:-1 19:-1 20:-1 21:-1 22:-1 23:1 24:-1 25:-1 26:-1 27:-1 28:-1 29:-1 30:1 31:-1 
-2 1:0.107833 2:0.868731 3:-0.0413557 4:-0.534436 5:-0.022192 6:-0.133553 7:-0.3973 8:-0.00850142 9:0.338563 10:0.930185 11:-0.353789 12:1 13:-1 14:-1 15:-1 16:-1 17:-1 18:-1 19:-1 20:-1 21:-1 22:-1 23:1 24:-1 25:-1 26:-1 27:-1 28:-1 29:-1 30:1 31:-1 
-2 1:-0.838986 2:0.013855 3:0.799905 4:-0.846951 5:0.792925 6:-0.163853 7:-0.339039 8:-0.554592 9:0.220732 10:0.956341 11:-0.61544 12:1 13:-1 14:-1 15:-1 16:-1 17:-1 18:-1 19:-1 20:-1 21:-1 22:-1 23:1 24:-1 25:-1 26:-1 27:-1 28:-1 29:-1 30:1 31:-1 
-2 1:-0.101972 2:0.435191 3:-0.801817 4:0.849053 5:0.912552 6:-0.109283 7:-0.447102 8:-0.0161694 9:0.317751 10:0.985681 11:-0.137534 12:1 13:-1 14:-1 15:-1 16:-1 17:-1 18:-1 19:-1 20:-1 21:-1 22:-1 23:-1 24:-1 25:-1 26:-1 27:1 28:-1 29:-1 30:1 31:-1 
-2 1:-0.101972 2:0.435191 3:-0.801817 4:0.849053 5:0.474911 6:-0.0874886 7:-0.640105 8:-0.0161694 9:0.193436 10:0.983303 11:-0.137534 12:1 13:-1 14:-1 15:-1 16:-1 17:-1 18:-1 19:-1 20:-1 21:-1 22:-1 23:-1 24:1 25:-1 26:-1 27:-1 28:-1 29:-1 30:1 31:-1 
-2 1:-0.101972 2:0.435191 3:-0.801817 4:0.849053 5:0.467861 6:-0.0874886 7:-0.640105 8:-0.0161694 9:0.121233 10:0.908851 11:-0.423245 12:1 13:-1 14:-1 15:-1 16:-1 17:-1 18:-1 19:-1 20:-1 21:1 22:-1 23:-1 24:-1 25:-1 26:-1 27:-1 28:-1 29:-1 30:-1 31:1 
-2 1:-0.401119 2:0.64098 3:0.38115 4:-0.664225 5:-0.263049 6:-0.113684 7:-0.200627 8:-0.632605 9:0.225695 10:0.970549 11:-0.149482 12:-1 13:-1 14:0.333333 15:-1 16:-1 17:-1 18:-1 19:-1 20:-1 21:-1 22:-1 23:-1 24:-1 25:1 26:-1 27:-1 28:-1 29:-1 30:1 31:-1 
-2 1:0.276238 2:0.930285 3:-0.470613 4:-0.26715 5:-0.873529 6:-0.221105 7:-0.142662 8:-0.111852 9:0.10074 10:0.9092 11:-0.497732 12:1 13:-1 14:-1 15:-1 16:-1 17:-1 18:-1 19:-1 20:-1 21:1 22:-1 23:-1 24:-1 25:-1 26:-1 27:-1 28:-1 29:-1 30:-1 31:1 
-2 1:-0.286767 2:-0.121281 3:0.112123 4:-0.732315 5:-0.915602 6:0.738573 7:-0.932892 8:-0.0571762 9:-0.190154 10:0.921083 11:-0.561745 12:-1 13:-1 14:0.333333 15:-1 16:-1 17:-1 18:-1 19:-1 20:-1 21:1 22:-1 23:-1 24:-1 25:-1 26:-1 27:-1 28:-1 29:-1 30:-1 31:1 
-2 1:-0.54159 2:0.967419 3:-0.671281 4:-0.636888 5:-0.935876 6:0.308997 7:-0.316042 8:-0.0185031 9:0.387392 10:0.995525 11:-0.242171 12:-1 13:-1 14:-1 15:-1 16:-1 17:-1 18:-1 19:-0.333333 20:-1 21:-1 22:-1 23:-1 24:1 25:-1 26:-1 27:-1 28:1 29:-1 30:-1 31:-1 
-2 1:-0.54159 2:0.967419 3:-0.671281 4:-0.636888 5:-0.990183 6:0.318588 7:-0.269371 8:-0.0185031 9:0.355373 10:0.99369 11:-0.242171 12:-1 13:-1 14:-1 15:-1 16:-1 17:-1 18:-1 19:-0.333333 20:-1 21:-1 22:-1 23:-1 24:1 25:-1 26:-1 27:-1 28:1 29:-1 30:-1 31:-1 
-2 1:-0.54159 2:0.967419 3:-0.671281 4:-0.636888 5:-0.992147 6:0.299183 7:-0.21678 8:-0.0185031 9:-0.214969 10:0.912973 11:-0.541706 12:-1 13:-1 14:-1 15:-1 16:-1 17:-1 18:-1 19:-0.333333 20:-1 21:-1 22:-1 23:-1 24:1 25:-1 26:-1 27:-1 28:1 29:-1 30:-1 31:-1 
-2 1:-0.54159 2:0.967419 3:-0.671281 4:-0.636888 5:-0.999298 6:0.290909 7:-0.284545 8:-0.0185031 9:-0.360897 10:0.966082 11:-0.541706 12:-1 13:-1 14:-1 15:-1 16:-1 17:-1 18:-1 19:-0.333333 20:-1 21:-1 22:-1 23:-1 24:1 25:-1 26:-1 27:-1 28:1 29:-1 30:-1 31:-1 
-2 1:0.934327 2:0.825661 3:-0.999345 4:-0.784373 5:-0.523053 6:0.149507 7:-0.329887 8:-0.148858 9:0.189033 10:0.680194 11:-0.630551 12:1 13:-1 14:-1 15:-1 16:-1 17:-1 18:-1 19:-1 20:-1 21:1 22:-1 23:-1 24:-1 25:-1 26:-1 27:-1 28:-1 29:-1 30:-1 31:1 
-2 1:0.126709 2:0.390293 3:-0.907481 4:-0.593441 5:0.680207 6:0.183197 7:-0.647731 8:-0.548258 9:0.641465 10:0.991029 11:0.141171 12:-1 13:-1 14:-1 15:-1 16:-1 17:-1 18:1 19:-1 20:-1 21:-1 22:-1 23:-1 24:-1 25:1 26:-1 27:-1 28:-1 29:1 30:-1 31:-1 
-2 1:0.537454 2:0.872714 3:-0.55005 4:-0.223144 5:-0.678785 6:-0.13533 7:0.664108 8:-0.575929 9:0.256194 10:0.947107 11:-0.336784 12:-1 13:-1 14:0.333333 15:-1 16:-1 17:-1 18:-1 19:-1 20:-1 21:-1 22:-1 23:-1 24:1 25:-1 26:-1 27:-1 28:-1 29:-1 30:1 31:-1 
-2 1:-0.693554 2:0.486102 3:-0.190149 4:-0.265014 5:-0.557521 6:-0.0261416 7:-0.559134 8:-0.383231 9:-0.0306984 10:0.95963 11:-0.214733 12:1 13:-1 14:-1 15:-1 16:-1 17:-1 18:-1 19:-1 20:-1 21:1 22:-1 23:-1 24:-1 25:-1 26:-1 27:-1 28:-1 29:-1 30:-1 31:1 
-2 1:-0.965759 2:-0.260404 3:0.576365 4:-0.401153 5:-0.0519012 6:0.217257 7:-0.466892 8:0.166861 9:-0.0663198 10:0.956757 11:-0.505749 12:-1 13:-1 14:1 15:-1 16:-1 17:-1 18:-1 19:-1 20:-1 21:1 22:-1 23:-1 24:-1 25:-1 26:-1 27:-1 28:-1 29:-1 30:-1 31:1 
-2 1:0.095742 2:0.456488 3:-0.792984 4:-0.477855 5:-0.998683 6:0.201916 7:-0.712568 8:-0.369562 9:-0.0535121 10:0.37413 11:-0.768225 12:-1 13:1 14:-1 15:-1 16:-1 17:-1 18:-1 19:-1 20:-1 21:-1 22:1 23:-1 24:-1 25:-1 26:-1 27:-1 28:-1 29:-1 30:-1 31:1 
-2 1:0.095742 2:0.456488 3:-0.792984 4:-0.477855 5:-0.554877 6:0.207263 7:-0.712144 8:-0.369562 9:-0.303982 10:0.59149 11:-0.806197 12:-1 13:1 14:-1 15:-1 16:-1 17:-1 18:-1 19:-1 20:-1 21:-1 22:1 23:-1 24:-1 25:-1 26:-1 27:-1 28:-1 29:-1 30:-1 31:1 
-2 1:0.60044 2:0.636047 3:-0.886679 4:-0.670508 5:0.572956 6:0.108978 7:-0.77345 8:-0.839307 9:0.790594 10:0.993398 11:0.569179 12:-1 13:-1 14:-1 15:-1 16:-1 17:-1 18:1 19:-1 20:-1 21:-1 22:-1 23:-1 24:-1 25:1 26:-1 27:-1 28:-1 29:1 30:-1 31:-1 
-2 1:0.18421 2:0.367719 3:-0.774746 4:-0.466281 5:0.263767 6:-0.0369306 7:-0.791932 8:-0.52292 9:0.215129 10:0.975065 11:-0.186251 12:1 13:-1 14:-1 15:-1 16:-1 17:-1 18:-1 19:-1 20:-1 21:-1 22:-1 23:-1 24:1 25:-1 26:-1 27:-1 28:-1 29:-1 30:1 31:-1 
-2 1:-0.573371 2:0.253515 3:0.746068 4:-0.168357 5:-1 6:0.0227873 7:-0.862789 8:-0.865311 9:0.356974 10:0.958288 11:-0.243289 12:-1 13:-1 14:-1 15:1 16:-1 17:-1 18:-1 19:-1 20:-1 21:-1 22:-1 23:-1 24:-1 25:1 26:-1 27:-1 28:-1 29:-1 30:1 31:-1 
-2 1:-0.28736 2:-0.714669 3:-0.286146 4:0.204706 5:0.937719 6:0.397336 7:-1 8:-0.0345058 9:0.259236 10:0.991853 11:-0.578507 12:-1 13:-1 14:-1 15:1 16:-1 17:-1 18:-1 19:-1 20:-1 21:-1 22:-1 23:-1 24:-1 25:1 26:-1 27:-1 28:-1 29:-1 30:1 31:-1 
-2 1:-0.0516929 2:0.597579 3:-0.240568 4:-0.710662 5:0.104533 6:-0.198414 7:-0.0171381 8:-0.0118353 9:-0.303182 10:0.999207 11:-0.392238 12:1 13:-1 14:-1 15:-1 16:-1 17:-1 18:-1 19:-1 20:-1 21:-1 22:1 23:-1 24:-1 25:-1 26:-1 27:-1 28:-1 29:-1 30:-1 31:1 
-2 1:-0.0516929 2:0.442738 3:-0.277618 4:-0.710662 5:-0.32508 6:-0.194345 7:-0.0171381 8:-0.0971829 9:-0.0339804 10:0.932357 11:-0.392238 12:-1 13:1 14:-1 15:-1 16:-1 17:-1 18:-1 19:-1 20:-1 21:1 22:-1 23:-1 24:-1 25:-1 26:-1 27:-1 28:-1 29:-1 30:-1 31:1 
-2 1:-0.295522 2:0.0510418 3:0.107124 4:-0.0972072 5:0.736045 6:-0.327473 7:0.418264 8:0.869312 9:0.593036 10:0.773782 11:-0.555653 12:-1 13:1 14:-1 15:-1 16:-1 17:-1 18:-1 19:-1 20:-1 21:-1 22:-1 23:-1 24:-1 25:1 26:-1 27:-1 28:-1 29:-1 30:1 31:-1 
-2 1:0.537823 2:0.341351 3:-0.977492 4:-0.40945 5:0.889788 6:0.0585284 7:-0.746207 8:0.00883481 9:0.109946 10:-0.354988 11:-0.487787 12:-1 13:-1 14:-1 15:-1 16:1 17:-1 18:-1 19:-1 20:-1 21:-1 22:-1 23:-1 24:-1 25:1 26:-1 27:-1 28:-1 29:1 30:-1 31:-1 
-2 1:0.293132 2:0.131263 3:-0.862735 4:-0.539669 5:-0.636531 6:0.17246 7:-0.752919 8:-0.175863 9:0.334561 10:0.988115 11:-0.0256516 12:1 13:-1 14:-1 15:-1 16:-1 17:-1 18:-1 19:-1 20:-1 21:-1 22:-1 23:-1 24:1 25:-1 26:-1 27:-1 28:-1 29:-1 30:1 31:-1 
-2 1:-0.215384 2:0.591462 3:-0.561996 4:-0.859792 5:-0.836868 6:0.0400818 7:-0.513239 8:-0.186198 9:0.142846 10:0.880251 11:-0.530314 12:1 13:-1 14:-1 15:-1 16:-1 17:-1 18:-1 19:-1 20:-1 21:1 22:-1 23:-1 24:-1 25:-1 26:-1 27:-1 28:-1 29:-1 30:-1 31:1 
-2 1:-0.215384 2:0.591462 3:-0.561996 4:-0.859792 5:-0.965899 6:0.0402016 7:-0.493493 8:-0.186198 9:-0.196718 10:0.947907 11:-0.57743 12:1 13:-1 14:-1 15:-1 16:-1 17:-1 18:-1 19:-1 20:-1 21:1 22:-1 23:-1 24:-1 25:-1 26:-1 27:-1 28:-1 29:-1 30:-1 31:1 
-2 1:0.663035 2:0.919859 3:-0.806238 4:-0.813459 5:-0.976087 6:-0.235182 7:-0.107338 8:0.941324 9:-0.289334 10:0.959738 11:-0.407495 12:-1 13:-1 14:-1 15:-1 16:-1 17:-1 18:-1 19:-0.333333 20:-1 21:-1 22:-1 23:-1 24:-1 25:-1 26:-1 27:1 28:1 29:-1 30:-1 31:-1 
-2 1:0.663035 2:0.919859 3:-0.806238 4:-0.813459 5:-0.995267 6:-0.236797 7:-0.105011 8:0.941324 9:-0.228337 10:0.970308 11:-0.254696 12:-1 13:-1 14:-1 15:-1 16:-1 17:-1 18:-1 19:-0.333333 20:-1 21:-1 22:-1 23:-1 24:-1 25:-1 26:-1 27:1 28:1 29:-1 30:-1 31:-1 
-2 1:0.273607 2:0.225614 3:-0.86445 4:-0.70608 5:0.776452 6:0.48066 7:-0.819797 8:-0.275879 9:-0.989994 10:-0.339817 11:-0.447437 12:-1 13:-1 14:-1 15:-1 16:-1 17:-1 18:1 19:-1 20:-1 21:-1 22:-1 23:-1 24:-1 25:1 26:-1 27:-1 28:-1 29:1 30:-1 31:-1 
-2 1:-0.0750581 2:0.671539 3:0.495097 4:-0.188733 5:-0.999881 6:0.278556 7:-0.893191 8:-0.354892 9:-0.365299 10:-0.405348 11:-0.392269 12:-1 13:-1 14:-1 15:-1 16:-1 17:1 18:-1 19:-1 20:-1 21:-1 22:-1 23:-1 24:1 25:-1 26:-1 27:-1 28:-1 29:1 30:-1 31:-1 
-2 1:0.230358 2:0.839351 3:-0.31867 4:-0.367513 5:-0.934602 6:-0.109156 7:-0.360896 8:-0.243541 9:0.262598 10:0.742958 11:-0.679234 12:-1 13:-1 14:1 15:-1 16:-1 17:-1 18:-1 19:-1 20:-1 21:-1 22:-1 23:-1 24:-1 25:1 26:-1 27:-1 28:-1 29:-1 30:1 31:-1 
-2 1:-0.717303 2:-0.818259 3:-0.268923 4:-0.893967 5:-1 6:0.197546 7:-0.331804 8:0.373896 9:0.504102 10:0.973245 11:-0.0760902 12:-1 13:-1 14:-1 15:1 16:-1 17:-1 18:-1 19:-1 20:-1 21:-1 22:-1 23:-1 24:-1 25:1 26:-1 27:-1 28:-1 29:-1 30:1 31:-1 
-2 1:-0.570037 2:0.633397 3:0.175419 4:-0.0701417 5:0.576799 6:-0.191438 7:-0.693469 8:0.165861 9:0.276446 10:0.994947 11:-0.138154 12:-1 13:1 14:-1 15:-1 16:-1 17:-1 18:-1 19:-1 20:-1 21:-1 22:-1 23:1 24:-1 25:-1 26:-1 27:-1 28:-1 29:-1 30:1 31:-1 
-2 1:0.488954 2:0.161792 3:-0.983724 4:-0.430918 5:0.00067212 6:0.670993 7:-0.632378 8:0.5986 9:-0.355773 10:0.912153 11:-0.648419 12:-1 13:-1 14:1 15:-1 16:-1 17:-1 18:-1 19:-1 20:-1 21:-1 22:1 23:-1 24:-1 25:-1 26:-1 27:-1 28:-1 29:-1 30:-1 31:1 
-2 1:0.605265 2:0.631768 3:-0.935558 4:-0.844379 5:-0.0527134 6:-0.042584 7:-0.0140455 8:-0.086181 9:0.229858 10:0.979379 11:-0.276193 12:1 13:-1 14:-1 15:-1 16:-1 17:-1 18:-1 19:-1 20:-1 21:-1 22:-1 23:-1 24:-1 25:1 26:-1 27:-1 28:-1 29:-1 30:1 31:-1 
-2 1:0.302805 2:0.249171 3:-0.844107 4:-0.930505 5:-0.636553 6:-0.144292 7:-0.241039 8:-0.107851 9:0.541485 10:0.867212 11:-0.403348 12:-1 13:-1 14:-1 15:-1 16:-1 17:-1 18:-1 19:-0.333333 20:-1 21:-1 22:-1 23:-1 24:-1 25:1 26:-1 27:-1 28:1 29:-1 30:-1 31:-1 
-2 1:-0.584811 2:0.0414601 3:0.124195 4:-0.691016 5:-0.691237 6:0.238874 7:-0.635379 8:-0.852309 9:-0.213288 10:0.895383 11:-0.586365 12:1 13:-1 14:-1 15:-1 16:-1 17:-1 18:-1 19:-1 20:-1 21:-1 22:1 23:-1 24:-1 25:-1 26:-1 27:-1 28:-1 29:-1 30:-1 31:1 
-2 1:-0.584811 2:0.709269 3:0.345443 4:-0.691016 5:-0.988432 6:0.278884 7:-0.93616 8:0.37823 9:0.123714 10:0.945195 11:-0.345744 12:-1 13:1 14:-1 15:-1 16:-1 17:-1 18:-1 19:-1 20:-1 21:-1 22:1 23:-1 24:-1 25:-1 26:-1 27:-1 28:-1 29:-1 30:-1 31:1 
-2 1:-0.584811 2:0.709269 3:0.345443 4:-0.691016 5:-0.939538 6:0.273584 7:-0.948557 8:0.37823 9:0.051591 10:0.952183 11:-0.345744 12:-1 13:1 14:-1 15:-1 16:-1 17:-1 18:-1 19:-1 20:-1 21:-1 22:1 23:-1 24:-1 25:-1 26:-1 27:-1 28:-1 29:-1 30:-1 31:1 
-2 1:0.241666 2:0.191098 3:-0.87554 4:-0.194667 5:-0.0791801 6:-0.0419131 7:-0.894205 8:-0.151525 9:0.0663998 10:0.83058 11:0.205972 12:-1 13:-1 14:-1 15:-1 16:-1 17:-1 18:1 19:-1 20:-1 21:-1 22:-1 23:-1 24:-1 25:1 26:-1 27:-1 28:-1 29:1 30:-1 31:-1 
-2 1:0.0144731 2:-0.989377 3:-0.925816 4:-0.538426 5:-0.725809 6:-0.241473 7:-0.652224 8:0.0851809 9:0.364419 10:0.98418 11:-0.34056 12:1 13:-1 14:-1 15:-1 16:-1 17:-1 18:-1 19:-1 20:-1 21:-1 22:-1 23:-1 24:-1 25:1 26:-1 27:-1 28:-1 29:-1 30:1 31:-1 
-2 1:-0.577751 2:0.614921 3:-0.479261 4:-0.274396 5:-0.995484 6:-0.0735916 7:-0.696937 8:0.750958 9:0.788113 10:-0.566879 11:-0.312936 12:-1 13:-1 14:-1 15:-1 16:-1 17:1 18:-1 19:-1 20:-1 21:-1 22:-1 23:-1 24:-1 25:-1 26:-0.333333 27:-1 28:-1 29:1 30:-1 31:-1 
-2 1:-0.672733 2:0.512724 3:-0.301524 4:-0.424287 5:-0.978928 6:0.289434 7:-0.672482 8:0.626604 9:-0.363938 10:0.974185 11:-0.436745 12:-1 13:-1 14:-1 15:1 16:-1 17:-1 18:-1 19:-1 20:-1 21:-1 22:1 23:-1 24:-1 25:-1 26:-1 27:-1 28:-1 29:-1 30:-1 31:1 
-2 1:-0.672733 2:0.512724 3:-0.301524 4:-0.424287 5:-0.998881 6:0.290279 7:-0.630667 8:0.626604 9:-0.387072 10:0.972049 11:-0.436745 12:-1 13:-1 14:-1 15:1 16:-1 17:-1 18:-1 19:-1 20:-1 21:-1 22:1 23:-1 24:-1 25:-1 26:-1 27:-1 28:-1 29:-1 30:-1 31:1 
-2 1:-0.672733 2:0.512724 3:-0.301524 4:-0.424287 5:-0.999759 6:0.287783 7:-0.620505 8:0.626604 9:-0.380668 10:0.971228 11:-0.436745 12:-1 13:-1 14:-1 15:1 16:-1 17:-1 18:-1 19:-1 20:-1 21:-1 22:1 23:-1 24:-1 25:-1 26:-1 27:-1 28:-1 29:-1 30:-1 31:1 
-2 1:-0.0430611 2:-0.794086 3:-0.838123 4:-0.101065 5:0.208013 6:0.11453 7:-0.714625 8:-0.312552 9:0.208725 10:0.970846 11:-0.187258 12:-1 13:-1 14:1 15:-1 16:-1 17:-1 18:-1 19:-1 20:-1 21:-1 22:-1 23:-1 24:1 25:-1 26:-1 27:-1 28:-1 29:-1 30:1 31:-1 
-2 1:-0.363994 2:-0.766967 3:0.0475336 4:-0.261896 5:-0.305402 6:-0.0227926 7:-0.13468 8:0.0468411 9:0.139244 10:0.928687 11:-0.493745 12:1 13:-1 14:-1 15:-1 16:-1 17:-1 18:-1 19:-1 20:-1 21:-1 22:-1 23:-1 24:-1 25:1 26:-1 27:-1 28:-1 29:-1 30:1 31:-1 
-2 1:-0.0625303 2:0.516515 3:-0.135246 4:-0.487633 5:-0.999805 6:0.230886 7:-0.514504 8:-0.455909 9:0.063278 10:0.556978 11:-0.705612 12:-1 13:-1 14:1 15:-1 16:-1 17:-1 18:-1 19:-1 20:-1 21:1 22:-1 23:-1 24:-1 25:-1 26:-1 27:-1 28:-1 29:-1 30:-1 31:1 
-2 1:-0.74462 2:-0.929823 3:-0.154552 4:-0.199968 5:-0.342485 6:-0.147928 7:0.202669 8:-0.884314 9:0.172784 10:0.904286 11:-0.539727 12:1 13:-1 14:-1 15:-1 16:-1 17:-1 18:-1 19:-1 20:-1 21:-1 22:-1 23:-1 24:1 25:-1 26:-1 27:-1 28:-1 29:-1 30:1 31:-1 
-2 1:-0.74462 2:-0.929823 3:-0.154552 4:-0.199968 5:-0.589633 6:-0.129798 7:0.294021 8:-0.884314 9:0.0934561 10:0.956115 11:-0.539727 12:1 13:-1 14:-1 15:-1 16:-1 17:-1 18:-1 19:-1 20:-1 21:-1 22:-1 23:-1 24:1 25:-1 26:-1 27:-1 28:-1 29:-1 30:1 31:-1 
-2 1:-0.74462 2:-0.929823 3:-0.154552 4:-0.199968 5:-0.830544 6:-0.130363 7:0.307197 8:-0.884314 9:0.0651991 10:0.954476 11:-0.539727 12:1 13:-1 14:-1 15:-1 16:-1 17:-1 18:-1 19:-1 20:-1 21:-1 22:-1 23:-1 24:1 25:-1 26:-1 27:-1 28:-1 29:-1 30:1 31:-1 
-2 1:-0.74462 2:-0.929823 3:-0.154552 4:-0.199968 5:-0.776712 6:-0.145557 7:0.245087 8:-0.884314 9:0.168621 10:0.902721 11:-0.539727 12:1 13:-1 14:-1 15:-1 16:-1 17:-1 18:-1 19:-1 20:-1 21:-1 22:-1 23:-1 24:1 25:-1 26:-1 27:-1 28:-1 29:-1 30:1 31:-1 
-2 1:-0.184182 2:0.0795497 3:0.586646 4:-0.642844 5:-0.348808 6:0.113557 7:-0.348929 8:0.231872 9:0.213368 10:0.854135 11:-0.630343 12:-1 13:-1 14:-1 15:1 16:-1 17:-1 18:-1 19:-1 20:-1 21:-1 22:-1 23:-1 24:-1 25:1 26:-1 27:-1 28:-1 29:-1 30:1 31:-1 
-2 1:-0.184182 2:0.0795497 3:0.586646 4:-0.793027 5:-0.360698 6:0.113557 7:-0.348929 8:0.231872 9:0.422534 10:0.879818 11:-0.630343 12:-1 13:-1 14:-1 15:1 16:-1 17:-1 18:-1 19:-1 20:-1 21:-1 22:-1 23:-1 24:-1 25:1 26:-1 27:-1 28:-1 29:-1 30:1 31:-1 
-2 1:-0.767736 2:-0.0708923 3:0.687547 4:-0.596662 5:-1 6:-0.211661 7:-0.266624 8:0.713619 9:-0.160857 10:0.982098 11:-0.160524 12:-1 13:-1 14:-1 15:1 16:-1 17:-1 18:-1 19:-1 20:-1 21:1 22:-1 23:-1 24:-1 25:-1 26:-1 27:-1 28:-1 29:-1 30:-1 31:1 
-2 1:-0.106529 2:0.365689 3:-0.210274 4:-0.120433 5:-0.792111 6:-0.0420374 7:-0.686514 8:-0.491915 9:0.0822493 10:0.979074 11:-0.0639572 12:1 13:-1 14:-1 15:-1 16:-1 17:-1 18:-1 19:-1 20:-1 21:1 22:-1 23:-1 24:-1 25:-1 26:-1 27:-1 28:-1 29:-1 30:-1 31:1 
-2 1:-0.398488 2:0.648218 3:0.677866 4:-0.637615 5:0.443467 6:-0.167813 7:-0.227222 8:-0.626938 9:0.222093 10:0.98142 11:-0.113972 12:-1 13:1 14:-1 15:-1 16:-1 17:-1 18:-1 19:-1 20:-1 21:-1 22:-1 23:1 24:-1 25:-1 26:-1 27:-1 28:-1 29:-1 30:1 31:-1 
-2 1:-0.33895 2:0.722344 3:-0.675333 4:-0.310363 5:0.29036 6:-0.0915268 7:-0.186344 8:-0.480247 9:0.302221 10:0.996774 11:-0.702603 12:-1 13:-1 14:-1 15:1 16:-1 17:-1 18:-1 19:-1 20:-1 21:-1 22:-1 23:-1 24:-1 25:1 26:-1 27:-1 28:-1 29:-1 30:1 31:-1 
-2 1:0.168805 2:-0.0831359 3:-0.896219 4:-0.902643 5:-1 6:0.0581008 7:-0.574724 8:0.00516753 9:0.174064 10:0.951653 11:-0.392227 12:1 13:-1 14:-1 15:-1 16:-1 17:-1 18:-1 19:-1 20:-1 21:-1 22:-1 23:-1 24:-1 25:1 26:-1 27:-1 28:-1 29:-1 30:1 31:-1 
-2 1:-0.196575 2:-0.193643 3:-0.409036 4:-0.695367 5:-0.0477325 6:0.685024 7:-0.322121 8:-0.392899 9:-0.0868121 10:0.945419 11:-0.532338 12:-1 13:-1 14:1 15:-1 16:-1 17:-1 18:-1 19:-1 20:-1 21:1 22:-1 23:-1 24:-1 25:-1 26:-1 27:-1 28:-1 29:-1 30:-1 31:1 
-2 1:-0.479007 2:0.581311 3:0.977335 4:0.066046 5:0.772718 6:0.0921163 7:-0.880929 8:-0.164194 9:-0.152852 10:0.257204 11:-0.280816 12:-1 13:-1 14:-1 15:-1 16:-1 17:-1 18:-1 19:-0.333333 20:-1 21:-1 22:-1 23:-1 24:1 25:-1 26:-1 27:-1 28:-1 29:1 30:-1 31:-1 
-2 1:-0.479007 2:0.581311 3:0.977335 4:0.066046 5:0.780875 6:0.0969306 7:-0.856618 8:-0.164194 9:-0.16742 10:-0.00499695 11:-0.392772 12:-1 13:-1 14:-1 15:-1 16:-1 17:-1 18:-1 19:-0.333333 20:-1 21:-1 22:-1 23:-1 24:1 25:-1 26:-1 27:-1 28:-1 29:1 30:-1 31:-1 
-2 1:0.606217 2:0.933326 3:-0.64456 4:-0.841669 5:0.341799 6:-0.0946846 7:0.181367 8:0.0151692 9:0.357615 10:0.861803 11:-0.569695 12:1 13:-1 14:-1 15:-1 16:-1 17:-1 18:-1 19:-1 20:-1 21:-1 22:-1 23:-1 24:-1 25:1 26:-1 27:-1 28:-1 29:-1 30:1 31:-1 
-2 1:-0.14896 2:0.586506 3:-0.582104 4:-0.849466 5:0.940765 6:0.191435 7:-0.893933 8:0.635939 9:0.479848 10:0.896284 11:-0.468309 12:-1 13:1 14:-1 15:-1 16:-1 17:-1 18:-1 19:-1 20:-1 21:-1 22:-1 23:-1 24:1 25:-1 26:-1 27:-1 28:-1 29:-1 30:1 31:-1 
-2 1:0.149828 2:0.765503 3:0.244539 4:-0.668933 5:-0.0174131 6:-0.434335 7:0.581341 8:-0.157526 9:0.275405 10:0.932838 11:-0.472243 12:1 13:-1 14:-1 15:-1 16:-1 17:-1 18:-1 19:-1 20:-1 21:-1 22:-1 23:-1 24:-1 25:1 26:-1 27:-1 28:-1 29:-1 30:1 31:-1 
-2 1:0.525698 2:0.682315 3:-0.809979 4:-0.25248 5:-0.643963 6:-0.164022 7:-0.48049 8:-0.28288 9:-0.640424 10:0.504813 11:-0.172847 12:-1 13:-1 14:-1 15:-1 16:-1 17:-1 18:1 19:-1 20:-1 21:-1 22:-1 23:-1 24:-1 25:1 26:-1 27:-1 28:-1 29:1 30:-1 31:-1 
-2 1:-0.124588 2:0.997708 3:0.361033 4:-0.552901 5:-0.549264 6:0.157837 7:-0.897735 8:0.0601767 9:0.28285 10:0.992698 11:-0.430135 12:1 13:-1 14:-1 15:-1 16:-1 17:-1 18:-1 19:-1 20:-1 21:-1 22:-1 23:-1 24:-1 25:1 26:-1 27:-1 28:-1 29:-1 30:1 31:-1 
-2 1:-0.634822 2:0.38406 3:-0.751499 4:-0.250486 5:0.805623 6:0.875066 7:-0.399287 8:-0.0315053 9:-0.290694 10:0.557564 11:-0.219208 12:-1 13:-1 14:-1 15:-1 16:-1 17:-1 18:-1 19:0.333333 20:-1 21:-1 22:-1 23:-1 24:-1 25:1 26:-1 27:-1 28:-1 29:1 30:-1 31:-1 
-2 1:0.089618 2:0.931693 3:-0.15296 4:-0.613944 5:0.808008 6:0.0504125 7:-1 8:-0.197866 9:0.206644 10:0.937835 11:-0.461307 12:1 13:-1 14:-1 15:-1 16:-1 17:-1 18:-1 19:-1 20:-1 21:-1 22:-1 23:-1 24:1 25:-1 26:-1 27:-1 28:-1 29:-1 30:1 31:-1 
-2 1:-0.407299 2:0.0934663 3:0.0722468 4:-0.876255 5:0.643429 6:0.360434 7:0.182978 8:-0.289882 9:0.272924 10:0.968716 11:-0.707831 12:-1 13:-1 14:0.333333 15:-1 16:-1 17:-1 18:-1 19:-1 20:-1 21:-1 22:-1 23:1 24:-1 25:-1 26:-1 27:-1 28:-1 29:-1 30:1 31:-1 
-2 1:-0.183197 2:0.0112023 3:-0.497126 4:-0.233472 5:0.531379 6:0.135249 7:-0.911526 8:0.212202 9:0.236102 10:0.991978 11:-0.258954 12:1 13:-1 14:-1 15:-1 16:-1 17:-1 18:-1 19:-1 20:-1 21:-1 22:-1 23:-1 24:1 25:-1 26:-1 27:-1 28:-1 29:-1 30:1 31:-1 
-2 1:-0.176502 2:-0.300339 3:-0.555517 4:-0.142754 5:-0.991692 6:-0.337878 7:-0.314219 8:0.0991832 9:0.0173304 10:0.981681 11:-0.429251 12:-1 13:-1 14:-1 15:1 16:-1 17:-1 18:-1 19:-1 20:-1 21:-1 22:-1 23:-1 24:-1 25:-1 26:0.333333 27:-1 28:-1 29:-1 30:1 31:-1 
-2 1:-0.176502 2:-0.300339 3:-0.555517 4:-0.142754 5:-1 6:-0.338205 7:-0.263349 8:0.0991832 9:0.00764459 10:0.986863 11:-0.429251 12:-1 13:-1 14:-1 15:1 16:-1 17:-1 18:-1 19:-1 20:-1 21:-1 22:-1 23:-1 24:-1 25:-1 26:0.333333 27:-1 28:-1 29:-1 30:1 31:-1 
-2 1:0.593868 2:0.643538 3:-0.98227 4:-0.842468 5:-0.218665 6:-0.166926 7:-0.613861 8:0.114852 9:0.301021 10:0.921252 11:-0.473769 12:-1 13:-1 14:-1 15:-1 16:-1 17:-1 18:1 19:-1 20:-1 21:-1 22:-1 23:-1 24:-1 25:1 26:-1 27:-1 28:1 29:-1 30:-1 31:-1 
-2 1:0.593868 2:0.460391 3:-0.964579 4:-0.702103 5:0.53664 6:0.00925095 7:-0.613861 8:0.588931 9:0.323434 10:0.822036 11:-0.473769 12:-1 13:-1 14:-1 15:-1 16:-1 17:-1 18:1 19:-1 20:-1 21:-1 22:-1 23:-1 24:-1 25:1 26:-1 27:-1 28:1 29:-1 30:-1 31:-1 
-2 1:-0.149923 2:-0.52244 3:-0.795875 4:-0.620188 5:0.410413 6:0.206459 7:-0.642374 8:-0.384564 9:0.237783 10:0.989968 11:-0.697287 12:1 13:-1 14:-1 15:-1 16:-1 17:-1 18:-1 19:-1 20:-1 21:-1 22:-1 23:1 24:-1 25:-1 26:-1 27:-1 28:-1 29:-1 30:1 31:-1 
-2 1:-0.348824 2:-0.732104 3:-0.364359 4:-0.711081 5:-1 6:0.129305 7:-0.529279 8:-0.473246 9:0.443266 10:0.937155 11:-0.272877 12:-1 13:1 14:-1 15:-1 16:-1 17:-1 18:-1 19:-1 20:-1 21:-1 22:-1 23:-1 24:-1 25:1 26:-1 27:-1 28:-1 29:-1 30:1 31:-1 
-2 1:-0.368182 2:0.349414 3:0.39008 4:0.0857045 5:-0.286971 6:0.0311923 7:-0.701319 8:-0.264211 9:-0.310066 10:-0.337524 11:-0.411462 12:-1 13:-1 14:-1 15:-1 16:1 17:-1 18:-1 19:-1 20:-1 21:-1 22:-1 23:-1 24:-1 25:-1 26:0.333333 27:-1 28:-1 29:1 30:-1 31:-1 
-2 1:-0.368182 2:0.546932 3:-0.0493029 4:-0.596837 5:-0.102022 6:0.0473755 7:-0.335359 8:0.375229 9:0.11731 10:0.979915 11:-0.430533 12:-1 13:-1 14:1 15:-1 16:-1 17:-1 18:-1 19:-1 20:-1 21:-1 22:-1 23:1 24:-1 25:-1 26:-1 27:-1 28:-1 29:-1 30:1 31:-1 
-2 1:-0.368182 2:0.6416 3:0.0980367 4:-0.596837 5:-0.102022 6:0.0560701 7:-0.301011 8:-0.650275 9:0.11731 10:0.979915 11:-0.430533 12:-1 13:-1 14:1 15:-1 16:-1 17:-1 18:-1 19:-1 20:-1 21:-1 22:-1 23:1 24:-1 25:-1 26:-1 27:-1 28:-1 29:-1 30:1 31:-1 
-2 1:0.295248 2:-0.117633 3:-0.975462 4:-0.482343 5:-0.497915 6:0.224251 7:-0.715058 8:0.0128355 9:-0.361857 10:0.921064 11:-0.630414 12:1 13:-1 14:-1 15:-1 16:-1 17:-1 18:-1 19:-1 20:-1 21:1 22:-1 23:-1 24:-1 25:-1 26:-1 27:-1 28:-1 29:-1 30:-1 31:1 
-2 1:0.0126706 2:0.170714 3:0.139203 4:-0.638015 5:-0.330059 6:0.0164643 7:0.208258 8:-0.0281714 9:0.397318 10:0.410055 11:-0.777272 12:1 13:-1 14:-1 15:-1 16:-1 17:-1 18:-1 19:-1 20:-1 21:-1 22:-1 23:-1 24:-1 25:1 26:-1 27:-1 28:-1 29:-1 30:1 31:-1 
-2 1:0.0126706 2:-0.00370636 3:-0.405263 4:-0.638015 5:0.128535 6:0.0109215 7:0.208258 8:-0.817636 9:-0.187032 10:0.959005 11:-0.777272 12:1 13:-1 14:-1 15:-1 16:-1 17:-1 18:-1 19:-1 20:-1 21:-1 22:-1 23:-1 24:-1 25:1 26:-1 27:-1 28:-1 29:-1 30:1 31:-1 
-2 1:0.355077 2:0.913173 3:-0.701581 4:-0.642098 5:0.52968 6:0.656432 7:-0.633449 8:-0.0405068 9:0.384591 10:0.774173 11:-0.616299 12:-1 13:-1 14:1 15:-1 16:-1 17:-1 18:-1 19:-1 20:-1 21:-1 22:-1 23:-1 24:-1 25:1 26:-1 27:-1 28:-1 29:-1 30:1 31:-1 
-2 1:0.110856 2:0.284424 3:-0.608259 4:-0.594107 5:-0.262241 6:0.420456 7:-0.923438 8:0.135189 9:0.353372 10:-0.775715 11:-0.359789 12:-1 13:-1 14:-1 15:-1 16:-1 17:-1 18:1 19:-1 20:-1 21:-1 22:-1 23:-1 24:1 25:-1 26:-1 27:-1 28:-1 29:1 30:-1 31:-1 
-2 1:-0.971132 2:-0.45001 3:-0.656541 4:-0.678661 5:0.265501 6:0.189514 7:-0.299912 8:-0.901317 9:0.226336 10:0.925064 11:-0.472826 12:-1 13:-1 14:0.333333 15:-1 16:-1 17:-1 18:-1 19:-1 20:-1 21:-1 22:-1 23:1 24:-1 25:-1 26:-1 27:-1 28:-1 29:-1 30:1 31:-1 
-2 1:0.340836 2:0.973754 3:-0.137722 4:-0.169805 5:0.0869335 6:-0.00971809 7:-0.683582 8:-0.0161694 9:0.29918 10:0.92862 11:-0.561153 12:1 13:-1 14:-1 15:-1 16:-1 17:-1 18:-1 19:-1 20:-1 21:-1 22:-1 23:-1 24:1 25:-1 26:-1 27:-1 28:-1 29:-1 30:1 31:-1 
-2 1:0.0334609 2:0.412656 3:-0.315489 4:-0.513873 5:-0.119097 6:-0.0823619 7:-0.0588557 8:-0.0805134 9:0.33416 10:0.780168 11:-0.657133 12:1 13:-1 14:-1 15:-1 16:-1 17:-1 18:-1 19:-1 20:-1 21:-1 22:-1 23:1 24:-1 25:-1 26:-1 27:-1 28:-1 29:-1 30:1 31:-1 
-2 1:0.162837 2:-0.204374 3:-0.95399 4:-0.80721 5:-0.243365 6:0.225738 7:-0.75373 8:-0.820637 9:0.240824 10:0.975496 11:0.427417 12:-1 13:-1 14:-1 15:-1 16:-1 17:1 18:-1 19:-1 20:-1 21:-1 22:-1 23:-1 24:-1 25:1 26:-1 27:-1 28:-1 29:1 30:-1 31:-1 
-2 1:-0.254244 2:0.628207 3:-0.754016 4:-0.885697 5:0.3829 6:0.741724 7:-0.366173 8:-0.100183 9:-0.169262 10:0.541296 11:-0.107045 12:-1 13:-1 14:-1 15:-1 16:-1 17:-1 18:-1 19:0.333333 20:-1 21:-1 22:-1 23:-1 24:1 25:-1 26:-1 27:-1 28:-1 29:1 30:-1 31:-1 
-2 1:-0.00856744 2:-0.829837 3:-0.901816 4:0.246395 5:0.694664 6:-0.259176 7:0.0193287 8:0.435906 9:0.263798 10:0.940842 11:-0.340602 12:-1 13:1 14:-1 15:-1 16:-1 17:-1 18:-1 19:-1 20:-1 21:-1 22:-1 23:1 24:-1 25:-1 26:-1 27:-1 28:-1 29:-1 30:1 31:-1 
-2 1:-0.251669 2:0.781703 3:0.0392063 4:-0.724589 5:0.754076 6:-0.0609984 7:-0.533456 8:0.67928 9:0.208485 10:0.979532 11:-0.10714 12:-1 13:-1 14:-1 15:1 16:-1 17:-1 18:-1 19:-1 20:-1 21:-1 22:-1 23:-1 24:-1 25:-1 26:-1 27:1 28:-1 29:-1 30:1 31:-1 
-2 1:0.677925 2:0.980106 3:-0.677621 4:-0.821887 5:-1 6:-0.0878972 7:-0.434857 8:-0.413569 9:-0.0753652 10:0.973537 11:-0.516648 12:-1 13:-1 14:-1 15:1 16:-1 17:-1 18:-1 19:-1 20:-1 21:-1 22:-1 23:-1 24:1 25:-1 26:-1 27:-1 28:-1 29:-1 30:1 31:-1 
-2 1:-0.0437552 2:0.632584 3:-0.138011 4:-0.117726 5:-0.909169 6:0.232166 7:-0.847966 8:0.0535089 9:-0.0158095 10:0.806036 11:-0.765485 12:1 13:-1 14:-1 15:-1 16:-1 17:-1 18:-1 19:-1 20:-1 21:1 22:-1 23:-1 24:-1 25:-1 26:-1 27:-1 28:-1 29:-1 30:-1 31:1 
-2 1:0.00583011 2:0.187416 3:-0.102003 4:0.0970233 5:0.316936 6:-0.162026 7:0.436964 8:-0.0345058 9:0.294136 10:0.904704 11:-0.674665 12:-1 13:-1 14:1 15:-1 16:-1 17:-1 18:-1 19:-1 20:-1 21:-1 22:-1 23:-1 24:-1 25:1 26:-1 27:-1 28:-1 29:-1 30:1 31:-1 
-2 1:0.00583011 2:0.428568 3:0.390582 4:0.0970233 5:0.316936 6:-0.182026 7:0.335151 8:-0.589598 9:0.294136 10:0.904704 11:-0.674665 12:-1 13:-1 14:1 15:-1 16:-1 17:-1 18:-1 19:-1 20:-1 21:-1 22:-1 23:-1 24:-1 25:1 26:-1 27:-1 28:-1 29:-1 30:1 31:-1 
-2 1:-0.0212185 2:0.0234705 3:-0.56601 4:0.0587114 5:-0.676328 6:0.144858 7:-0.66273 8:-0.260877 9:0.0196518 10:0.882275 11:0.255262 12:-1 13:-1 14:-1 15:-1 16:-1 17:-1 18:1 19:-1 20:-1 21:-1 22:-1 23:-1 24:-1 25:1 26:-1 27:-1 28:-1 29:1 30:-1 31:-1 
-2 1:0.153847 2:0.701279 3:-0.681246 4:-0.348655 5:-1 6:0.725745 7:-0.657909 8:0.649275 9:0.179027 10:0.415806 11:-0.148136 12:-1 13:-1 14:-1 15:-1 16:-1 17:-1 18:-1 19:-0.333333 20:-1 21:-1 22:-1 23:-1 24:1 25:-1 26:-1 27:-1 28:-1 29:1 30:-1 31:-1 
-2 1:-0.375112 2:-0.567797 3:-0.371983 4:-0.537318 5:0.334298 6:-0.224272 7:0.0493525 8:-0.323221 9:0.219772 10:0.956248 11:-0.281409 12:1 13:-1 14:-1 15:-1 16:-1 17:-1 18:-1 19:-1 20:-1 21:-1 22:-1 23:1 24:-1 25:-1 26:-1 27:-1 28:-1 29:-1 30:1 31:-1 
-2 1:0.265814 2:0.855107 3:-0.981747 4:-0.433318 5:-0.985453 6:-0.000897223 7:-0.334331 8:-0.0118353 9:-0.127156 10:0.980756 11:-0.391846 12:-1 13:-1 14:-1 15:1 16:-1 17:-1 18:-1 19:-1 20:-1 21:-1 22:1 23:-1 24:-1 25:-1 26:-1 27:-1 28:-1 29:-1 30:-1 31:1 
-2 1:0.266733 2:0.710229 3:0.269261 4:0.200115 5:-0.148688 6:-0.351397 7:-0.691867 8:0.0565094 9:0.374024 10:0.887877 11:-0.686232 12:1 13:-1 14:-1 15:-1 16:-1 17:-1 18:-1 19:-1 20:-1 21:-1 22:-1 23:-1 24:1 25:-1 26:-1 27:-1 28:-1 29:-1 30:1 31:-1 
-2 1:-0.151155 2:0.724648 3:-0.444013 4:-0.139784 5:0.124746 6:0.0163377 7:-0.876044 8:-0.18053 9:0.218891 10:0.944285 11:-0.377944 12:1 13:-1 14:-1 15:-1 16:-1 17:-1 18:-1 19:-1 20:-1 21:-1 22:-1 23:-1 24:-1 25:1 26:-1 27:-1 28:-1 29:-1 30:1 31:-1 
-2 1:-0.671485 2:0.199928 3:0.8705 4:-0.683824 5:-0.999263 6:-0.30907 7:0.0767267 8:-0.267878 9:0.337362 10:0.936797 11:-0.319736 12:1 13:-1 14:-1 15:-1 16:-1 17:-1 18:-1 19:-1 20:-1 21:-1 22:-1 23:-1 24:-1 25:1 26:-1 27:-1 28:-1 29:-1 30:1 31:-1 
-2 1:0.225454 2:0.593321 3:-0.833517 4:-0.440683 5:-0.999976 6:0.119873 7:-0.664838 8:0.98233 9:-0.2999 10:0.402871 11:-0.191436 12:-1 13:-1 14:-1 15:-1 16:-1 17:-1 18:1 19:-1 20:-1 21:-1 22:-1 23:-1 24:1 25:-1 26:-1 27:-1 28:-1 29:1 30:-1 31:-1 
-2 1:0.274681 2:0.864464 3:0.765389 4:-0.725789 5:-1 6:-0.227882 7:-0.336642 8:-0.822637 9:0.532359 10:0.88051 11:-0.603107 12:1 13:-1 14:-1 15:-1 16:-1 17:-1 18:-1 19:-1 20:-1 21:-1 22:-1 23:-1 24:-1 25:1 26:-1 27:-1 28:-1 29:-1 30:1 31:-1 
-2 1:-0.119885 2:0.44357 3:-0.31917 4:-0.406267 5:0.822102 6:0.27122 7:-0.393721 8:0.155193 9:0.144207 10:0.973853 11:-0.503983 12:-1 13:-1 14:0.333333 15:-1 16:-1 17:-1 18:-1 19:-1 20:-1 21:-1 22:-1 23:1 24:-1 25:-1 26:-1 27:-1 28:-1 29:-1 30:1 31:-1 
-2 1:-0.290092 2:0.482417 3:-0.0848159 4:0.134584 5:-0.861832 6:-0.177489 7:-0.673498 8:0.0341724 9:0.243626 10:0.948278 11:-0.332245 12:1 13:-1 14:-1 15:-1 16:-1 17:-1 18:-1 19:-1 20:-1 21:-1 22:-1 23:-1 24:-1 25:1 26:-1 27:-1 28:-1 29:-1 30:1 31:-1 
-2 1:-0.0183524 2:-0.0104259 3:-0.861201 4:-0.319537 5:-0.419799 6:0.0532495 7:-0.935697 8:-0.681947 9:-0.845347 10:0.974808 11:0.193993 12:-1 13:-1 14:-1 15:-1 16:-1 17:1 18:-1 19:-1 20:-1 21:-1 22:-1 23:-1 24:-1 25:1 26:-1 27:-1 28:-1 29:1 30:-1 31:-1 
-2 1:-0.394805 2:-0.543301 3:-0.722069 4:0.225596 5:-0.998547 6:0.388285 7:-0.28118 8:-0.0178363 9:0.277406 10:0.997767 11:0.0437572 12:-1 13:-1 14:0.333333 15:-1 16:-1 17:-1 18:-1 19:-1 20:-1 21:-1 22:-1 23:-1 24:-1 25:-1 26:0.333333 27:-1 28:-1 29:-1 30:1 31:-1 
-2 1:-0.107268 2:0.867723 3:0.0690275 4:-0.418477 5:-0.510043 6:0.0133213 7:-0.82489 8:0.799633 9:0.285251 10:0.930356 11:-0.488544 12:-1 13:-1 14:-1 15:1 16:-1 17:-1 18:-1 19:-1 20:-1 21:-1 22:-1 23:-1 24:1 25:-1 26:-1 27:-1 28:-1 29:-1 30:1 31:-1 
-2 1:-0.870382 2:0.159694 3:-0.556065 4:-0.553599 5:-0.815268 6:0.216129 7:-0.879442 8:0.118853 9:0.154453 10:0.97884 11:-0.149646 12:1 13:-1 14:-1 15:-1 16:-1 17:-1 18:-1 19:-1 20:-1 21:-1 22:-1 23:1 24:-1 25:-1 26:-1 27:-1 28:-1 29:-1 30:1 31:-1 
-2 1:0.565756 2:0.749334 3:-0.877266 4:-0.9154 5:-0.975155 6:-0.00974081 7:-0.61844 8:0.169195 9:0.435741 10:0.921284 11:-0.463246 12:-1 13:-1 14:-1 15:1 16:-1 17:-1 18:-1 19:-1 20:-1 21:-1 22:-1 23:1 24:-1 25:-1 26:-1 27:-1 28:-1 29:-1 30:1 31:-1 
-2 1:-0.846977 2:0.0964486 3:0.522889 4:0.0766585 5:-0.811826 6:-0.363599 7:-0.853405 8:0.0248375 9:0.230658 10:0.983629 11:0.0145659 12:-1 13:1 14:-1 15:-1 16:-1 17:-1 18:-1 19:-1 20:-1 21:-1 22:-1 23:-1 24:-1 25:-1 26:-0.333333 27:-1 28:-1 29:-1 30:1 31:-1 
-2 1:-0.385781 2:0.149179 3:0.916737 4:-0.114004 5:0.424153 6:0.0537645 7:-0.625914 8:-0.703617 9:0.213288 10:0.958653 11:0.352501 12:-1 13:-1 14:-1 15:-1 16:-1 17:-1 18:-1 19:-0.333333 20:-1 21:-1 22:-1 23:-1 24:1 25:-1 26:-1 27:-1 28:-1 29:1 30:-1 31:-1 
-2 1:-0.624814 2:0.0789119 3:0.239154 4:-0.931222 5:-0.15599 6:-0.116753 7:0.583556 8:0.288215 9:0.243866 10:0.985837 11:-0.0382612 12:1 13:-1 14:-1 15:-1 16:-1 17:-1 18:-1 19:-1 20:-1 21:-1 22:-1 23:-1 24:-1 25:1 26:-1 27:-1 28:-1 29:-1 30:1 31:-1 
-2 1:-0.619156 2:0.120843 3:-0.524833 4:-0.894594 5:-0.295287 6:0.478076 7:-0.543048 8:0.0791799 9:-0.562457 10:0.86526 11:0.00465718 12:-1 13:-1 14:-1 15:-1 16:-1 17:-1 18:-1 19:1 20:-1 21:-1 22:-1 23:-1 24:1 25:-1 26:-1 27:-1 28:-1 29:1 30:-1 31:-1 
-2 1:-0.619156 2:0.120843 3:-0.524833 4:-0.894594 5:-0.939198 6:0.484798 7:-0.599026 8:0.0791799 9:-0.480969 10:0.79292 11:0.00465718 12:-1 13:-1 14:-1 15:-1 16:-1 17:-1 18:-1 19:1 20:-1 21:-1 22:-1 23:-1 24:1 25:-1 26:-1 27:-1 28:-1 29:1 30:-1 31:-1 
-2 1:-0.619156 2:0.120843 3:-0.524833 4:-0.894594 5:0.358134 6:0.479804 7:-0.537672 8:0.0791799 9:0.00548329 10:0.743868 11:0.00465718 12:-1 13:-1 14:-1 15:-1 16:-1 17:-1 18:-1 19:1 20:-1 21:-1 22:-1 23:-1 24:1 25:-1 26:-1 27:-1 28:-1 29:1 30:-1 31:-1 
-2 1:-0.801815 2:0.355178 3:-0.0683685 4:-0.894594 5:-0.971753 6:0.376516 7:-0.682188 8:0.0791799 9:0.675005 10:0.920942 11:0.356997 12:-1 13:-1 14:-1 15:-1 16:-1 17:-1 18:-1 19:1 20:-1 21:-1 22:-1 23:-1 24:1 25:-1 26:-1 27:-1 28:-1 29:1 30:-1 31:-1 
-2 1:-0.801815 2:0.355178 3:-0.0683685 4:-0.894594 5:-0.291894 6:0.363884 7:-0.620834 8:0.0791799 9:0.985351 10:0.878344 11:0.356997 12:-1 13:-1 14:-1 15:-1 16:-1 17:-1 18:-1 19:1 20:-1 21:-1 22:-1 23:-1 24:1 25:-1 26:-1 27:-1 28:-1 29:1 30:-1 31:-1 
-2 1:-0.639139 2:0.465093 3:-0.129296 4:-0.345636 5:-1 6:0.630626 7:-0.339452 8:0.0215036 9:0.0864118 10:0.971197 11:-0.509508 12:-1 13:-1 14:1 15:-1 16:-1 17:-1 18:-1 19:-1 20:-1 21:-1 22:-1 23:-1 24:-1 25:1 26:-1 27:-1 28:-1 29:-1 30:1 31:-1 
