svm_type c_svc
kernel_type rbf
gamma 3.05176e-05
nr_class 2
total_sv 2419
rho 15.1792
label 1 -1
probA -1.1504
probB 2.86452
nr_sv 136 2283
SV
9216 1:-0.826871 2:0.384166 3:-0.92974 4:-0.297806 5:-0.829933 6:-0.328178 7:-0.464863 8:0.22122 9:0.995309 10:0.093671 11:0.431156 12:0.692993 13:-0.652148 14:-0.162345 15:-0.888095 16:-1 17:-1 18:-1 19:-1 20:-1 21:1 22:-1 23:-1 24:-1 25:-1 26:-1 27:-1 28:-1 29:-1 30:1 31:-1 32:-1 33:-1 34:-1 35:-1 36:1 37:-1 38:-1 39:-1 40:1 41:-1 
9216 1:0.917374 2:0.806278 3:-0.992131 4:-0.375151 5:-1 6:-0.127373 7:-0.929128 8:0.260809 9:0.922958 10:-0.421101 11:0.198287 12:0.96711 13:-0.223286 14:0.190349 15:0.099482 16:-1 17:-1 18:-1 19:-1 20:-1 21:-1 22:1 23:-1 24:-1 25:-1 26:-1 27:-1 28:-1 29:1 30:-1 31:-1 32:-1 33:-1 34:-1 35:-1 36:1 37:-1 38:-1 39:-1 40:1 41:-1 
9216 1:0.0230874 2:0.645196 3:-0.778881 4:0.04904 5:-0.746274 6:-0.338282 7:-0.601503 8:0.108306 9:0.961423 10:-0.315603 11:-0.202289 12:0.9412 13:-0.366048 14:0.0390231 15:-0.722804 16:-1 17:-1 18:-1 19:-1 20:1 21:-1 22:-1 23:-1 24:-1 25:-1 26:1 27:-1 28:-1 29:-1 30:-1 31:-1 32:-1 33:-1 34:-1 35:-1 36:1 37:-1 38:-1 39:-1 40:-1 41:1 
9216 1:-0.11384 2:0.557949 3:-0.653919 4:-0.448202 5:-1 6:-0.0552053 7:-0.888233 8:0.263213 9:0.931816 10:-0.502074 11:0.317323 12:0.899066 13:-0.48292 14:0.0135477 15:0.513298 16:-1 17:-1 18:-1 19:-1 20:1 21:-1 22:-1 23:-1 24:-1 25:-1 26:-1 27:-1 28:-1 29:-1 30:-1 31:1 32:-1 33:-1 34:-1 35:-1 36:1 37:-1 38:-1 39:-1 40:1 41:-1 
9216 1:0.663569 2:0.584296 3:-0.991778 4:-0.555051 5:0.722725 6:-0.313295 7:-0.70566 8:0.284209 9:0.950095 10:-0.309082 11:0.205652 12:0.997147 13:-0.00107281 14:-0.280597 15:-0.202878 16:-1 17:-1 18:-1 19:-1 20:1 21:-1 22:-1 23:-1 24:-1 25:-1 26:-1 27:-1 28:-1 29:1 30:-1 31:-1 32:-1 33:-1 34:-1 35:-1 36:1 37:-1 38:-1 39:-1 40:1 41:-1 
9216 1:-0.780814 2:0.446362 3:-0.747062 4:0.0779686 5:-0.999987 6:-0.357054 7:-0.493638 8:0.279641 9:0.959722 10:-0.442726 11:0.200608 12:0.994101 13:-0.630814 14:-0.0494263 15:-0.991959 16:-1 17:-1 18:-1 19:-1 20:-1 21:1 22:-1 23:-1 24:-1 25:-1 26:-1 27:-1 28:-1 29:1 30:-1 31:-1 32:-1 33:-1 34:-1 35:-1 36:1 37:-1 38:-1 39:-1 40:1 41:-1 
9216 1:-0.55025 2:0.760197 3:-0.0807956 4:-0.145056 5:-0.729085 6:-0.444247 7:-0.413715 8:-0.18011 9:0.967772 10:-0.616928 11:0.160983 12:0.9758 13:-0.384944 14:0.0615436 15:-0.520767 16:1 17:-1 18:-1 19:-1 20:-1 21:-1 22:-1 23:-1 24:-1 25:-1 26:-1 27:-1 28:-1 29:1 30:-1 31:-1 32:-1 33:-1 34:-1 35:-1 36:-1 37:1 38:-1 39:-1 40:1 41:-1 
9216 1:0.558953 2:0.733391 3:-0.837585 4:-0.841329 5:0.28938 6:-0.200991 7:-0.661439 8:0.275714 9:0.925033 10:-0.402871 11:0.269613 12:0.874967 13:-0.627311 14:0.0683903 15:-0.0315627 16:-1 17:-1 18:-1 19:-1 20:1 21:-1 22:-1 23:-1 24:-1 25:-1 26:-1 27:-1 28:-1 29:-1 30:1 31:-1 32:-1 33:-1 34:-1 35:-1 36:1 37:-1 38:-1 39:-1 40:1 41:-1 
9216 1:-0.689555 2:0.752585 3:-0.23666 4:-0.0213813 5:0.935263 6:-0.430269 7:-0.309368 8:-0.145811 9:0.947084 10:-0.417331 11:0.228786 12:0.987453 13:-0.271745 14:-0.218592 15:-0.0406663 16:1 17:-1 18:-1 19:-1 20:-1 21:-1 22:-1 23:-1 24:-1 25:-1 26:-1 27:-1 28:-1 29:-1 30:1 31:-1 32:-1 33:-1 34:-1 35:-1 36:-1 37:1 38:-1 39:-1 40:1 41:-1 
9216 1:-0.450852 2:0.760044 3:-0.904889 4:-0.539546 5:-0.999996 6:-0.446016 7:-0.596664 8:0.254237 9:0.980324 10:-0.406584 11:0.147534 12:0.933951 13:-0.417881 14:0.302128 15:0.798655 16:-1 17:-1 18:-1 19:-1 20:-1 21:1 22:-1 23:-1 24:-1 25:-1 26:-1 27:-1 28:-1 29:1 30:-1 31:-1 32:-1 33:-1 34:-1 35:-1 36:1 37:-1 38:-1 39:-1 40:1 41:-1 
6090.173479786249 1:-0.186621 2:0.601244 3:-0.877255 4:-0.256161 5:0.624277 6:-0.0893363 7:-0.95245 8:0.311536 9:0.961015 10:-0.120919 11:0.248239 12:0.993253 13:-0.670122 14:-0.445439 15:0.0101168 16:-1 17:-1 18:-1 19:-1 20:-1 21:-1 22:1 23:-1 24:-1 25:-1 26:-1 27:-1 28:-1 29:1 30:-1 31:-1 32:-1 33:-1 34:-1 35:-1 36:1 37:-1 38:-1 39:-1 40:1 41:-1 
9216 1:-0.0685461 2:0.699167 3:-0.478548 4:-0.0960936 5:-1 6:0.111709 7:-0.776047 8:0.239732 9:0.969521 10:-0.246481 11:-0.10975 12:0.608401 13:-0.708637 14:-0.414288 15:0.197458 16:-1 17:-1 18:-1 19:-1 20:-1 21:-1 22:-1 23:-0.333333 24:-1 25:1 26:-1 27:-1 28:-1 29:-1 30:-1 31:-1 32:-1 33:-1 34:-1 35:-1 36:1 37:-1 38:-1 39:-1 40:-1 41:1 
5178.11085943756 1:0.421677 2:0.522666 3:-0.82912 4:-0.27443 5:-0.722487 6:-0.142535 7:-0.819934 8:0.224747 9:0.915048 10:-0.567447 11:0.345821 12:0.998903 13:-0.204068 14:-0.218463 15:-0.870727 16:-1 17:-1 18:-1 19:-1 20:1 21:-1 22:-1 23:-1 24:-1 25:-1 26:-1 27:-1 28:1 29:-1 30:-1 31:-1 32:-1 33:-1 34:-1 35:-1 36:1 37:-1 38:-1 39:-1 40:1 41:-1 
9216 1:-0.377966 2:0.327261 3:-0.735257 4:-0.565164 5:-0.994921 6:-0.120306 7:-0.772257 8:0.185719 9:0.978746 10:-0.123681 11:0.21846 12:0.931016 13:-0.562558 14:-0.336888 15:-0.993013 16:-1 17:-1 18:-1 19:-1 20:1 21:-1 22:-1 23:-1 24:-1 25:-1 26:-1 27:-1 28:-1 29:1 30:-1 31:-1 32:-1 33:-1 34:-1 35:-1 36:1 37:-1 38:-1 39:-1 40:1 41:-1 
9216 1:-0.306975 2:0.579669 3:-0.573213 4:-0.563827 5:-0.955965 6:0.0468155 7:-0.882737 8:0.24446 9:0.971291 10:-0.606526 11:0.176193 12:0.920948 13:-0.518122 14:-0.229227 15:-0.915367 16:-1 17:-1 18:-1 19:-1 20:-1 21:-1 22:1 23:-1 24:-1 25:-1 26:-1 27:-1 28:1 29:-1 30:-1 31:-1 32:-1 33:-1 34:-1 35:-1 36:1 37:-1 38:-1 39:-1 40:1 41:-1 
9216 1:-0.211308 2:0.614372 3:-0.426673 4:-0.459185 5:-0.997755 6:-0.185582 7:-0.928193 8:0.216092 9:0.976274 10:-0.680563 11:0.196766 12:0.998588 13:0.0158008 14:0.0545715 15:-0.998463 16:-1 17:-1 18:-1 19:-1 20:-1 21:-1 22:1 23:-1 24:-1 25:-1 26:-1 27:-1 28:-1 29:1 30:-1 31:-1 32:-1 33:-1 34:-1 35:-1 36:1 37:-1 38:-1 39:-1 40:1 41:-1 
9216 1:0.11901 2:0.242378 3:-0.584898 4:-0.453248 5:-0.753406 6:0.120064 7:-0.943217 8:0.218656 9:0.587828 10:-0.767644 11:0.0120877 12:0.589892 13:-0.724913 14:-0.258654 15:-0.869005 16:-1 17:-1 18:-1 19:1 20:-1 21:-1 22:-1 23:-1 24:-1 25:1 26:-1 27:-1 28:-1 29:-1 30:-1 31:-1 32:-1 33:-1 34:-1 35:-1 36:1 37:-1 38:-1 39:-1 40:-1 41:1 
6495.343654726448 1:0.694125 2:0.793626 3:-0.899519 4:0.143181 5:0.750342 6:-0.325969 7:-0.479046 8:0.336218 9:0.902056 10:-0.468075 11:0.313801 12:0.935254 13:-0.325594 14:-0.00139284 15:0.22338 16:-1 17:-1 18:-1 19:-1 20:1 21:-1 22:-1 23:-1 24:-1 25:-1 26:-1 27:-1 28:1 29:-1 30:-1 31:-1 32:-1 33:-1 34:-1 35:-1 36:1 37:-1 38:-1 39:-1 40:1 41:-1 
9216 1:-0.263378 2:0.459389 3:-0.62301 4:-0.216556 5:-0.5815 6:-0.323507 7:-0.37299 8:0.0352206 9:0.967144 10:-0.50473 11:0.213176 12:0.982501 13:0.0165988 14:0.291073 15:-0.543316 16:-1 17:-1 18:-1 19:1 20:-1 21:-1 22:-1 23:-1 24:-1 25:-1 26:-1 27:-1 28:1 29:-1 30:-1 31:-1 32:-1 33:-1 34:-1 35:-1 36:1 37:-1 38:-1 39:-1 40:1 41:-1 
9216 1:0.113175 2:0.356437 3:-0.675289 4:-0.399947 5:0.225206 6:-0.044572 7:-0.815013 8:0.265136 9:0.862546 10:-0.691199 11:0.298671 12:0.934884 13:-0.294478 14:-0.487851 15:0.126963 16:-1 17:-1 18:-1 19:-1 20:-1 21:1 22:-1 23:-1 24:-1 25:-1 26:-1 27:-1 28:1 29:-1 30:-1 31:-1 32:-1 33:-1 34:-1 35:-1 36:1 37:-1 38:-1 39:-1 40:1 41:-1 
2057.708856257802 1:0.338063 2:0.681146 3:-0.830365 4:-0.35453 5:-0.633689 6:-0.185951 7:-0.823861 8:0.259046 9:0.982201 10:-0.13666 11:0.248959 12:0.954862 13:-0.276362 14:0.0511623 15:-0.553546 16:-1 17:-1 18:-1 19:-1 20:-1 21:1 22:-1 23:-1 24:-1 25:-1 26:-1 27:-1 28:-1 29:-1 30:-1 31:-1 32:0.333333 33:-1 34:-1 35:-1 36:1 37:-1 38:-1 39:-1 40:1 41:-1 
9216 1:0.0927307 2:0.752438 3:-0.1329 4:0.141035 5:-0.737142 6:-0.339436 7:-0.632867 8:0.247826 9:0.974382 10:-0.437321 11:0.283702 12:0.943502 13:-0.313472 14:-0.278022 15:0.388856 16:-1 17:-1 18:-1 19:-1 20:-1 21:1 22:-1 23:-1 24:-1 25:-1 26:-1 27:-1 28:1 29:-1 30:-1 31:-1 32:-1 33:-1 34:-1 35:-1 36:1 37:-1 38:-1 39:-1 40:1 41:-1 
9216 1:0.438169 2:0.667015 3:-0.972092 4:-0.5805 5:-0.981528 6:-0.0865817 7:-0.860341 8:0.243819 9:0.993264 10:0.0997478 11:0.102546 12:0.976232 13:-0.349954 14:0.0904502 15:-0.948908 16:-1 17:-1 18:-1 19:-1 20:-1 21:1 22:-1 23:-1 24:-1 25:-1 26:-1 27:-1 28:-1 29:-1 30:-1 31:-1 32:0.333333 33:-1 34:-1 35:-1 36:1 37:-1 38:-1 39:-1 40:1 41:-1 
3693.659127526781 1:0.546586 2:0.361863 3:-0.969222 4:0.180337 5:-0.891657 6:-0.188018 7:-0.77385 8:0.351444 9:0.932585 10:-0.361063 11:0.217739 12:0.974001 13:-0.200528 14:-0.0441934 15:-0.994648 16:-1 17:-1 18:-1 19:-1 20:-1 21:1 22:-1 23:-1 24:-1 25:-1 26:-1 27:-1 28:-1 29:1 30:-1 31:-1 32:-1 33:-1 34:-1 35:-1 36:1 37:-1 38:-1 39:-1 40:1 41:-1 
5979.155251691056 1:-0.67659 2:0.696627 3:-0.771557 4:0.1709 5:-0.250885 6:0.520925 7:-0.829621 8:0.23228 9:0.987148 10:0.0701783 11:0.170989 12:0.965002 13:-0.121131 14:-0.104103 15:-0.282731 16:-1 17:-1 18:-1 19:-1 20:-1 21:-1 22:-1 23:1 24:-1 25:-1 26:-1 27:-1 28:-1 29:-1 30:-1 31:1 32:-1 33:-1 34:-1 35:-1 36:1 37:-1 38:-1 39:-1 40:1 41:-1 
9216 1:-0.405419 2:0.498766 3:0.244204 4:-0.663858 5:-0.970263 6:-0.0511014 7:-0.858422 8:0.186922 9:0.991258 10:-0.360812 11:0.384406 12:0.780952 13:-0.548492 14:0.104548 15:-0.496752 16:-1 17:-1 18:-1 19:-1 20:1 21:-1 22:-1 23:-1 24:-1 25:-1 26:-1 27:-1 28:-1 29:-1 30:1 31:-1 32:-1 33:-1 34:-1 35:-1 36:1 37:-1 38:-1 39:-1 40:1 41:-1 
9216 1:0.150926 2:0.38016 3:-0.864549 4:-0.389597 5:0.424625 6:-0.0496276 7:-0.703591 8:0.175302 9:0.94323 10:-0.433335 11:0.278658 12:0.68068 13:-0.684881 14:-0.125188 15:-0.799093 16:-1 17:-1 18:-1 19:-1 20:-1 21:1 22:-1 23:-1 24:-1 25:-1 26:-1 27:-1 28:-1 29:-1 30:1 31:-1 32:-1 33:-1 34:-1 35:-1 36:1 37:-1 38:-1 39:-1 40:1 41:-1 
8799.826789402046 1:-0.322293 2:0.63069 3:-0.57753 4:-0.211217 5:0.512962 6:-0.0790301 7:-1 8:0.230196 9:0.967392 10:-0.181276 11:0.239033 12:0.999493 13:-0.0165819 14:0.270288 15:0.247067 16:-1 17:-1 18:-1 19:-1 20:-1 21:-1 22:-1 23:-1 24:1 25:-1 26:-1 27:-1 28:-1 29:-1 30:-1 31:1 32:-1 33:-1 34:-1 35:-1 36:1 37:-1 38:-1 39:-1 40:1 41:-1 
9216 1:0.604758 2:0.387439 3:-0.985267 4:-0.901082 5:-0.768301 6:0.145495 7:-0.948387 8:0.176824 9:0.975496 10:-0.306998 11:-0.115514 12:0.97769 13:-0.566951 14:-0.358333 15:0.25722 16:-1 17:-1 18:-1 19:1 20:-1 21:-1 22:-1 23:-1 24:-1 25:-1 26:-1 27:-1 28:1 29:-1 30:-1 31:-1 32:-1 33:-1 34:-1 35:-1 36:1 37:-1 38:-1 39:-1 40:1 41:-1 
8254.408777782546 1:0.405475 2:0.429502 3:-0.943699 4:-0.813392 5:-0.079965 6:-0.0454273 7:-0.691805 8:0.183876 9:0.949383 10:-0.362714 11:-0.0236952 12:0.786506 13:-0.581335 14:0.669208 15:-0.771557 16:-1 17:-1 18:-1 19:-1 20:-1 21:1 22:-1 23:-1 24:-1 25:1 26:-1 27:-1 28:-1 29:-1 30:-1 31:-1 32:-1 33:-1 34:-1 35:-1 36:1 37:-1 38:-1 39:-1 40:-1 41:1 
9216 1:-0.129403 2:0.372935 3:-0.560462 4:-0.0277088 5:-0.997971 6:-0.0787153 7:-0.831912 8:0.198622 9:0.951524 10:-0.354821 11:0.212376 12:0.962761 13:-0.432753 14:-0.0126672 15:-0.99851 16:-1 17:-1 18:-1 19:-1 20:-1 21:-1 22:1 23:-1 24:-1 25:-1 26:-1 27:-1 28:-1 29:-1 30:1 31:-1 32:-1 33:-1 34:-1 35:-1 36:1 37:-1 38:-1 39:-1 40:1 41:-1 
9216 1:-0.862765 2:0.322733 3:-0.81214 4:-0.189859 5:-0.97476 6:0.00711849 7:-0.728215 8:0.319389 9:0.949239 10:-0.411869 11:0.239353 12:0.844323 13:-0.54491 14:0.108026 15:0.0869085 16:-1 17:-1 18:-1 19:-1 20:1 21:-1 22:-1 23:-1 24:-1 25:-1 26:-1 27:-1 28:-1 29:1 30:-1 31:-1 32:-1 33:-1 34:-1 35:-1 36:1 37:-1 38:-1 39:-1 40:1 41:-1 
9216 1:0.258947 2:0.559359 3:-0.797327 4:-0.460914 5:-0.975949 6:-1 7:-0.295405 8:0.161277 9:0.975354 10:-0.661531 11:0.209174 12:0.996059 13:-0.147849 14:0.127717 15:-0.995048 16:-1 17:-1 18:-1 19:1 20:-1 21:-1 22:-1 23:-1 24:-1 25:-1 26:-1 27:-1 28:1 29:-1 30:-1 31:-1 32:-1 33:-1 34:-1 35:-1 36:1 37:-1 38:-1 39:-1 40:1 41:-1 
9216 1:0.560905 2:0.65938 3:-0.909887 4:-0.254177 5:-0.99169 6:-0.0230154 7:-0.736713 8:0.298874 9:0.957291 10:-0.226593 11:0.274656 12:0.851827 13:-0.539634 14:0.359389 15:-0.994162 16:-1 17:-1 18:-1 19:-1 20:-1 21:-1 22:1 23:-1 24:-1 25:-1 26:-1 27:-1 28:-1 29:-1 30:1 31:-1 32:-1 33:-1 34:-1 35:-1 36:1 37:-1 38:-1 39:-1 40:1 41:-1 
9216 1:0.321466 2:0.502088 3:-0.815442 4:0.363672 5:-0.999754 6:0.458203 7:-0.787793 8:0.13932 9:0.94128 10:-0.643114 11:0.294749 12:0.721521 13:-0.628648 14:-0.290133 15:-0.820422 16:-1 17:-1 18:-1 19:-1 20:-1 21:-1 22:-1 23:-0.333333 24:-1 25:-1 26:-1 27:-1 28:-1 29:1 30:-1 31:-1 32:-1 33:-1 34:-1 35:-1 36:1 37:-1 38:-1 39:-1 40:1 41:-1 
867.2304119251297 1:-0.200975 2:0.648313 3:-0.853606 4:0.353326 5:-0.158876 6:0.730901 7:-0.819072 8:-0.130104 9:0.99627 10:0.0567547 11:0.256244 12:0.91819 13:-0.359743 14:-0.0110252 15:-0.800477 16:-1 17:-1 19:-1 20:-1 21:-1 22:-1 23:-1 24:-1 25:-1 26:-1 27:-1 28:-1 29:-1 30:-1 31:1 32:-1 33:-1 34:-1 35:-1 36:-1 37:1 38:-1 39:-1 40:1 41:-1 
9216 1:0.253206 2:0.774947 3:-0.635044 4:-0.713556 5:-0.530429 6:-0.273072 7:-0.797729 8:0.213768 9:0.988394 10:-0.220596 11:0.255764 12:0.984481 13:-0.253781 14:-0.567501 15:0.0843761 16:-1 17:-1 18:-1 19:1 20:-1 21:-1 22:-1 23:-1 24:-1 25:-1 26:-1 27:-1 28:-1 29:-1 30:-1 31:-1 32:-0.333333 33:-1 34:-1 35:-1 36:1 37:-1 38:-1 39:-1 40:1 41:-1 
2919.60689210723 1:-0.613555 2:0.204701 3:-0.716446 4:0.256122 5:0.864976 6:0.020633 7:-1 8:-0.210001 9:0.983834 10:-0.139365 11:0.283381 12:0.630514 13:-0.679134 14:-0.447566 15:0.168821 16:-1 17:1 18:-1 19:-1 20:-1 21:-1 22:-1 23:-1 24:-1 25:-1 26:-1 27:-1 28:-1 29:-1 30:-1 31:-1 32:-1 33:1 34:-1 35:-1 36:-1 37:1 38:-1 39:-1 40:1 41:-1 
9216 1:-0.608087 2:0.290556 3:0.874854 4:-0.263802 5:0.15241 6:-0.0477905 7:-0.397237 8:0.217053 9:0.824278 10:-0.656594 11:0.243996 12:0.924054 13:-0.35099 14:0.194755 15:-0.6538 16:-1 17:-1 18:-1 19:-1 20:-1 21:-1 22:-1 23:-0.333333 24:-1 25:-1 26:-1 27:-1 28:1 29:-1 30:-1 31:-1 32:-1 33:-1 34:-1 35:-1 36:1 37:-1 38:-1 39:-1 40:1 41:-1 
9216 1:-0.524494 2:0.794653 3:0.21835 4:0.448339 5:-0.169333 6:-0.496862 7:-0.54528 8:0.275634 9:0.981867 10:-0.191345 11:0.298831 12:0.901018 13:-0.450005 14:-0.327487 15:-0.530117 16:-1 17:-1 18:-1 19:-1 20:1 21:-1 22:-1 23:-1 24:-1 25:-1 26:-1 27:-1 28:-1 29:1 30:-1 31:-1 32:-1 33:-1 34:-1 35:-1 36:1 37:-1 38:-1 39:-1 40:1 41:-1 
9216 1:-0.215039 2:0.66138 3:0.446625 4:-0.461263 5:-0.953955 6:-0.0298581 7:-1 8:-0.155908 9:0.777965 10:-0.763766 11:0.225664 12:0.966658 13:-0.169431 14:0.161449 15:0.283321 16:-1 17:-1 18:1 19:-1 20:-1 21:-1 22:-1 23:-1 24:-1 25:-1 26:-1 27:-1 28:-1 29:1 30:-1 31:-1 32:-1 33:-1 34:-1 35:-1 36:-1 37:1 38:-1 39:-1 40:1 41:-1 
7622.514409142434 1:0.0734137 2:0.804215 3:-0.484834 4:-0.428226 5:-0.955212 6:0.0279068 7:-0.608166 8:0.225147 9:0.994583 10:-0.187006 11:-0.243436 12:0.912482 13:-0.962104 14:0.516569 15:-0.890324 16:-1 17:-1 18:-1 19:1 20:-1 21:-1 22:-1 23:-1 24:-1 25:-1 26:-1 27:1 28:-1 29:-1 30:-1 31:-1 32:-1 33:-1 34:-1 35:-1 36:1 37:-1 38:-1 39:-1 40:-1 41:1 
9216 1:-0.669093 2:0.721841 3:-0.860842 4:0.236303 5:-0.409083 6:-0.242157 7:-0.679612 8:0.199904 9:0.974694 10:-0.357133 11:0.310038 12:0.83813 13:-0.613292 14:-0.651341 15:-0.7159 16:-1 17:-1 18:-1 19:-1 20:-1 21:1 22:-1 23:-1 24:-1 25:-1 26:-1 27:-1 28:-1 29:-1 30:1 31:-1 32:-1 33:-1 34:-1 35:-1 36:1 37:-1 38:-1 39:-1 40:1 41:-1 
9216 1:0.580955 2:0.788478 3:-0.882173 4:-0.655095 5:-0.0362687 6:-0.252261 7:-0.737276 8:0.285812 9:0.941024 10:-0.307078 11:0.189081 12:0.958424 13:-0.299589 14:0.0430465 15:-0.840145 16:-1 17:-1 18:-1 19:-1 20:1 21:-1 22:-1 23:-1 24:-1 25:-1 26:-1 27:-1 28:-1 29:-1 30:1 31:-1 32:-1 33:-1 34:-1 35:-1 36:1 37:-1 38:-1 39:-1 40:1 41:-1 
9216 1:0.854693 2:0.783735 3:-0.976211 4:-0.0566464 5:-0.969296 6:-0.352424 7:-0.63703 8:0.237328 9:0.936235 10:-0.372077 11:0.270493 12:0.994048 13:-0.105348 14:-0.0509398 15:-0.898125 16:-1 17:-1 18:-1 19:1 20:-1 21:-1 22:-1 23:-1 24:-1 25:-1 26:-1 27:-1 28:-1 29:1 30:-1 31:-1 32:-1 33:-1 34:-1 35:-1 36:1 37:-1 38:-1 39:-1 40:1 41:-1 
9216 1:0.110688 2:0.591506 3:-0.205665 4:-0.408926 5:0.378989 6:-0.32408 7:-0.404617 8:-0.0909164 9:0.770108 10:-0.671558 11:0.363353 12:0.890695 13:-0.628287 14:-0.422718 15:0.558824 16:1 17:-1 18:-1 19:-1 20:-1 21:-1 22:-1 23:-1 24:-1 25:-1 26:-1 27:-1 28:1 29:-1 30:-1 31:-1 32:-1 33:-1 34:-1 35:-1 36:-1 37:1 38:-1 39:-1 40:1 41:-1 
9216 1:0.31641 2:0.654105 3:-0.606756 4:-0.718106 5:-0.712516 6:0.0330383 7:-0.811034 8:0.167849 9:0.884469 10:-0.580792 11:0.304835 12:0.806327 13:-0.65302 14:-0.0524721 15:-0.324649 16:-1 17:-1 18:-1 19:-1 20:1 21:-1 22:-1 23:-1 24:-1 25:-1 26:-1 27:-1 28:1 29:-1 30:-1 31:-1 32:-1 33:-1 34:-1 35:-1 36:1 37:-1 38:-1 39:-1 40:1 41:-1 
9216 1:0.436612 2:0.36268 3:-0.912823 4:-0.597187 5:0.317807 6:-0.0893377 7:-0.529147 8:0.222743 9:0.91519 10:-0.484176 11:0.170669 12:0.9283 13:-0.49107 14:-0.279134 15:-0.449379 16:-1 17:-1 18:-1 19:1 20:-1 21:-1 22:-1 23:-1 24:-1 25:-1 26:-1 27:-1 28:-1 29:-1 30:1 31:-1 32:-1 33:-1 34:-1 35:-1 36:1 37:-1 38:-1 39:-1 40:1 41:-1 
1390.537440158632 1:0.246441 2:0.327719 3:-0.894463 4:-0.504204 5:-0.575364 6:-0.0167145 7:-0.937578 8:0.228032 9:0.967072 10:-0.215539 11:-0.391451 12:0.98966 13:-0.435641 14:-0.344239 15:0.945442 16:-1 17:-1 18:-1 19:-1 20:-1 21:1 22:-1 23:-1 24:-1 25:1 26:-1 27:-1 28:-1 29:-1 30:-1 31:-1 32:-1 33:-1 34:-1 35:-1 36:1 37:-1 38:-1 39:-1 40:-1 41:1 
2179.965557746552 1:0.17982 2:0.286335 3:-0.931373 4:-0.679456 5:0.240974 6:-0.117376 7:-0.797963 8:0.202388 9:0.966921 10:-0.524828 11:0.2504 12:0.98835 13:-0.159417 14:0.460542 15:0.950655 16:-1 17:-1 18:-1 19:-1 20:-1 21:1 22:-1 23:-1 24:-1 25:-1 26:-1 27:-1 28:-1 29:-1 30:-1 31:-1 32:-0.333333 33:-1 34:-1 35:-1 36:1 37:-1 38:-1 39:-1 40:1 41:-1 
9216 1:-0.686635 2:0.201634 3:-0.785337 4:-0.40526 5:-0.98653 6:-0.693764 7:-0.0465257 8:0.169051 9:0.974273 10:-0.507412 11:0.162264 12:0.934401 13:-0.473444 14:0.147189 15:-0.964052 16:-1 17:-1 18:-1 19:-1 20:1 21:-1 22:-1 23:-1 24:-1 25:-1 26:-1 27:-1 28:-1 29:-1 30:1 31:-1 32:-1 33:-1 34:-1 35:-1 36:1 37:-1 38:-1 39:-1 40:1 41:-1 
9216 1:-0.437893 2:0.207083 3:-0.850264 4:0.0702046 5:0.123147 6:-0.590015 7:-0.0362945 8:0.314902 9:0.955804 10:-0.179642 11:0.344781 12:0.987025 13:-0.112073 14:-0.101286 15:-0.733462 16:-1 17:-1 18:-1 19:1 20:-1 21:-1 22:-1 23:-1 24:-1 25:-1 26:-1 27:-1 28:-1 29:-1 30:1 31:-1 32:-1 33:-1 34:-1 35:-1 36:1 37:-1 38:-1 39:-1 40:1 41:-1 
9216 1:-0.000936791 2:0.636261 3:-0.894464 4:0.0765049 5:-0.724975 6:-0.355502 7:-0.394414 8:0.0641503 9:0.994311 10:0.121253 11:0.290106 12:0.957693 13:-0.133326 14:-0.0924964 15:-0.993383 16:1 17:-1 18:-1 19:-1 20:-1 21:-1 22:-1 23:-1 24:-1 25:-1 26:-1 27:-1 28:-1 29:1 30:-1 31:-1 32:-1 33:-1 34:-1 35:-1 36:-1 37:1 38:-1 39:-1 40:1 41:-1 
9216 1:0.204762 2:0.582258 3:-0.710127 4:0.209302 5:-0.924431 6:-0.331989 7:-0.592999 8:0.305766 9:0.943993 10:-0.714933 11:0.126721 12:0.92494 13:-0.622026 14:-0.00216682 15:0.339998 16:-1 17:-1 18:-1 19:-1 20:-1 21:1 22:-1 23:-1 24:-1 25:-1 26:-1 27:-1 28:-1 29:1 30:-1 31:-1 32:-1 33:-1 34:-1 35:-1 36:1 37:-1 38:-1 39:-1 40:1 41:-1 
8500.702599525075 1:0.56896 2:0.897025 3:-0.87246 4:0.305442 5:0.890913 6:-0.259251 7:-1 8:0.00124214 9:0.979067 10:-0.0481794 11:0.217179 12:0.716347 13:-0.670264 14:0.219156 15:0.972773 16:-1 17:1 18:-1 19:-1 20:-1 21:-1 22:-1 23:-1 24:-1 25:-1 26:-1 27:-1 28:-1 29:-1 30:-1 31:1 32:-1 33:-1 34:-1 35:-1 36:-1 37:1 38:-1 39:-1 40:1 41:-1 
9216 1:0.339632 2:0.566498 3:-0.837518 4:-0.31197 5:-0.951973 6:-0.214512 7:-0.785097 8:0.23284 9:0.923316 10:-0.465945 11:0.0947006 12:0.930553 13:-0.60049 14:-0.329759 15:-0.897597 16:-1 17:-1 18:-1 19:-1 20:1 21:-1 22:-1 23:-1 24:-1 25:-1 26:-1 27:-1 28:-1 29:-1 30:1 31:-1 32:-1 33:-1 34:-1 35:-1 36:1 37:-1 38:-1 39:-1 40:1 41:-1 
9216 1:-0.235495 2:0.76886 3:-0.847882 4:-0.812781 5:-0.113044 6:-0.418399 7:-0.640669 8:0.239091 9:0.982245 10:-0.439765 11:-0.205652 12:0.980091 13:-0.474744 14:-0.449857 15:-0.259125 16:-1 17:-1 18:-1 19:-1 20:1 21:-1 22:-1 23:-1 24:-1 25:1 26:-1 27:-1 28:-1 29:-1 30:-1 31:-1 32:-1 33:-1 34:-1 35:-1 36:1 37:-1 38:-1 39:-1 40:-1 41:1 
9216 1:0.681793 2:0.370264 3:-0.996776 4:-0.532216 5:-1 6:0.00747907 7:-0.714851 8:-0.228032 9:0.318189 10:-0.283727 11:-0.28186 12:0.82429 13:-0.659519 14:-0.299405 15:-0.219777 16:-1 17:-1 18:-1 19:-1 20:-1 21:1 22:-1 23:-1 24:-1 25:-1 26:-1 27:-1 28:-1 29:-1 30:1 31:-1 32:-1 33:-1 34:-1 35:1 36:-1 37:-1 38:1 39:-1 40:-1 41:-1 
9216 1:-0.0397683 2:0.756366 3:0.231573 4:-0.606669 5:0.267083 6:-0.0808213 7:-0.948565 8:-0.257523 9:0.917502 10:0.0952714 11:0.235431 12:0.0381481 13:-0.201594 14:0.634427 15:0.587314 16:-1 17:-1 18:-1 19:1 20:-1 21:-1 22:-1 23:-1 24:-1 25:-1 26:-1 27:-1 28:-1 29:1 30:-1 31:-1 32:-1 33:-1 34:-1 35:1 36:-1 37:-1 38:-1 39:1 40:-1 41:-1 
9216 1:0.230355 2:0.234177 3:-0.841186 4:0.0557676 5:-0.602694 6:-0.295604 7:-0.70852 8:-0.176263 9:0.913002 10:-0.506531 11:-0.0587576 12:0.999153 13:-0.0898876 14:0.0211559 15:0.23834 16:-1 17:-1 18:-1 19:-1 20:-1 21:1 22:-1 23:-1 24:-1 25:-1 26:-1 27:-1 28:1 29:-1 30:-1 31:-1 32:-1 33:-1 34:1 35:-1 36:-1 37:-1 38:1 39:-1 40:-1 41:-1 
9216 1:0.188723 2:0.551053 3:-0.764714 4:-0.616174 5:0.2684 6:-0.0758376 7:-0.841984 8:0.532796 9:0.521545 10:-0.0332979 11:-0.0907781 12:0.908575 13:-0.646849 14:-0.176575 15:0.874308 16:-1 17:-1 18:-1 19:1 20:-1 21:-1 22:-1 23:-1 24:-1 25:-1 26:-1 27:-1 28:-1 29:-1 30:1 31:-1 32:-1 33:-1 34:-1 35:1 36:-1 37:-1 38:1 39:-1 40:-1 41:-1 
9216 1:0.346141 2:0.80291 3:0.0672254 4:0.0482854 5:-0.550182 6:-0.182724 7:-1 8:-0.240694 9:-0.404792 10:-0.264284 11:-0.115754 12:0.985205 13:-0.23003 14:0.681927 15:0.254199 16:-1 17:-1 18:-1 19:-1 20:-1 21:-1 22:-1 23:0.333333 24:-1 25:-1 26:-1 27:-1 28:-1 29:1 30:-1 31:-1 32:-1 33:-1 34:-1 35:1 36:-1 37:-1 38:1 39:-1 40:-1 41:-1 
9216 1:0.58006 2:0.295371 3:-0.985615 4:0.176718 5:-0.991157 6:-0.234083 7:-0.845548 8:-0.268342 9:0.674756 10:0.0540836 11:-0.0863753 12:0.705428 13:-0.658078 14:-0.15181 15:-0.82559 16:-1 17:-1 18:-1 19:-1 20:1 21:-1 22:-1 23:-1 24:-1 25:-1 26:-1 27:-1 28:1 29:-1 30:-1 31:-1 32:-1 33:-1 34:-1 35:1 36:-1 37:-1 38:1 39:-1 40:-1 41:-1 
9216 1:-0.29455 2:0.840215 3:-0.166851 4:-0.360903 5:0.39931 6:0.00929291 7:-0.634611 8:-0.613736 9:0.848935 10:0.245551 11:-0.408902 12:0.597738 13:0.000437891 14:-0.116559 15:-0.416907 16:-1 17:-1 18:-1 19:-1 20:1 21:-1 22:-1 23:-1 24:-1 25:-1 26:-1 27:-1 28:-1 29:1 30:-1 31:-1 32:-1 33:-1 34:-1 35:1 36:-1 37:-1 38:-1 39:1 40:-1 41:-1 
9216 1:0.226868 2:0.739203 3:0.298125 4:-0.0783474 5:-1 6:-0.304802 7:-0.685549 8:0.0183916 9:-0.795551 10:-0.364542 11:-0.270093 12:0.594934 13:0.0694978 14:0.672991 15:0.0183629 16:-1 17:-1 18:-1 19:-1 20:-1 21:1 22:-1 23:-1 24:-1 25:-1 26:-1 27:-1 28:-1 29:1 30:-1 31:-1 32:-1 33:-1 34:-1 35:1 36:-1 37:-1 38:-1 39:1 40:-1 41:-1 
9216 1:0.000969335 2:0.554268 3:-0.905354 4:-0.445252 5:-0.625338 6:0.0381439 7:-0.877045 8:-0.0154265 9:0.667277 10:0.0670744 11:-0.145773 12:0.44745 13:-0.0325235 14:0.0349965 15:-0.761128 16:-1 17:-1 18:-1 19:-1 20:1 21:-1 22:-1 23:-1 24:-1 25:-1 26:-1 27:-1 28:-1 29:-1 30:1 31:-1 32:-1 33:-1 34:-1 35:1 36:-1 37:-1 38:-1 39:1 40:-1 41:-1 
9216 1:0.401209 2:0.589857 3:-0.809916 4:-0.875886 5:0.928856 6:0.0875334 7:-0.833144 8:-0.371158 9:0.45298 10:-0.156183 11:-0.207253 12:0.207784 13:-0.18257 14:0.401986 15:0.47152 16:-1 17:-1 18:-1 19:-1 20:-1 21:1 22:-1 23:-1 24:-1 25:-1 26:-1 27:-1 28:-1 29:1 30:-1 31:-1 32:-1 33:-1 34:-1 35:1 36:-1 37:-1 38:-1 39:1 40:-1 41:-1 
9216 1:-0.758866 2:0.338524 3:-0.407837 4:-0.421942 5:0.0101379 6:-0.0870654 7:-1 8:0.0390672 9:-0.0123505 10:-0.449327 11:0.576289 12:0.711819 13:0.27806 14:0.720488 15:0.0165699 16:-1 17:-1 18:-1 19:-1 20:1 21:-1 22:-1 23:-1 24:-1 25:-1 26:-1 27:-1 28:-1 29:1 30:-1 31:-1 32:-1 33:-1 34:-1 35:1 36:-1 37:-1 38:-1 39:1 40:-1 41:-1 
9216 1:0.359333 2:0.550082 3:-0.864068 4:0.651557 5:-0.997726 6:-0.158813 7:-0.906607 8:-0.425412 9:0.907486 10:0.349289 11:0.294669 12:0.975419 13:-0.00213883 14:0.520245 15:0.935315 16:-1 17:-1 18:-1 19:-1 20:1 21:-1 22:-1 23:-1 24:-1 25:-1 26:-1 27:-1 28:-1 29:-1 30:-1 31:1 32:-1 33:-1 34:-1 35:1 36:-1 37:-1 38:1 39:-1 40:-1 41:-1 
6761.12953780353 1:0.64259 2:0.765314 3:-0.974734 4:0.0462763 5:-0.998815 6:-0.10731 7:-1 8:-0.00789358 9:0.674961 10:-0.697582 11:-0.368076 12:0.620914 13:0.0839104 14:0.187059 15:-0.0655269 16:-1 17:-1 18:-1 19:-1 20:-1 21:1 22:-1 23:-1 24:-1 25:-1 26:-1 27:-1 28:-1 29:-1 30:1 31:-1 32:-1 33:-1 34:1 35:-1 36:-1 37:-1 38:-1 39:1 40:-1 41:-1 
9216 1:0.674227 2:0.507833 3:-0.981305 4:-0.572586 5:-0.915277 6:-0.0828226 7:-0.950709 8:0.207277 9:0.539035 10:-0.0504575 11:-0.443884 12:0.839 13:0.247992 14:-0.0788311 15:-0.794156 16:-1 17:-1 18:-1 19:1 20:-1 21:-1 22:-1 23:-1 24:-1 25:-1 26:-1 27:-1 28:1 29:-1 30:-1 31:-1 32:-1 33:-1 34:-1 35:1 36:-1 37:-1 38:-1 39:1 40:-1 41:-1 
9216 1:-0.799198 2:0.819689 3:-0.792686 4:0.0536675 5:-0.862615 6:-0.0323986 7:-0.935532 8:0.199423 9:0.609917 10:-0.018553 11:0.245117 12:-0.769786 13:-0.288094 14:0.422617 15:-0.589018 16:-1 17:-1 18:-1 19:-1 20:-1 21:1 22:-1 23:-1 24:-1 25:-1 26:-1 27:-1 28:-1 29:-1 30:1 31:-1 32:-1 33:-1 34:-1 35:1 36:-1 37:-1 38:-1 39:1 40:-1 41:-1 
9216 1:0.514391 2:0.669994 3:-0.921533 4:-0.618874 5:-1 6:0.0892467 7:-0.7807 8:-0.0630284 9:0.977557 10:-0.623382 11:-0.0135287 12:0.91369 13:-0.898291 14:0.0688823 15:-0.999547 16:-1 17:-1 18:-1 19:-1 20:-1 21:1 22:-1 23:-1 24:-1 25:-1 26:-1 27:-1 28:-1 29:-1 30:1 31:-1 32:-1 33:-1 34:1 35:-1 36:-1 37:-1 38:1 39:-1 40:-1 41:-1 
9216 1:0.0886279 2:0.553591 3:-0.551529 4:0.444894 5:-0.464824 6:-0.244847 7:-0.508339 8:-0.745562 9:0.698551 10:-0.00678099 11:0.165066 12:0.967235 13:-0.0178489 14:-0.0930134 15:-0.333174 16:-1 17:-1 18:-1 19:-1 20:1 21:-1 22:-1 23:-1 24:-1 25:-1 26:-1 27:-1 28:-1 29:-1 30:-1 31:-1 32:-1 33:1 34:-1 35:1 36:-1 37:-1 38:1 39:-1 40:-1 41:-1 
9216 1:0.298569 2:0.286575 3:-0.837892 4:-0.191671 5:-1 6:-0.140189 7:-0.554807 8:-0.0070922 9:0.793848 10:-0.709861 11:-0.711575 12:0.763121 13:0.136383 14:-0.038036 15:-0.996755 16:-1 17:-1 18:-1 19:-1 20:-1 21:1 22:-1 23:-1 24:-1 25:-1 26:-1 27:-1 28:-1 29:-1 30:1 31:-1 32:-1 33:-1 34:1 35:-1 36:-1 37:-1 38:-1 39:1 40:-1 41:-1 
9216 1:0.623273 2:0.709919 3:-0.913995 4:-0.633405 5:-0.998773 6:-0.0407623 7:-1 8:0.0710422 9:0.76103 10:-0.62152 11:-0.129843 12:0.741389 13:0.281873 14:-0.278009 15:-0.999227 16:-1 17:-1 18:-1 19:-1 20:-1 21:-1 22:-1 23:0.333333 24:-1 25:-1 26:-1 27:-1 28:-1 29:1 30:-1 31:-1 32:-1 33:-1 34:1 35:-1 36:-1 37:-1 38:-1 39:1 40:-1 41:-1 
9216 1:-0.249861 2:0.891808 3:0.748706 4:0.0763958 5:0.986842 6:-0.200846 7:-0.874235 8:0.214649 9:0.309274 10:-0.171703 11:-0.0558758 12:0.331987 13:-0.109582 14:-0.368636 15:0.759215 16:-1 17:-1 18:-1 19:-1 20:-1 21:1 22:-1 23:-1 24:-1 25:-1 26:-1 27:-1 28:-1 29:-1 30:-1 31:1 32:-1 33:-1 34:-1 35:1 36:-1 37:-1 38:-1 39:1 40:-1 41:-1 
9216 1:0.054027 2:0.508693 3:-0.631532 4:-0.466682 5:-0.164103 6:0.334451 7:-1 8:-0.0094162 9:0.585379 10:-0.0217423 11:-0.0345821 12:0.0427721 13:-0.16348 14:-0.62031 15:0.473233 16:-1 17:-1 18:-1 19:-1 20:-1 21:-1 22:1 23:-1 24:-1 25:-1 26:-1 27:-1 28:-1 29:1 30:-1 31:-1 32:-1 33:-1 34:-1 35:1 36:-1 37:-1 38:-1 39:1 40:-1 41:-1 
9216 1:-0.393273 2:0.329566 3:-0.642214 4:-0.576288 5:-0.886107 6:-0.0808651 7:-0.762722 8:0.0955644 9:0.875763 10:0.398666 11:0.132085 12:-0.267225 13:-0.27359 14:0.898067 15:-0.699277 16:-1 17:-1 18:-1 19:1 20:-1 21:-1 22:-1 23:-1 24:-1 25:-1 26:-1 27:-1 28:1 29:-1 30:-1 31:-1 32:-1 33:-1 34:-1 35:1 36:-1 37:-1 38:-1 39:1 40:-1 41:-1 
9216 1:-0.0704058 2:0.74221 3:0.226251 4:-0.0429277 5:0.604528 6:-0.0804087 7:-0.951692 8:0.0915575 9:-0.32937 10:-0.40622 11:-0.507125 12:0.724439 13:0.138387 14:-0.241081 15:0.508972 16:-1 17:-1 18:-1 19:-1 20:-1 21:1 22:-1 23:-1 24:-1 25:-1 26:-1 27:-1 28:-1 29:1 30:-1 31:-1 32:-1 33:-1 34:-1 35:1 36:-1 37:-1 38:-1 39:1 40:-1 41:-1 
9216 1:0.398722 2:0.425884 3:-0.955789 4:-0.270405 5:-0.242487 6:0.00808323 7:-0.932749 8:-0.402011 9:0.536938 10:-0.128647 11:-0.28186 12:0.308121 13:-0.110751 14:0.0894882 15:-0.50497 16:-1 17:-1 18:-1 19:-1 20:-1 21:1 22:-1 23:-1 24:-1 25:-1 26:-1 27:-1 28:-1 29:1 30:-1 31:-1 32:-1 33:-1 34:-1 35:1 36:-1 37:-1 38:-1 39:1 40:-1 41:-1 
9216 1:0.0220529 2:0.488018 3:0.649179 4:-0.341922 5:-0.968293 6:0.188508 7:-0.937474 8:-0.0471611 9:0.79228 10:-0.720941 11:0.0382645 12:0.957107 13:-0.479414 14:-0.0106806 15:-0.876172 16:-1 17:-1 18:-1 19:-1 20:1 21:-1 22:-1 23:-1 24:-1 25:-1 26:-1 27:-1 28:1 29:-1 30:-1 31:-1 32:-1 33:-1 34:1 35:-1 36:-1 37:-1 38:1 39:-1 40:-1 41:-1 
9216 1:0.0843042 2:0.518185 3:-0.920515 4:-0.0806293 5:0.522614 6:-0.310736 7:-0.71857 8:-0.118884 9:0.537513 10:-0.114614 11:-0.170269 12:0.988395 13:-0.276508 14:-0.0526914 15:0.253644 16:-1 17:-1 18:-1 19:-1 20:-1 21:-1 22:1 23:-1 24:-1 25:-1 26:-1 27:-1 28:1 29:-1 30:-1 31:-1 32:-1 33:-1 34:-1 35:1 36:-1 37:-1 38:1 39:-1 40:-1 41:-1 
9216 1:-0.295398 2:0.421468 3:-0.662595 4:0.276023 5:-0.776016 6:0.409926 7:-1 8:0.79084 9:-0.0589118 10:-0.419034 11:0.0702049 12:0.713601 13:-0.599979 14:0.276095 15:-0.684542 16:-1 17:-1 18:-1 19:-1 20:-1 21:-1 22:-1 23:0.333333 24:-1 25:-1 26:-1 27:-1 28:-1 29:-1 30:1 31:-1 32:-1 33:-1 34:-1 35:1 36:-1 37:-1 38:1 39:-1 40:-1 41:-1 
9216 1:0.40136 2:0.579801 3:-0.765548 4:-0.438441 5:-0.996231 6:0.0555748 7:-0.758599 8:0.525504 9:0.926095 10:0.115654 11:0.0182517 12:0.51562 13:-0.823475 14:-0.156727 15:-0.977584 16:-1 17:-1 18:-1 19:-1 20:-1 21:-1 22:-1 23:0.333333 24:-1 25:-1 26:-1 27:-1 28:-1 29:-1 30:-1 31:-1 32:-0.333333 33:-1 34:-1 35:1 36:-1 37:-1 38:1 39:-1 40:-1 41:-1 
9216 1:-0.239679 2:0.417438 3:-0.0837854 4:0.0140748 5:-0.990747 6:-0.348239 7:-0.666008 8:-0.0891533 9:0.822493 10:-0.661267 11:0.153858 12:0.536389 13:0.0591726 14:-0.0749738 15:-0.994011 16:-1 17:-1 18:-1 19:1 20:-1 21:-1 22:-1 23:-1 24:-1 25:-1 26:-1 27:-1 28:-1 29:1 30:-1 31:-1 32:-1 33:-1 34:1 35:-1 36:-1 37:-1 38:-1 39:1 40:-1 41:-1 
9216 1:-0.342912 2:0.644321 3:0.675908 4:-0.301137 5:-0.0668535 6:0.036954 7:-0.880861 8:-0.0227191 9:-0.272556 10:-0.404859 11:0.0144893 12:0.880446 13:-0.408555 14:-0.407812 15:-0.691845 16:-1 17:-1 18:-1 19:-1 20:1 21:-1 22:-1 23:-1 24:-1 25:-1 26:-1 27:-1 28:-1 29:-1 30:1 31:-1 32:-1 33:-1 34:-1 35:1 36:-1 37:-1 38:1 39:-1 40:-1 41:-1 
1916.247359922239 1:0.323093 2:0.676504 3:-0.917909 4:0.558317 5:0.603687 6:-0.269618 7:-0.775589 8:0.503787 9:0.994871 10:0.896586 11:-0.184918 12:0.241472 13:-0.129513 14:-0.148884 15:0.596552 16:-1 17:-1 18:-1 19:-1 20:1 21:-1 22:-1 23:-1 24:-1 25:-1 26:-1 27:-1 28:1 29:-1 30:-1 31:-1 32:-1 33:-1 34:-1 35:1 36:-1 37:-1 38:-1 39:1 40:-1 41:-1 
9216 1:0.537311 2:0.639106 3:-0.902143 4:-0.0034532 5:-0.936096 6:-0.265928 7:-0.888896 8:-0.0522098 9:0.906183 10:-0.606578 11:0.255524 12:0.899182 13:-0.27236 14:-0.174701 15:0.0606114 16:-1 17:-1 18:-1 19:1 20:-1 21:-1 22:-1 23:-1 24:-1 25:-1 26:-1 27:-1 28:-1 29:1 30:-1 31:-1 32:-1 33:-1 34:1 35:-1 36:-1 37:-1 38:1 39:-1 40:-1 41:-1 
9216 1:0.101169 2:0.56202 3:-0.918311 4:0.267677 5:-0.75772 6:-0.325667 7:-0.592282 8:-0.173779 9:0.700875 10:0.103478 11:-0.678274 12:0.126302 13:-0.318266 14:0.143986 15:0.236395 16:-1 17:-1 18:-1 19:1 20:-1 21:-1 22:-1 23:-1 24:-1 25:-1 26:-1 27:-1 28:-1 29:-1 30:1 31:-1 32:-1 33:-1 34:-1 35:1 36:-1 37:-1 38:-1 39:1 40:-1 41:-1 
9216 1:0.236469 2:0.373275 3:-0.68301 4:0.421593 5:-0.778584 6:-0.0826769 7:-0.941762 8:0.0237609 9:-0.00675719 10:-0.920545 11:0.17219 12:-0.128486 13:-0.233581 14:0.122377 15:-0.161103 16:-1 17:-1 18:-1 19:-1 20:-1 21:1 22:-1 23:-1 24:-1 25:-1 26:-1 27:-1 28:-1 29:1 30:-1 31:-1 32:-1 33:-1 34:1 35:-1 36:-1 37:-1 38:-1 39:1 40:-1 41:-1 
9216 1:0.425652 2:0.231216 3:-0.93313 4:0.0620406 5:0.439586 6:-0.172963 7:-0.852707 8:0.00532917 9:0.912935 10:-0.400456 11:-0.503362 12:0.795862 13:0.314341 14:-0.379895 15:0.255786 16:-1 17:-1 18:-1 19:1 20:-1 21:-1 22:-1 23:-1 24:-1 25:-1 26:-1 27:-1 28:-1 29:-1 30:1 31:-1 32:-1 33:-1 34:1 35:-1 36:-1 37:-1 38:-1 39:1 40:-1 41:-1 
9216 1:0.120974 2:0.201699 3:-0.876402 4:-0.795565 5:0.00926511 6:0.147495 7:-0.947219 8:-0.17426 9:0.99869 10:-0.143568 11:0.118076 12:0.298491 13:-0.08499 14:0.0160545 15:0.01549 16:-1 17:-1 18:-1 19:-1 20:-1 21:1 22:-1 23:-1 24:-1 25:-1 26:-1 27:-1 28:1 29:-1 30:-1 31:-1 32:-1 33:-1 34:1 35:-1 36:-1 37:-1 38:-1 39:1 40:-1 41:-1 
9216 1:0.228286 2:0.463632 3:-0.678696 4:-0.600792 5:-0.564427 6:-0.261555 7:-0.858218 8:-0.0801779 9:-0.172282 10:-0.405149 11:-0.131284 12:0.986192 13:-0.00839485 14:0.0441746 15:-0.26112 16:-1 17:-1 18:-1 19:1 20:-1 21:-1 22:-1 23:-1 24:-1 25:-1 26:-1 27:-1 28:1 29:-1 30:-1 31:-1 32:-1 33:-1 34:-1 35:1 36:-1 37:-1 38:1 39:-1 40:-1 41:-1 
9216 1:-0.390077 2:0.462081 3:0.87264 4:0.0409669 5:0.823708 6:-0.048017 7:-0.897308 8:0.0701607 9:0.935497 10:0.0871956 11:-0.358389 12:-0.2495 13:-0.349589 14:-0.24208 15:0.44942 16:-1 17:-1 18:-1 19:-1 20:-1 21:1 22:-1 23:-1 24:-1 25:-1 26:-1 27:-1 28:-1 29:-1 30:1 31:-1 32:-1 33:-1 34:-1 35:1 36:-1 37:-1 38:-1 39:1 40:-1 41:-1 
9216 1:0.221383 2:0.665338 3:-0.94094 4:-0.0888115 5:-0.198082 6:-0.102242 7:-0.889717 8:-0.304243 9:0.683626 10:0.059346 11:-0.0433077 12:0.338367 13:-0.816162 14:-0.0794578 15:0.955183 16:-1 17:-1 18:-1 19:-1 20:1 21:-1 22:-1 23:-1 24:-1 25:-1 26:-1 27:-1 28:-1 29:-1 30:1 31:-1 32:-1 33:-1 34:-1 35:1 36:-1 37:-1 38:1 39:-1 40:-1 41:-1 
9216 1:0.363528 2:0.683304 3:-0.661157 4:-0.337168 5:-0.999974 6:-0.105377 7:-1 8:-0.0722443 9:0.764904 10:0.0974469 11:0.138409 12:0.900654 13:0.428923 14:0.0841769 15:-0.892016 16:-1 17:-1 18:-1 19:-1 20:1 21:-1 22:-1 23:-1 24:-1 25:-1 26:-1 27:-1 28:1 29:-1 30:-1 31:-1 32:-1 33:-1 34:-1 35:1 36:-1 37:-1 38:-1 39:1 40:-1 41:-1 
9216 1:0.102575 2:0.721839 3:-0.566797 4:-0.433295 5:-0.412358 6:-0.225638 7:-0.909232 8:0.165364 9:0.724441 10:0.143834 11:-0.200688 12:0.8302 13:0.364743 14:-0.121911 15:-0.674263 16:-1 17:-1 18:-1 19:-1 20:1 21:-1 22:-1 23:-1 24:-1 25:-1 26:-1 27:-1 28:-1 29:-1 30:1 31:-1 32:-1 33:-1 34:-1 35:1 36:-1 37:-1 38:-1 39:1 40:-1 41:-1 
9216 1:0.0796435 2:0.657779 3:-0.690498 4:-0.194743 5:-0.999669 6:-0.112181 7:-1 8:-0.547782 9:0.796478 10:0.181292 11:-0.0519533 12:0.967663 13:-0.118359 14:-0.187025 15:-0.999058 16:-1 17:-1 18:-1 19:-1 20:1 21:-1 22:-1 23:-1 24:-1 25:-1 26:-1 27:-1 28:-1 29:-1 30:-1 31:-1 32:-1 33:1 34:-1 35:1 36:-1 37:-1 38:1 39:-1 40:-1 41:-1 
9216 1:-0.476457 2:0.352271 3:-0.726218 4:-0.174433 5:-1 6:0.0400699 7:-0.955771 8:0.127219 9:0.416539 10:-0.194894 11:0.0445085 12:0.806335 13:0.202726 14:-0.214484 15:-0.124528 16:-1 17:-1 18:-1 19:-1 20:-1 21:1 22:-1 23:-1 24:-1 25:-1 26:-1 27:-1 28:-1 29:-1 30:1 31:-1 32:-1 33:-1 34:-1 35:1 36:-1 37:-1 38:-1 39:1 40:-1 41:-1 
9216 1:-0.343865 2:0.216229 3:0.140002 4:-0.361085 5:0.187107 6:0.185935 7:-0.95243 8:-0.41884 9:-0.0445401 10:-0.347793 11:-0.0410663 12:0.989687 13:-0.248164 14:-0.580161 15:-0.422485 16:-1 17:-1 18:-1 19:-1 20:-1 21:1 22:-1 23:-1 24:-1 25:-1 26:-1 27:-1 28:-1 29:-1 30:-1 31:1 32:-1 33:-1 34:-1 35:1 36:-1 37:-1 38:1 39:-1 40:-1 41:-1 
9216 1:0.0899993 2:0.52377 3:-0.0818045 4:0.327498 5:0.336876 6:-0.240069 7:-1 8:-0.572705 9:0.302862 10:-0.222982 11:-0.579411 12:0.215226 13:-0.176473 14:0.0633861 15:0.0240226 16:-1 17:-1 18:-1 19:-1 20:-1 21:-1 22:-1 23:0.333333 24:-1 25:-1 26:-1 27:-1 28:-1 29:1 30:-1 31:-1 32:-1 33:-1 34:-1 35:1 36:-1 37:-1 38:-1 39:1 40:-1 41:-1 
9216 1:-0.254219 2:0.526915 3:-0.291464 4:0.1744 5:-0.994167 6:-0.0550411 7:-0.735296 8:-0.00452779 9:0.890195 10:-0.708981 11:0.369837 12:0.350046 13:-0.0307874 14:-0.170129 15:-0.947952 16:-1 17:-1 18:-1 19:1 20:-1 21:-1 22:-1 23:-1 24:-1 25:-1 26:-1 27:-1 28:-1 29:1 30:-1 31:-1 32:-1 33:-1 34:1 35:-1 36:-1 37:-1 38:-1 39:1 40:-1 41:-1 
9216 1:0.213084 2:0.220453 3:-0.929837 4:0.637857 5:-0.991384 6:-0.307898 7:-0.572228 8:0.0835437 9:0.857416 10:-0.10717 11:0.0579571 12:0.903543 13:-0.332745 14:-0.0539542 15:0.839128 16:-1 17:-1 18:-1 19:-1 20:-1 21:1 22:-1 23:-1 24:-1 25:-1 26:-1 27:-1 28:-1 29:-1 30:1 31:-1 32:-1 33:-1 34:-1 35:1 36:-1 37:-1 38:1 39:-1 40:-1 41:-1 
379.8962684105358 1:0.613568 2:0.820423 3:-0.88503 4:0.080605 5:0.286528 6:-0.245754 7:-0.685531 8:-0.0568578 9:0.92056 10:-0.477028 11:0.0279379 12:0.960678 13:-0.0842529 14:0.0449204 15:0.367053 16:-1 17:-1 18:-1 19:-1 20:1 21:-1 22:-1 23:-1 24:-1 25:-1 26:-1 27:-1 28:-1 29:-1 30:1 31:-1 32:-1 33:-1 34:1 35:-1 36:-1 37:-1 38:1 39:-1 40:-1 41:-1 
9216 1:0.289794 2:0.415581 3:-0.751669 4:-0.177835 5:-0.318618 6:-0.134651 7:-0.837806 8:-0.0398686 9:0.810105 10:-0.65657 11:-0.382485 12:0.680297 13:0.155973 14:0.0758136 15:0.716638 16:-1 17:-1 18:-1 19:-1 20:1 21:-1 22:-1 23:-1 24:-1 25:-1 26:-1 27:-1 28:-1 29:-1 30:1 31:-1 32:-1 33:-1 34:1 35:-1 36:-1 37:-1 38:-1 39:1 40:-1 41:-1 
9216 1:0.479279 2:0.670154 3:-0.771344 4:-0.528221 5:-0.987361 6:-0.144191 7:-0.912589 8:-0.158232 9:0.939203 10:-0.538829 11:0.245117 12:0.257046 13:-0.114101 14:0.0537944 15:-0.994023 16:-1 17:-1 18:-1 19:1 20:-1 21:-1 22:-1 23:-1 24:-1 25:-1 26:-1 27:-1 28:1 29:-1 30:-1 31:-1 32:-1 33:-1 34:1 35:-1 36:-1 37:-1 38:-1 39:1 40:-1 41:-1 
9216 1:-0.108923 2:0.690665 3:-0.400273 4:0.17 5:0.68664 6:-0.249637 7:-0.864242 8:0.0135834 9:0.998681 10:-0.14514 11:-0.240634 12:0.536482 13:0.0196567 14:-0.142432 15:0.90193 16:-1 17:-1 18:-1 19:-1 20:-1 21:-1 22:1 23:-1 24:-1 25:-1 26:-1 27:-1 28:-1 29:1 30:-1 31:-1 32:-1 33:-1 34:1 35:-1 36:-1 37:-1 38:-1 39:1 40:-1 41:-1 
9216 1:0.223347 2:0.71483 3:-0.877211 4:-0.0516462 5:-1 6:-0.127546 7:-0.820488 8:0.328525 9:0.678628 10:0.12139 11:0.0270573 12:0.520063 13:0.0318033 14:0.349378 15:-0.924511 16:-1 17:-1 18:-1 19:-1 20:1 21:-1 22:-1 23:-1 24:-1 25:-1 26:-1 27:-1 28:-1 29:-1 30:1 31:-1 32:-1 33:-1 34:-1 35:1 36:-1 37:-1 38:-1 39:1 40:-1 41:-1 
9216 1:0.0850132 2:0.800859 3:-0.361094 4:0.0119929 5:-0.626675 6:-0.156884 7:-1 8:0.0327363 9:0.185045 10:-0.292196 11:0.105508 12:0.430339 13:-0.0359652 14:-0.141025 15:0.622154 16:-1 17:-1 18:-1 19:-1 20:1 21:-1 22:-1 23:-1 24:-1 25:-1 26:-1 27:-1 28:-1 29:-1 30:1 31:-1 32:-1 33:-1 34:-1 35:1 36:-1 37:-1 38:-1 39:1 40:-1 41:-1 
9216 1:0.366608 2:0.815604 3:-0.346699 4:-0.223883 5:-0.058328 6:-0.14357 7:-0.943809 8:0.101014 9:0.670199 10:-0.665857 11:0.0191322 12:-0.024349 13:-0.361692 14:0.408473 15:-0.370115 16:-1 17:-1 18:-1 19:-1 20:-1 21:-1 22:1 23:-1 24:-1 25:-1 26:-1 27:-1 28:-1 29:-1 30:1 31:-1 32:-1 33:-1 34:1 35:-1 36:-1 37:-1 38:-1 39:1 40:-1 41:-1 
9216 1:0.302521 2:0.637265 3:-0.965443 4:0.260277 5:-0.955313 6:-0.259887 7:-0.509264 8:-0.247666 9:0.745777 10:0.176593 11:-0.246798 12:0.972697 13:-0.611776 14:0.0848725 15:-0.169072 16:-1 17:-1 18:-1 19:-1 20:-1 21:1 22:-1 23:-1 24:-1 25:-1 26:-1 27:-1 28:-1 29:-1 30:1 31:-1 32:-1 33:-1 34:-1 35:1 36:-1 37:-1 38:1 39:-1 40:-1 41:-1 
469.3632582373766 1:0.050947 2:0.45324 3:-0.577552 4:-0.588055 5:-0.8451 6:-0.0733901 7:-1 8:0.0384261 9:0.951894 10:-0.840104 11:0.23423 12:0.729574 13:-0.595853 14:0.36869 15:-0.624487 16:-1 17:-1 18:-1 19:-1 20:1 21:-1 22:-1 23:-1 24:-1 25:-1 26:-1 27:-1 28:1 29:-1 30:-1 31:-1 32:-1 33:-1 34:1 35:-1 36:-1 37:-1 38:1 39:-1 40:-1 41:-1 
7045.433335126793 1:0.246987 2:0.604173 3:-0.792782 4:-0.534654 5:-0.194523 6:0.12316 7:-0.908282 8:-0.0898746 9:0.97995 10:-0.185531 11:-0.0707653 12:0.818348 13:-0.554272 14:-0.0904345 15:-0.697078 16:-1 17:-1 18:-1 19:1 20:-1 21:-1 22:-1 23:-1 24:-1 25:-1 26:-1 27:-1 28:-1 29:1 30:-1 31:-1 32:-1 33:-1 34:1 35:-1 36:-1 37:-1 38:1 39:-1 40:-1 41:-1 
9216 1:0.0128826 2:0.763242 3:0.461219 4:0.226548 5:-0.0224306 6:-0.267699 7:-0.944501 8:0.230837 9:-0.560885 10:-0.404819 11:0.376001 12:0.592045 13:0.128482 14:0.413113 15:-0.472573 16:-1 17:-1 18:-1 19:-1 20:1 21:-1 22:-1 23:-1 24:-1 25:-1 26:-1 27:-1 28:-1 29:1 30:-1 31:-1 32:-1 33:-1 34:-1 35:1 36:-1 37:-1 38:-1 39:1 40:-1 41:-1 
9216 1:-0.310136 2:0.414505 3:-0.82096 4:0.0390669 5:-0.621735 6:-0.0718432 7:-0.87671 8:-0.0231198 9:0.760132 10:0.219017 11:0.273295 12:-0.327962 13:-0.163815 14:0.0272568 15:-0.408022 16:-1 17:-1 18:-1 19:-1 20:1 21:-1 22:-1 23:-1 24:-1 25:-1 26:-1 27:-1 28:-1 29:1 30:-1 31:-1 32:-1 33:-1 34:-1 35:1 36:-1 37:-1 38:-1 39:1 40:-1 41:-1 
9216 1:0.136583 2:0.754047 3:-0.386334 4:-0.908659 5:-0.360112 6:-0.0848753 7:-0.753506 8:-0.038346 9:0.386785 10:-0.160853 11:0.0821326 12:0.679785 13:0.136755 14:0.00994731 15:-0.783115 16:-1 17:-1 18:-1 19:-1 20:-1 21:1 22:-1 23:-1 24:-1 25:-1 26:-1 27:-1 28:-1 29:-1 30:1 31:-1 32:-1 33:-1 34:-1 35:1 36:-1 37:-1 38:-1 39:1 40:-1 41:-1 
9216 1:-0.257613 2:0.302622 3:-0.577775 4:-0.0460642 5:-0.994477 6:-0.0930166 7:-1 8:0.529671 9:0.496204 10:-0.0533848 11:-0.31308 12:0.00105659 13:-0.278165 14:0.0838792 15:-0.983304 16:-1 17:-1 18:-1 19:-1 20:-1 21:1 22:-1 23:-1 24:-1 25:-1 26:-1 27:-1 28:-1 29:-1 30:1 31:-1 32:-1 33:-1 34:-1 35:1 36:-1 37:-1 38:-1 39:1 40:-1 41:-1 
9216 1:-0.565559 2:0.377315 3:0.381428 4:-0.470954 5:-0.686598 6:0.0969953 7:-1 8:0.446087 9:0.320545 10:-0.159686 11:-0.213897 12:0.986094 13:-0.238071 14:0.146154 15:-0.794845 16:-1 17:-1 18:-1 19:-1 20:-1 21:1 22:-1 23:-1 24:-1 25:-1 26:-1 27:-1 28:-1 29:1 30:-1 31:-1 32:-1 33:-1 34:-1 35:1 36:-1 37:-1 38:1 39:-1 40:-1 41:-1 
9216 1:0.443795 2:0.60933 3:-0.885605 4:-0.671548 5:-1 6:0.101558 7:-0.85967 8:-0.0157471 9:0.465506 10:-0.772238 11:-0.0618796 12:0.954967 13:-0.463167 14:-0.22693 15:0.330041 16:-1 17:-1 18:-1 19:1 20:-1 21:-1 22:-1 23:-1 24:-1 25:-1 26:-1 27:-1 28:-1 29:-1 30:1 31:-1 32:-1 33:-1 34:1 35:-1 36:-1 37:-1 38:1 39:-1 40:-1 41:-1 
9216 1:0.2041 2:0.682617 3:-0.521932 4:0.256813 5:-0.875036 6:-0.175 7:-1 8:-0.032576 9:0.931798 10:-0.395695 11:-0.605988 12:0.386051 13:-0.129373 14:-0.100825 15:-0.829833 16:-1 17:-1 18:-1 19:-1 20:-1 21:-1 22:-1 23:-0.333333 24:-1 25:-1 26:-1 27:-1 28:-1 29:1 30:-1 31:-1 32:-1 33:-1 34:1 35:-1 36:-1 37:-1 38:-1 39:1 40:-1 41:-1 
9216 1:-0.20058 2:0.231316 3:0.616143 4:-0.247535 5:0.523373 6:0.19379 7:-1 8:-0.530633 9:-0.338312 10:-0.346152 11:-0.271374 12:0.0866332 13:-0.181188 14:-0.339586 15:0.512789 16:-1 17:-1 18:-1 19:-1 20:1 21:-1 22:-1 23:-1 24:-1 25:-1 26:-1 27:-1 28:1 29:-1 30:-1 31:-1 32:-1 33:-1 34:-1 35:1 36:-1 37:-1 38:-1 39:1 40:-1 41:-1 
9216 1:0.143441 2:0.701886 3:-0.974271 4:-0.513551 5:0.0748625 6:-0.290964 7:-0.918677 8:0.105021 9:0.963401 10:-0.459225 11:0.129683 12:0.371804 13:-0.0784172 14:0.0682963 15:-0.0986076 16:-1 17:-1 18:-1 19:-1 20:-1 21:-1 22:1 23:-1 24:-1 25:-1 26:-1 27:-1 28:-1 29:1 30:-1 31:-1 32:-1 33:-1 34:1 35:-1 36:-1 37:-1 38:-1 39:1 40:-1 41:-1 
9216 1:0.174903 2:0.421317 3:-0.49756 4:-0.329742 5:-0.273544 6:-8.07365e-05 7:-1 8:0.0365028 9:0.492029 10:-0.101452 11:-0.0133686 12:0.88328 13:-0.51047 14:0.0431343 15:0.332107 16:-1 17:-1 18:-1 19:-1 20:1 21:-1 22:-1 23:-1 24:-1 25:-1 26:-1 27:-1 28:-1 29:-1 30:1 31:-1 32:-1 33:-1 34:-1 35:1 36:-1 37:-1 38:1 39:-1 40:-1 41:-1 
9216 1:0.364214 2:0.693459 3:-0.715063 4:-0.388848 5:0.595226 6:-0.133366 7:-0.853998 8:-0.536002 9:0.706098 10:0.028535 11:0.318204 12:0.80771 13:0.318575 14:-0.250243 15:0.787153 16:-1 17:-1 18:-1 19:-1 20:-1 21:1 22:-1 23:-1 24:-1 25:-1 26:-1 27:-1 28:-1 29:-1 30:1 31:-1 32:-1 33:-1 34:-1 35:1 36:-1 37:-1 38:-1 39:1 40:-1 41:-1 
9216 1:0.424106 2:0.201415 3:-0.986996 4:-0.868291 5:-0.803923 6:0.103984 7:-0.950589 8:0.00356613 9:0.957834 10:-0.148535 11:-0.646654 12:0.103783 13:-0.226515 14:-0.175531 15:-0.265291 16:-1 17:-1 18:-1 19:-1 20:-1 21:1 22:-1 23:-1 24:-1 25:-1 26:-1 27:-1 28:-1 29:1 30:-1 31:-1 32:-1 33:-1 34:1 35:-1 36:-1 37:-1 38:-1 39:1 40:-1 41:-1 
9216 1:0.161816 2:0.570761 3:-0.718124 4:-0.736347 5:-0.988345 6:0.304327 7:-0.932213 8:0.38366 9:0.96664 10:0.483969 11:0.370077 12:0.448967 13:0.00421465 14:-0.117185 15:-0.829503 16:-1 17:-1 18:-1 19:-1 20:-1 21:-1 22:-1 23:0.333333 24:-1 25:-1 26:-1 27:-1 28:-1 29:1 30:-1 31:-1 32:-1 33:-1 34:-1 35:1 36:-1 37:-1 38:-1 39:1 40:-1 41:-1 
9216 1:0.260365 2:-0.418188 3:-0.970601 4:-0.163258 5:0.790801 6:0.100778 7:-0.699404 8:-0.053492 9:0.959293 10:-0.317107 11:-0.0517931 12:0.781184 13:-0.753311 14:0.0258091 15:0.586583 16:-1 17:-1 18:-1 19:-1 20:-1 21:-1 22:-1 23:-0.333333 24:-1 25:-1 26:-1 27:-1 28:1 29:-1 30:-1 31:-1 32:-1 33:-1 34:1 35:-1 36:-1 37:-1 38:1 39:-1 40:-1 41:-1 
9216 1:0.525851 2:0.529808 3:-0.924173 4:0.311388 5:-0.981988 6:-0.088403 7:-0.877884 8:-0.369796 9:-0.378134 10:-0.441604 11:-0.42211 12:0.944054 13:-0.551755 14:0.454692 15:-0.430633 16:-1 17:-1 18:-1 19:-1 20:1 21:-1 22:-1 23:-1 24:-1 25:-1 26:-1 27:-1 28:-1 29:-1 30:1 31:-1 32:-1 33:-1 34:-1 35:1 36:-1 37:-1 38:1 39:-1 40:-1 41:-1 
9216 1:-0.085771 2:0.297208 3:0.578596 4:0.0921328 5:0.743792 6:-0.00317267 7:-0.831164 8:-0.420443 9:0.316896 10:-0.224235 11:-0.399055 12:0.611281 13:0.0681272 14:0.0103108 15:0.880912 16:-1 17:-1 18:-1 19:-1 20:-1 21:1 22:-1 23:-1 24:-1 25:-1 26:-1 27:-1 28:-1 29:-1 30:1 31:-1 32:-1 33:-1 34:-1 35:1 36:-1 37:-1 38:-1 39:1 40:-1 41:-1 
9216 1:-0.286321 2:0.78719 3:-0.851568 4:0.0156204 5:-1 6:-0.358612 7:-0.435529 8:-0.0489241 9:0.858087 10:0.471565 11:-0.0897374 12:0.877161 13:-0.491257 14:-0.0452024 15:-0.261926 16:-1 17:-1 18:-1 19:-1 20:-1 21:1 22:-1 23:-1 24:-1 25:-1 26:-1 27:-1 28:-1 29:-1 30:1 31:-1 32:-1 33:-1 34:-1 35:1 36:-1 37:-1 38:1 39:-1 40:-1 41:-1 
9216 1:0.3904 2:0.261747 3:-0.923737 4:-0.664729 5:0.104004 6:0.0558457 7:-0.785637 8:-0.0182314 9:0.39829 10:-0.172768 11:0.496077 12:0.53755 13:0.0902334 14:-0.403334 15:-0.727812 16:-1 17:-1 18:-1 19:-1 20:-1 21:-1 22:-1 23:1 24:-1 25:-1 26:-1 27:-1 28:-1 29:-1 30:1 31:-1 32:-1 33:-1 34:-1 35:1 36:-1 37:-1 38:-1 39:1 40:-1 41:-1 
9216 1:-0.3535 2:0.684942 3:-0.862286 4:-0.0455641 5:0.178707 6:0.553007 7:-0.661753 8:0.136435 9:0.934049 10:-0.353573 11:-0.0517931 12:-0.488132 13:-1 14:-0.160794 15:0.0710733 16:-1 17:-1 18:-1 19:-1 20:-1 21:-1 22:-1 23:-0.333333 24:-1 25:-1 26:-1 27:-1 28:1 29:-1 30:-1 31:-1 32:-1 33:-1 34:1 35:-1 36:-1 37:-1 38:1 39:-1 40:-1 41:-1 
9216 1:-0.126485 2:0.690893 3:-0.0788568 4:-0.21069 5:-0.895719 6:-0.0361002 7:-0.95384 8:-0.0332171 9:0.835093 10:-0.624864 11:-0.101265 12:0.548221 13:0.0310723 14:-0.0237253 15:-0.936467 16:-1 17:-1 18:-1 19:-1 20:-1 21:1 22:-1 23:-1 24:-1 25:-1 26:-1 27:-1 28:-1 29:1 30:-1 31:-1 32:-1 33:-1 34:1 35:-1 36:-1 37:-1 38:-1 39:1 40:-1 41:-1 
9216 1:0.176414 2:0.382227 3:-0.818198 4:-0.685706 5:-0.999886 6:-0.10668 7:-0.889561 8:-0.606203 9:0.50788 10:-0.146479 11:0.504643 12:0.540228 13:0.0863409 14:-0.162342 15:-0.943721 16:-1 17:-1 18:-1 19:-1 20:-1 21:-1 22:1 23:-1 24:-1 25:-1 26:-1 27:-1 28:-1 29:1 30:-1 31:-1 32:-1 33:-1 34:-1 35:1 36:-1 37:-1 38:-1 39:1 40:-1 41:-1 
9216 1:-0.017011 2:0.548507 3:0.337022 4:-0.309945 5:-0.422561 6:0.170587 7:-0.957499 8:0.341427 9:0.0026696 10:-0.823498 11:-0.582213 12:0.338701 13:-0.139138 14:-0.154906 15:-0.42751 16:-1 17:-1 18:-1 19:-1 20:-1 21:1 22:-1 23:-1 24:-1 25:-1 26:-1 27:-1 28:-1 29:-1 30:1 31:-1 32:-1 33:-1 34:1 35:-1 36:-1 37:-1 38:-1 39:1 40:-1 41:-1 
-512 1:0.400965 2:0.965491 3:0.338273 4:-0.503721 5:-0.999806 6:-0.401403 7:-0.643609 8:0.136996 9:0.562113 10:-0.170928 11:0.569164 12:0.417492 13:-0.0104599 14:0.348128 15:-0.243889 16:-1 17:-1 18:-1 19:-1 20:-1 21:1 22:-1 23:-1 24:-1 25:-1 26:-1 27:-1 28:-1 29:-1 30:1 31:-1 32:-1 33:-1 34:-1 35:1 36:-1 37:-1 38:-1 39:1 40:-1 41:-1 
-512 1:0.681224 2:0.531996 3:-0.977674 4:0.0708046 5:0.475545 6:0.0762796 7:-0.852425 8:0.136915 9:0.92482 10:-0.820275 11:-0.0341018 12:0.686024 13:-0.677102 14:-0.223098 15:0.285245 16:-1 17:-1 18:-1 19:-1 20:-1 21:-1 22:-1 23:-0.333333 24:-1 25:-1 26:-1 27:-1 28:-1 29:-1 30:-1 31:-1 32:-0.333333 33:-1 34:1 35:-1 36:-1 37:-1 38:1 39:-1 40:-1 41:-1 
-512 1:0.489728 2:0.188989 3:-0.967949 4:-0.234362 5:-0.952882 6:-0.167711 7:-0.844319 8:0.358176 9:0.364856 10:-0.162243 11:0.0998239 12:0.241844 13:-0.151437 14:0.169897 15:-0.569663 16:-1 17:-1 18:-1 19:-1 20:-1 21:1 22:-1 23:-1 24:-1 25:-1 26:-1 27:-1 28:-1 29:-1 30:1 31:-1 32:-1 33:-1 34:-1 35:1 36:-1 37:-1 38:-1 39:1 40:-1 41:-1 
-512 1:0.489728 2:0.174261 3:-0.962939 4:-0.234362 5:-0.963991 6:-0.204471 7:-0.844319 8:0.217214 9:0.373234 10:-0.162243 11:0.105347 12:0.270523 13:-0.151437 14:0.169897 15:-0.569663 16:-1 17:-1 18:-1 19:-1 20:-1 21:1 22:-1 23:-1 24:-1 25:-1 26:-1 27:-1 28:-1 29:-1 30:1 31:-1 32:-1 33:-1 34:-1 35:1 36:-1 37:-1 38:-1 39:1 40:-1 41:-1 
-512 1:0.465773 2:0.520492 3:-0.879537 4:-0.399768 5:0.108882 6:-0.308998 7:-0.806406 8:0.180831 9:0.919693 10:-0.499021 11:0.149616 12:0.990832 13:0.0333505 14:0.138885 15:-0.342572 16:-1 17:-1 18:-1 19:-1 20:-1 21:-1 22:1 23:-1 24:-1 25:-1 26:-1 27:-1 28:-1 29:-1 30:1 31:-1 32:-1 33:-1 34:-1 35:-1 36:1 37:-1 38:-1 39:-1 40:1 41:-1 
-512 1:-0.435173 2:0.971271 3:-0.697888 4:-0.187007 5:0.00555186 6:-0.176951 7:-0.608832 8:0.284049 9:0.758191 10:0.267101 11:-0.134726 12:0.471301 13:-0.0155098 14:-0.813807 15:-0.68763 16:-1 17:-1 18:-1 19:-1 20:1 21:-1 22:-1 23:-1 24:-1 25:-1 26:-1 27:-1 28:-1 29:-1 30:1 31:-1 32:-1 33:-1 34:-1 35:1 36:-1 37:-1 38:-1 39:1 40:-1 41:-1 
-512 1:-0.435173 2:0.971271 3:-0.697888 4:-0.273265 5:0.590133 6:-0.197821 7:-0.601203 8:0.284049 9:0.758191 10:0.267101 11:-0.134726 12:0.471301 13:-0.0155098 14:-0.361132 15:-0.0781806 16:-1 17:-1 18:-1 19:-1 20:1 21:-1 22:-1 23:-1 24:-1 25:-1 26:-1 27:-1 28:-1 29:-1 30:1 31:-1 32:-1 33:-1 34:-1 35:1 36:-1 37:-1 38:-1 39:1 40:-1 41:-1 
-512 1:-0.175022 2:0.605154 3:0.698699 4:0.0086837 5:-0.999992 6:-0.16436 7:-1 8:0.518452 9:0.679907 10:-0.646169 11:0.110551 12:0.978642 13:0.0302621 14:0.201646 15:0.147328 16:-1 17:-1 18:-1 19:-1 20:1 21:-1 22:-1 23:-1 24:-1 25:-1 26:1 27:-1 28:-1 29:-1 30:-1 31:-1 32:-1 33:-1 34:-1 35:-1 36:1 37:-1 38:-1 39:-1 40:-1 41:1 
-512 1:-0.757021 2:-0.786633 3:0.107046 4:-0.162332 5:-0.572242 6:-0.00857859 7:-0.954014 8:-0.52935 9:-0.211248 10:-0.386047 11:0.807637 12:0.432856 13:0.0470626 14:0.613927 15:0.755519 16:-1 17:-1 18:-1 19:-1 20:-1 21:1 22:-1 23:-1 24:-1 25:-1 26:-1 27:-1 28:-1 29:-1 30:1 31:-1 32:-1 33:-1 34:-1 35:1 36:-1 37:-1 38:-1 39:1 40:-1 41:-1 
-512 1:0.00828002 2:0.43589 3:-0.654452 4:0.374363 5:0.500771 6:-0.170862 7:-0.922515 8:0.217214 9:0.970019 10:-0.280931 11:-0.115994 12:0.988417 13:-0.617229 14:0.54154 15:0.548193 16:-1 17:-1 18:-1 19:1 20:-1 21:-1 22:-1 23:-1 24:-1 25:1 26:-1 27:-1 28:-1 29:-1 30:-1 31:-1 32:-1 33:-1 34:-1 35:-1 36:1 37:-1 38:-1 39:-1 40:-1 41:1 
-512 1:-0.158215 2:0.35762 3:-0.615517 4:-0.365755 5:-0.92784 6:0.0197312 7:-0.671543 8:-0.678888 9:0.974895 10:0.400346 11:0.40602 12:0.995462 13:0.414438 14:-0.391514 15:-0.923875 16:-1 17:-1 18:-1 19:-1 20:-1 21:1 22:-1 23:-1 24:-1 25:-1 26:-1 27:-1 28:-1 29:1 30:-1 31:-1 32:-1 33:-1 34:-1 35:1 36:-1 37:-1 38:-1 39:1 40:-1 41:-1 
-512 1:0.374314 2:0.345528 3:-0.86836 4:0.611219 5:-0.441754 6:-0.487834 7:-0.598676 8:-0.86617 9:0.921394 10:-0.0366751 11:0.813801 12:-0.301862 13:-0.30071 14:0.350929 15:-0.718006 16:-1 17:-1 18:-1 19:-1 20:-1 21:1 22:-1 23:-1 24:-1 25:-1 26:-1 27:-1 28:-1 29:-1 30:1 31:-1 32:-1 33:-1 34:-1 35:1 36:-1 37:-1 38:-1 39:1 40:-1 41:-1 
-512 1:0.132829 2:0.293531 3:-0.858197 4:-0.314326 5:-0.999704 6:0.180235 7:-0.944533 8:0.289578 9:0.919898 10:-0.506639 11:-0.0537944 12:0.369669 13:-0.733406 14:-0.374753 15:-0.756203 16:-1 17:-1 18:-1 19:-1 20:1 21:-1 22:-1 23:-1 24:-1 25:-1 26:1 27:-1 28:-1 29:-1 30:-1 31:-1 32:-1 33:-1 34:-1 35:-1 36:1 37:-1 38:-1 39:-1 40:-1 41:1 
-512 1:0.347791 2:0.576847 3:-0.779514 4:-0.237118 5:-0.492084 6:-0.206975 7:-0.95636 8:0.303282 9:0.39531 10:-0.137651 11:0.541226 12:0.866272 13:-0.313715 14:-0.93033 15:0.985896 16:-1 17:-1 18:-1 19:-1 20:-1 21:-1 22:-1 23:-0.333333 24:-1 25:-1 26:-1 27:-1 28:-1 29:-1 30:1 31:-1 32:-1 33:-1 34:-1 35:1 36:-1 37:-1 38:1 39:-1 40:-1 41:-1 
-512 1:0.390667 2:0.401309 3:-0.891822 4:0.201083 5:0.944169 6:0.192072 7:-1 8:-0.81368 9:0.251164 10:-0.255172 11:-0.427313 12:-0.407109 13:-0.381466 14:-0.46773 15:-0.0470893 16:-1 17:-1 18:-1 19:-1 20:-1 21:-1 22:-1 23:-0.333333 24:-1 25:-1 26:-1 27:-1 28:-1 29:-1 30:1 31:-1 32:-1 33:-1 34:-1 35:1 36:-1 37:-1 38:-1 39:1 40:-1 41:-1 
-512 1:0.188978 2:0.572659 3:-0.828094 4:-0.0449096 5:-0.751112 6:-0.272624 7:-0.472118 8:0.274192 9:0.9328 10:-0.467887 11:0.182917 12:0.607653 13:-0.615606 14:0.995707 15:-0.888106 16:-1 17:-1 18:-1 19:-1 20:-1 21:1 22:-1 23:-1 24:-1 25:1 26:-1 27:-1 28:-1 29:-1 30:-1 31:-1 32:-1 33:-1 34:-1 35:-1 36:1 37:-1 38:-1 39:-1 40:-1 41:1 
-512 1:0.188978 2:0.875354 3:0.170144 4:-0.0449096 5:-0.998334 6:-0.653125 7:-0.472118 8:0.181873 9:0.609832 10:-0.676047 11:0.275136 12:0.932366 13:-0.39296 14:0.995707 15:-0.888106 16:1 17:-1 18:-1 19:-1 20:-1 21:-1 22:-1 23:-1 24:-1 25:-1 26:-1 27:-1 28:-1 29:-1 30:1 31:-1 32:-1 33:-1 34:-1 35:-1 36:-1 37:1 38:-1 39:-1 40:1 41:-1 
-512 1:-0.268422 2:-0.652203 3:-0.581755 4:0.645284 5:-0.99955 6:-0.0656456 7:-0.932172 8:0.187402 9:0.833896 10:-0.547093 11:0.370717 12:-0.828042 13:-0.130086 14:0.785637 15:-0.981261 16:-1 17:-1 18:-1 19:-1 20:-1 21:1 22:-1 23:-1 24:-1 25:-1 26:-1 27:-1 28:-1 29:1 30:-1 31:-1 32:-1 33:-1 34:1 35:-1 36:-1 37:-1 38:-1 39:1 40:-1 41:-1 
-512 1:-0.268422 2:-0.652203 3:-0.581755 4:0.678231 5:-0.999541 6:-0.0657038 7:-0.932172 8:0.187402 9:0.833896 10:-0.547093 11:0.299792 12:-0.532626 13:-0.130086 14:0.836337 15:-0.99246 16:-1 17:-1 18:-1 19:-1 20:-1 21:1 22:-1 23:-1 24:-1 25:-1 26:-1 27:-1 28:-1 29:1 30:-1 31:-1 32:-1 33:-1 34:1 35:-1 36:-1 37:-1 38:-1 39:1 40:-1 41:-1 
-512 1:-0.49718 2:-0.0157707 3:0.301567 4:-0.65322 5:-1 6:-0.20337 7:-0.743804 8:0.316825 9:0.696413 10:-0.721973 11:0.542507 12:0.929881 13:-0.275436 14:-0.642235 15:0.344073 16:-1 17:-1 18:-1 19:-1 20:1 21:-1 22:-1 23:-1 24:-1 25:-1 26:-1 27:-1 28:-1 29:-1 30:1 31:-1 32:-1 33:-1 34:-1 35:-1 36:1 37:-1 38:-1 39:-1 40:1 41:-1 
-512 1:-0.10489 2:0.575513 3:-0.00204639 4:-0.158585 5:-0.998163 6:0.0132148 7:-0.888863 8:-0.249589 9:0.885695 10:-0.617183 11:0.0435479 12:0.856726 13:-0.466454 14:0.40454 15:0.193688 16:1 17:-1 18:-1 19:-1 20:-1 21:-1 22:-1 23:-1 24:-1 25:-1 26:-1 27:1 28:-1 29:-1 30:-1 31:-1 32:-1 33:-1 34:-1 35:-1 36:-1 37:1 38:-1 39:-1 40:-1 41:1 
-512 1:-0.102833 2:0.434247 3:-0.246554 4:-0.516017 5:-1 6:-0.111142 7:-0.62353 8:0.527988 9:-0.350084 10:-0.429001 11:-0.834694 12:0.997835 13:0.516234 14:0.90659 15:0.470206 16:-1 17:-1 18:-1 19:-1 20:-1 21:1 22:-1 23:-1 24:-1 25:-1 26:-1 27:-1 28:-1 29:-1 30:1 31:-1 32:-1 33:-1 34:-1 35:1 36:-1 37:-1 38:-1 39:1 40:-1 41:-1 
-512 1:-0.102833 2:0.434247 3:-0.246554 4:-0.591573 5:-1 6:-0.180786 7:-0.588324 8:0.527988 9:-0.350084 10:-0.429001 11:-0.541867 12:0.989178 13:-0.544346 14:0.887445 15:-0.983895 16:-1 17:-1 18:-1 19:-1 20:-1 21:1 22:-1 23:-1 24:-1 25:-1 26:-1 27:-1 28:-1 29:-1 30:1 31:-1 32:-1 33:-1 34:-1 35:1 36:-1 37:-1 38:1 39:-1 40:-1 41:-1 
-512 1:-0.102833 2:0.99185 3:0.0528331 4:-0.288534 5:-1 6:-0.378241 7:-0.764083 8:-0.230997 9:0.854789 10:0.202484 11:0.0657221 12:0.917488 13:-0.287692 14:0.0858502 15:0.131904 16:-1 17:-1 18:-1 19:-1 20:-1 21:1 22:-1 23:-1 24:-1 25:-1 26:-1 27:-1 28:-1 29:-1 30:1 31:-1 32:-1 33:-1 34:-1 35:1 36:-1 37:-1 38:1 39:-1 40:-1 41:-1 
-512 1:-0.102833 2:0.99185 3:0.0528331 4:-0.288534 5:-1 6:-0.371993 7:-0.747737 8:-0.230997 9:0.854789 10:0.202484 11:-0.541867 12:0.989178 13:-0.544346 14:0.0858502 15:0.131904 16:-1 17:-1 18:-1 19:-1 20:-1 21:1 22:-1 23:-1 24:-1 25:-1 26:-1 27:-1 28:-1 29:-1 30:1 31:-1 32:-1 33:-1 34:-1 35:1 36:-1 37:-1 38:1 39:-1 40:-1 41:-1 
-512 1:-0.102833 2:0.99185 3:0.0528331 4:-0.288534 5:-1 6:-0.386794 7:-0.817993 8:-0.230997 9:0.854789 10:0.202484 11:-0.834694 12:0.997835 13:0.516234 14:0.0858502 15:0.131904 16:-1 17:-1 18:-1 19:-1 20:-1 21:1 22:-1 23:-1 24:-1 25:-1 26:-1 27:-1 28:-1 29:-1 30:1 31:-1 32:-1 33:-1 34:-1 35:1 36:-1 37:-1 38:-1 39:1 40:-1 41:-1 
-512 1:-0.102833 2:0.99185 3:0.0528331 4:-0.220335 5:-1 6:-0.377576 7:-0.758989 8:-0.230997 9:0.854789 10:0.202484 11:-0.834694 12:0.997835 13:0.516234 14:-0.288632 15:0.880445 16:-1 17:-1 18:-1 19:-1 20:-1 21:1 22:-1 23:-1 24:-1 25:-1 26:-1 27:-1 28:-1 29:-1 30:1 31:-1 32:-1 33:-1 34:-1 35:1 36:-1 37:-1 38:-1 39:1 40:-1 41:-1 
-512 1:-0.102833 2:0.99185 3:0.0528331 4:-0.326995 5:-1 6:-0.427181 7:-0.763955 8:-0.230997 9:0.854789 10:0.202484 11:0.0657221 12:0.917488 13:-0.287692 14:-0.157131 15:0.554524 16:-1 17:-1 18:-1 19:-1 20:-1 21:1 22:-1 23:-1 24:-1 25:-1 26:-1 27:-1 28:-1 29:-1 30:1 31:-1 32:-1 33:-1 34:-1 35:1 36:-1 37:-1 38:1 39:-1 40:-1 41:-1 
-512 1:-0.102833 2:0.99185 3:0.0528331 4:-0.319786 5:-1 6:-0.421554 7:-0.681124 8:-0.230997 9:0.854789 10:0.202484 11:0.0657221 12:0.917488 13:-0.287692 14:-0.447535 15:0.509806 16:-1 17:-1 18:-1 19:-1 20:-1 21:1 22:-1 23:-1 24:-1 25:-1 26:-1 27:-1 28:-1 29:-1 30:1 31:-1 32:-1 33:-1 34:-1 35:1 36:-1 37:-1 38:1 39:-1 40:-1 41:-1 
-512 1:-0.102833 2:0.99185 3:0.0528331 4:-0.319786 5:-1 6:-0.415306 7:-0.664779 8:-0.230997 9:0.854789 10:0.202484 11:-0.541867 12:0.989178 13:-0.544346 14:-0.447535 15:0.509806 16:-1 17:-1 18:-1 19:-1 20:-1 21:1 22:-1 23:-1 24:-1 25:-1 26:-1 27:-1 28:-1 29:-1 30:1 31:-1 32:-1 33:-1 34:-1 35:1 36:-1 37:-1 38:1 39:-1 40:-1 41:-1 
-512 1:-0.102833 2:0.99185 3:0.0528331 4:-0.312077 5:-1 6:-0.420558 7:-0.740128 8:-0.230997 9:0.854789 10:0.202484 11:0.0657221 12:0.917488 13:-0.287692 14:-0.118981 15:-0.97494 16:-1 17:-1 18:-1 19:-1 20:-1 21:1 22:-1 23:-1 24:-1 25:-1 26:-1 27:-1 28:-1 29:-1 30:1 31:-1 32:-1 33:-1 34:-1 35:1 36:-1 37:-1 38:1 39:-1 40:-1 41:-1 
-512 1:-0.102833 2:0.99185 3:0.0528331 4:-0.312077 5:-1 6:-0.414311 7:-0.723783 8:-0.230997 9:0.854789 10:0.202484 11:-0.541867 12:0.989178 13:-0.544346 14:-0.118981 15:-0.97494 16:-1 17:-1 18:-1 19:-1 20:-1 21:1 22:-1 23:-1 24:-1 25:-1 26:-1 27:-1 28:-1 29:-1 30:1 31:-1 32:-1 33:-1 34:-1 35:1 36:-1 37:-1 38:1 39:-1 40:-1 41:-1 
-512 1:-0.102833 2:0.7268 3:-0.186284 4:-0.516017 5:-1 6:-0.106061 7:-0.758989 8:-0.507633 9:0.864344 10:0.202484 11:-0.834694 12:0.997835 13:0.516234 14:0.90659 15:0.470206 16:-1 17:-1 18:-1 19:-1 20:-1 21:1 22:-1 23:-1 24:-1 25:-1 26:-1 27:-1 28:-1 29:-1 30:1 31:-1 32:-1 33:-1 34:-1 35:1 36:-1 37:-1 38:-1 39:1 40:-1 41:-1 
-512 1:-0.102833 2:0.7268 3:-0.186284 4:-0.569977 5:-1 6:-0.182347 7:-0.763955 8:-0.507633 9:0.864344 10:0.202484 11:0.0657221 12:0.917488 13:-0.287692 14:0.782629 15:0.15448 16:-1 17:-1 18:-1 19:-1 20:-1 21:1 22:-1 23:-1 24:-1 25:-1 26:-1 27:-1 28:-1 29:-1 30:1 31:-1 32:-1 33:-1 34:-1 35:1 36:-1 37:-1 38:1 39:-1 40:-1 41:-1 
-512 1:-0.102833 2:0.7268 3:-0.186284 4:-0.514754 5:-1 6:-0.180911 7:-0.681124 8:-0.507633 9:0.864344 10:0.202484 11:0.0657221 12:0.917488 13:-0.287692 14:0.483047 15:0.116561 16:-1 17:-1 18:-1 19:-1 20:-1 21:1 22:-1 23:-1 24:-1 25:-1 26:-1 27:-1 28:-1 29:-1 30:1 31:-1 32:-1 33:-1 34:-1 35:1 36:-1 37:-1 38:1 39:-1 40:-1 41:-1 
-512 1:-0.102833 2:0.7268 3:-0.186284 4:-0.514754 5:-1 6:-0.181706 7:-0.664779 8:-0.507633 9:0.864344 10:0.202484 11:-0.541867 12:0.989178 13:-0.544346 14:0.483047 15:0.116561 16:-1 17:-1 18:-1 19:-1 20:-1 21:1 22:-1 23:-1 24:-1 25:-1 26:-1 27:-1 28:-1 29:-1 30:1 31:-1 32:-1 33:-1 34:-1 35:1 36:-1 37:-1 38:1 39:-1 40:-1 41:-1 
-512 1:-0.102833 2:0.7268 3:-0.186284 4:-0.591573 5:-1 6:-0.1722 7:-0.740128 8:-0.507633 9:0.864344 10:0.202484 11:0.0657221 12:0.917488 13:-0.287692 14:0.887445 15:-0.983895 16:-1 17:-1 18:-1 19:-1 20:-1 21:1 22:-1 23:-1 24:-1 25:-1 26:-1 27:-1 28:-1 29:-1 30:1 31:-1 32:-1 33:-1 34:-1 35:1 36:-1 37:-1 38:1 39:-1 40:-1 41:-1 
-512 1:-0.102833 2:0.7268 3:-0.186284 4:-0.591573 5:-1 6:-0.172994 7:-0.723783 8:-0.507633 9:0.864344 10:0.202484 11:-0.541867 12:0.989178 13:-0.544346 14:0.887445 15:-0.983895 16:-1 17:-1 18:-1 19:-1 20:-1 21:1 22:-1 23:-1 24:-1 25:-1 26:-1 27:-1 28:-1 29:-1 30:1 31:-1 32:-1 33:-1 34:-1 35:1 36:-1 37:-1 38:1 39:-1 40:-1 41:-1 
-512 1:0.753145 2:0.861152 3:-0.911318 4:-0.430951 5:-0.99997 6:-0.188303 7:-0.614752 8:-0.160636 9:0.931564 10:-0.470496 11:0.26537 12:0.816952 13:-0.568157 14:0.576485 15:-0.991565 16:1 17:-1 18:-1 19:-1 20:-1 21:-1 22:-1 23:-1 24:-1 25:-1 26:-1 27:-1 28:-1 29:1 30:-1 31:-1 32:-1 33:-1 34:-1 35:-1 36:-1 37:1 38:-1 39:-1 40:1 41:-1 
-512 1:0.0637901 2:0.52327 3:-0.139644 4:-0.296707 5:-0.978566 6:-0.0670879 7:-0.80673 8:0.246143 9:0.237387 10:-0.181162 11:0.411303 12:0.552066 13:0.0923594 14:-0.216207 15:0.216829 16:-1 17:-1 18:-1 19:-1 20:1 21:-1 22:-1 23:-1 24:-1 25:-1 26:-1 27:-1 28:-1 29:-1 30:1 31:-1 32:-1 33:-1 34:-1 35:1 36:-1 37:-1 38:-1 39:1 40:-1 41:-1 
-512 1:0.14329 2:0.948622 3:-0.455695 4:-0.2294 5:-1 6:-0.22041 7:-0.82849 8:-0.115679 9:0.913962 10:-0.502966 11:-0.117515 12:0.887864 13:-0.567419 14:0.0484111 15:0.966771 16:1 17:-1 18:-1 19:-1 20:-1 21:-1 22:-1 23:-1 24:-1 25:1 26:-1 27:-1 28:-1 29:-1 30:-1 31:-1 32:-1 33:-1 34:-1 35:-1 36:-1 37:1 38:-1 39:-1 40:-1 41:1 
-512 1:0.00703639 2:0.910274 3:0.645489 4:-0.226198 5:0.186136 6:-0.160888 7:-0.744623 8:-0.183235 9:0.811219 10:-0.676917 11:0.60887 12:-0.509239 13:-0.28405 14:0.578146 15:-0.303547 16:-1 17:-1 18:-1 19:-1 20:-1 21:-1 22:-1 23:-0.333333 24:-1 25:-1 26:-1 27:-1 28:-1 29:-1 30:1 31:-1 32:-1 33:-1 34:1 35:-1 36:-1 37:-1 38:-1 39:1 40:-1 41:-1 
-512 1:0.00703639 2:0.898463 3:0.685174 4:-0.226198 5:0.202971 6:-0.138995 7:-0.730624 8:-0.354249 9:0.90073 10:-0.889822 11:-0.722382 12:-0.512533 13:-0.369971 14:0.578146 15:-0.303547 16:-1 17:-1 18:-1 19:-1 20:-1 21:-1 22:-1 23:-0.333333 24:-1 25:-1 26:-1 27:-1 28:-1 29:-1 30:1 31:-1 32:-1 33:-1 34:1 35:-1 36:-1 37:-1 38:-1 39:1 40:-1 41:-1 
-512 1:0.00703639 2:0.898463 3:0.685174 4:-0.226198 5:0.186136 6:-0.154532 7:-0.721827 8:-0.354249 9:0.90073 10:-0.889822 11:0.60887 12:-0.509239 13:-0.28405 14:0.578146 15:-0.303547 16:-1 17:-1 18:-1 19:-1 20:-1 21:-1 22:-1 23:-0.333333 24:-1 25:-1 26:-1 27:-1 28:-1 29:-1 30:1 31:-1 32:-1 33:-1 34:1 35:-1 36:-1 37:-1 38:-1 39:1 40:-1 41:-1 
-512 1:-0.600302 2:0.571835 3:-0.762452 4:-0.587389 5:-0.180755 6:-0.176357 7:-0.785004 8:0.0714429 9:0.379768 10:-0.251191 11:-0.180035 12:0.125297 13:-0.239788 14:-0.28584 15:-0.323553 16:-1 17:-1 18:-1 19:-1 20:-1 21:1 22:-1 23:-1 24:-1 25:-1 26:-1 27:-1 28:1 29:-1 30:-1 31:-1 32:-1 33:-1 34:-1 35:1 36:-1 37:-1 38:-1 39:1 40:-1 41:-1 
-512 1:0.00300331 2:0.41861 3:-0.577102 4:0.224648 5:0.0424622 6:-0.162099 7:-0.504658 8:0.326281 9:0.859331 10:-0.624879 11:0.118076 12:0.413981 13:-0.816777 14:-0.369815 15:0.558365 16:-1 17:-1 18:-1 19:-1 20:1 21:-1 22:-1 23:-1 24:-1 25:1 26:-1 27:-1 28:-1 29:-1 30:-1 31:-1 32:-1 33:-1 34:-1 35:-1 36:1 37:-1 38:-1 39:-1 40:-1 41:1 
-512 1:0.367515 2:0.152528 3:-0.952794 4:-0.658977 5:-0.962886 6:-0.31926 7:-0.933986 8:0.115278 9:0.828012 10:-0.766027 11:-0.451489 12:0.984333 13:-0.22297 14:-0.223853 15:-0.954499 16:-1 17:-1 18:-1 19:-1 20:-1 21:-1 22:1 23:-1 24:-1 25:-1 26:-1 27:-1 28:-1 29:-1 30:1 31:-1 32:-1 33:-1 34:1 35:-1 36:-1 37:-1 38:1 39:-1 40:-1 41:-1 
-512 1:0.367515 2:0.314483 3:-0.856735 4:0.312215 5:-0.999199 6:-0.326537 7:-0.933986 8:-0.367873 9:0.938452 10:-0.766027 11:0.260327 12:0.724865 13:-0.529641 14:-0.325989 15:-0.995064 16:-1 17:-1 18:-1 19:-1 20:-1 21:-1 22:1 23:-1 24:-1 25:-1 26:-1 27:-1 28:-1 29:-1 30:1 31:-1 32:-1 33:-1 34:1 35:-1 36:-1 37:-1 38:1 39:-1 40:-1 41:-1 
-512 1:-0.425875 2:0.628201 3:0.267627 4:-0.378748 5:-1 6:-0.835344 7:-0.538763 8:-0.245743 9:0.941294 10:-0.467654 11:0.501121 12:0.946765 13:-0.373218 14:0.0855682 15:-0.994616 16:1 17:-1 18:-1 19:-1 20:-1 21:-1 22:-1 23:-1 24:-1 25:-1 26:-1 27:-1 28:-1 29:-1 30:1 31:-1 32:-1 33:-1 34:-1 35:-1 36:-1 37:1 38:-1 39:-1 40:1 41:-1 
-512 1:-0.425875 2:0.628201 3:0.267627 4:-0.295825 5:-1 6:-0.83622 7:-0.519042 8:-0.245743 9:0.941294 10:-0.467654 11:0.501121 12:0.946765 13:-0.373218 14:0.139709 15:-0.996679 16:1 17:-1 18:-1 19:-1 20:-1 21:-1 22:-1 23:-1 24:-1 25:-1 26:-1 27:-1 28:-1 29:-1 30:1 31:-1 32:-1 33:-1 34:-1 35:-1 36:-1 37:1 38:-1 39:-1 40:1 41:-1 
-512 1:-0.425875 2:0.639387 3:0.277266 4:-0.378748 5:-1 6:-0.838726 7:-0.538763 8:0.101414 9:0.889038 10:-0.427298 11:0.501121 12:0.946765 13:-0.373218 14:0.0855682 15:-0.994616 16:1 17:-1 18:-1 19:-1 20:-1 21:-1 22:-1 23:-1 24:-1 25:-1 26:-1 27:-1 28:-1 29:-1 30:1 31:-1 32:-1 33:-1 34:-1 35:-1 36:-1 37:1 38:-1 39:-1 40:1 41:-1 
-512 1:-0.425875 2:0.639387 3:0.277266 4:-0.295825 5:-1 6:-0.840291 7:-0.519042 8:0.101414 9:0.889038 10:-0.427298 11:0.501121 12:0.946765 13:-0.373218 14:0.139709 15:-0.996679 16:1 17:-1 18:-1 19:-1 20:-1 21:-1 22:-1 23:-1 24:-1 25:-1 26:-1 27:-1 28:-1 29:-1 30:1 31:-1 32:-1 33:-1 34:-1 35:-1 36:-1 37:1 38:-1 39:-1 40:1 41:-1 
-512 1:-0.317574 2:0.533388 3:-0.553345 4:0.0484491 5:-0.401226 6:-0.187344 7:-1 8:0.0281684 9:0.976749 10:-0.692098 11:-0.20309 12:0.976643 13:-0.170314 14:-0.834855 15:-0.221146 16:1 17:-1 18:-1 19:-1 20:-1 21:-1 22:-1 23:-1 24:-1 25:1 26:-1 27:-1 28:-1 29:-1 30:-1 31:-1 32:-1 33:-1 34:-1 35:-1 36:-1 37:1 38:-1 39:-1 40:-1 41:1 
-512 1:0.67217 2:0.618231 3:-0.970126 4:-0.486932 5:0.893126 6:-0.0667472 7:-0.768881 8:0.27884 9:0.942755 10:-0.306468 11:-0.00560359 12:0.959796 13:-0.281101 14:-0.40924 15:0.692589 16:-1 17:-1 18:-1 19:-1 20:-1 21:1 22:-1 23:-1 24:-1 25:1 26:-1 27:-1 28:-1 29:-1 30:-1 31:-1 32:-1 33:-1 34:-1 35:-1 36:1 37:-1 38:-1 39:-1 40:-1 41:1 
-512 1:0.67217 2:0.618231 3:-0.970126 4:-0.486932 5:0.948607 6:-0.0680184 7:-0.760133 8:0.27884 9:0.942755 10:-0.306468 11:-0.336055 12:0.968221 13:-0.406118 14:-0.40924 15:0.692589 16:-1 17:-1 18:-1 19:-1 20:-1 21:1 22:-1 23:-1 24:-1 25:1 26:-1 27:-1 28:-1 29:-1 30:-1 31:-1 32:-1 33:-1 34:-1 35:-1 36:1 37:-1 38:-1 39:-1 40:-1 41:1 
-512 1:0.67217 2:0.618231 3:-0.970126 4:-0.767563 5:0.65666 6:-0.109402 7:-0.545141 8:0.27884 9:0.942755 10:-0.306468 11:-0.00560359 12:0.959796 13:-0.281101 14:-0.86191 15:0.0401463 16:-1 17:-1 18:-1 19:-1 20:-1 21:1 22:-1 23:-1 24:-1 25:1 26:-1 27:-1 28:-1 29:-1 30:-1 31:-1 32:-1 33:-1 34:-1 35:-1 36:1 37:-1 38:-1 39:-1 40:-1 41:1 
-512 1:0.67217 2:0.618231 3:-0.970126 4:-0.646769 5:0.0951663 6:-0.0882669 7:-0.67233 8:0.27884 9:0.942755 10:-0.306468 11:-0.00560359 12:0.959796 13:-0.281101 14:-0.653923 15:-0.596495 16:-1 17:-1 18:-1 19:-1 20:-1 21:1 22:-1 23:-1 24:-1 25:1 26:-1 27:-1 28:-1 29:-1 30:-1 31:-1 32:-1 33:-1 34:-1 35:-1 36:1 37:-1 38:-1 39:-1 40:-1 41:1 
-512 1:0.159875 2:0.826565 3:-0.911159 4:-0.510926 5:-0.334055 6:-0.27271 7:-0.760725 8:0.275794 9:0.969772 10:-0.051363 11:0.286583 12:0.941742 13:-0.533368 14:0.0541391 15:0.0399099 16:-1 17:-1 18:-1 19:-1 20:-1 21:1 22:-1 23:-1 24:-1 25:-1 26:-1 27:-1 28:1 29:-1 30:-1 31:-1 32:-1 33:-1 34:-1 35:-1 36:1 37:-1 38:-1 39:-1 40:1 41:-1 
-512 1:-0.126485 2:0.472491 3:-0.800391 4:-0.601018 5:0.738751 6:0.205889 7:-0.481689 8:0.402172 9:0.926316 10:-0.36739 11:0.231908 12:0.90588 13:-0.416151 14:-0.334008 15:-0.0138503 16:-1 17:-1 18:-1 19:-1 20:-1 21:-1 22:-1 23:0.333333 24:-1 25:-1 26:-1 27:-1 28:-1 29:1 30:-1 31:-1 32:-1 33:-1 34:-1 35:-1 36:1 37:-1 38:-1 39:-1 40:1 41:-1 
-512 1:0.325336 2:0.590979 3:-0.498868 4:0.195774 5:-0.998335 6:-0.284331 7:-1 8:-0.60452 9:0.593268 10:-0.15259 11:0.334934 12:0.865433 13:0.330088 14:0.764172 15:0.576239 16:-1 17:-1 18:-1 19:-1 20:-1 21:1 22:-1 23:-1 24:-1 25:-1 26:-1 27:-1 28:-1 29:-1 30:1 31:-1 32:-1 33:-1 34:-1 35:1 36:-1 37:-1 38:-1 39:1 40:-1 41:-1 
-512 1:0.138373 2:0.665757 3:-0.691706 4:-0.310101 5:-0.122877 6:-0.37636 7:-0.466757 8:0.423088 9:0.959762 10:-0.180752 11:0.154979 12:0.879071 13:-0.545535 14:-0.382449 15:-0.586715 16:-1 17:-1 18:-1 19:-1 20:-1 21:1 22:-1 23:-1 24:-1 25:-1 26:-1 27:-1 28:-1 29:1 30:-1 31:-1 32:-1 33:-1 34:-1 35:-1 36:1 37:-1 38:-1 39:-1 40:1 41:-1 
-512 1:-0.408952 2:0.472914 3:-0.503579 4:-0.292597 5:0.354171 6:-0.252332 7:-0.808128 8:0.144769 9:0.947061 10:-0.397221 11:0.200048 12:0.967538 13:-0.188851 14:-0.269151 15:-0.515995 16:-1 17:-1 18:-1 19:-1 20:-1 21:1 22:-1 23:-1 24:-1 25:-1 26:-1 27:-1 28:-1 29:-1 30:1 31:-1 32:-1 33:-1 34:-1 35:-1 36:1 37:-1 38:-1 39:-1 40:1 41:-1 
-512 1:-0.408952 2:0.472914 3:-0.503579 4:-0.316073 5:0.400361 6:-0.247444 7:-0.808128 8:0.144769 9:0.947061 10:-0.397221 11:0.200048 12:0.967538 13:-0.188851 14:-0.195222 15:-0.320845 16:-1 17:-1 18:-1 19:-1 20:-1 21:1 22:-1 23:-1 24:-1 25:-1 26:-1 27:-1 28:-1 29:-1 30:1 31:-1 32:-1 33:-1 34:-1 35:-1 36:1 37:-1 38:-1 39:-1 40:1 41:-1 
-512 1:-0.408952 2:0.472914 3:-0.503579 4:-0.292597 5:0.354171 6:-0.252332 7:-0.808128 8:0.253756 9:0.989668 10:-0.118908 11:0.200048 12:0.967538 13:-0.188851 14:-0.269151 15:-0.515995 16:-1 17:-1 18:-1 19:-1 20:-1 21:1 22:-1 23:-1 24:-1 25:-1 26:-1 27:-1 28:-1 29:-1 30:1 31:-1 32:-1 33:-1 34:-1 35:-1 36:1 37:-1 38:-1 39:-1 40:1 41:-1 
-512 1:-0.408952 2:0.472914 3:-0.503579 4:-0.316073 5:0.400361 6:-0.247444 7:-0.808128 8:0.253756 9:0.989668 10:-0.118908 11:0.200048 12:0.967538 13:-0.188851 14:-0.195222 15:-0.320845 16:-1 17:-1 18:-1 19:-1 20:-1 21:1 22:-1 23:-1 24:-1 25:-1 26:-1 27:-1 28:-1 29:-1 30:1 31:-1 32:-1 33:-1 34:-1 35:-1 36:1 37:-1 38:-1 39:-1 40:1 41:-1 
-512 1:-0.380849 2:0.651528 3:-0.894634 4:-0.878925 5:-0.999843 6:0.83954 7:-0.682407 8:0.0642305 9:0.996583 10:0.047426 11:0.176993 12:0.988277 13:-0.514875 14:0.680038 15:-0.996309 16:-1 17:-1 18:-1 19:-1 20:-1 21:-1 22:-1 23:0.333333 24:-1 25:-1 26:-1 27:-1 28:-1 29:-1 30:-1 31:1 32:-1 33:-1 34:-1 35:-1 36:1 37:-1 38:-1 39:-1 40:1 41:-1 
-512 1:-0.380849 2:0.651528 3:-0.894634 4:-0.5166 5:-0.992324 6:0.759138 7:-0.745124 8:0.0642305 9:0.996583 10:0.047426 11:0.176993 12:0.988277 13:-0.514875 14:-0.230327 15:-0.850911 16:-1 17:-1 18:-1 19:-1 20:-1 21:-1 22:-1 23:0.333333 24:-1 25:-1 26:-1 27:-1 28:-1 29:-1 30:-1 31:1 32:-1 33:-1 34:-1 35:-1 36:1 37:-1 38:-1 39:-1 40:1 41:-1 
-512 1:-0.380849 2:0.651528 3:-0.894634 4:-0.561181 5:-0.997796 6:0.763668 7:-0.697568 8:0.0642305 9:0.996583 10:0.047426 11:0.176993 12:0.988277 13:-0.514875 14:-0.386162 15:-0.959325 16:-1 17:-1 18:-1 19:-1 20:-1 21:-1 22:-1 23:0.333333 24:-1 25:-1 26:-1 27:-1 28:-1 29:-1 30:-1 31:1 32:-1 33:-1 34:-1 35:-1 36:1 37:-1 38:-1 39:-1 40:1 41:-1 
-512 1:-0.380849 2:0.505766 3:-0.903066 4:-0.878925 5:-0.999966 6:0.827333 7:-0.682407 8:0.291181 9:0.985402 10:0.047426 11:-0.0674832 12:0.992603 13:-0.514875 14:0.680038 15:-0.996309 16:-1 17:-1 18:-1 19:-1 20:-1 21:-1 22:-1 23:0.333333 24:-1 25:-1 26:-1 27:-1 28:-1 29:-1 30:-1 31:1 32:-1 33:-1 34:-1 35:-1 36:1 37:-1 38:-1 39:-1 40:1 41:-1 
-512 1:-0.380849 2:0.505766 3:-0.903066 4:-0.5166 5:-0.999324 6:0.75309 7:-0.745124 8:0.291181 9:0.985402 10:0.047426 11:-0.0674832 12:0.992603 13:-0.514875 14:-0.230327 15:-0.850911 16:-1 17:-1 18:-1 19:-1 20:-1 21:-1 22:-1 23:0.333333 24:-1 25:-1 26:-1 27:-1 28:-1 29:-1 30:-1 31:1 32:-1 33:-1 34:-1 35:-1 36:1 37:-1 38:-1 39:-1 40:1 41:-1 
-512 1:-0.380849 2:0.505766 3:-0.903066 4:-0.561181 5:-0.999796 6:0.755786 7:-0.697568 8:0.291181 9:0.985402 10:0.047426 11:-0.0674832 12:0.992603 13:-0.514875 14:-0.386162 15:-0.959325 16:-1 17:-1 18:-1 19:-1 20:-1 21:-1 22:-1 23:0.333333 24:-1 25:-1 26:-1 27:-1 28:-1 29:-1 30:-1 31:1 32:-1 33:-1 34:-1 35:-1 36:1 37:-1 38:-1 39:-1 40:1 41:-1 
-512 1:0.353196 2:0.467963 3:-0.828713 4:-0.144493 5:-0.261466 6:-0.129871 7:-0.934499 8:0.0911568 9:0.383477 10:-0.874545 11:-0.26617 12:0.964035 13:-0.387277 14:-0.684961 15:-0.706863 16:-1 17:-1 18:-1 19:-1 20:-1 21:-1 22:1 23:-1 24:-1 25:-1 26:-1 27:-1 28:-1 29:-1 30:1 31:-1 32:-1 33:-1 34:1 35:-1 36:-1 37:-1 38:1 39:-1 40:-1 41:-1 
-512 1:0.353196 2:0.531454 3:-0.8178 4:-0.126083 5:-0.90937 6:-0.124114 7:-0.934499 8:0.0345795 9:0.35259 10:-0.874545 11:-0.26617 12:0.964035 13:-0.387277 14:-0.805682 15:-0.99196 16:-1 17:-1 18:-1 19:-1 20:-1 21:-1 22:1 23:-1 24:-1 25:-1 26:-1 27:-1 28:-1 29:-1 30:1 31:-1 32:-1 33:-1 34:1 35:-1 36:-1 37:-1 38:1 39:-1 40:-1 41:-1 
-512 1:0.353196 2:0.593751 3:-0.65062 4:0.0533493 5:-0.999837 6:-0.153106 7:-0.927152 8:0.0425933 9:0.0331257 10:-0.874545 11:-0.297711 12:0.979352 13:-0.559791 14:0.0277393 15:-0.199809 16:-1 17:-1 18:-1 19:-1 20:-1 21:-1 22:1 23:-1 24:-1 25:-1 26:-1 27:-1 28:-1 29:-1 30:1 31:-1 32:-1 33:-1 34:1 35:-1 36:-1 37:-1 38:1 39:-1 40:-1 41:-1 
-512 1:0.353196 2:0.630042 3:-0.589129 4:0.04814 5:-0.999965 6:-0.170861 7:-0.927152 8:0.0696798 9:-0.0477887 10:-0.874545 11:-0.297711 12:0.979352 13:-0.559791 14:-0.134789 15:-0.837977 16:-1 17:-1 18:-1 19:-1 20:-1 21:-1 22:1 23:-1 24:-1 25:-1 26:-1 27:-1 28:-1 29:-1 30:1 31:-1 32:-1 33:-1 34:1 35:-1 36:-1 37:-1 38:1 39:-1 40:-1 41:-1 
-512 1:0.353196 2:0.631913 3:-0.565828 4:0.0533493 5:-0.999123 6:-0.144293 7:-0.927152 8:-0.147814 9:0.94672 10:-0.623864 11:0.505844 12:-0.416153 13:-0.827919 14:0.0277393 15:-0.199809 16:-1 17:-1 18:-1 19:-1 20:-1 21:-1 22:1 23:-1 24:-1 25:-1 26:-1 27:-1 28:-1 29:-1 30:1 31:-1 32:-1 33:-1 34:1 35:-1 36:-1 37:-1 38:1 39:-1 40:-1 41:-1 
-512 1:0.353196 2:0.667035 3:-0.505502 4:0.04814 5:-0.999805 6:-0.162218 7:-0.927152 8:-0.159034 9:0.969603 10:-0.623864 11:0.505844 12:-0.416153 13:-0.827919 14:-0.134789 15:-0.837977 16:-1 17:-1 18:-1 19:-1 20:-1 21:-1 22:1 23:-1 24:-1 25:-1 26:-1 27:-1 28:-1 29:-1 30:1 31:-1 32:-1 33:-1 34:1 35:-1 36:-1 37:-1 38:1 39:-1 40:-1 41:-1 
-512 1:-0.393285 2:0.639366 3:-0.944787 4:-0.398764 5:0.466805 6:-0.224214 7:-0.813804 8:-0.316264 9:0.984782 10:-0.0685853 11:0.273775 12:0.926401 13:-0.664443 14:-0.55263 15:0.164666 16:1 17:-1 18:-1 19:-1 20:-1 21:-1 22:-1 23:-1 24:-1 25:-1 26:-1 27:-1 28:1 29:-1 30:-1 31:-1 32:-1 33:-1 34:-1 35:-1 36:-1 37:1 38:-1 39:-1 40:1 41:-1 
-512 1:0.406835 2:0.834559 3:-0.687299 4:-0.767818 5:-0.998586 6:-0.408066 7:-0.447119 8:0.135954 9:0.941642 10:-0.615631 11:0.233109 12:0.98855 13:-0.355631 14:-0.38233 15:-0.555449 16:-1 17:-1 18:-1 19:-1 20:-1 21:1 22:-1 23:-1 24:-1 25:-1 26:-1 27:-1 28:-1 29:1 30:-1 31:-1 32:-1 33:-1 34:-1 35:-1 36:1 37:-1 38:-1 39:-1 40:1 41:-1 
-512 1:0.406835 2:0.834559 3:-0.687299 4:-0.278532 5:-0.988511 6:-0.277153 7:-0.655209 8:0.135954 9:0.941642 10:-0.615631 11:0.233109 12:0.98855 13:-0.355631 14:0.0237567 15:0.832022 16:-1 17:-1 18:-1 19:-1 20:-1 21:1 22:-1 23:-1 24:-1 25:-1 26:-1 27:-1 28:-1 29:1 30:-1 31:-1 32:-1 33:-1 34:-1 35:-1 36:1 37:-1 38:-1 39:-1 40:1 41:-1 
-512 1:0.406835 2:0.834559 3:-0.687299 4:-0.278532 5:-0.952857 6:-0.272385 7:-0.682122 8:0.135954 9:0.941642 10:-0.615631 11:0.247278 12:0.988953 13:-0.355631 14:0.0237567 15:0.832022 16:-1 17:-1 18:-1 19:-1 20:-1 21:1 22:-1 23:-1 24:-1 25:-1 26:-1 27:-1 28:-1 29:1 30:-1 31:-1 32:-1 33:-1 34:-1 35:-1 36:1 37:-1 38:-1 39:-1 40:1 41:-1 
-512 1:0.406835 2:0.834559 3:-0.687299 4:-0.278532 5:-0.945416 6:-0.31001 7:-0.487504 8:0.135954 9:0.941642 10:-0.615631 11:0.535783 12:0.964571 13:-0.355631 14:0.0237567 15:0.832022 16:-1 17:-1 18:-1 19:-1 20:-1 21:1 22:-1 23:-1 24:-1 25:-1 26:-1 27:-1 28:-1 29:1 30:-1 31:-1 32:-1 33:-1 34:-1 35:-1 36:1 37:-1 38:-1 39:-1 40:1 41:-1 
-512 1:0.406835 2:0.605735 3:-0.782095 4:-0.000443974 5:-0.984672 6:-0.337176 7:-0.655209 8:0.0908362 9:0.896086 10:-0.615631 11:0.233109 12:0.98855 13:-0.355631 14:-0.515626 15:-0.937882 16:-1 17:-1 18:-1 19:-1 20:-1 21:1 22:-1 23:-1 24:-1 25:-1 26:-1 27:-1 28:-1 29:1 30:-1 31:-1 32:-1 33:-1 34:-1 35:-1 36:1 37:-1 38:-1 39:-1 40:1 41:-1 
-512 1:0.406835 2:0.605735 3:-0.782095 4:-0.000443974 5:-0.948695 6:-0.344599 7:-0.682122 8:0.0908362 9:0.896086 10:-0.615631 11:0.247278 12:0.988953 13:-0.355631 14:-0.515626 15:-0.937882 16:-1 17:-1 18:-1 19:-1 20:-1 21:1 22:-1 23:-1 24:-1 25:-1 26:-1 27:-1 28:-1 29:1 30:-1 31:-1 32:-1 33:-1 34:-1 35:-1 36:1 37:-1 38:-1 39:-1 40:1 41:-1 
-512 1:0.406835 2:0.605735 3:-0.782095 4:-0.000443974 5:-0.928445 6:-0.361694 7:-0.487504 8:0.0908362 9:0.896086 10:-0.615631 11:0.535783 12:0.964571 13:-0.355631 14:-0.515626 15:-0.937882 16:-1 17:-1 18:-1 19:-1 20:-1 21:1 22:-1 23:-1 24:-1 25:-1 26:-1 27:-1 28:-1 29:1 30:-1 31:-1 32:-1 33:-1 34:-1 35:-1 36:1 37:-1 38:-1 39:-1 40:1 41:-1 
-512 1:0.820906 2:0.768057 3:-0.974913 4:0.108188 5:0.0594951 6:-0.286028 7:-0.669807 8:-0.185078 9:0.896208 10:-0.599465 11:0.174912 12:0.925581 13:-0.442018 14:-0.952158 15:0.126981 16:-1 17:-1 19:-1 20:-1 21:-1 22:-1 23:-1 24:-1 25:-1 26:-1 27:-1 28:-1 29:1 30:-1 31:-1 32:-1 33:-1 34:-1 35:-1 36:-1 37:1 38:-1 39:-1 40:1 41:-1 
-512 1:0.820906 2:0.768057 3:-0.974913 4:-0.0672287 5:0.000163143 6:-0.286039 7:-0.669807 8:-0.185078 9:0.896208 10:-0.599465 11:-0.129283 12:0.980608 13:-0.442018 14:0.550878 15:0.707458 16:-1 17:-1 19:-1 20:-1 21:-1 22:-1 23:-1 24:-1 25:-1 26:-1 27:-1 28:-1 29:1 30:-1 31:-1 32:-1 33:-1 34:-1 35:-1 36:-1 37:1 38:-1 39:-1 40:1 41:-1 
-512 1:-0.13189 2:0.427774 3:-0.56756 4:-0.310289 5:-0.119001 6:-0.089014 7:-0.956178 8:0.281965 9:0.976856 10:-0.226024 11:0.267851 12:0.913429 13:-0.485423 14:0.509281 15:-0.447472 16:-1 17:-1 18:-1 19:-1 20:1 21:-1 22:-1 23:-1 24:-1 25:-1 26:-1 27:-1 28:-1 29:1 30:-1 31:-1 32:-1 33:-1 34:-1 35:-1 36:1 37:-1 38:-1 39:-1 40:1 41:-1 
-512 1:0.135839 2:0.433476 3:-0.90131 4:-0.704967 5:-0.854518 6:0.364401 7:-0.924636 8:0.225788 9:0.992154 10:-0.0213664 11:0.145533 12:0.88141 13:-0.656146 14:-0.200483 15:0.901347 16:-1 17:-1 18:-1 19:-1 20:-1 21:-1 22:-1 23:0.333333 24:-1 25:-1 26:-1 27:-1 28:-1 29:1 30:-1 31:-1 32:-1 33:-1 34:-1 35:-1 36:1 37:-1 38:-1 39:-1 40:1 41:-1 
-512 1:-0.160238 2:0.720206 3:-0.38683 4:-0.733281 5:-0.873505 6:-0.21554 7:-0.934075 8:0.0191129 9:0.980521 10:-0.300044 11:0.557237 12:0.878419 13:-0.442061 14:-0.765705 15:0.438712 16:-1 17:-1 18:-1 19:1 20:-1 21:-1 22:-1 23:-1 24:-1 25:-1 26:-1 27:-1 28:-1 29:-1 30:-1 31:1 32:-1 33:-1 34:-1 35:-1 36:1 37:-1 38:-1 39:-1 40:1 41:-1 
-512 1:-0.912334 2:0.127942 3:-0.724461 4:-0.553664 5:-0.596207 6:-0.241576 7:-0.398574 8:0.268903 9:0.942942 10:-0.358574 11:0.322767 12:0.821073 13:-0.531865 14:0.0260817 15:-0.93079 16:-1 17:-1 18:-1 19:-1 20:-1 21:1 22:-1 23:-1 24:-1 25:-1 26:-1 27:-1 28:-1 29:1 30:-1 31:-1 32:-1 33:-1 34:-1 35:-1 36:1 37:-1 38:-1 39:-1 40:1 41:-1 
-512 1:-0.912334 2:0.127942 3:-0.724461 4:-0.553664 5:-0.712422 6:-0.215427 7:-0.312318 8:0.268903 9:0.942942 10:-0.358574 11:0.543708 12:0.761172 13:-0.531865 14:0.0260817 15:-0.93079 16:-1 17:-1 18:-1 19:-1 20:-1 21:1 22:-1 23:-1 24:-1 25:-1 26:-1 27:-1 28:-1 29:1 30:-1 31:-1 32:-1 33:-1 34:-1 35:-1 36:1 37:-1 38:-1 39:-1 40:1 41:-1 
-512 1:-0.360555 2:0.355224 3:-0.476104 4:-0.285065 5:0.802245 6:-0.198734 7:-0.666507 8:0.421164 9:-0.223062 10:-0.468212 11:-0.736551 12:0.815553 13:0.203579 14:0.323207 15:0.950397 16:-1 17:-1 18:-1 19:-1 20:-1 21:1 22:-1 23:-1 24:-1 25:-1 26:-1 27:-1 28:1 29:-1 30:-1 31:-1 32:-1 33:-1 34:-1 35:1 36:-1 37:-1 38:-1 39:1 40:-1 41:-1 
-512 1:-0.360555 2:0.355224 3:-0.476104 4:-0.322135 5:0.722649 6:-0.230754 7:-0.578798 8:0.421164 9:-0.223062 10:-0.468212 11:-0.736551 12:0.815553 13:0.203579 14:0.133718 15:0.937649 16:-1 17:-1 18:-1 19:-1 20:-1 21:1 22:-1 23:-1 24:-1 25:-1 26:-1 27:-1 28:1 29:-1 30:-1 31:-1 32:-1 33:-1 34:-1 35:1 36:-1 37:-1 38:-1 39:1 40:-1 41:-1 
-512 1:-0.360555 2:0.355224 3:-0.476104 4:-0.328143 5:-0.87488 6:-0.227188 7:-0.578798 8:0.421164 9:-0.223062 10:-0.468212 11:-0.736551 12:0.815553 13:0.203579 14:0.189528 15:-0.90831 16:-1 17:-1 18:-1 19:-1 20:-1 21:1 22:-1 23:-1 24:-1 25:-1 26:-1 27:-1 28:1 29:-1 30:-1 31:-1 32:-1 33:-1 34:-1 35:1 36:-1 37:-1 38:-1 39:1 40:-1 41:-1 
-512 1:-0.972488 2:0.404091 3:-0.644786 4:-0.410419 5:-0.476982 6:-0.604788 7:-0.102569 8:0.251993 9:0.992226 10:0.0406145 11:0.25072 12:0.992355 13:0.062791 14:-0.273033 15:-0.412874 16:-1 17:-1 18:-1 19:1 20:-1 21:-1 22:-1 23:-1 24:-1 25:-1 26:-1 27:-1 28:-1 29:1 30:-1 31:-1 32:-1 33:-1 34:-1 35:-1 36:1 37:-1 38:-1 39:-1 40:1 41:-1 
-512 1:0.636407 2:0.815278 3:-0.917783 4:-0.625623 5:0.839019 6:0.0165051 7:-0.862543 8:0.234363 9:0.972684 10:-0.133004 11:0.249039 12:0.957324 13:-0.26865 14:-0.465904 15:0.713988 16:-1 17:-1 18:-1 19:-1 20:1 21:-1 22:-1 23:-1 24:-1 25:-1 26:-1 27:-1 28:-1 29:-1 30:1 31:-1 32:-1 33:-1 34:-1 35:-1 36:1 37:-1 38:-1 39:-1 40:1 41:-1 
-512 1:0.260609 2:0.456361 3:-0.642072 4:-0.305455 5:-0.285791 6:0.0353592 7:-1 8:-0.107024 9:0.726484 10:-0.708539 11:0.335175 12:0.886411 13:-0.462521 14:-0.755684 15:-0.665484 16:1 17:-1 18:-1 19:-1 20:-1 21:-1 22:-1 23:-1 24:-1 25:-1 26:-1 27:-1 28:-1 29:1 30:-1 31:-1 32:-1 33:-1 34:-1 35:-1 36:-1 37:1 38:-1 39:-1 40:1 41:-1 
-512 1:0.115872 2:0.662511 3:-0.861822 4:0.0769776 5:0.778919 6:-0.0479062 7:-1 8:0.300317 9:0.989048 10:-0.566904 11:0.340298 12:0.851529 13:-0.480202 14:-0.463096 15:0.263946 16:-1 17:-1 18:-1 19:-1 20:-1 21:-1 22:1 23:-1 24:-1 25:-1 26:-1 27:-1 28:-1 29:-1 30:-1 31:-1 32:-1 33:1 34:-1 35:-1 36:1 37:-1 38:-1 39:-1 40:1 41:-1 
-512 1:0.121997 2:0.751817 3:-0.449839 4:-0.435164 5:0.415607 6:-0.111784 7:-0.856596 8:0.282526 9:0.983107 10:-0.276124 11:0.258085 12:0.936333 13:-0.351995 14:-0.539083 15:0.838683 16:-1 17:-1 18:-1 19:-1 20:-1 21:1 22:-1 23:-1 24:-1 25:-1 26:-1 27:-1 28:-1 29:-1 30:1 31:-1 32:-1 33:-1 34:-1 35:-1 36:1 37:-1 38:-1 39:-1 40:1 41:-1 
-512 1:0.121997 2:0.786573 3:-0.489953 4:-0.363537 5:0.953147 6:-0.0308051 7:-0.856596 8:0.429819 9:0.948937 10:-0.276124 11:0.102386 12:0.975067 13:-0.351995 14:-0.0681929 15:0.67937 16:-1 17:-1 18:-1 19:-1 20:-1 21:1 22:-1 23:-1 24:-1 25:-1 26:-1 27:-1 28:-1 29:-1 30:1 31:-1 32:-1 33:-1 34:-1 35:-1 36:1 37:-1 38:-1 39:-1 40:1 41:-1 
-512 1:0.0464374 2:0.608161 3:-0.634852 4:-0.0847022 5:-0.900682 6:-0.225826 7:-0.300722 8:0.385022 9:0.891 10:-0.519348 11:0.076529 12:0.939317 13:-0.429858 14:0.0839732 15:0.108984 16:-1 17:-1 18:-1 19:-1 20:1 21:-1 22:-1 23:-1 24:-1 25:-1 26:-1 27:-1 28:-1 29:1 30:-1 31:-1 32:-1 33:-1 34:-1 35:-1 36:1 37:-1 38:-1 39:-1 40:1 41:-1 
-512 1:0.917374 2:0.806278 3:-0.992131 4:-0.35244 5:-1 6:-0.133232 7:-0.845015 8:0.260809 9:0.922958 10:-0.421101 11:0.198287 12:0.96711 13:-0.223286 14:-0.0965323 15:0.0750261 16:-1 17:-1 18:-1 19:-1 20:-1 21:-1 22:1 23:-1 24:-1 25:-1 26:-1 27:-1 28:-1 29:1 30:-1 31:-1 32:-1 33:-1 34:-1 35:-1 36:1 37:-1 38:-1 39:-1 40:1 41:-1 
-512 1:0.917374 2:0.819755 3:-0.992972 4:-0.35244 5:-1 6:-0.132536 7:-0.750045 8:0.18051 9:0.936305 10:-0.421101 11:0.198287 12:0.96711 13:-0.223286 14:-0.0965323 15:0.0750261 16:-1 17:-1 18:-1 19:-1 20:-1 21:-1 22:1 23:-1 24:-1 25:-1 26:-1 27:-1 28:-1 29:1 30:-1 31:-1 32:-1 33:-1 34:-1 35:-1 36:1 37:-1 38:-1 39:-1 40:1 41:-1 
-512 1:0.435682 2:0.0168351 3:-0.973163 4:-0.516454 5:-0.988703 6:-0.110848 7:-0.718103 8:0.292864 9:0.9175 10:-0.423556 11:0.263529 12:0.866866 13:-0.531048 14:0.991508 15:-0.975575 16:-1 17:-1 18:-1 19:-1 20:1 21:-1 22:-1 23:-1 24:-1 25:-1 26:-1 27:-1 28:-1 29:-1 30:1 31:-1 32:-1 33:-1 34:-1 35:-1 36:1 37:-1 38:-1 39:-1 40:1 41:-1 
-512 1:0.517181 2:0.799867 3:-0.804822 4:-0.487927 5:-0.941563 6:-0.0875478 7:-0.782559 8:0.171455 9:0.976295 10:-0.261687 11:0.248399 12:0.961869 13:-0.220198 14:-0.357647 15:0.13005 16:-1 17:-1 18:-1 19:-1 20:-1 21:1 22:-1 23:-1 24:-1 25:-1 26:-1 27:-1 28:-1 29:1 30:-1 31:-1 32:-1 33:-1 34:-1 35:-1 36:1 37:-1 38:-1 39:-1 40:1 41:-1 
-512 1:-0.424352 2:0.322515 3:-0.785788 4:-0.118257 5:-0.806706 6:-0.104779 7:-1 8:0.247666 9:0.989386 10:-0.0451211 11:0.26553 12:0.917615 13:-0.363355 14:0.0160796 15:-0.969845 16:-1 17:-1 18:-1 19:-1 20:-1 21:1 22:-1 23:-1 24:-1 25:-1 26:-1 27:-1 28:-1 29:1 30:-1 31:-1 32:-1 33:-1 34:-1 35:-1 36:1 37:-1 38:-1 39:-1 40:1 41:-1 
-512 1:-0.333161 2:0.0291837 3:0.807143 4:-0.396444 5:-0.0431027 6:-0.340942 7:-0.400846 8:-0.336459 9:0.920275 10:-0.742805 11:0.252882 12:0.974575 13:-0.0973985 14:0.988782 15:0.820252 16:1 17:-1 18:-1 19:-1 20:-1 21:-1 22:-1 23:-1 24:-1 25:-1 26:-1 27:-1 28:-1 29:1 30:-1 31:-1 32:-1 33:-1 34:-1 35:-1 36:-1 37:1 38:-1 39:-1 40:1 41:-1 
-512 1:-0.577589 2:0.508012 3:-0.798302 4:-0.0339727 5:-0.987406 6:-0.224229 7:-0.888656 8:0.0616661 9:0.987473 10:-0.445984 11:0.433798 12:0.908672 13:-0.302842 14:-0.96393 15:-0.998707 16:-1 17:-1 18:-1 19:-1 20:1 21:-1 22:-1 23:-1 24:-1 25:-1 26:-1 27:-1 28:-1 29:1 30:-1 31:-1 32:-1 33:-1 34:-1 35:-1 36:1 37:-1 38:-1 39:-1 40:1 41:-1 
-512 1:-0.577589 2:0.508012 3:-0.798302 4:-0.0339727 5:-0.991193 6:-0.239325 7:-0.84826 8:0.0616661 9:0.987473 10:-0.445984 11:0.332453 12:0.920758 13:-0.302842 14:-0.96393 15:-0.998707 16:-1 17:-1 18:-1 19:-1 20:1 21:-1 22:-1 23:-1 24:-1 25:-1 26:-1 27:-1 28:-1 29:1 30:-1 31:-1 32:-1 33:-1 34:-1 35:-1 36:1 37:-1 38:-1 39:-1 40:1 41:-1 
-512 1:-0.982622 2:-0.50565 3:-0.182509 4:-0.479539 5:-0.992789 6:-0.073566 7:-0.572687 8:-0.163521 9:0.982114 10:-0.297362 11:0.217739 12:0.957092 13:-0.339276 14:0.153568 15:-0.0643509 16:1 17:-1 18:-1 19:-1 20:-1 21:-1 22:-1 23:-1 24:-1 25:-1 26:-1 27:-1 28:1 29:-1 30:-1 31:-1 32:-1 33:-1 34:-1 35:-1 36:-1 37:1 38:-1 39:-1 40:1 41:-1 
-512 1:0.277323 2:0.713079 3:-0.909794 4:-0.394258 5:0.71694 6:-0.291185 7:-0.174994 8:0.380615 9:0.999936 10:0.147713 11:0.132165 12:0.965155 13:-0.503233 14:0.0922958 15:-0.22932 16:-1 17:-1 18:-1 19:-1 20:-1 21:1 22:-1 23:-1 24:-1 25:-1 26:-1 27:-1 28:-1 29:1 30:-1 31:-1 32:-1 33:-1 34:-1 35:-1 36:1 37:-1 38:-1 39:-1 40:1 41:-1 
-512 1:0.277323 2:0.713079 3:-0.909794 4:-0.394258 5:-0.999814 6:-0.279002 7:-0.127801 8:0.380615 9:0.999936 10:0.147713 11:0.0502722 12:0.974299 13:-0.503233 14:0.0922958 15:-0.22932 16:-1 17:-1 18:-1 19:-1 20:-1 21:1 22:-1 23:-1 24:-1 25:-1 26:-1 27:-1 28:-1 29:1 30:-1 31:-1 32:-1 33:-1 34:-1 35:-1 36:1 37:-1 38:-1 39:-1 40:1 41:-1 
-512 1:0.277323 2:0.713079 3:-0.909794 4:-0.394258 5:-0.822458 6:-0.292211 7:-0.346898 8:0.380615 9:0.999936 10:0.147713 11:0.211015 12:0.897489 13:-0.503233 14:0.0922958 15:-0.22932 16:-1 17:-1 18:-1 19:-1 20:-1 21:1 22:-1 23:-1 24:-1 25:-1 26:-1 27:-1 28:-1 29:1 30:-1 31:-1 32:-1 33:-1 34:-1 35:-1 36:1 37:-1 38:-1 39:-1 40:1 41:-1 
-512 1:0.0230874 2:0.645196 3:-0.778881 4:0.04904 5:-0.475017 6:-0.33222 7:-0.402024 8:0.108306 9:0.961423 10:-0.315603 11:-0.289545 12:0.949914 13:-0.366048 14:0.0390231 15:-0.722804 16:-1 17:-1 18:-1 19:-1 20:1 21:-1 22:-1 23:-1 24:-1 25:-1 26:-1 27:1 28:-1 29:-1 30:-1 31:-1 32:-1 33:-1 34:-1 35:-1 36:1 37:-1 38:-1 39:-1 40:-1 41:1 
-512 1:-0.11384 2:0.557949 3:-0.653919 4:-0.288616 5:-1 6:-0.0548919 7:-0.888233 8:0.263213 9:0.931816 10:-0.502074 11:0.45325 12:0.974443 13:-0.48292 14:0.0230955 15:0.38173 16:-1 17:-1 18:-1 19:-1 20:1 21:-1 22:-1 23:-1 24:-1 25:-1 26:-1 27:-1 28:-1 29:-1 30:-1 31:1 32:-1 33:-1 34:-1 35:-1 36:1 37:-1 38:-1 39:-1 40:1 41:-1 
-512 1:-0.11384 2:0.638184 3:-0.509702 4:-0.288616 5:-1 6:-0.0890907 7:-0.888233 8:0.105742 9:0.987068 10:-0.13207 11:0.32861 12:0.901511 13:-0.48292 14:0.0230955 15:0.38173 16:-1 17:-1 18:1 19:-1 20:-1 21:-1 22:-1 23:-1 24:-1 25:-1 26:-1 27:-1 28:-1 29:-1 30:-1 31:1 32:-1 33:-1 34:-1 35:-1 36:-1 37:1 38:-1 39:-1 40:1 41:-1 
-512 1:-0.11384 2:0.638184 3:-0.509702 4:-0.288616 5:-1 6:-0.0888546 7:-0.732945 8:0.105742 9:0.987068 10:-0.13207 11:0.285943 12:0.97009 13:-0.48292 14:0.0230955 15:0.38173 16:-1 17:-1 18:1 19:-1 20:-1 21:-1 22:-1 23:-1 24:-1 25:-1 26:-1 27:-1 28:-1 29:-1 30:-1 31:1 32:-1 33:-1 34:-1 35:-1 36:-1 37:1 38:-1 39:-1 40:1 41:-1 
-512 1:-0.11384 2:0.638184 3:-0.509702 4:-0.448202 5:-1 6:-0.089131 7:-0.732945 8:0.105742 9:0.987068 10:-0.13207 11:0.183557 12:0.923539 13:-0.48292 14:0.0135477 15:0.513298 16:-1 17:-1 18:1 19:-1 20:-1 21:-1 22:-1 23:-1 24:-1 25:-1 26:-1 27:-1 28:-1 29:-1 30:-1 31:1 32:-1 33:-1 34:-1 35:-1 36:-1 37:1 38:-1 39:-1 40:1 41:-1 
-512 1:-0.0937093 2:0.633228 3:-0.610485 4:-0.404691 5:-0.586608 6:-0.103202 7:-0.443364 8:0.26153 9:1 10:-0.0677311 11:0.158742 12:0.929148 13:-0.531167 14:-0.836528 15:-0.650075 16:-1 17:-1 18:-1 19:-1 20:-1 21:1 22:-1 23:-1 24:-1 25:-1 26:-1 27:-1 28:-1 29:-1 30:1 31:-1 32:-1 33:-1 34:-1 35:-1 36:1 37:-1 38:-1 39:-1 40:1 41:-1 
-512 1:-0.0937093 2:0.442462 3:0.163373 4:-0.404691 5:-0.285905 6:-0.357014 7:-0.443364 8:0.157671 9:0.929599 10:-0.597101 11:0.262488 12:0.999929 13:0.035044 14:-0.836528 15:-0.650075 16:-1 17:-1 18:-1 19:-1 20:-1 21:1 22:-1 23:-1 24:-1 25:-1 26:-1 27:-1 28:-1 29:-1 30:1 31:-1 32:-1 33:-1 34:-1 35:-1 36:1 37:-1 38:-1 39:-1 40:1 41:-1 
-512 1:0.811526 2:0.701523 3:-0.985049 4:0.717942 5:-0.367374 6:-0.308429 7:-1 8:0.173699 9:0.935563 10:-0.519124 11:0.230628 12:0.931477 13:-0.399155 14:0.0577709 15:-0.802802 16:-1 17:-1 18:-1 19:-1 20:-1 21:1 22:-1 23:-1 24:-1 25:-1 26:-1 27:-1 28:-1 29:1 30:-1 31:-1 32:-1 33:-1 34:-1 35:-1 36:1 37:-1 38:-1 39:-1 40:1 41:-1 
-512 1:-0.0896995 2:0.231501 3:-0.917901 4:0.388019 5:-0.99994 6:-0.380651 7:-0.583045 8:0.247506 9:0.989124 10:-0.57309 11:0.488393 12:0.814235 13:-0.583071 14:0.076832 15:-0.971896 16:-1 17:-1 18:-1 19:1 20:-1 21:-1 22:-1 23:-1 24:-1 25:-1 26:-1 27:-1 28:-1 29:1 30:-1 31:-1 32:-1 33:-1 34:-1 35:-1 36:1 37:-1 38:-1 39:-1 40:1 41:-1 
-512 1:0.521284 2:0.501878 3:-0.955305 4:-0.389998 5:0.183902 6:-0.241981 7:-0.522634 8:0.189486 9:0.987792 10:-0.10049 11:0.255524 12:0.979481 13:-0.114729 14:0.408025 15:-0.66463 16:-1 17:-1 18:-1 19:1 20:-1 21:-1 22:-1 23:-1 24:-1 25:-1 26:-1 27:-1 28:-1 29:1 30:-1 31:-1 32:-1 33:-1 34:-1 35:-1 36:1 37:-1 38:-1 39:-1 40:1 41:-1 
-512 1:0.261016 2:0.339271 3:-0.750669 4:-0.650508 5:-0.818947 6:-0.514106 7:-0.477943 8:0.0899547 9:0.889827 10:-0.620728 11:-0.00352225 12:0.950778 13:-0.495098 14:0.0969992 15:-0.905695 16:-1 17:-1 18:-1 19:-1 20:1 21:-1 22:-1 23:-1 24:-1 25:-1 26:-1 27:-1 28:-1 29:1 30:-1 31:-1 32:-1 33:-1 34:-1 35:-1 36:1 37:-1 38:-1 39:-1 40:1 41:-1 
-512 1:0.261016 2:0.339271 3:-0.750669 4:-0.650508 5:-0.724209 6:-0.462854 7:-0.581039 8:0.0899547 9:0.889827 10:-0.620728 11:0.173631 12:0.946431 13:-0.495098 14:0.0969992 15:-0.905695 16:-1 17:-1 18:-1 19:-1 20:1 21:-1 22:-1 23:-1 24:-1 25:-1 26:-1 27:-1 28:-1 29:1 30:-1 31:-1 32:-1 33:-1 34:-1 35:-1 36:1 37:-1 38:-1 39:-1 40:1 41:-1 
-512 1:0.261016 2:0.339271 3:-0.750669 4:-0.650508 5:-0.83294 6:-0.468281 7:-0.497264 8:0.0899547 9:0.889827 10:-0.620728 11:0.0738873 12:0.957124 13:-0.495098 14:0.0969992 15:-0.905695 16:-1 17:-1 18:-1 19:-1 20:1 21:-1 22:-1 23:-1 24:-1 25:-1 26:-1 27:-1 28:-1 29:1 30:-1 31:-1 32:-1 33:-1 34:-1 35:-1 36:1 37:-1 38:-1 39:-1 40:1 41:-1 
-512 1:0.403569 2:0.498824 3:-0.864498 4:-0.0283997 5:-1 6:-0.128043 7:-0.890563 8:-0.284529 9:0.865343 10:0.244218 11:0.391931 12:0.953631 13:0.441356 14:0.51012 15:0.977425 16:-1 17:-1 18:-1 19:-1 20:1 21:-1 22:-1 23:-1 24:-1 25:-1 26:-1 27:-1 28:-1 29:-1 30:1 31:-1 32:-1 33:-1 34:-1 35:1 36:-1 37:-1 38:-1 39:1 40:-1 41:-1 
-512 1:0.0465653 2:0.862562 3:-0.822116 4:-0.461955 5:0.524802 6:-0.0678611 7:-0.949353 8:0.00853468 9:0.944034 10:-0.280698 11:0.238793 12:0.924191 13:-0.347195 14:0.00119857 15:0.125569 16:1 17:-1 18:-1 19:-1 20:-1 21:-1 22:-1 23:-1 24:-1 25:-1 26:-1 27:-1 28:-1 29:1 30:-1 31:-1 32:-1 33:-1 34:-1 35:-1 36:-1 37:1 38:-1 39:-1 40:1 41:-1 
-512 1:0.199636 2:0.997797 3:0.79558 4:-0.183238 5:0.296178 6:-0.360663 7:-0.72624 8:0.0716833 9:0.954741 10:-0.670256 11:-0.147855 12:0.906944 13:-0.435403 14:0.572205 15:0.789373 16:-1 17:-1 18:-1 19:1 20:-1 21:-1 22:-1 23:-1 24:-1 25:1 26:-1 27:-1 28:-1 29:-1 30:-1 31:-1 32:-1 33:-1 34:-1 35:-1 36:1 37:-1 38:-1 39:-1 40:-1 41:1 
-512 1:0.199636 2:0.402929 3:-0.716894 4:-0.183238 5:-0.613956 6:-0.13503 7:-0.72624 8:-0.149257 9:0.907514 10:-0.507568 11:0.0728466 12:0.954426 13:-0.609413 14:0.572205 15:0.789373 16:1 17:-1 18:-1 19:-1 20:-1 21:-1 22:-1 23:-1 24:-1 25:-1 26:-1 27:-1 28:1 29:-1 30:-1 31:-1 32:-1 33:-1 34:-1 35:-1 36:-1 37:1 38:-1 39:-1 40:1 41:-1 
-512 1:0.409938 2:0.277834 3:-0.962773 4:-0.0377911 5:-0.473645 6:-0.0745629 7:-0.793004 8:-0.0299315 9:0.718977 10:-0.761356 11:0.294909 12:0.996831 13:-0.0994148 14:-0.0683684 15:0.641015 16:1 17:-1 18:-1 19:-1 20:-1 21:-1 22:-1 23:-1 24:-1 25:-1 26:-1 27:-1 28:-1 29:1 30:-1 31:-1 32:-1 33:-1 34:-1 35:-1 36:-1 37:1 38:-1 39:-1 40:1 41:-1 
-512 1:-0.339414 2:0.337079 3:-0.400368 4:-0.410116 5:-1 6:-0.125139 7:-0.685866 8:0.189326 9:0.988841 10:-0.255286 11:0.245677 12:0.990738 13:-0.227002 14:-0.439112 15:-0.443261 16:-1 17:-1 18:-1 19:-1 20:1 21:-1 22:-1 23:-1 24:-1 25:-1 26:-1 27:-1 28:-1 29:-1 30:1 31:-1 32:-1 33:-1 34:-1 35:-1 36:1 37:-1 38:-1 39:-1 40:1 41:-1 
-512 1:-0.415693 2:0.622999 3:0.346137 4:-0.642206 5:0.743828 6:-0.383156 7:-0.476828 8:0.210081 9:0.995323 10:-0.317255 11:0.29715 12:0.937211 13:-0.260012 14:-0.0549068 15:0.502349 16:-1 17:-1 18:-1 19:-1 20:-1 21:1 22:-1 23:-1 24:-1 25:-1 26:-1 27:-1 28:-1 29:-1 30:1 31:-1 32:-1 33:-1 34:-1 35:-1 36:1 37:-1 38:-1 39:-1 40:1 41:-1 
-512 1:-0.415693 2:0.622999 3:0.346137 4:-0.576721 5:0.791602 6:-0.401516 7:-0.40044 8:0.210081 9:0.995323 10:-0.317255 11:0.29715 12:0.937211 13:-0.260012 14:-0.571293 15:1 16:-1 17:-1 18:-1 19:-1 20:-1 21:1 22:-1 23:-1 24:-1 25:-1 26:-1 27:-1 28:-1 29:-1 30:1 31:-1 32:-1 33:-1 34:-1 35:-1 36:1 37:-1 38:-1 39:-1 40:1 41:-1 
-512 1:-0.415693 2:0.686859 3:-0.485536 4:-0.642206 5:0.654878 6:-0.259606 7:-0.476828 8:0.29623 9:0.937619 10:-0.34359 11:0.211095 12:0.995227 13:-0.231845 14:-0.0549068 15:0.502349 16:-1 17:-1 18:-1 19:-1 20:-1 21:1 22:-1 23:-1 24:-1 25:-1 26:-1 27:-1 28:-1 29:-1 30:1 31:-1 32:-1 33:-1 34:-1 35:-1 36:1 37:-1 38:-1 39:-1 40:1 41:-1 
-512 1:-0.415693 2:0.686859 3:-0.485536 4:-0.576721 5:0.839518 6:-0.288169 7:-0.40044 8:0.29623 9:0.937619 10:-0.34359 11:0.211095 12:0.995227 13:-0.231845 14:-0.571293 15:1 16:-1 17:-1 18:-1 19:-1 20:-1 21:1 22:-1 23:-1 24:-1 25:-1 26:-1 27:-1 28:-1 29:-1 30:1 31:-1 32:-1 33:-1 34:-1 35:-1 36:1 37:-1 38:-1 39:-1 40:1 41:-1 
-512 1:-0.0487178 2:0.857349 3:-0.54224 4:-0.614384 5:-0.482197 6:0.194441 7:-1 8:0.11656 9:0.999273 10:-0.104784 11:0.248079 12:0.945339 13:-0.38375 14:-0.887714 15:0.759071 16:-1 17:-1 18:-1 19:-1 20:1 21:-1 22:-1 23:-1 24:-1 25:-1 26:-1 27:-1 28:-1 29:1 30:-1 31:-1 32:-1 33:-1 34:-1 35:-1 36:1 37:-1 38:-1 39:-1 40:1 41:-1 
-512 1:-0.0487178 2:0.812136 3:-0.526116 4:-0.635069 5:-0.650468 6:0.198138 7:-1 8:0.149898 9:0.999948 10:-0.104784 11:0.248079 12:0.945339 13:-0.38375 14:-0.616794 15:0.144986 16:-1 17:-1 18:-1 19:-1 20:1 21:-1 22:-1 23:-1 24:-1 25:-1 26:-1 27:-1 28:-1 29:1 30:-1 31:-1 32:-1 33:-1 34:-1 35:-1 36:1 37:-1 38:-1 39:-1 40:1 41:-1 
-512 1:-0.0487178 2:0.700993 3:0.155396 4:-0.635069 5:0.587641 6:-0.120241 7:-1 8:0.247105 9:0.945703 10:-0.459276 11:0.150977 12:0.999877 13:-0.00458764 14:-0.616794 15:0.144986 16:-1 17:-1 18:-1 19:-1 20:1 21:-1 22:-1 23:-1 24:-1 25:-1 26:-1 27:-1 28:-1 29:1 30:-1 31:-1 32:-1 33:-1 34:-1 35:-1 36:1 37:-1 38:-1 39:-1 40:1 41:-1 
-512 1:-0.0487178 2:0.700993 3:0.155396 4:-0.635069 5:0.561981 6:-0.120241 7:-1 8:0.247105 9:0.945703 10:-0.459276 11:0.138969 12:0.995788 13:0.0853541 14:-0.616794 15:0.144986 16:-1 17:-1 18:-1 19:-1 20:1 21:-1 22:-1 23:-1 24:-1 25:1 26:-1 27:-1 28:-1 29:-1 30:-1 31:-1 32:-1 33:-1 34:-1 35:-1 36:1 37:-1 38:-1 39:-1 40:-1 41:1 
-512 1:-0.0487178 2:0.700993 3:0.155396 4:-0.614384 5:0.473896 6:-0.120253 7:-1 8:0.247105 9:0.945703 10:-0.459276 11:0.117675 12:0.999199 13:-0.00458764 14:-0.887714 15:0.759071 16:-1 17:-1 18:-1 19:-1 20:1 21:-1 22:-1 23:-1 24:-1 25:-1 26:-1 27:-1 28:-1 29:1 30:-1 31:-1 32:-1 33:-1 34:-1 35:-1 36:1 37:-1 38:-1 39:-1 40:1 41:-1 
-512 1:-0.0487178 2:0.812136 3:-0.526116 4:-0.635069 5:-0.650468 6:0.198138 7:-1 8:0.137877 9:0.995881 10:-0.0206944 11:0.248079 12:0.945339 13:-0.38375 14:-0.616794 15:0.144986 16:1 17:-1 18:-1 19:-1 20:-1 21:-1 22:-1 23:-1 24:-1 25:-1 26:-1 27:-1 28:-1 29:1 30:-1 31:-1 32:-1 33:-1 34:-1 35:-1 36:-1 37:1 38:-1 39:-1 40:1 41:-1 
-512 1:-0.205369 2:0.431642 3:-0.0948709 4:0.630329 5:-1 6:-0.199566 7:-1 8:-0.0612654 9:0.881362 10:-0.525514 11:0.241435 12:0.983428 13:-0.176838 14:0.124677 15:-0.191078 16:-1 17:-1 19:-1 20:-1 21:-1 22:-1 23:-1 24:-1 25:-1 26:-1 27:-1 28:-1 29:-1 30:-1 31:-1 32:0.333333 33:-1 34:-1 35:-1 36:-1 37:1 38:-1 39:-1 40:1 41:-1 
-512 1:0.072449 2:0.596807 3:-0.179953 4:-0.607656 5:-0.843166 6:0.157751 7:-0.626041 8:0.050607 9:0.989923 10:-0.543655 11:0.121118 12:0.936145 13:-0.493308 14:-0.142416 15:-0.864601 16:-1 17:-1 18:-1 19:-1 20:-1 21:1 22:-1 23:-1 24:-1 25:-1 26:-1 27:-1 28:-1 29:-1 30:-1 31:1 32:-1 33:-1 34:-1 35:-1 36:1 37:-1 38:-1 39:-1 40:1 41:-1 
-512 1:0.072449 2:0.443769 3:-0.452636 4:-0.607656 5:-0.850826 6:0.200523 7:-0.626041 8:0.182834 9:0.909497 10:-0.543655 11:0.340218 12:0.866108 13:-0.493308 14:-0.142416 15:-0.864601 16:-1 17:-1 18:-1 19:-1 20:-1 21:-1 22:1 23:-1 24:-1 25:-1 26:-1 27:-1 28:-1 29:-1 30:1 31:-1 32:-1 33:-1 34:-1 35:-1 36:1 37:-1 38:-1 39:-1 40:1 41:-1 
-512 1:0.367561 2:0.570643 3:-0.743017 4:-0.567618 5:-0.219907 6:-0.208577 7:-0.541669 8:0.254478 9:0.851241 10:-0.594307 11:0.21838 12:0.89755 13:-0.629346 14:-0.0387411 15:0.56946 16:-1 17:-1 18:-1 19:1 20:-1 21:-1 22:-1 23:-1 24:-1 25:-1 26:-1 27:-1 28:-1 29:-1 30:1 31:-1 32:-1 33:-1 34:-1 35:-1 36:1 37:-1 38:-1 39:-1 40:1 41:-1 
-512 1:0.778262 2:0.782497 3:-0.989703 4:-0.629918 5:-0.479142 6:0.100896 7:-0.868827 8:0.0959651 9:0.979422 10:-0.569197 11:-0.0220941 12:0.919912 13:-0.585119 14:-0.260972 15:-0.930733 16:-1 17:1 18:-1 19:-1 20:-1 21:-1 22:-1 23:-1 24:-1 25:-1 26:-1 27:-1 28:-1 29:-1 30:1 31:-1 32:-1 33:-1 34:-1 35:-1 36:-1 37:1 38:-1 39:-1 40:1 41:-1 
-512 1:0.778262 2:0.902121 3:-0.933289 4:-0.71396 5:-0.685623 6:0.02551 7:-0.868827 8:-0.189406 9:0.982715 10:-0.569197 11:-0.0220941 12:0.919912 13:-0.585119 14:0.3057 15:-0.961049 16:-1 17:1 18:-1 19:-1 20:-1 21:-1 22:-1 23:-1 24:-1 25:-1 26:-1 27:-1 28:-1 29:-1 30:1 31:-1 32:-1 33:-1 34:-1 35:-1 36:-1 37:1 38:-1 39:-1 40:1 41:-1 
-512 1:-0.383731 2:0.556417 3:-0.508671 4:-0.250099 5:-1 6:-0.269388 7:-0.890737 8:0.241495 9:0.987835 10:-0.104084 11:0.0774896 12:0.958544 13:-0.469336 14:-0.319155 15:0.2361 16:-1 17:-1 18:-1 19:-1 20:-1 21:1 22:-1 23:-1 24:-1 25:-1 26:-1 27:-1 28:-1 29:-1 30:-1 31:1 32:-1 33:-1 34:-1 35:-1 36:1 37:-1 38:-1 39:-1 40:1 41:-1 
-512 1:-0.974464 2:0.608379 3:-0.756109 4:0.000310605 5:-0.894665 6:-0.0558361 7:-0.875195 8:0.210482 9:0.964086 10:-0.309139 11:-0.053154 12:0.980831 13:-0.32588 14:-0.338191 15:-0.990465 16:-1 17:-1 18:-1 19:-1 20:-1 21:1 22:-1 23:-1 24:-1 25:-1 26:-1 27:-1 28:-1 29:1 30:-1 31:-1 32:-1 33:-1 34:-1 35:-1 36:1 37:-1 38:-1 39:-1 40:1 41:-1 
-512 1:-0.611178 2:0.414851 3:-0.973869 4:-0.204184 5:-0.999999 6:0.0319833 7:-0.955237 8:0.182354 9:0.985734 10:0.0208464 11:0.317003 12:0.724785 13:-0.62281 14:-0.271889 15:-0.54191 16:-1 17:-1 18:-1 19:1 20:-1 21:-1 22:-1 23:-1 24:-1 25:-1 26:-1 27:-1 28:-1 29:-1 30:-1 31:1 32:-1 33:-1 34:-1 35:-1 36:1 37:-1 38:-1 39:-1 40:1 41:-1 
-512 1:0.558953 2:0.639728 3:-0.912356 4:-0.696239 5:0.532491 6:-0.294356 7:-0.402872 8:0.372441 9:0.969459 10:-0.402871 11:0.269613 12:0.874967 13:-0.627311 14:-0.243544 15:0.56732 16:-1 17:-1 18:-1 19:-1 20:1 21:-1 22:-1 23:-1 24:-1 25:-1 26:-1 27:-1 28:-1 29:-1 30:1 31:-1 32:-1 33:-1 34:-1 35:-1 36:1 37:-1 38:-1 39:-1 40:1 41:-1 
-512 1:0.558953 2:0.639728 3:-0.912356 4:-0.717969 5:-0.0142174 6:-0.240674 7:-0.661439 8:0.372441 9:0.969459 10:-0.402871 11:0.269613 12:0.874967 13:-0.627311 14:0.325563 15:-0.523626 16:-1 17:-1 18:-1 19:-1 20:1 21:-1 22:-1 23:-1 24:-1 25:-1 26:-1 27:-1 28:-1 29:-1 30:1 31:-1 32:-1 33:-1 34:-1 35:-1 36:1 37:-1 38:-1 39:-1 40:1 41:-1 
-512 1:0.558953 2:0.639728 3:-0.912356 4:-0.755789 5:0.0789861 6:-0.257216 7:-0.543651 8:0.372441 9:0.969459 10:-0.402871 11:0.269613 12:0.874967 13:-0.627311 14:0.0276829 15:-0.415453 16:-1 17:-1 18:-1 19:-1 20:1 21:-1 22:-1 23:-1 24:-1 25:-1 26:-1 27:-1 28:-1 29:-1 30:1 31:-1 32:-1 33:-1 34:-1 35:-1 36:1 37:-1 38:-1 39:-1 40:1 41:-1 
-512 1:0.558953 2:0.733391 3:-0.837585 4:-0.630916 5:0.114227 6:-0.252456 7:-0.504615 8:0.275714 9:0.925033 10:-0.402871 11:0.269613 12:0.874967 13:-0.627311 14:-0.926115 15:-0.266509 16:-1 17:-1 18:-1 19:-1 20:1 21:-1 22:-1 23:-1 24:-1 25:-1 26:-1 27:-1 28:-1 29:-1 30:1 31:-1 32:-1 33:-1 34:-1 35:-1 36:1 37:-1 38:-1 39:-1 40:1 41:-1 
-512 1:0.558953 2:0.733391 3:-0.837585 4:-0.688658 5:-0.644533 6:-0.251783 7:-0.502515 8:0.275714 9:0.925033 10:-0.402871 11:0.269613 12:0.874967 13:-0.627311 14:-0.562788 15:-0.931128 16:-1 17:-1 18:-1 19:-1 20:1 21:-1 22:-1 23:-1 24:-1 25:-1 26:-1 27:-1 28:-1 29:-1 30:1 31:-1 32:-1 33:-1 34:-1 35:-1 36:1 37:-1 38:-1 39:-1 40:1 41:-1 
-512 1:0.558953 2:0.603455 3:-0.868708 4:-0.841329 5:0.28938 6:-0.224188 7:-0.543651 8:0.296149 9:0.923383 10:-0.402871 11:0.269613 12:0.874967 13:-0.627311 14:0.0683903 15:-0.0315627 16:-1 17:-1 18:-1 19:-1 20:1 21:-1 22:-1 23:-1 24:-1 25:-1 26:-1 27:-1 28:-1 29:-1 30:1 31:-1 32:-1 33:-1 34:-1 35:-1 36:1 37:-1 38:-1 39:-1 40:1 41:-1 
-512 1:0.558953 2:0.603455 3:-0.868708 4:-0.696239 5:0.532491 6:-0.261408 7:-0.502515 8:0.296149 9:0.923383 10:-0.402871 11:0.269613 12:0.874967 13:-0.627311 14:-0.243544 15:0.56732 16:-1 17:-1 18:-1 19:-1 20:1 21:-1 22:-1 23:-1 24:-1 25:-1 26:-1 27:-1 28:-1 29:-1 30:1 31:-1 32:-1 33:-1 34:-1 35:-1 36:1 37:-1 38:-1 39:-1 40:1 41:-1 
-512 1:0.558953 2:0.646467 3:-0.974456 4:-0.65926 5:-0.908466 6:0.0887677 7:-0.859922 8:0.355692 9:0.936628 10:-0.402871 11:0.333253 12:0.757941 13:-0.627311 14:-0.313581 15:-0.723291 16:-1 17:-1 18:-1 19:-1 20:-1 21:-1 22:1 23:-1 24:-1 25:-1 26:-1 27:-1 28:-1 29:1 30:-1 31:-1 32:-1 33:-1 34:-1 35:-1 36:1 37:-1 38:-1 39:-1 40:1 41:-1 
