svm_type c_svc
kernel_type rbf
gamma 0.000122
nr_class 2
total_sv 6745
rho 0.313233
label 1 -1
probA -1.68754
probB 3.4105
nr_sv 239 6506
SV
56 1:0.121135 2:0.78327 3:-0.0536131 4:-0.662695 5:-1 6:-0.307888 7:-0.764663 8:0.202209 9:0.998625 10:-0.527097 11:-0.0392124 12:-1 13:-1 14:-1 15:-1 16:-1 17:-1 18:1 19:-1 20:-1 21:1 22:-1 23:-1 24:-1 25:-1 26:-1 27:-1 28:-1 29:-1 30:-1 31:-1 32:1 33:-1 
56 1:-0.590156 2:0.175049 3:-0.958554 4:-0.371443 5:-0.98992 6:0.0952846 7:-1 8:0.22638 9:0.976611 10:-0.514293 11:-0.16269 12:-1 13:-1 14:-1 15:-1 16:-1 17:1 18:-1 19:-1 20:-1 21:1 22:-1 23:-1 24:-1 25:-1 26:-1 27:-1 28:-1 29:-1 30:-1 31:-1 32:1 33:-1 
6.923828666553955 1:-0.270452 2:0.6984 3:-0.0637865 4:0.146506 5:0.596778 6:-0.058575 7:-0.641024 8:0.209732 9:0.896976 10:-0.603361 11:-0.841482 12:-1 13:-1 14:-1 15:-1 16:1 17:-1 18:-1 19:-1 20:-1 21:-1 22:1 23:-1 24:-1 25:-1 26:-1 27:-1 28:-1 29:-1 30:-1 31:-1 32:1 33:-1 
56 1:0.369946 2:0.840342 3:-0.788337 4:-0.224966 5:-0.157456 6:-0.25253 7:-0.199892 8:0.314258 9:0.93482 10:-0.585306 11:-0.280494 12:-1 13:-1 14:-1 15:-1 16:-1 17:-1 18:1 19:-1 20:-1 21:1 22:-1 23:-1 24:-1 25:-1 26:-1 27:-1 28:-1 29:-1 30:-1 31:-1 32:1 33:-1 
56 1:0.837924 2:0.835754 3:-0.978702 4:-0.139726 5:-0.616896 6:-0.34806 7:-0.392641 8:0.265677 9:0.976825 10:-0.110404 11:-0.190389 12:-1 13:-1 14:-1 15:-1 16:1 17:-1 18:-1 19:-1 20:-1 21:1 22:-1 23:-1 24:-1 25:-1 26:-1 27:-1 28:-1 29:-1 30:-1 31:-1 32:1 33:-1 
56 1:-0.292222 2:0.531332 3:-0.129488 4:-0.336686 5:-0.795536 6:0.0975705 7:-0.826023 8:0.20525 9:0.889947 10:-0.607596 11:-0.222426 12:-1 13:-1 14:-1 15:-1 16:-1 17:-1 18:1 19:-1 20:-1 21:-1 22:1 23:-1 24:-1 25:-1 26:-1 27:-1 28:-1 29:-1 30:-1 31:-1 32:1 33:-1 
56 1:-0.362218 2:0.318272 3:-0.582027 4:-0.311227 5:-1 6:0.0651882 7:-0.662693 8:0.22798 9:0.959302 10:-0.309953 11:-0.182379 12:-1 13:-1 14:-1 15:-1 16:-1 17:1 18:-1 19:-1 20:-1 21:1 22:-1 23:-1 24:-1 25:-1 26:-1 27:-1 28:-1 29:-1 30:-1 31:-1 32:1 33:-1 
56 1:-0.305304 2:0.625253 3:-0.217104 4:-0.19112 5:0.335632 6:-0.0115009 7:-0.791343 8:0.425187 9:0.905078 10:-0.728227 11:-0.109962 12:-1 13:-1 14:-1 15:-1 16:-1 17:-1 18:1 19:-1 20:-1 21:1 22:-1 23:-1 24:-1 25:-1 26:-1 27:-1 28:-1 29:-1 30:-1 31:-1 32:1 33:-1 
56 1:0.279868 2:0.798048 3:-0.779674 4:-0.56688 5:0.987355 6:0.0703383 7:-0.903193 8:0.236384 9:0.935083 10:-0.497267 11:-0.123978 12:-1 13:-1 14:-1 15:-1 16:-1 17:1 18:-1 19:-1 20:-1 21:1 22:-1 23:-1 24:-1 25:-1 26:-1 27:-1 28:-1 29:-1 30:-1 31:-1 32:1 33:-1 
56 1:0.0415342 2:0.849019 3:-0.0642703 4:-0.295308 5:-0.922828 6:-0.12114 7:-0.751193 8:0.229741 9:0.9365 10:-0.485711 11:0.188386 12:-1 13:-1 14:-1 15:-1 16:-1 17:-1 18:1 19:-1 20:-1 21:1 22:-1 23:-1 24:-1 25:-1 26:-1 27:-1 28:-1 29:-1 30:-1 31:-1 32:1 33:-1 
56 1:-0.057545 2:0.625595 3:-0.247965 4:0.0170753 5:-0.225851 6:0.056652 7:-0.86975 8:-0.0229301 9:0.8049 10:-0.737029 11:0.401635 12:1 13:-1 14:-1 15:-1 16:-1 17:-1 18:-1 19:-1 20:-1 21:-1 22:1 23:-1 24:-1 25:-1 26:-1 27:-1 28:-1 29:-1 30:-1 31:-1 32:-1 33:1 
56 1:0.803631 2:0.761792 3:-0.988448 4:-0.601904 5:0.713731 6:-0.138624 7:-0.919967 8:0.257593 9:0.953966 10:-0.283189 11:0.00884365 12:-1 13:-1 14:-1 15:-1 16:-1 17:-1 18:1 19:-1 20:-1 21:-1 22:-1 23:1 24:-1 25:-1 26:-1 27:-1 28:-1 29:-1 30:-1 31:-1 32:1 33:-1 
56 1:-0.791091 2:0.535336 3:-0.605747 4:-0.00265662 5:0.810956 6:-0.104329 7:-0.577248 8:0.238225 9:0.995245 10:-0.0221037 11:-0.189054 12:-1 13:-1 14:-1 15:-1 16:-1 17:1 18:-1 19:-1 20:-1 21:-1 22:1 23:-1 24:-1 25:-1 26:-1 27:-1 28:-1 29:-1 30:-1 31:-1 32:1 33:-1 
56 1:0.225481 2:0.38047 3:-0.970911 4:-0.0362836 5:-0.318962 6:-0.250898 7:-0.451996 8:0.164352 9:0.964359 10:-0.448886 11:-0.165026 12:-1 13:-1 14:-1 15:-1 16:-1 17:-1 18:1 19:-1 20:-1 21:-1 22:-1 23:-1 24:1 25:-1 26:-1 27:-1 28:-1 29:-1 30:-1 31:-1 32:1 33:-1 
56 1:-0.852459 2:0.332113 3:-0.245813 4:0.509691 5:0.0549368 6:-0.317123 7:-0.256416 8:0.359718 9:0.998479 10:-0.7024 11:-0.378608 12:-1 13:-1 14:-1 15:-1 16:1 17:-1 18:-1 19:-1 20:-1 21:-1 22:-1 23:-1 24:1 25:-1 26:-1 27:-1 28:-1 29:-1 30:-1 31:-1 32:1 33:-1 
56 1:0.295018 2:0.710176 3:-0.79494 4:-0.424058 5:-1 6:-0.0311348 7:-0.726627 8:0.233343 9:0.987524 10:-0.204647 11:0.264475 12:-1 13:-1 14:-1 15:-1 16:-1 17:1 18:-1 19:-1 20:-1 21:1 22:-1 23:-1 24:-1 25:-1 26:-1 27:-1 28:-1 29:-1 30:-1 31:-1 32:1 33:-1 
56 1:0.0390631 2:0.638641 3:-0.645921 4:-0.423529 5:-0.648167 6:-0.0601497 7:-0.653819 8:0.277202 9:0.947512 10:-0.675092 11:-0.0795929 12:-1 13:-1 14:-1 15:-1 16:1 17:-1 18:-1 19:-1 20:-1 21:-1 22:1 23:-1 24:-1 25:-1 26:-1 27:-1 28:-1 29:-1 30:-1 31:-1 32:1 33:-1 
56 1:-0.616844 2:0.774687 3:-0.809038 4:-0.489906 5:0.587863 6:-0.216808 7:-0.743829 8:0.214054 9:0.991431 10:0.0469497 11:0.00717504 12:-1 13:-1 14:-1 15:-1 16:-1 17:-1 18:1 19:-1 20:-1 21:1 22:-1 23:-1 24:-1 25:-1 26:-1 27:-1 28:-1 29:-1 30:-1 31:-1 32:1 33:-1 
56 1:0.325466 2:0.302465 3:-0.95927 4:-0.216896 5:-0.486637 6:-0.194631 7:-0.823893 8:0.216455 9:0.994418 10:-0.0992832 11:-0.210412 12:-1 13:-1 14:-1 15:-1 16:-1 17:1 18:-1 19:-1 20:-1 21:1 22:-1 23:-1 24:-1 25:-1 26:-1 27:-1 28:-1 29:-1 30:-1 31:-1 32:1 33:-1 
1.249010775201874 1:0.200826 2:0.644058 3:-0.454345 4:-0.0237047 5:-0.297384 6:-0.0880048 7:-0.76053 8:0.350594 9:0.980264 10:-0.457251 11:-0.038545 12:-1 13:-1 14:-1 15:-1 16:-1 17:1 18:-1 19:-1 20:-1 21:1 22:-1 23:-1 24:-1 25:-1 26:-1 27:-1 28:-1 29:-1 30:-1 31:-1 32:1 33:-1 
23.12453826541589 1:0.0194619 2:0.634656 3:-0.709391 4:-0.350485 5:0.890685 6:0.147028 7:-0.903536 8:0.190204 9:0.939764 10:-0.524315 11:-0.0402136 12:-1 13:-1 14:-1 15:-1 16:-1 17:1 18:-1 19:-1 20:-1 21:1 22:-1 23:-1 24:-1 25:-1 26:-1 27:-1 28:-1 29:-1 30:-1 31:-1 32:1 33:-1 
56 1:-0.510697 2:0.528446 3:-0.745994 4:-0.380385 5:-0.37867 6:0.0808505 7:-0.828888 8:-0.22742 9:0.987354 10:-0.542201 11:0.0752545 12:-1 13:1 14:-1 15:-1 16:-1 17:-1 18:-1 19:-1 20:-1 21:1 22:-1 23:-1 24:-1 25:-1 26:-1 27:-1 28:-1 29:-1 30:-1 31:-1 32:-1 33:1 
56 1:0.406878 2:0.341879 3:-0.963067 4:-0.270177 5:-0.63344 6:-0.00775901 7:-0.719659 8:0.261435 9:0.77623 10:-0.75414 11:0.170032 12:-1 13:-1 14:-1 15:-1 16:-1 17:-1 18:1 19:-1 20:-1 21:1 22:-1 23:-1 24:-1 25:-1 26:-1 27:-1 28:-1 29:-1 30:-1 31:-1 32:1 33:-1 
56 1:-0.203877 2:0.162051 3:-0.649856 4:-0.14734 5:0.298679 6:0.154109 7:-0.817584 8:0.225019 9:0.917617 10:-0.574462 11:0.0478892 12:-1 13:-1 14:-1 15:-1 16:-1 17:1 18:-1 19:-1 20:-1 21:1 22:-1 23:-1 24:-1 25:-1 26:-1 27:-1 28:-1 29:-1 30:-1 31:-1 32:1 33:-1 
56 1:0.203084 2:0.449245 3:-0.850192 4:-0.046422 5:0.881565 6:-0.16994 7:-0.512945 8:0.218616 9:0.978653 10:-0.241005 11:0.0278658 12:-1 13:-1 14:-1 15:-1 16:-1 17:1 18:-1 19:-1 20:-1 21:1 22:-1 23:-1 24:-1 25:-1 26:-1 27:-1 28:-1 29:-1 30:-1 31:-1 32:1 33:-1 
56 1:0.374921 2:0.587326 3:-0.803985 4:0.0651605 5:0.139481 6:-0.367581 7:-0.333993 8:0.208852 9:0.924631 10:-0.48711 11:0.953279 12:-1 13:-1 14:-1 15:-1 16:1 17:-1 18:-1 19:-1 20:-1 21:1 22:-1 23:-1 24:-1 25:-1 26:-1 27:-1 28:-1 29:-1 30:-1 31:-1 32:1 33:-1 
56 1:-0.468062 2:0.597549 3:-0.54952 4:-0.663121 5:-0.619115 6:0.154453 7:-0.733056 8:-0.00452199 9:0.961255 10:-0.634553 11:-0.086601 12:1 13:-1 14:-1 15:-1 16:-1 17:-1 18:-1 19:-1 20:-1 21:-1 22:-1 23:-1 24:1 25:-1 26:-1 27:-1 28:-1 29:-1 30:-1 31:-1 32:-1 33:1 
56 1:0.378991 2:0.785003 3:-0.883706 4:-0.387885 5:0.681669 6:-0.237009 7:-0.375142 8:0.267358 9:0.975244 10:-0.143317 11:-0.109628 12:-1 13:-1 14:-1 15:-1 16:1 17:-1 18:-1 19:-1 20:-1 21:1 22:-1 23:-1 24:-1 25:-1 26:-1 27:-1 28:-1 29:-1 30:-1 31:-1 32:1 33:-1 
56 1:-0.165759 2:0.678636 3:-0.796302 4:-0.354158 5:0.845568 6:-0.201559 7:-0.587936 8:0.132338 9:0.930034 10:-0.306125 11:0.223761 12:1 13:-1 14:-1 15:-1 16:-1 17:-1 18:-1 19:-1 20:-1 21:-1 22:-1 23:-1 24:1 25:-1 26:-1 27:-1 28:-1 29:-1 30:-1 31:-1 32:-1 33:1 
56 1:-0.441819 2:0.299072 3:0.937485 4:0.1925 5:0.886853 6:-0.0616268 7:-0.661758 8:-0.0958422 9:0.623396 10:-0.786842 11:0.25413 12:-1 13:1 14:-1 15:-1 16:-1 17:-1 18:-1 19:-1 20:-1 21:1 22:-1 23:-1 24:-1 25:-1 26:-1 27:-1 28:-1 29:-1 30:-1 31:-1 32:-1 33:1 
56 1:-0.396221 2:0.199239 3:0.309254 4:-0.200052 5:-0.14241 6:0.0914241 7:-1 8:0.308016 9:0.688175 10:-0.786341 11:-0.722009 12:-1 13:-1 14:-1 15:-1 16:-1 17:1 18:-1 19:-1 20:-1 21:1 22:-1 23:-1 24:-1 25:-1 26:-1 27:-1 28:-1 29:-1 30:-1 31:-1 32:1 33:-1 
56 1:-0.710999 2:0.80757 3:-0.936613 4:0.204264 5:-0.857559 6:-0.174431 7:-0.225181 8:-0.150106 9:0.998159 10:-0.479223 11:-0.311864 12:-1 13:-1 14:-1 15:1 16:-1 17:-1 18:-1 19:-1 20:-1 21:1 22:-1 23:-1 24:-1 25:-1 26:-1 27:-1 28:-1 29:-1 30:-1 31:-1 32:-1 33:1 
56 1:-0.305282 2:0.189827 3:-0.850627 4:0.0328078 5:-1 6:-0.14818 7:-0.638823 8:0.215175 9:0.997922 10:-0.0996171 11:-0.557817 12:-1 13:-1 14:-1 15:-1 16:-1 17:-1 18:-1 19:0.333333 20:-1 21:1 22:-1 23:-1 24:-1 25:-1 26:-1 27:-1 28:-1 29:-1 30:-1 31:-1 32:1 33:-1 
56 1:0.441708 2:0.409353 3:-0.986724 4:0.0555394 5:-0.847247 6:-0.119053 7:-0.499624 8:0.332586 9:0.953538 10:-0.475173 11:0.0432171 12:-1 13:-1 14:-1 15:-1 16:-1 17:1 18:-1 19:-1 20:-1 21:-1 22:1 23:-1 24:-1 25:-1 26:-1 27:-1 28:-1 29:-1 30:-1 31:-1 32:1 33:-1 
56 1:-0.812559 2:0.376228 3:-0.516369 4:-0.456685 5:-0.608505 6:0.0934786 7:-0.80778 8:0.253031 9:0.986912 10:-0.117714 11:0.0679126 12:-1 13:-1 14:-1 15:-1 16:-1 17:-1 18:1 19:-1 20:-1 21:1 22:-1 23:-1 24:-1 25:-1 26:-1 27:-1 28:-1 29:-1 30:-1 31:-1 32:1 33:-1 
56 1:0.124814 2:0.62574 3:-0.909267 4:-0.541112 5:-0.427023 6:0.103421 7:-0.72066 8:0.214694 9:0.974772 10:-0.502763 11:-0.0682463 12:-1 13:-1 14:-1 15:-1 16:-1 17:-1 18:1 19:-1 20:-1 21:-1 22:1 23:-1 24:-1 25:-1 26:-1 27:-1 28:-1 29:-1 30:-1 31:-1 32:1 33:-1 
56 1:0.597947 2:0.582649 3:-0.966448 4:-0.627947 5:0.528894 6:0.0634954 7:-0.514129 8:0.43119 9:0.883845 10:-0.479991 11:-0.0518939 12:-1 13:-1 14:-1 15:-1 16:-1 17:-1 18:1 19:-1 20:-1 21:1 22:-1 23:-1 24:-1 25:-1 26:-1 27:-1 28:-1 29:-1 30:-1 31:-1 32:1 33:-1 
56 1:0.182242 2:0.591442 3:-0.823744 4:-0.397836 5:0.350141 6:-0.0702962 7:-0.791878 8:0.214214 9:0.975094 10:-0.214013 11:-0.52311 12:-1 13:-1 14:-1 15:-1 16:-1 17:1 18:-1 19:-1 20:-1 21:1 22:-1 23:-1 24:-1 25:-1 26:-1 27:-1 28:-1 29:-1 30:-1 31:-1 32:1 33:-1 
56 1:-0.0536762 2:0.436252 3:-0.721427 4:-0.502799 5:-0.82804 6:-0.0264206 7:-0.766174 8:0.236624 9:0.985869 10:-0.206052 11:-0.248123 12:-1 13:-1 14:-1 15:-1 16:-1 17:1 18:-1 19:-1 20:-1 21:1 22:-1 23:-1 24:-1 25:-1 26:-1 27:-1 28:-1 29:-1 30:-1 31:-1 32:1 33:-1 
56 1:0.348175 2:0.335165 3:-0.890814 4:-0.24894 5:-0.209547 6:-0.238941 7:-0.471109 8:0.195646 9:0.959474 10:-0.385001 11:0.857834 12:-1 13:-1 14:-1 15:-1 16:-1 17:1 18:-1 19:-1 20:-1 21:1 22:-1 23:-1 24:-1 25:-1 26:-1 27:-1 28:-1 29:-1 30:-1 31:-1 32:1 33:-1 
56 1:-0.181984 2:0.294993 3:0.703151 4:-0.414875 5:0.873414 6:0.145102 7:-0.815231 8:-0.172036 9:0.23719 10:-0.864993 11:0.0438845 12:1 13:-1 14:-1 15:-1 16:-1 17:-1 18:-1 19:-1 20:-1 21:1 22:-1 23:-1 24:-1 25:-1 26:-1 27:-1 28:-1 29:-1 30:-1 31:-1 32:-1 33:1 
56 1:0.158548 2:0.439512 3:-0.826126 4:-0.310325 5:-1 6:-0.240699 7:-0.421281 8:-0.148105 9:0.93439 10:-0.445907 11:-0.0932755 12:1 13:-1 14:-1 15:-1 16:-1 17:-1 18:-1 19:-1 20:-1 21:1 22:-1 23:-1 24:-1 25:-1 26:-1 27:-1 28:-1 29:-1 30:-1 31:-1 32:-1 33:1 
56 1:-0.0744514 2:0.268369 3:-0.736434 4:0.107481 5:-0.58327 6:-0.288268 7:0.0210898 8:-0.00524231 9:0.899324 10:-0.512204 11:0.707325 12:-1 13:-1 14:-1 15:1 16:-1 17:-1 18:-1 19:-1 20:-1 21:1 22:-1 23:-1 24:-1 25:-1 26:-1 27:-1 28:-1 29:-1 30:-1 31:-1 32:-1 33:1 
56 1:0.535219 2:0.558318 3:-0.94873 4:-0.451861 5:0.52933 6:-0.0562851 7:-0.823896 8:0.222778 9:0.849606 10:-0.641773 11:0.0532288 12:-1 13:-1 14:-1 15:-1 16:-1 17:1 18:-1 19:-1 20:-1 21:1 22:-1 23:-1 24:-1 25:-1 26:-1 27:-1 28:-1 29:-1 30:-1 31:-1 32:1 33:-1 
56 1:0.0479635 2:0.420244 3:-0.825359 4:-0.118719 5:0.507238 6:-0.0676902 7:-0.572587 8:-0.108168 9:0.976938 10:-0.229147 11:-0.573169 12:-1 13:1 14:-1 15:-1 16:-1 17:-1 18:-1 19:-1 20:-1 21:1 22:-1 23:-1 24:-1 25:-1 26:-1 27:-1 28:-1 29:-1 30:-1 31:-1 32:-1 33:1 
56 1:0.0127195 2:0.830253 3:-0.683096 4:-0.424985 5:0.202854 6:-0.337957 7:-0.652134 8:0.309216 9:0.939946 10:-0.368463 11:0.0735859 12:-1 13:-1 14:-1 15:-1 16:-1 17:-1 18:1 19:-1 20:-1 21:1 22:-1 23:-1 24:-1 25:-1 26:-1 27:-1 28:-1 29:-1 30:-1 31:-1 32:1 33:-1 
56 1:-0.397149 2:0.26681 3:-0.947175 4:0.149098 5:0.0337432 6:0.0269073 7:-0.776867 8:0.228541 9:0.993127 10:-0.0147038 11:0.115635 12:-1 13:-1 14:-1 15:-1 16:-1 17:1 18:-1 19:-1 20:-1 21:-1 22:1 23:-1 24:-1 25:-1 26:-1 27:-1 28:-1 29:-1 30:-1 31:-1 32:1 33:-1 
56 1:-0.612916 2:0.692169 3:0.460556 4:-0.209054 5:0.459067 6:-0.324482 7:-0.476403 8:-0.191404 9:0.920724 10:-0.534382 11:0.0769231 12:-1 13:1 14:-1 15:-1 16:-1 17:-1 18:-1 19:-1 20:-1 21:1 22:-1 23:-1 24:-1 25:-1 26:-1 27:-1 28:-1 29:-1 30:-1 31:-1 32:-1 33:1 
56 1:-0.049908 2:0.255214 3:-0.913353 4:-0.145392 5:0.948878 6:-0.13851 7:-0.620217 8:0.247749 9:0.998585 10:-0.0516556 11:0.0862673 12:-1 13:-1 14:-1 15:-1 16:-1 17:1 18:-1 19:-1 20:-1 21:1 22:-1 23:-1 24:-1 25:-1 26:-1 27:-1 28:-1 29:-1 30:-1 31:-1 32:1 33:-1 
56 1:0.148396 2:0.456432 3:-0.498229 4:-0.271812 5:0.247152 6:-0.156867 7:-0.628407 8:0.152587 9:0.767163 10:-0.750474 11:-0.657267 12:-1 13:-1 14:-1 15:-1 16:-1 17:1 18:-1 19:-1 20:-1 21:1 22:-1 23:-1 24:-1 25:-1 26:-1 27:-1 28:-1 29:-1 30:-1 31:-1 32:1 33:-1 
56 1:0.320099 2:0.730047 3:-0.725605 4:-0.274542 5:-0.21457 6:-0.138001 7:-0.512119 8:0.245588 9:0.906214 10:-0.657254 11:0.0151844 12:-1 13:-1 14:-1 15:-1 16:1 17:-1 18:-1 19:-1 20:-1 21:1 22:-1 23:-1 24:-1 25:-1 26:-1 27:-1 28:-1 29:-1 30:-1 31:-1 32:1 33:-1 
56 1:0.513404 2:0.315475 3:-0.994043 4:-0.160326 5:-0.918543 6:0.0541273 7:-0.7561 8:0.274161 9:0.87004 10:-0.666255 11:-0.214751 12:-1 13:-1 14:-1 15:-1 16:-1 17:1 18:-1 19:-1 20:-1 21:-1 22:-1 23:1 24:-1 25:-1 26:-1 27:-1 28:-1 29:-1 30:-1 31:-1 32:1 33:-1 
56 1:-0.435233 2:0.841305 3:-0.827155 4:-0.358765 5:-1 6:-0.230697 7:-0.839132 8:0.264636 9:0.977097 10:-0.444916 11:-0.392291 12:-1 13:-1 14:-1 15:-1 16:-1 17:1 18:-1 19:-1 20:-1 21:1 22:-1 23:-1 24:-1 25:-1 26:-1 27:-1 28:-1 29:-1 30:-1 31:-1 32:1 33:-1 
36.24034727170682 1:0.322111 2:0.798745 3:-0.763336 4:-0.382933 5:-0.949777 6:0.151988 7:-0.634793 8:0.289447 9:0.920655 10:-0.45997 11:-0.0121809 12:-1 13:-1 14:-1 15:-1 16:1 17:-1 18:-1 19:-1 20:-1 21:1 22:-1 23:-1 24:-1 25:-1 26:-1 27:-1 28:-1 29:-1 30:-1 31:-1 32:1 33:-1 
56 1:0.409047 2:0.214927 3:-0.956193 4:-0.0196645 5:0.513792 6:-0.247429 7:-0.330922 8:0.233183 9:0.933382 10:-0.426305 11:0.166361 12:-1 13:-1 14:-1 15:-1 16:-1 17:1 18:-1 19:-1 20:-1 21:1 22:-1 23:-1 24:-1 25:-1 26:-1 27:-1 28:-1 29:-1 30:-1 31:-1 32:1 33:-1 
56 1:0.602196 2:0.760004 3:-0.953549 4:-0.310943 5:0.0108709 6:0.199572 7:-1 8:0.325703 9:0.960119 10:-0.173293 11:-0.487068 12:-1 13:-1 14:-1 15:-1 16:-1 17:1 18:-1 19:-1 20:-1 21:-1 22:1 23:-1 24:-1 25:-1 26:-1 27:-1 28:-1 29:-1 30:-1 31:-1 32:1 33:-1 
56 1:-0.227962 2:0.769904 3:-0.25238 4:0.00613808 5:-0.126575 6:-0.155623 7:-0.581038 8:0.146745 9:0.98112 10:-0.684346 11:-0.428333 12:-1 13:-1 14:-1 15:-1 16:-1 17:1 18:-1 19:-1 20:-1 21:1 22:-1 23:-1 24:-1 25:-1 26:-1 27:-1 28:-1 29:-1 30:-1 31:-1 32:1 33:-1 
56 1:-0.0270419 2:0.412681 3:0.0170225 4:-0.191836 5:-0.470977 6:0.26225 7:-0.86958 8:0.3185 9:0.99964 10:-0.604018 11:0.102286 12:-1 13:-1 14:-1 15:-1 16:-1 17:1 18:-1 19:-1 20:-1 21:1 22:-1 23:-1 24:-1 25:-1 26:-1 27:-1 28:-1 29:-1 30:-1 31:-1 32:1 33:-1 
56 1:0.39147 2:0.508481 3:-0.847539 4:-0.0785818 5:-0.999912 6:0.33004 7:-1 8:0.282404 9:0.758332 10:-0.695588 11:-0.342233 12:-1 13:-1 14:-1 15:-1 16:-1 17:1 18:-1 19:-1 20:-1 21:-1 22:1 23:-1 24:-1 25:-1 26:-1 27:-1 28:-1 29:-1 30:-1 31:-1 32:1 33:-1 
56 1:0.34604 2:0.528843 3:-0.983492 4:-0.398722 5:0.827172 6:0.145142 7:-0.849326 8:0.267198 9:0.954481 10:-0.307376 11:-0.155348 12:-1 13:-1 14:-1 15:-1 16:-1 17:1 18:-1 19:-1 20:-1 21:-1 22:1 23:-1 24:-1 25:-1 26:-1 27:-1 28:-1 29:-1 30:-1 31:-1 32:1 33:-1 
56 1:-0.288018 2:0.881127 3:-0.446885 4:-0.27922 5:-0.958713 6:-0.275393 7:-0.351593 8:0.192445 9:0.950444 10:-0.458852 11:0.122977 12:-1 13:-1 14:-1 15:-1 16:-1 17:-1 18:-1 19:-1 20:1 21:1 22:-1 23:-1 24:-1 25:-1 26:-1 27:-1 28:-1 29:-1 30:-1 31:-1 32:1 33:-1 
56 1:-0.0932027 2:0.627483 3:-0.881923 4:-0.214436 5:-0.389424 6:0.0307281 7:-1 8:0.424787 9:0.998425 10:-0.589549 11:0.155348 12:-1 13:-1 14:-1 15:-1 16:-1 17:-1 18:-1 19:1 20:-1 21:-1 22:1 23:-1 24:-1 25:-1 26:-1 27:-1 28:-1 29:-1 30:-1 31:-1 32:1 33:-1 
55.05036076222672 1:0.446103 2:0.49121 3:-0.929475 4:0.255654 5:0.919793 6:0.281976 7:-0.725889 8:-0.121453 9:0.772271 10:-0.748814 11:-0.062573 12:-1 13:-1 14:1 15:-1 16:-1 17:-1 18:-1 19:-1 20:-1 21:-1 22:1 23:-1 24:-1 25:-1 26:-1 27:-1 28:-1 29:-1 30:-1 31:-1 32:-1 33:1 
56 1:0.061549 2:0.463131 3:-0.957887 4:-0.374002 5:0.612916 6:0.334645 7:-0.827519 8:-0.146184 9:0.983903 10:-0.0937333 11:-0.226097 12:-1 13:-1 14:0.333333 15:-1 16:-1 17:-1 18:-1 19:-1 20:-1 21:1 22:-1 23:-1 24:-1 25:-1 26:-1 27:-1 28:-1 29:-1 30:-1 31:-1 32:-1 33:1 
32.22394831346239 1:-0.115745 2:0.558682 3:0.244634 4:0.251053 5:-0.972307 6:-0.0884553 7:-0.635168 8:0.429029 9:0.965143 10:-0.509877 11:0.339563 12:-1 13:-1 14:-1 15:-1 16:1 17:-1 18:-1 19:-1 20:-1 21:-1 22:1 23:-1 24:-1 25:-1 26:-1 27:-1 28:-1 29:-1 30:-1 31:-1 32:1 33:-1 
56 1:-0.0289651 2:0.229292 3:-0.948986 4:-0.195759 5:-0.218436 6:0.0768398 7:-1 8:0.121213 9:0.975395 10:-0.492915 11:0.166361 12:-1 13:-1 14:-1 15:-1 16:-1 17:1 18:-1 19:-1 20:-1 21:-1 22:-1 23:1 24:-1 25:-1 26:-1 27:-1 28:-1 29:-1 30:-1 31:-1 32:1 33:-1 
56 1:0.530747 2:0.293527 3:-0.987211 4:-0.451764 5:0.88845 6:0.184744 7:-0.79359 8:0.233583 9:0.950602 10:-0.352528 11:-0.695979 12:-1 13:-1 14:-1 15:-1 16:1 17:-1 18:-1 19:-1 20:-1 21:-1 22:1 23:-1 24:-1 25:-1 26:-1 27:-1 28:-1 29:-1 30:-1 31:-1 32:1 33:-1 
56 1:0.105414 2:0.300231 3:-0.789366 4:-0.540317 5:-0.332045 6:-0.059029 7:-0.806971 8:0.197967 9:0.969448 10:-0.350244 11:0.0579009 12:-1 13:-1 14:-1 15:-1 16:-1 17:-1 18:1 19:-1 20:-1 21:1 22:-1 23:-1 24:-1 25:-1 26:-1 27:-1 28:-1 29:-1 30:-1 31:-1 32:1 33:-1 
56 1:-0.637539 2:0.743163 3:-0.790669 4:0.569509 5:-0.666232 6:-0.310222 7:-0.275202 8:0.246468 9:0.979308 10:-0.0526521 11:0.33389 12:-1 13:-1 14:-1 15:-1 16:-1 17:-1 18:1 19:-1 20:-1 21:1 22:-1 23:-1 24:-1 25:-1 26:-1 27:-1 28:-1 29:-1 30:-1 31:-1 32:1 33:-1 
56 1:0.53135 2:0.733635 3:-0.848197 4:-0.270998 5:-0.956506 6:-0.274199 7:-0.536256 8:0.239986 9:0.971056 10:-0.407858 11:-0.145003 12:-1 13:-1 14:-1 15:-1 16:-1 17:-1 18:1 19:-1 20:-1 21:1 22:-1 23:-1 24:-1 25:-1 26:-1 27:-1 28:-1 29:-1 30:-1 31:-1 32:1 33:-1 
56 1:0.231955 2:0.650685 3:-0.500147 4:-0.41566 5:-0.567588 6:0.312091 7:-0.866127 8:0.20357 9:0.790174 10:-0.777579 11:-0.0181879 12:-1 13:-1 14:-1 15:-1 16:-1 17:-1 18:-1 19:0.333333 20:-1 21:-1 22:-1 23:-1 24:1 25:-1 26:-1 27:-1 28:-1 29:-1 30:-1 31:-1 32:1 33:-1 
56 1:0.175432 2:0.629944 3:-0.69869 4:-0.530953 5:-0.909346 6:0.107446 7:-1 8:0.190364 9:0.988789 10:-0.281228 11:-0.375939 12:-1 13:-1 14:-1 15:-1 16:-1 17:1 18:-1 19:-1 20:-1 21:-1 22:-1 23:1 24:-1 25:-1 26:-1 27:-1 28:-1 29:-1 30:-1 31:-1 32:1 33:-1 
5.707472472708993 1:0.208586 2:0.635388 3:-0.954211 4:-0.222012 5:0.335444 6:0.106087 7:-0.811624 8:-0.15907 9:0.98284 10:-0.517802 11:-0.19139 12:-1 13:-1 14:-1 15:1 16:-1 17:-1 18:-1 19:-1 20:-1 21:1 22:-1 23:-1 24:-1 25:-1 26:-1 27:-1 28:-1 29:-1 30:-1 31:-1 32:-1 33:1 
56 1:0.239279 2:0.501921 3:-0.839254 4:-0.370754 5:0.651546 6:-0.180607 7:-0.574368 8:-0.156989 9:0.936867 10:-0.436922 11:-0.152678 12:1 13:-1 14:-1 15:-1 16:-1 17:-1 18:-1 19:-1 20:-1 21:1 22:-1 23:-1 24:-1 25:-1 26:-1 27:-1 28:-1 29:-1 30:-1 31:-1 32:-1 33:1 
56 1:-0.24233 2:0.309199 3:-0.572927 4:-0.519136 5:-0.981481 6:0.118408 7:-0.85924 8:0.312738 9:0.947918 10:-0.344052 11:-0.456699 12:-1 13:-1 14:-1 15:-1 16:-1 17:-1 18:1 19:-1 20:-1 21:-1 22:1 23:-1 24:-1 25:-1 26:-1 27:-1 28:-1 29:-1 30:-1 31:-1 32:1 33:-1 
56 1:0.567221 2:0.626903 3:-0.944162 4:-0.32167 5:-0.99957 6:-0.290535 7:-0.118378 8:0.188763 9:0.893736 10:-0.577927 11:-0.0292007 12:-1 13:-1 14:-1 15:-1 16:1 17:-1 18:-1 19:-1 20:-1 21:1 22:-1 23:-1 24:-1 25:-1 26:-1 27:-1 28:-1 29:-1 30:-1 31:-1 32:1 33:-1 
56 1:0.174214 2:0.282418 3:-0.774956 4:-0.412854 5:-0.792625 6:0.145231 7:-0.480923 8:0.0513426 9:0.916105 10:-0.681521 11:-0.170365 12:-1 13:-1 14:-1 15:-1 16:-1 17:-1 18:1 19:-1 20:-1 21:1 22:-1 23:-1 24:-1 25:-1 26:-1 27:-1 28:-1 29:-1 30:-1 31:-1 32:1 33:-1 
56 1:-0.116013 2:0.492484 3:-0.195183 4:-0.133839 5:-0.249533 6:0.318797 7:-0.681335 8:-0.0413382 9:0.769412 10:-0.766624 11:0.3142 12:-1 13:-1 14:1 15:-1 16:-1 17:-1 18:-1 19:-1 20:-1 21:-1 22:1 23:-1 24:-1 25:-1 26:-1 27:-1 28:-1 29:-1 30:-1 31:-1 32:-1 33:1 
56 1:0.279745 2:0.80681 3:-0.584322 4:-0.388275 5:-0.298027 6:0.147824 7:-0.822835 8:0.330505 9:0.945045 10:-0.389517 11:-0.046888 12:-1 13:-1 14:-1 15:-1 16:-1 17:1 18:-1 19:-1 20:-1 21:-1 22:1 23:-1 24:-1 25:-1 26:-1 27:-1 28:-1 29:-1 30:-1 31:-1 32:1 33:-1 
56 1:-0.243426 2:0.78755 3:-0.964975 4:-0.23121 5:-0.803653 6:-0.0846456 7:-0.4531 8:0.284405 9:0.995853 10:0.155542 11:-0.141665 12:-1 13:-1 14:-1 15:-1 16:-1 17:1 18:-1 19:-1 20:-1 21:1 22:-1 23:-1 24:-1 25:-1 26:-1 27:-1 28:-1 29:-1 30:-1 31:-1 32:1 33:-1 
25.95508647787644 1:0.47844 2:0.608554 3:-0.90643 4:-0.0543239 5:0.482419 6:0.0789655 7:-0.721636 8:0.274001 9:0.917629 10:-0.493874 11:0.0518939 12:-1 13:-1 14:-1 15:-1 16:1 17:-1 18:-1 19:-1 20:-1 21:-1 22:-1 23:-1 24:1 25:-1 26:-1 27:-1 28:-1 29:-1 30:-1 31:-1 32:1 33:-1 
56 1:-0.0152566 2:0.602017 3:-0.0946347 4:-0.574988 5:-0.0862581 6:0.329559 7:-0.847843 8:0.2267 9:0.978404 10:-0.49979 11:0.158351 12:-1 13:-1 14:-1 15:-1 16:-1 17:-1 18:-1 19:0.333333 20:-1 21:1 22:-1 23:-1 24:-1 25:-1 26:-1 27:-1 28:-1 29:-1 30:-1 31:-1 32:1 33:-1 
56 1:-0.882064 2:0.309425 3:-0.124495 4:-0.321992 5:-0.701778 6:-0.168762 7:-0.569467 8:0.184361 9:0.980651 10:-0.229789 11:0.147339 12:-1 13:-1 14:-1 15:-1 16:-1 17:-1 18:1 19:-1 20:-1 21:1 22:-1 23:-1 24:-1 25:-1 26:-1 27:-1 28:-1 29:-1 30:-1 31:-1 32:1 33:-1 
56 1:0.544477 2:0.630169 3:-0.957104 4:-0.419127 5:0.113626 6:-0.249699 7:-0.659482 8:0.185161 9:0.980503 10:-0.15782 11:0.164692 12:-1 13:-1 14:-1 15:-1 16:-1 17:1 18:-1 19:-1 20:-1 21:-1 22:-1 23:1 24:-1 25:-1 26:-1 27:-1 28:-1 29:-1 30:-1 31:-1 32:1 33:-1 
56 1:-0.314384 2:0.214538 3:-0.990064 4:-0.149525 5:-0.0047107 6:-0.0484612 7:-0.784991 8:0.264236 9:0.98225 10:-0.530941 11:-0.136993 12:-1 13:-1 14:-1 15:-1 16:-1 17:1 18:-1 19:-1 20:-1 21:1 22:-1 23:-1 24:-1 25:-1 26:-1 27:-1 28:-1 29:-1 30:-1 31:-1 32:1 33:-1 
56 1:0.661771 2:0.664656 3:-0.969952 4:0.294843 5:-1 6:0.204795 7:-0.561309 8:-0.246949 9:0.917905 10:-0.582919 11:-0.0629067 12:-1 13:-1 14:-0.333333 15:-1 16:-1 17:-1 18:-1 19:-1 20:-1 21:-1 22:-1 23:-1 24:1 25:-1 26:-1 27:-1 28:-1 29:-1 30:-1 31:-1 32:-1 33:1 
52.80140773668006 1:0.252383 2:0.814424 3:-0.974249 4:-0.323331 5:0.509523 6:-0.0311646 7:-0.701659 8:0.248789 9:0.990004 10:0.0828679 11:-0.198732 12:-1 13:-1 14:-1 15:-1 16:-1 17:-1 18:1 19:-1 20:-1 21:1 22:-1 23:-1 24:-1 25:-1 26:-1 27:-1 28:-1 29:-1 30:-1 31:-1 32:1 33:-1 
56 1:0.324571 2:0.869056 3:-0.839789 4:-0.26844 5:-0.90178 6:-0.0929063 7:-0.791751 8:0.217656 9:0.960446 10:-0.49125 11:-0.0542299 12:-1 13:-1 14:-1 15:-1 16:-1 17:-1 18:1 19:-1 20:-1 21:-1 22:-1 23:-1 24:1 25:-1 26:-1 27:-1 28:-1 29:-1 30:-1 31:-1 32:1 33:-1 
56 1:0.469752 2:0.700586 3:-0.907477 4:-0.478433 5:-0.528038 6:0.127011 7:-1 8:-0.0207691 9:0.43643 10:-0.808172 11:-0.118305 12:1 13:-1 14:-1 15:-1 16:-1 17:-1 18:-1 19:-1 20:-1 21:-1 22:1 23:-1 24:-1 25:-1 26:-1 27:-1 28:-1 29:-1 30:-1 31:-1 32:-1 33:1 
56 1:0.54488 2:0.469087 3:-0.992915 4:-0.546073 5:0.628552 6:-0.0367167 7:-0.697719 8:-0.157629 9:0.9936 10:-0.0492914 11:-0.00283664 12:1 13:-1 14:-1 15:-1 16:-1 17:-1 18:-1 19:-1 20:-1 21:1 22:-1 23:-1 24:-1 25:-1 26:-1 27:-1 28:-1 29:-1 30:-1 31:-1 32:-1 33:1 
56 1:-0.23182 2:0.614984 3:0.504162 4:0.469757 5:-0.999581 6:-0.0219927 7:-0.917692 8:-0.175957 9:0.784002 10:-0.733183 11:0.0298682 12:-1 13:1 14:-1 15:-1 16:-1 17:-1 18:-1 19:-1 20:-1 21:-1 22:-1 23:-1 24:1 25:-1 26:-1 27:-1 28:-1 29:-1 30:-1 31:-1 32:-1 33:1 
56 1:-0.698899 2:0.321465 3:0.286011 4:-0.416289 5:-0.144527 6:0.150101 7:-1 8:0.162832 9:0.9054 10:-0.679149 11:-0.218421 12:-1 13:-1 14:-1 15:-1 16:-1 17:1 18:-1 19:-1 20:-1 21:1 22:-1 23:-1 24:-1 25:-1 26:-1 27:-1 28:-1 29:-1 30:-1 31:-1 32:1 33:-1 
56 1:-0.613817 2:0.232361 3:0.0229647 4:-0.224713 5:-0.998084 6:0.128526 7:-0.873635 8:0.290008 9:0.90341 10:-0.497102 11:-0.284832 12:-1 13:-1 14:-1 15:-1 16:-1 17:1 18:-1 19:-1 20:-1 21:1 22:-1 23:-1 24:-1 25:-1 26:-1 27:-1 28:-1 29:-1 30:-1 31:-1 32:1 33:-1 
56 1:-0.197504 2:0.313146 3:-0.819396 4:-0.114022 5:-0.81722 6:0.597191 7:-1 8:-0.186842 9:0.961663 10:-0.56865 11:0.0972802 12:-1 13:-1 14:0.333333 15:-1 16:-1 17:-1 18:-1 19:-1 20:-1 21:-1 22:-1 23:-1 24:1 25:-1 26:-1 27:-1 28:-1 29:-1 30:-1 31:-1 32:-1 33:1 
56 1:-0.127854 2:0.584953 3:-0.84847 4:-0.404784 5:-0.224706 6:0.0143704 7:-0.939954 8:0.305214 9:0.976965 10:-0.564468 11:-0.152678 12:-1 13:-1 14:-1 15:-1 16:-1 17:1 18:-1 19:-1 20:-1 21:-1 22:1 23:-1 24:-1 25:-1 26:-1 27:-1 28:-1 29:-1 30:-1 31:-1 32:1 33:-1 
56 1:0.195246 2:0.369534 3:-0.971325 4:0.0339199 5:0.956882 6:-0.135294 7:-0.702394 8:0.246949 9:0.953383 10:-0.45388 11:-0.36259 12:-1 13:-1 14:-1 15:-1 16:-1 17:-1 18:1 19:-1 20:-1 21:-1 22:1 23:-1 24:-1 25:-1 26:-1 27:-1 28:-1 29:-1 30:-1 31:-1 32:1 33:-1 
56 1:-0.16567 2:0.675478 3:-0.929919 4:-0.235098 5:0.0270968 6:0.0310349 7:-0.943727 8:0.36324 9:0.96569 10:-0.427323 11:0.117304 12:-1 13:-1 14:-1 15:-1 16:-1 17:-1 18:-1 19:0.333333 20:-1 21:-1 22:-1 23:-1 24:1 25:-1 26:-1 27:-1 28:-1 29:-1 30:-1 31:-1 32:1 33:-1 
56 1:-0.573047 2:0.691763 3:0.0906927 4:-0.0677914 5:-0.993121 6:-0.132066 7:-1 8:0.225339 9:0.948994 10:-0.65441 11:-0.689638 12:-1 13:-1 14:-1 15:-1 16:-1 17:1 18:-1 19:-1 20:-1 21:-1 22:1 23:-1 24:-1 25:-1 26:-1 27:-1 28:-1 29:-1 30:-1 31:-1 32:1 33:-1 
56 1:-0.978829 2:0.396319 3:-0.919662 4:-0.284776 5:-0.659507 6:-0.100681 7:-0.178699 8:0.268638 9:0.996395 10:0.0306922 11:-0.316536 12:-1 13:-1 14:-1 15:-1 16:1 17:-1 18:-1 19:-1 20:-1 21:1 22:-1 23:-1 24:-1 25:-1 26:-1 27:-1 28:-1 29:-1 30:-1 31:-1 32:1 33:-1 
56 1:-0.136028 2:0.412366 3:-0.472563 4:-0.000146765 5:0.671263 6:-0.089323 7:-0.900842 8:0.174917 9:0.943946 10:-0.441481 11:0.0188553 12:-1 13:-1 14:-1 15:-1 16:-1 17:1 18:-1 19:-1 20:-1 21:-1 22:1 23:-1 24:-1 25:-1 26:-1 27:-1 28:-1 29:-1 30:-1 31:-1 32:1 33:-1 
56 1:-0.169047 2:0.732182 3:-0.613673 4:-0.433368 5:-0.79974 6:-0.0133403 7:-0.852276 8:-0.162031 9:0.978387 10:-0.208596 11:0.164025 12:-1 13:1 14:-1 15:-1 16:-1 17:-1 18:-1 19:-1 20:-1 21:-1 22:1 23:-1 24:-1 25:-1 26:-1 27:-1 28:-1 29:-1 30:-1 31:-1 32:-1 33:1 
56 1:0.0655744 2:0.750394 3:-0.664823 4:-0.145381 5:0.192815 6:-0.133363 7:-0.364397 8:0.107687 9:0.995874 10:-0.645164 11:-0.64859 12:-1 13:-1 14:-1 15:-1 16:-1 17:-1 18:1 19:-1 20:-1 21:-1 22:1 23:-1 24:-1 25:-1 26:-1 27:-1 28:-1 29:-1 30:-1 31:-1 32:1 33:-1 
23.59036650681002 1:-0.296247 2:0.557895 3:-0.41218 4:-0.511674 5:-0.570735 6:0.0875782 7:-0.952654 8:0.302813 9:0.959041 10:-0.708181 11:-0.369932 12:-1 13:-1 14:-1 15:-1 16:-1 17:-1 18:1 19:-1 20:-1 21:1 22:-1 23:-1 24:-1 25:-1 26:-1 27:-1 28:-1 29:-1 30:-1 31:-1 32:1 33:-1 
56 1:0.513851 2:0.69841 3:-0.896646 4:-0.372042 5:0.44614 6:0.125375 7:-0.529014 8:0.194125 9:0.936314 10:-0.556606 11:0.113966 12:-1 13:-1 14:-1 15:-1 16:-1 17:-1 18:-1 19:0.333333 20:-1 21:1 22:-1 23:-1 24:-1 25:-1 26:-1 27:-1 28:-1 29:-1 30:-1 31:-1 32:1 33:-1 
56 1:0.268988 2:0.532394 3:-0.653585 4:-0.229136 5:-0.194795 6:-0.137032 7:-0.646168 8:0.0648685 9:0.815792 10:-0.743755 11:-0.169698 12:-1 13:-1 14:-1 15:-1 16:-1 17:1 18:-1 19:-1 20:-1 21:1 22:-1 23:-1 24:-1 25:-1 26:-1 27:-1 28:-1 29:-1 30:-1 31:-1 32:1 33:-1 
56 1:-0.756543 2:0.738663 3:-0.0936044 4:-0.520193 5:-0.746032 6:-0.212547 7:-0.486524 8:0.298731 9:0.951618 10:-0.274893 11:0.108293 12:-1 13:-1 14:-1 15:-1 16:1 17:-1 18:-1 19:-1 20:-1 21:1 22:-1 23:-1 24:-1 25:-1 26:-1 27:-1 28:-1 29:-1 30:-1 31:-1 32:1 33:-1 
56 1:0.30147 2:0.690965 3:-0.563184 4:-0.307189 5:-0.761308 6:-0.00435425 7:-0.792019 8:-0.144504 9:0.925197 10:-0.569708 11:-0.00750876 12:1 13:-1 14:-1 15:-1 16:-1 17:-1 18:-1 19:-1 20:-1 21:-1 22:1 23:-1 24:-1 25:-1 26:-1 27:-1 28:-1 29:-1 30:-1 31:-1 32:-1 33:1 
56 1:-0.210228 2:0.372563 3:-0.806945 4:-0.219995 5:-0.51139 6:-0.150173 7:-0.721826 8:0.211733 9:0.996219 10:-0.105103 11:0.0829301 12:-1 13:-1 14:-1 15:-1 16:-1 17:1 18:-1 19:-1 20:-1 21:1 22:-1 23:-1 24:-1 25:-1 26:-1 27:-1 28:-1 29:-1 30:-1 31:-1 32:1 33:-1 
56 1:-0.625831 2:0.678388 3:0.0335155 4:-0.209136 5:0.224624 6:-0.0848419 7:-0.81771 8:0.192685 9:0.961045 10:-0.641 11:-0.729351 12:-1 13:-1 14:-1 15:-1 16:-1 17:1 18:-1 19:-1 20:-1 21:-1 22:1 23:-1 24:-1 25:-1 26:-1 27:-1 28:-1 29:-1 30:-1 31:-1 32:1 33:-1 
56 1:0.271023 2:0.617675 3:-0.844761 4:-0.193811 5:-0.815575 6:0.0450962 7:-0.809328 8:0.211413 9:0.97656 10:-0.22973 11:-0.971634 12:-1 13:-1 14:-1 15:-1 16:-1 17:-1 18:-1 19:-0.333333 20:-1 21:-1 22:1 23:-1 24:-1 25:-1 26:-1 27:-1 28:-1 29:-1 30:-1 31:-1 32:1 33:-1 
56 1:0.563139 2:0.352321 3:-0.992116 4:-0.430007 5:-0.415197 6:-0.261453 7:-0.489052 8:0.208772 9:0.950762 10:-0.402923 11:-0.175705 12:-1 13:-1 14:-1 15:-1 16:-1 17:-1 18:1 19:-1 20:-1 21:1 22:-1 23:-1 24:-1 25:-1 26:-1 27:-1 28:-1 29:-1 30:-1 31:-1 32:1 33:-1 
56 1:-0.0781524 2:0.414524 3:-0.544372 4:-0.383901 5:0.380694 6:0.21027 7:-0.880434 8:0.0742327 9:0.823381 10:-0.677994 11:-0.129985 12:-1 13:-1 14:1 15:-1 16:-1 17:-1 18:-1 19:-1 20:-1 21:1 22:-1 23:-1 24:-1 25:-1 26:-1 27:-1 28:-1 29:-1 30:-1 31:-1 32:-1 33:1 
56 1:-0.802031 2:0.272967 3:-0.408588 4:-0.291767 5:0.20662 6:0.113438 7:-0.933181 8:-0.151787 9:0.98367 10:-0.66567 11:0.0622393 12:1 13:-1 14:-1 15:-1 16:-1 17:-1 18:-1 19:-1 20:-1 21:1 22:-1 23:-1 24:-1 25:-1 26:-1 27:-1 28:-1 29:-1 30:-1 31:-1 32:-1 33:1 
56 1:0.184143 2:0.822327 3:-0.924898 4:-0.532639 5:-1 6:0.266845 7:-0.555264 8:0.280804 9:0.961926 10:-0.191628 11:-0.3429 12:-1 13:-1 14:-1 15:-1 16:-1 17:-1 18:-1 19:0.333333 20:-1 21:1 22:-1 23:-1 24:-1 25:-1 26:-1 27:-1 28:-1 29:-1 30:-1 31:-1 32:1 33:-1 
56 1:0.533307 2:0.27139 3:-0.994936 4:0.467809 5:-0.215015 6:0.172546 7:-0.229275 8:-0.0418984 9:0.969366 10:-0.280607 11:-0.0378775 12:-1 13:-1 14:1 15:-1 16:-1 17:-1 18:-1 19:-1 20:-1 21:1 22:-1 23:-1 24:-1 25:-1 26:-1 27:-1 28:-1 29:-1 30:-1 31:-1 32:-1 33:1 
56 1:0.449893 2:0.637846 3:-0.912029 4:-0.293022 5:0.106561 6:-0.0942148 7:-0.787889 8:0.380127 9:0.929137 10:-0.587419 11:-0.323878 12:-1 13:-1 14:-1 15:-1 16:-1 17:-1 18:1 19:-1 20:-1 21:-1 22:1 23:-1 24:-1 25:-1 26:-1 27:-1 28:-1 29:-1 30:-1 31:-1 32:1 33:-1 
22.97622411662731 1:0.172335 2:0.509324 3:-0.454496 4:0.173462 5:0.196892 6:0.0288145 7:-0.70686 8:-0.0451799 9:0.812346 10:-0.66454 11:0.627899 12:1 13:-1 14:-1 15:-1 16:-1 17:-1 18:-1 19:-1 20:-1 21:1 22:-1 23:-1 24:-1 25:-1 26:-1 27:-1 28:-1 29:-1 30:-1 31:-1 32:-1 33:1 
56 1:0.397866 2:0.736771 3:-0.730998 4:-0.386123 5:-0.588321 6:0.184955 7:-0.845014 8:-0.126015 9:0.949435 10:-0.445059 11:0.156349 12:-1 13:-1 14:-1 15:1 16:-1 17:-1 18:-1 19:-1 20:-1 21:1 22:-1 23:-1 24:-1 25:-1 26:-1 27:-1 28:-1 29:-1 30:-1 31:-1 32:-1 33:1 
56 1:0.270989 2:0.804884 3:-0.661927 4:-0.185369 5:-0.339864 6:0.0551282 7:-0.592605 8:0.324743 9:0.898619 10:-0.606785 11:0.736025 12:-1 13:-1 14:-1 15:-1 16:-1 17:1 18:-1 19:-1 20:-1 21:1 22:-1 23:-1 24:-1 25:-1 26:-1 27:-1 28:-1 29:-1 30:-1 31:-1 32:1 33:-1 
56 1:-0.0311902 2:0.488552 3:-0.929202 4:0.314503 5:0.270977 6:-0.324215 7:-0.157062 8:0.200048 9:0.995827 10:-0.0191776 11:-0.243117 12:-1 13:-1 14:-1 15:-1 16:-1 17:-1 18:1 19:-1 20:-1 21:-1 22:-1 23:-1 24:1 25:-1 26:-1 27:-1 28:-1 29:-1 30:-1 31:-1 32:1 33:-1 
56 1:0.432405 2:0.594253 3:-0.956567 4:-0.133475 5:-0.289804 6:-0.0473177 7:-0.729228 8:0.236624 9:0.993222 10:-0.0508287 11:0.422326 12:-1 13:-1 14:-1 15:-1 16:-1 17:1 18:-1 19:-1 20:-1 21:1 22:-1 23:-1 24:-1 25:-1 26:-1 27:-1 28:-1 29:-1 30:-1 31:-1 32:1 33:-1 
56 1:-0.133411 2:0.549875 3:-0.767682 4:0.150363 5:-0.0542126 6:-0.0279246 7:-0.713114 8:-0.31746 9:0.99484 10:-0.194666 11:-0.0375438 12:1 13:-1 14:-1 15:-1 16:-1 17:-1 18:-1 19:-1 20:-1 21:-1 22:-1 23:-1 24:1 25:-1 26:-1 27:-1 28:-1 29:-1 30:-1 31:-1 32:-1 33:1 
56 1:0.464552 2:0.680995 3:-0.829085 4:-0.314364 5:0.231144 6:-0.15752 7:-0.836297 8:0.145464 9:0.950176 10:-0.736674 11:0.164025 12:-1 13:-1 14:-1 15:-1 16:-1 17:-1 18:1 19:-1 20:-1 21:-1 22:-1 23:1 24:-1 25:-1 26:-1 27:-1 28:-1 29:-1 30:-1 31:-1 32:1 33:-1 
56 1:0.0543146 2:0.664422 3:-0.15769 4:-0.354716 5:0.272978 6:-0.128671 7:-0.713964 8:-0.0736724 9:0.74593 10:-0.778191 11:-0.183381 12:-1 13:1 14:-1 15:-1 16:-1 17:-1 18:-1 19:-1 20:-1 21:1 22:-1 23:-1 24:-1 25:-1 26:-1 27:-1 28:-1 29:-1 30:-1 31:-1 32:-1 33:1 
56 1:-0.373444 2:0.571368 3:-0.850353 4:-0.370406 5:-0.671213 6:-0.0389546 7:-0.931244 8:0.416623 9:0.956994 10:-0.472173 11:-0.0759219 12:-1 13:-1 14:-1 15:-1 16:-1 17:1 18:-1 19:-1 20:-1 21:-1 22:1 23:-1 24:-1 25:-1 26:-1 27:-1 28:-1 29:-1 30:-1 31:-1 32:1 33:-1 
56 1:-0.607485 2:0.691073 3:0.817248 4:-0.0692606 5:0.83455 6:-0.347781 7:-0.502695 8:0.282084 9:0.948731 10:-0.409549 11:-0.318538 12:-1 13:-1 14:-1 15:-1 16:-1 17:-1 18:-1 19:1 20:-1 21:1 22:-1 23:-1 24:-1 25:-1 26:-1 27:-1 28:-1 29:-1 30:-1 31:-1 32:1 33:-1 
56 1:-0.886982 2:0.427198 3:-0.758262 4:-0.146267 5:-0.717186 6:0.0892219 7:-1 8:0.373644 9:0.981811 10:-0.592933 11:0.101285 12:-1 13:-1 14:-1 15:-1 16:-1 17:1 18:-1 19:-1 20:-1 21:-1 22:1 23:-1 24:-1 25:-1 26:-1 27:-1 28:-1 29:-1 30:-1 31:-1 32:1 33:-1 
56 1:-0.323799 2:0.688352 3:0.296684 4:-0.400658 5:0.659493 6:-0.0395622 7:-0.747333 8:0.22838 9:0.960218 10:-0.432883 11:0.056566 12:-1 13:-1 14:-1 15:-1 16:-1 17:-1 18:1 19:-1 20:-1 21:1 22:-1 23:-1 24:-1 25:-1 26:-1 27:-1 28:-1 29:-1 30:-1 31:-1 32:1 33:-1 
56 1:0.448909 2:0.63325 3:-0.833245 4:0.26651 5:-0.00154156 6:-0.166719 7:-0.271151 8:0.251831 9:0.846147 10:-0.62197 11:-0.182379 12:-1 13:-1 14:-1 15:-1 16:-1 17:-1 18:1 19:-1 20:-1 21:1 22:-1 23:-1 24:-1 25:-1 26:-1 27:-1 28:-1 29:-1 30:-1 31:-1 32:1 33:-1 
56 1:0.491377 2:0.800423 3:-0.785561 4:-0.25121 5:-0.977511 6:0.390349 7:-0.933854 8:-0.184361 9:0.716267 10:-0.75347 11:0.29985 12:-1 13:-1 14:1 15:-1 16:-1 17:-1 18:-1 19:-1 20:-1 21:-1 22:-1 23:1 24:-1 25:-1 26:-1 27:-1 28:-1 29:-1 30:-1 31:-1 32:-1 33:1 
56 1:-0.703048 2:0.584814 3:0.337819 4:-0.389732 5:-0.38071 6:0.322998 7:-0.928505 8:0.266397 9:0.950042 10:-0.354469 11:0.0689137 12:-1 13:-1 14:-1 15:-1 16:-1 17:-1 18:1 19:-1 20:-1 21:-1 22:-1 23:-1 24:1 25:-1 26:-1 27:-1 28:-1 29:-1 30:-1 31:-1 32:1 33:-1 
56 1:-0.403679 2:0.54679 3:-0.614419 4:-0.5397 5:-0.920433 6:-0.0807938 7:-1 8:0.214775 9:0.944544 10:-0.425165 11:0.166027 12:-1 13:-1 14:-1 15:-1 16:-1 17:-1 18:-1 19:-0.333333 20:-1 21:-1 22:-1 23:0.333333 24:-1 25:-1 26:-1 27:-1 28:-1 29:-1 30:-1 31:-1 32:1 33:-1 
56 1:-0.120184 2:0.621354 3:-0.887235 4:-0.263441 5:-0.738203 6:0.223956 7:-0.782803 8:0.211413 9:0.999427 10:0.0308989 11:-0.366928 12:-1 13:-1 14:-1 15:-1 16:-1 17:1 18:-1 19:-1 20:-1 21:-1 22:1 23:-1 24:-1 25:-1 26:-1 27:-1 28:-1 29:-1 30:-1 31:-1 32:1 33:-1 
5.846958384633642 1:-0.459944 2:0.561283 3:-0.554901 4:0.119571 5:-0.697343 6:-0.0180077 7:-0.823153 8:0.25015 9:0.947041 10:-0.345722 11:0.572835 12:-1 13:-1 14:-1 15:-1 16:-1 17:-1 18:-1 19:-1 20:1 21:-1 22:1 23:-1 24:-1 25:-1 26:-1 27:-1 28:-1 29:-1 30:-1 31:-1 32:1 33:-1 
56 1:0.235052 2:0.83744 3:-0.894275 4:-0.524172 5:-0.940463 6:0.0327966 7:-1 8:-0.0611069 9:0.993115 10:0.0240397 11:0.325546 12:-1 13:-1 14:-1 15:-1 16:-1 17:1 18:-1 19:-1 20:-1 21:-1 22:-1 23:-1 24:-1 25:-1 26:1 27:-1 28:-1 29:-1 30:1 31:-1 32:-1 33:-1 
56 1:0.351742 2:0.477045 3:-0.904583 4:-0.130438 5:-0.0232594 6:-0.0137996 7:-0.916364 8:-0.774541 9:0.865949 10:0.168719 11:0.0582346 12:-1 13:-1 14:-1 15:-1 16:-1 17:-1 18:1 19:-1 20:-1 21:-1 22:-1 23:-1 24:-1 25:-1 26:1 27:-1 28:-1 29:-1 30:-1 31:1 32:-1 33:-1 
56 1:0.677861 2:0.736559 3:-0.939401 4:-0.254606 5:-0.24759 6:0.0355819 7:-1 8:-0.757893 9:0.995038 10:0.244537 11:-0.849491 12:-1 13:-1 14:-1 15:-1 16:-1 17:1 18:-1 19:-1 20:-1 21:-1 22:-1 23:-1 24:-1 25:-1 26:-1 27:1 28:-1 29:-1 30:-1 31:1 32:-1 33:-1 
56 1:-0.671944 2:0.325702 3:0.388476 4:0.162647 5:-0.627984 6:0.160853 7:-1 8:-0.193165 9:-0.184395 10:-0.469872 11:-0.787419 12:-1 13:-1 14:-1 15:-1 16:-1 17:1 18:-1 19:-1 20:-1 21:-1 22:-1 23:-1 24:-1 25:-1 26:1 27:-1 28:-1 29:-1 30:-1 31:1 32:-1 33:-1 
56 1:-0.326896 2:0.474357 3:0.589793 4:-0.314352 5:-0.647917 6:-0.00221043 7:-0.940503 8:0.24903 9:0.832928 10:-0.00984296 11:0.00684131 12:-1 13:-1 14:-1 15:-1 16:1 17:-1 18:-1 19:-1 20:-1 21:-1 22:-1 23:-1 24:-1 25:1 26:-1 27:-1 28:-1 29:-1 30:-1 31:1 32:-1 33:-1 
56 1:-0.449512 2:0.121498 3:-0.890275 4:-0.317171 5:0.827386 6:-0.0412725 7:-0.701794 8:-0.700748 9:0.873249 10:0.260423 11:-0.244786 12:-1 13:-1 14:-1 15:-1 16:1 17:-1 18:-1 19:-1 20:-1 21:-1 22:-1 23:-1 24:-1 25:-1 26:1 27:-1 28:-1 29:-1 30:-1 31:1 32:-1 33:-1 
56 1:-0.14551 2:0.534312 3:0.239353 4:-0.216935 5:-0.287665 6:0.034231 7:-0.944489 8:-0.109768 9:0.718074 10:-0.74968 11:-0.177374 12:-1 13:-1 14:-1 15:-1 16:-1 17:-1 18:-1 19:-0.333333 20:-1 21:-1 22:-1 23:-1 24:-1 25:1 26:-1 27:-1 28:-1 29:-1 30:1 31:-1 32:-1 33:-1 
56 1:-0.0546825 2:0.751396 3:-0.843333 4:-0.121214 5:-0.621513 6:0.0305289 7:-1 8:-0.0562247 9:0.981252 10:-0.562756 11:-0.615551 12:-1 13:-1 14:-1 15:-1 16:-1 17:-1 18:1 19:-1 20:-1 21:-1 22:-1 23:-1 24:-1 25:-1 26:1 27:-1 28:-1 29:-1 30:1 31:-1 32:-1 33:-1 
56 1:0.30156 2:0.550101 3:-0.735964 4:-0.0418961 5:-0.754677 6:0.091825 7:-1 8:-0.00780343 9:0.884322 10:-0.527149 11:0.687969 12:-1 13:-1 14:-1 15:-1 16:1 17:-1 18:-1 19:-1 20:-1 21:-1 22:-1 23:-1 24:-1 25:-1 26:1 27:-1 28:-1 29:-1 30:1 31:-1 32:-1 33:-1 
56 1:0.500009 2:0.538849 3:-0.916582 4:0.615033 5:-0.605288 6:-0.121334 7:-0.797562 8:-0.959022 9:0.152127 10:-0.421757 11:0.157684 12:-1 13:-1 14:-1 15:-1 16:1 17:-1 18:-1 19:-1 20:-1 21:-1 22:-1 23:-1 24:-1 25:-1 26:1 27:-1 28:-1 29:-1 30:-1 31:1 32:-1 33:-1 
56 1:0.257124 2:0.477183 3:-0.915941 4:-0.287735 5:0.525077 6:-0.189468 7:-0.864018 8:-0.347073 9:0.206979 10:-0.411781 11:-0.157017 12:-1 13:-1 14:-1 15:-1 16:-1 17:1 18:-1 19:-1 20:-1 21:-1 22:-1 23:-1 24:-1 25:1 26:-1 27:-1 28:-1 29:-1 30:-1 31:1 32:-1 33:-1 
56 1:0.118944 2:0.406726 3:-0.635852 4:0.369363 5:-0.689398 6:0.0414747 7:-1 8:-0.141222 9:0.898684 10:-0.558879 11:-0.0452194 12:-1 13:-1 14:-1 15:-1 16:1 17:-1 18:-1 19:-1 20:-1 21:-1 22:-1 23:-1 24:-1 25:-1 26:-1 27:1 28:-1 29:-1 30:1 31:-1 32:-1 33:-1 
56 1:0.427061 2:0.610522 3:-0.895012 4:-0.195225 5:0.593891 6:-0.0405275 7:-0.923859 8:0.0258914 9:0.934135 10:-0.342319 11:-0.395962 12:-1 13:-1 14:-1 15:-1 16:-1 17:-1 18:1 19:-1 20:-1 21:-1 22:-1 23:-1 24:-1 25:-1 26:-1 27:1 28:-1 29:-1 30:1 31:-1 32:-1 33:-1 
56 1:0.198366 2:0.590549 3:-0.359012 4:0.0122495 5:-0.987114 6:0.171114 7:-0.839819 8:-0.0786346 9:0.775704 10:-0.701561 11:0.178041 12:-1 13:-1 14:-1 15:-1 16:-1 17:-1 18:-1 19:-0.333333 20:-1 21:-1 22:-1 23:-1 24:-1 25:-1 26:1 27:-1 28:-1 29:-1 30:1 31:-1 32:-1 33:-1 
56 1:0.154691 2:0.530576 3:-0.9105 4:-0.405823 5:-0.525077 6:0.582513 7:-0.686655 8:0.119373 9:0.790884 10:0.205311 11:-0.131987 12:-1 13:-1 14:-1 15:-1 16:-1 17:-1 18:-1 19:-0.333333 20:-1 21:-1 22:-1 23:-1 24:-1 25:-1 26:1 27:-1 28:-1 29:-1 30:-1 31:1 32:-1 33:-1 
56 1:0.27743 2:0.588975 3:-0.87019 4:-0.280062 5:0.405213 6:-0.0277598 7:-0.702148 8:0.084157 9:0.917441 10:-0.389629 11:-0.266144 12:-1 13:-1 14:-1 15:-1 16:-1 17:1 18:-1 19:-1 20:-1 21:-1 22:-1 23:-1 24:-1 25:-1 26:1 27:-1 28:-1 29:-1 30:1 31:-1 32:-1 33:-1 
56 1:0.493009 2:0.799951 3:-0.736111 4:-0.508075 5:0.738149 6:-0.0770408 7:-0.949551 8:-0.0201289 9:0.80318 10:-0.650065 11:-0.228099 12:-1 13:-1 14:-1 15:-1 16:-1 17:-1 18:1 19:-1 20:-1 21:-1 22:-1 23:-1 24:-1 25:1 26:-1 27:-1 28:-1 29:-1 30:1 31:-1 32:-1 33:-1 
56 1:0.803564 2:0.778854 3:-0.99665 4:0.169728 5:-0.924685 6:-0.106269 7:-0.814028 8:-0.733883 9:0.121515 10:-0.406252 11:-0.228433 12:-1 13:-1 14:-1 15:-1 16:1 17:-1 18:-1 19:-1 20:-1 21:-1 22:-1 23:-1 24:-1 25:-1 26:-1 27:1 28:-1 29:-1 30:-1 31:1 32:-1 33:-1 
56 1:-0.265632 2:0.303426 3:0.54661 4:-0.1059 5:0.0689879 6:0.0598803 7:-0.746853 8:-0.279443 9:0.307585 10:-0.248818 11:-0.15101 12:-1 13:-1 14:-1 15:-1 16:-1 17:-1 18:1 19:-1 20:-1 21:-1 22:-1 23:-1 24:-1 25:-1 26:-1 27:1 28:-1 29:-1 30:-1 31:1 32:-1 33:-1 
56 1:-0.0986034 2:0.79628 3:-0.936454 4:-0.214494 5:-0.867506 6:-0.17435 7:-0.798512 8:-0.0912001 9:0.669744 10:-0.0216743 11:-0.29718 12:-1 13:-1 14:-1 15:-1 16:1 17:-1 18:-1 19:-1 20:-1 21:-1 22:-1 23:-1 24:-1 25:1 26:-1 27:-1 28:-1 29:-1 30:-1 31:1 32:-1 33:-1 
56 1:0.413967 2:0.818506 3:-0.933565 4:0.863029 5:-0.0390071 6:-0.139169 7:-0.726524 8:-0.203009 9:0.9825 10:-0.105432 11:0.21742 12:-1 13:-1 14:-1 15:-1 16:-1 17:-1 18:1 19:-1 20:-1 21:-1 22:-1 23:-1 24:-1 25:-1 26:-1 27:1 28:-1 29:-1 30:1 31:-1 32:-1 33:-1 
56 1:-0.832539 2:0.423855 3:-0.826459 4:-0.233982 5:-0.277047 6:0.00253005 7:-1 8:0.481852 9:0.85521 10:0.400184 11:-0.0649091 12:-1 13:-1 14:-1 15:-1 16:-1 17:1 18:-1 19:-1 20:-1 21:-1 22:-1 23:-1 24:-1 25:-1 26:-1 27:-1 28:-1 29:1 30:-1 31:1 32:-1 33:-1 
56 1:-0.615823 2:0.259107 3:0.576349 4:0.0840354 5:0.0794737 6:-0.104645 7:-0.733119 8:-0.178519 9:0.927377 10:-0.539243 11:0.199066 12:-1 13:-1 14:-1 15:-1 16:1 17:-1 18:-1 19:-1 20:-1 21:-1 22:-1 23:-1 24:-1 25:-1 26:-1 27:1 28:-1 29:-1 30:1 31:-1 32:-1 33:-1 
56 1:0.559796 2:0.816327 3:-0.838845 4:0.152975 5:0.487429 6:-0.0465792 7:-0.766965 8:-0.265917 9:0.934924 10:-0.633786 11:-0.496412 12:-1 13:-1 14:-1 15:-1 16:-1 17:1 18:-1 19:-1 20:-1 21:-1 22:-1 23:-1 24:-1 25:-1 26:-1 27:1 28:-1 29:-1 30:1 31:-1 32:-1 33:-1 
56 1:0.38409 2:0.59074 3:-0.84976 4:0.157484 5:0.671633 6:-0.158661 7:-0.824618 8:-0.0714314 9:0.950569 10:-0.36295 11:-0.229434 12:-1 13:-1 14:-1 15:-1 16:-1 17:-1 18:1 19:-1 20:-1 21:-1 22:-1 23:-1 24:-1 25:1 26:-1 27:-1 28:-1 29:-1 30:1 31:-1 32:-1 33:-1 
56 1:0.302432 2:0.727177 3:-0.394984 4:0.0790259 5:-0.05808 6:-0.221485 7:-0.184668 8:-0.691064 9:-0.103102 10:-0.352279 11:0.322877 12:-1 13:-1 14:-1 15:-1 16:-1 17:1 18:-1 19:-1 20:-1 21:-1 22:-1 23:-1 24:-1 25:1 26:-1 27:-1 28:-1 29:-1 30:-1 31:1 32:-1 33:-1 
56 1:0.144259 2:0.425756 3:-0.877091 4:-0.0332911 5:-0.979613 6:-0.220546 7:-0.712767 8:-0.0252511 9:0.937 10:-0.348123 11:-0.00150175 12:-1 13:-1 14:-1 15:-1 16:-1 17:1 18:-1 19:-1 20:-1 21:-1 22:-1 23:-1 24:-1 25:-1 26:-1 27:1 28:-1 29:-1 30:1 31:-1 32:-1 33:-1 
56 1:0.199898 2:0.744732 3:-0.678889 4:-0.0519263 5:-0.76811 6:-0.282425 7:-0.589651 8:-0.0471808 9:0.900392 10:-0.539745 11:-0.351577 12:-1 13:-1 14:-1 15:-1 16:-1 17:-1 18:1 19:-1 20:-1 21:-1 22:-1 23:-1 24:-1 25:1 26:-1 27:-1 28:-1 29:-1 30:1 31:-1 32:-1 33:-1 
56 1:0.262939 2:0.259838 3:-0.970327 4:-0.394035 5:-0.989887 6:0.755199 7:-0.948055 8:0.0260515 9:0.952797 10:-0.223242 11:0.0619056 12:-1 13:-1 14:-1 15:-1 16:-1 17:-1 18:-1 19:-0.333333 20:-1 21:-1 22:-1 23:-1 24:-1 25:-1 26:-1 27:1 28:-1 29:-1 30:1 31:-1 32:-1 33:-1 
56 1:0.521175 2:0.30335 3:-0.985741 4:0.0805971 5:0.0866023 6:-0.09377 7:-0.795266 8:-0.447997 9:0.977805 10:0.305893 11:-0.0475555 12:-1 13:-1 14:-1 15:-1 16:-1 17:-1 18:-1 19:-0.333333 20:-1 21:-1 22:-1 23:-1 24:-1 25:1 26:-1 27:-1 28:-1 29:-1 30:-1 31:1 32:-1 33:-1 
56 1:0.292089 2:0.592259 3:-0.998099 4:0.00613808 5:-0.298309 6:-0.139247 7:-0.805285 8:-0.517708 9:0.504425 10:-0.261758 11:-0.184716 12:-1 13:-1 14:-1 15:-1 16:-1 17:-1 18:1 19:-1 20:-1 21:-1 22:-1 23:-1 24:-1 25:-1 26:1 27:-1 28:-1 29:-1 30:-1 31:1 32:-1 33:-1 
56 1:-0.130784 2:0.786538 3:0.0100633 4:0.280253 5:-0.614209 6:-0.169967 7:-0.719289 8:-0.29633 9:0.910795 10:-0.659722 11:-0.253129 12:-1 13:-1 14:-1 15:-1 16:-1 17:-1 18:1 19:-1 20:-1 21:-1 22:-1 23:-1 24:-1 25:1 26:-1 27:-1 28:-1 29:-1 30:1 31:-1 32:-1 33:-1 
56 1:0.137192 2:0.44948 3:-0.58932 4:-0.0636522 5:-0.643683 6:-0.0814401 7:-0.888277 8:-0.0260515 9:0.972501 10:-0.455162 11:0.0876022 12:-1 13:-1 14:-1 15:-1 16:-1 17:1 18:-1 19:-1 20:-1 21:-1 22:-1 23:-1 24:-1 25:1 26:-1 27:-1 28:-1 29:-1 30:1 31:-1 32:-1 33:-1 
56 1:0.504727 2:0.629161 3:-0.889322 4:0.333399 5:-0.0301359 6:-0.277157 7:-0.441549 8:-0.43255 9:0.303169 10:-0.306003 11:-0.481729 12:-1 13:-1 14:-1 15:-1 16:-1 17:-1 18:-1 19:-0.333333 20:-1 21:-1 22:-1 23:-1 24:-1 25:-1 26:-1 27:1 28:-1 29:-1 30:-1 31:1 32:-1 33:-1 
56 1:0.10235 2:0.704677 3:-0.719302 4:-0.0469699 5:-1 6:-0.0924607 7:-0.508204 8:0.311217 9:0.696174 10:0.0637532 11:0.438678 12:-1 13:-1 14:-1 15:-1 16:1 17:-1 18:-1 19:-1 20:-1 21:-1 22:-1 23:-1 24:-1 25:-1 26:-1 27:1 28:-1 29:-1 30:-1 31:1 32:-1 33:-1 
56 1:0.18497 2:0.26808 3:-0.91628 4:0.30679 5:0.304957 6:-0.193715 7:-0.759962 8:-0.116251 9:0.976315 10:-0.224589 11:-0.125647 12:-1 13:-1 14:-1 15:-1 16:1 17:-1 18:-1 19:-1 20:-1 21:-1 22:-1 23:-1 24:-1 25:-1 26:1 27:-1 28:-1 29:-1 30:1 31:-1 32:-1 33:-1 
56 1:-0.190694 2:0.680482 3:-0.221594 4:0.204427 5:-0.932751 6:-0.167668 7:-1 8:0.218696 9:0.640633 10:-0.0217061 11:-0.314534 12:-1 13:-1 14:-1 15:-1 16:1 17:-1 18:-1 19:-1 20:-1 21:-1 22:-1 23:-1 24:-1 25:1 26:-1 27:-1 28:-1 29:-1 30:-1 31:1 32:-1 33:-1 
56 1:-0.579208 2:0.722658 3:0.100222 4:0.105543 5:-1 6:-0.139501 7:-0.813164 8:-0.105446 9:0.956896 10:-0.32965 11:0.56883 12:-1 13:-1 14:-1 15:-1 16:1 17:-1 18:-1 19:-1 20:-1 21:-1 22:-1 23:-1 24:-1 25:-1 26:1 27:-1 28:-1 29:-1 30:1 31:-1 32:-1 33:-1 
56 1:0.281254 2:0.786243 3:-0.641017 4:0.406266 5:-0.664261 6:-0.0393776 7:-0.901206 8:0.154988 9:0.991862 10:0.324621 11:0.473386 12:-1 13:-1 14:-1 15:-1 16:-1 17:-1 18:1 19:-1 20:-1 21:-1 22:-1 23:-1 24:-1 25:-1 26:1 27:-1 28:-1 29:-1 30:-1 31:1 32:-1 33:-1 
56 1:0.716762 2:0.629122 3:-0.995436 4:-0.231666 5:0.763012 6:0.183167 7:-0.929477 8:-0.117452 9:0.94547 10:-0.715322 11:-0.669281 12:-1 13:-1 14:-1 15:-1 16:1 17:-1 18:-1 19:-1 20:-1 21:-1 22:-1 23:-1 24:-1 25:-1 26:1 27:-1 28:-1 29:-1 30:1 31:-1 32:-1 33:-1 
56 1:0.215183 2:0.768943 3:-0.161202 4:-0.266536 5:0.0727132 6:-0.0360733 7:-1 8:-0.031814 9:0.891436 10:-0.596227 11:-0.863841 12:-1 13:-1 14:-1 15:-1 16:-1 17:1 18:-1 19:-1 20:-1 21:-1 22:-1 23:-1 24:-1 25:-1 26:-1 27:-1 28:1 29:-1 30:1 31:-1 32:-1 33:-1 
56 1:-0.193803 2:0.206038 3:-0.140103 4:-0.373161 5:-0.859341 6:-0.0842442 7:-1 8:-0.6817 9:0.0393107 10:-0.369634 11:0.0522276 12:-1 13:-1 14:-1 15:-1 16:-1 17:1 18:-1 19:-1 20:-1 21:-1 22:-1 23:-1 24:-1 25:1 26:-1 27:-1 28:-1 29:-1 30:-1 31:1 32:-1 33:-1 
56 1:-0.547048 2:0.542488 3:0.0214134 4:0.441037 5:-0.687131 6:-0.0802504 7:-0.905925 8:-0.152267 9:0.999027 10:-0.270175 11:0.150676 12:-1 13:-1 14:-1 15:-1 16:-1 17:-1 18:1 19:-1 20:-1 21:-1 22:-1 23:-1 24:-1 25:-1 26:-1 27:1 28:-1 29:-1 30:1 31:-1 32:-1 33:-1 
56 1:0.419267 2:0.257042 3:-0.969956 4:-0.519819 5:-0.974034 6:-0.0252578 7:-0.651021 8:0.0360559 9:0.950064 10:-0.642354 11:-0.336559 12:-1 13:-1 14:-1 15:-1 16:-1 17:-1 18:1 19:-1 20:-1 21:-1 22:-1 23:-1 24:-1 25:-1 26:-1 27:-1 28:-0.333333 29:-1 30:1 31:-1 32:-1 33:-1 
56 1:0.0618621 2:0.285761 3:-0.472136 4:-0.452746 5:-0.107232 6:0.234674 7:-0.696896 8:0.156189 9:0.441746 10:-0.186471 11:-0.112965 12:-1 13:-1 14:-1 15:-1 16:-1 17:-1 18:-1 19:-1 20:1 21:-1 22:-1 23:-1 24:-1 25:-1 26:1 27:-1 28:-1 29:-1 30:-1 31:1 32:-1 33:-1 
56 1:-0.439616 2:0.739066 3:0.866136 4:-0.318792 5:0.155411 6:0.0311073 7:-0.9583 8:-0.894674 9:0.325853 10:-0.302897 11:0.028867 12:-1 13:-1 14:-1 15:-1 16:-1 17:-1 18:-1 19:-1 20:1 21:-1 22:-1 23:-1 24:-1 25:-1 26:-1 27:1 28:-1 29:-1 30:-1 31:1 32:-1 33:-1 
56 1:0.231139 2:0.568469 3:-0.928936 4:-0.287979 5:-0.236282 6:0.0248383 7:-0.926814 8:-0.367001 9:0.743407 10:0.0751234 11:-0.0208577 12:-1 13:-1 14:-1 15:-1 16:1 17:-1 18:-1 19:-1 20:-1 21:-1 22:-1 23:-1 24:-1 25:1 26:-1 27:-1 28:-1 29:-1 30:-1 31:1 32:-1 33:-1 
56 1:0.330822 2:0.459715 3:-0.884515 4:-0.347257 5:0.289137 6:-0.53748 7:-0.274588 8:-0.0462203 9:0.989635 10:-0.226497 11:0.113966 12:-1 13:-1 14:-1 15:-1 16:-1 17:1 18:-1 19:-1 20:-1 21:-1 22:-1 23:-1 24:-1 25:1 26:-1 27:-1 28:-1 29:-1 30:1 31:-1 32:-1 33:-1 
56 1:-0.0335607 2:0.837912 3:-0.605861 4:-0.0763392 5:0.809705 6:-0.0511765 7:-0.871451 8:0.254312 9:0.884092 10:-0.486877 11:0.0712498 12:-1 13:-1 14:-1 15:-1 16:1 17:-1 18:-1 19:-1 20:-1 21:-1 22:-1 23:-1 24:-1 25:1 26:-1 27:-1 28:-1 29:-1 30:1 31:-1 32:-1 33:-1 
56 1:-0.302677 2:0.554643 3:0.341055 4:0.727987 5:-0.673768 6:-0.131332 7:-0.891995 8:-0.0647885 9:0.995426 10:-0.44728 11:-0.542466 12:-1 13:-1 14:-1 15:-1 16:-1 17:-1 18:1 19:-1 20:-1 21:-1 22:-1 23:-1 24:-1 25:-1 26:-1 27:1 28:-1 29:-1 30:1 31:-1 32:-1 33:-1 
56 1:0.490627 2:0.398485 3:-0.95624 4:-0.448142 5:-0.141148 6:-0.00971059 7:-1 8:-0.0735123 9:0.927058 10:-0.424852 11:-0.37694 12:-1 13:-1 14:-1 15:-1 16:-1 17:1 18:-1 19:-1 20:-1 21:-1 22:-1 23:-1 24:-1 25:1 26:-1 27:-1 28:-1 29:-1 30:1 31:-1 32:-1 33:-1 
56 1:0.0635394 2:0.872889 3:-0.311941 4:0.302372 5:-0.81399 6:-0.192159 7:-0.636433 8:0.438553 9:0.0694168 10:-0.350408 11:-0.329885 12:-1 13:-1 14:-1 15:-1 16:1 17:-1 18:-1 19:-1 20:-1 21:-1 22:-1 23:-1 24:-1 25:-1 26:-1 27:1 28:-1 29:-1 30:-1 31:1 32:-1 33:-1 
56 1:-0.386068 2:0.717669 3:0.514811 4:-0.0815773 5:0.377877 6:-0.459422 7:-0.503261 8:-0.339229 9:0.242348 10:-0.306014 11:0.53112 12:-1 13:-1 14:-1 15:-1 16:-1 17:-1 18:1 19:-1 20:-1 21:-1 22:-1 23:-1 24:-1 25:-1 26:1 27:-1 28:-1 29:-1 30:-1 31:1 32:-1 33:-1 
56 1:0.126077 2:0.638638 3:-0.744124 4:0.448832 5:-0.757162 6:0.370894 7:-0.881653 8:0.194366 9:-0.195239 10:-0.519954 11:-0.241448 12:-1 13:-1 14:-1 15:-1 16:-1 17:-1 18:-1 19:-0.333333 20:-1 21:-1 22:-1 23:-1 24:-1 25:-1 26:1 27:-1 28:-1 29:-1 30:-1 31:1 32:-1 33:-1 
56 1:-0.336087 2:0.370864 3:-0.639835 4:-0.311862 5:-0.348501 6:-0.202328 7:-0.501084 8:-0.0395774 9:0.919114 10:-0.572973 11:0.612882 12:-1 13:-1 14:-1 15:-1 16:-1 17:1 18:-1 19:-1 20:-1 21:-1 22:-1 23:-1 24:-1 25:-1 26:1 27:-1 28:-1 29:-1 30:1 31:-1 32:-1 33:-1 
56 1:0.0428536 2:0.664405 3:-0.820812 4:-0.157398 5:0.780245 6:0.707724 7:-0.910068 8:-0.309856 9:0.84439 10:0.250585 11:0.0412148 12:-1 13:-1 14:-1 15:-1 16:-1 17:-1 18:-1 19:-0.333333 20:-1 21:-1 22:-1 23:-1 24:-1 25:1 26:-1 27:-1 28:-1 29:-1 30:-1 31:1 32:-1 33:-1 
56 1:0.151649 2:0.653882 3:-0.0890905 4:-0.438253 5:0.211113 6:-0.0423786 7:-1 8:-0.0881588 9:0.682247 10:-0.735101 11:-0.299516 12:-1 13:-1 14:-1 15:-1 16:-1 17:-1 18:1 19:-1 20:-1 21:-1 22:-1 23:-1 24:-1 25:-1 26:-1 27:1 28:-1 29:-1 30:1 31:-1 32:-1 33:-1 
56 1:0.0427977 2:0.550041 3:-0.898988 4:-0.0654357 5:-0.997551 6:0.237824 7:-0.821242 8:-1 9:0.778305 10:0.0657251 11:0.00917737 12:-1 13:-1 14:-1 15:-1 16:1 17:-1 18:-1 19:-1 20:-1 21:-1 22:-1 23:-1 24:-1 25:-1 26:-1 27:-1 28:-1 29:1 30:-1 31:1 32:-1 33:-1 
56 1:0.212041 2:0.319412 3:-0.770009 4:0.353998 5:-0.907687 6:-0.0163396 7:-1 8:-0.0350954 9:0.89893 10:-0.0195328 11:-0.362256 12:-1 13:-1 14:-1 15:-1 16:1 17:-1 18:-1 19:-1 20:-1 21:-1 22:-1 23:-1 24:-1 25:-1 26:1 27:-1 28:-1 29:-1 30:-1 31:1 32:-1 33:-1 
56 1:0.252249 2:0.610144 3:-0.532111 4:0.0102702 5:-0.759845 6:0.19499 7:-1 8:0.252471 9:0.172233 10:-0.2396 11:-0.641916 12:-1 13:-1 14:-1 15:-1 16:1 17:-1 18:-1 19:-1 20:-1 21:-1 22:-1 23:-1 24:-1 25:-1 26:1 27:-1 28:-1 29:-1 30:-1 31:1 32:-1 33:-1 
56 1:0.504481 2:0.658538 3:-0.8739 4:0.0224725 5:-0.763211 6:-0.119333 7:-0.695859 8:-0.0175677 9:0.724527 10:-0.713069 11:-0.175371 12:-1 13:-1 14:-1 15:-1 16:-1 17:1 18:-1 19:-1 20:-1 21:-1 22:-1 23:-1 24:-1 25:-1 26:1 27:-1 28:-1 29:-1 30:1 31:-1 32:-1 33:-1 
56 1:-0.199069 2:0.230931 3:-0.746352 4:-0.0756475 5:-0.450876 6:0.261628 7:-0.881515 8:-0.0263716 9:0.858896 10:0.237534 11:-0.613883 12:-1 13:-1 14:-1 15:-1 16:-1 17:-1 18:-1 19:-0.333333 20:-1 21:-1 22:-1 23:-1 24:-1 25:1 26:-1 27:-1 28:-1 29:-1 30:-1 31:1 32:-1 33:-1 
56 1:0.334444 2:0.537413 3:-0.907037 4:0.138232 5:-1 6:-0.0951417 7:-0.692192 8:-0.247989 9:0.961589 10:0.43994 11:-0.223094 12:-1 13:-1 14:-1 15:-1 16:-1 17:-1 18:-1 19:-0.333333 20:-1 21:-1 22:-1 23:-1 24:-1 25:-1 26:-1 27:1 28:-1 29:-1 30:-1 31:1 32:-1 33:-1 
56 1:-0.157407 2:0.747101 3:-0.955214 4:-0.384277 5:-0.925887 6:-0.0830329 7:-1 8:-0.93261 9:0.756742 10:0.0462235 11:-0.259803 12:-1 13:-1 14:-1 15:-1 16:1 17:-1 18:-1 19:-1 20:-1 21:-1 22:-1 23:-1 24:-1 25:-1 26:-1 27:1 28:-1 29:-1 30:-1 31:1 32:-1 33:-1 
56 1:0.482722 2:0.486285 3:-0.927657 4:-0.418484 5:-0.868897 6:0.144193 7:-0.870436 8:0.838889 9:0.221388 10:-0.228649 11:-0.2855 12:-1 13:-1 14:-1 15:-1 16:-1 17:1 18:-1 19:-1 20:-1 21:-1 22:-1 23:-1 24:-1 25:-1 26:1 27:-1 28:-1 29:-1 30:-1 31:1 32:-1 33:-1 
56 1:-0.804304 2:0.518956 3:0.950503 4:0.151465 5:-0.824852 6:-0.0746656 7:-0.959327 8:0.375245 9:0.937879 10:-0.289809 11:-0.4003 12:-1 13:-1 14:-1 15:-1 16:-1 17:-1 18:1 19:-1 20:-1 21:-1 22:-1 23:-1 24:-1 25:-1 26:1 27:-1 28:-1 29:-1 30:1 31:-1 32:-1 33:-1 
56 1:-0.163367 2:0.263366 3:0.0314801 4:-0.325374 5:0.797819 6:0.186212 7:-0.909001 8:0.539798 9:-0.127889 10:-0.316011 11:-0.804105 12:-1 13:-1 14:-1 15:-1 16:-1 17:-1 18:1 19:-1 20:-1 21:-1 22:-1 23:-1 24:-1 25:-1 26:1 27:-1 28:-1 29:-1 30:-1 31:1 32:-1 33:-1 
56 1:0.459431 2:0.312721 3:-0.953467 4:-0.123331 5:-0.651894 6:-0.202135 7:-0.588865 8:-0.694105 9:-0.0354085 10:-0.463591 11:-0.050559 12:-1 13:-1 14:-1 15:-1 16:-1 17:1 18:-1 19:-1 20:-1 21:-1 22:-1 23:-1 24:-1 25:-1 26:-1 27:1 28:-1 29:-1 30:-1 31:1 32:-1 33:-1 
56 1:0.293028 2:0.242549 3:-0.910557 4:-0.47651 5:0.528106 6:0.12854 7:-1 8:-0.63744 9:0.704289 10:-0.0325674 11:-0.219756 12:-1 13:-1 14:-1 15:-1 16:1 17:-1 18:-1 19:-1 20:-1 21:-1 22:-1 23:-1 24:-1 25:-1 26:-1 27:-1 28:-1 29:1 30:-1 31:1 32:-1 33:-1 
56 1:0.368302 2:0.821309 3:-0.598275 4:0.373159 5:-0.740368 6:-0.0562197 7:-0.745419 8:-0.395734 9:0.604986 10:-0.119506 11:-0.391624 12:-1 13:-1 14:-1 15:-1 16:1 17:-1 18:-1 19:-1 20:-1 21:-1 22:-1 23:-1 24:-1 25:1 26:-1 27:-1 28:-1 29:-1 30:-1 31:1 32:-1 33:-1 
56 1:0.198813 2:0.823524 3:-0.857028 4:-0.205885 5:0.931071 6:-0.0397603 7:-0.850787 8:0.111369 9:0.996154 10:0.0532417 11:0.0342066 12:-1 13:-1 14:-1 15:-1 16:-1 17:1 18:-1 19:-1 20:-1 21:-1 22:-1 23:-1 24:-1 25:-1 26:-1 27:1 28:-1 29:-1 30:1 31:-1 32:-1 33:-1 
56 1:0.375615 2:0.476407 3:-0.905762 4:-0.231074 5:0.99459 6:0.128976 7:-1 8:-0.13554 9:0.987505 10:-0.226407 11:-0.177707 12:-1 13:-1 14:-1 15:-1 16:-1 17:-1 18:-1 19:0.333333 20:-1 21:-1 22:-1 23:-1 24:-1 25:-1 26:-1 27:1 28:-1 29:-1 30:1 31:-1 32:-1 33:-1 
56 1:0.165134 2:0.323268 3:-0.961358 4:0.000240936 5:-0.633722 6:0.0735578 7:-0.890854 8:0.213734 9:0.837472 10:0.30892 11:-0.914567 12:-1 13:-1 14:-1 15:-1 16:-1 17:-1 18:1 19:-1 20:-1 21:-1 22:-1 23:-1 24:-1 25:-1 26:1 27:-1 28:-1 29:-1 30:-1 31:1 32:-1 33:-1 
56 1:0.214925 2:0.528233 3:-0.993384 4:0.288007 5:-0.480977 6:-0.121074 7:-0.687639 8:-0.206051 9:0.77674 10:0.158807 11:-0.229101 12:-1 13:-1 14:-1 15:-1 16:-1 17:1 18:-1 19:-1 20:-1 21:-1 22:-1 23:-1 24:-1 25:1 26:-1 27:-1 28:-1 29:-1 30:-1 31:1 32:-1 33:-1 
56 1:0.633124 2:0.522384 3:-0.987388 4:0.0702108 5:-0.342147 6:-0.113178 7:-1 8:0.389571 9:0.558606 10:-0.089323 11:-0.0552311 12:-1 13:-1 14:-1 15:-1 16:-1 17:1 18:-1 19:-1 20:-1 21:-1 22:-1 23:-1 24:-1 25:1 26:-1 27:-1 28:-1 29:-1 30:-1 31:1 32:-1 33:-1 
56 1:0.438455 2:0.368027 3:-0.968803 4:0.373118 5:-0.757991 6:-0.162109 7:-0.86749 8:0.97783 9:0.30922 10:-0.265532 11:-0.38328 12:-1 13:-1 14:-1 15:-1 16:1 17:-1 18:-1 19:-1 20:-1 21:-1 22:-1 23:-1 24:-1 25:-1 26:1 27:-1 28:-1 29:-1 30:-1 31:1 32:-1 33:-1 
56 1:-0.906291 2:0.209778 3:0.323936 4:-0.51497 5:-0.944081 6:-0.0340674 7:-0.862981 8:-0.435992 9:0.566328 10:-0.138604 11:-0.738028 12:-1 13:-1 14:-1 15:-1 16:-1 17:-1 18:1 19:-1 20:-1 21:-1 22:-1 23:-1 24:-1 25:1 26:-1 27:-1 28:-1 29:-1 30:-1 31:1 32:-1 33:-1 
56 1:0.0639419 2:0.657943 3:-0.782117 4:0.221067 5:-0.331275 6:0.296241 7:-0.778046 8:-0.002281 9:0.960548 10:-0.220719 11:0.0735859 12:-1 13:-1 14:-1 15:-1 16:-1 17:-1 18:-1 19:0.333333 20:-1 21:-1 22:-1 23:-1 24:-1 25:1 26:-1 27:-1 28:-1 29:-1 30:1 31:-1 32:-1 33:-1 
56 1:0.125284 2:0.272084 3:-0.69707 4:-0.400073 5:0.581495 6:-0.336663 7:-0.502009 8:0.241906 9:-0.517877 10:-0.51257 11:-0.0886034 12:-1 13:-1 14:-1 15:-1 16:-1 17:1 18:-1 19:-1 20:-1 21:-1 22:-1 23:-1 24:-1 25:-1 26:1 27:-1 28:-1 29:-1 30:-1 31:1 32:-1 33:-1 
56 1:0.638704 2:0.72915 3:-0.997569 4:-0.321111 5:-0.702303 6:-0.0414805 7:-0.912533 8:0.996478 9:0.460131 10:-0.189179 11:0.000166861 12:-1 13:-1 14:-1 15:-1 16:1 17:-1 18:-1 19:-1 20:-1 21:-1 22:-1 23:-1 24:-1 25:-1 26:1 27:-1 28:-1 29:-1 30:-1 31:1 32:-1 33:-1 
56 1:0.286174 2:0.697007 3:-0.533723 4:0.144088 5:0.326231 6:0.278927 7:-1 8:-0.904678 9:0.622767 10:-0.176961 11:-0.816119 12:-1 13:-1 14:-1 15:-1 16:-1 17:-1 18:-1 19:1 20:-1 21:-1 22:-1 23:-1 24:-1 25:-1 26:1 27:-1 28:-1 29:-1 30:-1 31:1 32:-1 33:-1 
56 1:0.232581 2:0.70865 3:-0.877459 4:-0.0946163 5:-0.102532 6:0.0800033 7:-0.900798 8:-0.237505 9:0.974702 10:-0.523338 11:-0.00584015 12:-1 13:-1 14:-1 15:-1 16:1 17:-1 18:-1 19:-1 20:-1 21:-1 22:-1 23:-1 24:-1 25:-1 26:1 27:-1 28:-1 29:-1 30:1 31:-1 32:-1 33:-1 
56 1:0.518592 2:0.81531 3:-0.839367 4:0.155566 5:-0.545266 6:0.117367 7:-0.818024 8:-0.059026 9:0.940372 10:-0.358036 11:0.455698 12:-1 13:-1 14:-1 15:-1 16:-1 17:1 18:-1 19:-1 20:-1 21:-1 22:-1 23:-1 24:-1 25:-1 26:1 27:-1 28:-1 29:-1 30:1 31:-1 32:-1 33:-1 
56 1:0.371321 2:0.307339 3:-0.932449 4:-0.179247 5:-0.409969 6:0.0394238 7:-1 8:-0.0114851 9:0.940556 10:-0.358418 11:0.0715835 12:-1 13:-1 14:-1 15:-1 16:1 17:-1 18:-1 19:-1 20:-1 21:-1 22:-1 23:-1 24:-1 25:-1 26:1 27:-1 28:-1 29:-1 30:1 31:-1 32:-1 33:-1 
56 1:0.388429 2:0.413631 3:-0.89158 4:-0.0588458 5:0.689478 6:0.155431 7:-1 8:0.0481412 9:0.882815 10:-0.532914 11:0.0989488 12:-1 13:-1 14:-1 15:-1 16:-1 17:1 18:-1 19:-1 20:-1 21:-1 22:-1 23:-1 24:-1 25:-1 26:1 27:-1 28:-1 29:-1 30:1 31:-1 32:-1 33:-1 
56 1:0.190382 2:0.462522 3:-0.900283 4:-0.0788093 5:0.939516 6:0.521313 7:-1 8:0.0231702 9:0.988809 10:-0.0961769 11:-0.601535 12:-1 13:-1 14:-1 15:-1 16:-1 17:-1 18:-1 19:0.333333 20:-1 21:-1 22:-1 23:-1 24:-1 25:1 26:-1 27:-1 28:-1 29:-1 30:1 31:-1 32:-1 33:-1 
56 1:0.599401 2:0.700699 3:-0.926278 4:0.272989 5:-0.121603 6:-0.0860088 7:-0.354527 8:-0.0721517 9:0.99382 10:-0.188124 11:-0.470382 12:-1 13:-1 14:-1 15:-1 16:-1 17:-1 18:1 19:-1 20:-1 21:-1 22:-1 23:-1 24:-1 25:1 26:-1 27:-1 28:-1 29:-1 30:1 31:-1 32:-1 33:-1 
56 1:-0.511413 2:0.858582 3:0.305751 4:-0.537084 5:0.442611 6:0.0368359 7:-0.90284 8:-0.581976 9:0.989825 10:0.355005 11:0.0171867 12:-1 13:-1 14:-1 15:-1 16:-1 17:-1 18:1 19:-1 20:-1 21:-1 22:-1 23:-1 24:-1 25:1 26:-1 27:-1 28:-1 29:-1 30:-1 31:1 32:-1 33:-1 
56 1:0.574656 2:0.422591 3:-0.98832 4:0.00920908 5:0.534258 6:0.0534197 7:-0.895026 8:-0.00156069 9:0.945204 10:-0.35741 11:0.0051727 12:-1 13:-1 14:-1 15:-1 16:1 17:-1 18:-1 19:-1 20:-1 21:-1 22:-1 23:-1 24:-1 25:-1 26:1 27:-1 28:-1 29:-1 30:1 31:-1 32:-1 33:-1 
56 1:-0.314484 2:0.527996 3:-0.632066 4:-0.403816 5:-0.322473 6:0.0586504 7:-1 8:0.299212 9:0.871674 10:0.317173 11:-0.130986 12:-1 13:-1 14:-1 15:-1 16:-1 17:-1 18:1 19:-1 20:-1 21:-1 22:-1 23:-1 24:-1 25:-1 26:-1 27:-1 28:-1 29:1 30:-1 31:1 32:-1 33:-1 
56 1:-0.789098 2:0.523939 3:-0.560055 4:-0.50108 5:-0.094205 6:0.110818 7:-0.865281 8:-0.244227 9:0.741522 10:0.0860748 11:-0.382279 12:-1 13:-1 14:-1 15:-1 16:1 17:-1 18:-1 19:-1 20:-1 21:-1 22:-1 23:-1 24:-1 25:-1 26:-1 27:1 28:-1 29:-1 30:-1 31:1 32:-1 33:-1 
56 1:-0.289885 2:0.315347 3:-0.332827 4:-0.0690392 5:-0.768841 6:0.0259409 7:-0.879735 8:-0.274881 9:0.44751 10:-0.202108 11:-0.527782 12:-1 13:-1 14:-1 15:-1 16:-1 17:-1 18:1 19:-1 20:-1 21:-1 22:-1 23:-1 24:-1 25:-1 26:1 27:-1 28:-1 29:-1 30:-1 31:1 32:-1 33:-1 
56 1:0.301593 2:0.462091 3:-0.954243 4:0.324349 5:0.400011 6:-0.149059 7:-0.455521 8:0.0104446 9:-0.154035 10:-0.898722 11:-0.457033 12:-1 13:-1 14:-1 15:-1 16:-1 17:1 18:-1 19:-1 20:-1 21:-1 22:-1 23:-1 24:-1 25:-1 26:-1 27:1 28:-1 29:-1 30:1 31:-1 32:-1 33:-1 
56 1:-0.804427 2:0.324264 3:0.452795 4:-0.329604 5:-1 6:-0.387524 7:-0.583248 8:0.0823162 9:0.925817 10:-0.384105 11:0.0135158 12:-1 13:-1 14:-1 15:-1 16:1 17:-1 18:-1 19:-1 20:-1 21:-1 22:-1 23:-1 24:-1 25:-1 26:-1 27:1 28:-1 29:-1 30:1 31:-1 32:-1 33:-1 
56 1:0.266662 2:0.748081 3:-0.172644 4:-0.343464 5:-0.884878 6:-0.0822505 7:-0.956707 8:0.029573 9:-0.193921 10:-0.883255 11:-0.204071 12:-1 13:-1 14:-1 15:-1 16:-1 17:1 18:-1 19:-1 20:-1 21:-1 22:-1 23:-1 24:-1 25:1 26:-1 27:-1 28:-1 29:-1 30:1 31:-1 32:-1 33:-1 
56 1:0.351955 2:0.751765 3:-0.792004 4:-0.432136 5:0.39688 6:0.23523 7:-0.905082 8:0.18268 9:0.99436 10:-0.138514 11:-0.0585683 12:-1 13:-1 14:-1 15:-1 16:-1 17:-1 18:1 19:-1 20:-1 21:-1 22:-1 23:-1 24:-1 25:1 26:-1 27:-1 28:-1 29:-1 30:1 31:-1 32:-1 33:-1 
56 1:-0.720889 2:0.566328 3:0.192857 4:-0.0517845 5:-0.685188 6:-0.0558924 7:-0.530616 8:-0.0322942 9:0.908299 10:-0.629073 11:-0.175371 12:-1 13:-1 14:-1 15:-1 16:-1 17:1 18:-1 19:-1 20:-1 21:-1 22:-1 23:-1 24:-1 25:-1 26:-1 27:1 28:-1 29:-1 30:1 31:-1 32:-1 33:-1 
56 1:-0.248961 2:0.509301 3:0.471835 4:-0.102621 5:-0.00688348 6:-0.145035 7:-0.568212 8:-0.0507823 9:-0.0867007 10:-0.360294 11:-0.179042 12:-1 13:-1 14:-1 15:-1 16:1 17:-1 18:-1 19:-1 20:-1 21:-1 22:-1 23:-1 24:-1 25:-1 26:-1 27:1 28:-1 29:-1 30:-1 31:1 32:-1 33:-1 
56 1:-0.125081 2:0.595198 3:-0.554541 4:-0.192947 5:-0.822685 6:-0.0203257 7:-0.857 8:0.319941 9:0.829444 10:0.216935 11:-0.164025 12:-1 13:-1 14:-1 15:-1 16:-1 17:-1 18:1 19:-1 20:-1 21:-1 22:-1 23:-1 24:-1 25:1 26:-1 27:-1 28:-1 29:-1 30:-1 31:1 32:-1 33:-1 
56 1:-0.467447 2:0.578542 3:0.371805 4:-0.225553 5:0.205063 6:0.376873 7:-1 8:-0.0639882 9:0.979247 10:-0.379706 11:-0.255798 12:-1 13:-1 14:-1 15:-1 16:-1 17:1 18:-1 19:-1 20:-1 21:-1 22:-1 23:-1 24:-1 25:1 26:-1 27:-1 28:-1 29:-1 30:1 31:-1 32:-1 33:-1 
56 1:0.164754 2:0.774011 3:-0.599428 4:0.0416127 5:-0.261329 6:0.0354084 7:-0.514248 8:-0.043179 9:0.94238 10:0.294899 11:-0.135992 12:-1 13:-1 14:-1 15:-1 16:-1 17:-1 18:-1 19:0.333333 20:-1 21:-1 22:-1 23:-1 24:-1 25:1 26:-1 27:-1 28:-1 29:-1 30:-1 31:1 32:-1 33:-1 
56 1:0.428548 2:0.503003 3:-0.89895 4:-0.393642 5:-0.978797 6:0.123916 7:-0.920673 8:-0.0202089 9:0.908532 10:0.226339 11:0.0175204 12:-1 13:-1 14:-1 15:-1 16:-1 17:-1 18:-1 19:-0.333333 20:-1 21:-1 22:-1 23:-1 24:-1 25:1 26:-1 27:-1 28:-1 29:-1 30:-1 31:1 32:-1 33:-1 
56 1:-0.1458 2:0.626921 3:-0.646242 4:0.599872 5:0.980683 6:-0.0512636 7:-1 8:0.349474 9:0.999749 10:0.579706 11:-0.423995 12:-1 13:-1 14:-1 15:-1 16:-1 17:1 18:-1 19:-1 20:-1 21:-1 22:-1 23:-1 24:-1 25:1 26:-1 27:-1 28:-1 29:-1 30:-1 31:1 32:-1 33:-1 
56 1:0.381552 2:0.725422 3:-0.627602 4:-0.453606 5:0.912514 6:-0.0985 7:-0.949664 8:-0.02269 9:0.849763 10:-0.647013 11:-0.00884365 12:-1 13:-1 14:-1 15:-1 16:-1 17:1 18:-1 19:-1 20:-1 21:-1 22:-1 23:-1 24:-1 25:1 26:-1 27:-1 28:-1 29:-1 30:1 31:-1 32:-1 33:-1 
56 1:0.453639 2:0.525201 3:-0.919084 4:-0.533461 5:0.491711 6:0.529218 7:-0.85099 8:-0.125135 9:0.972409 10:-0.241334 11:-0.702987 12:-1 13:-1 14:-1 15:-1 16:-1 17:-1 18:-1 19:1 20:-1 21:-1 22:-1 23:-1 24:-1 25:-1 26:1 27:-1 28:-1 29:-1 30:1 31:-1 32:-1 33:-1 
-2 1:-0.994548 2:0.373061 3:0.0468083 4:0.429834 5:-0.815094 6:-0.06806 7:-0.564172 8:0.289447 9:0.958209 10:-0.61546 11:-0.702653 12:-1 13:-1 14:-1 15:-1 16:-1 17:1 18:-1 19:-1 20:-1 21:1 22:-1 23:-1 24:-1 25:-1 26:-1 27:-1 28:-1 29:-1 30:-1 31:-1 32:1 33:-1 
-2 1:-0.0462628 2:0.665456 3:-0.65977 4:-0.434787 5:-0.410557 6:0.189263 7:-0.564172 8:0.289447 9:0.958209 10:-0.61546 11:-0.702653 12:-1 13:-1 14:-1 15:-1 16:-1 17:1 18:-1 19:-1 20:-1 21:1 22:-1 23:-1 24:-1 25:-1 26:-1 27:-1 28:-1 29:-1 30:-1 31:-1 32:1 33:-1 
-2 1:0.196331 2:0.410044 3:-0.789043 4:-0.716921 5:-0.199691 6:-0.0224853 7:-0.568078 8:0.261275 9:0.912171 10:-0.487259 11:-0.144669 12:-1 13:-1 14:-1 15:-1 16:-1 17:-1 18:1 19:-1 20:-1 21:1 22:-1 23:-1 24:-1 25:-1 26:-1 27:-1 28:-1 29:-1 30:-1 31:-1 32:1 33:-1 
-2 1:-0.593297 2:0.137453 3:0.468817 4:-0.459085 5:-0.670325 6:-0.0786459 7:0.412145 8:0.300812 9:0.773666 10:-0.735192 11:-0.582513 12:-1 13:-1 14:-1 15:-1 16:-1 17:1 18:-1 19:-1 20:-1 21:1 22:-1 23:-1 24:-1 25:-1 26:-1 27:-1 28:-1 29:-1 30:-1 31:-1 32:1 33:-1 
-2 1:-0.593297 2:0.137453 3:0.468817 4:-0.752272 5:-0.427177 6:-0.0898249 7:0.412145 8:0.300812 9:0.773666 10:-0.735192 11:-0.066244 12:-1 13:-1 14:-1 15:-1 16:-1 17:1 18:-1 19:-1 20:-1 21:1 22:-1 23:-1 24:-1 25:-1 26:-1 27:-1 28:-1 29:-1 30:-1 31:-1 32:1 33:-1 
-2 1:0.147837 2:0.723439 3:-0.910268 4:-0.402788 5:-0.263186 6:-0.187372 7:-0.452641 8:0.165473 9:0.991941 10:-0.0237946 11:-0.987652 12:-1 13:-1 14:-1 15:-1 16:-1 17:-1 18:1 19:-1 20:-1 21:1 22:-1 23:-1 24:-1 25:-1 26:-1 27:-1 28:-1 29:-1 30:-1 31:-1 32:1 33:-1 
-2 1:0.207344 2:0.420426 3:-0.628232 4:-0.983146 5:0.131154 6:0.278655 7:-1 8:0.217736 9:0.873982 10:-0.61756 11:-0.182379 12:-1 13:-1 14:-1 15:-1 16:-1 17:1 18:-1 19:-1 20:-1 21:1 22:-1 23:-1 24:-1 25:-1 26:-1 27:-1 28:-1 29:-1 30:-1 31:-1 32:1 33:-1 
-2 1:-0.291003 2:0.437564 3:-0.422687 4:-0.867443 5:-0.880583 6:-0.252014 7:-0.288837 8:0.218776 9:0.994084 10:-0.266057 11:0.129985 12:-1 13:-1 14:-1 15:-1 16:-1 17:-1 18:1 19:-1 20:-1 21:1 22:-1 23:-1 24:-1 25:-1 26:-1 27:-1 28:-1 29:-1 30:-1 31:-1 32:1 33:-1 
-2 1:-0.291003 2:0.425343 3:-0.314622 4:-0.768957 5:-0.609949 6:-0.241283 7:-0.288837 8:0.34091 9:0.988015 10:-0.266057 11:0.129985 12:-1 13:-1 14:-1 15:-1 16:-1 17:-1 18:1 19:-1 20:-1 21:1 22:-1 23:-1 24:-1 25:-1 26:-1 27:-1 28:-1 29:-1 30:-1 31:-1 32:1 33:-1 
-2 1:-0.277362 2:0.612344 3:-0.632408 4:-0.331203 5:-0.756302 6:-0.184368 7:0.338492 8:0.406539 9:0.923092 10:-0.51892 11:0.180377 12:-1 13:-1 14:-1 15:-1 16:1 17:-1 18:-1 19:-1 20:-1 21:1 22:-1 23:-1 24:-1 25:-1 26:-1 27:-1 28:-1 29:-1 30:-1 31:-1 32:1 33:-1 
-2 1:0.0268417 2:0.344628 3:-0.587829 4:-0.0787624 5:0.348615 6:-0.0687121 7:-0.726572 8:0.330906 9:0.947178 10:-0.434124 11:0.246454 12:-1 13:-1 14:-1 15:-1 16:-1 17:1 18:-1 19:-1 20:-1 21:-1 22:1 23:-1 24:-1 25:-1 26:-1 27:-1 28:-1 29:-1 30:-1 31:-1 32:1 33:-1 
-2 1:-0.440779 2:0.473973 3:0.596861 4:-0.342023 5:0.654633 6:0.123094 7:-1 8:0.577654 9:0.758366 10:0.0357173 11:-0.521775 12:-1 13:-1 14:-1 15:-1 16:-1 17:1 18:-1 19:-1 20:-1 21:-1 22:-1 23:-1 24:-1 25:-1 26:-1 27:1 28:-1 29:-1 30:-1 31:1 32:-1 33:-1 
-2 1:-0.728127 2:0.577225 3:-0.978038 4:-0.000575277 5:0.739704 6:-0.0272071 7:-0.372699 8:0.202289 9:0.968416 10:-0.34833 11:0.155682 12:-1 13:-1 14:-1 15:-1 16:-1 17:-1 18:1 19:-1 20:-1 21:1 22:-1 23:-1 24:-1 25:-1 26:-1 27:-1 28:-1 29:-1 30:-1 31:-1 32:1 33:-1 
-2 1:-0.0587637 2:0.550678 3:-0.206302 4:0.269204 5:0.315427 6:-0.0564995 7:-0.92791 8:0.259674 9:0.880047 10:-0.567839 11:-0.57417 12:-1 13:-1 14:-1 15:-1 16:-1 17:1 18:-1 19:-1 20:-1 21:1 22:-1 23:-1 24:-1 25:-1 26:-1 27:-1 28:-1 29:-1 30:-1 31:-1 32:1 33:-1 
-2 1:-0.391234 2:0.783013 3:-0.595875 4:-0.39372 5:-0.282261 6:-0.21273 7:-0.167566 8:0.258714 9:0.956049 10:-0.465138 11:-0.106291 12:-1 13:-1 14:-1 15:-1 16:-1 17:-1 18:1 19:-1 20:-1 21:1 22:-1 23:-1 24:-1 25:-1 26:-1 27:-1 28:-1 29:-1 30:-1 31:-1 32:1 33:-1 
-2 1:-0.59305 2:0.78773 3:-0.823243 4:0.012831 5:0.0961457 6:-0.122281 7:-1 8:0.472008 9:0.976767 10:-0.513551 11:0.0739196 12:-1 13:-1 14:-1 15:-1 16:-1 17:1 18:-1 19:-1 20:-1 21:1 22:-1 23:-1 24:-1 25:-1 26:-1 27:-1 28:-1 29:-1 30:-1 31:-1 32:1 33:-1 
-2 1:0.381731 2:0.664868 3:-0.877805 4:-0.671534 5:-0.345232 6:-0.138704 7:-0.0417768 8:0.276722 9:0.9318 10:-0.426252 11:0.0602369 12:-1 13:-1 14:-1 15:-1 16:-1 17:-1 18:1 19:-1 20:-1 21:1 22:-1 23:-1 24:-1 25:-1 26:-1 27:-1 28:-1 29:-1 30:-1 31:-1 32:1 33:-1 
-2 1:0.00175046 2:0.336551 3:-0.975668 4:-0.51008 5:-0.71279 6:-0.0833145 7:-0.417643 8:0.127616 9:0.965051 10:-0.344174 11:-0.096279 12:-1 13:-1 14:-1 15:-1 16:1 17:-1 18:-1 19:-1 20:-1 21:-1 22:1 23:-1 24:-1 25:-1 26:-1 27:-1 28:-1 29:-1 30:-1 31:-1 32:1 33:-1 
-2 1:-0.198599 2:0.564512 3:-0.693306 4:-0.738419 5:0.981825 6:0.153156 7:-0.295617 8:0.22806 9:0.999178 10:-0.0996967 11:-0.121976 12:-1 13:-1 14:-1 15:-1 16:-1 17:1 18:-1 19:-1 20:-1 21:-1 22:1 23:-1 24:-1 25:-1 26:-1 27:-1 28:-1 29:-1 30:-1 31:-1 32:1 33:-1 
-2 1:0.275037 2:0.68531 3:-0.767125 4:-0.624933 5:0.628676 6:-0.301859 7:0.341287 8:0.254712 9:0.915107 10:-0.5953 11:0.295845 12:-1 13:-1 14:-1 15:-1 16:-1 17:1 18:-1 19:-1 20:-1 21:1 22:-1 23:-1 24:-1 25:-1 26:-1 27:-1 28:-1 29:-1 30:-1 31:-1 32:1 33:-1 
-2 1:0.0988617 2:0.772707 3:-0.469811 4:-0.88711 5:-0.329646 6:-0.137757 7:-0.277816 8:0.262956 9:0.977215 10:-0.328548 11:-0.375271 12:-1 13:-1 14:-1 15:-1 16:-1 17:1 18:-1 19:-1 20:-1 21:-1 22:1 23:-1 24:-1 25:-1 26:-1 27:-1 28:-1 29:-1 30:-1 31:-1 32:1 33:-1 
-2 1:-0.407559 2:0.374962 3:-0.728624 4:0.107553 5:-0.636491 6:0.108752 7:-0.855372 8:0.245348 9:0.987551 10:-0.12223 11:0.335558 12:-1 13:-1 14:-1 15:-1 16:-1 17:-1 18:1 19:-1 20:-1 21:1 22:-1 23:-1 24:-1 25:-1 26:-1 27:-1 28:-1 29:-1 30:-1 31:-1 32:1 33:-1 
-2 1:-0.963771 2:0.415695 3:-0.888281 4:-0.784501 5:0.0281151 6:-0.277802 7:-0.304513 8:0.31858 9:0.980436 10:-0.0291431 11:-0.232438 12:-1 13:-1 14:-1 15:-1 16:-1 17:-1 18:1 19:-1 20:-1 21:1 22:-1 23:-1 24:-1 25:-1 26:-1 27:-1 28:-1 29:-1 30:-1 31:-1 32:1 33:-1 
-2 1:-0.871883 2:0.284021 3:0.370302 4:-0.664324 5:0.821197 6:-0.252069 7:-0.423784 8:0.256713 9:0.996038 10:-0.256478 11:-0.116636 12:-1 13:-1 14:-1 15:-1 16:-1 17:1 18:-1 19:-1 20:-1 21:1 22:-1 23:-1 24:-1 25:-1 26:-1 27:-1 28:-1 29:-1 30:-1 31:-1 32:1 33:-1 
-2 1:-0.468252 2:0.602931 3:0.145103 4:-0.528658 5:0.777422 6:-0.319533 7:-0.402766 8:0.220937 9:0.99455 10:-0.301694 11:-0.178375 12:-1 13:-1 14:-1 15:-1 16:-1 17:-1 18:1 19:-1 20:-1 21:1 22:-1 23:-1 24:-1 25:-1 26:-1 27:-1 28:-1 29:-1 30:-1 31:-1 32:1 33:-1 
-2 1:-0.0210821 2:0.828035 3:-0.730345 4:-0.65813 5:0.372694 6:0.0139889 7:-0.639525 8:0.208852 9:0.969245 10:-0.210017 11:-0.471717 12:-1 13:-1 14:-1 15:-1 16:-1 17:1 18:-1 19:-1 20:-1 21:-1 22:1 23:-1 24:-1 25:-1 26:-1 27:-1 28:-1 29:-1 30:-1 31:-1 32:1 33:-1 
-2 1:-0.0210821 2:0.697908 3:-0.752816 4:-0.65813 5:0.372694 6:0.0166253 7:-0.52378 8:0.43167 9:0.947697 10:-0.210017 11:-0.471717 12:-1 13:-1 14:-1 15:-1 16:-1 17:1 18:-1 19:-1 20:-1 21:-1 22:1 23:-1 24:-1 25:-1 26:-1 27:-1 28:-1 29:-1 30:-1 31:-1 32:1 33:-1 
-2 1:-0.0210821 2:0.697908 3:-0.752816 4:-0.65813 5:-0.182287 6:-0.00346669 7:-0.470173 8:0.43167 9:0.947697 10:-0.210017 11:0.221759 12:-1 13:-1 14:-1 15:-1 16:-1 17:1 18:-1 19:-1 20:-1 21:-1 22:1 23:-1 24:-1 25:-1 26:-1 27:-1 28:-1 29:-1 30:-1 31:-1 32:1 33:-1 
-2 1:-0.724616 2:0.696833 3:0.0330334 4:0.0180548 5:0.22518 6:-0.131285 7:-0.570174 8:0.241986 9:0.977873 10:-0.200237 11:-0.372601 12:-1 13:-1 14:-1 15:-1 16:-1 17:-1 18:-1 19:-1 20:1 21:1 22:-1 23:-1 24:-1 25:-1 26:-1 27:-1 28:-1 29:-1 30:-1 31:-1 32:1 33:-1 
-2 1:-0.601019 2:0.826621 3:-0.587558 4:-0.625608 5:0.379832 6:-0.23374 7:0.124066 8:0.217976 9:0.968504 10:-0.175344 11:-0.771066 12:-1 13:-1 14:-1 15:-1 16:-1 17:1 18:-1 19:-1 20:-1 21:1 22:-1 23:-1 24:-1 25:-1 26:-1 27:-1 28:-1 29:-1 30:-1 31:-1 32:1 33:-1 
-2 1:-0.853063 2:0.46316 3:-0.750665 4:-0.614048 5:-0.437509 6:-0.0306936 7:-0.442839 8:0.199488 9:0.992312 10:-0.041054 11:-0.149675 12:-1 13:-1 14:-1 15:-1 16:-1 17:-1 18:-1 19:1 20:-1 21:1 22:-1 23:-1 24:-1 25:-1 26:-1 27:-1 28:-1 29:-1 30:-1 31:-1 32:1 33:-1 
-2 1:0.431656 2:0.502255 3:-0.905858 4:-0.709557 5:0.657544 6:-0.0910522 7:-0.484353 8:0.401657 9:0.880505 10:-0.531383 11:-0.251126 12:-1 13:-1 14:-1 15:-1 16:-1 17:-1 18:-1 19:-0.333333 20:-1 21:1 22:-1 23:-1 24:-1 25:-1 26:-1 27:-1 28:-1 29:-1 30:-1 31:-1 32:1 33:-1 
-2 1:0.577463 2:0.422746 3:-0.991811 4:-0.199613 5:-0.791075 6:-0.0762701 7:-0.642506 8:0.247749 9:0.984497 10:-0.265039 11:0.267812 12:-1 13:-1 14:-1 15:-1 16:1 17:-1 18:-1 19:-1 20:-1 21:1 22:-1 23:-1 24:-1 25:-1 26:-1 27:-1 28:-1 29:-1 30:-1 31:-1 32:1 33:-1 
-2 1:-0.784234 2:0.447759 3:-0.628912 4:-0.753343 5:-0.975241 6:-0.299994 7:-0.114624 8:-0.121373 9:0.99273 10:-0.607798 11:-0.101619 12:1 13:-1 14:-1 15:-1 16:-1 17:-1 18:-1 19:-1 20:-1 21:-1 22:1 23:-1 24:-1 25:-1 26:-1 27:-1 28:-1 29:-1 30:-1 31:-1 32:-1 33:1 
-2 1:0.152701 2:0.813288 3:-0.704442 4:-0.617426 5:-0.0172832 6:-0.193823 7:-0.458109 8:0.242867 9:0.983575 10:-0.169439 11:-0.113966 12:-1 13:-1 14:-1 15:-1 16:1 17:-1 18:-1 19:-1 20:-1 21:1 22:-1 23:-1 24:-1 25:-1 26:-1 27:-1 28:-1 29:-1 30:-1 31:-1 32:1 33:-1 
-2 1:0.332488 2:0.433261 3:-0.855381 4:-0.519764 5:-0.069182 6:0.54323 7:-0.536665 8:-0.0425387 9:0.992674 10:-0.501534 11:-0.807776 12:-1 13:-1 14:0.333333 15:-1 16:-1 17:-1 18:-1 19:-1 20:-1 21:-1 22:1 23:-1 24:-1 25:-1 26:-1 27:-1 28:-1 29:-1 30:-1 31:-1 32:-1 33:1 
-2 1:-0.644383 2:0.819815 3:-0.768866 4:-0.484426 5:0.390224 6:0.174978 7:-0.472279 8:0.219657 9:0.99337 10:0.0518847 11:0.37961 12:-1 13:-1 14:-1 15:-1 16:-1 17:-1 18:-1 19:0.333333 20:-1 21:-1 22:1 23:-1 24:-1 25:-1 26:-1 27:-1 28:-1 29:-1 30:-1 31:-1 32:1 33:-1 
-2 1:-0.644383 2:0.819815 3:-0.768866 4:-0.484426 5:0.271887 6:0.148446 7:-0.287583 8:0.219657 9:0.99337 10:0.0518847 11:0.96863 12:-1 13:-1 14:-1 15:-1 16:-1 17:-1 18:-1 19:0.333333 20:-1 21:-1 22:1 23:-1 24:-1 25:-1 26:-1 27:-1 28:-1 29:-1 30:-1 31:-1 32:1 33:-1 
-2 1:0.371723 2:0.472977 3:-0.900316 4:-0.305582 5:-0.807142 6:-0.00359991 7:-0.402335 8:0.259114 9:0.919723 10:-0.487821 11:0.200734 12:-1 13:-1 14:-1 15:-1 16:-1 17:-1 18:-1 19:-0.333333 20:-1 21:-1 22:-1 23:-1 24:1 25:-1 26:-1 27:-1 28:-1 29:-1 30:-1 31:-1 32:1 33:-1 
-2 1:0.0503564 2:0.856835 3:-0.517244 4:-0.708078 5:-0.417052 6:0.0291213 7:-0.345093 8:0.281444 9:0.965813 10:-0.277104 11:0.941932 12:-1 13:-1 14:-1 15:-1 16:-1 17:-1 18:1 19:-1 20:-1 21:1 22:-1 23:-1 24:-1 25:-1 26:-1 27:-1 28:-1 29:-1 30:-1 31:-1 32:1 33:-1 
-2 1:-0.00356074 2:0.411363 3:-0.233309 4:-0.813431 5:0.492845 6:0.995045 7:-0.739016 8:0.20517 9:0.922891 10:-0.58792 11:-0.149675 12:-1 13:-1 14:-1 15:-1 16:-1 17:-1 18:-1 19:1 20:-1 21:1 22:-1 23:-1 24:-1 25:-1 26:-1 27:-1 28:-1 29:-1 30:-1 31:-1 32:1 33:-1 
-2 1:-0.818199 2:0.728383 3:0.4941 4:-0.722565 5:-0.866456 6:0.0207563 7:-0.393469 8:-0.307135 9:0.952124 10:-0.536569 11:-0.602203 12:-1 13:-1 14:1 15:-1 16:-1 17:-1 18:-1 19:-1 20:-1 21:-1 22:1 23:-1 24:-1 25:-1 26:-1 27:-1 28:-1 29:-1 30:-1 31:-1 32:-1 33:1 
-2 1:0.326394 2:0.632812 3:-0.830246 4:-0.49772 5:-0.295958 6:-0.150867 7:-0.0532722 8:0.293129 9:0.715334 10:-0.739195 11:0.226431 12:-1 13:-1 14:-1 15:-1 16:1 17:-1 18:-1 19:-1 20:-1 21:1 22:-1 23:-1 24:-1 25:-1 26:-1 27:-1 28:-1 29:-1 30:-1 31:-1 32:1 33:-1 
-2 1:0.540832 2:0.479938 3:-0.96322 4:-0.993196 5:-0.390278 6:-0.160703 7:0.425147 8:0.265837 9:0.942623 10:-0.639273 11:-0.0165193 12:-1 13:-1 14:-1 15:-1 16:-1 17:-1 18:1 19:-1 20:-1 21:1 22:-1 23:-1 24:-1 25:-1 26:-1 27:-1 28:-1 29:-1 30:-1 31:-1 32:1 33:-1 
-2 1:8.44202e-05 2:0.727476 3:-0.427021 4:-0.496892 5:-0.685831 6:-0.233462 7:0.198484 8:0.217736 9:0.971626 10:-0.345823 11:0.124645 12:-1 13:-1 14:-1 15:-1 16:-1 17:-1 18:1 19:-1 20:-1 21:1 22:-1 23:-1 24:-1 25:-1 26:-1 27:-1 28:-1 29:-1 30:-1 31:-1 32:1 33:-1 
-2 1:0.871972 2:0.838356 3:-0.974979 4:-0.835116 5:0.0584601 6:0.222041 7:-0.522098 8:0.150986 9:0.964082 10:-0.284631 11:-0.111297 12:-1 13:-1 14:-1 15:-1 16:-1 17:1 18:-1 19:-1 20:-1 21:1 22:-1 23:-1 24:-1 25:-1 26:-1 27:-1 28:-1 29:-1 30:-1 31:-1 32:1 33:-1 
-2 1:-0.982281 2:-0.690015 3:-0.832233 4:-0.631996 5:-0.0966699 6:-0.0522551 7:-0.389895 8:0.275121 9:0.981054 10:-0.21289 11:-0.0141832 12:-1 13:-1 14:-1 15:-1 16:-1 17:-1 18:1 19:-1 20:-1 21:1 22:-1 23:-1 24:-1 25:-1 26:-1 27:-1 28:-1 29:-1 30:-1 31:-1 32:1 33:-1 
-2 1:0.61898 2:0.367992 3:-0.996658 4:-0.492501 5:0.206384 6:-0.021929 7:0.119232 8:0.155548 9:0.973727 10:-0.603668 11:-0.459036 12:-1 13:-1 14:-1 15:-1 16:-1 17:-1 18:1 19:-1 20:-1 21:1 22:-1 23:-1 24:-1 25:-1 26:-1 27:-1 28:-1 29:-1 30:-1 31:-1 32:1 33:-1 
-2 1:0.0777287 2:0.622971 3:-0.946787 4:0.24082 5:-0.0988127 6:-0.149681 7:-0.325642 8:-0.333787 9:0.976173 10:-0.30858 11:-0.0742533 12:1 13:-1 14:-1 15:-1 16:-1 17:-1 18:-1 19:-1 20:-1 21:1 22:-1 23:-1 24:-1 25:-1 26:-1 27:-1 28:-1 29:-1 30:-1 31:-1 32:-1 33:1 
-2 1:0.0777287 2:0.770136 3:-0.935282 4:0.24082 5:-0.0988127 6:-0.130493 7:-0.462334 8:-0.287126 9:0.975149 10:-0.30858 11:-0.0742533 12:-1 13:-1 14:1 15:-1 16:-1 17:-1 18:-1 19:-1 20:-1 21:1 22:-1 23:-1 24:-1 25:-1 26:-1 27:-1 28:-1 29:-1 30:-1 31:-1 32:-1 33:1 
-2 1:0.0777287 2:0.623577 3:-0.948381 4:0.24082 5:-0.0988127 6:-0.150105 7:-0.325642 8:-0.242067 9:0.968904 10:-0.281625 11:-0.0742533 12:1 13:-1 14:-1 15:-1 16:-1 17:-1 18:-1 19:-1 20:-1 21:1 22:-1 23:-1 24:-1 25:-1 26:-1 27:-1 28:-1 29:-1 30:-1 31:-1 32:-1 33:1 
-2 1:0.0777287 2:0.780071 3:-0.935434 4:0.24082 5:-0.0988127 6:-0.128025 7:-0.462334 8:-0.0895994 9:0.958499 10:-0.281625 11:-0.0742533 12:-1 13:-1 14:1 15:-1 16:-1 17:-1 18:-1 19:-1 20:-1 21:1 22:-1 23:-1 24:-1 25:-1 26:-1 27:-1 28:-1 29:-1 30:-1 31:-1 32:-1 33:1 
-2 1:-0.174447 2:0.446746 3:0.815029 4:0.00017972 5:0.627892 6:0.0571177 7:-0.865659 8:0.316979 9:0.953955 10:-0.640061 11:0.125313 12:-1 13:-1 14:-1 15:-1 16:-1 17:-1 18:1 19:-1 20:-1 21:-1 22:1 23:-1 24:-1 25:-1 26:-1 27:-1 28:-1 29:-1 30:-1 31:-1 32:1 33:-1 
-2 1:-0.174447 2:0.446746 3:0.815029 4:0.00017972 5:-0.99931 6:0.0512601 7:-0.864627 8:0.316979 9:0.953955 10:-0.640061 11:0.687636 12:-1 13:-1 14:-1 15:-1 16:-1 17:-1 18:1 19:-1 20:-1 21:-1 22:1 23:-1 24:-1 25:-1 26:-1 27:-1 28:-1 29:-1 30:-1 31:-1 32:1 33:-1 
-2 1:-0.174447 2:0.422924 3:0.823437 4:0.00017972 5:0.185836 6:0.079596 7:-0.823568 8:0.0483013 9:0.754185 10:-0.684907 11:-0.474053 12:-1 13:-1 14:-1 15:-1 16:-1 17:-1 18:1 19:-1 20:-1 21:-1 22:-1 23:-1 24:-1 25:-1 26:-1 27:1 28:-1 29:-1 30:1 31:-1 32:-1 33:-1 
-2 1:-0.157821 2:0.258821 3:-0.613509 4:-0.223133 5:-0.939945 6:-0.215364 7:0.18922 8:0.392533 9:0.872464 10:-0.669201 11:-0.240781 12:-1 13:-1 14:-1 15:-1 16:-1 17:1 18:-1 19:-1 20:-1 21:1 22:-1 23:-1 24:-1 25:-1 26:-1 27:-1 28:-1 29:-1 30:-1 31:-1 32:1 33:-1 
-2 1:-0.157821 2:0.326885 3:-0.598887 4:-0.223133 5:-0.939945 6:-0.206056 7:0.183694 8:0.433911 9:0.860962 10:-0.669201 11:-0.240781 12:-1 13:-1 14:-1 15:-1 16:-1 17:1 18:-1 19:-1 20:-1 21:1 22:-1 23:-1 24:-1 25:-1 26:-1 27:-1 28:-1 29:-1 30:-1 31:-1 32:1 33:-1 
-2 1:-0.157821 2:0.452689 3:-0.563187 4:-0.223133 5:-0.939945 6:-0.201444 7:0.179513 8:0.438873 9:0.87907 10:-0.669201 11:-0.240781 12:-1 13:-1 14:-1 15:-1 16:-1 17:1 18:-1 19:-1 20:-1 21:1 22:-1 23:-1 24:-1 25:-1 26:-1 27:-1 28:-1 29:-1 30:-1 31:-1 32:1 33:-1 
-2 1:0.127442 2:0.271585 3:-0.787172 4:-0.586321 5:-0.3419 6:0.0545333 7:-0.401493 8:0.27328 9:0.890851 10:-0.557601 11:0.753713 12:-1 13:-1 14:-1 15:-1 16:1 17:-1 18:-1 19:-1 20:-1 21:1 22:-1 23:-1 24:-1 25:-1 26:-1 27:-1 28:-1 29:-1 30:-1 31:-1 32:1 33:-1 
-2 1:0.127442 2:0.271585 3:-0.787172 4:-0.784717 5:-0.124854 6:0.0449098 7:-0.401493 8:0.27328 9:0.890851 10:-0.557601 11:0.0759219 12:-1 13:-1 14:-1 15:-1 16:1 17:-1 18:-1 19:-1 20:-1 21:1 22:-1 23:-1 24:-1 25:-1 26:-1 27:-1 28:-1 29:-1 30:-1 31:-1 32:1 33:-1 
-2 1:0.184557 2:0.646748 3:-0.829198 4:-0.48322 5:-0.179906 6:0.246576 7:-0.590069 8:0.239505 9:0.967812 10:-0.588779 11:0.273819 12:-1 13:-1 14:-1 15:-1 16:-1 17:1 18:-1 19:-1 20:-1 21:1 22:-1 23:-1 24:-1 25:-1 26:-1 27:-1 28:-1 29:-1 30:-1 31:-1 32:1 33:-1 
-2 1:-0.0175823 2:0.261511 3:-0.685277 4:0.25343 5:0.510513 6:-0.24343 7:0.0788168 8:0.349634 9:0.886698 10:-0.509829 11:-0.0835975 12:-1 13:-1 14:-1 15:-1 16:-1 17:-1 18:1 19:-1 20:-1 21:1 22:-1 23:-1 24:-1 25:-1 26:-1 27:-1 28:-1 29:-1 30:-1 31:-1 32:1 33:-1 
-2 1:0.735513 2:0.642893 3:-0.995573 4:-0.424932 5:0.174958 6:-0.459207 7:0.852492 8:0.205811 9:0.927381 10:-0.516 11:0.0201902 12:-1 13:-1 14:-1 15:-1 16:-1 17:-1 18:1 19:-1 20:-1 21:-1 22:-1 23:0.333333 24:-1 25:-1 26:-1 27:-1 28:-1 29:-1 30:-1 31:-1 32:1 33:-1 
-2 1:0.342831 2:0.792296 3:-0.46146 4:-0.561938 5:0.510865 6:-0.280928 7:0.609767 8:0.263836 9:0.797758 10:-0.668477 11:-0.23177 12:-1 13:-1 14:-1 15:-1 16:-1 17:-1 18:-1 19:-0.333333 20:-1 21:1 22:-1 23:-1 24:-1 25:-1 26:-1 27:-1 28:-1 29:-1 30:-1 31:-1 32:1 33:-1 
-2 1:0.327311 2:0.367047 3:-0.927882 4:-0.335903 5:-0.721806 6:0.00601953 7:-0.829484 8:0.144504 9:0.967795 10:-0.299664 11:-0.138328 12:-1 13:-1 14:-1 15:-1 16:-1 17:-1 18:1 19:-1 20:-1 21:1 22:-1 23:-1 24:-1 25:-1 26:-1 27:-1 28:-1 29:-1 30:-1 31:-1 32:1 33:-1 
-2 1:0.100483 2:0.379827 3:-0.832322 4:-0.22897 5:0.190658 6:0.00701811 7:-0.420371 8:0.22822 9:0.935898 10:-0.420214 11:0.195395 12:-1 13:-1 14:-1 15:-1 16:-1 17:-1 18:1 19:-1 20:-1 21:1 22:-1 23:-1 24:-1 25:-1 26:-1 27:-1 28:-1 29:-1 30:-1 31:-1 32:1 33:-1 
-2 1:0.111351 2:0.233249 3:-0.91323 4:0.250951 5:-0.945334 6:-0.0698083 7:-0.41909 8:0.298251 9:0.952463 10:-0.278837 11:-0.844819 12:-1 13:-1 14:-1 15:-1 16:-1 17:1 18:-1 19:-1 20:-1 21:1 22:-1 23:-1 24:-1 25:-1 26:-1 27:-1 28:-1 29:-1 30:-1 31:-1 32:1 33:-1 
-2 1:0.305563 2:0.790713 3:-0.686674 4:-0.560315 5:0.428926 6:-0.449709 7:0.742597 8:0.0926408 9:0.954894 10:-0.430715 11:-0.198398 12:-1 13:-1 14:-1 15:-1 16:-1 17:-1 18:1 19:-1 20:-1 21:1 22:-1 23:-1 24:-1 25:-1 26:-1 27:-1 28:-1 29:-1 30:-1 31:-1 32:1 33:-1 
-2 1:-0.656507 2:0.29141 3:0.275202 4:-0.414637 5:-0.327859 6:0.00301327 7:-0.541561 8:0.220777 9:0.890549 10:-0.578007 11:-0.205073 12:-1 13:-1 14:-1 15:-1 16:-1 17:1 18:-1 19:-1 20:-1 21:1 22:-1 23:-1 24:-1 25:-1 26:-1 27:-1 28:-1 29:-1 30:-1 31:-1 32:1 33:-1 
-2 1:0.266483 2:0.561947 3:-0.948652 4:0.453902 5:-0.991951 6:-0.146201 7:-0.804138 8:0.238785 9:0.973192 10:-0.145511 11:-0.265476 12:-1 13:-1 14:-1 15:-1 16:1 17:-1 18:-1 19:-1 20:-1 21:-1 22:1 23:-1 24:-1 25:-1 26:-1 27:-1 28:-1 29:-1 30:-1 31:-1 32:1 33:-1 
-2 1:0.266483 2:0.561947 3:-0.948652 4:-0.664329 5:-0.844019 6:-0.199037 7:-0.302555 8:0.238785 9:0.973192 10:-0.145511 11:0.381946 12:-1 13:-1 14:-1 15:-1 16:1 17:-1 18:-1 19:-1 20:-1 21:1 22:-1 23:-1 24:-1 25:-1 26:-1 27:-1 28:-1 29:-1 30:-1 31:-1 32:1 33:-1 
-2 1:-0.103613 2:0.878308 3:0.51126 4:-0.396413 5:0.256248 6:0.226626 7:-0.767087 8:-0.150186 9:0.997821 10:-0.478936 11:0.359586 12:1 13:-1 14:-1 15:-1 16:-1 17:-1 18:-1 19:-1 20:-1 21:1 22:-1 23:-1 24:-1 25:-1 26:-1 27:-1 28:-1 29:-1 30:-1 31:-1 32:-1 33:1 
-2 1:0.753594 2:0.821551 3:-0.979757 4:0.319095 5:0.110337 6:-0.0403061 7:-0.80139 8:0.238785 9:0.98539 10:-0.0202855 11:0.109294 12:-1 13:-1 14:-1 15:-1 16:-1 17:-1 18:1 19:-1 20:-1 21:1 22:-1 23:-1 24:-1 25:-1 26:-1 27:-1 28:-1 29:-1 30:-1 31:-1 32:1 33:-1 
-2 1:0.753594 2:0.813481 3:-0.980495 4:0.319095 5:0.110337 6:-0.0433193 7:-0.80139 8:0.222858 9:0.984924 10:-0.0202855 11:0.109294 12:-1 13:-1 14:-1 15:-1 16:-1 17:-1 18:1 19:-1 20:-1 21:1 22:-1 23:-1 24:-1 25:-1 26:-1 27:-1 28:-1 29:-1 30:-1 31:-1 32:1 33:-1 
-2 1:-0.327164 2:0.766969 3:-0.897495 4:-0.341455 5:0.538581 6:-0.304743 7:-0.246679 8:0.229821 9:0.979323 10:-0.436016 11:0.409311 12:-1 13:-1 14:-1 15:-1 16:1 17:-1 18:-1 19:-1 20:-1 21:1 22:-1 23:-1 24:-1 25:-1 26:-1 27:-1 28:-1 29:-1 30:-1 31:-1 32:1 33:-1 
-2 1:0.470176 2:0.794775 3:-0.697092 4:-0.406612 5:0.451042 6:-0.30757 7:-0.0789296 8:0.276802 9:0.826281 10:-0.634862 11:-0.0989488 12:-1 13:-1 14:-1 15:-1 16:-1 17:1 18:-1 19:-1 20:-1 21:1 22:-1 23:-1 24:-1 25:-1 26:-1 27:-1 28:-1 29:-1 30:-1 31:-1 32:1 33:-1 
-2 1:0.474392 2:0.752876 3:-0.789908 4:0.640632 5:0.813203 6:-0.0995673 7:-0.945304 8:-0.288167 9:0.922867 10:-0.639631 11:-0.0095111 12:1 13:-1 14:-1 15:-1 16:-1 17:-1 18:-1 19:-1 20:-1 21:1 22:-1 23:-1 24:-1 25:-1 26:-1 27:-1 28:-1 29:-1 30:-1 31:-1 32:-1 33:1 
-2 1:0.668659 2:0.746903 3:-0.931421 4:-0.284163 5:0.30134 6:-0.216442 7:-0.282752 8:0.207891 9:0.949951 10:-0.386941 11:-0.43167 12:-1 13:-1 14:-1 15:-1 16:-1 17:1 18:-1 19:-1 20:-1 21:-1 22:1 23:-1 24:-1 25:-1 26:-1 27:-1 28:-1 29:-1 30:-1 31:-1 32:1 33:-1 
-2 1:0.0947357 2:0.301018 3:-0.72991 4:-0.131971 5:-1 6:-0.0713748 7:-0.486924 8:0.337068 9:0.948594 10:-0.358767 11:-0.736693 12:-1 13:-1 14:-1 15:-1 16:-1 17:-1 18:1 19:-1 20:-1 21:-1 22:-1 23:-1 24:-1 25:-1 26:1 27:-1 28:-1 29:-1 30:1 31:-1 32:-1 33:-1 
-2 1:0.0947357 2:0.223839 3:-0.752549 4:-0.131971 5:-1 6:-0.0940269 7:-0.395476 8:-0.0232502 9:0.765109 10:-0.71502 11:-0.736693 12:-1 13:-1 14:-1 15:-1 16:-1 17:-1 18:1 19:-1 20:-1 21:-1 22:-1 23:-1 24:-1 25:-1 26:1 27:-1 28:-1 29:-1 30:1 31:-1 32:-1 33:-1 
-2 1:-0.931674 2:0.698185 3:-0.162009 4:-0.509673 5:-0.58461 6:0.506489 7:-0.5854 8:0.217656 9:0.967595 10:-0.202097 11:-0.370933 12:-1 13:-1 14:-1 15:-1 16:-1 17:-1 18:-1 19:-0.333333 20:-1 21:1 22:-1 23:-1 24:-1 25:-1 26:-1 27:-1 28:-1 29:-1 30:-1 31:-1 32:1 33:-1 
-2 1:-0.0474034 2:0.314157 3:0.0745684 4:0.456984 5:-0.999981 6:-0.128801 7:-0.692983 8:0.387571 9:0.958883 10:-0.681299 11:0.233439 12:-1 13:-1 14:-1 15:-1 16:-1 17:1 18:-1 19:-1 20:-1 21:1 22:-1 23:-1 24:-1 25:-1 26:-1 27:-1 28:-1 29:-1 30:-1 31:-1 32:1 33:-1 
-2 1:-0.0474034 2:0.333858 3:0.1032 4:0.456984 5:-0.999981 6:-0.127915 7:-0.692983 8:0.375885 9:0.958212 10:-0.681299 11:0.233439 12:-1 13:-1 14:-1 15:-1 16:-1 17:1 18:-1 19:-1 20:-1 21:1 22:-1 23:-1 24:-1 25:-1 26:-1 27:-1 28:-1 29:-1 30:-1 31:-1 32:1 33:-1 
-2 1:-0.287805 2:-0.44656 3:-0.55213 4:0.0983702 5:-0.361916 6:-0.182615 7:0.0490833 8:-0.174597 9:0.964162 10:-0.563933 11:0.645587 12:-1 13:-1 14:0.333333 15:-1 16:-1 17:-1 18:-1 19:-1 20:-1 21:1 22:-1 23:-1 24:-1 25:-1 26:-1 27:-1 28:-1 29:-1 30:-1 31:-1 32:-1 33:1 
-2 1:0.537154 2:0.589016 3:-0.960065 4:-0.819768 5:-1 6:0.0212921 7:0.0722514 8:0.169875 9:0.970944 10:-0.561848 11:-0.90856 12:-1 13:-1 14:-1 15:-1 16:-1 17:-1 18:1 19:-1 20:-1 21:1 22:-1 23:-1 24:-1 25:-1 26:-1 27:-1 28:-1 29:-1 30:-1 31:-1 32:1 33:-1 
-2 1:0.112783 2:0.790515 3:0.944009 4:-0.130311 5:0.650452 6:-0.206079 7:-0.322976 8:0.346512 9:0.328945 10:-0.792392 11:-0.816453 12:-1 13:-1 14:-1 15:-1 16:-1 17:-1 18:1 19:-1 20:-1 21:-1 22:1 23:-1 24:-1 25:-1 26:-1 27:-1 28:-1 29:-1 30:-1 31:-1 32:1 33:-1 
-2 1:0.395551 2:0.480246 3:-0.900021 4:-0.076073 5:-0.844582 6:0.376329 7:-0.88474 8:0.350594 9:0.898172 10:-0.495475 11:-0.590522 12:-1 13:-1 14:-1 15:-1 16:-1 17:-1 18:-1 19:0.333333 20:-1 21:-1 22:1 23:-1 24:-1 25:-1 26:-1 27:-1 28:-1 29:-1 30:-1 31:-1 32:1 33:-1 
-2 1:-0.283076 2:0.548362 3:-0.111215 4:-0.451138 5:0.136694 6:-0.0522049 7:-0.43653 8:0.229501 9:0.996132 10:-0.319833 11:0.298515 12:-1 13:-1 14:-1 15:-1 16:-1 17:1 18:-1 19:-1 20:-1 21:1 22:-1 23:-1 24:-1 25:-1 26:-1 27:-1 28:-1 29:-1 30:-1 31:-1 32:1 33:-1 
-2 1:-0.195681 2:0.767855 3:-0.4123 4:0.331338 5:0.285542 6:-0.107682 7:-0.712796 8:0.115771 9:0.992669 10:-0.663976 11:0.366928 12:-1 13:-1 14:-1 15:-1 16:-1 17:-1 18:1 19:-1 20:-1 21:-1 22:1 23:-1 24:-1 25:-1 26:-1 27:-1 28:-1 29:-1 30:-1 31:-1 32:1 33:-1 
-2 1:0.306636 2:0.364675 3:-0.905425 4:0.196673 5:0.653105 6:0.415098 7:-0.720436 8:0.216775 9:0.816941 10:-0.682054 11:-0.092608 12:-1 13:-1 14:-1 15:-1 16:-1 17:-1 18:-1 19:1 20:-1 21:1 22:-1 23:-1 24:-1 25:-1 26:-1 27:-1 28:-1 29:-1 30:-1 31:-1 32:1 33:-1 
-2 1:0.539692 2:0.527444 3:-0.942681 4:-0.785237 5:0.574242 6:-0.0742934 7:-0.200959 8:-0.332266 9:0.988471 10:-0.725281 11:0.840814 12:1 13:-1 14:-1 15:-1 16:-1 17:-1 18:-1 19:-1 20:-1 21:-1 22:-1 23:1 24:-1 25:-1 26:-1 27:-1 28:-1 29:-1 30:-1 31:-1 32:-1 33:1 
-2 1:0.539692 2:0.527444 3:-0.942681 4:-0.785237 5:0.531941 6:-0.0623981 7:-0.300976 8:-0.332266 9:0.988471 10:-0.725281 11:0.408977 12:1 13:-1 14:-1 15:-1 16:-1 17:-1 18:-1 19:-1 20:-1 21:-1 22:-1 23:1 24:-1 25:-1 26:-1 27:-1 28:-1 29:-1 30:-1 31:-1 32:-1 33:1 
-2 1:0.539692 2:0.551593 3:-0.94179 4:-0.62792 5:-0.0324787 6:-0.158224 7:-0.200959 8:-0.29561 9:0.904516 10:-0.725281 11:0.840814 12:1 13:-1 14:-1 15:-1 16:-1 17:-1 18:-1 19:-1 20:-1 21:-1 22:-1 23:1 24:-1 25:-1 26:-1 27:-1 28:-1 29:-1 30:-1 31:-1 32:-1 33:1 
-2 1:0.539692 2:0.551593 3:-0.94179 4:-0.62792 5:0.681233 6:-0.148908 7:-0.300976 8:-0.29561 9:0.904516 10:-0.725281 11:0.408977 12:1 13:-1 14:-1 15:-1 16:-1 17:-1 18:-1 19:-1 20:-1 21:-1 22:-1 23:1 24:-1 25:-1 26:-1 27:-1 28:-1 29:-1 30:-1 31:-1 32:-1 33:1 
-2 1:-0.726739 2:-0.448825 3:-0.551182 4:-0.813407 5:-0.939818 6:-0.391612 7:0.0928337 8:0.311777 9:0.946938 10:-0.35687 11:0.0238612 12:-1 13:-1 14:-1 15:-1 16:1 17:-1 18:-1 19:-1 20:-1 21:1 22:-1 23:-1 24:-1 25:-1 26:-1 27:-1 28:-1 29:-1 30:-1 31:-1 32:1 33:-1 
-2 1:0.39043 2:0.266209 3:-0.960968 4:0.150638 5:-0.362876 6:-0.0604477 7:-0.444305 8:0.466725 9:0.903714 10:-0.427254 11:-0.241782 12:-1 13:-1 14:-1 15:-1 16:-1 17:1 18:-1 19:-1 20:-1 21:-1 22:-1 23:1 24:-1 25:-1 26:-1 27:-1 28:-1 29:-1 30:-1 31:-1 32:1 33:-1 
-2 1:0.39043 2:0.14213 3:-0.966866 4:0.150638 5:-0.362876 6:-0.0732241 7:-0.395146 8:0.322742 9:0.925098 10:-0.427254 11:-0.241782 12:-1 13:-1 14:-1 15:-1 16:-1 17:1 18:-1 19:-1 20:-1 21:-1 22:-1 23:1 24:-1 25:-1 26:-1 27:-1 28:-1 29:-1 30:-1 31:-1 32:1 33:-1 
-2 1:0.436856 2:0.777971 3:-0.711443 4:-0.425751 5:-0.63963 6:-0.108715 7:-0.793544 8:0.502021 9:0.838572 10:-0.609712 11:-0.0765894 12:-1 13:-1 14:-1 15:-1 16:-1 17:1 18:-1 19:-1 20:-1 21:1 22:-1 23:-1 24:-1 25:-1 26:-1 27:-1 28:-1 29:-1 30:-1 31:-1 32:1 33:-1 
-2 1:0.066905 2:0.654286 3:-0.47901 4:-0.538776 5:-1 6:-0.0714706 7:-0.110532 8:0.214855 9:0.951785 10:-0.425155 11:0.0482229 12:-1 13:-1 14:-1 15:-1 16:-1 17:1 18:-1 19:-1 20:-1 21:1 22:-1 23:-1 24:-1 25:-1 26:-1 27:-1 28:-1 29:-1 30:-1 31:-1 32:1 33:-1 
-2 1:0.066905 2:0.484467 3:-0.443513 4:-0.538776 5:-1 6:-0.0990696 7:0.0487933 8:0.443675 9:0.926992 10:-0.425155 11:0.0482229 12:-1 13:-1 14:-1 15:-1 16:-1 17:1 18:-1 19:-1 20:-1 21:1 22:-1 23:-1 24:-1 25:-1 26:-1 27:-1 28:-1 29:-1 30:-1 31:-1 32:1 33:-1 
-2 1:0.066905 2:0.341595 3:-0.508474 4:-0.538776 5:-1 6:-0.103011 7:-0.00261004 8:0.453359 9:0.943545 10:-0.425155 11:0.0482229 12:-1 13:-1 14:-1 15:-1 16:-1 17:1 18:-1 19:-1 20:-1 21:1 22:-1 23:-1 24:-1 25:-1 26:-1 27:-1 28:-1 29:-1 30:-1 31:-1 32:1 33:-1 
-2 1:0.066905 2:0.549576 3:-0.439913 4:-0.538776 5:-1 6:-0.0952111 7:0.0194464 8:0.327464 9:0.94224 10:-0.425155 11:0.0482229 12:-1 13:-1 14:-1 15:-1 16:-1 17:1 18:-1 19:-1 20:-1 21:1 22:-1 23:-1 24:-1 25:-1 26:-1 27:-1 28:-1 29:-1 30:-1 31:-1 32:1 33:-1 
-2 1:0.334925 2:0.73685 3:-0.660559 4:0.143711 5:-0.476575 6:-0.274146 7:-0.20129 8:0.201169 9:0.897296 10:-0.561759 11:-0.0882696 12:-1 13:-1 14:-1 15:-1 16:-1 17:-1 18:1 19:-1 20:-1 21:1 22:-1 23:-1 24:-1 25:-1 26:-1 27:-1 28:-1 29:-1 30:-1 31:-1 32:1 33:-1 
-2 1:0.0898158 2:0.544432 3:-0.464601 4:0.00382207 5:-0.985114 6:-0.186343 7:-0.350764 8:0.237424 9:0.816611 10:-0.72872 11:0.615551 12:-1 13:-1 14:-1 15:-1 16:-1 17:1 18:-1 19:-1 20:-1 21:-1 22:1 23:-1 24:-1 25:-1 26:-1 27:-1 28:-1 29:-1 30:-1 31:-1 32:1 33:-1 
-2 1:0.585167 2:0.705268 3:-0.907524 4:-0.317944 5:-0.999995 6:-0.169662 7:0.054682 8:0.198047 9:0.917781 10:-0.513089 11:-0.943267 12:-1 13:-1 14:-1 15:-1 16:1 17:-1 18:-1 19:-1 20:-1 21:-1 22:1 23:-1 24:-1 25:-1 26:-1 27:-1 28:-1 29:-1 30:-1 31:-1 32:1 33:-1 
-2 1:0.776012 2:0.863945 3:-0.992968 4:-0.655821 5:0.746781 6:-0.0929666 7:-0.65074 8:0.443435 9:0.975131 10:-0.387185 11:-0.243117 12:-1 13:-1 14:-1 15:-1 16:-1 17:1 18:-1 19:-1 20:-1 21:1 22:-1 23:-1 24:-1 25:-1 26:-1 27:-1 28:-1 29:-1 30:-1 31:-1 32:1 33:-1 
-2 1:0.776012 2:0.874827 3:-0.925069 4:-0.767575 5:0.192312 6:0.0115103 7:-0.65074 8:0.357797 9:0.929074 10:-0.387185 11:-0.243117 12:-1 13:-1 14:-1 15:-1 16:-1 17:1 18:-1 19:-1 20:-1 21:1 22:-1 23:-1 24:-1 25:-1 26:-1 27:-1 28:-1 29:-1 30:-1 31:-1 32:1 33:-1 
-2 1:0.776012 2:0.843977 3:-0.972916 4:-0.655821 5:0.746781 6:-0.13563 7:-0.566699 8:0.376045 9:0.995466 10:-0.387185 11:-0.243117 12:-1 13:-1 14:-1 15:-1 16:-1 17:1 18:-1 19:-1 20:-1 21:1 22:-1 23:-1 24:-1 25:-1 26:-1 27:-1 28:-1 29:-1 30:-1 31:-1 32:1 33:-1 
-2 1:-0.59757 2:0.23405 3:-0.943272 4:-0.668463 5:0.646889 6:-0.268912 7:-0.340568 8:0.267918 9:0.959054 10:-0.44411 11:0.181712 12:-1 13:-1 14:-1 15:-1 16:-1 17:1 18:-1 19:-1 20:-1 21:1 22:-1 23:-1 24:-1 25:-1 26:-1 27:-1 28:-1 29:-1 30:-1 31:-1 32:1 33:-1 
-2 1:0.291988 2:0.591359 3:-0.674815 4:-0.431707 5:0.024916 6:0.105555 7:-0.725255 8:0.248149 9:0.80831 10:-0.74714 11:0.414984 12:-1 13:-1 14:-1 15:-1 16:-1 17:1 18:-1 19:-1 20:-1 21:-1 22:1 23:-1 24:-1 25:-1 26:-1 27:-1 28:-1 29:-1 30:-1 31:-1 32:1 33:-1 
-2 1:0.291988 2:0.591359 3:-0.674815 4:-0.431707 5:0.612042 6:0.104202 7:-0.766939 8:0.248149 9:0.80831 10:-0.74714 11:0.0478892 12:-1 13:-1 14:-1 15:-1 16:-1 17:1 18:-1 19:-1 20:-1 21:-1 22:1 23:-1 24:-1 25:-1 26:-1 27:-1 28:-1 29:-1 30:-1 31:-1 32:1 33:-1 
-2 1:0.0980119 2:0.790203 3:-0.572043 4:-0.595053 5:-0.643985 6:-0.0238596 7:-0.738542 8:-0.132098 9:0.93632 10:-0.675106 11:0.149675 12:1 13:-1 14:-1 15:-1 16:-1 17:-1 18:-1 19:-1 20:-1 21:1 22:-1 23:-1 24:-1 25:-1 26:-1 27:-1 28:-1 29:-1 30:-1 31:-1 32:-1 33:1 
-2 1:0.606579 2:0.318415 3:-0.997331 4:-0.508294 5:0.863815 6:0.116163 7:-0.201266 8:0.413502 9:0.938406 10:-0.28771 11:-0.0605707 12:-1 13:-1 14:-1 15:-1 16:-1 17:-1 18:-1 19:1 20:-1 21:1 22:-1 23:-1 24:-1 25:-1 26:-1 27:-1 28:-1 29:-1 30:-1 31:-1 32:1 33:-1 
-2 1:-0.689915 2:0.735901 3:0.127233 4:-0.658542 5:-0.444525 6:-0.455734 7:0.178554 8:0.243187 9:0.981122 10:-0.197655 11:0.20574 12:-1 13:-1 14:-1 15:-1 16:1 17:-1 18:-1 19:-1 20:-1 21:1 22:-1 23:-1 24:-1 25:-1 26:-1 27:-1 28:-1 29:-1 30:-1 31:-1 32:1 33:-1 
-2 1:0.855222 2:0.783996 3:-0.993552 4:-0.837547 5:0.295522 6:0.000202754 7:-0.516573 8:0.152987 9:0.948458 10:-0.427577 11:0.603204 12:-1 13:-1 14:-1 15:-1 16:-1 17:-1 18:1 19:-1 20:-1 21:-1 22:1 23:-1 24:-1 25:-1 26:-1 27:-1 28:-1 29:-1 30:-1 31:-1 32:1 33:-1 
-2 1:-0.057545 2:0.637524 3:-0.236571 4:0.0170753 5:-0.225851 6:0.0565533 7:-0.864865 8:0.0230902 9:0.788067 10:-0.724572 11:0.401635 12:1 13:-1 14:-1 15:-1 16:-1 17:-1 18:-1 19:-1 20:-1 21:-1 22:1 23:-1 24:-1 25:-1 26:-1 27:-1 28:-1 29:-1 30:-1 31:-1 32:-1 33:1 
-2 1:0.408298 2:0.539985 3:-0.988813 4:-0.874297 5:-0.0860821 6:0.243162 7:-0.430445 8:0.309696 9:0.978561 10:-0.0333467 11:-0.0218588 12:-1 13:-1 14:-1 15:-1 16:-1 17:-1 18:1 19:-1 20:-1 21:1 22:-1 23:-1 24:-1 25:-1 26:-1 27:-1 28:-1 29:-1 30:-1 31:-1 32:1 33:-1 
-2 1:0.803631 2:0.761792 3:-0.988448 4:-0.559979 5:-1 6:-0.136639 7:-0.919967 8:0.257593 9:0.953966 10:-0.283189 11:-0.0251961 12:-1 13:-1 14:-1 15:-1 16:-1 17:-1 18:1 19:-1 20:-1 21:-1 22:1 23:-1 24:-1 25:-1 26:-1 27:-1 28:-1 29:-1 30:-1 31:-1 32:1 33:-1 
-2 1:-0.0235421 2:0.397857 3:-0.220798 4:-0.483308 5:-0.222053 6:0.015622 7:-0.533782 8:0.423506 9:0.950596 10:-0.531698 11:-0.066244 12:-1 13:-1 14:-1 15:-1 16:-1 17:-1 18:-1 19:-1 20:1 21:1 22:-1 23:-1 24:-1 25:-1 26:-1 27:-1 28:-1 29:-1 30:-1 31:-1 32:1 33:-1 
-2 1:0.409539 2:0.501573 3:-0.83106 4:-0.905393 5:-0.216661 6:0.207428 7:-0.505188 8:0.395494 9:0.851806 10:-0.563761 11:0.910896 12:-1 13:-1 14:-1 15:-1 16:-1 17:1 18:-1 19:-1 20:-1 21:-1 22:1 23:-1 24:-1 25:-1 26:-1 27:-1 28:-1 29:-1 30:-1 31:-1 32:1 33:-1 
-2 1:-0.538673 2:0.24953 3:-0.886902 4:0.136416 5:0.835413 6:0.00260016 7:-0.814657 8:0.193005 9:0.984227 10:-0.10619 11:-0.233105 12:-1 13:-1 14:-1 15:-1 16:-1 17:-1 18:1 19:-1 20:-1 21:1 22:-1 23:-1 24:-1 25:-1 26:-1 27:-1 28:-1 29:-1 30:-1 31:-1 32:1 33:-1 
-2 1:-0.942175 2:0.703277 3:-0.422888 4:-0.387204 5:0.402934 6:-0.220962 7:-0.574029 8:0.195566 9:0.927966 10:-0.490545 11:0.0602369 12:1 13:-1 14:-1 15:-1 16:-1 17:-1 18:-1 19:-1 20:-1 21:-1 22:1 23:-1 24:-1 25:-1 26:-1 27:-1 28:-1 29:-1 30:-1 31:-1 32:-1 33:1 
-2 1:0.176484 2:0.778231 3:-0.219692 4:-0.656995 5:-0.790939 6:0.254047 7:-0.907535 8:-0.088719 9:0.750912 10:-0.724167 11:0.651927 12:-1 13:1 14:-1 15:-1 16:-1 17:-1 18:-1 19:-1 20:-1 21:1 22:-1 23:-1 24:-1 25:-1 26:-1 27:-1 28:-1 29:-1 30:-1 31:-1 32:-1 33:1 
-2 1:-0.398759 2:-0.0571952 3:-0.717632 4:-0.487869 5:0.0512615 6:-0.0263201 7:-0.665986 8:0.389731 9:0.996707 10:-0.175991 11:0.207075 12:-1 13:-1 14:-1 15:-1 16:-1 17:1 18:-1 19:-1 20:-1 21:1 22:-1 23:-1 24:-1 25:-1 26:-1 27:-1 28:-1 29:-1 30:-1 31:-1 32:1 33:-1 
-2 1:0.159577 2:0.479144 3:-0.88855 4:-0.210181 5:-0.0649364 6:0.0459002 7:-0.856138 8:-0.116971 9:0.985151 10:-0.167494 11:-0.642249 12:1 13:-1 14:-1 15:-1 16:-1 17:-1 18:-1 19:-1 20:-1 21:1 22:-1 23:-1 24:-1 25:-1 26:-1 27:-1 28:-1 29:-1 30:-1 31:-1 32:-1 33:1 
-2 1:0.4156 2:0.688369 3:-0.698001 4:-0.642396 5:-0.0905037 6:0.0948932 7:0.122696 8:0.049902 9:0.929637 10:-0.49293 11:0.103287 12:-1 13:-1 14:1 15:-1 16:-1 17:-1 18:-1 19:-1 20:-1 21:1 22:-1 23:-1 24:-1 25:-1 26:-1 27:-1 28:-1 29:-1 30:-1 31:-1 32:-1 33:1 
-2 1:0.4156 2:0.734605 3:-0.737089 4:-0.642396 5:-0.0905037 6:0.18537 7:-0.102629 8:-0.114971 9:0.921276 10:-0.49293 11:0.103287 12:-1 13:-1 14:1 15:-1 16:-1 17:-1 18:-1 19:-1 20:-1 21:1 22:-1 23:-1 24:-1 25:-1 26:-1 27:-1 28:-1 29:-1 30:-1 31:-1 32:-1 33:1 
-2 1:0.4156 2:0.72285 3:-0.752701 4:-0.642396 5:-0.0905037 6:0.193923 7:-0.0945254 8:-0.0902397 9:0.914284 10:-0.49293 11:0.103287 12:-1 13:-1 14:1 15:-1 16:-1 17:-1 18:-1 19:-1 20:-1 21:1 22:-1 23:-1 24:-1 25:-1 26:-1 27:-1 28:-1 29:-1 30:-1 31:-1 32:-1 33:1 
-2 1:0.455741 2:0.463535 3:-0.935137 4:-0.460948 5:-0.745656 6:-0.0975559 7:-0.267656 8:0.0719116 9:0.975405 10:-0.359202 11:-0.450025 12:-1 13:-1 14:-1 15:-1 16:1 17:-1 18:-1 19:-1 20:-1 21:-1 22:-1 23:-1 24:1 25:-1 26:-1 27:-1 28:-1 29:-1 30:-1 31:-1 32:1 33:-1 
-2 1:0.00949923 2:0.151804 3:-0.492796 4:-0.787295 5:-0.526843 6:0.256306 7:-0.74591 8:0.0619072 9:0.685292 10:-0.704245 11:-0.347572 12:-1 13:1 14:-1 15:-1 16:-1 17:-1 18:-1 19:-1 20:-1 21:1 22:-1 23:-1 24:-1 25:-1 26:-1 27:-1 28:-1 29:-1 30:-1 31:-1 32:-1 33:1 
-2 1:-0.482743 2:0.94119 3:0.798098 4:-0.447421 5:0.0714128 6:-0.0187241 7:-0.585786 8:0.248629 9:0.945953 10:-0.394071 11:0.3142 12:-1 13:-1 14:-1 15:-1 16:-1 17:-1 18:-1 19:0.333333 20:-1 21:1 22:-1 23:-1 24:-1 25:-1 26:-1 27:-1 28:-1 29:-1 30:-1 31:-1 32:1 33:-1 
-2 1:-0.418696 2:0.651686 3:-0.23813 4:-0.178716 5:0.946191 6:-0.335869 7:-0.0999791 8:-0.11321 9:0.918801 10:-0.544471 11:0.380944 12:1 13:-1 14:-1 15:-1 16:-1 17:-1 18:-1 19:-1 20:-1 21:1 22:-1 23:-1 24:-1 25:-1 26:-1 27:-1 28:-1 29:-1 30:-1 31:-1 32:-1 33:1 
-2 1:-0.418696 2:0.651686 3:-0.23813 4:0.548461 5:0.716226 6:-0.295593 7:-0.263431 8:-0.11321 9:0.918801 10:-0.544471 11:-0.193059 12:1 13:-1 14:-1 15:-1 16:-1 17:-1 18:-1 19:-1 20:-1 21:-1 22:1 23:-1 24:-1 25:-1 26:-1 27:-1 28:-1 29:-1 30:-1 31:-1 32:-1 33:1 
-2 1:-0.212297 2:0.783535 3:-0.124532 4:-0.688525 5:-0.279124 6:-0.581341 7:0.517312 8:0.280964 9:0.897384 10:-0.528744 11:-0.254797 12:-1 13:-1 14:-1 15:-1 16:-1 17:1 18:-1 19:-1 20:-1 21:1 22:-1 23:-1 24:-1 25:-1 26:-1 27:-1 28:-1 29:-1 30:-1 31:-1 32:1 33:-1 
-2 1:0.549923 2:0.766334 3:-0.911729 4:-0.942193 5:-1 6:0.0463326 7:-0.129149 8:0.251271 9:0.958569 10:-0.26718 11:0.840481 12:-1 13:-1 14:-1 15:-1 16:-1 17:-1 18:1 19:-1 20:-1 21:1 22:-1 23:-1 24:-1 25:-1 26:-1 27:-1 28:-1 29:-1 30:-1 31:-1 32:1 33:-1 
-2 1:0.28292 2:0.885622 3:-0.764343 4:-0.491724 5:-0.765903 6:-0.157146 7:-0.837159 8:-0.665613 9:0.282852 10:-0.400898 11:-0.996329 12:-1 13:-1 14:-1 15:-1 16:-1 17:1 18:-1 19:-1 20:-1 21:-1 22:-1 23:-1 24:-1 25:-1 26:-1 27:1 28:-1 29:-1 30:-1 31:1 32:-1 33:-1 
-2 1:-0.0934599 2:0.686362 3:-0.972889 4:-0.0949938 5:-0.685969 6:-0.290424 7:0.377755 8:0.281524 9:0.964219 10:-0.364095 11:-0.0552311 12:-1 13:-1 14:-1 15:-1 16:-1 17:-1 18:1 19:-1 20:-1 21:-1 22:1 23:-1 24:-1 25:-1 26:-1 27:-1 28:-1 29:-1 30:-1 31:-1 32:1 33:-1 
-2 1:-0.977986 2:0.549622 3:0.532933 4:0.0674459 5:-0.745244 6:-0.213198 7:-0.640684 8:-0.0050022 9:0.927445 10:-0.681098 11:-0.403971 12:-1 13:1 14:-1 15:-1 16:-1 17:-1 18:-1 19:-1 20:-1 21:1 22:-1 23:-1 24:-1 25:-1 26:-1 27:-1 28:-1 29:-1 30:-1 31:-1 32:-1 33:1 
-2 1:0.155071 2:0.389526 3:-0.942239 4:-0.029204 5:-0.96186 6:-0.0901702 7:-0.52778 8:0.245348 9:0.992099 10:-0.0632219 11:-0.0405473 12:-1 13:-1 14:-1 15:-1 16:1 17:-1 18:-1 19:-1 20:-1 21:1 22:-1 23:-1 24:-1 25:-1 26:-1 27:-1 28:-1 29:-1 30:-1 31:-1 32:1 33:-1 
-2 1:0.109339 2:0.755629 3:-0.315523 4:-0.547599 5:-0.930487 6:0.010112 7:-0.803122 8:0.27304 9:0.903007 10:-0.522491 11:-0.132655 12:-1 13:-1 14:-1 15:-1 16:-1 17:-1 18:1 19:-1 20:-1 21:1 22:-1 23:-1 24:-1 25:-1 26:-1 27:-1 28:-1 29:-1 30:-1 31:-1 32:1 33:-1 
-2 1:-0.0050367 2:0.763348 3:-0.526451 4:-0.81903 5:-1 6:0.00999866 7:-0.637634 8:0.282164 9:0.994849 10:-0.190664 11:-0.139997 12:-1 13:-1 14:-1 15:-1 16:-1 17:-1 18:1 19:-1 20:-1 21:1 22:-1 23:-1 24:-1 25:-1 26:-1 27:-1 28:-1 29:-1 30:-1 31:-1 32:1 33:-1 
