svm_type c_svc
kernel_type rbf
gamma 0.000122
nr_class 2
total_sv 3807
rho 86.1602
label 1 -1
probA -0.995412
probB 3.63352
nr_sv 92 3715
SV
24064 1:-0.059794 2:0.691124 3:0.212488 4:0.129624 5:0.851516 6:-0.0503707 7:-0.7216 8:0.16286 9:0.178707 10:0.989987 11:-0.25339 12:-0.507235 13:0.0246529 14:1 15:-1 16:-1 17:-1 18:-1 19:-1 20:-1 21:-1 22:-1 23:-1 24:-1 25:-1 26:-1 27:1 28:-1 29:-1 30:-1 31:-1 32:-1 33:-1 34:1 35:-1 
2663.460733345892 1:-0.0546399 2:0.601496 3:-0.552691 4:-0.120709 5:-0.982599 6:0.27633 7:-0.929709 8:0.412569 9:-0.152772 10:0.918001 11:-0.515159 12:0.136007 13:-0.881879 14:-1 15:1 16:-1 17:-1 18:-1 19:-1 20:-1 21:-1 22:-1 23:-1 24:-1 25:1 26:-1 27:-1 28:-1 29:-1 30:-1 31:-1 32:-1 33:-1 34:-1 35:1 
20838.15283159461 1:0.227218 2:0.479694 3:-0.614536 4:0.626135 5:-0.995427 6:-0.00526386 7:-0.764602 8:-0.190198 9:0.360016 10:0.901062 11:-0.659243 12:-0.20583 13:-0.202888 14:1 15:-1 16:-1 17:-1 18:-1 19:-1 20:-1 21:-1 22:-1 23:-1 24:-1 25:-1 26:-1 27:1 28:-1 29:-1 30:-1 31:-1 32:-1 33:-1 34:1 35:-1 
24064 1:0.699523 2:0.600649 3:-0.929474 4:-0.528962 5:-0.279703 6:0.260388 7:-0.890505 8:-0.0471745 9:0.419732 10:0.886473 11:-0.466809 12:0.283732 13:0.051637 14:-1 15:-1 17:-1 18:-1 19:-1 20:-1 21:-1 22:-1 23:-1 24:-1 25:-1 26:-1 27:1 28:-1 29:-1 30:-1 31:-1 32:-1 33:-1 34:1 35:-1 
6883.348754996449 1:0.411854 2:0.74773 3:-0.67476 4:-0.260174 5:-0.71076 6:-0.0375146 7:-0.590864 8:0.18153 9:0.194717 10:0.940653 11:-0.382242 12:-0.00216291 13:-0.763462 14:1 15:-1 16:-1 17:-1 18:-1 19:-1 20:-1 21:-1 22:-1 23:-1 24:-1 25:-1 26:1 27:-1 28:-1 29:-1 30:-1 31:-1 32:-1 33:-1 34:1 35:-1 
24064 1:-0.374393 2:0.573631 3:-0.514332 4:-0.817715 5:-0.952342 6:0.0507925 7:-0.596833 8:0.208868 9:0.209766 10:0.824295 11:-0.713751 12:-0.147095 13:-0.945634 14:1 15:-1 16:-1 17:-1 18:-1 19:-1 20:-1 21:-1 22:-1 23:-1 24:-1 25:-1 26:-1 27:1 28:-1 29:-1 30:-1 31:-1 32:-1 33:-1 34:1 35:-1 
9413.85880911198 1:-0.485773 2:0.533427 3:-0.928677 4:-0.458107 5:-0.999999 6:0.0255102 7:-0.884964 8:0.0858476 9:0.496178 10:0.966087 11:-0.130668 12:-0.0467316 13:-0.199044 14:-1 15:1 16:-1 17:-1 18:-1 19:-1 20:-1 21:-1 22:-1 23:-1 24:-1 25:-1 26:-1 27:-1 28:-1 29:1 30:-1 31:-1 32:-1 33:-1 34:1 35:-1 
24064 1:0.350328 2:0.610194 3:-0.944243 4:-0.709634 5:0.0352342 6:0.0701234 7:-0.631527 8:0.0935156 9:0.377466 10:0.908978 11:-0.547067 12:-0.107731 13:-0.326106 14:1 15:-1 16:-1 17:-1 18:-1 19:-1 20:-1 21:-1 22:-1 23:-1 24:-1 25:-1 26:-1 27:1 28:-1 29:-1 30:-1 31:-1 32:-1 33:-1 34:1 35:-1 
24064 1:0.0554842 2:0.322198 3:-0.9603 4:-0.241288 5:-0.375925 6:-0.165453 7:-0.4191 8:-0.101517 9:0.238823 10:0.962258 11:-0.237788 12:-0.260895 13:-0.601608 14:1 15:-1 16:-1 17:-1 18:-1 19:-1 20:-1 21:-1 22:-1 23:-1 24:-1 25:-1 26:-1 27:-1 28:1 29:-1 30:-1 31:-1 32:-1 33:-1 34:1 35:-1 
24064 1:-0.37871 2:0.638943 3:-0.108078 4:0.429423 5:-0.195001 6:-0.372465 7:0.0215843 8:0.160193 9:0.297418 10:0.904085 11:-0.462498 12:0.170316 13:0.268231 14:1 15:-1 16:-1 17:-1 18:-1 19:-1 20:-1 21:-1 22:-1 23:-1 24:-1 25:-1 26:-1 27:1 28:-1 29:-1 30:-1 31:-1 32:-1 33:-1 34:1 35:-1 
10439.4127540663 1:-0.84981 2:0.792971 3:0.40203 4:-0.690703 5:-0.656374 6:-0.00048453 7:-1 8:-0.172195 9:0.230498 10:0.950965 11:-0.349859 12:0.202983 13:0.525792 14:-1 15:1 16:-1 17:-1 18:-1 19:-1 20:-1 21:-1 22:-1 23:-1 24:-1 25:-1 26:-1 27:-1 28:-1 29:1 30:-1 31:-1 32:-1 33:-1 34:1 35:-1 
13979.92956928011 1:-0.956653 2:0.710471 3:-0.14361 4:-0.715968 5:-0.332853 6:0.011084 7:-0.60314 8:-0.818636 9:-0.129638 10:0.842251 11:-0.607983 12:0.0618204 13:-0.251742 14:1 15:-1 16:-1 17:-1 18:-1 19:-1 20:-1 21:-1 22:-1 23:-1 24:-1 25:0.5 26:-1 27:-1 28:-1 29:-1 30:-1 31:-1 32:-1 33:-1 34:-1 35:1 
24064 1:0.514205 2:0.775582 3:-0.85341 4:-0.43859 5:0.90384 6:-0.231279 7:-0.179515 8:0.045841 9:-0.138523 10:0.947354 11:-0.391536 12:0.269716 13:0.723839 14:1 15:-1 16:-1 17:-1 18:-1 19:-1 20:-1 21:-1 22:-1 23:1 24:-1 25:-1 26:-1 27:-1 28:-1 29:-1 30:-1 31:-1 32:-1 33:-1 34:-1 35:1 
17316.83079572726 1:-0.377957 2:0.64737 3:-0.82234 4:0.520049 5:0.989769 6:-0.0403027 7:-0.719475 8:0.118853 9:0.289574 10:0.962037 11:-0.296666 12:-0.161683 13:-0.545674 14:-1 15:1 16:-1 17:-1 18:-1 19:-1 20:-1 21:-1 22:-1 23:-1 24:-1 25:-1 26:-1 27:-1 28:-1 29:-1 30:0.333333 31:-1 32:-1 33:-1 34:1 35:-1 
24064 1:0.379997 2:0.282653 3:-0.965062 4:-0.844226 5:-0.315181 6:0.342446 7:-0.892097 8:-0.692949 9:0.278207 10:0.830968 11:-0.631264 12:-0.135206 13:-0.0808376 14:-1 15:1 16:-1 17:-1 18:-1 19:-1 20:-1 21:-1 22:-1 23:-1 24:-1 25:-1 26:-1 27:1 28:-1 29:-1 30:-1 31:-1 32:-1 33:-1 34:1 35:-1 
24064 1:0.763512 2:0.507267 3:-0.969226 4:-0.410016 5:-0.963846 6:-0.0801233 7:-0.676925 8:-0.0385064 9:0.201761 10:0.982374 11:-0.326027 12:0.180813 13:-0.997584 14:1 15:-1 16:-1 17:-1 18:-1 19:-1 20:-1 21:-1 22:-1 23:-1 24:-1 25:-1 26:1 27:-1 28:-1 29:-1 30:-1 31:-1 32:-1 33:-1 34:1 35:-1 
24064 1:-0.520919 2:0.384788 3:-0.451704 4:-0.542226 5:-1 6:0.0600184 7:-0.730224 8:-0.251875 9:0.305503 10:0.898446 11:-0.631491 12:0.00464955 13:-0.608741 14:1 15:-1 16:-1 17:-1 18:-1 19:-1 20:-1 21:-1 22:-1 23:-1 24:-1 25:-1 26:-1 27:-1 28:1 29:-1 30:-1 31:-1 32:-1 33:-1 34:1 35:-1 
24064 1:0.856357 2:0.725151 3:-0.997584 4:-0.0614528 5:-0.998619 6:0.00863546 7:-0.722223 8:-0.0211702 9:0.0692816 10:0.957076 11:-0.589881 12:-0.46612 13:-0.810221 14:1 15:-1 16:-1 17:-1 18:-1 19:-1 20:-1 21:-1 22:-1 23:-1 24:-1 25:-1 26:-1 27:1 28:-1 29:-1 30:-1 31:-1 32:-1 33:-1 34:1 35:-1 
16059.56249592786 1:-0.551176 2:0.221851 3:-0.897972 4:-0.465448 5:-0.999487 6:0.0915651 7:-0.736381 8:-0.026171 9:0.31663 10:0.754767 11:-0.750482 12:-0.073065 13:-0.541662 14:1 15:-1 16:-1 17:-1 18:-1 19:-1 20:-1 21:-1 22:-1 23:-1 24:-1 25:-1 26:-1 27:1 28:-1 29:-1 30:-1 31:-1 32:-1 33:-1 34:1 35:-1 
11487.19784932172 1:0.133548 2:0.470908 3:-0.494119 4:-0.4618 5:-0.999961 6:0.209184 7:-0.730816 8:0.0865144 9:-0.0856114 10:0.994086 11:-0.358884 12:-0.098557 13:0.452498 14:-1 15:-1 16:1 17:-1 18:-1 19:-1 20:-1 21:-1 22:-1 23:-1 24:-1 25:-1 26:-1 27:-1 28:-1 29:-1 30:-1 31:1 32:-1 33:-1 34:1 35:-1 
22040.31523403567 1:0.205262 2:0.219861 3:-0.898074 4:0.000988241 5:0.352281 6:0.0890588 7:-0.95731 8:-0.367561 9:-0.0712027 10:0.978505 11:-0.136992 12:0.271333 13:0.0538505 14:-1 15:1 16:-1 17:-1 18:-1 19:-1 20:-1 21:-1 22:-1 23:-1 24:1 25:-1 26:-1 27:-1 28:-1 29:-1 30:-1 31:-1 32:-1 33:-1 34:-1 35:1 
24064 1:-0.525194 2:0.626984 3:-0.788721 4:-0.31568 5:-0.804127 6:-0.168878 7:-0.0693105 8:-0.159193 9:0.169182 10:0.940278 11:-0.464903 12:0.0243769 13:-0.988048 14:1 15:-1 16:-1 17:-1 18:-1 19:-1 20:-1 21:-1 22:-1 23:-1 24:-1 25:-1 26:-1 27:-1 28:1 29:-1 30:-1 31:-1 32:-1 33:-1 34:1 35:-1 
24064 1:0.59374 2:0.43596 3:-0.916646 4:-0.821006 5:-0.690462 6:-0.221867 7:-0.384501 8:-0.0211702 9:0.304863 10:0.980095 11:-0.558491 12:0.166581 13:-0.865129 14:-1 15:1 16:-1 17:-1 18:-1 19:-1 20:-1 21:-1 22:-1 23:-1 24:-1 25:-1 26:1 27:-1 28:-1 29:-1 30:-1 31:-1 32:-1 33:-1 34:1 35:-1 
24064 1:-0.34616 2:0.717324 3:0.674749 4:0.0552856 5:-0.705673 6:0.319239 7:-0.582897 8:-0.139523 9:0.232499 10:0.925293 11:-0.461827 12:-0.698635 13:0.268171 14:-1 15:-1 17:-1 18:-1 19:-1 20:-1 21:-1 22:-1 23:-1 24:-1 25:-1 26:-1 27:-1 28:1 29:-1 30:-1 31:-1 32:-1 33:-1 34:1 35:-1 
24064 1:0.446916 2:0.367987 3:-0.907978 4:-0.508736 5:-0.80415 6:0.118436 7:-0.524151 8:0.158526 9:-0.168461 10:0.99973 11:-0.809685 12:-0.48895 13:-0.910498 14:-1 15:-1 16:1 17:-1 18:-1 19:-1 20:-1 21:-1 22:-1 23:1 24:-1 25:-1 26:-1 27:-1 28:-1 29:-1 30:-1 31:-1 32:-1 33:-1 34:-1 35:1 
7867.359540209667 1:-0.326572 2:0.779571 3:-0.453993 4:-0.463693 5:0.994357 6:-0.182347 7:-0.54597 8:0.670945 9:0.293096 10:0.940956 11:-0.508138 12:-0.315968 13:0.903814 14:-1 15:1 16:-1 17:-1 18:-1 19:-1 20:-1 21:-1 22:-1 23:-1 24:-1 25:-1 26:-1 27:1 28:-1 29:-1 30:-1 31:-1 32:-1 33:-1 34:1 35:-1 
24064 1:-0.861079 2:0.427024 3:-0.174002 4:-0.176064 5:0.502977 6:-0.034612 7:-0.605728 8:0.247875 9:0.175025 10:0.967224 11:-0.292941 12:-0.955287 13:-0.121259 14:-1 15:1 16:-1 17:-1 18:-1 19:-1 20:-1 21:-1 22:-1 23:-1 24:-1 25:-1 26:-1 27:1 28:-1 29:-1 30:-1 31:-1 32:-1 33:-1 34:1 35:-1 
3027.812080594129 1:0.518259 2:0.124136 3:-0.956255 4:-0.721802 5:0.931054 6:0.283094 7:-0.913361 8:0.113519 9:0.170622 10:0.778164 11:-0.687474 12:0.65229 13:0.697741 14:-1 15:1 16:-1 17:-1 18:-1 19:-1 20:-1 21:-1 22:-1 23:-1 24:-1 25:-1 26:1 27:-1 28:-1 29:-1 30:-1 31:-1 32:-1 33:-1 34:1 35:-1 
24064 1:0.419412 2:0.335813 3:-0.894685 4:0.0299365 5:-1 6:0.0693422 7:-0.797083 8:0.259877 9:-0.0680808 10:0.985138 11:-0.191683 12:-0.490708 13:0.535003 14:1 15:-1 16:-1 17:-1 18:-1 19:-1 20:-1 21:-1 22:-1 23:1 24:-1 25:-1 26:-1 27:-1 28:-1 29:-1 30:-1 31:-1 32:-1 33:-1 34:-1 35:1 
24064 1:0.784858 2:0.529519 3:-0.974932 4:0.398293 5:-1 6:0.0778197 7:-0.83321 8:0.124854 9:0.225615 10:0.88435 11:-0.569408 12:-0.00131526 13:-0.0173325 14:-1 15:-1 16:1 17:-1 18:-1 19:-1 20:-1 21:-1 22:-1 23:-1 24:-1 25:-1 26:-1 27:-1 28:1 29:-1 30:-1 31:-1 32:-1 33:-1 34:1 35:-1 
4332.658529369798 1:-0.563098 2:0.672358 3:0.362732 4:-0.35055 5:0.456246 6:0.129944 7:-0.84346 8:-0.109185 9:0.220492 10:0.951628 11:-0.397602 12:0.00113697 13:-0.669269 14:-1 15:1 16:-1 17:-1 18:-1 19:-1 20:-1 21:-1 22:-1 23:-1 24:-1 25:-1 26:-1 27:-1 28:1 29:-1 30:-1 31:-1 32:-1 33:-1 34:1 35:-1 
24064 1:-0.483884 2:0.291452 3:-0.88814 4:-0.184671 5:0.433159 6:0.156193 7:-0.880549 8:-0.224871 9:0.159176 10:0.972963 11:0.276323 12:-0.300797 13:-0.167116 14:-1 15:-1 16:-1 17:-1 18:-1 19:1 20:-1 21:-1 22:-1 23:-1 24:-1 25:-1 26:-1 27:-1 28:1 29:-1 30:-1 31:-1 32:-1 33:1 34:-1 35:-1 
24064 1:-0.352091 2:0.277452 3:-0.654162 4:-0.350767 5:-0.983138 6:0.134131 7:-1 8:-0.238873 9:0.454473 10:-0.00294302 11:-0.402455 12:-0.138434 13:-0.977429 14:-1 15:-1 16:-1 17:-1 18:1 19:-1 20:-1 21:-1 22:-1 23:-1 24:-1 25:-1 26:-1 27:-1 28:1 29:-1 30:-1 31:-1 32:-1 33:1 34:-1 35:-1 
24064 1:-0.384474 2:0.309054 3:-0.0947092 4:-0.338639 5:-0.999677 6:0.730544 7:-0.743517 8:-0.253209 9:0.481289 10:0.132849 11:-0.254764 12:0.111487 13:-0.896486 14:-1 15:-1 16:-1 17:-1 18:-1 19:-1 20:-1 21:-0.333333 22:-1 23:-1 24:-1 25:-1 26:-1 27:1 28:-1 29:-1 30:-1 31:-1 32:-1 33:1 34:-1 35:-1 
16824.03830855519 1:-0.418938 2:0.820253 3:0.304525 4:0.1982 5:-0.405635 6:-0.103038 7:-0.357554 8:-0.453242 9:-0.392916 10:0.728094 11:0.00889522 12:0.527548 13:-0.930155 14:-1 15:-1 16:-1 17:-1 18:-1 19:1 20:-1 21:-1 22:-1 23:-1 24:-1 25:-1 26:-1 27:-1 28:-1 29:-1 30:-1 31:1 32:-1 33:1 34:-1 35:-1 
24064 1:-0.11955 2:0.329641 3:-0.983339 4:-0.525398 5:0.873696 6:0.217639 7:-0.689756 8:0.0591765 9:0.424535 10:-0.390981 11:-0.398391 12:-0.740304 13:0.759279 14:-1 15:-1 16:-1 17:-1 18:1 19:-1 20:-1 21:-1 22:-1 23:-1 24:-1 25:-1 26:-1 27:-1 28:-1 29:-1 30:-1 31:1 32:-1 33:1 34:-1 35:-1 
1933.638981666017 1:-0.631843 2:0.420478 3:-0.76854 4:-0.246552 5:-0.55713 6:0.0588853 7:-0.838544 8:0.014169 9:-0.285251 10:0.329788 11:-0.264111 12:0.05868 13:-0.13617 14:-1 15:-1 16:-1 17:1 18:-1 19:-1 20:-1 21:-1 22:-1 23:-1 24:-1 25:-1 26:-1 27:1 28:-1 29:-1 30:-1 31:-1 32:-1 33:1 34:-1 35:-1 
24064 1:0.0992995 2:0.716637 3:0.410612 4:-0.530104 5:-0.946065 6:0.0794739 7:-0.871567 8:0.0731789 9:0.167821 10:0.674342 11:0.0608583 12:-0.146829 13:-0.841324 14:-1 15:-1 16:-1 17:-1 18:-1 19:1 20:-1 21:-1 22:-1 23:-1 24:-1 25:-1 26:-1 27:-1 28:1 29:-1 30:-1 31:-1 32:-1 33:1 34:-1 35:-1 
24064 1:-0.392749 2:0.30569 3:-0.251509 4:-0.240667 5:-0.823145 6:0.244426 7:-0.836665 8:0.00816803 9:-0.0876926 10:0.813045 11:-0.664178 12:-0.0183933 13:-0.866897 14:-1 15:-1 16:-1 17:-1 18:-1 19:1 20:-1 21:-1 22:-1 23:-1 24:-1 25:-1 26:-1 27:1 28:-1 29:-1 30:-1 31:-1 32:1 33:-1 34:-1 35:-1 
24064 1:0.598954 2:0.532979 3:-0.969929 4:-0.110133 5:-1 6:0.225048 7:-0.908516 8:-0.209535 9:0.21713 10:0.516519 11:-0.0946873 12:-0.62169 13:-0.228462 14:-1 15:-1 16:-1 17:-1 18:-1 19:1 20:-1 21:-1 22:-1 23:-1 24:-1 25:-1 26:-1 27:1 28:-1 29:-1 30:-1 31:-1 32:-1 33:1 34:-1 35:-1 
24064 1:0.3678 2:0.5505 3:-0.669025 4:-0.243811 5:-0.674527 6:-0.139905 7:-0.460215 8:0.0171695 9:-0.0434261 10:0.863461 11:-0.574258 12:-0.222082 13:-0.773993 14:-1 15:-1 16:-1 17:1 18:-1 19:-1 20:-1 21:-1 22:-1 23:-1 24:-1 25:-1 26:1 27:-1 28:-1 29:-1 30:-1 31:-1 32:1 33:-1 34:-1 35:-1 
24064 1:-0.427716 2:0.283885 3:-0.207689 4:-0.728723 5:-0.923656 6:0.183347 7:-0.955348 8:-0.422904 9:-0.0347008 10:0.868196 11:-0.567504 12:0.02712 13:-0.792918 14:-1 15:-1 16:-1 17:-1 18:-1 19:1 20:-1 21:-1 22:-1 23:-1 24:-1 25:-1 26:-1 27:1 28:-1 29:-1 30:-1 31:-1 32:1 33:-1 34:-1 35:-1 
24064 1:0.294615 2:0.674521 3:-0.49028 4:-0.197521 5:-0.175921 6:0.231899 7:-0.798942 8:0.223537 9:-0.00532319 10:0.436383 11:-0.755357 12:-0.0266634 13:0.38668 14:-1 15:-1 16:-1 17:-1 18:1 19:-1 20:-1 21:-1 22:-1 23:-1 24:-1 25:-1 26:-1 27:-1 28:1 29:-1 30:-1 31:-1 32:1 33:-1 34:-1 35:-1 
24064 1:0.80313 2:0.648267 3:-0.964755 4:0.0948044 5:-0.999944 6:0.0488797 7:-0.677244 8:-0.516586 9:-0.036702 10:0.944331 11:0.419704 12:-0.534545 13:-0.45663 14:-1 15:-1 16:-1 17:-1 18:-1 19:1 20:-1 21:-1 22:-1 23:-1 24:-1 25:-1 26:1 27:-1 28:-1 29:-1 30:-1 31:-1 32:-1 33:1 34:-1 35:-1 
24064 1:0.39815 2:0.488996 3:-0.910609 4:-0.59342 5:-0.605737 6:0.187526 7:-0.888572 8:0.400567 9:-0.419732 10:-0.0497393 11:-0.351491 12:0.227684 13:-0.487478 14:-1 15:-1 16:-1 17:-1 18:1 19:-1 20:-1 21:-1 22:-1 23:-1 24:-1 25:-1 26:-1 27:1 28:-1 29:-1 30:-1 31:-1 32:-1 33:1 34:-1 35:-1 
24064 1:-0.177249 2:0.541069 3:-0.969515 4:-0.412906 5:-0.066038 6:-0.0194466 7:-0.72875 8:-0.196199 9:0.0271763 10:0.933826 11:-0.353842 12:-0.314713 13:0.93711 14:-1 15:-1 16:-1 17:-1 18:-1 19:1 20:-1 21:-1 22:-1 23:-1 24:-1 25:-1 26:-1 27:-1 28:1 29:-1 30:-1 31:-1 32:1 33:-1 34:-1 35:-1 
24064 1:0.432877 2:0.797643 3:-0.303107 4:0.110801 5:-0.756775 6:0.180773 7:-1 8:0.156193 9:-0.079928 10:0.492352 11:-0.141368 12:0.205038 13:-0.926626 14:-1 15:-1 16:-1 17:-1 18:-1 19:1 20:-1 21:-1 22:-1 23:-1 24:-1 25:-1 26:-1 27:1 28:-1 29:-1 30:-1 31:-1 32:-1 33:1 34:-1 35:-1 
24064 1:0.514887 2:0.786006 3:-0.963035 4:-0.1955 5:-0.558408 6:0.00470557 7:-1 8:-0.309885 9:-0.161657 10:0.909555 11:-0.580406 12:0.0703 13:-0.525052 14:-1 15:-1 16:-1 17:-1 18:-1 19:1 20:-1 21:-1 22:-1 23:-1 24:-1 25:-1 26:-1 27:-1 28:-1 29:1 30:-1 31:-1 32:1 33:-1 34:-1 35:-1 
24064 1:0.78487 2:0.651065 3:-0.966427 4:-0.240801 5:0.78928 6:0.00701347 7:-0.740526 8:0.171862 9:-0.0171703 10:0.638444 11:-0.0227314 12:0.151693 13:-0.0841908 14:-1 15:-1 16:-1 17:-1 18:1 19:-1 20:-1 21:-1 22:-1 23:-1 24:-1 25:-1 26:-1 27:1 28:-1 29:-1 30:-1 31:-1 32:-1 33:1 34:-1 35:-1 
24064 1:-0.440308 2:0.337337 3:-0.270341 4:-0.508049 5:-0.99843 6:0.212603 7:-0.887625 8:-0.265211 9:-0.101701 10:0.886596 11:-0.523089 12:-0.199011 13:-0.752473 14:-1 15:-1 16:-1 17:-1 18:-1 19:-1 20:1 21:-1 22:-1 23:-1 24:-1 25:-1 26:1 27:-1 28:-1 29:-1 30:-1 31:-1 32:1 33:-1 34:-1 35:-1 
24064 1:0.159414 2:0.61321 3:-0.899669 4:0.313066 5:-0.465692 6:-0.016027 7:-0.700798 8:-0.266544 9:0.792596 10:0.380913 11:-0.102719 12:-0.109067 13:-0.935219 14:-1 15:-1 16:-1 17:-1 18:-1 19:1 20:-1 21:-1 22:-1 23:-1 24:-1 25:-1 26:-1 27:-1 28:-1 29:1 30:-1 31:-1 32:-1 33:1 34:-1 35:-1 
24064 1:-0.17854 2:0.614466 3:-0.149393 4:0.188112 5:-0.49925 6:0.146561 7:-1 8:0.371562 9:-0.0335801 10:0.755361 11:-0.696362 12:0.0921042 13:0.567317 14:-1 15:-1 16:-1 17:-1 18:-1 19:-1 20:1 21:-1 22:-1 23:-1 24:-1 25:-1 26:-1 27:1 28:-1 29:-1 30:-1 31:-1 32:1 33:-1 34:-1 35:-1 
21294.92692186195 1:0.213167 2:0.465132 3:-0.53709 4:-0.150656 5:-0.391679 6:0.0431758 7:-0.628217 8:-0.196533 9:-0.065039 10:0.985787 11:-0.334333 12:0.214622 13:-0.491033 14:-1 15:-1 16:-1 17:-1 18:-1 19:-1 20:-1 21:-1 22:1 23:-1 24:-1 25:-1 26:-1 27:-1 28:1 29:-1 30:-1 31:-1 32:1 33:-1 34:-1 35:-1 
24064 1:-0.142868 2:0.508949 3:0.254624 4:-0.201313 5:0.344144 6:0.170165 7:-0.774986 8:-0.108185 9:-0.498419 10:0.718693 11:-0.0128317 12:-0.177451 13:0.269048 14:-1 15:-1 16:-1 17:-1 18:-1 19:-1 20:-1 21:-1 22:1 23:-1 24:-1 25:-1 26:1 27:-1 28:-1 29:-1 30:-1 31:-1 32:-1 33:1 34:-1 35:-1 
24064 1:0.283577 2:0.345461 3:-0.882441 4:0.20579 5:-0.176375 6:0.0178807 7:-0.780098 8:-0.273546 9:-0.325355 10:0.33878 11:-0.226418 12:-0.0781196 13:0.598436 14:-1 15:-1 16:-1 17:1 18:-1 19:-1 20:-1 21:-1 22:-1 23:-1 24:-1 25:-1 26:-1 27:1 28:-1 29:-1 30:-1 31:-1 32:-1 33:1 34:-1 35:-1 
24064 1:0.210057 2:0.626897 3:-0.80291 4:-0.814151 5:-0.974532 6:0.333231 7:-0.902645 8:-0.332222 9:-0.290774 10:0.915911 11:-0.592125 12:-0.271396 13:-0.237786 14:-1 15:-1 16:-1 17:-1 18:-1 19:1 20:-1 21:-1 22:-1 23:-1 24:-1 25:-1 26:-1 27:-1 28:1 29:-1 30:-1 31:-1 32:1 33:-1 34:-1 35:-1 
24064 1:0.0259591 2:0.200383 3:-0.721403 4:-0.0708417 5:-0.810227 6:-0.026185 7:-0.773692 8:-0.437573 9:-0.0103662 10:0.927382 11:-0.380745 12:-0.152872 13:-0.538045 14:-1 15:-1 16:-1 17:1 18:-1 19:-1 20:-1 21:-1 22:-1 23:-1 24:-1 25:-1 26:1 27:-1 28:-1 29:-1 30:-1 31:-1 32:1 33:-1 34:-1 35:-1 
24064 1:-0.318704 2:0.48607 3:-0.972532 4:0.377625 5:0.527011 6:-0.00752411 7:-0.569719 8:0.117186 9:0.646588 10:0.153339 11:-0.308177 12:0.0233322 13:-0.679593 14:-1 15:-1 16:-1 17:-1 18:-1 19:-1 20:1 21:-1 22:-1 23:-1 24:-1 25:-1 26:1 27:-1 28:-1 29:-1 30:-1 31:-1 32:-1 33:1 34:-1 35:-1 
24064 1:0.429672 2:0.446812 3:-0.907148 4:0.0404161 5:-0.553359 6:-0.147001 7:-0.448703 8:-0.129188 9:0.0615169 10:0.794712 11:-0.585843 12:-0.0351742 13:-0.7336 14:-1 15:-1 16:-1 17:-1 18:-1 19:-1 20:-1 21:-0.333333 22:-1 23:-1 24:-1 25:-1 26:1 27:-1 28:-1 29:-1 30:-1 31:-1 32:1 33:-1 34:-1 35:-1 
24064 1:-0.137248 2:0.649496 3:-0.269431 4:-0.446542 5:0.871452 6:0.111517 7:-0.926079 8:0.0971829 9:-0.0118071 10:0.0534162 11:-0.33407 12:0.471947 13:0.0194729 14:-1 15:-1 16:-1 17:-1 18:1 19:-1 20:-1 21:-1 22:-1 23:-1 24:-1 25:-1 26:-1 27:1 28:-1 29:-1 30:-1 31:-1 32:-1 33:1 34:-1 35:-1 
24064 1:-0.216627 2:0.65543 3:-0.706063 4:-0.297656 5:-0.78558 6:0.0560005 7:-0.428915 8:-0.338223 9:0.41685 10:-0.320197 11:-0.400442 12:0.0194067 13:-0.240066 14:-1 15:-1 16:-1 17:-1 18:-1 19:1 20:-1 21:-1 22:-1 23:-1 24:-1 25:-1 26:-1 27:-1 28:1 29:-1 30:-1 31:-1 32:-1 33:1 34:-1 35:-1 
12949.53395961596 1:0.083646 2:0.566533 3:-0.925278 4:0.230202 5:0.0744602 6:-0.0687503 7:-0.419043 8:-0.0285048 9:-0.998319 10:0.675319 11:-0.092819 12:0.452751 13:0.7489 14:-1 15:-1 16:-1 17:-1 18:1 19:-1 20:-1 21:-1 22:-1 23:-1 24:-1 25:-1 26:1 27:-1 28:-1 29:-1 30:-1 31:-1 32:-1 33:1 34:-1 35:-1 
24064 1:0.217914 2:0.501107 3:-0.757567 4:-0.674613 5:-0.121878 6:0.321064 7:-1 8:-0.508251 9:-0.0256554 10:0.862811 11:-0.7184 12:0.413503 13:-0.708522 14:-1 15:-1 16:-1 17:-1 18:-1 19:-1 20:-1 21:-0.333333 22:-1 23:-1 24:-1 25:-1 26:-1 27:1 28:-1 29:-1 30:-1 31:-1 32:1 33:-1 34:-1 35:-1 
24064 1:0.296432 2:0.820231 3:-0.95052 4:0.645967 5:-0.137819 6:-0.0540919 7:-0.58279 8:-0.201867 9:-0.0562337 10:0.915691 11:0.21409 12:-0.130749 13:0.923501 14:-1 15:-1 16:-1 17:-1 18:1 19:-1 20:-1 21:-1 22:-1 23:-1 24:-1 25:-1 26:-1 27:-1 28:-1 29:1 30:-1 31:-1 32:-1 33:1 34:-1 35:-1 
24064 1:0.0884174 2:0.494773 3:-0.737455 4:0.034781 5:-0.889953 6:0.410067 7:-0.67035 8:-0.508251 9:0.0770462 10:0.541383 11:-0.102214 12:0.220355 13:-0.881556 14:-1 15:-1 16:-1 17:-1 18:-1 19:-1 20:-1 21:-0.333333 22:-1 23:-1 24:-1 25:-1 26:-1 27:1 28:-1 29:-1 30:-1 31:-1 32:-1 33:1 34:-1 35:-1 
24064 1:0.632126 2:0.632013 3:-0.836728 4:0.305968 5:0.990742 6:-0.00914748 7:-0.878639 8:-0.269545 9:-0.211127 10:-0.415282 11:-0.314882 12:0.220136 13:0.631684 14:-1 15:-1 16:-1 17:-1 18:1 19:-1 20:-1 21:-1 22:-1 23:-1 24:-1 25:-1 26:-1 27:-1 28:1 29:-1 30:-1 31:-1 32:-1 33:1 34:-1 35:-1 
24064 1:0.133584 2:0.542231 3:-0.661654 4:-0.614918 5:0.331534 6:0.262475 7:-0.879167 8:-0.00916819 9:-0.0131679 10:0.975099 11:-0.477402 12:-0.213884 13:0.577433 14:-1 15:-1 16:-1 17:-1 18:-1 19:1 20:-1 21:-1 22:-1 23:-1 24:-1 25:-1 26:-1 27:1 28:-1 29:-1 30:-1 31:-1 32:1 33:-1 34:-1 35:-1 
24064 1:0.0584499 2:0.258151 3:-0.789333 4:0.254106 5:-0.743665 6:0.0081417 7:-0.64112 8:-0.104851 9:-0.352812 10:0.70086 11:-0.0181198 12:0.0667999 13:-0.83087 14:-1 15:-1 16:-1 17:-1 18:-1 19:1 20:-1 21:-1 22:-1 23:-1 24:-1 25:-1 26:-1 27:1 28:-1 29:-1 30:-1 31:-1 32:-1 33:1 34:-1 35:-1 
24064 1:0.319261 2:0.831848 3:-0.515714 4:-0.409987 5:-0.847238 6:0.145136 7:-0.870284 8:-0.125521 9:-0.0588753 10:0.742342 11:-0.663292 12:-0.0623396 13:-0.949592 14:-1 15:-1 16:-1 17:-1 18:-1 19:1 20:-1 21:-1 22:-1 23:-1 24:-1 25:-1 26:-1 27:-1 28:1 29:-1 30:-1 31:-1 32:1 33:-1 34:-1 35:-1 
24064 1:-0.512835 2:0.235291 3:-0.801475 4:-0.525693 5:-0.925644 6:0.246557 7:-0.889545 8:-0.300217 9:-0.101861 10:-0.0180532 11:-0.349682 12:0.158258 13:-0.993802 14:-1 15:-1 16:-1 17:-1 18:1 19:-1 20:-1 21:-1 22:-1 23:-1 24:-1 25:-1 26:1 27:-1 28:-1 29:-1 30:-1 31:-1 32:-1 33:1 34:-1 35:-1 
4120.694436906188 1:-0.55974 2:0.225547 3:-0.553036 4:0.34446 5:0.926853 6:0.204667 7:-1 8:-0.76296 9:0.0494297 10:0.946297 11:-0.409499 12:-0.0988009 13:-0.887141 14:-1 15:-1 16:-1 17:-1 18:1 19:-1 20:-1 21:-1 22:-1 23:-1 24:-1 25:-1 26:-1 27:1 28:-1 29:-1 30:-1 31:-1 32:1 33:-1 34:-1 35:-1 
24064 1:0.346645 2:0.372477 3:-0.717107 4:-0.30239 5:-0.984006 6:0.16494 7:-1 8:-0.267211 9:-0.0571143 10:0.914563 11:-0.425578 12:0.046447 13:0.265162 14:-1 15:-1 16:-1 17:1 18:-1 19:-1 20:-1 21:-1 22:-1 23:-1 24:-1 25:-1 26:1 27:-1 28:-1 29:-1 30:-1 31:-1 32:1 33:-1 34:-1 35:-1 
24064 1:0.251457 2:0.822918 3:-0.615468 4:-0.348306 5:-1 6:-0.0165475 7:-0.883063 8:-0.259543 9:-0.0631979 10:0.957567 11:-0.766902 12:0.224919 13:-0.483778 14:-1 15:-1 16:-1 17:1 18:-1 19:-1 20:-1 21:-1 22:-1 23:-1 24:-1 25:-1 26:-1 27:-1 28:-1 29:1 30:-1 31:-1 32:1 33:-1 34:-1 35:-1 
11721.72707133412 1:-0.284156 2:0.604499 3:-0.817309 4:-0.016817 5:-0.888726 6:0.099467 7:-0.851616 8:-0.35856 9:0.294537 10:0.411798 11:-0.839712 12:-0.202286 13:-0.236212 14:-1 15:-1 16:-1 17:1 18:-1 19:-1 20:-1 21:-1 22:-1 23:-1 24:-1 25:-1 26:-1 27:1 28:-1 29:-1 30:-1 31:-1 32:1 33:-1 34:-1 35:-1 
24064 1:0.0424377 2:0.478314 3:-0.964397 4:-0.603162 5:0.289189 6:0.0820905 7:-0.801442 8:-0.491249 9:0.0230138 10:0.570593 11:-0.0552654 12:0.251872 13:-0.987381 14:-1 15:-1 16:-1 17:-1 18:-1 19:1 20:-1 21:-1 22:-1 23:-1 24:-1 25:-1 26:-1 27:1 28:-1 29:-1 30:-1 31:-1 32:-1 33:1 34:-1 35:-1 
24064 1:0.35211 2:0.40067 3:-0.852653 4:-0.0746136 5:-0.352153 6:0.123479 7:-0.793078 8:-0.167861 9:-0.464158 10:0.272076 11:-0.246287 12:-0.0892422 13:0.75761 14:-1 15:-1 16:-1 17:1 18:-1 19:-1 20:-1 21:-1 22:-1 23:-1 24:-1 25:-1 26:-1 27:1 28:-1 29:-1 30:-1 31:-1 32:-1 33:1 34:-1 35:-1 
24064 1:0.851131 2:0.757977 3:-0.929579 4:-0.461426 5:-0.306043 6:0.0177847 7:-1 8:-0.032172 9:-0.272604 10:0.673392 11:0.024781 12:-0.082239 13:-0.614744 14:-1 15:-1 16:-1 17:-1 18:1 19:-1 20:-1 21:-1 22:-1 23:-1 24:-1 25:-1 26:-1 27:-1 28:1 29:-1 30:-1 31:-1 32:-1 33:1 34:-1 35:-1 
688.4292525256978 1:0.168335 2:0.776439 3:-0.528253 4:-0.331314 5:0.126474 6:0.28786 7:-0.879379 8:0.152192 9:0.0605563 10:0.624383 11:-0.138023 12:-0.201207 13:0.314052 14:-1 15:-1 16:-1 17:-1 18:1 19:-1 20:-1 21:-1 22:-1 23:-1 24:-1 25:-1 26:-1 27:-1 28:1 29:-1 30:-1 31:-1 32:-1 33:1 34:-1 35:-1 
24064 1:-0.302667 2:0.334106 3:0.374244 4:-0.330079 5:-1 6:0.284104 7:-0.834699 8:-0.0528421 9:-0.0685611 10:0.814108 11:-0.637062 12:-0.0737218 13:0.553784 14:-1 15:-1 16:-1 17:-1 18:1 19:-1 20:-1 21:-1 22:-1 23:-1 24:-1 25:-1 26:-1 27:-1 28:1 29:-1 30:-1 31:-1 32:1 33:-1 34:-1 35:-1 
24064 1:-0.0251268 2:0.567667 3:-0.797745 4:-0.413674 5:-0.832943 6:0.0687205 7:-0.607694 8:0.0411735 9:-0.0860116 10:0.831937 11:-0.624471 12:-0.309646 13:-0.0410956 14:-1 15:-1 16:-1 17:1 18:-1 19:-1 20:-1 21:-1 22:-1 23:-1 24:-1 25:-1 26:-1 27:-1 28:1 29:-1 30:-1 31:-1 32:1 33:-1 34:-1 35:-1 
24064 1:0.454414 2:0.750355 3:-0.822797 4:-0.127733 5:-0.703365 6:0.0312923 7:-0.616731 8:-0.233539 9:0.592475 10:0.398045 11:-0.131838 12:0.925651 13:-0.219584 14:-1 15:-1 16:-1 17:-1 18:-1 19:1 20:-1 21:-1 22:-1 23:-1 24:-1 25:-1 26:-1 27:-1 28:1 29:-1 30:-1 31:-1 32:-1 33:1 34:-1 35:-1 
24064 1:-0.0362481 2:0.478186 3:-0.428778 4:-0.163112 5:-0.834856 6:0.163854 7:-0.687632 8:-0.405568 9:-0.236182 10:0.163635 11:-0.237327 12:0.142184 13:-0.16735 14:-1 15:-1 16:-1 17:-1 18:-1 19:-1 20:1 21:-1 22:-1 23:-1 24:-1 25:-1 26:-1 27:-1 28:-1 29:-1 30:-1 31:1 32:-1 33:1 34:-1 35:-1 
24064 1:0.304337 2:0.619603 3:-0.945019 4:-0.296239 5:-0.186418 6:0.0228322 7:-0.754912 8:-0.0308385 9:-0.00228137 10:0.853294 11:0.204029 12:-0.127899 13:-0.562861 14:-1 15:-1 16:-1 17:1 18:-1 19:-1 20:-1 21:-1 22:-1 23:-1 24:-1 25:-1 26:-1 27:1 28:-1 29:-1 30:-1 31:-1 32:-1 33:1 34:-1 35:-1 
24064 1:-0.853959 2:0.653644 3:0.107422 4:-0.672068 5:-0.989912 6:0.0356483 7:-0.604949 8:0.103517 9:-0.294697 10:0.757137 11:-0.00802674 12:0.0142489 13:-0.265031 14:-1 15:-1 16:-1 17:1 18:-1 19:-1 20:-1 21:-1 22:-1 23:-1 24:-1 25:-1 26:-1 27:-1 28:1 29:-1 30:-1 31:-1 32:-1 33:1 34:-1 35:-1 
2498.36563151385 1:-0.554386 2:0.625578 3:-0.749299 4:-0.0755407 5:-0.152934 6:-0.0972008 7:-0.880249 8:0.133856 9:0.118911 10:0.703071 11:0.0558064 12:0.114215 13:0.653846 14:-1 15:-1 16:-1 17:1 18:-1 19:-1 20:-1 21:-1 22:-1 23:-1 24:-1 25:-1 26:-1 27:-1 28:-1 29:1 30:-1 31:-1 32:-1 33:1 34:-1 35:-1 
10611.66772237741 1:-0.838105 2:0.235029 3:-0.820044 4:-0.463303 5:-0.999812 6:0.484962 7:-0.929433 8:-0.0845141 9:-0.028377 10:0.937606 11:-0.332862 12:0.164749 13:-0.956105 14:-1 15:-1 16:-1 17:-1 18:-1 19:-1 20:-1 21:0.333333 22:-1 23:-1 24:-1 25:-1 26:-1 27:-1 28:1 29:-1 30:-1 31:-1 32:1 33:-1 34:-1 35:-1 
24064 1:-0.276814 2:0.432777 3:-0.549337 4:0.107692 5:-1 6:-0.00119086 7:-0.479732 8:-0.465911 9:0.000120072 10:0.936374 11:-0.382275 12:0.0262567 13:-0.631376 14:-1 15:-1 16:-1 17:-1 18:-1 19:1 20:-1 21:-1 22:-1 23:-1 24:-1 25:-1 26:-1 27:-1 28:1 29:-1 30:-1 31:-1 32:1 33:-1 34:-1 35:-1 
24064 1:0.298394 2:0.863213 3:-0.780112 4:-0.544947 5:-0.677382 6:0.0514286 7:-0.826419 8:0.44024 9:-0.780748 10:0.369009 11:-0.240628 12:0.0804467 13:-0.982133 14:-1 15:-1 16:-1 17:-1 18:1 19:-1 20:-1 21:-1 22:-1 23:-1 24:-1 25:-1 26:-1 27:-1 28:-1 29:1 30:-1 31:-1 32:-1 33:1 34:-1 35:-1 
8925.789915011097 1:0.37238 2:0.403766 3:-0.996038 4:-0.308988 5:0.665954 6:0.231214 7:-1 8:-0.340223 9:-0.071603 10:0.737129 11:0.00748327 12:-0.141925 13:0.404704 14:-1 15:-1 16:-1 17:-1 18:-1 19:1 20:-1 21:-1 22:-1 23:-1 24:-1 25:-1 26:1 27:-1 28:-1 29:-1 30:-1 31:-1 32:-1 33:1 34:-1 35:-1 
24064 1:-0.130922 2:0.391946 3:-0.741442 4:-0.352166 5:-0.641966 6:-0.0708569 7:-0.340786 8:0.0258376 9:-0.176546 10:0.454605 11:-0.146522 12:0.227496 13:-0.320133 14:-1 15:-1 16:-1 17:1 18:-1 19:-1 20:-1 21:-1 22:-1 23:-1 24:-1 25:-1 26:1 27:-1 28:-1 29:-1 30:-1 31:-1 32:-1 33:1 34:-1 35:-1 
24064 1:-0.150773 2:0.517256 3:-0.133432 4:-0.140895 5:-1 6:0.241392 7:-1 8:-0.232872 9:-0.985912 10:0.112343 11:-0.421396 12:-0.0020722 13:-0.394825 14:-1 15:-1 16:-1 17:-1 18:-1 19:-1 20:-1 21:1 22:-1 23:-1 24:-1 25:-1 26:-1 27:-1 28:1 29:-1 30:-1 31:-1 32:-1 33:1 34:-1 35:-1 
24064 1:-0.559401 2:0.297638 3:-0.575449 4:-0.0732048 5:-1 6:0.194483 7:-0.634458 8:-0.213202 9:0.248669 10:0.699667 11:-0.616158 12:0.0218089 13:0.716312 14:-1 15:-1 16:-1 17:-1 18:-1 19:1 20:-1 21:-1 22:-1 23:-1 24:-1 25:-1 26:-1 27:-1 28:1 29:-1 30:-1 31:-1 32:1 33:-1 34:-1 35:-1 
-512 1:0.222745 2:0.392245 3:-0.819263 4:-0.822441 5:-0.907472 6:-0.0690734 7:-0.144521 8:0.0668445 9:-0.130518 10:0.924328 11:-0.574189 12:-0.335867 13:-0.989162 14:1 15:-1 16:-1 17:-1 18:-1 19:-1 20:-1 21:-1 22:-1 23:1 24:-1 25:-1 26:-1 27:-1 28:-1 29:-1 30:-1 31:-1 32:-1 33:-1 34:-1 35:1 
-512 1:0.222745 2:0.603147 3:-0.645005 4:-0.40161 5:-0.84239 6:-0.0518649 7:-0.338816 8:-0.221537 9:-0.130518 10:0.924328 11:-0.574189 12:-0.33562 13:-0.887156 14:1 15:-1 16:-1 17:-1 18:-1 19:-1 20:-1 21:-1 22:-1 23:1 24:-1 25:-1 26:-1 27:-1 28:-1 29:-1 30:-1 31:-1 32:-1 33:-1 34:-1 35:1 
-512 1:0.222745 2:0.603147 3:-0.645005 4:-0.482447 5:-0.974483 6:-0.0638979 7:-0.144521 8:-0.221537 9:-0.130518 10:0.924328 11:-0.574189 12:-0.758827 13:-0.978765 14:1 15:-1 16:-1 17:-1 18:-1 19:-1 20:-1 21:-1 22:-1 23:1 24:-1 25:-1 26:-1 27:-1 28:-1 29:-1 30:-1 31:-1 32:-1 33:-1 34:-1 35:1 
-512 1:0.778556 2:0.769734 3:-0.871088 4:0.383824 5:-0.999718 6:0.0323677 7:-0.898333 8:0.359893 9:0.231619 10:0.927573 11:-0.498033 12:0.356511 13:0.988003 14:-1 15:1 16:-1 17:-1 18:-1 19:-1 20:-1 21:-1 22:-1 23:-1 24:-1 25:-1 26:-1 27:-1 28:-1 29:1 30:-1 31:-1 32:-1 33:-1 34:1 35:-1 
-512 1:-0.862964 2:-0.23537 3:-0.714676 4:-0.616298 5:-0.930242 6:0.117908 7:-0.791404 8:-0.116853 9:-0.15013 10:0.997371 11:-0.218091 12:-0.846038 13:0.895393 14:1 15:-1 16:-1 17:-1 18:-1 19:-1 20:-1 21:-1 22:-1 23:-1 24:-1 25:-1 26:-1 27:1 28:-1 29:-1 30:-1 31:-1 32:-1 33:-1 34:1 35:-1 
-512 1:-0.862964 2:-0.23537 3:-0.714676 4:-0.626726 5:-0.997566 6:0.117525 7:-0.791404 8:-0.116853 9:0.257635 10:0.996038 11:-0.218091 12:-0.0758707 13:-0.888036 14:1 15:-1 16:-1 17:-1 18:-1 19:-1 20:-1 21:-1 22:-1 23:-1 24:-1 25:-1 26:-1 27:1 28:-1 29:-1 30:-1 31:-1 32:-1 33:-1 34:1 35:-1 
-512 1:-0.0992923 2:0.65627 3:-0.065756 4:-0.0386487 5:-0.969709 6:-0.131507 7:-0.258923 8:-0.240873 9:0.393476 10:0.872103 11:-0.636097 12:0.0534909 13:-0.697664 14:1 15:-1 16:-1 17:-1 18:-1 19:-1 20:-1 21:-1 22:-1 23:-1 24:-1 25:-1 26:-1 27:1 28:-1 29:-1 30:-1 31:-1 32:-1 33:-1 34:1 35:-1 
-512 1:-0.0992923 2:0.65627 3:-0.065756 4:-0.0386487 5:-0.997678 6:-0.120718 7:-0.264492 8:-0.240873 9:0.434861 10:0.860568 11:-0.636097 12:0.0534909 13:-0.697664 14:1 15:-1 16:-1 17:-1 18:-1 19:-1 20:-1 21:-1 22:-1 23:-1 24:-1 25:-1 26:-1 27:1 28:-1 29:-1 30:-1 31:-1 32:-1 33:-1 34:1 35:-1 
-512 1:-0.0992923 2:0.65627 3:-0.065756 4:-0.0386487 5:-0.999865 6:-0.117623 7:-0.268695 8:-0.240873 9:0.439824 10:0.878729 11:-0.636097 12:0.0534909 13:-0.697664 14:1 15:-1 16:-1 17:-1 18:-1 19:-1 20:-1 21:-1 22:-1 23:-1 24:-1 25:-1 26:-1 27:1 28:-1 29:-1 30:-1 31:-1 32:-1 33:-1 34:1 35:-1 
-512 1:0.205788 2:0.842677 3:-0.122191 4:-0.866112 5:-0.967811 6:-0.000865341 7:-0.635939 8:0.0755126 9:0.274205 10:0.890544 11:-0.523068 12:-0.948825 13:-0.885157 14:1 15:-1 16:-1 17:-1 18:-1 19:-1 20:-1 21:-1 22:-1 23:-1 24:-1 25:-1 26:1 27:-1 28:-1 29:-1 30:-1 31:-1 32:-1 33:-1 34:1 35:-1 
-512 1:-0.139783 2:0.585996 3:-0.406774 4:0.207171 5:0.172944 6:0.0491362 7:-0.901163 8:-0.0101684 9:0.0102862 10:-0.357811 11:-0.369449 12:0.0640193 13:0.17903 14:-1 15:-1 16:-1 17:-1 18:-1 19:1 20:-1 21:-1 22:-1 23:-1 24:-1 25:-1 26:-1 27:-1 28:1 29:-1 30:-1 31:-1 32:-1 33:1 34:-1 35:-1 
-512 1:-0.139783 2:0.585996 3:-0.406774 4:0.237083 5:-0.0681836 6:0.0385069 7:-0.861304 8:-0.0101684 9:0.0102862 10:-0.357811 11:-0.369449 12:-0.395831 13:-0.214746 14:-1 15:-1 16:-1 17:-1 18:-1 19:1 20:-1 21:-1 22:-1 23:-1 24:-1 25:-1 26:-1 27:-1 28:1 29:-1 30:-1 31:-1 32:-1 33:1 34:-1 35:-1 
-512 1:0.0677415 2:0.361591 3:-0.448934 4:-0.0849478 5:-0.52759 6:0.0998918 7:-0.84123 8:0.0721787 9:0.11659 10:0.753967 11:-0.714047 12:-0.252948 13:0.505617 14:1 15:-1 16:-1 17:-1 18:-1 19:-1 20:-1 21:-1 22:-1 23:1 24:-1 25:-1 26:-1 27:-1 28:-1 29:-1 30:-1 31:-1 32:-1 33:-1 34:-1 35:1 
-512 1:0.0792813 2:0.156167 3:-0.785083 4:-0.502461 5:0.200793 6:-0.127778 7:-0.956544 8:-0.162194 9:0.255233 10:0.968482 11:-0.310754 12:-0.573533 13:0.233679 14:1 15:-1 16:-1 17:-1 18:-1 19:-1 20:-1 21:-1 22:-1 23:-1 24:-1 25:-1 26:-1 27:1 28:-1 29:-1 30:-1 31:-1 32:-1 33:-1 34:1 35:-1 
-512 1:0.30332 2:0.825129 3:0.0228618 4:-0.46119 5:-0.998706 6:-0.209272 7:-0.797145 8:0.61827 9:0.606404 10:0.834973 11:0.385978 12:0.0999395 13:0.303446 14:-1 15:-1 16:-1 17:-1 18:-1 19:1 20:-1 21:-1 22:-1 23:-1 24:-1 25:-1 26:-1 27:-1 28:1 29:-1 30:-1 31:-1 32:-1 33:1 34:-1 35:-1 
-512 1:0.30332 2:0.812977 3:0.025791 4:-0.46119 5:-0.998706 6:-0.213262 7:-0.797145 8:-0.0755126 9:0.606404 10:0.834973 11:0.385978 12:0.0999395 13:0.303446 14:-1 15:-1 16:-1 17:-1 18:-1 19:1 20:-1 21:-1 22:-1 23:-1 24:-1 25:-1 26:-1 27:-1 28:1 29:-1 30:-1 31:-1 32:-1 33:1 34:-1 35:-1 
-512 1:0.30332 2:0.903505 3:0.125128 4:-0.420711 5:-0.275009 6:-0.238725 7:-0.558588 8:0.823304 9:0.222013 10:0.935156 11:-0.392378 12:-0.0600938 13:0.448392 14:-1 15:-1 16:1 17:-1 18:-1 19:-1 20:-1 21:-1 22:-1 23:-1 24:-1 25:-1 26:-1 27:-1 28:1 29:-1 30:-1 31:-1 32:-1 33:-1 34:1 35:-1 
-512 1:0.30332 2:0.903505 3:0.125128 4:-0.779898 5:-0.579016 6:-0.239478 7:-0.558588 8:0.823304 9:-0.14941 10:0.994296 11:-0.392378 12:0.11611 13:-0.256606 14:-1 15:-1 16:1 17:-1 18:-1 19:-1 20:-1 21:-1 22:-1 23:-1 24:-1 25:-1 26:-1 27:-1 28:1 29:-1 30:-1 31:-1 32:-1 33:-1 34:1 35:-1 
-512 1:0.0446021 2:0.318824 3:-0.794113 4:-0.84083 5:-0.999472 6:0.258072 7:-0.802087 8:-0.514919 9:-0.256274 10:0.993475 11:-0.551015 12:-0.119873 13:0.491056 14:-1 15:-1 16:-1 17:-1 18:-1 19:-1 20:-1 21:0.333333 22:-1 23:-1 24:-1 25:-1 26:-1 27:-1 28:1 29:-1 30:-1 31:-1 32:1 33:-1 34:-1 35:-1 
-512 1:0.359764 2:0.747547 3:-0.586776 4:-0.341451 5:0.885742 6:-0.0531588 7:-1 8:-0.276879 9:-0.139884 10:0.96093 11:-0.510913 12:-0.241321 13:0.197779 14:1 15:-1 16:-1 17:-1 18:-1 19:-1 20:-1 21:-1 22:-1 23:-1 24:1 25:-1 26:-1 27:-1 28:-1 29:-1 30:-1 31:-1 32:-1 33:-1 34:-1 35:1 
-512 1:0.518259 2:0.430103 3:-0.89227 4:-0.934664 5:0.0357511 6:0.130039 7:-0.53798 8:-0.156859 9:0.21681 10:0.922155 11:-0.458343 12:0.246654 13:0.260655 14:1 15:-1 16:-1 17:-1 18:-1 19:-1 20:-1 21:-1 22:-1 23:-1 24:-1 25:-1 26:-1 27:1 28:-1 29:-1 30:-1 31:-1 32:-1 33:-1 34:1 35:-1 
-512 1:-0.645008 2:0.665435 3:0.782652 4:0.385196 5:-0.380523 6:-0.0294424 7:-0.549679 8:-0.0705118 9:-0.0030018 10:0.903625 11:-0.660931 12:0.836351 13:0.842611 14:1 15:-1 16:-1 17:-1 18:-1 19:-1 20:-1 21:-1 22:-1 23:-1 24:-1 25:1 26:-1 27:-1 28:-1 29:-1 30:-1 31:-1 32:-1 33:-1 34:-1 35:1 
-512 1:-0.645008 2:0.665435 3:0.782652 4:0.385196 5:-0.997592 6:-0.0349462 7:-0.558387 8:-0.0705118 9:-0.00836502 10:0.92876 11:-0.348828 12:0.836351 13:0.842611 14:1 15:-1 16:-1 17:-1 18:-1 19:-1 20:-1 21:-1 22:-1 23:-1 24:-1 25:1 26:-1 27:-1 28:-1 29:-1 30:-1 31:-1 32:-1 33:-1 34:-1 35:1 
-512 1:-0.12877 2:0.666575 3:0.969981 4:-0.666492 5:-0.998304 6:0.22799 7:-0.861019 8:-0.0181697 9:0.111227 10:0.920785 11:-0.525157 12:-0.296109 13:-0.57211 14:1 15:-1 16:-1 17:-1 18:-1 19:-1 20:-1 21:-1 22:-1 23:-1 24:-1 25:-1 26:-1 27:1 28:-1 29:-1 30:-1 31:-1 32:-1 33:-1 34:1 35:-1 
-512 1:-0.12877 2:0.666575 3:0.969981 4:-0.600004 5:-0.996455 6:0.228021 7:-0.861019 8:-0.0181697 9:0.381069 10:0.850747 11:-0.525157 12:-0.335 13:0.157622 14:1 15:-1 16:-1 17:-1 18:-1 19:-1 20:-1 21:-1 22:-1 23:-1 24:-1 25:-1 26:-1 27:1 28:-1 29:-1 30:-1 31:-1 32:-1 33:-1 34:1 35:-1 
-512 1:0.107503 2:0.570995 3:0.116819 4:-0.126393 5:-0.384696 6:-0.228138 7:-0.415555 8:0.09985 9:0.377066 10:0.973201 11:-0.672664 12:0.869975 13:-0.0434653 14:-1 15:-1 16:0.5 17:-1 18:-1 19:-1 20:-1 21:-1 22:-1 23:-1 24:-1 25:-1 26:1 27:-1 28:-1 29:-1 30:-1 31:-1 32:-1 33:-1 34:1 35:-1 
-512 1:-0.313418 2:0.104898 3:-0.669877 4:-0.437238 5:-0.999901 6:0.0972209 7:-0.458466 8:-0.228871 9:-0.0909746 10:0.832644 11:-0.824345 12:-0.262982 13:-0.943867 14:1 15:-1 16:-1 17:-1 18:-1 19:-1 20:-1 21:-1 22:-1 23:1 24:-1 25:-1 26:-1 27:-1 28:-1 29:-1 30:-1 31:-1 32:-1 33:-1 34:-1 35:1 
-512 1:-0.313418 2:0.264122 3:-0.663141 4:-0.547045 5:-0.999533 6:0.0941057 7:-0.458466 8:-0.950325 9:-0.0909746 10:0.832644 11:-0.824345 12:0.107015 13:-0.664115 14:-1 15:-1 16:1 17:-1 18:-1 19:-1 20:-1 21:-1 22:-1 23:1 24:-1 25:-1 26:-1 27:-1 28:-1 29:-1 30:-1 31:-1 32:-1 33:-1 34:-1 35:1 
-512 1:-0.464667 2:0.976384 3:0.830033 4:-0.709745 5:0.0739693 6:0.937492 7:-0.862004 8:-0.190865 9:0.269802 10:0.983975 11:-0.362266 12:0.0751325 13:-0.567294 14:-1 15:-1 16:0.5 17:-1 18:-1 19:-1 20:-1 21:-1 22:-1 23:-1 24:-1 25:-1 26:-1 27:1 28:-1 29:-1 30:-1 31:-1 32:-1 33:-1 34:1 35:-1 
-512 1:-0.464667 2:0.976384 3:0.830033 4:-0.709745 5:0.176249 6:0.940067 7:-0.862004 8:-0.190865 9:0.208405 10:0.982241 11:-0.362266 12:0.0751325 13:-0.567294 14:-1 15:-1 16:0.5 17:-1 18:-1 19:-1 20:-1 21:-1 22:-1 23:-1 24:-1 25:-1 26:-1 27:1 28:-1 29:-1 30:-1 31:-1 32:-1 33:-1 34:1 35:-1 
-512 1:-0.146839 2:0.226767 3:-0.631474 4:-0.240389 5:-0.99999 6:-0.0140853 7:-0.576707 8:0.938323 9:0.321193 10:0.82612 11:-0.633059 12:0.0254904 13:-0.0723784 14:-1 15:1 16:-1 17:-1 18:-1 19:-1 20:-1 21:-1 22:-1 23:-1 24:-1 25:-1 26:-1 27:1 28:-1 29:-1 30:-1 31:-1 32:-1 33:-1 34:1 35:-1 
-512 1:-0.146839 2:0.226767 3:-0.631474 4:-0.000929527 5:-0.882999 6:0.0120463 7:-0.659979 8:0.938323 9:0.519392 10:0.67997 11:-0.633059 12:0.201116 13:0.147166 14:-1 15:1 16:-1 17:-1 18:-1 19:-1 20:-1 21:-1 22:-1 23:-1 24:-1 25:-1 26:-1 27:1 28:-1 29:-1 30:-1 31:-1 32:-1 33:-1 34:1 35:-1 
-512 1:-0.146839 2:0.226767 3:-0.631474 4:-0.000929527 5:-0.999992 6:0.0186105 7:-0.720542 8:0.938323 9:0.321193 10:0.82612 11:-0.633059 12:0.201116 13:0.147166 14:-1 15:1 16:-1 17:-1 18:-1 19:-1 20:-1 21:-1 22:-1 23:-1 24:-1 25:-1 26:-1 27:1 28:-1 29:-1 30:-1 31:-1 32:-1 33:-1 34:1 35:-1 
-512 1:-0.146839 2:0.296914 3:-0.656816 4:-0.000929527 5:-0.882999 6:0.00645615 7:-0.788328 8:0.163861 9:0.519392 10:0.67997 11:-0.633059 12:0.201116 13:0.147166 14:-1 15:1 16:-1 17:-1 18:-1 19:-1 20:-1 21:-1 22:-1 23:-1 24:-1 25:-1 26:-1 27:1 28:-1 29:-1 30:-1 31:-1 32:-1 33:-1 34:1 35:-1 
-512 1:0.111772 2:0.572138 3:-0.707552 4:-0.397668 5:-0.96735 6:0.0254777 7:-0.744192 8:0.11752 9:0.244106 10:0.988705 11:-0.12771 12:0.439208 13:-0.798947 14:1 15:-1 16:-1 17:-1 18:-1 19:-1 20:-1 21:-1 22:-1 23:-1 24:-1 25:-1 26:1 27:-1 28:-1 29:-1 30:-1 31:-1 32:-1 33:-1 34:1 35:-1 
-512 1:-0.0229145 2:0.358765 3:0.648517 4:0.0746996 5:-0.993976 6:0.291687 7:-1 8:-0.0551759 9:0.289013 10:0.961171 11:-0.596444 12:-0.592939 13:-0.74267 14:-1 15:-1 16:0.5 17:-1 18:-1 19:-1 20:-1 21:-1 22:-1 23:-1 24:-1 25:-1 26:-1 27:-1 28:-1 29:-1 30:-1 31:1 32:-1 33:-1 34:1 35:-1 
-512 1:-0.46847 2:0.407628 3:-0.517653 4:0.280319 5:0.625561 6:-0.0148017 7:-0.797973 8:0.847975 9:-0.734561 10:0.849903 11:-0.0534991 12:-0.56014 13:-0.376623 14:-1 15:-1 16:-1 17:1 18:-1 19:-1 20:-1 21:-1 22:-1 23:-1 24:-1 25:-1 26:-1 27:-1 28:-1 29:1 30:-1 31:-1 32:-1 33:1 34:-1 35:-1 
-512 1:-0.46847 2:0.407628 3:-0.517653 4:0.143612 5:-0.915462 6:-0.00886993 7:-0.783595 8:0.847975 9:-0.869842 10:-0.358847 11:-0.419716 12:0.450593 13:-0.45925 14:-1 15:-1 16:-1 17:1 18:-1 19:-1 20:-1 21:-1 22:-1 23:-1 24:-1 25:-1 26:-1 27:-1 28:-1 29:1 30:-1 31:-1 32:-1 33:1 34:-1 35:-1 
-512 1:-0.46847 2:0.407628 3:-0.517653 4:0.0964222 5:0.601392 6:-0.014801 7:-0.797973 8:0.847975 9:-0.00388233 10:0.71296 11:-0.0534991 12:0.973914 13:-0.388527 14:-1 15:-1 16:-1 17:1 18:-1 19:-1 20:-1 21:-1 22:-1 23:-1 24:-1 25:-1 26:-1 27:-1 28:-1 29:1 30:-1 31:-1 32:-1 33:1 34:-1 35:-1 
-512 1:-0.46847 2:0.306866 3:-0.654123 4:0.143612 5:0.415702 6:0.00772621 7:-0.797973 8:-0.285881 9:-0.385711 10:-0.2403 11:-0.434275 12:0.450593 13:-0.45925 14:-1 15:-1 16:-1 17:-1 18:1 19:-1 20:-1 21:-1 22:-1 23:-1 24:-1 25:-1 26:-1 27:-1 28:1 29:-1 30:-1 31:-1 32:-1 33:1 34:-1 35:-1 
-512 1:-0.355655 2:0.627751 3:-0.262199 4:-0.375271 5:-0.733384 6:-0.00155074 7:-0.826976 8:-0.452575 9:0.541485 10:0.870791 11:0.353449 12:-0.390973 13:-0.923871 14:-1 15:-1 16:-1 17:-1 18:-1 19:-1 20:1 21:-1 22:-1 23:-1 24:-1 25:-1 26:-1 27:1 28:-1 29:-1 30:-1 31:-1 32:-1 33:1 34:-1 35:-1 
-512 1:0.168933 2:0.386764 3:-0.383397 4:-0.377554 5:0.0101981 6:0.139603 7:-1 8:0.127188 9:0.16654 10:0.904973 11:-0.561782 12:0.487921 13:0.583989 14:1 15:-1 16:-1 17:-1 18:-1 19:-1 20:-1 21:-1 22:-1 23:-1 24:-1 25:-1 26:-1 27:1 28:-1 29:-1 30:-1 31:-1 32:-1 33:-1 34:1 35:-1 
-512 1:0.137901 2:0.291889 3:-0.790085 4:-0.434329 5:-0.936996 6:0.216712 7:-0.866753 8:-0.398566 9:0.407885 10:0.987256 11:-0.0885295 12:-0.923593 13:0.417876 14:-1 15:-1 16:0.5 17:-1 18:-1 19:-1 20:-1 21:-1 22:-1 23:-1 24:-1 25:-1 26:-1 27:1 28:-1 29:-1 30:-1 31:-1 32:-1 33:-1 34:1 35:-1 
-512 1:0.182816 2:0.869324 3:-0.0413093 4:-0.400548 5:-0.810006 6:-0.0222629 7:-0.845936 8:-0.00850142 9:0.338563 10:0.930095 11:-0.34492 12:0.196762 13:-0.829439 14:1 15:-1 16:-1 17:-1 18:-1 19:-1 20:-1 21:-1 22:-1 23:-1 24:-1 25:-1 26:1 27:-1 28:-1 29:-1 30:-1 31:-1 32:-1 33:-1 34:1 35:-1 
-512 1:-0.828506 2:0.0146646 3:0.800048 4:-0.345429 5:0.584453 6:0.134914 7:-1 8:-0.554592 9:0.220732 10:0.956285 11:-0.610162 12:-0.0825299 13:0.862804 14:1 15:-1 16:-1 17:-1 18:-1 19:-1 20:-1 21:-1 22:-1 23:-1 24:-1 25:-1 26:1 27:-1 28:-1 29:-1 30:-1 31:-1 32:-1 33:-1 34:1 35:-1 
-512 1:-0.0412825 2:0.435894 3:-0.801857 4:0.987248 5:0.543046 6:-0.0423572 7:-0.810321 8:-0.0161694 9:0.317751 10:0.985663 11:-0.125697 12:0.745894 13:-0.2594 14:1 15:-1 16:-1 17:-1 18:-1 19:-1 20:-1 21:-1 22:-1 23:-1 24:-1 25:-1 26:-1 27:-1 28:-1 29:-1 30:-1 31:1 32:-1 33:-1 34:1 35:-1 
-512 1:0.362693 2:0.930863 3:-0.470616 4:-0.229125 5:-0.384269 6:-0.132589 7:-0.490874 8:-0.111852 9:0.10074 10:0.909084 11:-0.490838 12:0.180751 13:0.366734 14:1 15:-1 16:-1 17:-1 18:-1 19:-1 20:-1 21:-1 22:-1 23:1 24:-1 25:-1 26:-1 27:-1 28:-1 29:-1 30:-1 31:-1 32:-1 33:-1 34:-1 35:1 
-512 1:0.362693 2:0.930863 3:-0.470616 4:-0.198997 5:-0.863166 6:-0.144574 7:-0.441547 8:-0.111852 9:0.10074 10:0.909084 11:-0.490838 12:-0.190613 13:0.375071 14:1 15:-1 16:-1 17:-1 18:-1 19:-1 20:-1 21:-1 22:-1 23:1 24:-1 25:-1 26:-1 27:-1 28:-1 29:-1 30:-1 31:-1 32:-1 33:-1 34:-1 35:1 
-512 1:-0.51085 2:0.967988 3:-0.671307 4:-0.288029 5:-0.998258 6:0.381279 7:-0.701166 8:-0.0185031 9:0.355373 10:0.993682 11:-0.23177 12:-0.659527 13:-0.923678 14:-1 15:-1 16:-1 17:-1 18:-1 19:-1 20:-1 21:-0.333333 22:-1 23:-1 24:-1 25:-1 26:-1 27:1 28:-1 29:-1 30:-1 31:-1 32:1 33:-1 34:-1 35:-1 
-512 1:-0.963916 2:-0.259525 3:0.576482 4:-0.473873 5:-0.423942 6:0.367776 7:-0.703881 8:0.166861 9:-0.0663198 10:0.956701 11:-0.498966 12:0.791091 13:-0.329145 14:-1 15:-1 16:0.5 17:-1 18:-1 19:-1 20:-1 21:-1 22:-1 23:1 24:-1 25:-1 26:-1 27:-1 28:-1 29:-1 30:-1 31:-1 32:-1 33:-1 34:-1 35:1 
-180.609666225528 1:-0.963916 2:-0.259525 3:0.576482 4:-0.423206 5:0.13163 6:0.334151 7:-0.686181 8:0.166861 9:-0.0663198 10:0.956701 11:-0.498966 12:0.472967 13:0.777793 14:-1 15:-1 16:0.5 17:-1 18:-1 19:-1 20:-1 21:-1 22:-1 23:1 24:-1 25:-1 26:-1 27:-1 28:-1 29:-1 30:-1 31:-1 32:-1 33:-1 34:-1 35:1 
-512 1:0.169901 2:0.457186 3:-0.793024 4:-0.369675 5:-0.999714 6:0.29282 7:-0.946713 8:-0.369562 9:-0.0535121 10:0.373324 11:-0.765044 12:0.0813069 13:-0.767941 14:-1 15:1 16:-1 17:-1 18:-1 19:-1 20:-1 21:-1 22:-1 23:-1 24:1 25:-1 26:-1 27:-1 28:-1 29:-1 30:-1 31:-1 32:-1 33:-1 34:-1 35:1 
-512 1:0.0124223 2:0.598241 3:-0.240544 4:-0.225821 5:-0.612266 6:0.0458631 7:-0.917792 8:-0.0118353 9:-0.303182 10:0.999206 11:-0.383896 12:0.014862 13:-0.775299 14:1 15:-1 16:-1 17:-1 18:-1 19:-1 20:-1 21:-1 22:-1 23:-1 24:1 25:-1 26:-1 27:-1 28:-1 29:-1 30:-1 31:-1 32:-1 33:-1 34:-1 35:1 
-512 1:0.0124223 2:0.443439 3:-0.277598 4:-0.225821 5:-0.588757 6:0.0517317 7:-0.917792 8:-0.0971829 9:-0.0339804 10:0.93227 11:-0.383896 12:0.014862 13:-0.775299 14:-1 15:1 16:-1 17:-1 18:-1 19:-1 20:-1 21:-1 22:-1 23:1 24:-1 25:-1 26:-1 27:-1 28:-1 29:-1 30:-1 31:-1 32:-1 33:-1 34:-1 35:1 
-512 1:0.642099 2:0.342078 3:-0.977553 4:-0.470991 5:-0.307352 6:0.10518 7:-1 8:0.00883481 9:0.109946 10:-0.356732 11:-0.480757 12:0.158468 13:-0.885571 14:-1 15:-1 16:-1 17:1 18:-1 19:-1 20:-1 21:-1 22:-1 23:-1 24:-1 25:-1 26:-1 27:-1 28:1 29:-1 30:-1 31:-1 32:-1 33:1 34:-1 35:-1 
-512 1:0.313688 2:0.839952 3:-0.318655 4:-0.108588 5:-0.749555 6:0.00995866 7:-0.674802 8:-0.243541 9:0.262598 10:0.742627 11:-0.674832 12:0.169772 13:-0.0853786 14:-1 15:-1 16:0.5 17:-1 18:-1 19:-1 20:-1 21:-1 22:-1 23:-1 24:-1 25:-1 26:-1 27:-1 28:1 29:-1 30:-1 31:-1 32:-1 33:-1 34:1 35:-1 
-512 1:0.714136 2:0.632421 3:-0.935614 4:-0.302115 5:-0.956617 6:0.056616 7:-0.780508 8:-0.086181 9:0.229858 10:0.979352 11:-0.266258 12:-0.122185 13:-0.974868 14:1 15:-1 16:-1 17:-1 18:-1 19:-1 20:-1 21:-1 22:-1 23:-1 24:-1 25:-1 26:-1 27:-1 28:1 29:-1 30:-1 31:-1 32:-1 33:-1 34:1 35:-1 
-512 1:-0.0461495 2:0.36641 3:-0.210247 4:-0.12333 5:-0.739993 6:-0.00617901 7:-0.897281 8:-0.491915 9:0.0822493 10:0.979047 11:-0.0511101 12:-0.260164 13:-0.64899 14:1 15:-1 16:-1 17:-1 18:-1 19:-1 20:-1 21:-1 22:-1 23:1 24:-1 25:-1 26:-1 27:-1 28:-1 29:-1 30:-1 31:-1 32:-1 33:-1 34:-1 35:1 
-512 1:0.715153 2:0.933903 3:-0.644582 4:-0.498674 5:0.280246 6:-0.117998 7:-0.457842 8:0.0151692 9:0.357615 10:0.861626 11:-0.56379 12:-0.304495 13:-0.0311821 14:1 15:-1 16:-1 17:-1 18:-1 19:-1 20:-1 21:-1 22:-1 23:-1 24:-1 25:-1 26:-1 27:-1 28:1 29:-1 30:-1 31:-1 32:-1 33:-1 34:1 35:-1 
-512 1:0.715153 2:0.933903 3:-0.644582 4:-0.394995 5:0.707913 6:-0.121962 7:-0.566698 8:0.0151692 9:0.357615 10:0.861626 11:-0.56379 12:-0.219971 13:0.990145 14:1 15:-1 16:-1 17:-1 18:-1 19:-1 20:-1 21:-1 22:-1 23:-1 24:-1 25:-1 26:-1 27:-1 28:1 29:-1 30:-1 31:-1 32:-1 33:-1 34:1 35:-1 
-512 1:0.715153 2:0.709947 3:-0.900905 4:-0.498674 5:-0.240457 6:0.163475 7:-0.647956 8:0.411569 9:0.181989 10:0.945953 11:-0.56379 12:-0.304495 13:-0.0311821 14:1 15:-1 16:-1 17:-1 18:-1 19:-1 20:-1 21:-1 22:-1 23:-1 24:-1 25:-1 26:-1 27:-1 28:-1 29:1 30:-1 31:-1 32:-1 33:-1 34:1 35:-1 
-512 1:0.715153 2:0.709947 3:-0.900905 4:-0.394995 5:0.164431 6:0.160525 7:-0.756812 8:0.411569 9:0.181989 10:0.945953 11:-0.56379 12:-0.219971 13:0.990145 14:1 15:-1 16:-1 17:-1 18:-1 19:-1 20:-1 21:-1 22:-1 23:-1 24:-1 25:-1 26:-1 27:-1 28:-1 29:1 30:-1 31:-1 32:-1 33:-1 34:1 35:-1 
-512 1:-0.682154 2:0.934177 3:0.297517 4:-0.388967 5:-0.845263 6:-0.168756 7:-0.64704 8:0.577263 9:0.855753 10:0.100756 11:-0.227534 12:0.290732 13:0.282595 14:-1 15:-1 16:-1 17:-1 18:-1 19:1 20:-1 21:-1 22:-1 23:-1 24:-1 25:-1 26:-1 27:-1 28:1 29:-1 30:-1 31:-1 32:-1 33:1 34:-1 35:-1 
-512 1:-0.682154 2:0.0211083 3:-0.574623 4:0.555269 5:-0.436637 6:0.027065 7:-0.935247 8:-0.462577 9:-0.712307 10:0.377867 11:-0.227534 12:-0.957005 13:0.953363 14:-1 15:-1 16:-1 17:-1 18:-1 19:-1 20:1 21:-1 22:-1 23:-1 24:-1 25:-1 26:-1 27:-1 28:1 29:-1 30:-1 31:-1 32:-1 33:1 34:-1 35:-1 
-512 1:0.227672 2:0.766123 3:0.244618 4:-0.0545089 5:-0.998333 6:-0.320986 7:-0.375023 8:-0.157526 9:0.275405 10:0.932752 11:-0.465 12:0.993744 13:-0.888108 14:1 15:-1 16:-1 17:-1 18:-1 19:-1 20:-1 21:-1 22:-1 23:-1 24:-1 25:-1 26:-1 27:-1 28:1 29:-1 30:-1 31:-1 32:-1 33:-1 34:1 35:-1 
-512 1:0.629149 2:0.859443 3:-0.822156 4:-0.20938 5:-0.626837 6:0.0183809 7:-0.959147 8:-0.525921 9:-0.59928 10:-0.145328 11:-0.405183 12:0.686708 13:-0.308066 14:-1 15:-1 16:-1 17:-1 18:-1 19:1 20:-1 21:-1 22:-1 23:-1 24:-1 25:-1 26:-1 27:-1 28:-1 29:1 30:-1 31:-1 32:-1 33:1 34:-1 35:-1 
-512 1:0.629149 2:0.682955 3:-0.81002 4:-0.279947 5:-0.65618 6:-0.12664 7:-0.631691 8:-0.28288 9:-0.640424 10:0.504176 11:-0.161495 12:0.0191784 13:0.214629 14:-1 15:-1 16:-1 17:-1 18:-1 19:1 20:-1 21:-1 22:-1 23:-1 24:-1 25:-1 26:-1 27:-1 28:1 29:-1 30:-1 31:-1 32:-1 33:1 34:-1 35:-1 
-512 1:0.300988 2:0.275843 3:-0.872844 4:0.169306 5:-0.999275 6:0.0437385 7:-0.846722 8:0.757293 9:-0.158615 10:0.999911 11:-0.245804 12:-0.325836 13:-0.106978 14:-1 15:1 16:-1 17:-1 18:-1 19:-1 20:-1 21:-1 22:-1 23:-1 24:-1 25:-1 26:-1 27:1 28:-1 29:-1 30:-1 31:-1 32:-1 33:-1 34:1 35:-1 
-512 1:-0.36741 2:0.0942558 3:0.0723061 4:-0.198063 5:0.626033 6:0.477049 7:-1 8:-0.289882 9:0.272924 10:0.968676 11:-0.703821 12:0.0151841 13:0.622077 14:-1 15:-1 17:-1 18:-1 19:-1 20:-1 21:-1 22:-1 23:-1 24:-1 25:-1 26:1 27:-1 28:-1 29:-1 30:-1 31:-1 32:-1 33:-1 34:1 35:-1 
-512 1:0.669783 2:0.636408 3:-0.861723 4:-0.432687 5:0.947137 6:0.268296 7:-1 8:-0.244207 9:0.992315 10:0.540948 11:-0.0302529 12:-0.311748 13:0.902772 14:-1 15:-1 16:-1 17:-1 18:-1 19:1 20:-1 21:-1 22:-1 23:-1 24:-1 25:-1 26:-1 27:1 28:-1 29:-1 30:-1 31:-1 32:-1 33:1 34:-1 35:-1 
-512 1:-0.0925 2:-0.521495 3:-0.795915 4:-0.831768 5:-0.843441 6:0.260551 7:-0.94683 8:-0.384564 9:0.237783 10:0.989955 11:-0.693132 12:0.115719 13:-0.949938 14:1 15:-1 16:-1 17:-1 18:-1 19:-1 20:-1 21:-1 22:-1 23:-1 24:-1 25:-1 26:1 27:-1 28:-1 29:-1 30:-1 31:-1 32:-1 33:-1 34:1 35:-1 
-512 1:-0.325627 2:0.642251 3:0.0980991 4:-0.496242 5:0.455803 6:0.0750369 7:-0.729777 8:-0.650275 9:0.11731 10:0.979889 11:-0.422717 12:0.12155 13:0.495756 14:-1 15:-1 16:0.5 17:-1 18:-1 19:-1 20:-1 21:-1 22:-1 23:-1 24:-1 25:-1 26:1 27:-1 28:-1 29:-1 30:-1 31:-1 32:-1 33:-1 34:1 35:-1 
-512 1:0.382999 2:-0.11679 3:-0.975523 4:-0.430385 5:-0.974797 6:0.238093 7:-0.881867 8:0.0128355 9:-0.361857 10:0.920963 11:-0.625341 12:-0.693855 13:-0.991113 14:1 15:-1 16:-1 17:-1 18:-1 19:-1 20:-1 21:-1 22:-1 23:1 24:-1 25:-1 26:-1 27:-1 28:-1 29:-1 30:-1 31:-1 32:-1 33:-1 34:-1 35:1 
-512 1:0.446904 2:0.913756 3:-0.70161 4:-0.291638 5:0.706587 6:0.686441 7:-0.929116 8:-0.0405068 9:0.384591 10:0.773882 11:-0.611033 12:-0.568335 13:-0.434601 14:-1 15:-1 16:0.5 17:-1 18:-1 19:-1 20:-1 21:-1 22:-1 23:-1 24:-1 25:-1 26:-1 27:-1 28:1 29:-1 30:-1 31:-1 32:-1 33:-1 34:1 35:-1 
-512 1:0.103377 2:0.413365 3:-0.315473 4:-0.348187 5:-0.394867 6:-0.0463808 7:-0.585273 8:-0.0805134 9:0.33416 10:0.779885 11:-0.652427 12:-0.0736781 13:-0.64395 14:1 15:-1 16:-1 17:-1 18:-1 19:-1 20:-1 21:-1 22:-1 23:-1 24:-1 25:-1 26:1 27:-1 28:-1 29:-1 30:-1 31:-1 32:-1 33:-1 34:1 35:-1 
-512 1:-0.25481 2:0.779017 3:0.295731 4:0.00722326 5:-0.985202 6:-0.0789897 7:-0.575645 8:-0.12252 9:0.209846 10:0.981382 11:-0.178696 12:-0.148884 13:0.356318 14:1 15:-1 16:-1 17:-1 18:-1 19:-1 20:-1 21:-1 22:-1 23:-1 24:-1 25:-1 26:-1 27:-1 28:-1 29:1 30:-1 31:-1 32:-1 33:-1 34:1 35:-1 
-512 1:-0.25481 2:0.779017 3:0.295731 4:-0.0579354 5:-0.992982 6:-0.0636696 7:-0.578044 8:-0.12252 9:0.209846 10:0.981382 11:-0.178696 12:0.169143 13:-0.524732 14:1 15:-1 16:-1 17:-1 18:-1 19:-1 20:-1 21:-1 22:-1 23:-1 24:-1 25:-1 26:-1 27:-1 28:-1 29:1 30:-1 31:-1 32:-1 33:-1 34:1 35:-1 
-512 1:0.0449728 2:0.0242778 3:-0.566023 4:-0.100872 5:-0.690203 6:0.188545 7:-0.933811 8:-0.260877 9:0.0196518 10:0.882124 11:0.27249 12:0.977261 13:0.239155 14:-1 15:-1 16:-1 17:-1 18:-1 19:1 20:-1 21:-1 22:-1 23:-1 24:-1 25:-1 26:-1 27:-1 28:1 29:-1 30:-1 31:-1 32:-1 33:1 34:-1 35:-1 
-512 1:0.231965 2:0.701915 3:-0.681273 4:-0.311386 5:-1 6:0.769795 7:-0.883065 8:0.649275 9:0.179027 10:0.415054 11:-0.136445 12:-0.268543 13:-0.868168 14:-1 15:-1 16:-1 17:-1 18:-1 19:-1 20:-1 21:-0.333333 22:-1 23:-1 24:-1 25:-1 26:-1 27:1 28:-1 29:-1 30:-1 31:-1 32:-1 33:1 34:-1 35:-1 
-512 1:0.30845 2:0.593985 3:-0.833562 4:-0.311861 5:-0.999851 6:0.157602 7:-0.842772 8:0.98233 9:-0.2999 10:0.402103 11:-0.180339 12:-0.94881 13:-0.949345 14:-1 15:-1 16:-1 17:-1 18:-1 19:1 20:-1 21:-1 22:-1 23:-1 24:-1 25:-1 26:-1 27:1 28:-1 29:-1 30:-1 31:-1 32:-1 33:1 34:-1 35:-1 
-512 1:0.361031 2:0.865058 3:0.765527 4:-0.448952 5:-1 6:-0.173426 7:-0.835279 8:-0.822637 9:0.532359 10:0.880356 11:-0.59766 12:0.219207 13:0.892376 14:1 15:-1 16:-1 17:-1 18:-1 19:-1 20:-1 21:-1 22:-1 23:-1 24:-1 25:-1 26:-1 27:-1 28:1 29:-1 30:-1 31:-1 32:-1 33:-1 34:1 35:-1 
-512 1:0.361031 2:0.865058 3:0.765527 4:-0.509593 5:-1 6:-0.181491 7:-0.792095 8:-0.822637 9:0.532359 10:0.880356 11:-0.59766 12:0.0181337 13:-0.908998 14:1 15:-1 16:-1 17:-1 18:-1 19:-1 20:-1 21:-1 22:-1 23:-1 24:-1 25:-1 26:-1 27:-1 28:1 29:-1 30:-1 31:-1 32:-1 33:-1 34:1 35:-1 
-512 1:-0.0604158 2:0.444271 3:-0.319155 4:-0.17456 5:0.839721 6:0.353644 7:-0.775804 8:0.155193 9:0.144207 10:0.97382 11:-0.497175 12:-0.037101 13:0.214365 14:-1 15:-1 17:-1 18:-1 19:-1 20:-1 21:-1 22:-1 23:-1 24:-1 25:-1 26:1 27:-1 28:-1 29:-1 30:-1 31:-1 32:-1 33:-1 34:1 35:-1 
-512 1:-0.0604158 2:0.444271 3:-0.319155 4:-0.342291 5:0.826456 6:0.301107 7:-0.588135 8:0.155193 9:0.144207 10:0.97382 11:-0.497175 12:-0.632744 13:0.480682 14:-1 15:-1 17:-1 18:-1 19:-1 20:-1 21:-1 22:-1 23:-1 24:-1 25:-1 26:1 27:-1 28:-1 29:-1 30:-1 31:-1 32:-1 33:-1 34:1 35:-1 
-512 1:-0.0604158 2:0.444271 3:-0.319155 4:-0.376305 5:0.972442 6:0.305087 7:-0.571233 8:0.155193 9:0.144207 10:0.97382 11:-0.497175 12:-0.743726 13:0.505443 14:-1 15:-1 17:-1 18:-1 19:-1 20:-1 21:-1 22:-1 23:-1 24:-1 25:-1 26:1 27:-1 28:-1 29:-1 30:-1 31:-1 32:-1 33:-1 34:1 35:-1 
-512 1:0.0528773 2:0.455563 3:-0.404385 4:-0.206305 5:-0.260269 6:0.198072 7:-0.933549 8:0.00150025 9:-0.174545 10:0.850519 11:-0.660878 12:-0.309462 13:0.6797 14:-1 15:-1 16:-0.5 17:-1 18:-1 19:-1 20:-1 21:-1 22:-1 23:-1 24:1 25:-1 26:-1 27:-1 28:-1 29:-1 30:-1 31:-1 32:-1 33:-1 34:-1 35:1 
-512 1:0.182147 2:0.513087 3:-0.790503 4:-0.68402 5:-0.128004 6:0.306803 7:-1 8:-0.791632 9:0.0780869 10:0.336826 11:-0.18524 12:-0.909824 13:-0.166631 14:-1 15:-1 16:-1 17:-1 18:1 19:-1 20:-1 21:-1 22:-1 23:-1 24:-1 25:-1 26:1 27:-1 28:-1 29:-1 30:-1 31:-1 32:-1 33:1 34:-1 35:-1 
-512 1:-0.200424 2:0.676284 3:-0.219489 4:0.0544222 5:-0.653111 6:-0.0233297 7:-0.835502 8:0.167195 9:0.268121 10:0.967489 11:-0.167926 12:0.0253027 13:-0.855987 14:-1 15:-1 17:-1 18:-1 19:-1 20:-1 21:-1 22:-1 23:-1 24:-1 25:-1 26:-1 27:1 28:-1 29:-1 30:-1 31:-1 32:-1 33:-1 34:1 35:-1 
-512 1:-0.0746821 2:0.393617 3:0.0225941 4:-0.168155 5:-0.998162 6:0.169421 7:-0.758671 8:-0.239873 9:0.0438263 10:0.857552 11:-0.529772 12:0.403644 13:0.193518 14:1 15:-1 16:-1 17:-1 18:-1 19:-1 20:-1 21:-1 22:-1 23:-1 24:-1 25:1 26:-1 27:-1 28:-1 29:-1 30:-1 31:-1 32:-1 33:-1 34:-1 35:1 
-512 1:0.615576 2:0.588549 3:-0.855247 4:-0.278441 5:0.777159 6:0.0952404 7:-0.751648 8:0.0251709 9:-0.330558 10:0.786302 11:0.0661088 12:0.36844 13:0.845812 14:-1 15:-1 16:-1 17:1 18:-1 19:-1 20:-1 21:-1 22:-1 23:-1 24:-1 25:-1 26:-1 27:-1 28:1 29:-1 30:-1 31:-1 32:-1 33:1 34:-1 35:-1 
-512 1:0.615576 2:0.588549 3:-0.855247 4:-0.250088 5:-0.567585 6:0.0964437 7:-0.701553 8:0.0251709 9:-0.330558 10:0.786302 11:0.0661088 12:0.134077 13:-0.905169 14:-1 15:-1 16:-1 17:1 18:-1 19:-1 20:-1 21:-1 22:-1 23:-1 24:-1 25:-1 26:-1 27:-1 28:1 29:-1 30:-1 31:-1 32:-1 33:1 34:-1 35:-1 
-512 1:0.615576 2:0.588549 3:-0.855247 4:-0.333053 5:0.493781 6:0.0485709 7:-0.601517 8:0.0251709 9:-0.330558 10:0.786302 11:0.0661088 12:0.0963268 13:0.821816 14:-1 15:-1 16:-1 17:1 18:-1 19:-1 20:-1 21:-1 22:-1 23:-1 24:-1 25:-1 26:-1 27:-1 28:1 29:-1 30:-1 31:-1 32:-1 33:1 34:-1 35:-1 
-512 1:0.62934 2:0.796642 3:-0.709369 4:0.543589 5:-0.840798 6:-0.0936615 7:-0.84548 8:-0.0188365 9:0.31711 10:0.910215 11:-0.440304 12:-0.123883 13:-0.436438 14:-1 15:1 16:-1 17:-1 18:-1 19:-1 20:-1 21:-1 22:-1 23:-1 24:-1 25:-1 26:-1 27:1 28:-1 29:-1 30:-1 31:-1 32:-1 33:-1 34:1 35:-1 
-512 1:0.62934 2:0.639634 3:-0.816948 4:0.673161 5:-0.761659 6:-0.090965 7:-0.84548 8:-0.558593 9:0.31711 10:0.910215 11:-0.440304 12:-0.501243 13:-0.100658 14:-1 15:1 16:-1 17:-1 18:-1 19:-1 20:-1 21:-1 22:-1 23:-1 24:-1 25:-1 26:-1 27:1 28:-1 29:-1 30:-1 31:-1 32:-1 33:-1 34:1 35:-1 
-512 1:0.62934 2:0.639634 3:-0.816948 4:0.612647 5:-0.672371 6:-0.09699 7:-0.800216 8:-0.558593 9:0.31711 10:0.910215 11:-0.440304 12:-0.231631 13:0.338508 14:-1 15:1 16:-1 17:-1 18:-1 19:-1 20:-1 21:-1 22:-1 23:-1 24:-1 25:-1 26:-1 27:1 28:-1 29:-1 30:-1 31:-1 32:-1 33:-1 34:1 35:-1 
-512 1:0.77956 2:0.675729 3:-0.930048 4:0.0313272 5:0.840842 6:-0.0774642 7:-0.673685 8:-0.0588431 9:0.221293 10:0.956843 11:-0.366126 12:-0.134202 13:-0.422556 14:1 15:-1 16:-1 17:-1 18:-1 19:-1 20:-1 21:-1 22:-1 23:-1 24:-1 25:-1 26:1 27:-1 28:-1 29:-1 30:-1 31:-1 32:-1 33:-1 34:1 35:-1 
-512 1:-0.596199 2:-0.0513493 3:-0.976961 4:-0.626144 5:0.503287 6:0.158029 7:-0.766571 8:-0.00216703 9:0.296698 10:0.633358 11:-0.80128 12:-0.0637753 13:0.00337777 14:-1 15:-1 16:-1 17:-1 18:-1 19:1 20:-1 21:-1 22:-1 23:-1 24:-1 25:-1 26:-1 27:-1 28:1 29:-1 30:-1 31:-1 32:1 33:-1 34:-1 35:-1 
-512 1:-0.309256 2:0.535507 3:0.0368977 4:-0.660692 5:-0.328359 6:-0.218038 7:-0.392532 8:-0.0475079 9:0.0770462 10:0.906542 11:-0.393431 12:-0.700518 13:-0.896081 14:1 15:-1 16:-1 17:-1 18:-1 19:-1 20:-1 21:-1 22:-1 23:1 24:-1 25:-1 26:-1 27:-1 28:-1 29:-1 30:-1 31:-1 32:-1 33:-1 34:-1 35:1 
-512 1:0.704833 2:0.638543 3:-0.899888 4:-0.594575 5:-0.972697 6:0.0581964 7:-0.886667 8:0.455909 9:-0.842065 10:0.12303 11:-0.446049 12:-0.583871 13:0.569661 14:-1 15:-1 16:-1 17:-1 18:-1 19:1 20:-1 21:-1 22:-1 23:-1 24:-1 25:-1 26:-1 27:-1 28:1 29:-1 30:-1 31:-1 32:-1 33:1 34:-1 35:-1 
-512 1:-0.382465 2:0.714662 3:-0.945026 4:0.288226 5:0.266182 6:-0.0473259 7:-0.89882 8:0.634272 9:-0.120993 10:0.896426 11:-0.537563 12:0.116186 13:0.925542 14:-1 15:-1 16:1 17:-1 18:-1 19:-1 20:-1 21:-1 22:-1 23:-1 24:1 25:-1 26:-1 27:-1 28:-1 29:-1 30:-1 31:-1 32:-1 33:-1 34:-1 35:1 
-512 1:-0.382465 2:0.714662 3:-0.945026 4:0.288226 5:0.268783 6:-0.0489933 7:-0.82486 8:0.634272 9:-0.18391 10:0.90809 11:-0.537563 12:0.116186 13:0.925542 14:-1 15:-1 16:1 17:-1 18:-1 19:-1 20:-1 21:-1 22:-1 23:-1 24:1 25:-1 26:-1 27:-1 28:-1 29:-1 30:-1 31:-1 32:-1 33:-1 34:-1 35:1 
-512 1:-0.382465 2:0.714662 3:-0.945026 4:-0.251661 5:-0.127992 6:-0.0432883 7:-0.477289 8:0.634272 9:-0.120993 10:0.896426 11:-0.537563 12:-0.68039 13:-0.0472051 14:-1 15:-1 16:1 17:-1 18:-1 19:-1 20:-1 21:-1 22:-1 23:-1 24:1 25:-1 26:-1 27:-1 28:-1 29:-1 30:-1 31:-1 32:-1 33:-1 34:-1 35:1 
-512 1:-0.382465 2:0.0197962 3:-0.816423 4:0.288226 5:0.277129 6:-0.0420849 7:-0.92604 8:0.858976 9:-0.152532 10:0.987196 11:-0.537563 12:0.116186 13:0.925542 14:-1 15:1 16:-1 17:-1 18:-1 19:-1 20:-1 21:-1 22:-1 23:1 24:-1 25:-1 26:-1 27:-1 28:-1 29:-1 30:-1 31:-1 32:-1 33:-1 34:-1 35:1 
-512 1:-0.382465 2:0.0197962 3:-0.816423 4:-0.251661 5:-0.122196 6:-0.113938 7:-0.504509 8:0.858976 9:-0.152532 10:0.987196 11:-0.537563 12:-0.68039 13:-0.0472051 14:-1 15:1 16:-1 17:-1 18:-1 19:-1 20:-1 21:-1 22:-1 23:1 24:-1 25:-1 26:-1 27:-1 28:-1 29:-1 30:-1 31:-1 32:-1 33:-1 34:-1 35:1 
-512 1:-0.252622 2:0.332084 3:-0.600876 4:-0.53928 5:0.474607 6:0.174377 7:-0.58518 8:0.0595099 9:0.782189 10:0.76332 11:0.183757 12:-0.117008 13:0.614016 14:-1 15:-1 16:-1 17:1 18:-1 19:-1 20:-1 21:-1 22:-1 23:-1 24:-1 25:-1 26:-1 27:-1 28:1 29:-1 30:-1 31:-1 32:-1 33:1 34:-1 35:-1 
-512 1:-0.654002 2:0.0831642 3:0.43767 4:0.822766 5:-0.324869 6:-0.0233762 7:-0.752206 8:-0.378563 9:0.278687 10:0.916105 11:-0.454848 12:0.941509 13:-0.55942 14:1 15:-1 16:-1 17:-1 18:-1 19:-1 20:-1 21:-1 22:-1 23:-1 24:-1 25:-1 26:-1 27:-1 28:1 29:-1 30:-1 31:-1 32:-1 33:-1 34:1 35:-1 
-512 1:-0.813729 2:-0.0623208 3:-0.791587 4:-0.111424 5:-0.546802 6:0.094474 7:-0.817906 8:-0.0651775 9:0.151811 10:0.998016 11:-0.087182 12:-0.139669 13:-0.387884 14:1 15:-1 16:-1 17:-1 18:-1 19:-1 20:-1 21:-1 22:-1 23:1 24:-1 25:-1 26:-1 27:-1 28:-1 29:-1 30:-1 31:-1 32:-1 33:-1 34:-1 35:1 
-512 1:0.167833 2:0.927465 3:-0.197957 4:0.609657 5:-0.968591 6:-0.114904 7:-0.929189 8:-0.601267 9:-0.71623 10:0.656853 11:-0.0494297 12:-0.775539 13:0.294666 14:-1 15:-1 16:-1 17:-1 18:-1 19:-1 20:-1 21:0.333333 22:-1 23:-1 24:-1 25:-1 26:-1 27:1 28:-1 29:-1 30:-1 31:-1 32:-1 33:1 34:-1 35:-1 
-353.9153477469999 1:-0.353682 2:0.787992 3:0.876845 4:-0.924121 5:-0.649415 6:0.918734 7:-0.562735 8:0.633272 9:0.218731 10:0.961688 11:-0.28704 12:-0.0682168 13:0.034276 14:-1 15:-1 17:-1 18:-1 19:-1 20:-1 21:-1 22:-1 23:-1 24:-1 25:-1 26:-1 27:1 28:-1 29:-1 30:-1 31:-1 32:-1 33:-1 34:1 35:-1 
-512 1:-0.575819 2:0.217567 3:0.168814 4:-0.0935005 5:-0.999809 6:0.192481 7:-0.925859 8:-0.104851 9:0.0167701 10:0.652219 11:-0.706953 12:-0.260217 13:-0.994535 14:-1 15:-1 16:1 17:-1 18:-1 19:-1 20:-1 21:-1 22:-1 23:-1 24:1 25:-1 26:-1 27:-1 28:-1 29:-1 30:-1 31:-1 32:-1 33:-1 34:-1 35:1 
-512 1:-0.575819 2:0.217567 3:0.168814 4:-0.149924 5:-0.999739 6:0.190182 7:-0.925859 8:-0.104851 9:-0.224495 10:0.805798 11:-0.706953 12:-0.314341 13:-0.993194 14:-1 15:-1 16:1 17:-1 18:-1 19:-1 20:-1 21:-1 22:-1 23:-1 24:1 25:-1 26:-1 27:-1 28:-1 29:-1 30:-1 31:-1 32:-1 33:-1 34:-1 35:1 
-512 1:0.197035 2:0.389369 3:-0.558375 4:-0.196474 5:-0.280647 6:0.0438323 7:-0.823285 8:-0.0205034 9:0.231459 10:0.978382 11:-0.483409 12:-0.175565 13:-0.921285 14:1 15:-1 16:-1 17:-1 18:-1 19:-1 20:-1 21:-1 22:-1 23:-1 24:-1 25:-1 26:-1 27:-1 28:1 29:-1 30:-1 31:-1 32:-1 33:-1 34:1 35:-1 
-512 1:0.734274 2:0.419108 3:-0.981509 4:-0.286216 5:-0.808556 6:0.163848 7:-1 8:0.0248375 9:0.127076 10:0.713625 11:-0.695416 12:-0.874292 13:-0.988009 14:1 15:-1 16:-1 17:-1 18:-1 19:-1 20:-1 21:-1 22:-1 23:1 24:-1 25:-1 26:-1 27:-1 28:-1 29:-1 30:-1 31:-1 32:-1 33:-1 34:-1 35:1 
-512 1:0.77724 2:0.586926 3:-0.963856 4:0.208207 5:-1 6:0.293656 7:-0.843113 8:-0.0135023 9:-0.0231739 10:0.960212 11:-0.256734 12:-0.0295222 13:-0.421012 14:-1 15:-1 16:-0.5 17:-1 18:-1 19:-1 20:-1 21:-1 22:-1 23:-1 24:-1 25:1 26:-1 27:-1 28:-1 29:-1 30:-1 31:-1 32:-1 33:-1 34:-1 35:1 
-512 1:0.57188 2:0.585121 3:-0.905632 4:-0.287441 5:-0.760766 6:0.224703 7:-1 8:0.0425071 9:-0.0487092 10:0.71 11:-0.776846 12:-0.715416 13:-0.869885 14:1 15:-1 16:-1 17:-1 18:-1 19:-1 20:-1 21:-1 22:-1 23:-1 24:-1 25:1 26:-1 27:-1 28:-1 29:-1 30:-1 31:-1 32:-1 33:-1 34:-1 35:1 
-512 1:0.57188 2:0.585121 3:-0.905632 4:-0.421863 5:-0.0849598 6:0.219819 7:-0.866298 8:0.0425071 9:-0.0487092 10:0.71 11:-0.776846 12:-0.807027 13:-0.167393 14:1 15:-1 16:-1 17:-1 18:-1 19:-1 20:-1 21:-1 22:-1 23:-1 24:-1 25:1 26:-1 27:-1 28:-1 29:-1 30:-1 31:-1 32:-1 33:-1 34:-1 35:1 
-512 1:0.430868 2:0.650917 3:-0.435608 4:0.248117 5:-0.890654 6:-0.282872 7:-0.790639 8:0.0551759 9:-0.978707 10:0.645174 11:-0.0761548 12:-0.612397 13:-0.95471 14:-1 15:-1 16:-1 17:-1 18:-1 19:1 20:-1 21:-1 22:-1 23:-1 24:-1 25:-1 26:-1 27:1 28:-1 29:-1 30:-1 31:-1 32:-1 33:1 34:-1 35:-1 
-512 1:0.430868 2:0.650917 3:-0.435608 4:0.248117 5:-0.998237 6:-0.291011 7:-0.791679 8:0.0551759 9:-0.711187 10:0.624004 11:-0.0761548 12:-0.612397 13:-0.95471 14:-1 15:-1 16:-1 17:-1 18:-1 19:1 20:-1 21:-1 22:-1 23:-1 24:-1 25:-1 26:-1 27:1 28:-1 29:-1 30:-1 31:-1 32:-1 33:1 34:-1 35:-1 
-512 1:0.430868 2:0.650917 3:-0.435608 4:-0.0729413 5:-0.903024 6:-0.282891 7:-0.790639 8:0.0551759 9:-0.989274 10:0.654703 11:-0.0761548 12:-0.0338074 13:-0.0729272 14:-1 15:-1 16:-1 17:-1 18:-1 19:1 20:-1 21:-1 22:-1 23:-1 24:-1 25:-1 26:-1 27:1 28:-1 29:-1 30:-1 31:-1 32:-1 33:1 34:-1 35:-1 
-512 1:0.430868 2:0.650917 3:-0.435608 4:-0.144061 5:-0.998355 6:-0.291116 7:-0.791679 8:0.0551759 9:-0.989274 10:0.654703 11:-0.0761548 12:0.321103 13:-0.990471 14:-1 15:-1 16:-1 17:-1 18:-1 19:1 20:-1 21:-1 22:-1 23:-1 24:-1 25:-1 26:-1 27:1 28:-1 29:-1 30:-1 31:-1 32:-1 33:1 34:-1 35:-1 
-512 1:0.808129 2:0.788629 3:-0.901953 4:-0.44045 5:-0.99997 6:0.00278602 7:-0.460853 8:0.0695116 9:0.265639 10:0.818009 11:-0.619405 12:0.575279 13:-0.99155 14:1 15:-1 16:-1 17:-1 18:-1 19:-1 20:-1 21:-1 22:-1 23:-1 24:-1 25:-1 26:-1 27:1 28:-1 29:-1 30:-1 31:-1 32:-1 33:-1 34:1 35:-1 
-512 1:0.808129 2:0.788629 3:-0.901953 4:-0.105634 5:-0.351163 6:0.0126112 7:-0.927877 8:0.0695116 9:0.110586 10:0.866383 11:-0.467459 12:-0.132869 13:-0.177478 14:1 15:-1 16:-1 17:-1 18:-1 19:-1 20:-1 21:-1 22:-1 23:-1 24:1 25:-1 26:-1 27:-1 28:-1 29:-1 30:-1 31:-1 32:-1 33:-1 34:-1 35:1 
-512 1:0.808129 2:0.788629 3:-0.901953 4:-0.0923825 5:-0.940493 6:0.00951126 7:-0.927877 8:0.0695116 9:0.110586 10:0.866383 11:-0.467459 12:-0.278199 13:-0.974965 14:1 15:-1 16:-1 17:-1 18:-1 19:-1 20:-1 21:-1 22:-1 23:-1 24:1 25:-1 26:-1 27:-1 28:-1 29:-1 30:-1 31:-1 32:-1 33:-1 34:-1 35:1 
-512 1:0.808129 2:0.788629 3:-0.901953 4:-0.414431 5:-0.999493 6:-0.0117454 7:-0.294676 8:0.0695116 9:0.265639 10:0.818009 11:-0.619405 12:-0.55369 13:-0.784509 14:1 15:-1 16:-1 17:-1 18:-1 19:-1 20:-1 21:-1 22:-1 23:-1 24:-1 25:-1 26:-1 27:1 28:-1 29:-1 30:-1 31:-1 32:-1 33:-1 34:1 35:-1 
-512 1:-0.974632 2:0.0797483 3:-0.413077 4:-0.608925 5:-0.995595 6:0.143134 7:-1 8:-0.154859 9:0.115469 10:0.907449 11:-0.360601 12:0.592554 13:-0.708953 14:1 15:-1 16:-1 17:-1 18:-1 19:-1 20:-1 21:-1 22:-1 23:1 24:-1 25:-1 26:-1 27:-1 28:-1 29:-1 30:-1 31:-1 32:-1 33:-1 34:-1 35:1 
-512 1:-0.536591 2:0.614449 3:-0.59229 4:-0.470683 5:0.593016 6:0.36206 7:-0.892084 8:0.346224 9:0.668921 10:0.716975 11:0.131118 12:-0.536262 13:0.406681 14:-1 15:-1 16:-1 17:-1 18:-1 19:-1 20:-1 21:0.333333 22:-1 23:-1 24:-1 25:-1 26:-1 27:-1 28:1 29:-1 30:-1 31:-1 32:-1 33:1 34:-1 35:-1 
-512 1:0.501027 2:0.570672 3:-0.727856 4:0.583054 5:-0.931752 6:0.0223259 7:-0.909007 8:-0.134189 9:0.209045 10:0.451313 11:-0.138887 12:-0.77101 13:-0.990379 14:-1 15:-1 16:-1 17:1 18:-1 19:-1 20:-1 21:-1 22:-1 23:-1 24:-1 25:-1 26:-1 27:-1 28:1 29:-1 30:-1 31:-1 32:-1 33:1 34:-1 35:-1 
-512 1:0.180664 2:0.824062 3:-0.432253 4:-0.238952 5:-1 6:-0.0109574 7:-0.71524 8:0.650275 9:-0.11723 10:0.888509 11:-0.618755 12:0.0481579 13:0.966482 14:1 15:-1 16:-1 17:-1 18:-1 19:-1 20:-1 21:-1 22:-1 23:1 24:-1 25:-1 26:-1 27:-1 28:-1 29:-1 30:-1 31:-1 32:-1 33:-1 34:-1 35:1 
-512 1:0.180664 2:0.518436 3:-0.377525 4:0.0601209 5:-1 6:-0.0596537 7:-0.71524 8:-0.0255043 9:-0.11723 10:0.888509 11:-0.618755 12:0.0499909 13:0.976539 14:1 15:-1 16:-1 17:-1 18:-1 19:-1 20:-1 21:-1 22:-1 23:1 24:-1 25:-1 26:-1 27:-1 28:-1 29:-1 30:-1 31:-1 32:-1 33:-1 34:-1 35:1 
-512 1:-0.785335 2:0.0923862 3:-0.127974 4:-0.248552 5:-0.00254728 6:-0.142354 7:-0.471621 8:-0.0281714 9:0.278287 10:0.930436 11:-0.618522 12:0.124796 13:-0.744236 14:1 15:-1 16:-1 17:-1 18:-1 19:-1 20:-1 21:-1 22:-1 23:-1 24:-1 25:-1 26:-1 27:1 28:-1 29:-1 30:-1 31:-1 32:-1 33:-1 34:1 35:-1 
-512 1:-0.785335 2:0.0923862 3:-0.127974 4:-0.248552 5:-0.995066 6:-0.137885 7:-0.456683 8:-0.0281714 9:0.271963 10:0.926559 11:-0.618522 12:0.124796 13:-0.744236 14:1 15:-1 16:-1 17:-1 18:-1 19:-1 20:-1 21:-1 22:-1 23:-1 24:-1 25:-1 26:-1 27:1 28:-1 29:-1 30:-1 31:-1 32:-1 33:-1 34:1 35:-1 
-512 1:-0.785335 2:0.0923862 3:-0.127974 4:-0.282743 5:-0.854828 6:-0.136309 7:-0.471621 8:-0.0281714 9:0.278287 10:0.930436 11:-0.618522 12:0.294051 13:-0.986764 14:1 15:-1 16:-1 17:-1 18:-1 19:-1 20:-1 21:-1 22:-1 23:-1 24:-1 25:-1 26:-1 27:1 28:-1 29:-1 30:-1 31:-1 32:-1 33:-1 34:1 35:-1 
-512 1:-0.785335 2:0.0923862 3:-0.127974 4:-0.282743 5:-0.999669 6:-0.13184 7:-0.456683 8:-0.0281714 9:0.271963 10:0.926559 11:-0.618522 12:0.294051 13:-0.986764 14:1 15:-1 16:-1 17:-1 18:-1 19:-1 20:-1 21:-1 22:-1 23:-1 24:-1 25:-1 26:-1 27:1 28:-1 29:-1 30:-1 31:-1 32:-1 33:-1 34:1 35:-1 
-512 1:0.29831 2:0.875383 3:-0.528236 4:-0.223912 5:-1 6:0.155489 7:-0.693458 8:-0.548925 9:-0.476966 10:0.628888 11:-0.152443 12:-0.151536 13:-0.617236 14:-1 15:-1 16:-1 17:-1 18:-1 19:1 20:-1 21:-1 22:-1 23:-1 24:-1 25:-1 26:-1 27:-1 28:-1 29:1 30:-1 31:-1 32:-1 33:1 34:-1 35:-1 
-512 1:0.29831 2:0.875383 3:-0.528236 4:-0.177966 5:-1 6:0.166382 7:-0.872652 8:-0.548925 9:-0.476966 10:0.628888 11:-0.152443 12:0.483849 13:-0.0188289 14:-1 15:-1 16:-1 17:-1 18:-1 19:1 20:-1 21:-1 22:-1 23:-1 24:-1 25:-1 26:-1 27:-1 28:-1 29:1 30:-1 31:-1 32:-1 33:1 34:-1 35:-1 
-512 1:0.511228 2:0.679517 3:-0.711847 4:-0.459124 5:-0.999998 6:-0.350817 7:-0.608001 8:-0.112519 9:0.0736842 10:0.990869 11:-0.384336 12:0.226952 13:-0.963245 14:1 15:-1 16:-1 17:-1 18:-1 19:-1 20:-1 21:-1 22:-1 23:-1 24:-1 25:-1 26:-1 27:-1 28:1 29:-1 30:-1 31:-1 32:-1 33:-1 34:1 35:-1 
-512 1:0.511228 2:0.679517 3:-0.711847 4:0.0146308 5:-0.957892 6:-0.337896 7:-0.830835 8:-0.112519 9:0.447108 10:0.9467 11:-0.384336 12:-0.0827801 13:-0.93967 14:1 15:-1 16:-1 17:-1 18:-1 19:-1 20:-1 21:-1 22:-1 23:-1 24:-1 25:-1 26:-1 27:-1 28:-1 29:1 30:-1 31:-1 32:-1 33:-1 34:1 35:-1 
-512 1:0.511228 2:0.679517 3:-0.711847 4:0.0146308 5:-0.960858 6:-0.326832 7:-0.800271 8:-0.112519 9:0.337843 10:0.942228 11:-0.384336 12:-0.0827801 13:-0.93967 14:1 15:-1 16:-1 17:-1 18:-1 19:-1 20:-1 21:-1 22:-1 23:-1 24:-1 25:-1 26:-1 27:-1 28:-1 29:1 30:-1 31:-1 32:-1 33:-1 34:1 35:-1 
-512 1:0.511228 2:0.679517 3:-0.711847 4:-0.526853 5:-0.999977 6:-0.363399 7:-0.380464 8:-0.112519 9:0.0736842 10:0.990869 11:-0.384336 12:-0.579026 13:-0.196526 14:1 15:-1 16:-1 17:-1 18:-1 19:-1 20:-1 21:-1 22:-1 23:-1 24:-1 25:-1 26:-1 27:-1 28:1 29:-1 30:-1 31:-1 32:-1 33:-1 34:1 35:-1 
-512 1:0.511228 2:0.679517 3:-0.711847 4:-0.178264 5:-0.149024 6:-0.345145 7:-0.670291 8:-0.112519 9:0.353212 10:0.947807 11:-0.384336 12:-0.471831 13:0.171853 14:1 15:-1 16:-1 17:-1 18:-1 19:-1 20:-1 21:-1 22:-1 23:-1 24:-1 25:-1 26:-1 27:-1 28:-1 29:1 30:-1 31:-1 32:-1 33:-1 34:1 35:-1 
-512 1:0.511228 2:0.679517 3:-0.711847 4:-0.410449 5:-0.999978 6:-0.369142 7:-0.478021 8:-0.112519 9:0.0736842 10:0.990869 11:-0.384336 12:-0.567609 13:-0.327829 14:1 15:-1 16:-1 17:-1 18:-1 19:-1 20:-1 21:-1 22:-1 23:-1 24:-1 25:-1 26:-1 27:-1 28:1 29:-1 30:-1 31:-1 32:-1 33:-1 34:1 35:-1 
-512 1:0.30924 2:0.212217 3:-0.77839 4:0.147657 5:-0.591113 6:-0.223388 7:-0.29353 8:0.886981 9:0.139404 10:0.822606 11:-0.604549 12:0.703596 13:-0.683259 14:1 15:-1 16:-1 17:-1 18:-1 19:-1 20:-1 21:-1 22:-1 23:1 24:-1 25:-1 26:-1 27:-1 28:-1 29:-1 30:-1 31:-1 32:-1 33:-1 34:-1 35:1 
-512 1:0.30924 2:0.562572 3:-0.657881 4:0.202336 5:-0.60628 6:-0.160906 7:-0.29353 8:0.128855 9:0.139404 10:0.822606 11:-0.604549 12:-0.0354432 13:-0.911654 14:-1 15:-1 16:1 17:-1 18:-1 19:-1 20:-1 21:-1 22:-1 23:1 24:-1 25:-1 26:-1 27:-1 28:-1 29:-1 30:-1 31:-1 32:-1 33:-1 34:-1 35:1 
-512 1:0.715141 2:0.870082 3:-0.726555 4:-0.0551178 5:-0.607709 6:0.0683394 7:-0.257105 8:-0.260543 9:0.478567 10:0.8357 11:-0.611815 12:0.197447 13:-0.312915 14:-1 15:-1 16:0.5 17:-1 18:-1 19:-1 20:-1 21:-1 22:-1 23:-1 24:-1 25:-1 26:1 27:-1 28:-1 29:-1 30:-1 31:-1 32:-1 33:-1 34:1 35:-1 
-512 1:0.273353 2:0.283397 3:-0.716054 4:-0.258143 5:-0.509722 6:-0.00886623 7:-0.680406 8:-0.719953 9:-0.0188513 10:0.977529 11:-0.120017 12:-0.0797617 13:-0.0433211 14:-1 15:-1 16:-1 17:-1 18:-1 19:1 20:-1 21:-1 22:-1 23:-1 24:-1 25:-1 26:-1 27:-1 28:1 29:-1 30:-1 31:-1 32:1 33:-1 34:-1 35:-1 
-512 1:0.273353 2:0.283397 3:-0.716054 4:-0.258143 5:-0.350322 6:-0.0113727 7:-0.633881 8:-0.719953 9:-0.489774 10:0.990703 11:-0.313771 12:-0.0797617 13:-0.0433211 14:-1 15:-1 16:-1 17:-1 18:-1 19:1 20:-1 21:-1 22:-1 23:-1 24:-1 25:-1 26:-1 27:-1 28:1 29:-1 30:-1 31:-1 32:1 33:-1 34:-1 35:-1 
-512 1:0.0748567 2:0.92335 3:-0.194364 4:0.393085 5:0.457636 6:0.00931747 7:-1 8:0.0701784 9:0.211207 10:0.970664 11:-0.176097 12:-0.102176 13:-0.480036 14:1 15:-1 16:-1 17:-1 18:-1 19:-1 20:-1 21:-1 22:-1 23:-1 24:-1 25:-1 26:-1 27:1 28:-1 29:-1 30:-1 31:-1 32:-1 33:-1 34:1 35:-1 
-512 1:-0.0876688 2:0.251726 3:0.441277 4:0.119026 5:-0.9999 6:0.435121 7:-0.631203 8:0.37723 9:-0.2 10:0.690714 11:-0.828913 12:0.231838 13:-0.996517 14:-1 15:-1 16:0.5 17:-1 18:-1 19:-1 20:-1 21:-1 22:-1 23:1 24:-1 25:-1 26:-1 27:-1 28:-1 29:-1 30:-1 31:-1 32:-1 33:-1 34:-1 35:1 
-512 1:0.0276333 2:0.675804 3:0.166718 4:0.0571761 5:-0.905987 6:-0.0943299 7:-1 8:0.361227 9:0.226016 10:0.962586 11:-0.454177 12:-0.545958 13:0.69765 14:-1 15:1 16:-1 17:-1 18:-1 19:-1 20:-1 21:-1 22:-1 23:-1 24:-1 25:-1 26:-1 27:-1 28:1 29:-1 30:-1 31:-1 32:-1 33:-1 34:1 35:-1 
-512 1:0.0276333 2:0.675804 3:0.166718 4:0.05185 5:-0.71925 6:-0.11692 7:-0.898121 8:0.361227 9:0.226016 10:0.962586 11:-0.454177 12:-0.862741 13:0.146297 14:-1 15:1 16:-1 17:-1 18:-1 19:-1 20:-1 21:-1 22:-1 23:-1 24:-1 25:-1 26:-1 27:-1 28:1 29:-1 30:-1 31:-1 32:-1 33:-1 34:1 35:-1 
-512 1:0.0276333 2:0.797126 3:-0.196516 4:-0.330717 5:0.567042 6:0.0339971 7:-0.898121 8:0.690615 9:0.461597 10:0.882974 11:-0.454177 12:-0.0585549 13:-0.109667 14:-1 15:1 16:-1 17:-1 18:-1 19:-1 20:-1 21:-1 22:-1 23:-1 24:-1 25:-1 26:-1 27:-1 28:1 29:-1 30:-1 31:-1 32:-1 33:-1 34:1 35:-1 
-512 1:0.582583 2:0.703025 3:-0.714621 4:-0.215613 5:-0.147237 6:-0.0124197 7:-0.722608 8:-0.139523 9:0.38323 10:0.940818 11:-0.295807 12:0.369147 13:0.182425 14:-1 15:-1 16:-1 17:-1 18:-1 19:1 20:-1 21:-1 22:-1 23:-1 24:-1 25:-1 26:-1 27:-1 28:1 29:-1 30:-1 31:-1 32:1 33:-1 34:-1 35:-1 
-512 1:0.582583 2:0.703025 3:-0.714621 4:-0.215613 5:0.0264775 6:-0.0211814 7:-0.620064 8:-0.139523 9:-0.35081 10:0.082659 11:-0.320551 12:0.369147 13:0.182425 14:-1 15:-1 16:-1 17:-1 18:-1 19:1 20:-1 21:-1 22:-1 23:-1 24:-1 25:-1 26:-1 27:-1 28:1 29:-1 30:-1 31:-1 32:-1 33:1 34:-1 35:-1 
-512 1:-0.584398 2:0.666996 3:-0.614042 4:-0.558004 5:-0.398331 6:0.0281259 7:-0.697207 8:0.719287 9:-0.179748 10:0.130372 11:-0.330006 12:-0.58394 13:-0.450913 14:-1 15:-1 16:-1 17:-1 18:-1 19:1 20:-1 21:-1 22:-1 23:-1 24:-1 25:-1 26:1 27:-1 28:-1 29:-1 30:-1 31:-1 32:-1 33:1 34:-1 35:-1 
-512 1:-0.584398 2:0.666996 3:-0.614042 4:-0.564879 5:-0.0226831 6:0.0262319 7:-0.59246 8:0.719287 9:-0.179748 10:0.130372 11:-0.330006 12:-0.79451 13:0.00269671 14:-1 15:-1 16:-1 17:-1 18:-1 19:1 20:-1 21:-1 22:-1 23:-1 24:-1 25:-1 26:1 27:-1 28:-1 29:-1 30:-1 31:-1 32:-1 33:1 34:-1 35:-1 
-512 1:-0.584398 2:0.431511 3:-0.719078 4:-0.596847 5:-0.180094 6:0.0322919 7:-0.697207 8:0.899983 9:-0.179748 10:0.130372 11:-0.330006 12:-0.28549 13:-0.323642 14:-1 15:-1 16:-1 17:-1 18:-1 19:1 20:-1 21:-1 22:-1 23:-1 24:-1 25:-1 26:1 27:-1 28:-1 29:-1 30:-1 31:-1 32:-1 33:1 34:-1 35:-1 
-512 1:-0.584398 2:0.431511 3:-0.719078 4:-0.55868 5:0.280861 6:0.0275805 7:-0.59246 8:0.899983 9:-0.179748 10:0.130372 11:-0.330006 12:-0.60636 13:0.208698 14:-1 15:-1 16:-1 17:-1 18:-1 19:1 20:-1 21:-1 22:-1 23:-1 24:-1 25:-1 26:1 27:-1 28:-1 29:-1 30:-1 31:-1 32:-1 33:1 34:-1 35:-1 
-512 1:0.38838 2:0.57859 3:-0.383418 4:0.192511 5:0.390564 6:-0.176739 7:-0.904321 8:-0.904317 9:0.364098 10:0.997118 11:-0.466192 12:-0.24901 13:0.0494556 14:-1 15:-1 16:0.5 17:-1 18:-1 19:-1 20:-1 21:-1 22:-1 23:-1 24:-1 25:-1 26:-1 27:-1 28:1 29:-1 30:-1 31:-1 32:-1 33:-1 34:1 35:-1 
-512 1:0.38838 2:0.57859 3:-0.383418 4:0.231638 5:-0.158684 6:-0.177537 7:-0.904321 8:-0.904317 9:0.193596 10:0.995406 11:-0.466192 12:-0.582429 13:-0.473197 14:-1 15:-1 16:0.5 17:-1 18:-1 19:-1 20:-1 21:-1 22:-1 23:-1 24:-1 25:-1 26:-1 27:-1 28:1 29:-1 30:-1 31:-1 32:-1 33:-1 34:1 35:-1 
-512 1:-0.7703 2:0.488655 3:-0.495331 4:-0.331822 5:-0.0956798 6:-0.157539 7:-0.268237 8:-0.684614 9:-0.251871 10:0.928333 11:-0.753305 12:-0.0455681 13:-0.585238 14:-1 15:-1 16:-1 17:-1 18:1 19:-1 20:-1 21:-1 22:-1 23:-1 24:-1 25:-1 26:-1 27:-1 28:1 29:-1 30:-1 31:-1 32:1 33:-1 34:-1 35:-1 
-512 1:0.656019 2:0.814439 3:-0.692573 4:0.489828 5:-0.989573 6:-0.183058 7:-0.720202 8:-0.24154 9:0.355773 10:0.755144 11:-0.675333 12:-0.29893 13:-0.863887 14:1 15:-1 16:-1 17:-1 18:-1 19:-1 20:-1 21:-1 22:-1 23:-1 24:-1 25:-1 26:-1 27:-1 28:1 29:-1 30:-1 31:-1 32:-1 33:-1 34:1 35:-1 
-512 1:0.656019 2:0.814439 3:-0.692573 4:0.419534 5:-0.921892 6:-0.0946187 7:-0.724886 8:-0.24154 9:0.355773 10:0.755144 11:-0.675333 12:0.264067 13:-0.0469948 14:1 15:-1 16:-1 17:-1 18:-1 19:-1 20:-1 21:-1 22:-1 23:-1 24:-1 25:-1 26:-1 27:-1 28:1 29:-1 30:-1 31:-1 32:-1 33:-1 34:1 35:-1 
-512 1:0.656019 2:0.814439 3:-0.692573 4:0.442466 5:-0.976979 6:-0.103774 7:-0.657387 8:-0.24154 9:0.355773 10:0.755144 11:-0.675333 12:-0.0263912 13:-0.675569 14:1 15:-1 16:-1 17:-1 18:-1 19:-1 20:-1 21:-1 22:-1 23:-1 24:-1 25:-1 26:-1 27:-1 28:1 29:-1 30:-1 31:-1 32:-1 33:-1 34:1 35:-1 
-512 1:0.656019 2:0.816129 3:-0.688306 4:0.489828 5:-0.9984 6:-0.179489 7:-0.720202 8:0.288548 9:0.527957 10:0.69756 11:-0.675333 12:-0.29893 13:-0.863887 14:1 15:-1 16:-1 17:-1 18:-1 19:-1 20:-1 21:-1 22:-1 23:-1 24:-1 25:-1 26:-1 27:-1 28:1 29:-1 30:-1 31:-1 32:-1 33:-1 34:1 35:-1 
-512 1:0.656019 2:0.816129 3:-0.688306 4:0.419534 5:-0.991316 6:-0.0898739 7:-0.724886 8:0.288548 9:0.527957 10:0.69756 11:-0.675333 12:0.264067 13:-0.0469948 14:1 15:-1 16:-1 17:-1 18:-1 19:-1 20:-1 21:-1 22:-1 23:-1 24:-1 25:-1 26:-1 27:-1 28:1 29:-1 30:-1 31:-1 32:-1 33:-1 34:1 35:-1 
-512 1:0.656019 2:0.816129 3:-0.688306 4:0.442466 5:-0.996948 6:-0.0985858 7:-0.657387 8:0.288548 9:0.527957 10:0.69756 11:-0.675333 12:-0.0263912 13:-0.675569 14:1 15:-1 16:-1 17:-1 18:-1 19:-1 20:-1 21:-1 22:-1 23:-1 24:-1 25:-1 26:-1 27:-1 28:1 29:-1 30:-1 31:-1 32:-1 33:-1 34:1 35:-1 
-512 1:0.602793 2:0.267764 3:-0.981895 4:-0.567118 5:-0.278908 6:0.190906 7:-1 8:-0.388231 9:0.184231 10:0.868657 11:-0.495591 12:-0.385218 13:-0.150298 14:-1 15:-1 16:-1 17:-1 18:1 19:-1 20:-1 21:-1 22:-1 23:-1 24:-1 25:-1 26:-1 27:-1 28:1 29:-1 30:-1 31:-1 32:1 33:-1 34:-1 35:-1 
-512 1:-0.489863 2:0.256405 3:-0.310821 4:-0.741827 5:-0.769212 6:-0.0223417 7:-0.609658 8:-0.315553 9:0.2666 10:0.96169 11:-0.44927 12:0.986269 13:-0.937125 14:-1 15:1 16:-1 17:-1 18:-1 19:-1 20:-1 21:-1 22:-1 23:-1 24:-1 25:-1 26:-1 27:-1 28:-1 29:-1 30:-1 31:1 32:-1 33:-1 34:1 35:-1 
-512 1:-0.489863 2:0.652143 3:0.0833185 4:-0.51241 5:-0.408191 6:-0.181827 7:-0.609658 8:-0.54259 9:0.2666 10:0.96169 11:-0.44927 12:0.581256 13:-0.768288 14:-1 15:1 16:-1 17:-1 18:-1 19:-1 20:-1 21:-1 22:-1 23:-1 24:-1 25:-1 26:-1 27:-1 28:-1 29:-1 30:-1 31:1 32:-1 33:-1 34:1 35:-1 
-512 1:0.156783 2:0.554557 3:-0.345319 4:-0.69617 5:-0.99991 6:-0.105317 7:-0.774115 8:-0.0428405 9:0.397158 10:0.981819 11:0.840916 12:-0.749193 13:-0.0473874 14:-1 15:-1 16:-1 17:-1 18:-1 19:-1 20:-1 21:-1 22:1 23:-1 24:-1 25:-1 26:-1 27:1 28:-1 29:-1 30:-1 31:-1 32:-1 33:1 34:-1 35:-1 
-512 1:-0.311481 2:0.608862 3:0.560533 4:-0.110524 5:-0.999604 6:0.222981 7:-0.640627 8:0.330888 9:0.480969 10:0.380847 11:-0.14053 12:0.0347488 13:-0.98458 14:-1 15:-1 16:-1 17:-1 18:-1 19:1 20:-1 21:-1 22:-1 23:-1 24:-1 25:-1 26:-1 27:-1 28:-1 29:-1 30:-1 31:1 32:-1 33:1 34:-1 35:-1 
-512 1:0.221059 2:0.986774 3:0.957658 4:-0.201772 5:-0.791423 6:-0.239377 7:-1 8:0.4009 9:0.257474 10:0.950313 11:-0.274376 12:-0.206205 13:0.528957 14:1 15:-1 16:-1 17:-1 18:-1 19:-1 20:-1 21:-1 22:-1 23:-1 24:-1 25:-1 26:-1 27:1 28:-1 29:-1 30:-1 31:-1 32:-1 33:-1 34:1 35:-1 
-512 1:0.183462 2:0.639939 3:-0.000625009 4:-0.606409 5:-0.998668 6:-0.128831 7:-0.569937 8:0.584264 9:0.358415 10:0.913515 11:-0.581056 12:-0.240499 13:0.234548 14:1 15:-1 16:-1 17:-1 18:-1 19:-1 20:-1 21:-1 22:-1 23:-1 24:-1 25:-1 26:-1 27:1 28:-1 29:-1 30:-1 31:-1 32:-1 33:-1 34:1 35:-1 
-512 1:-0.26977 2:0.336538 3:-0.587858 4:-0.641065 5:-0.998189 6:0.179779 7:-0.934398 8:-0.427571 9:-0.696458 10:0.2146 11:-0.339283 12:-0.737583 13:0.804405 14:-1 15:-1 16:-1 17:-1 18:1 19:-1 20:-1 21:-1 22:-1 23:-1 24:-1 25:-1 26:-1 27:1 28:-1 29:-1 30:-1 31:-1 32:-1 33:1 34:-1 35:-1 
-512 1:0.71086 2:0.760828 3:-0.84109 4:0.8719 5:-0.725266 6:-0.125223 7:-0.905442 8:0.546591 9:0.939804 10:-0.444176 11:-0.414283 12:-0.376601 13:0.64985 14:-1 15:-1 16:-1 17:-1 18:-1 19:1 20:-1 21:-1 22:-1 23:-1 24:-1 25:-1 26:-1 27:1 28:-1 29:-1 30:-1 31:-1 32:-1 33:1 34:-1 35:-1 
-512 1:0.411364 2:0.341704 3:-0.804787 4:0.4119 5:-0.999158 6:-0.149258 7:-0.93658 8:0.535589 9:-0.496818 10:0.972019 11:-0.746044 12:0.00291046 13:-0.925357 14:-1 15:-1 16:-1 17:-1 18:-1 19:-1 20:1 21:-1 22:-1 23:-1 24:-1 25:-1 26:-1 27:-1 28:-1 29:1 30:-1 31:-1 32:1 33:-1 34:-1 35:-1 
-512 1:0.866737 2:0.793574 3:-0.921563 4:-0.53149 5:-1 6:0.0346562 7:-0.715013 8:0.18053 9:0.220332 10:0.967955 11:-0.229183 12:0.00217542 13:0.900439 14:-1 15:-1 16:0.5 17:-1 18:-1 19:-1 20:-1 21:-1 22:-1 23:-1 24:-1 25:-1 26:-1 27:-1 28:1 29:-1 30:-1 31:-1 32:-1 33:-1 34:1 35:-1 
-512 1:-0.293507 2:0.327474 3:-0.559508 4:0.0388255 5:-0.400743 6:0.0201028 7:-0.880553 8:-0.0828471 9:-0.202802 10:0.976772 11:-0.268776 12:-0.833514 13:-0.221251 14:1 15:-1 16:-1 17:-1 18:-1 19:-1 20:-1 21:-1 22:-1 23:1 24:-1 25:-1 26:-1 27:-1 28:-1 29:-1 30:-1 31:-1 32:-1 33:-1 34:-1 35:1 
-512 1:0.623516 2:0.552482 3:-0.933632 4:-0.435725 5:0.690085 6:0.0988043 7:-0.64852 8:0.252542 9:-0.506904 10:0.762216 11:-0.00645372 12:-0.365475 13:0.887501 14:-1 15:-1 16:-1 17:-1 18:-1 19:-1 20:1 21:-1 22:-1 23:-1 24:-1 25:-1 26:-1 27:-1 28:1 29:-1 30:-1 31:-1 32:-1 33:1 34:-1 35:-1 
-512 1:-0.571408 2:0.126761 3:-0.39874 4:-0.137159 5:-0.60146 6:-0.0422325 7:-0.876969 8:-0.0688448 9:-0.267881 10:0.401548 11:-0.254136 12:0.128387 13:-0.00392963 14:-1 15:-1 16:-1 17:-1 18:-1 19:1 20:-1 21:-1 22:-1 23:-1 24:-1 25:-1 26:-1 27:-1 28:1 29:-1 30:-1 31:-1 32:-1 33:1 34:-1 35:-1 
-512 1:-0.571408 2:0.22081 3:-0.399883 4:-0.137159 5:0.622395 6:-0.0387925 7:-0.876969 8:-0.0905151 9:-0.0994597 10:0.381429 11:-0.254136 12:0.128387 13:-0.00392963 14:-1 15:-1 16:-1 17:-1 18:-1 19:1 20:-1 21:-1 22:-1 23:-1 24:-1 25:-1 26:-1 27:-1 28:1 29:-1 30:-1 31:-1 32:-1 33:1 34:-1 35:-1 
-512 1:0.0596935 2:0.696123 3:0.554303 4:0.0535587 5:-0.926053 6:0.180509 7:-0.8877 8:0.12152 9:0.207925 10:0.896039 11:0.357937 12:0.990648 13:-0.773526 14:-1 15:-1 16:-1 17:-1 18:-1 19:-1 20:-1 21:-0.333333 22:-1 23:-1 24:-1 25:-1 26:-1 27:1 28:-1 29:-1 30:-1 31:-1 32:-1 33:1 34:-1 35:-1 
-512 1:-0.493989 2:-0.0336199 3:-0.0639662 4:0.0665832 5:0.815484 6:0.108677 7:-0.699743 8:-0.660943 9:0.215689 10:0.973617 11:-0.544261 12:-0.00754281 13:0.255094 14:1 15:-1 16:-1 17:-1 18:-1 19:-1 20:-1 21:-1 22:-1 23:-1 24:-1 25:-1 26:-1 27:-1 28:1 29:-1 30:-1 31:-1 32:-1 33:-1 34:1 35:-1 
-512 1:-0.0646969 2:0.518547 3:0.0193091 4:-0.220765 5:-1 6:0.198703 7:-1 8:-0.0341724 9:0.153572 10:0.66754 11:-0.650853 12:0.502472 13:-0.846976 14:1 15:-1 16:-1 17:-1 18:-1 19:-1 20:-1 21:-1 22:-1 23:1 24:-1 25:-1 26:-1 27:-1 28:-1 29:-1 30:-1 31:-1 32:-1 33:-1 34:-1 35:1 
-512 1:-0.594932 2:0.818815 3:0.796329 4:-0.35303 5:-0.453257 6:-0.249244 7:-0.65148 8:-0.0728455 9:-0.154613 10:0.975509 11:-0.64733 12:0.744111 13:-0.898389 14:1 15:-1 16:-1 17:-1 18:-1 19:-1 20:-1 21:-1 22:-1 23:1 24:-1 25:-1 26:-1 27:-1 28:-1 29:-1 30:-1 31:-1 32:-1 33:-1 34:-1 35:1 
-512 1:-0.358369 2:0.553051 3:-0.301821 4:0.0294639 5:0.60148 6:-0.172305 7:-0.366549 8:0.454909 9:0.108825 10:0.721186 11:-0.62327 12:-0.00433364 13:0.368169 14:1 15:-1 16:-1 17:-1 18:-1 19:-1 20:-1 21:-1 22:-1 23:1 24:-1 25:-1 26:-1 27:-1 28:-1 29:-1 30:-1 31:-1 32:-1 33:-1 34:-1 35:1 
-512 1:0.157465 2:0.314394 3:-0.853135 4:0.108174 5:0.676522 6:0.0661409 7:-0.896919 8:0.318553 9:-0.128997 10:0.977564 11:-0.524401 12:0.189252 13:-0.819275 14:-1 15:1 16:-1 17:-1 18:-1 19:-1 20:-1 21:-1 22:-1 23:-1 24:-1 25:-1 26:-1 27:-1 28:-1 29:-1 30:0.333333 31:-1 32:-1 33:-1 34:1 35:-1 
-512 1:0.157465 2:0.314394 3:-0.853135 4:0.108174 5:0.52063 6:0.066461 7:-0.904463 8:0.318553 9:-0.144767 10:0.980842 11:-0.524401 12:0.189252 13:-0.819275 14:-1 15:1 16:-1 17:-1 18:-1 19:-1 20:-1 21:-1 22:-1 23:-1 24:-1 25:-1 26:-1 27:-1 28:-1 29:-1 30:0.333333 31:-1 32:-1 33:-1 34:1 35:-1 
-512 1:0.157465 2:0.314394 3:-0.853135 4:0.166898 5:-0.476336 6:0.0685548 7:-0.895121 8:0.318553 9:-0.144767 10:0.980842 11:-0.524401 12:-0.271834 13:-0.986984 14:-1 15:1 16:-1 17:-1 18:-1 19:-1 20:-1 21:-1 22:-1 23:-1 24:-1 25:-1 26:-1 27:-1 28:-1 29:-1 30:0.333333 31:-1 32:-1 33:-1 34:1 35:-1 
-512 1:0.157465 2:0.500709 3:-0.768061 4:0.108174 5:0.797762 6:0.0231056 7:-0.896919 8:-0.343557 9:0.210726 10:0.907944 11:-0.524401 12:0.189252 13:-0.819275 14:-1 15:1 16:-1 17:-1 18:-1 19:-1 20:-1 21:-1 22:-1 23:-1 24:-1 25:-1 26:-1 27:-1 28:-1 29:-1 30:0.333333 31:-1 32:-1 33:-1 34:1 35:-1 
-512 1:0.157465 2:0.500709 3:-0.768061 4:0.108174 5:0.664356 6:0.0239423 7:-0.904463 8:-0.343557 9:0.180628 10:0.915156 11:-0.524401 12:0.189252 13:-0.819275 14:-1 15:1 16:-1 17:-1 18:-1 19:-1 20:-1 21:-1 22:-1 23:-1 24:-1 25:-1 26:-1 27:-1 28:-1 29:-1 30:0.333333 31:-1 32:-1 33:-1 34:1 35:-1 
-512 1:0.157465 2:0.500709 3:-0.768061 4:0.166898 5:-0.360669 6:0.0272198 7:-0.895121 8:-0.343557 9:0.180628 10:0.915156 11:-0.524401 12:-0.271834 13:-0.986984 14:-1 15:1 16:-1 17:-1 18:-1 19:-1 20:-1 21:-1 22:-1 23:-1 24:-1 25:-1 26:-1 27:-1 28:-1 29:-1 30:0.333333 31:-1 32:-1 33:-1 34:1 35:-1 
-512 1:0.157465 2:0.500709 3:-0.768061 4:0.0545767 5:0.807753 6:0.0230984 7:-0.896919 8:-0.343557 9:0.376986 10:0.869993 11:-0.524401 12:0.184416 13:-0.221888 14:-1 15:1 16:-1 17:-1 18:-1 19:-1 20:-1 21:-1 22:-1 23:-1 24:-1 25:-1 26:-1 27:-1 28:-1 29:-1 30:0.333333 31:-1 32:-1 33:-1 34:1 35:-1 
-512 1:0.157465 2:0.500709 3:-0.768061 4:0.0375985 5:0.689927 6:0.0239351 7:-0.904463 8:-0.343557 9:0.376986 10:0.869993 11:-0.524401 12:0.278105 13:-0.434479 14:-1 15:1 16:-1 17:-1 18:-1 19:-1 20:-1 21:-1 22:-1 23:-1 24:-1 25:-1 26:-1 27:-1 28:-1 29:-1 30:0.333333 31:-1 32:-1 33:-1 34:1 35:-1 
-512 1:0.665873 2:0.591233 3:-0.891403 4:0.266513 5:0.227177 6:0.0364582 7:-0.879586 8:-0.0615103 9:0.120352 10:0.961339 11:-0.416559 12:0.176938 13:0.827599 14:1 15:-1 16:-1 17:-1 18:-1 19:-1 20:-1 21:-1 22:-1 23:-1 24:-1 25:-1 26:-1 27:1 28:-1 29:-1 30:-1 31:-1 32:-1 33:-1 34:1 35:-1 
-512 1:0.665873 2:0.591233 3:-0.891403 4:0.266513 5:-0.667221 6:0.0318324 7:-0.797088 8:-0.0615103 9:0.0943366 10:0.956953 11:-0.416559 12:0.176938 13:0.827599 14:1 15:-1 16:-1 17:-1 18:-1 19:-1 20:-1 21:-1 22:-1 23:-1 24:-1 25:-1 26:-1 27:1 28:-1 29:-1 30:-1 31:-1 32:-1 33:-1 34:1 35:-1 
-512 1:0.665873 2:0.988326 3:-0.6374 4:0.215651 5:0.975763 6:-0.0961426 7:-0.620223 8:0.176863 9:-0.279328 10:0.936083 11:-0.502887 12:0.542311 13:0.95637 14:-1 15:-1 16:1 17:-1 18:-1 19:-1 20:-1 21:-1 22:-1 23:1 24:-1 25:-1 26:-1 27:-1 28:-1 29:-1 30:-1 31:-1 32:-1 33:-1 34:-1 35:1 
-512 1:0.608951 2:0.647515 3:-0.819974 4:-0.0540817 5:-0.0331688 6:0.221056 7:-0.857496 8:-0.131522 9:0.239384 10:0.967538 11:-0.308193 12:-0.270248 13:-0.513989 14:-1 15:-1 17:-1 18:-1 19:-1 20:-1 21:-1 22:-1 23:-1 24:-1 25:-1 26:1 27:-1 28:-1 29:-1 30:-1 31:-1 32:-1 33:-1 34:1 35:-1 
-512 1:0.531031 2:0.975651 3:-0.603216 4:-0.696331 5:-0.866569 6:0.147278 7:-0.929909 8:-0.740623 9:0.696298 10:0.0638045 11:-0.254973 12:-0.5124 13:-0.97127 14:-1 15:-1 16:-1 17:-1 18:-1 19:-1 20:1 21:-1 22:-1 23:-1 24:-1 25:-1 26:-1 27:-1 28:1 29:-1 30:-1 31:-1 32:-1 33:1 34:-1 35:-1 
-512 1:0.56736 2:0.792234 3:-0.799243 4:-0.769313 5:-0.77648 6:0.0898585 7:-0.816205 8:-0.213536 9:-0.353772 10:0.959179 11:-0.608935 12:-0.00909109 13:-0.915344 14:-1 15:1 16:-1 17:-1 18:-1 19:-1 20:-1 21:-1 22:-1 23:1 24:-1 25:-1 26:-1 27:-1 28:-1 29:-1 30:-1 31:-1 32:-1 33:-1 34:-1 35:1 
-512 1:0.56736 2:0.792234 3:-0.799243 4:-0.782274 5:-0.983713 6:0.0860602 7:-0.816205 8:-0.213536 9:-0.353772 10:0.959179 11:-0.608935 12:-0.0258501 13:-0.999112 14:-1 15:1 16:-1 17:-1 18:-1 19:-1 20:-1 21:-1 22:-1 23:1 24:-1 25:-1 26:-1 27:-1 28:-1 29:-1 30:-1 31:-1 32:-1 33:-1 34:-1 35:1 
-512 1:-0.237662 2:0.724084 3:0.555289 4:-0.885545 5:0.402504 6:-0.0301789 7:-0.577215 8:0.614602 9:0.355854 10:0.985352 11:-0.406063 12:0.643941 13:-0.399446 14:-1 15:-1 16:1 17:-1 18:-1 19:-1 20:-1 21:-1 22:-1 23:-1 24:-1 25:-1 26:-1 27:1 28:-1 29:-1 30:-1 31:-1 32:-1 33:-1 34:1 35:-1 
-512 1:-0.247396 2:0.262677 3:-0.220528 4:-0.441911 5:-0.153763 6:0.278157 7:-0.755822 8:0.142524 9:0.0109266 10:0.927288 11:-0.630978 12:0.0743161 13:0.23981 14:1 15:-1 16:-1 17:-1 18:-1 19:-1 20:-1 21:-1 22:-1 23:-1 24:-1 25:-1 26:-1 27:1 28:-1 29:-1 30:-1 31:-1 32:-1 33:-1 34:1 35:-1 
-512 1:-0.247396 2:0.262677 3:-0.220528 4:-0.385034 5:-0.888942 6:0.287835 7:-0.728948 8:0.142524 9:0.0109266 10:0.927288 11:-0.630978 12:-0.0390121 13:-0.944032 14:1 15:-1 16:-1 17:-1 18:-1 19:-1 20:-1 21:-1 22:-1 23:-1 24:-1 25:-1 26:-1 27:1 28:-1 29:-1 30:-1 31:-1 32:-1 33:-1 34:1 35:-1 
-512 1:0.358353 2:0.249981 3:-0.926188 4:-0.367332 5:0.307145 6:0.00415728 7:-0.585742 8:-0.175863 9:0.25027 10:0.93739 11:-0.404603 12:0.462351 13:-0.598881 14:1 15:-1 16:-1 17:-1 18:-1 19:-1 20:-1 21:-1 22:-1 23:-1 24:-1 25:-1 26:1 27:-1 28:-1 29:-1 30:-1 31:-1 32:-1 33:-1 34:1 35:-1 
-512 1:0.396631 2:0.497335 3:-0.599965 4:0.0437245 5:-0.999837 6:0.0471142 7:-0.777827 8:-0.765294 9:-0.297418 10:0.979465 11:-0.612033 12:0.0275235 13:-0.199917 14:-1 15:-1 16:-1 17:-1 18:-1 19:-1 20:1 21:-1 22:-1 23:-1 24:-1 25:-1 26:-1 27:-1 28:1 29:-1 30:-1 31:-1 32:1 33:-1 34:-1 35:-1 
-512 1:0.396631 2:0.536212 3:-0.533285 4:0.0385165 5:-0.999965 6:0.0332108 7:-0.777827 8:-0.614602 9:-0.297418 10:0.979465 11:-0.612033 12:-0.134712 13:-0.837986 14:-1 15:-1 16:-1 17:-1 18:-1 19:-1 20:1 21:-1 22:-1 23:-1 24:-1 25:-1 26:-1 27:-1 28:1 29:-1 30:-1 31:-1 32:1 33:-1 34:-1 35:-1 
-512 1:-0.371404 2:0.274832 3:-0.943002 4:-0.408272 5:0.46799 6:-0.05215 7:-0.592271 8:-0.286548 9:0.274044 10:0.926821 11:-0.704265 12:-0.551798 13:0.164501 14:1 15:-1 16:-1 17:-1 18:-1 19:-1 20:-1 21:-1 22:-1 23:-1 24:-1 25:-1 26:1 27:-1 28:-1 29:-1 30:-1 31:-1 32:-1 33:-1 34:1 35:-1 
-512 1:-0.371404 2:0.274832 3:-0.943002 4:-0.390928 5:-0.562853 6:-0.0506589 7:-0.632648 8:-0.286548 9:0.274044 10:0.926821 11:-0.704265 12:-0.77822 13:-0.838344 14:1 15:-1 16:-1 17:-1 18:-1 19:-1 20:-1 21:-1 22:-1 23:-1 24:-1 25:-1 26:1 27:-1 28:-1 29:-1 30:-1 31:-1 32:-1 33:-1 34:1 35:-1 
-512 1:0.877846 2:0.702879 3:-0.972474 4:-0.0768222 5:0.000970632 6:-0.0645265 7:-0.535932 8:-0.0808468 9:-0.128997 10:0.980713 11:-0.508236 12:0.549718 13:0.707209 14:-1 15:-1 17:-1 18:-1 19:-1 20:-1 21:-1 22:-1 23:-1 24:-1 25:-1 26:-1 27:1 28:-1 29:-1 30:-1 31:-1 32:-1 33:-1 34:1 35:-1 
-512 1:-0.411428 2:0.724549 3:-0.986035 4:-0.511491 5:-0.247325 6:0.235734 7:-0.471137 8:0.0148358 9:0.444787 10:0.915916 11:-0.412683 12:0.348341 13:-0.0694698 14:-1 15:-1 17:-1 18:-1 19:-1 20:-1 21:-1 22:-1 23:-1 24:-1 25:-1 26:-1 27:-1 28:1 29:-1 30:-1 31:-1 32:-1 33:-1 34:1 35:-1 
-512 1:-0.102461 2:0.609476 3:-0.433883 4:-0.302215 5:0.592621 6:0.0863643 7:-0.759912 8:0.613269 9:0.278127 10:0.51989 11:-0.0770943 12:-0.233214 13:-0.110979 14:-1 15:-1 16:-1 17:-1 18:1 19:-1 20:-1 21:-1 22:-1 23:-1 24:-1 25:-1 26:-1 27:-1 28:1 29:-1 30:-1 31:-1 32:-1 33:1 34:-1 35:-1 
-512 1:-0.102461 2:0.07624 3:-0.579823 4:-0.31982 5:-0.0400864 6:0.0867726 7:-0.759912 8:-0.336889 9:0.278127 10:0.51989 11:-0.0770943 12:0.508196 13:-0.447541 14:-1 15:-1 16:-1 17:-1 18:1 19:-1 20:-1 21:-1 22:-1 23:-1 24:-1 25:-1 26:-1 27:-1 28:1 29:-1 30:-1 31:-1 32:-1 33:1 34:-1 35:-1 
-512 1:-0.154097 2:0.764151 3:-0.296542 4:-0.430865 5:-0.989949 6:-0.0772811 7:-0.565226 8:-0.947991 9:-0.695577 10:0.957606 11:0.0883082 12:-0.958988 13:-0.166705 14:-1 15:-1 16:-1 17:-1 18:-1 19:1 20:-1 21:-1 22:-1 23:-1 24:-1 25:-1 26:-1 27:-1 28:1 29:-1 30:-1 31:-1 32:-1 33:1 34:-1 35:-1 
-512 1:-0.266254 2:0.643049 3:0.0586577 4:0.0938682 5:-0.463618 6:-0.0945792 7:-0.583807 8:0.769962 9:-0.187833 10:0.994841 11:-0.654145 12:0.0966834 13:-0.208963 14:1 15:-1 16:-1 17:-1 18:-1 19:-1 20:-1 21:-1 22:-1 23:-1 24:-1 25:-1 26:-1 27:-1 28:1 29:-1 30:-1 31:-1 32:-1 33:-1 34:1 35:-1 
-512 1:-0.337729 2:0.334082 3:-0.417937 4:-0.294602 5:0.824781 6:0.00939893 7:-0.529305 8:-0.0905151 9:-0.875285 10:-0.273362 11:-0.465306 12:0.322458 13:0.95011 14:-1 15:-1 16:-1 17:-1 18:-1 19:1 20:-1 21:-1 22:-1 23:-1 24:-1 25:-1 26:1 27:-1 28:-1 29:-1 30:-1 31:-1 32:-1 33:1 34:-1 35:-1 
-512 1:-0.337729 2:0.334082 3:-0.417937 4:-0.294602 5:0.8037 6:0.0240051 7:-0.56133 8:-0.0905151 9:-0.736242 10:0.816617 11:0.0607456 12:0.322458 13:0.95011 14:-1 15:-1 16:-1 17:-1 18:-1 19:1 20:-1 21:-1 22:-1 23:-1 24:-1 25:-1 26:1 27:-1 28:-1 29:-1 30:-1 31:-1 32:-1 33:1 34:-1 35:-1 
-512 1:-0.337729 2:0.334082 3:-0.417937 4:-0.331663 5:0.72404 6:-0.00195653 7:-0.477069 8:-0.0905151 9:-0.736242 10:0.816617 11:0.0607456 12:0.133311 13:0.937364 14:-1 15:-1 16:-1 17:-1 18:-1 19:1 20:-1 21:-1 22:-1 23:-1 24:-1 25:-1 26:1 27:-1 28:-1 29:-1 30:-1 31:-1 32:-1 33:1 34:-1 35:-1 
-512 1:-0.337729 2:0.334082 3:-0.417937 4:-0.337669 5:-0.874779 6:0.000907198 7:-0.477069 8:-0.0905151 9:-0.736242 10:0.816617 11:0.0607456 12:0.189021 13:-0.908308 14:-1 15:-1 16:-1 17:-1 18:-1 19:1 20:-1 21:-1 22:-1 23:-1 24:-1 25:-1 26:1 27:-1 28:-1 29:-1 30:-1 31:-1 32:-1 33:1 34:-1 35:-1 
-512 1:0.688019 2:0.702231 3:-0.857624 4:0.618255 5:0.661844 6:-0.0329641 7:-1 8:0.64094 9:-0.305343 10:0.254056 11:-0.224421 12:-0.7018 13:0.248951 14:-1 15:-1 16:-1 17:-1 18:-1 19:-1 20:1 21:-1 22:-1 23:-1 24:-1 25:-1 26:-1 27:-1 28:1 29:-1 30:-1 31:-1 32:-1 33:1 34:-1 35:-1 
-512 1:0.301371 2:0.349623 3:-0.597774 4:-0.314986 5:-0.285214 6:0.188639 7:-0.855186 8:0.0298383 9:0.335441 10:0.887064 11:-0.526306 12:-0.754486 13:-0.665519 14:1 15:-1 16:-1 17:-1 18:-1 19:-1 20:-1 21:-1 22:-1 23:-1 24:-1 25:-1 26:-1 27:1 28:-1 29:-1 30:-1 31:-1 32:-1 33:-1 34:1 35:-1 
-512 1:-0.883464 2:0.648502 3:0.288728 4:-0.464972 5:0.480811 6:0.169643 7:-0.920076 8:-0.188865 9:-0.771143 10:0.860887 11:0.222943 12:-0.103277 13:0.684534 14:-1 15:-1 16:-1 17:-1 18:-1 19:-1 20:1 21:-1 22:-1 23:-1 24:-1 25:-1 26:-1 27:-1 28:1 29:-1 30:-1 31:-1 32:-1 33:1 34:-1 35:-1 
-512 1:0.726764 2:0.566127 3:-0.945043 4:0.00777769 5:0.197403 6:-0.0186968 7:-0.557473 8:0.0165028 9:0.190634 10:0.973549 11:-0.307082 12:-0.0793426 13:-0.261613 14:1 15:-1 16:-1 17:-1 18:-1 19:-1 20:-1 21:-1 22:-1 23:-1 24:-1 25:-1 26:-1 27:-1 28:1 29:-1 30:-1 31:-1 32:-1 33:-1 34:1 35:-1 
-512 1:-0.410125 2:0.688728 3:0.0969728 4:-0.55253 5:-0.999986 6:0.0535157 7:-0.54511 8:-0.0791799 9:0.39988 10:0.856044 11:-0.549848 12:0.992681 13:-0.855209 14:-1 15:1 16:-1 17:-1 18:-1 19:-1 20:-1 21:-1 22:-1 23:-1 24:-1 25:-1 26:-1 27:-1 28:1 29:-1 30:-1 31:-1 32:-1 33:-1 34:1 35:-1 
-512 1:-0.410125 2:0.688728 3:0.0969728 4:-0.524796 5:-0.999214 6:0.0538353 7:-0.54511 8:-0.0791799 9:0.361217 10:0.843201 11:-0.549848 12:0.516072 13:-0.948419 14:-1 15:1 16:-1 17:-1 18:-1 19:-1 20:-1 21:-1 22:-1 23:-1 24:-1 25:-1 26:-1 27:-1 28:1 29:-1 30:-1 31:-1 32:-1 33:-1 34:1 35:-1 
-512 1:-0.410125 2:0.688728 3:0.0969728 4:-0.585021 5:-0.999998 6:-0.0133442 7:-0.35128 8:-0.0791799 9:0.39988 10:0.856044 11:-0.549848 12:0.031768 13:-0.978421 14:-1 15:1 16:-1 17:-1 18:-1 19:-1 20:-1 21:-1 22:-1 23:-1 24:-1 25:-1 26:-1 27:-1 28:1 29:-1 30:-1 31:-1 32:-1 33:-1 34:1 35:-1 
-512 1:-0.410125 2:0.688728 3:0.0969728 4:-0.613214 5:-0.999922 6:-0.0130125 7:-0.35128 8:-0.0791799 9:0.361217 10:0.843201 11:-0.549848 12:-0.354002 13:-0.993533 14:-1 15:1 16:-1 17:-1 18:-1 19:-1 20:-1 21:-1 22:-1 23:-1 24:-1 25:-1 26:-1 27:-1 28:1 29:-1 30:-1 31:-1 32:-1 33:-1 34:1 35:-1 
-512 1:0.568903 2:0.423 3:-0.912974 4:-0.299307 5:-1 6:0.088688 7:-0.730958 8:0.278546 9:0.193916 10:0.941691 11:-0.410514 12:0.922617 13:0.448213 14:1 15:-1 16:-1 17:-1 18:-1 19:-1 20:-1 21:-1 22:-1 23:-1 24:-1 25:-1 26:-1 27:1 28:-1 29:-1 30:-1 31:-1 32:-1 33:-1 34:1 35:-1 
-512 1:0.568903 2:0.423 3:-0.912974 4:-0.227462 5:-1 6:0.0928208 7:-0.611646 8:0.278546 9:0.142606 10:0.943382 11:-0.410514 12:-0.351322 13:-0.176845 14:1 15:-1 16:-1 17:-1 18:-1 19:-1 20:-1 21:-1 22:-1 23:-1 24:-1 25:-1 26:-1 27:1 28:-1 29:-1 30:-1 31:-1 32:-1 33:-1 34:1 35:-1 
-512 1:0.568903 2:0.423 3:-0.912974 4:-0.227462 5:-1 6:0.088689 7:-0.730958 8:0.278546 9:0.338403 10:0.919066 11:-0.410514 12:-0.351322 13:-0.176845 14:1 15:-1 16:-1 17:-1 18:-1 19:-1 20:-1 21:-1 22:-1 23:-1 24:-1 25:-1 26:-1 27:1 28:-1 29:-1 30:-1 31:-1 32:-1 33:-1 34:1 35:-1 
-512 1:-0.189697 2:0.810523 3:0.208262 4:-0.326181 5:-0.795959 6:0.091084 7:-0.886415 8:0.217203 9:0.171183 10:0.869262 11:-0.648525 12:0.0649576 13:-0.880926 14:1 15:-1 16:-1 17:-1 18:-1 19:-1 20:-1 21:-1 22:-1 23:-1 24:-1 25:-1 26:1 27:-1 28:-1 29:-1 30:-1 31:-1 32:-1 33:-1 34:1 35:-1 
-512 1:0.559396 2:0.654534 3:-0.84825 4:-0.120423 5:-0.76682 6:-0.114352 7:-0.401445 8:0.387565 9:0.176066 10:0.931486 11:-0.58912 12:0.589126 13:-0.528153 14:-1 15:1 16:-1 17:-1 18:-1 19:-1 20:-1 21:-1 22:-1 23:-1 24:-1 25:-1 26:-1 27:1 28:-1 29:-1 30:-1 31:-1 32:-1 33:-1 34:1 35:-1 
-512 1:0.559396 2:0.555613 3:-0.82237 4:-0.120423 5:-0.994824 6:-0.153533 7:-0.220987 8:0.388231 9:0.348809 10:0.820371 11:-0.58912 12:0.589126 13:-0.528153 14:-1 15:1 16:-1 17:-1 18:-1 19:-1 20:-1 21:-1 22:-1 23:-1 24:-1 25:-1 26:1 27:-1 28:-1 29:-1 30:-1 31:-1 32:-1 33:-1 34:1 35:-1 
-512 1:0.9771 2:0.744907 3:-0.991851 4:-0.00299272 5:-1 6:0.0525186 7:-0.78302 8:-0.388898 9:0.398199 10:-0.161841 11:-0.342284 12:0.285643 13:0.937941 14:-1 15:-1 16:-1 17:-1 18:-1 19:-1 20:1 21:-1 22:-1 23:-1 24:-1 25:-1 26:-1 27:-1 28:1 29:-1 30:-1 31:-1 32:-1 33:1 34:-1 35:-1 
-512 1:0.9771 2:0.799379 3:-0.969587 4:-0.00299272 5:0.891658 6:0.114595 7:-1 8:-0.430905 9:-0.884411 10:-0.193891 11:-0.320525 12:0.285643 13:0.937941 14:-1 15:-1 16:-1 17:-1 18:-1 19:-1 20:1 21:-1 22:-1 23:-1 24:-1 25:-1 26:-1 27:-1 28:-1 29:1 30:-1 31:-1 32:-1 33:1 34:-1 35:-1 
-512 1:0.859131 2:0.636232 3:-0.987547 4:-0.0648612 5:-0.868473 6:-0.0420603 7:-1 8:-0.0118353 9:0.247308 10:0.285246 11:-0.25703 12:0.140501 13:-0.977367 14:-1 15:-1 16:-1 17:1 18:-1 19:-1 20:-1 21:-1 22:-1 23:-1 24:-1 25:-1 26:-1 27:-1 28:-1 29:1 30:-1 31:-1 32:-1 33:1 34:-1 35:-1 
-512 1:-0.459238 2:0.196154 3:0.43281 4:-0.170145 5:-0.811862 6:0.403886 7:-0.907324 8:0.132522 9:0.0412648 10:0.576558 11:-0.833309 12:-0.204335 13:-0.985089 14:1 15:-1 16:-1 17:-1 18:-1 19:-1 20:-1 21:-1 22:-1 23:1 24:-1 25:-1 26:-1 27:-1 28:-1 29:-1 30:-1 31:-1 32:-1 33:-1 34:-1 35:1 
-512 1:-0.459238 2:0.196154 3:0.43281 4:-0.170145 5:-0.841126 6:0.4043 7:-0.919687 8:0.132522 9:-0.0932159 10:0.698576 11:-0.770563 12:-0.204335 13:-0.985089 14:1 15:-1 16:-1 17:-1 18:-1 19:-1 20:-1 21:-1 22:-1 23:1 24:-1 25:-1 26:-1 27:-1 28:-1 29:-1 30:-1 31:-1 32:-1 33:-1 34:-1 35:1 
-512 1:-0.406454 2:0.414729 3:-0.509225 4:-0.653901 5:-0.791007 6:0.22399 7:-0.85492 8:-0.00950158 9:-0.186632 10:0.987658 11:-0.689882 12:0.106636 13:-0.940609 14:1 15:-1 16:-1 17:-1 18:-1 19:-1 20:-1 21:-1 22:-1 23:-1 24:-1 25:-1 26:-1 27:-1 28:1 29:-1 30:-1 31:-1 32:-1 33:-1 34:1 35:-1 
-512 1:-0.406454 2:0.414729 3:-0.509225 4:-0.785476 5:-0.692954 6:0.223783 7:-0.85492 8:-0.00950158 9:0.336562 10:0.791905 11:-0.689882 12:0.115791 13:-0.943674 14:1 15:-1 16:-1 17:-1 18:-1 19:-1 20:-1 21:-1 22:-1 23:-1 24:-1 25:-1 26:-1 27:-1 28:1 29:-1 30:-1 31:-1 32:-1 33:-1 34:1 35:-1 
-512 1:-0.280855 2:0.448974 3:-0.635008 4:-0.413203 5:0.2374 6:0.207308 7:-0.943372 8:-0.0448408 9:0.296618 10:0.980872 11:-0.398359 12:-0.0496687 13:0.109239 14:1 15:-1 16:-1 17:-1 18:-1 19:-1 20:-1 21:-1 22:-1 23:-1 24:-1 25:-1 26:1 27:-1 28:-1 29:-1 30:-1 31:-1 32:-1 33:-1 34:1 35:-1 
-512 1:-0.20663 2:0.654903 3:-0.883234 4:0.178986 5:-0.998934 6:0.0391481 7:-0.772612 8:-0.298216 9:0.148609 10:0.859351 11:-0.532222 12:0.168417 13:-0.881498 14:1 15:-1 16:-1 17:-1 18:-1 19:-1 20:-1 21:-1 22:-1 23:-1 24:-1 25:1 26:-1 27:-1 28:-1 29:-1 30:-1 31:-1 32:-1 33:-1 34:-1 35:1 
-512 1:-0.20663 2:0.654903 3:-0.883234 4:0.116191 5:-0.994702 6:0.04073 7:-0.722605 8:-0.298216 9:0.148609 10:0.859351 11:-0.532222 12:0.345319 13:-0.316948 14:1 15:-1 16:-1 17:-1 18:-1 19:-1 20:-1 21:-1 22:-1 23:-1 24:-1 25:1 26:-1 27:-1 28:-1 29:-1 30:-1 31:-1 32:-1 33:-1 34:-1 35:1 
-512 1:-0.561029 2:0.495801 3:-0.782348 4:0.0353899 5:-0.837061 6:0.0217846 7:-0.893032 8:0.429238 9:0.43406 10:0.909196 11:-0.385576 12:-0.79105 13:-0.915198 14:-1 15:1 16:-1 17:-1 18:-1 19:-1 20:-1 21:-1 22:-1 23:-1 24:-1 25:-1 26:-1 27:1 28:-1 29:-1 30:-1 31:-1 32:-1 33:-1 34:1 35:-1 
-512 1:-0.561029 2:0.495801 3:-0.782348 4:0.0353899 5:-0.880578 6:0.0100524 7:-0.854224 8:0.429238 9:0.33272 10:0.921212 11:-0.385576 12:-0.79105 13:-0.915198 14:-1 15:1 16:-1 17:-1 18:-1 19:-1 20:-1 21:-1 22:-1 23:-1 24:-1 25:-1 26:-1 27:1 28:-1 29:-1 30:-1 31:-1 32:-1 33:-1 34:1 35:-1 
-512 1:0.254626 2:0.749321 3:-0.86795 4:-0.566387 5:0.687555 6:0.00306106 7:-0.140644 8:-0.00150025 9:0.297258 10:0.658263 11:-0.720069 12:0.645474 13:-0.897808 14:1 15:-1 16:-1 17:-1 18:-1 19:-1 20:-1 21:-1 22:-1 23:-1 24:-1 25:-1 26:-1 27:-1 28:1 29:-1 30:-1 31:-1 32:-1 33:-1 34:1 35:-1 
-512 1:0.254626 2:0.749321 3:-0.86795 4:-0.215027 5:0.747257 6:0.0170595 7:-0.255537 8:-0.00150025 9:0.297258 10:0.658263 11:-0.720069 12:-0.457862 13:-0.804499 14:1 15:-1 16:-1 17:-1 18:-1 19:-1 20:-1 21:-1 22:-1 23:-1 24:-1 25:-1 26:-1 27:-1 28:1 29:-1 30:-1 31:-1 32:-1 33:-1 34:1 35:-1 
-512 1:0.156998 2:0.078778 3:-0.868232 4:0.106547 5:-0.890944 6:0.0993019 7:-0.853704 8:0.70095 9:0.293496 10:0.860749 11:-0.548258 12:-0.330778 13:-0.976182 14:1 15:-1 16:-1 17:-1 18:-1 19:-1 20:-1 21:-1 22:-1 23:-1 24:-1 25:-1 26:-1 27:1 28:-1 29:-1 30:-1 31:-1 32:-1 33:-1 34:1 35:-1 
-512 1:-0.08389 2:0.439432 3:-0.536825 4:-0.298152 5:-1 6:0.0936205 7:-0.892625 8:-0.26121 9:0.328877 10:0.902077 11:-0.544284 12:0.022888 13:0.381531 14:-1 15:1 16:-1 17:-1 18:-1 19:-1 20:-1 21:-1 22:-1 23:-1 24:-1 25:-1 26:-1 27:-1 28:-1 29:1 30:-1 31:-1 32:-1 33:-1 34:1 35:-1 
-512 1:-0.08389 2:0.439432 3:-0.536825 4:-0.298152 5:-1 6:0.0911737 7:-0.743441 8:-0.26121 9:0.286212 10:0.970257 11:-0.544284 12:0.022888 13:0.381531 14:-1 15:1 16:-1 17:-1 18:-1 19:-1 20:-1 21:-1 22:-1 23:-1 24:-1 25:-1 26:-1 27:-1 28:-1 29:1 30:-1 31:-1 32:-1 33:-1 34:1 35:-1 
-512 1:-0.08389 2:0.439432 3:-0.536825 4:-0.457696 5:-1 6:0.0909711 7:-0.743441 8:-0.26121 9:0.18383 10:0.923976 11:-0.544284 12:0.0133575 13:0.513079 14:-1 15:1 16:-1 17:-1 18:-1 19:-1 20:-1 21:-1 22:-1 23:-1 24:-1 25:-1 26:-1 27:-1 28:-1 29:1 30:-1 31:-1 32:-1 33:-1 34:1 35:-1 
-512 1:0.187923 2:0.224057 3:-0.927896 4:-0.0459744 5:0.412573 6:0.0279028 7:-0.394352 8:0.0175029 9:0.217851 10:0.95461 11:-0.532446 12:-0.0914818 13:0.0114824 14:1 15:-1 16:-1 17:-1 18:-1 19:-1 20:-1 21:-1 22:-1 23:-1 24:-1 25:-1 26:-1 27:-1 28:1 29:-1 30:-1 31:-1 32:-1 33:-1 34:1 35:-1 
