svm_type c_svc
kernel_type rbf
gamma 0.000122
nr_class 2
total_sv 3371
rho 178.199
label 1 -1
probA -1.3624
probB 3.01261
nr_sv 152 3219
SV
47104 1:-0.278958 2:0.610941 3:-0.631003 4:0.0035912 5:-0.863462 6:-0.300171 7:-0.439341 8:0.409357 9:0.923102 10:-0.513528 11:0.184466 12:0.202426 13:-0.78166 14:-1 15:-1 16:-1 17:1 18:-1 19:-1 20:-1 21:-1 22:-1 23:1 24:-1 25:-1 26:-1 27:-1 28:-1 29:-1 30:-1 31:-1 32:-1 33:-1 34:1 35:-1 
47104 1:-0.200097 2:0.562924 3:-0.692139 4:-0.643925 5:0.83899 6:0.21062 7:-0.750077 8:0.230399 9:0.999189 10:-0.0843315 11:-0.118848 12:0.354135 13:-0.401199 14:-1 15:-1 16:-1 17:-1 18:1 19:-1 20:-1 21:-1 22:-1 23:-1 24:1 25:-1 26:-1 27:-1 28:-1 29:-1 30:-1 31:-1 32:-1 33:-1 34:1 35:-1 
47104 1:-0.786463 2:0.445721 3:-0.627493 4:-0.570026 5:-0.899212 6:-0.209587 7:-0.755139 8:-0.119974 9:0.992741 10:-0.60452 11:-0.0984265 12:0.210248 13:-0.138686 14:1 15:-1 16:-1 17:-1 18:-1 19:-1 20:-1 21:-1 22:-1 23:-1 24:1 25:-1 26:-1 27:-1 28:-1 29:-1 30:-1 31:-1 32:-1 33:-1 34:-1 35:1 
47104 1:0.0765764 2:0.622217 3:-0.948209 4:0.348355 5:0.156161 6:-0.299369 7:-0.609867 8:-0.240992 9:0.968914 10:-0.270588 11:-0.0709742 12:0.21873 13:-0.940127 14:1 15:-1 16:-1 17:-1 18:-1 19:-1 20:-1 21:-1 22:-1 23:1 24:-1 25:-1 26:-1 27:-1 28:-1 29:-1 30:-1 31:-1 32:-1 33:-1 34:-1 35:1 
47104 1:0.126351 2:0.268868 3:-0.786371 4:-0.568041 5:-0.602162 6:-0.0318671 7:-0.603607 8:0.27574 9:0.890862 10:-0.553129 11:0.759625 12:-0.954624 13:0.305937 14:-1 15:-1 16:-1 17:1 18:-1 19:-1 20:-1 21:-1 22:-1 23:1 24:-1 25:-1 26:-1 27:-1 28:-1 29:-1 30:-1 31:-1 32:-1 33:-1 34:1 35:-1 
47104 1:-0.934088 2:0.697114 3:-0.158768 4:-0.633145 5:-0.468644 6:0.576931 7:-0.952062 8:0.219966 9:0.967606 10:-0.189168 11:-0.368597 12:-0.0764126 13:-0.624452 14:-1 15:-1 16:-1 17:-1 18:-1 19:-1 20:-1 21:-0.333333 22:-1 23:1 24:-1 25:-1 26:-1 27:-1 28:-1 29:-1 30:-1 31:-1 32:-1 33:-1 34:1 35:-1 
47104 1:0.213183 2:0.428597 3:-0.842211 4:-0.364646 5:0.855953 6:-0.24894 7:-0.703447 8:0.276944 9:0.985738 10:-0.208146 11:0.0803482 12:-0.138611 13:0.867943 14:-1 15:-1 16:-1 17:-1 18:-1 19:-1 20:1 21:-1 22:-1 23:1 24:-1 25:-1 26:-1 27:-1 28:-1 29:-1 30:-1 31:-1 32:-1 33:-1 34:1 35:-1 
47104 1:0.498421 2:0.499954 3:-0.937957 4:0.30051 5:0.278549 6:-0.320883 7:-0.609943 8:0.322847 9:0.961546 10:-0.282229 11:-0.189823 12:0.283051 13:-0.0721695 14:-1 15:-1 16:-1 17:-1 18:-1 19:-1 20:1 21:-1 22:-1 23:1 24:-1 25:-1 26:-1 27:-1 28:-1 29:-1 30:-1 31:-1 32:-1 33:-1 34:1 35:-1 
47104 1:-0.599567 2:0.231188 3:-0.943081 4:-0.644176 5:-0.739243 6:-0.358203 7:-0.584185 8:0.270364 9:0.959065 10:-0.436939 11:0.185805 12:-0.16672 13:-0.950092 14:-1 15:-1 16:-1 17:-1 18:1 19:-1 20:-1 21:-1 22:-1 23:1 24:-1 25:-1 26:-1 27:-1 28:-1 29:-1 30:-1 31:-1 32:-1 33:-1 34:1 35:-1 
39412.00309783829 1:-0.32318 2:0.640431 3:0.105985 4:-0.391441 5:0.651232 6:-0.220346 7:-0.665089 8:0.257844 9:0.904082 10:-0.509122 11:-0.300636 12:0.321653 13:0.467071 14:-1 15:-1 16:-1 17:-1 18:1 19:-1 20:-1 21:-1 22:-1 23:1 24:-1 25:-1 26:-1 27:-1 28:-1 29:-1 30:-1 31:-1 32:-1 33:-1 34:1 35:-1 
47104 1:-0.0639378 2:0.54002 3:0.100187 4:-0.179167 5:-0.968096 6:-0.00999646 7:-0.879748 8:0.157852 9:0.83199 10:-0.683209 11:-0.106461 12:-0.0363408 13:-0.734105 14:-1 15:-1 16:-1 17:-1 18:-1 19:-1 20:1 21:-1 22:-1 23:1 24:-1 25:-1 26:-1 27:-1 28:-1 29:-1 30:-1 31:-1 32:-1 33:-1 34:1 35:-1 
37486.45679060793 1:0.0989561 2:0.416994 3:-0.406146 4:-0.521246 5:0.64704 6:-0.0793972 7:-0.753638 8:-0.113875 9:0.396404 10:-0.882017 11:-0.0950787 12:0.27791 13:0.834534 14:1 15:-1 16:-1 17:-1 18:-1 19:-1 20:-1 21:-1 22:-1 23:1 24:-1 25:-1 26:-1 27:-1 28:-1 29:-1 30:-1 31:-1 32:-1 33:-1 34:-1 35:1 
47104 1:0.208548 2:0.801078 3:-0.758109 4:-0.364003 5:0.572555 6:-0.271501 7:-0.48639 8:-0.0645213 9:0.972582 10:-0.201742 11:-0.0776699 12:-0.101132 13:0.301431 14:-1 15:1 16:-1 17:-1 18:-1 19:-1 20:-1 21:-1 22:-1 23:1 24:-1 25:-1 26:-1 27:-1 28:-1 29:-1 30:-1 31:-1 32:-1 33:-1 34:-1 35:1 
47104 1:0.500123 2:0.499707 3:-0.903995 4:-0.737741 5:0.435948 6:-0.221087 7:-0.569323 8:0.119011 9:0.909124 10:-0.637079 11:0.117509 12:0.534053 13:-0.469848 14:-1 15:-1 16:-1 17:-1 18:1 19:-1 20:-1 21:-1 22:-1 23:1 24:-1 25:-1 26:-1 27:-1 28:-1 29:-1 30:-1 31:-1 32:-1 33:-1 34:1 35:-1 
47104 1:-0.824924 2:0.734817 3:-0.578312 4:0.411936 5:-0.240936 6:-0.275089 7:-0.667635 8:0.00136426 9:0.997888 10:-0.441508 11:-0.0950787 12:-0.195133 13:-0.788615 14:-1 15:-1 16:-1 17:-1 18:-1 19:-1 20:1 21:-1 22:-1 23:1 24:-1 25:-1 26:-1 27:-1 28:-1 29:-1 30:-1 31:-1 32:-1 33:-1 34:1 35:-1 
47104 1:-0.0576907 2:0.414503 3:0.0598636 4:-0.453579 5:0.812689 6:0.0225332 7:-0.848578 8:0.320841 9:0.639991 10:-0.73554 11:0.484433 12:0.140744 13:0.702019 14:-1 15:-1 16:-1 17:-1 18:-1 19:1 20:-1 21:-1 22:-1 23:-1 24:1 25:-1 26:-1 27:-1 28:-1 29:-1 30:-1 31:-1 32:-1 33:-1 34:1 35:-1 
47104 1:0.317514 2:0.534572 3:-0.78694 4:-0.0878632 5:-0.63652 6:-0.284098 7:-0.69802 8:0.253511 9:0.865623 10:-0.679631 11:-0.227988 12:0.117266 13:-0.787906 14:-1 15:-1 16:-1 17:-1 18:1 19:-1 20:-1 21:-1 22:-1 23:-1 24:1 25:-1 26:-1 27:-1 28:-1 29:-1 30:-1 31:-1 32:-1 33:-1 34:1 35:-1 
47104 1:-0.496441 2:0.379855 3:0.113492 4:0.478308 5:0.166993 6:-0.245684 7:-0.447599 8:-0.120697 9:0.890798 10:-0.556317 11:0.14764 12:0.404058 13:0.170003 14:-1 15:-1 16:1 17:-1 18:-1 19:-1 20:-1 21:-1 22:-1 23:1 24:-1 25:-1 26:-1 27:-1 28:-1 29:-1 30:-1 31:-1 32:-1 33:-1 34:-1 35:1 
20383.48270998051 1:-0.594973 2:0.742382 3:0.626866 4:-0.663341 5:0.153423 6:0.0581273 7:-0.953569 8:0.222936 9:0.908286 10:-0.53083 11:-0.831269 12:-0.306967 13:0.623212 14:-1 15:-1 16:-1 17:-1 18:-1 19:-1 20:-1 21:-1 22:1 23:-1 24:1 25:-1 26:-1 27:-1 28:-1 29:-1 30:-1 31:-1 32:-1 33:-1 34:1 35:-1 
47104 1:0.226976 2:0.595285 3:-0.940608 4:-0.218862 5:-0.991017 6:-0.122655 7:-0.797848 8:0.266431 9:0.954986 10:-0.261861 11:-0.428189 12:-0.249263 13:0.915402 14:-1 15:-1 16:-1 17:-1 18:1 19:-1 20:-1 21:-1 22:-1 23:-1 24:1 25:-1 26:-1 27:-1 28:-1 29:-1 30:-1 31:-1 32:-1 33:-1 34:1 35:-1 
47104 1:-0.328979 2:0.385642 3:-0.803298 4:-0.191445 5:-0.667602 6:-0.0243955 7:-1 8:-0.201749 9:0.987514 10:-0.13859 11:-0.374958 12:-0.341187 13:-0.918325 14:-1 15:1 16:-1 17:-1 18:-1 19:-1 20:-1 21:-1 22:-1 23:1 24:-1 25:-1 26:-1 27:-1 28:-1 29:-1 30:-1 31:-1 32:-1 33:-1 34:-1 35:1 
47104 1:0.271903 2:0.524014 3:-0.827752 4:0.0523766 5:-0.622698 6:0.309144 7:-0.904768 8:0.238103 9:0.984861 10:-0.248153 11:-0.041848 12:-0.822374 13:-0.154597 14:-1 15:-1 16:-1 17:-1 18:-1 19:-1 20:-1 21:-0.333333 22:-1 23:-1 24:-1 25:-1 26:1 27:-1 28:-1 29:-1 30:-1 31:-1 32:-1 33:-1 34:1 35:-1 
47104 1:0.176048 2:0.488649 3:-0.797638 4:-0.400303 5:0.343416 6:-0.379949 7:-0.486265 8:-0.242035 9:0.938081 10:-0.51419 11:0.319049 12:-0.687003 13:-0.0121435 14:1 15:-1 16:-1 17:-1 18:-1 19:-1 20:-1 21:-1 22:-1 23:-1 24:-1 25:-1 26:1 27:-1 28:-1 29:-1 30:-1 31:-1 32:-1 33:-1 34:-1 35:1 
22795.37897200854 1:-0.1902 2:0.557459 3:-0.523042 4:-0.28058 5:0.743361 6:0.0468836 7:-0.896817 8:0.400851 9:0.947319 10:-0.282191 11:-0.650151 12:-0.0318717 13:-0.626535 14:-1 15:-1 16:-1 17:-1 18:-1 19:-1 20:-1 21:1 22:-1 23:-1 24:-1 25:0.333333 26:-1 27:-1 28:-1 29:-1 30:-1 31:-1 32:-1 33:-1 34:1 35:-1 
47104 1:-0.41234 2:0.425037 3:-0.25174 4:-0.583095 5:-0.278801 6:-0.0378176 7:-0.728564 8:0.220608 9:0.91188 10:-0.52885 11:-0.175427 12:0.166004 13:-0.74905 14:-1 15:-1 16:-1 17:-1 18:-1 19:1 20:-1 21:-1 22:-1 23:1 24:-1 25:-1 26:-1 27:-1 28:-1 29:-1 30:-1 31:-1 32:-1 33:-1 34:1 35:-1 
47104 1:-0.175881 2:0.345292 3:-0.544521 4:-0.0999371 5:0.623968 6:-0.30591 7:-0.637538 8:0.170291 9:0.958295 10:-0.385166 11:0.0893873 12:0.0838183 13:0.860356 14:-1 15:-1 16:-1 17:1 18:-1 19:-1 20:-1 21:-1 22:-1 23:-1 24:-1 25:-1 26:1 27:-1 28:-1 29:-1 30:-1 31:-1 32:-1 33:-1 34:1 35:-1 
47104 1:0.635711 2:0.500151 3:-0.99732 4:-0.0122357 5:-0.884497 6:-0.148157 7:-0.581645 8:0.186983 9:0.969831 10:-0.339244 11:-0.218949 12:-0.0281813 13:-0.972647 14:-1 15:-1 16:-1 17:-1 18:-1 19:1 20:-1 21:-1 22:-1 23:1 24:-1 25:-1 26:-1 27:-1 28:-1 29:-1 30:-1 31:-1 32:-1 33:-1 34:1 35:-1 
47104 1:-0.45148 2:0.96774 3:-0.674853 4:-0.552976 5:-0.812261 6:-0.561739 7:-0.109242 8:0.287858 9:0.959606 10:-0.388145 11:-0.177436 12:-0.106192 13:-0.917155 14:-1 15:-1 16:-1 17:-1 18:-1 19:1 20:-1 21:-1 22:-1 23:1 24:-1 25:-1 26:-1 27:-1 28:-1 29:-1 30:-1 31:-1 32:-1 33:-1 34:1 35:-1 
47104 1:0.197084 2:0.835794 3:-0.68587 4:-0.0337118 5:0.192481 6:-0.281654 7:-0.684231 8:0.236177 9:0.972206 10:-0.237332 11:-0.581855 12:0.0958558 13:-0.363362 14:-1 15:-1 16:-1 17:-1 18:-1 19:1 20:-1 21:-1 22:-1 23:-1 24:1 25:-1 26:-1 27:-1 28:-1 29:-1 30:-1 31:-1 32:-1 33:-1 34:1 35:-1 
7314.341907580707 1:0.0461807 2:0.367596 3:-0.81087 4:0.184473 5:-1 6:0.11437 7:-1 8:0.343632 9:0.913179 10:-0.534711 11:-0.126548 12:-0.261788 13:-0.546282 14:-1 15:-1 16:-1 17:-1 18:1 19:-1 20:-1 21:-1 22:-1 23:-1 24:-1 25:-1 26:1 27:-1 28:-1 29:-1 30:-1 31:-1 32:-1 33:-1 34:1 35:-1 
27857.66096421406 1:-0.442154 2:0.718486 3:-0.864178 4:-0.440866 5:-1 6:-0.0979097 7:-0.790451 8:0.204638 9:0.990133 10:0.0300729 11:-0.752595 12:-0.463142 13:-0.2752 14:-1 15:-1 16:-1 17:-1 18:-1 19:1 20:-1 21:-1 22:-1 23:1 24:-1 25:-1 26:-1 27:-1 28:-1 29:-1 30:-1 31:-1 32:-1 33:-1 34:1 35:-1 
47104 1:0.701596 2:0.687704 3:-0.980103 4:-0.602915 5:-1 6:-0.143144 7:-0.862291 8:0.258326 9:0.913887 10:-0.478823 11:0.823904 12:-0.224684 13:-0.332532 14:-1 15:-1 16:-1 17:-1 18:-1 19:1 20:-1 21:-1 22:-1 23:-1 24:1 25:-1 26:-1 27:-1 28:-1 29:-1 30:-1 31:-1 32:-1 33:-1 34:1 35:-1 
12652.64786960935 1:-0.117239 2:0.800146 3:-0.272564 4:-0.637375 5:-0.438468 6:-0.368928 7:-0.738447 8:0.211701 9:0.916431 10:-0.51336 11:0.76766 12:-0.140547 13:0.754217 14:-1 15:-1 16:-1 17:-1 18:-1 19:1 20:-1 21:-1 22:-1 23:-1 24:-1 25:-1 26:1 27:-1 28:-1 29:-1 30:-1 31:-1 32:-1 33:-1 34:1 35:-1 
45224.72990835031 1:0.19957 2:0.549175 3:-0.558793 4:-0.584899 5:-0.750163 6:0.116856 7:-1 8:0.253431 9:0.9781 10:-0.498648 11:0.735855 12:-0.153685 13:-0.804756 14:-1 15:-1 16:-1 17:1 18:-1 19:-1 20:-1 21:-1 22:-1 23:-1 24:1 25:-1 26:-1 27:-1 28:-1 29:-1 30:-1 31:-1 32:-1 33:-1 34:1 35:-1 
47104 1:-0.0828693 2:0.651338 3:-0.712103 4:0.106623 5:-0.0577508 6:-0.0934075 7:-0.730019 8:0.226467 9:0.985363 10:-0.146247 11:-0.283897 12:-0.521722 13:-0.708228 14:-1 15:-1 16:-1 17:-1 18:1 19:-1 20:-1 21:-1 22:-1 23:1 24:-1 25:-1 26:-1 27:-1 28:-1 29:-1 30:-1 31:-1 32:-1 33:-1 34:1 35:-1 
47104 1:0.603222 2:0.845031 3:-0.83153 4:-0.324016 5:0.86111 6:-0.145513 7:-0.571457 8:0.359361 9:0.862027 10:-0.594292 11:0.0190827 12:-0.220059 13:0.989471 14:-1 15:-1 16:-1 17:-1 18:-1 19:1 20:-1 21:-1 22:-1 23:1 24:-1 25:-1 26:-1 27:-1 28:-1 29:-1 30:-1 31:-1 32:-1 33:-1 34:1 35:-1 
47104 1:-0.410504 2:0.682988 3:0.238172 4:-0.413605 5:-0.46572 6:-0.116673 7:-0.810745 8:0.280716 9:0.996548 10:-0.297831 11:-0.138266 12:0.0860107 13:-0.508547 14:-1 15:-1 16:-1 17:-1 18:-1 19:-1 20:1 21:-1 22:-1 23:1 24:-1 25:-1 26:-1 27:-1 28:-1 29:-1 30:-1 31:-1 32:-1 33:-1 34:1 35:-1 
47104 1:0.49045 2:0.593111 3:-0.894923 4:0.187406 5:-0.453498 6:-0.1959 7:-0.670971 8:-0.175989 9:0.979713 10:-0.388514 11:0.0877134 12:-0.196687 13:-0.578776 14:1 15:-1 16:-1 17:-1 18:-1 19:-1 20:-1 21:-1 22:-1 23:1 24:-1 25:-1 26:-1 27:-1 28:-1 29:-1 30:-1 31:-1 32:-1 33:-1 34:-1 35:1 
12739.66798433245 1:-0.381295 2:0.506274 3:-0.949024 4:-0.0652028 5:0.823449 6:-0.255556 7:-0.938209 8:0.247412 9:0.991467 10:0.0383272 11:0.037161 12:-0.967096 13:0.864191 14:-1 15:-1 16:-1 17:-1 18:-1 19:-1 20:1 21:-1 22:-1 23:1 24:-1 25:-1 26:-1 27:-1 28:-1 29:-1 30:-1 31:-1 32:-1 33:-1 34:1 35:-1 
47104 1:-0.308189 2:0.732485 3:0.0993265 4:0.107584 5:-0.997701 6:-0.295474 7:-0.655005 8:0.235695 9:0.888569 10:-0.6153 11:0.12387 12:0.0962874 13:-0.555109 14:-1 15:-1 16:-1 17:-1 18:1 19:-1 20:-1 21:-1 22:-1 23:1 24:-1 25:-1 26:-1 27:-1 28:-1 29:-1 30:-1 31:-1 32:-1 33:-1 34:1 35:-1 
47104 1:-0.41505 2:0.66362 3:-0.993165 4:-0.13436 5:0.776614 6:0.0460787 7:-0.64627 8:0.332718 9:0.994106 10:0.172632 11:-0.35688 12:-0.0157091 13:0.803272 14:-1 15:-1 16:-1 17:-1 18:-1 19:-1 20:1 21:-1 22:-1 23:-1 24:1 25:-1 26:-1 27:-1 28:-1 29:-1 30:-1 31:-1 32:-1 33:-1 34:1 35:-1 
47104 1:0.413895 2:0.83487 3:-0.980393 4:0.176585 5:-0.245713 6:0.407709 7:-0.55914 8:0.37164 9:0.980875 10:0.0885314 11:-0.543355 12:-0.0236027 13:-0.461842 14:-1 15:-1 16:-1 17:-1 18:-1 19:-1 20:-1 21:-0.333333 22:-1 23:-1 24:-1 25:-1 26:1 27:-1 28:-1 29:-1 30:-1 31:-1 32:-1 33:-1 34:1 35:-1 
47104 1:0.329146 2:0.352362 3:-0.88996 4:-0.06441 5:-0.858291 6:-0.336924 7:-0.609512 8:0.0911644 9:0.932656 10:-0.539679 11:-0.587881 12:-0.0125097 13:-0.999998 14:-1 15:-1 16:-1 17:-1 18:-1 19:-1 20:1 21:-1 22:-1 23:1 24:-1 25:-1 26:-1 27:-1 28:-1 29:-1 30:-1 31:-1 32:-1 33:-1 34:1 35:-1 
47104 1:0.245057 2:0.762271 3:-0.713201 4:-0.222398 5:-0.994783 6:-0.338376 7:-0.543562 8:0.362651 9:0.900228 10:-0.577356 11:0.216271 12:-0.301253 13:-0.5545 14:-1 15:-1 16:-1 17:1 18:-1 19:-1 20:-1 21:-1 22:-1 23:1 24:-1 25:-1 26:-1 27:-1 28:-1 29:-1 30:-1 31:-1 32:-1 33:-1 34:1 35:-1 
47104 1:0.0884659 2:0.520143 3:-0.693547 4:-0.407584 5:-0.899655 6:-0.320309 7:-0.299631 8:0.16997 9:0.990994 10:-0.253347 11:0.104118 12:-0.190079 13:-0.961024 14:-1 15:-1 16:-1 17:-1 18:1 19:-1 20:-1 21:-1 22:-1 23:1 24:-1 25:-1 26:-1 27:-1 28:-1 29:-1 30:-1 31:-1 32:-1 33:-1 34:1 35:-1 
47104 1:0.503851 2:0.792162 3:-0.85859 4:-0.208005 5:-0.920247 6:-0.371706 7:-0.631935 8:0.13795 9:0.949625 10:-0.573255 11:-0.174757 12:-0.295349 13:-0.958115 14:-1 15:-1 16:-1 17:-1 18:1 19:-1 20:-1 21:-1 22:-1 23:1 24:-1 25:-1 26:-1 27:-1 28:-1 29:-1 30:-1 31:-1 32:-1 33:-1 34:1 35:-1 
47104 1:0.0450052 2:0.519372 3:-0.319173 4:-0.0685604 5:0.370664 6:-0.198037 7:-0.599692 8:0.277345 9:0.939505 10:-0.522111 11:-0.799464 12:-0.290148 13:0.817057 14:-1 15:-1 16:-1 17:-1 18:-1 19:1 20:-1 21:-1 22:-1 23:1 24:-1 25:-1 26:-1 27:-1 28:-1 29:-1 30:-1 31:-1 32:-1 33:-1 34:1 35:-1 
47104 1:0.643369 2:0.58672 3:-0.990954 4:0.274813 5:-0.018417 6:-0.176132 7:-0.753543 8:-0.202632 9:0.966863 10:-0.491104 11:-0.156344 12:-0.646534 13:-0.199246 14:1 15:-1 16:-1 17:-1 18:-1 19:-1 20:-1 21:-1 22:-1 23:1 24:-1 25:-1 26:-1 27:-1 28:-1 29:-1 30:-1 31:-1 32:-1 33:-1 34:-1 35:1 
47104 1:-0.15536 2:0.456033 3:-0.815938 4:-0.383621 5:0.118794 6:-0.232671 7:-0.937148 8:0.192922 9:0.950197 10:-0.441351 11:0.274858 12:-0.471723 13:0.0674586 14:-1 15:-1 16:-1 17:-1 18:1 19:-1 20:-1 21:-1 22:-1 23:-1 24:-1 25:1 26:-1 27:-1 28:-1 29:-1 30:-1 31:-1 32:-1 33:-1 34:1 35:-1 
47104 1:0.245337 2:0.641822 3:-0.847672 4:-0.586027 5:-0.998101 6:0.0572469 7:-0.866639 8:0.204237 9:0.962474 10:-0.560096 11:-0.61232 12:0.0950552 13:-0.647391 14:-1 15:-1 16:-1 17:-1 18:1 19:-1 20:-1 21:-1 22:-1 23:-1 24:1 25:-1 26:-1 27:-1 28:-1 29:-1 30:-1 31:-1 32:-1 33:-1 34:1 35:-1 
18363.40590829416 1:-0.136227 2:0.57479 3:0.000664305 4:-0.0716176 5:-0.989695 6:-0.0434451 7:-0.791067 8:-0.247572 9:0.885999 10:-0.636693 11:-0.365919 12:0.403473 13:0.193105 14:1 15:-1 16:-1 17:-1 18:-1 19:-1 20:-1 21:-1 22:-1 23:-1 24:-1 25:-1 26:1 27:-1 28:-1 29:-1 30:-1 31:-1 32:-1 33:-1 34:-1 35:1 
47104 1:-0.595462 2:0.401048 3:0.98549 4:-0.119363 5:-0.358312 6:0.546867 7:-0.831414 8:0.195891 9:0.913848 10:-0.552986 11:0.0251088 12:-0.583983 13:-0.549021 14:-1 15:-1 16:-1 17:-1 18:-1 19:-1 20:-1 21:-0.333333 22:-1 23:1 24:-1 25:-1 26:-1 27:-1 28:-1 29:-1 30:-1 31:-1 32:-1 33:-1 34:1 35:-1 
42045.51912784173 1:0.663521 2:0.483311 3:-0.999535 4:0.150342 5:-0.682921 6:-0.24658 7:-0.677269 8:0.222695 9:0.956969 10:-0.394484 11:-0.0552394 12:-0.134301 13:-0.422768 14:-1 15:-1 16:-1 17:1 18:-1 19:-1 20:-1 21:-1 22:-1 23:1 24:-1 25:-1 26:-1 27:-1 28:-1 29:-1 30:-1 31:-1 32:-1 33:-1 34:1 35:-1 
47104 1:-0.128939 2:0.802564 3:-0.688472 4:-0.689243 5:-0.779476 6:-0.111341 7:-0.804139 8:0.214429 9:0.993919 10:-0.0610393 11:0.274858 12:-0.0187959 13:-0.981277 14:-1 15:-1 16:-1 17:-1 18:1 19:-1 20:-1 21:-1 22:-1 23:-1 24:1 25:-1 26:-1 27:-1 28:-1 29:-1 30:-1 31:-1 32:-1 33:-1 34:1 35:-1 
47104 1:-0.624601 2:0.667176 3:-0.151564 4:-0.374653 5:-0.683209 6:0.260836 7:-0.933875 8:0.274296 9:0.935597 10:-0.530486 11:0.0502176 12:-0.287436 13:-0.954851 14:-1 15:-1 16:-1 17:-1 18:-1 19:-1 20:-1 21:1 22:-1 23:1 24:-1 25:-1 26:-1 27:-1 28:-1 29:-1 30:-1 31:-1 32:-1 33:-1 34:1 35:-1 
18151.93842415046 1:-0.757005 2:0.296048 3:-0.004465 4:0.267077 5:-0.839883 6:0.157137 7:-0.904658 8:0.25014 9:0.985464 10:-0.249966 11:0.0522263 12:-0.0665768 13:0.184811 14:-1 15:-1 16:-1 17:-1 18:1 19:-1 20:-1 21:-1 22:-1 23:1 24:-1 25:-1 26:-1 27:-1 28:-1 29:-1 30:-1 31:-1 32:-1 33:-1 34:1 35:-1 
24385.0920113959 1:-0.456775 2:0.697039 3:0.277288 4:-0.751395 5:-0.188114 6:0.0354042 7:-0.886052 8:0.338817 9:0.929248 10:-0.39945 11:0.0311349 12:-0.0113526 13:-0.742672 14:-1 15:-1 16:-1 17:-1 18:1 19:-1 20:-1 21:-1 22:-1 23:1 24:-1 25:-1 26:-1 27:-1 28:-1 29:-1 30:-1 31:-1 32:-1 33:-1 34:1 35:-1 
47104 1:-0.185744 2:0.797848 3:-0.259732 4:-0.488184 5:0.265918 6:-0.372696 7:-0.682674 8:0.295321 9:0.950253 10:-0.707418 11:0.37161 12:-0.0232712 13:0.346597 14:-1 15:-1 16:-1 17:-1 18:-1 19:1 20:-1 21:-1 22:-1 23:-1 24:-1 25:-1 26:1 27:-1 28:-1 29:-1 30:-1 31:-1 32:-1 33:-1 34:1 35:-1 
47104 1:0.5133 2:0.714281 3:-0.845885 4:0.03748 5:-0.90943 6:-0.280146 7:-0.513393 8:0.217719 9:0.842648 10:-0.640702 11:-0.0860395 12:0.658913 13:-0.981715 14:-1 15:-1 16:-1 17:-1 18:-1 19:1 20:-1 21:-1 22:-1 23:1 24:-1 25:-1 26:-1 27:-1 28:-1 29:-1 30:-1 31:-1 32:-1 33:-1 34:1 35:-1 
47104 1:0.47762 2:0.527699 3:-0.908011 4:-0.607806 5:-0.954875 6:-0.108931 7:-0.751217 8:0.265147 9:0.929084 10:-0.458793 11:-0.0552394 12:0.00736511 13:-0.812936 14:-1 15:-1 16:-1 17:-1 18:1 19:-1 20:-1 21:-1 22:-1 23:-1 24:-1 25:0.333333 26:-1 27:-1 28:-1 29:-1 30:-1 31:-1 32:-1 33:-1 34:1 35:-1 
47104 1:0.212153 2:0.546265 3:-0.903525 4:-0.446255 5:0.0912099 6:-0.218896 7:-0.625475 8:0.186422 9:0.963926 10:-0.249483 11:0.210914 12:0.15366 13:-0.910045 14:-1 15:-1 16:-1 17:-1 18:1 19:-1 20:-1 21:-1 22:-1 23:-1 24:1 25:-1 26:-1 27:-1 28:-1 29:-1 30:-1 31:-1 32:-1 33:-1 34:1 35:-1 
47104 1:0.323906 2:0.569027 3:-0.871729 4:0.226614 5:-0.355876 6:-0.356392 7:-0.538797 8:0.135543 9:0.949291 10:-0.415084 11:0.0756612 12:0.185003 13:0.0260696 14:-1 15:-1 16:-1 17:-1 18:1 19:-1 20:-1 21:-1 22:-1 23:1 24:-1 25:-1 26:-1 27:-1 28:-1 29:-1 30:-1 31:-1 32:-1 33:-1 34:1 35:-1 
47104 1:0.117832 2:0.341711 3:-0.700643 4:-0.74496 5:-0.504571 6:-0.0342147 7:-0.758054 8:0.221491 9:0.886234 10:-0.639267 11:0.19451 12:0.0897448 13:-0.753537 14:-1 15:-1 16:-1 17:-1 18:1 19:-1 20:-1 21:-1 22:-1 23:-1 24:-1 25:-1 26:1 27:-1 28:-1 29:-1 30:-1 31:-1 32:-1 33:-1 34:1 35:-1 
47104 1:0.490036 2:0.756524 3:-0.983716 4:0.410116 5:-1 6:-0.385673 7:-0.47112 8:0.214269 9:0.973287 10:-0.387673 11:-0.568129 12:-0.0981451 13:0.296967 14:-1 15:-1 16:-1 17:-1 18:-1 19:1 20:-1 21:-1 22:-1 23:-1 24:1 25:-1 26:-1 27:-1 28:-1 29:-1 30:-1 31:-1 32:-1 33:-1 34:1 35:-1 
26707.0099023136 1:-0.0969868 2:0.747355 3:-0.912678 4:-0.535719 5:0.305334 6:-0.193583 7:-0.677039 8:-0.164754 9:0.982958 10:-0.0454532 11:0.000669568 12:0.834653 13:0.154628 14:-1 15:1 16:-1 17:-1 18:-1 19:-1 20:-1 21:-1 22:-1 23:1 24:-1 25:-1 26:-1 27:-1 28:-1 29:-1 30:-1 31:-1 32:-1 33:-1 34:-1 35:1 
2014.156603642031 1:0.18562 2:0.298266 3:-0.816951 4:-0.928731 5:-1 6:0.204466 7:-0.955748 8:0.144852 9:0.944781 10:-0.721697 11:-0.0897221 12:-0.0607285 13:-0.960204 14:-1 15:-1 16:-1 17:-1 18:-1 19:-1 20:-1 21:1 22:-1 23:1 24:-1 25:-1 26:-1 27:-1 28:-1 29:-1 30:-1 31:-1 32:-1 33:-1 34:1 35:-1 
47104 1:0.512315 2:0.481695 3:-0.970434 4:0.125302 5:0.39614 6:-0.295073 7:-0.372552 8:0.299735 9:0.941715 10:-0.456568 11:-0.143288 12:-0.223286 13:0.14125 14:-1 15:-1 16:-1 17:-1 18:1 19:-1 20:-1 21:-1 22:-1 23:1 24:-1 25:-1 26:-1 27:-1 28:-1 29:-1 30:-1 31:-1 32:-1 33:-1 34:1 35:-1 
47104 1:0.309498 2:0.670053 3:-0.813452 4:-0.320194 5:-0.999699 6:-0.504439 7:-0.385981 8:0.335126 9:0.924316 10:-0.622098 11:-0.82993 12:0.0611101 13:-0.892365 14:-1 15:-1 16:-1 17:-1 18:-1 19:1 20:-1 21:-1 22:-1 23:-1 24:1 25:-1 26:-1 27:-1 28:-1 29:-1 30:-1 31:-1 32:-1 33:-1 34:1 35:-1 
47104 1:-0.171235 2:0.276334 3:-0.735461 4:-0.189499 5:-0.602963 6:-0.195146 7:-0.744251 8:0.279753 9:0.918205 10:-0.550055 11:0.166722 12:-0.0651069 13:-0.857591 14:-1 15:-1 16:-1 17:-1 18:1 19:-1 20:-1 21:-1 22:-1 23:1 24:-1 25:-1 26:-1 27:-1 28:-1 29:-1 30:-1 31:-1 32:-1 33:-1 34:1 35:-1 
47104 1:0.315924 2:0.323407 3:-0.92261 4:0.0124705 5:-0.964518 6:0.0288236 7:-0.705625 8:0.247171 9:0.989474 10:-0.179568 11:-0.0445263 12:-0.174996 13:-0.948962 14:-1 15:-1 16:-1 17:-1 18:-1 19:-1 20:-1 21:1 22:-1 23:1 24:-1 25:-1 26:-1 27:-1 28:-1 29:-1 30:-1 31:-1 32:-1 33:-1 34:1 35:-1 
47104 1:-0.229172 2:0.578154 3:-0.957927 4:0.0786604 5:-0.548748 6:-0.364534 7:-0.593975 8:0.241554 9:0.996612 10:0.0911363 11:-0.0227653 12:-0.451667 13:-0.468292 14:-1 15:-1 16:-1 17:-1 18:-1 19:1 20:-1 21:-1 22:-1 23:1 24:-1 25:-1 26:-1 27:-1 28:-1 29:-1 30:-1 31:-1 32:-1 33:-1 34:1 35:-1 
47104 1:-0.102439 2:0.366462 3:-0.989345 4:0.140148 5:-0.984601 6:-0.283646 7:-0.698773 8:0.240912 9:0.986538 10:-0.00385608 11:-0.112822 12:-0.245744 13:-0.893844 14:-1 15:-1 16:-1 17:1 18:-1 19:-1 20:-1 21:-1 22:-1 23:-1 24:1 25:-1 26:-1 27:-1 28:-1 29:-1 30:-1 31:-1 32:-1 33:-1 34:1 35:-1 
5225.273555133013 1:0.556559 2:0.599645 3:-0.961611 4:-0.464261 5:-0.526529 6:-0.0548097 7:-0.752421 8:0.203354 9:0.96751 10:-0.229121 11:-0.250418 12:-0.123602 13:-0.433134 14:-1 15:-1 16:-1 17:-1 18:-1 19:1 20:-1 21:-1 22:-1 23:1 24:-1 25:-1 26:-1 27:-1 28:-1 29:-1 30:-1 31:-1 32:-1 33:-1 34:1 35:-1 
3350.896746240988 1:0.314144 2:0.415662 3:-0.865889 4:0.190066 5:-0.396592 6:0.00331374 7:-0.882285 8:0.257764 9:0.971305 10:-0.333914 11:-0.611316 12:0.056422 13:-0.328666 14:-1 15:-1 16:-1 17:-1 18:1 19:-1 20:-1 21:-1 22:-1 23:-1 24:1 25:-1 26:-1 27:-1 28:-1 29:-1 30:-1 31:-1 32:-1 33:-1 34:1 35:-1 
47104 1:0.612268 2:0.617488 3:-0.970035 4:-0.436866 5:0.94851 6:-0.111721 7:-0.584598 8:0.281599 9:0.942869 10:-0.340617 11:-0.0753264 12:-0.408731 13:0.691766 14:-1 15:-1 16:-1 17:-1 18:-1 19:1 20:-1 21:-1 22:-1 23:1 24:-1 25:-1 26:-1 27:-1 28:-1 29:-1 30:-1 31:-1 32:-1 33:-1 34:1 35:-1 
47104 1:-0.0890268 2:0.448577 3:-0.537454 4:-0.241834 5:0.246652 6:-0.203962 7:-0.705266 8:0.377418 9:0.917722 10:-0.420859 11:0.145631 12:-0.148193 13:0.835838 14:-1 15:-1 16:-1 17:-1 18:-1 19:-1 20:-1 21:-1 22:1 23:1 24:-1 25:-1 26:-1 27:-1 28:-1 29:-1 30:-1 31:-1 32:-1 33:-1 34:1 35:-1 
47104 1:-0.159525 2:0.162881 3:-0.775408 4:0.209169 5:0.0361431 6:-0.33162 7:-0.518865 8:0.168205 9:0.985623 10:-0.234667 11:-0.00870439 12:0.56913 13:-0.550471 14:-1 15:-1 16:-1 17:-1 18:-1 19:1 20:-1 21:-1 22:-1 23:1 24:-1 25:-1 26:-1 27:-1 28:-1 29:-1 30:-1 31:-1 32:-1 33:-1 34:1 35:-1 
4447.224573336608 1:-0.0357365 2:0.526495 3:-0.212469 4:-0.510816 5:-0.991631 6:-0.0630205 7:-1 8:0.49691 9:0.984997 10:-0.395591 11:-0.324406 12:-0.00658638 13:-0.956518 14:-1 15:-1 16:-1 17:-1 18:1 19:-1 20:-1 21:-1 22:-1 23:-1 24:-1 25:1 26:-1 27:-1 28:-1 29:-1 30:-1 31:-1 32:-1 33:-1 34:1 35:-1 
47104 1:0.174593 2:0.590854 3:-0.416136 4:0.129468 5:-0.968978 6:-0.157018 7:-0.748579 8:0.242757 9:0.755506 10:-0.737895 11:-0.0659525 12:-0.214914 13:0.66059 14:-1 15:-1 16:-1 17:-1 18:1 19:-1 20:-1 21:-1 22:-1 23:1 24:-1 25:-1 26:-1 27:-1 28:-1 29:-1 30:-1 31:-1 32:-1 33:-1 34:1 35:-1 
47104 1:0.159445 2:0.431331 3:-0.826347 4:-0.414669 5:-0.215512 6:0.0338497 7:-0.948952 8:-0.188588 9:0.474717 10:-0.177435 11:-0.207566 12:-0.572355 13:-0.887911 14:-1 15:-1 16:-1 17:-1 18:1 19:-1 20:-1 21:-1 22:-1 23:-1 24:-1 25:-1 26:-1 27:-1 28:-1 29:-1 30:0.333333 31:-1 32:-1 33:1 34:-1 35:-1 
47104 1:-0.329427 2:0.494447 3:0.0316247 4:0.225522 5:0.976379 6:-0.122867 7:-1 8:-0.38769 9:0.748349 10:-0.00386693 11:-0.252762 12:0.0699075 13:0.909979 14:-1 15:-1 16:-1 17:-1 18:-1 19:-1 20:-1 21:1 22:-1 23:-1 24:-1 25:-1 26:-1 27:-1 28:-1 29:1 30:-1 31:-1 32:-1 33:1 34:-1 35:-1 
32392.37460946018 1:0.178701 2:0.412376 3:-0.811346 4:-0.301183 5:-0.769924 6:0.000275883 7:-1 8:-0.116283 9:0.143613 10:-0.36755 11:-0.442919 12:0.10121 13:0.0456617 14:-1 15:-1 16:-1 17:1 18:-1 19:-1 20:-1 21:-1 22:-1 23:-1 24:-1 25:-1 26:-1 27:-1 28:-1 29:-1 30:1 31:-1 32:-1 33:1 34:-1 35:-1 
47104 1:0.412944 2:0.480006 3:-0.898345 4:-0.740308 5:-0.820326 6:-0.192841 7:-1 8:-0.655084 9:0.319015 10:-0.30653 11:0.0602611 12:-0.0422829 13:-0.778636 14:-1 15:-1 16:-1 17:-1 18:-1 19:-1 20:1 21:-1 22:-1 23:-1 24:-1 25:-1 26:-1 27:-1 28:1 29:-1 30:-1 31:-1 32:-1 33:1 34:-1 35:-1 
47104 1:-0.273763 2:0.847515 3:-0.856663 4:-0.122054 5:-0.844579 6:-0.0410953 7:-0.806999 8:0.0272851 9:0.996285 10:0.147815 11:-0.935052 12:-0.181816 13:-0.436475 14:-1 15:-1 16:-1 17:-1 18:-1 19:1 20:-1 21:-1 22:-1 23:-1 24:-1 25:-1 26:-1 27:-1 28:1 29:-1 30:-1 31:-1 32:1 33:-1 34:-1 35:-1 
47104 1:-0.97046 2:0.661304 3:-0.42943 4:0.35329 5:-0.381909 6:-0.348209 7:-0.697458 8:-0.0891582 9:0.961207 10:-0.479594 11:0.851356 12:0.10855 13:-0.371376 14:-1 15:-1 16:-1 17:-1 18:-1 19:1 20:-1 21:-1 22:-1 23:-1 24:-1 25:-1 26:-1 27:1 28:-1 29:-1 30:-1 31:-1 32:1 33:-1 34:-1 35:-1 
47104 1:0.327287 2:0.234652 3:-0.926894 4:-0.173622 5:-0.684733 6:-0.183305 7:-0.644973 8:-0.0206243 9:0.820973 10:-0.869772 11:-0.957148 12:0.00663954 13:0.85212 14:-1 15:-1 16:-1 17:-1 18:-1 19:1 20:-1 21:-1 22:-1 23:-1 24:-1 25:-1 26:-1 27:-1 28:1 29:-1 30:-1 31:-1 32:1 33:-1 34:-1 35:-1 
47104 1:-0.132577 2:0.391226 3:-0.959997 4:0.0133402 5:-0.0323375 6:-0.134947 7:-0.861476 8:0.0453415 9:0.890506 10:0.461641 11:-0.795447 12:0.0575917 13:-0.60961 14:-1 15:-1 16:-1 17:1 18:-1 19:-1 20:-1 21:-1 22:-1 23:-1 24:-1 25:-1 26:-1 27:-1 28:1 29:-1 30:-1 31:-1 32:-1 33:1 34:-1 35:-1 
17821.36847584068 1:0.545464 2:0.542668 3:-0.967364 4:-0.48227 5:0.538899 6:-0.207963 7:-1 8:-0.0523232 9:0.948266 10:-0.288654 11:-0.392032 12:-0.0911553 13:0.57301 14:-1 15:-1 16:-1 17:-1 18:1 19:-1 20:-1 21:-1 22:-1 23:-1 24:-1 25:-1 26:-1 27:-1 28:1 29:-1 30:-1 31:-1 32:1 33:-1 34:-1 35:-1 
47104 1:-0.0177677 2:0.693183 3:-0.471717 4:-0.862701 5:0.0929765 6:-0.267816 7:-0.60956 8:-0.0656448 9:0.89676 10:-0.657776 11:-0.171409 12:-0.235117 13:-0.556036 14:-1 15:-1 16:-1 17:1 18:-1 19:-1 20:-1 21:-1 22:-1 23:-1 24:-1 25:-1 26:-1 27:-1 28:-1 29:1 30:-1 31:-1 32:1 33:-1 34:-1 35:-1 
47104 1:-0.012797 2:0.100347 3:-0.630115 4:-0.145778 5:-0.511419 6:-0.129242 7:-1 8:-0.149908 9:0.870471 10:-0.622305 11:-0.304988 12:-0.250457 13:-0.633672 14:-1 15:-1 16:-1 17:-1 18:1 19:-1 20:-1 21:-1 22:-1 23:-1 24:-1 25:-1 26:-1 27:1 28:-1 29:-1 30:-1 31:-1 32:1 33:-1 34:-1 35:-1 
47104 1:-0.891069 2:0.873877 3:0.241743 4:0.0649572 5:0.236786 6:-0.473186 7:-0.696 8:0.103924 9:0.241281 10:-0.370112 11:0.137596 12:-0.293363 13:-0.743048 14:-1 15:-1 16:-1 17:1 18:-1 19:-1 20:-1 21:-1 22:-1 23:-1 24:-1 25:-1 26:-1 27:-1 28:1 29:-1 30:-1 31:-1 32:-1 33:1 34:-1 35:-1 
47104 1:-0.269912 2:0.487282 3:0.138783 4:-0.763184 5:0.232001 6:-0.070199 7:-1 8:0.126635 9:0.738589 10:-0.669639 11:-0.137261 12:-0.236515 13:0.336372 14:-1 15:-1 16:-1 17:-1 18:1 19:-1 20:-1 21:-1 22:-1 23:-1 24:-1 25:-1 26:-1 27:1 28:-1 29:-1 30:-1 31:-1 32:1 33:-1 34:-1 35:-1 
47104 1:0.256599 2:0.77016 3:-0.703213 4:-0.30218 5:-0.933487 6:-0.3642 7:-0.514851 8:-0.786614 9:0.610345 10:-0.117767 11:-0.388684 12:-0.223696 13:-0.868146 14:-1 15:-1 16:-1 17:-1 18:-1 19:-1 20:1 21:-1 22:-1 23:-1 24:-1 25:-1 26:-1 27:-1 28:-1 29:1 30:-1 31:-1 32:-1 33:1 34:-1 35:-1 
47104 1:0.173294 2:0.840655 3:-0.242342 4:-0.490036 5:-1 6:-0.260791 7:-0.936035 8:-0.00345077 9:0.792612 10:-0.828348 11:-0.289588 12:-0.210207 13:-0.994435 14:-1 15:-1 16:-1 17:-1 18:-1 19:-1 20:1 21:-1 22:-1 23:-1 24:-1 25:-1 26:-1 27:-1 28:-1 29:1 30:-1 31:-1 32:1 33:-1 34:-1 35:-1 
36860.16617846821 1:0.416191 2:0.209173 3:-0.995399 4:0.431818 5:0.975702 6:-0.211931 7:-0.940001 8:-0.725624 9:0.773953 10:0.110451 11:-0.202544 12:-0.443273 13:0.571742 14:-1 15:-1 16:-1 17:1 18:-1 19:-1 20:-1 21:-1 22:-1 23:-1 24:-1 25:-1 26:-1 27:-1 28:-1 29:1 30:-1 31:-1 32:-1 33:1 34:-1 35:-1 
47104 1:-0.702557 2:0.650399 3:-0.303035 4:-0.0459607 5:0.963096 6:-0.0850848 7:-1 8:-0.231201 9:0.805144 10:0.204645 11:-0.229662 12:-0.0575479 13:0.72905 14:-1 15:-1 16:-1 17:-1 18:1 19:-1 20:-1 21:-1 22:-1 23:-1 24:-1 25:-1 26:-1 27:-1 28:1 29:-1 30:-1 31:-1 32:-1 33:1 34:-1 35:-1 
47104 1:-0.131458 2:0.302492 3:0.394401 4:0.125747 5:-0.687375 6:-0.324455 7:-0.804759 8:0.455742 9:-0.106191 10:-0.2633 11:-0.280214 12:0.290692 13:-0.880431 14:-1 15:-1 16:-1 17:-1 18:1 19:-1 20:-1 21:-1 22:-1 23:-1 24:-1 25:-1 26:-1 27:-1 28:-1 29:-1 30:-0.333333 31:-1 32:-1 33:1 34:-1 35:-1 
47104 1:0.459607 2:0.782559 3:-0.84139 4:-0.121512 5:-0.778505 6:-0.169649 7:-0.689968 8:0.299655 9:0.88168 10:-0.39647 11:-0.161366 12:-0.0352399 13:-0.457837 14:-1 15:-1 16:-1 17:-1 18:-1 19:1 20:-1 21:-1 22:-1 23:-1 24:-1 25:-1 26:-1 27:-1 28:-1 29:1 30:-1 31:-1 32:1 33:-1 34:-1 35:-1 
47104 1:0.136987 2:0.781082 3:-0.0834376 4:-0.4663 5:-0.359698 6:-0.370065 7:-0.486154 8:-0.0195811 9:0.897979 10:-0.565542 11:0.674255 12:0.334244 13:-0.297776 14:-1 15:-1 16:-1 17:-1 18:-1 19:-1 20:-1 21:-0.333333 22:-1 23:-1 24:-1 25:-1 26:-1 27:-1 28:-1 29:1 30:-1 31:-1 32:1 33:-1 34:-1 35:-1 
47104 1:-0.0379196 2:0.191554 3:-0.45685 4:-0.49347 5:-0.956461 6:-0.168243 7:-0.722407 8:0.255437 9:0.678845 10:-0.0386588 11:0.285236 12:0.192212 13:0.186021 14:-1 15:-1 16:-1 17:1 18:-1 19:-1 20:-1 21:-1 22:-1 23:-1 24:-1 25:-1 26:-1 27:-1 28:-1 29:1 30:-1 31:-1 32:-1 33:1 34:-1 35:-1 
47104 1:0.465059 2:0.553046 3:-0.898849 4:-0.617381 5:0.159408 6:-0.223798 7:-0.686123 8:-0.0935719 9:0.963626 10:-0.475687 11:-0.393371 12:-0.200653 13:-0.225551 14:-1 15:-1 16:-1 17:1 18:-1 19:-1 20:-1 21:-1 22:-1 23:-1 24:-1 25:-1 26:-1 27:1 28:-1 29:-1 30:-1 31:-1 32:1 33:-1 34:-1 35:-1 
47104 1:-0.491537 2:0.660126 3:-0.94315 4:0.187709 5:-0.862067 6:-0.318168 7:-0.889288 8:-0.000160501 9:0.995148 10:0.148379 11:-0.410445 12:-0.0813852 13:-0.930929 14:-1 15:-1 16:-1 17:-1 18:1 19:-1 20:-1 21:-1 22:-1 23:-1 24:-1 25:-1 26:-1 27:1 28:-1 29:-1 30:-1 31:-1 32:1 33:-1 34:-1 35:-1 
47104 1:-0.576215 2:0.759075 3:-0.553379 4:-0.382056 5:-0.776284 6:-0.243957 7:-0.657355 8:0.523473 9:0.798651 10:0.299545 11:-0.261801 12:-0.399986 13:-0.446813 14:-1 15:-1 16:-1 17:1 18:-1 19:-1 20:-1 21:-1 22:-1 23:-1 24:-1 25:-1 26:-1 27:-1 28:1 29:-1 30:-1 31:-1 32:-1 33:1 34:-1 35:-1 
47104 1:0.0443223 2:0.275991 3:-0.954964 4:0.0884094 5:-0.859591 6:-0.151083 7:-0.876766 8:-0.290346 9:0.81916 10:0.239372 11:0.0227653 12:-0.134201 13:-0.788276 14:-1 15:-1 16:-1 17:-1 18:-1 19:1 20:-1 21:-1 22:-1 23:-1 24:-1 25:-1 26:-1 27:1 28:-1 29:-1 30:-1 31:-1 32:-1 33:1 34:-1 35:-1 
47104 1:-0.111216 2:0.422456 3:-0.842591 4:0.0494337 5:-0.879638 6:-0.0501544 7:-0.809117 8:0.170131 9:0.978256 10:-0.688173 11:-0.833947 12:-0.0527661 13:-0.453932 14:-1 15:-1 16:-1 17:-1 18:-1 19:1 20:-1 21:-1 22:-1 23:-1 24:-1 25:-1 26:-1 27:-1 28:1 29:-1 30:-1 31:-1 32:1 33:-1 34:-1 35:-1 
47104 1:0.44138 2:0.821 3:-0.788766 4:-0.559487 5:-0.798709 6:-0.256341 7:-0.761829 8:0.0851457 9:0.995895 10:-0.789845 11:0.983596 12:-0.182182 13:-0.189076 14:-1 15:-1 16:-1 17:-1 18:-1 19:-1 20:1 21:-1 22:-1 23:-1 24:-1 25:-1 26:-1 27:-1 28:1 29:-1 30:-1 31:-1 32:1 33:-1 34:-1 35:-1 
47104 1:0.643817 2:0.665097 3:-0.976185 4:-0.189124 5:-0.588274 6:-0.370719 7:-0.442316 8:-0.351416 9:0.986271 10:0.606317 11:-0.487446 12:-0.585255 13:0.654859 14:-1 15:-1 16:-1 17:-1 18:1 19:-1 20:-1 21:-1 22:-1 23:-1 24:-1 25:-1 26:-1 27:1 28:-1 29:-1 30:-1 31:-1 32:-1 33:1 34:-1 35:-1 
47104 1:0.203734 2:0.437544 3:-0.644912 4:0.394289 5:-0.837425 6:-0.158268 7:-0.953244 8:0.336169 9:0.875728 10:0.0262957 11:-0.409441 12:-0.200525 13:-0.988583 14:-1 15:-1 16:-1 17:-1 18:1 19:-1 20:-1 21:-1 22:-1 23:-1 24:-1 25:-1 26:-1 27:-1 28:1 29:-1 30:-1 31:-1 32:-1 33:1 34:-1 35:-1 
47104 1:-0.453125 2:0.726575 3:0.00406126 4:-0.407833 5:0.029319 6:0.172316 7:-0.837033 8:-0.0917262 9:0.983363 10:-0.255626 11:-0.506528 12:0.359689 13:0.734731 14:-1 15:-1 16:-1 17:-1 18:-1 19:-1 20:-1 21:-0.333333 22:-1 23:-1 24:-1 25:-1 26:-1 27:-1 28:1 29:-1 30:-1 31:-1 32:1 33:-1 34:-1 35:-1 
47104 1:0.102024 2:0.625987 3:-0.579744 4:-0.0764334 5:-0.83156 6:-0.296373 7:-0.369954 8:0.000321002 9:0.924475 10:-0.416289 11:-0.502176 12:0.352721 13:-0.0648525 14:-1 15:-1 16:-1 17:1 18:-1 19:-1 20:-1 21:-1 22:-1 23:-1 24:-1 25:-1 26:-1 27:1 28:-1 29:-1 30:-1 31:-1 32:1 33:-1 34:-1 35:-1 
47104 1:-0.568769 2:0.333146 3:-0.703284 4:-0.384503 5:-0.569358 6:-0.0367987 7:-0.66448 8:0.0723858 9:0.604981 10:-0.0522857 11:-0.117509 12:-0.125235 13:-0.947502 14:-1 15:-1 16:-1 17:-1 18:-1 19:1 20:-1 21:-1 22:-1 23:-1 24:-1 25:-1 26:-1 27:1 28:-1 29:-1 30:-1 31:-1 32:-1 33:1 34:-1 35:-1 
47104 1:0.386691 2:0.629009 3:-0.903486 4:-0.443168 5:0.540273 6:-0.310822 7:-0.77607 8:-0.0617928 9:0.999293 10:-0.0827251 11:-0.0552394 12:-0.238404 13:0.62865 14:-1 15:-1 16:-1 17:1 18:-1 19:-1 20:-1 21:-1 22:-1 23:-1 24:-1 25:-1 26:-1 27:1 28:-1 29:-1 30:-1 31:-1 32:1 33:-1 34:-1 35:-1 
47104 1:0.106681 2:0.587027 3:0.134732 4:-0.261259 5:-0.62252 6:-0.0700186 7:-0.801249 8:-0.124388 9:-0.687676 10:-0.390452 11:-0.400067 12:0.473049 13:0.32047 14:-1 15:-1 16:-1 17:-1 18:-1 19:1 20:-1 21:-1 22:-1 23:-1 24:-1 25:-1 26:-1 27:-1 28:-1 29:1 30:-1 31:-1 32:-1 33:1 34:-1 35:-1 
47104 1:0.700365 2:0.53036 3:-0.999819 4:-0.393182 5:-0.477811 6:0.521677 7:-0.918812 8:0.360003 9:0.692063 10:0.0891717 11:-0.0127218 12:-0.100675 13:-0.39213 14:-1 15:-1 16:-1 17:-1 18:-1 19:-1 20:-1 21:-0.333333 22:-1 23:-1 24:-1 25:-1 26:-1 27:-1 28:1 29:-1 30:-1 31:-1 32:-1 33:1 34:-1 35:-1 
47104 1:0.377499 2:0.686365 3:-0.67018 4:0.414242 5:0.148939 6:-0.206345 7:-0.806818 8:0.0255999 9:0.649723 10:-0.810239 11:-0.370271 12:0.908179 13:-0.952966 14:-1 15:-1 16:-1 17:-1 18:1 19:-1 20:-1 21:-1 22:-1 23:-1 24:-1 25:-1 26:-1 27:-1 28:-1 29:1 30:-1 31:-1 32:1 33:-1 34:-1 35:-1 
47104 1:0.123228 2:0.233085 3:-0.790745 4:-0.601735 5:-0.999999 6:-0.0210556 7:-1 8:0.0121178 9:0.877209 10:-0.519366 11:-0.346836 12:-0.140691 13:-0.937109 14:-1 15:-1 16:-1 17:-1 18:1 19:-1 20:-1 21:-1 22:-1 23:-1 24:-1 25:-1 26:-1 27:-1 28:1 29:-1 30:-1 31:-1 32:1 33:-1 34:-1 35:-1 
28608.5891738198 1:-0.926989 2:0.700299 3:0.173414 4:0.292339 5:0.486903 6:-0.125518 7:-1 8:-0.620737 9:0.19248 10:-0.441861 11:-0.526281 12:-0.501681 13:0.581773 14:-1 15:-1 16:-1 17:1 18:-1 19:-1 20:-1 21:-1 22:-1 23:-1 24:-1 25:-1 26:-1 27:-1 28:-1 29:1 30:-1 31:-1 32:-1 33:1 34:-1 35:-1 
47104 1:-0.0873139 2:0.319194 3:-0.580178 4:-0.399608 5:-0.127397 6:-0.232986 7:-0.823951 8:-0.375171 9:0.487096 10:-0.174185 11:0.231001 12:-0.346082 13:0.962884 14:-1 15:-1 16:-1 17:-1 18:-1 19:1 20:-1 21:-1 22:-1 23:-1 24:-1 25:-1 26:-1 27:-1 28:-1 29:-1 30:-1 31:1 32:-1 33:1 34:-1 35:-1 
47104 1:0.299859 2:0.743401 3:-0.375205 4:-0.0281001 5:0.742192 6:-0.434479 7:-0.596391 8:0.0103523 9:0.593263 10:-0.737342 11:-0.410445 12:-0.0406879 13:0.414801 14:-1 15:-1 16:-1 17:1 18:-1 19:-1 20:-1 21:-1 22:-1 23:-1 24:-1 25:-1 26:-1 27:-1 28:-1 29:1 30:-1 31:-1 32:1 33:-1 34:-1 35:-1 
27919.45870677335 1:0.667495 2:0.727932 3:-0.943567 4:-0.212987 5:0.0816158 6:-0.216399 7:-0.955265 8:0.0340262 9:0.88116 10:-0.504503 11:-0.120522 12:-0.0244597 13:-0.527459 14:-1 15:-1 16:-1 17:-1 18:1 19:-1 20:-1 21:-1 22:-1 23:-1 24:-1 25:-1 26:-1 27:1 28:-1 29:-1 30:-1 31:-1 32:1 33:-1 34:-1 35:-1 
39652.0728006779 1:0.0133108 2:0.2644 3:-0.394875 4:0.197256 5:0.532325 6:-0.0853911 7:-1 8:-0.269401 9:0.367892 10:-0.221816 11:-0.22531 12:0.833402 13:-0.439402 14:-1 15:-1 16:-1 17:-1 18:-1 19:1 20:-1 21:-1 22:-1 23:-1 24:-1 25:-1 26:-1 27:1 28:-1 29:-1 30:-1 31:-1 32:-1 33:1 34:-1 35:-1 
47104 1:-0.926008 2:0.638348 3:0.91956 4:-0.333581 5:-0.99523 6:0.0192821 7:-1 8:-0.0377979 9:0.904617 10:-0.519914 11:-0.637429 12:0.713511 13:0.322167 14:-1 15:-1 16:-1 17:-1 18:1 19:-1 20:-1 21:-1 22:-1 23:-1 24:-1 25:-1 26:-1 27:-1 28:1 29:-1 30:-1 31:-1 32:1 33:-1 34:-1 35:-1 
47104 1:-0.794878 2:0.749334 3:-0.999346 4:0.153669 5:0.818439 6:-0.0821903 7:-1 8:-0.100875 9:0.702456 10:0.0481716 11:0.0120522 12:-0.258501 13:0.703737 14:-1 15:-1 16:-1 17:-1 18:-1 19:-1 20:1 21:-1 22:-1 23:-1 24:-1 25:-1 26:-1 27:-1 28:-1 29:1 30:-1 31:-1 32:-1 33:1 34:-1 35:-1 
47104 1:-0.593001 2:0.807035 3:0.0620009 4:-0.184438 5:0.283268 6:-0.468794 7:-0.789408 8:0.0427735 9:0.944587 10:-0.644955 11:-0.137931 12:-0.278589 13:0.31058 14:-1 15:-1 16:-1 17:-1 18:1 19:-1 20:-1 21:-1 22:-1 23:-1 24:-1 25:-1 26:-1 27:-1 28:-1 29:1 30:-1 31:-1 32:1 33:-1 34:-1 35:-1 
47104 1:0.318163 2:0.678075 3:-0.734474 4:-0.267244 5:-0.991693 6:-0.00337388 7:-1 8:0.0203836 9:0.955981 10:0.284887 11:-0.164044 12:0.0320531 13:-0.252276 14:-1 15:-1 16:-1 17:-1 18:-1 19:1 20:-1 21:-1 22:-1 23:-1 24:-1 25:-1 26:-1 27:1 28:-1 29:-1 30:-1 31:-1 32:-1 33:1 34:-1 35:-1 
47104 1:-0.457469 2:0.66316 3:-0.273878 4:0.277483 5:-0.824234 6:-0.266853 7:-0.897 8:0.0136426 9:0.916673 10:-0.617894 11:-0.478406 12:0.590472 13:-0.709835 14:-1 15:-1 16:-1 17:-1 18:-1 19:1 20:-1 21:-1 22:-1 23:-1 24:-1 25:-1 26:-1 27:-1 28:-1 29:1 30:-1 31:-1 32:1 33:-1 34:-1 35:-1 
47104 1:0.642764 2:0.645495 3:-0.964122 4:0.371545 5:-0.447501 6:-0.0903297 7:-0.671484 8:0.343632 9:0.827438 10:-0.520376 11:-0.183796 12:0.220706 13:0.739539 14:-1 15:-1 16:-1 17:-1 18:-1 19:1 20:-1 21:-1 22:-1 23:-1 24:-1 25:-1 26:-1 27:-1 28:-1 29:-1 30:-1 31:1 32:1 33:-1 34:-1 35:-1 
47104 1:-0.179173 2:0.199378 3:-0.938554 4:-0.494072 5:0.64852 6:-0.289542 7:-0.950615 8:-0.0854667 9:0.791626 10:0.209003 11:-0.0234349 12:-0.149438 13:0.325236 14:-1 15:-1 16:-1 17:-1 18:-1 19:1 20:-1 21:-1 22:-1 23:-1 24:-1 25:-1 26:-1 27:-1 28:1 29:-1 30:-1 31:-1 32:-1 33:1 34:-1 35:-1 
47104 1:-0.560379 2:0.666375 3:-0.00850832 4:-0.309982 5:-1 6:-0.363944 7:-0.448856 8:0.114357 9:0.474423 10:-0.159158 11:-0.160362 12:0.0645283 13:-0.28828 14:-1 15:-1 16:-1 17:1 18:-1 19:-1 20:-1 21:-1 22:-1 23:-1 24:-1 25:-1 26:-1 27:-1 28:-1 29:1 30:-1 31:-1 32:-1 33:1 34:-1 35:-1 
47104 1:0.0925299 2:0.288109 3:-0.949549 4:-0.294314 5:-0.954153 6:-0.242929 7:-0.552957 8:-0.66038 9:0.674146 10:-0.0379424 11:-0.18547 12:-0.0686065 13:-0.966581 14:-1 15:-1 16:-1 17:1 18:-1 19:-1 20:-1 21:-1 22:-1 23:-1 24:-1 25:-1 26:-1 27:-1 28:-1 29:-1 30:-1 31:1 32:-1 33:1 34:-1 35:-1 
30243.20551185804 1:0.592866 2:0.518831 3:-0.987795 4:-0.118129 5:0.112667 6:-0.0554524 7:-1 8:-0.285531 9:0.0763207 10:-0.375783 11:-0.0776699 12:0.197225 13:0.875589 14:-1 15:-1 16:-1 17:1 18:-1 19:-1 20:-1 21:-1 22:-1 23:-1 24:-1 25:-1 26:-1 27:-1 28:-1 29:1 30:-1 31:-1 32:-1 33:1 34:-1 35:-1 
47104 1:0.244475 2:0.420236 3:-0.781906 4:-0.186983 5:-0.962946 6:0.15119 7:-1 8:0.253511 9:0.725538 10:-0.763741 11:-0.198192 12:-0.238545 13:-0.997501 14:-1 15:-1 16:-1 17:-1 18:-1 19:-1 20:1 21:-1 22:-1 23:-1 24:-1 25:-1 26:-1 27:1 28:-1 29:-1 30:-1 31:-1 32:1 33:-1 34:-1 35:-1 
47104 1:0.330478 2:0.713912 3:-0.8073 4:-0.250282 5:-0.289745 6:-0.0296013 7:-0.467967 8:0.180724 9:0.810989 10:0.209958 11:-0.153666 12:0.369622 13:0.547592 14:-1 15:-1 16:-1 17:-1 18:-1 19:-1 20:-1 21:-0.333333 22:-1 23:-1 24:-1 25:-1 26:-1 27:-1 28:-1 29:1 30:-1 31:-1 32:-1 33:1 34:-1 35:-1 
47104 1:0.290913 2:0.748598 3:-0.275257 4:0.0634605 5:0.487656 6:-0.175334 7:-0.727544 8:-0.427494 9:0.453037 10:-0.235112 11:0.104453 12:0.114821 13:0.307214 14:-1 15:-1 16:-1 17:-1 18:1 19:-1 20:-1 21:-1 22:-1 23:-1 24:-1 25:-1 26:-1 27:-1 28:1 29:-1 30:-1 31:-1 32:-1 33:1 34:-1 35:-1 
47104 1:0.237153 2:0.747876 3:-0.470245 4:-0.453162 5:-0.965437 6:-0.387804 7:-0.81 8:-0.13153 9:0.0950103 10:-0.328048 11:-0.33378 12:0.218401 13:-0.970453 14:-1 15:-1 16:-1 17:1 18:-1 19:-1 20:-1 21:-1 22:-1 23:-1 24:-1 25:-1 26:-1 27:-1 28:-1 29:1 30:-1 31:-1 32:-1 33:1 34:-1 35:-1 
47104 1:-0.0479283 2:0.654408 3:-0.738884 4:-0.397357 5:0.599841 6:-0.319639 7:-0.59261 8:-0.0841024 9:0.983692 10:-0.13834 11:0.105122 12:0.102792 13:0.849635 14:-1 15:-1 16:-1 17:-1 18:-1 19:1 20:-1 21:-1 22:-1 23:-1 24:-1 25:-1 26:-1 27:1 28:-1 29:-1 30:-1 31:-1 32:1 33:-1 34:-1 35:-1 
47104 1:0.0804836 2:0.785865 3:0.562185 4:-0.253013 5:-0.251888 6:-0.442948 7:-0.846908 8:-0.314742 9:-0.839672 10:-0.463438 11:-0.192166 12:-0.493822 13:-0.38273 14:-1 15:-1 16:-1 17:1 18:-1 19:-1 20:-1 21:-1 22:-1 23:-1 24:-1 25:-1 26:-1 27:1 28:-1 29:-1 30:-1 31:-1 32:-1 33:1 34:-1 35:-1 
47104 1:-0.260955 2:0.357397 3:-0.53793 4:-0.0329827 5:0.36756 6:-0.28605 7:-0.605887 8:-0.225664 9:0.926182 10:0.288621 11:-0.538333 12:-0.309885 13:0.5048 14:-1 15:-1 16:-1 17:-1 18:-1 19:1 20:-1 21:-1 22:-1 23:-1 24:-1 25:-1 26:-1 27:1 28:-1 29:-1 30:-1 31:-1 32:-1 33:1 34:-1 35:-1 
47104 1:-0.374086 2:0.440842 3:-0.637795 4:-0.276992 5:-0.584468 6:-0.129564 7:-0.755487 8:0.0979857 9:0.20231 10:-0.374741 11:-0.931034 12:0.236218 13:-0.865062 14:-1 15:-1 16:-1 17:-1 18:1 19:-1 20:-1 21:-1 22:-1 23:-1 24:-1 25:-1 26:-1 27:-1 28:-1 29:1 30:-1 31:-1 32:-1 33:1 34:-1 35:-1 
47104 1:-0.0460587 2:0.374881 3:0.00768611 4:0.063511 5:-0.32043 6:-0.118553 7:-0.842655 8:-0.0138031 9:0.775345 10:-0.675251 11:0.00100435 12:-0.820635 13:0.0632995 14:-1 15:-1 16:-1 17:-1 18:-1 19:1 20:-1 21:-1 22:-1 23:-1 24:-1 25:-1 26:-1 27:-1 28:-1 29:1 30:-1 31:-1 32:1 33:-1 34:-1 35:-1 
47104 1:0.694196 2:0.614135 3:-0.990335 4:0.258157 5:-0.97184 6:-0.247072 7:-1 8:-0.150229 9:0.711435 10:0.066471 11:0.261801 12:-0.26287 13:-0.28683 14:-1 15:-1 16:-1 17:-1 18:1 19:-1 20:-1 21:-1 22:-1 23:-1 24:-1 25:-1 26:-1 27:-1 28:-1 29:1 30:-1 31:-1 32:-1 33:1 34:-1 35:-1 
47104 1:0.0550699 2:0.182109 3:-0.731153 4:0.263375 5:0.124232 6:0.0122014 7:-1 8:-0.043897 9:0.97046 10:-0.381714 11:-0.378641 12:0.0872429 13:0.517283 14:-1 15:-1 16:-1 17:-1 18:-1 19:1 20:-1 21:-1 22:-1 23:-1 24:-1 25:-1 26:-1 27:-1 28:1 29:-1 30:-1 31:-1 32:1 33:-1 34:-1 35:-1 
47104 1:0.405521 2:0.595168 3:-0.83074 4:0.248863 5:-0.338721 6:-0.498049 7:-0.505898 8:-0.677955 9:0.252028 10:-0.331141 11:0.0287914 12:-0.781408 13:-0.712923 14:-1 15:-1 16:-1 17:-1 18:-1 19:1 20:-1 21:-1 22:-1 23:-1 24:-1 25:-1 26:-1 27:-1 28:-1 29:1 30:-1 31:-1 32:-1 33:1 34:-1 35:-1 
47104 1:0.650579 2:0.710936 3:-0.988288 4:-0.479161 5:-0.0334671 6:-0.22996 7:-0.787087 8:0.245245 9:0.707222 10:0.100943 11:-0.559424 12:0.46038 13:0.874531 14:-1 15:-1 16:-1 17:-1 18:1 19:-1 20:-1 21:-1 22:-1 23:-1 24:-1 25:-1 26:-1 27:-1 28:1 29:-1 30:-1 31:-1 32:-1 33:1 34:-1 35:-1 
47104 1:-0.0132672 2:0.546585 3:-0.298795 4:0.424274 5:-0.122484 6:-0.244458 7:-0.699066 8:-0.716074 9:0.931138 10:0.0482421 11:-0.40241 12:-0.310748 13:-0.925496 14:-1 15:-1 16:-1 17:1 18:-1 19:-1 20:-1 21:-1 22:-1 23:-1 24:-1 25:-1 26:-1 27:-1 28:-1 29:1 30:-1 31:-1 32:-1 33:1 34:-1 35:-1 
47104 1:-0.348918 2:0.441675 3:-0.0160558 4:-0.5066 5:0.161679 6:-0.140177 7:-0.816744 8:0.300859 9:0.516659 10:-0.0966017 11:0.0364915 12:0.0344706 13:-0.0415598 14:-1 15:-1 16:-1 17:-1 18:-1 19:1 20:-1 21:-1 22:-1 23:-1 24:-1 25:-1 26:-1 27:-1 28:-1 29:1 30:-1 31:-1 32:-1 33:1 34:-1 35:-1 
47104 1:-0.4999 2:0.533821 3:-0.55356 4:0.0421017 5:-0.789553 6:-0.0968551 7:-1 8:0.0703796 9:0.919679 10:-0.545634 11:-0.217275 12:0.390607 13:-0.952444 14:-1 15:-1 16:-1 17:-1 18:1 19:-1 20:-1 21:-1 22:-1 23:-1 24:-1 25:-1 26:-1 27:-1 28:-1 29:1 30:-1 31:-1 32:1 33:-1 34:-1 35:-1 
47104 1:0.491368 2:0.628741 3:-0.872474 4:-0.503304 5:-0.960687 6:0.0282691 7:-0.900977 8:-0.0473477 9:0.792628 10:-0.700876 11:-0.237027 12:-0.378191 13:-0.89633 14:-1 15:-1 16:-1 17:-1 18:-1 19:-1 20:-1 21:0.333333 22:-1 23:-1 24:-1 25:-1 26:-1 27:1 28:-1 29:-1 30:-1 31:-1 32:1 33:-1 34:-1 35:-1 
47104 1:0.325283 2:0.533936 3:-0.997385 4:0.863848 5:-0.442518 6:-0.281243 7:-0.916691 8:-0.0186181 9:0.0715947 10:-0.510961 11:-0.138601 12:0.595479 13:-0.164005 14:-1 15:-1 16:-1 17:-1 18:1 19:-1 20:-1 21:-1 22:-1 23:-1 24:-1 25:-1 26:-1 27:-1 28:1 29:-1 30:-1 31:-1 32:-1 33:1 34:-1 35:-1 
47104 1:0.0530547 2:0.651159 3:-0.973716 4:-0.288246 5:-0.76985 6:-0.259979 7:-0.770165 8:0.0135623 9:0.977731 10:-0.491061 11:-0.482424 12:-0.291708 13:-0.901974 14:-1 15:-1 16:-1 17:1 18:-1 19:-1 20:-1 21:-1 22:-1 23:-1 24:-1 25:-1 26:-1 27:-1 28:1 29:-1 30:-1 31:-1 32:1 33:-1 34:-1 35:-1 
47104 1:-0.0698154 2:0.746569 3:-0.129001 4:-0.0944387 5:0.318023 6:-0.221921 7:-1 8:-0.0157291 9:0.836784 10:-0.770225 11:-0.32541 12:-0.0654478 13:0.335621 14:-1 15:-1 16:-1 17:-1 18:1 19:-1 20:-1 21:-1 22:-1 23:-1 24:-1 25:-1 26:-1 27:-1 28:-1 29:1 30:-1 31:-1 32:1 33:-1 34:-1 35:-1 
47104 1:0.249759 2:0.515957 3:-0.663059 4:-0.0359872 5:-0.99999 6:0.0790546 7:-0.95667 8:-0.495626 9:-0.547003 10:-0.505676 11:-0.105792 12:-0.0487442 13:0.215059 14:-1 15:-1 16:-1 17:-1 18:1 19:-1 20:-1 21:-1 22:-1 23:-1 24:-1 25:-1 26:-1 27:-1 28:-1 29:1 30:-1 31:-1 32:-1 33:1 34:-1 35:-1 
-2048 1:-0.392972 2:0.782268 3:-0.594327 4:-0.0933859 5:-0.340782 6:-0.184911 7:-0.703928 8:0.261135 9:0.956059 10:-0.458467 11:-0.103113 12:0.136978 13:-0.0860286 14:-1 15:-1 16:-1 17:-1 18:-1 19:1 20:-1 21:-1 22:-1 23:1 24:-1 25:-1 26:-1 27:-1 28:-1 29:-1 30:-1 31:-1 32:-1 33:-1 34:1 35:-1 
-2048 1:0.274131 2:0.684189 3:-0.766246 4:-0.148224 5:-0.978638 6:-0.357261 7:-0.389284 8:0.257122 9:0.915118 10:-0.591726 11:0.300301 12:0.390097 13:-0.998452 14:-1 15:-1 16:-1 17:-1 18:1 19:-1 20:-1 21:-1 22:-1 23:1 24:-1 25:-1 26:-1 27:-1 28:-1 29:-1 30:-1 31:-1 32:-1 33:-1 34:1 35:-1 
-2048 1:-0.966224 2:0.413534 3:-0.887875 4:-0.587267 5:0.181004 6:-0.193778 7:-0.76802 8:0.321162 9:0.980447 10:-0.0120995 11:-0.229662 12:0.0863922 13:-0.583179 14:-1 15:-1 16:-1 17:-1 18:-1 19:1 20:-1 21:-1 22:-1 23:1 24:-1 25:-1 26:-1 27:-1 28:-1 29:-1 30:-1 31:-1 32:-1 33:-1 34:1 35:-1 
-2048 1:-0.966224 2:0.413534 3:-0.887875 4:-0.688522 5:-0.945339 6:-0.240327 7:-0.630235 8:0.321162 9:0.980447 10:-0.0120995 11:-0.229662 12:-0.105948 13:-0.996532 14:-1 15:-1 16:-1 17:-1 18:-1 19:1 20:-1 21:-1 22:-1 23:1 24:-1 25:-1 26:-1 27:-1 28:-1 29:-1 30:-1 31:-1 32:-1 33:-1 34:1 35:-1 
-2048 1:-0.966224 2:0.413534 3:-0.887875 4:-0.806353 5:0.278236 6:-0.252326 7:-0.677296 8:0.321162 9:0.980447 10:-0.0120995 11:-0.229662 12:-0.136575 13:-0.517627 14:-1 15:-1 16:-1 17:-1 18:-1 19:1 20:-1 21:-1 22:-1 23:1 24:-1 25:-1 26:-1 27:-1 28:-1 29:-1 30:-1 31:-1 32:-1 33:-1 34:1 35:-1 
-2048 1:-0.874221 2:0.281351 3:0.375621 4:-0.581859 5:-0.692056 6:-0.183183 7:-0.793696 8:0.259128 9:0.996049 10:-0.244843 11:-0.113492 12:-0.0759779 13:-0.888095 14:-1 15:-1 16:-1 17:-1 18:1 19:-1 20:-1 21:-1 22:-1 23:1 24:-1 25:-1 26:-1 27:-1 28:-1 29:-1 30:-1 31:-1 32:-1 33:-1 34:1 35:-1 
-2048 1:-0.0223579 2:0.827464 3:-0.729323 4:-0.681299 5:0.715348 6:-0.0133651 7:-0.959241 8:0.211139 9:0.969256 10:-0.197276 11:-0.469702 12:-0.183571 13:0.958487 14:-1 15:-1 16:-1 17:-1 18:1 19:-1 20:-1 21:-1 22:-1 23:-1 24:1 25:-1 26:-1 27:-1 28:-1 29:-1 30:-1 31:-1 32:-1 33:-1 34:1 35:-1 
-2048 1:-0.0223579 2:0.827464 3:-0.729323 4:-0.72326 5:0.967378 6:-0.0487221 7:-0.814501 8:0.211139 9:0.969256 10:-0.197276 11:-0.469702 12:-0.700608 13:0.858648 14:-1 15:-1 16:-1 17:-1 18:1 19:-1 20:-1 21:-1 22:-1 23:-1 24:1 25:-1 26:-1 27:-1 28:-1 29:-1 30:-1 31:-1 32:-1 33:-1 34:1 35:-1 
-2048 1:-0.0223579 2:0.696835 3:-0.751882 4:-0.864932 5:0.316338 6:-0.0203961 7:-0.814501 8:0.434556 9:0.947707 10:-0.197276 11:-0.469702 12:-0.24267 13:0.163086 14:-1 15:-1 16:-1 17:-1 18:1 19:-1 20:-1 21:-1 22:-1 23:-1 24:1 25:-1 26:-1 27:-1 28:-1 29:-1 30:-1 31:-1 32:-1 33:-1 34:1 35:-1 
-2048 1:-0.0223579 2:0.696835 3:-0.751882 4:-0.725747 5:-0.302057 6:-0.0288075 7:-0.7955 8:0.434556 9:0.947707 10:-0.197276 11:-0.469702 12:-0.409803 13:-0.691743 14:-1 15:-1 16:-1 17:-1 18:1 19:-1 20:-1 21:-1 22:-1 23:-1 24:1 25:-1 26:-1 27:-1 28:-1 29:-1 30:-1 31:-1 32:-1 33:-1 34:1 35:-1 
-2048 1:-0.603019 2:0.826045 3:-0.585978 4:-0.511424 5:-0.473171 6:-0.366929 7:-0.356347 8:0.220287 9:0.968514 10:-0.161779 11:-0.770003 12:0.138489 13:-0.802654 14:-1 15:-1 16:-1 17:-1 18:1 19:-1 20:-1 21:-1 22:-1 23:1 24:-1 25:-1 26:-1 27:-1 28:-1 29:-1 30:-1 31:-1 32:-1 33:-1 34:1 35:-1 
-2048 1:-0.603019 2:0.826045 3:-0.585978 4:-0.447612 5:-0.955705 6:-0.329863 7:-0.430725 8:0.220287 9:0.968514 10:-0.161779 11:-0.770003 12:0.637934 13:-0.995625 14:-1 15:-1 16:-1 17:-1 18:1 19:-1 20:-1 21:-1 22:-1 23:1 24:-1 25:-1 26:-1 27:-1 28:-1 29:-1 30:-1 31:-1 32:-1 33:-1 34:1 35:-1 
-2048 1:-0.603019 2:0.826045 3:-0.585978 4:-0.501071 5:0.30123 6:-0.254793 7:-0.353953 8:0.220287 9:0.968514 10:-0.161779 11:-0.770003 12:0.922909 13:-0.367263 14:-1 15:-1 16:-1 17:-1 18:1 19:-1 20:-1 21:-1 22:-1 23:1 24:-1 25:-1 26:-1 27:-1 28:-1 29:-1 30:-1 31:-1 32:-1 33:-1 34:1 35:-1 
-2048 1:0.151642 2:0.812661 3:-0.703319 4:-0.263329 5:-0.910897 6:-0.19348 7:-0.944943 8:0.245245 9:0.983586 10:-0.155733 11:-0.110814 12:-0.316024 13:-0.991072 14:-1 15:-1 16:-1 17:1 18:-1 19:-1 20:-1 21:-1 22:-1 23:1 24:-1 25:-1 26:-1 27:-1 28:-1 29:-1 30:-1 31:-1 32:-1 33:-1 34:1 35:-1 
-2048 1:0.151642 2:0.812661 3:-0.703319 4:-0.295138 5:-0.951248 6:-0.198307 7:-0.898234 8:0.245245 9:0.983586 10:-0.155733 11:-0.110814 12:-0.286576 13:-0.996683 14:-1 15:-1 16:-1 17:1 18:-1 19:-1 20:-1 21:-1 22:-1 23:1 24:-1 25:-1 26:-1 27:-1 28:-1 29:-1 30:-1 31:-1 32:-1 33:-1 34:1 35:-1 
-2048 1:0.130762 2:0.509954 3:-0.970991 4:-0.0452255 5:-0.992806 6:0.104018 7:-1 8:0.279833 9:0.997804 10:0.0885368 11:-0.718112 12:0.254461 13:-0.995207 14:-1 15:-1 16:-1 17:1 18:-1 19:-1 20:-1 21:-1 22:-1 23:-1 24:-1 25:-1 26:1 27:-1 28:-1 29:-1 30:-1 31:-1 32:-1 33:-1 34:1 35:-1 
-2048 1:-0.646437 2:0.819212 3:-0.767994 4:-0.479199 5:0.479915 6:0.186175 7:-0.655445 8:0.221973 9:0.993381 10:0.070856 11:0.975226 12:0.285391 13:0.699566 14:-1 15:-1 16:-1 17:-1 18:-1 19:-1 20:-1 21:0.333333 22:-1 23:-1 24:1 25:-1 26:-1 27:-1 28:-1 29:-1 30:-1 31:-1 32:-1 33:-1 34:1 35:-1 
-2048 1:-0.646437 2:0.819212 3:-0.767994 4:-0.348072 5:-0.108399 6:0.250405 7:-0.788253 8:0.221973 9:0.993381 10:0.070856 11:0.975226 12:0.593368 13:-0.289403 14:-1 15:-1 16:-1 17:-1 18:-1 19:-1 20:-1 21:0.333333 22:-1 23:-1 24:1 25:-1 26:-1 27:-1 28:-1 29:-1 30:-1 31:-1 32:-1 33:-1 34:1 35:-1 
-2048 1:-0.646437 2:0.819212 3:-0.767994 4:-0.2111 5:0.246364 6:0.275163 7:-0.86024 8:0.221973 9:0.993381 10:0.070856 11:0.384332 12:-0.0401719 13:0.0591644 14:-1 15:-1 16:-1 17:-1 18:-1 19:-1 20:-1 21:0.333333 22:-1 23:-1 24:1 25:-1 26:-1 27:-1 28:-1 29:-1 30:-1 31:-1 32:-1 33:-1 34:1 35:-1 
-2048 1:-0.646437 2:0.819212 3:-0.767994 4:-0.430225 5:0.115275 6:0.178347 7:-0.679364 8:0.221973 9:0.993381 10:0.070856 11:0.384332 12:-0.519079 13:-0.149863 14:-1 15:-1 16:-1 17:-1 18:-1 19:-1 20:-1 21:0.333333 22:-1 23:-1 24:1 25:-1 26:-1 27:-1 28:-1 29:-1 30:-1 31:-1 32:-1 33:-1 34:1 35:-1 
-2048 1:-0.646437 2:0.819212 3:-0.767994 4:-0.347599 5:0.513388 6:0.186189 7:-0.655445 8:0.221973 9:0.993381 10:0.070856 11:0.384332 12:-0.695119 13:0.507327 14:-1 15:-1 16:-1 17:-1 18:-1 19:-1 20:-1 21:0.333333 22:-1 23:-1 24:1 25:-1 26:-1 27:-1 28:-1 29:-1 30:-1 31:-1 32:-1 33:-1 34:1 35:-1 
-2048 1:0.370938 2:0.471036 3:-0.899957 4:-0.146365 5:-0.994735 6:-0.0994804 7:-0.850441 8:0.261536 9:0.919734 10:-0.481689 11:0.204888 12:-0.49476 13:-0.999354 14:-1 15:-1 16:-1 17:-1 18:-1 19:-1 20:-1 21:-0.333333 22:-1 23:-1 24:-1 25:-1 26:1 27:-1 28:-1 29:-1 30:-1 31:-1 32:-1 33:-1 34:1 35:-1 
-2048 1:-0.820471 2:0.727428 3:0.499902 4:-0.51988 5:-0.814849 6:-0.0325363 7:-0.818789 8:-0.306235 9:0.952134 10:-0.531597 11:-0.600603 12:-0.0626581 13:0.246966 14:-1 15:-1 16:0.5 17:-1 18:-1 19:-1 20:-1 21:-1 22:-1 23:-1 24:1 25:-1 26:-1 27:-1 28:-1 29:-1 30:-1 31:-1 32:-1 33:-1 34:-1 35:1 
-2048 1:0.0765764 2:0.62161 3:-0.946609 4:0.348355 5:0.156161 6:-0.298877 7:-0.609867 8:-0.332959 9:0.976184 10:-0.298184 11:-0.0709742 12:0.21873 13:-0.940127 14:1 15:-1 16:-1 17:-1 18:-1 19:-1 20:-1 21:-1 22:-1 23:1 24:-1 25:-1 26:-1 27:-1 28:-1 29:-1 30:-1 31:-1 32:-1 33:-1 34:-1 35:1 
-2048 1:0.0765764 2:0.62161 3:-0.946609 4:0.248216 5:-0.37297 6:-0.263781 7:-0.464667 8:-0.332959 9:0.976184 10:-0.298184 11:-0.0709742 12:-0.029695 13:-0.985292 14:1 15:-1 16:-1 17:-1 18:-1 19:-1 20:-1 21:-1 22:-1 23:1 24:-1 25:-1 26:-1 27:-1 28:-1 29:-1 30:-1 31:-1 32:-1 33:-1 34:-1 35:1 
-2048 1:0.0765764 2:0.769342 3:-0.935059 4:0.348355 5:0.156161 6:-0.283998 7:-0.745966 8:-0.286173 9:0.97516 10:-0.298184 11:-0.0709742 12:0.21873 13:-0.940127 14:-1 15:-1 16:0.5 17:-1 18:-1 19:-1 20:-1 21:-1 22:-1 23:1 24:-1 25:-1 26:-1 27:-1 28:-1 29:-1 30:-1 31:-1 32:-1 33:-1 34:-1 35:1 
-2048 1:0.0765764 2:0.622217 3:-0.948209 4:0.263901 5:-0.629288 6:-0.263163 7:-0.464667 8:-0.240992 9:0.968914 10:-0.270588 11:-0.0709742 12:-0.067196 13:-0.994693 14:1 15:-1 16:-1 17:-1 18:-1 19:-1 20:-1 21:-1 22:-1 23:1 24:-1 25:-1 26:-1 27:-1 28:-1 29:-1 30:-1 31:-1 32:-1 33:-1 34:-1 35:1 
-2048 1:0.0765764 2:0.779315 3:-0.935212 4:0.348355 5:0.156161 6:-0.281664 7:-0.745966 8:-0.0881149 9:0.95851 10:-0.270588 11:-0.0709742 12:0.21873 13:-0.940127 14:-1 15:-1 16:0.5 17:-1 18:-1 19:-1 20:-1 21:-1 22:-1 23:1 24:-1 25:-1 26:-1 27:-1 28:-1 29:-1 30:-1 31:-1 32:-1 33:-1 34:-1 35:1 
-2048 1:0.369158 2:0.839818 3:-0.787541 4:-0.233828 5:-0.178652 6:-0.394962 7:-0.410904 8:0.316829 9:0.93483 10:-0.581493 11:-0.277871 12:-0.332728 13:0.275611 14:-1 15:-1 16:-1 17:-1 18:-1 19:1 20:-1 21:-1 22:-1 23:1 24:-1 25:-1 26:-1 27:-1 28:-1 29:-1 30:-1 31:-1 32:-1 33:-1 34:1 35:-1 
-2048 1:0.369158 2:0.839818 3:-0.787541 4:-0.214976 5:-0.721499 6:-0.433736 7:-0.689581 8:0.316829 9:0.93483 10:-0.581493 11:-0.277871 12:0.520095 13:-0.668925 14:-1 15:-1 16:-1 17:-1 18:-1 19:1 20:-1 21:-1 22:-1 23:1 24:-1 25:-1 26:-1 27:-1 28:-1 29:-1 30:-1 31:-1 32:-1 33:-1 34:1 35:-1 
-2048 1:-0.175915 2:0.420791 3:0.830524 4:-0.0442324 5:0.161553 6:0.00743275 7:-1 8:0.0501565 9:0.754195 10:-0.683463 11:-0.472046 12:-0.249866 13:-0.147208 14:-1 15:-1 16:-1 17:-1 18:-1 19:1 20:-1 21:-1 22:-1 23:-1 24:-1 25:-1 26:-1 27:-1 28:-1 29:1 30:-1 31:-1 32:1 33:-1 34:-1 35:-1 
-2048 1:0.126351 2:0.268868 3:-0.786371 4:-0.572549 5:-0.91036 6:-0.0376805 7:-0.639938 8:0.27574 9:0.890862 10:-0.553129 11:0.759625 12:-0.83261 13:-0.865414 14:-1 15:-1 16:-1 17:1 18:-1 19:-1 20:-1 21:-1 22:-1 23:1 24:-1 25:-1 26:-1 27:-1 28:-1 29:-1 30:-1 31:-1 32:-1 33:-1 34:1 35:-1 
-2048 1:0.126351 2:0.268868 3:-0.786371 4:-0.848217 5:-0.864969 6:-0.0486221 7:-0.639938 8:0.27574 9:0.890862 10:-0.553129 11:0.0796786 12:-0.948816 13:-0.885216 14:-1 15:-1 16:-1 17:1 18:-1 19:-1 20:-1 21:-1 22:-1 23:1 24:-1 25:-1 26:-1 27:-1 28:-1 29:-1 30:-1 31:-1 32:-1 33:-1 34:1 35:-1 
-2048 1:0.183538 2:0.645478 3:-0.828562 4:-0.592042 5:-0.852277 6:0.198135 7:-0.85804 8:0.241875 9:0.967823 10:-0.585049 11:0.278206 12:-0.110311 13:-0.944076 14:-1 15:-1 16:-1 17:-1 18:1 19:-1 20:-1 21:-1 22:-1 23:1 24:-1 25:-1 26:-1 27:-1 28:-1 29:-1 30:-1 31:-1 32:-1 33:-1 34:1 35:-1 
-2048 1:-0.0188537 2:0.258755 3:-0.684079 4:0.639985 5:0.542645 6:-0.310647 7:-0.483331 8:0.352299 9:0.886709 10:-0.504221 11:-0.0803482 12:-0.332618 13:0.34941 14:-1 15:-1 16:-1 17:-1 18:-1 19:1 20:-1 21:-1 22:-1 23:1 24:-1 25:-1 26:-1 27:-1 28:-1 29:-1 30:-1 31:-1 32:-1 33:-1 34:1 35:-1 
-2048 1:-0.0434053 2:0.495404 3:-0.231473 4:-0.612619 5:0.729146 6:0.0566616 7:-0.944338 8:0.730118 9:0.0624698 10:-0.269513 11:0.967191 12:0.278707 13:0.0941815 14:-1 15:-1 16:-1 17:-1 18:-1 19:1 20:-1 21:-1 22:-1 23:-1 24:-1 25:-1 26:-1 27:-1 28:-1 29:1 30:-1 31:-1 32:-1 33:1 34:-1 35:-1 
-2048 1:0.304695 2:0.789998 3:-0.685481 4:0.690015 5:0.857905 6:-0.379906 7:-0.762948 8:0.0946152 9:0.954905 10:-0.423225 11:-0.195514 12:0.48626 13:-0.245575 14:-1 15:-1 16:-1 17:-1 18:-1 19:1 20:-1 21:-1 22:-1 23:1 24:-1 25:-1 26:-1 27:-1 28:-1 29:-1 30:-1 31:-1 32:-1 33:-1 34:1 35:-1 
-2048 1:0.304695 2:0.789998 3:-0.685481 4:0.426752 5:0.320741 6:-0.435322 7:-0.507171 8:0.0946152 9:0.954905 10:-0.423225 11:-0.195514 12:0.291568 13:-0.642549 14:-1 15:-1 16:-1 17:-1 18:-1 19:1 20:-1 21:-1 22:-1 23:1 24:-1 25:-1 26:-1 27:-1 28:-1 29:-1 30:-1 31:-1 32:-1 33:-1 34:1 35:-1 
-2048 1:-0.658577 2:0.288769 3:0.28015 4:-0.489617 5:-0.925617 6:-0.099251 7:-0.707541 8:0.223096 9:0.89056 10:-0.57402 11:-0.20221 12:-0.286001 13:-0.997108 14:-1 15:-1 16:-1 17:-1 18:1 19:-1 20:-1 21:-1 22:-1 23:1 24:-1 25:-1 26:-1 27:-1 28:-1 29:-1 30:-1 31:-1 32:-1 33:-1 34:1 35:-1 
-2048 1:0.265567 2:0.560349 3:-0.948481 4:-0.392072 5:-0.948693 6:-0.310156 7:-0.804988 8:0.241152 9:0.973203 10:-0.131236 11:0.386676 12:-0.334786 13:-0.996319 14:-1 15:-1 16:-1 17:1 18:-1 19:-1 20:-1 21:-1 22:-1 23:1 24:-1 25:-1 26:-1 27:-1 28:-1 29:-1 30:-1 31:-1 32:-1 33:-1 34:1 35:-1 
-2048 1:0.265567 2:0.560349 3:-0.948481 4:-0.274369 5:-0.926377 6:-0.291784 7:-0.925222 8:0.241152 9:0.973203 10:-0.131236 11:0.386676 12:-0.0676182 13:-0.996334 14:-1 15:-1 16:-1 17:1 18:-1 19:-1 20:-1 21:-1 22:-1 23:1 24:-1 25:-1 26:-1 27:-1 28:-1 29:-1 30:-1 31:-1 32:-1 33:-1 34:1 35:-1 
-2048 1:-0.328822 2:0.766163 3:-0.897125 4:-0.034713 5:-0.942769 6:-0.379497 7:-0.670156 8:0.232164 9:0.979334 10:-0.428652 11:0.414128 12:-0.487873 13:-0.984259 14:-1 15:-1 16:-1 17:1 18:-1 19:-1 20:-1 21:-1 22:-1 23:1 24:-1 25:-1 26:-1 27:-1 28:-1 29:-1 30:-1 31:-1 32:-1 33:-1 34:1 35:-1 
-2048 1:0.469514 2:0.794076 3:-0.69594 4:-0.693363 5:-0.127205 6:-0.435864 7:-0.499209 8:0.279271 9:0.826291 10:-0.632228 11:-0.0957482 12:0.57425 13:-0.156259 14:-1 15:-1 16:-1 17:-1 18:1 19:-1 20:-1 21:-1 22:-1 23:1 24:-1 25:-1 26:-1 27:-1 28:-1 29:-1 30:-1 31:-1 32:-1 33:-1 34:1 35:-1 
-2048 1:0.668245 2:0.746019 3:-0.931183 4:-0.353614 5:0.0959689 6:-0.307596 7:-0.623357 8:0.210176 9:0.949962 10:-0.378409 11:-0.429528 12:0.969351 13:-0.363451 14:-1 15:-1 16:-1 17:-1 18:1 19:-1 20:-1 21:-1 22:-1 23:-1 24:1 25:-1 26:-1 27:-1 28:-1 29:-1 30:-1 31:-1 32:-1 33:-1 34:1 35:-1 
-2048 1:0.668245 2:0.746019 3:-0.931183 4:-0.00155635 5:0.470653 6:-0.327994 7:-0.662507 8:0.210176 9:0.949962 10:-0.378409 11:-0.429528 12:-0.0926784 13:0.228315 14:-1 15:-1 16:-1 17:-1 18:1 19:-1 20:-1 21:-1 22:-1 23:-1 24:1 25:-1 26:-1 27:-1 28:-1 29:-1 30:-1 31:-1 32:-1 33:-1 34:1 35:-1 
-2048 1:0.0936047 2:0.298414 3:-0.728886 4:-0.3461 5:-1 6:-0.189084 7:-0.673078 8:0.3397 9:0.948605 10:-0.349566 11:-0.735521 12:0.612808 13:0.600245 14:-1 15:-1 16:-1 17:-1 18:-1 19:1 20:-1 21:-1 22:-1 23:-1 24:-1 25:-1 26:-1 27:-1 28:1 29:-1 30:-1 31:-1 32:1 33:-1 34:-1 35:-1 
-2048 1:0.0936047 2:0.298414 3:-0.728886 4:-0.307697 5:-1 6:-0.183674 7:-0.625415 8:0.3397 9:0.948605 10:-0.349566 11:-0.735521 12:0.463432 13:0.768284 14:-1 15:-1 16:-1 17:-1 18:-1 19:1 20:-1 21:-1 22:-1 23:-1 24:-1 25:-1 26:-1 27:-1 28:1 29:-1 30:-1 31:-1 32:1 33:-1 34:-1 35:-1 
-2048 1:0.0936047 2:0.220938 3:-0.751614 4:-0.3461 5:-1 6:-0.212876 7:-0.582027 8:-0.0215874 9:0.765118 10:-0.714294 11:-0.735521 12:0.612808 13:0.600245 14:-1 15:-1 16:-1 17:-1 18:-1 19:1 20:-1 21:-1 22:-1 23:-1 24:-1 25:-1 26:-1 27:-1 28:1 29:-1 30:-1 31:-1 32:1 33:-1 34:-1 35:-1 
-2048 1:-0.728896 2:-0.454322 3:-0.54946 4:-0.27821 5:-0.856597 6:-0.316703 7:-0.510249 8:0.314341 9:0.946949 10:-0.347623 11:0.0274523 12:0.399892 13:-0.776736 14:-1 15:-1 16:-1 17:1 18:-1 19:-1 20:-1 21:-1 22:-1 23:1 24:-1 25:-1 26:-1 27:-1 28:-1 29:-1 30:-1 31:-1 32:-1 33:-1 34:1 35:-1 
-2048 1:0.389668 2:0.263471 3:-0.960845 4:0.415445 5:-0.667602 6:-0.1466 7:-0.860839 8:0.469705 9:0.903725 10:-0.419681 11:-0.239036 12:-0.597781 13:-0.653434 14:-1 15:-1 16:-1 17:-1 18:1 19:-1 20:-1 21:-1 22:-1 23:-1 24:-1 25:1 26:-1 27:-1 28:-1 29:-1 30:-1 31:-1 32:-1 33:-1 34:1 35:-1 
-2048 1:0.389668 2:0.138913 3:-0.966767 4:0.415445 5:-0.667602 6:-0.161182 7:-0.811892 8:0.325335 9:0.925109 10:-0.419681 11:-0.239036 12:-0.597781 13:-0.653434 14:-1 15:-1 16:-1 17:-1 18:1 19:-1 20:-1 21:-1 22:-1 23:-1 24:-1 25:1 26:-1 27:-1 28:-1 29:-1 30:-1 31:-1 32:-1 33:-1 34:1 35:-1 
-2048 1:0.213183 2:0.428597 3:-0.842211 4:-0.259999 5:-0.993356 6:-0.281501 7:-0.728105 8:0.276944 9:0.985738 10:-0.208146 11:0.0803482 12:-0.914734 13:-0.99595 14:-1 15:-1 16:-1 17:-1 18:-1 19:-1 20:1 21:-1 22:-1 23:1 24:-1 25:-1 26:-1 27:-1 28:-1 29:-1 30:-1 31:-1 32:-1 33:-1 34:1 35:-1 
-2048 1:0.213183 2:0.428597 3:-0.842211 4:-0.4097 5:0.572112 6:-0.272935 7:-0.685276 8:0.276944 9:0.985738 10:-0.208146 11:0.0803482 12:-0.278951 13:0.592177 14:-1 15:-1 16:-1 17:-1 18:-1 19:-1 20:1 21:-1 22:-1 23:1 24:-1 25:-1 26:-1 27:-1 28:-1 29:-1 30:-1 31:-1 32:-1 33:-1 34:1 35:-1 
-2048 1:-0.692026 2:0.734975 3:0.131603 4:-0.51237 5:0.0796649 6:-0.545516 7:-0.348706 8:0.245566 9:0.981132 10:-0.184621 11:0.20991 12:-0.409125 13:-0.0335539 14:-1 15:-1 16:-1 17:1 18:-1 19:-1 20:-1 21:-1 22:-1 23:1 24:-1 25:-1 26:-1 27:-1 28:-1 29:-1 30:-1 31:-1 32:-1 33:-1 34:1 35:-1 
-2048 1:-0.692026 2:0.734975 3:0.131603 4:-0.654958 5:-0.0426366 6:-0.421262 7:-0.421975 8:0.245566 9:0.981132 10:-0.184621 11:0.20991 12:0.19852 13:0.131542 14:-1 15:-1 16:-1 17:1 18:-1 19:-1 20:-1 21:-1 22:-1 23:1 24:-1 25:-1 26:-1 27:-1 28:-1 29:-1 30:-1 31:-1 32:-1 33:-1 34:1 35:-1 
-2048 1:-0.0248209 2:0.395627 3:-0.217786 4:-0.135147 5:-0.923323 6:0.0215066 7:-0.959785 8:0.42637 9:0.950607 10:-0.52661 11:-0.0629394 12:-0.289891 13:-0.946959 14:-1 15:-1 16:-1 17:-1 18:-1 19:-1 20:-1 21:-1 22:1 23:1 24:-1 25:-1 26:-1 27:-1 28:-1 29:-1 30:-1 31:-1 32:-1 33:-1 34:1 35:-1 
-2048 1:-0.944602 2:0.702225 3:-0.420665 4:-0.321613 5:-0.0159154 6:-0.344895 7:-0.790941 8:0.197817 9:0.927977 10:-0.484478 11:0.0639438 12:-0.890677 13:-0.354115 14:1 15:-1 16:-1 17:-1 18:-1 19:-1 20:-1 21:-1 22:-1 23:-1 24:1 25:-1 26:-1 27:-1 28:-1 29:-1 30:-1 31:-1 32:-1 33:-1 34:-1 35:1 
-2048 1:-0.420468 2:0.650435 3:-0.235186 4:-0.0327915 5:0.941981 6:-0.48144 7:-0.266627 8:-0.111789 9:0.918811 10:-0.539686 11:0.385671 12:-0.913805 13:0.727388 14:1 15:-1 16:-1 17:-1 18:-1 19:-1 20:-1 21:-1 22:-1 23:1 24:-1 25:-1 26:-1 27:-1 28:-1 29:-1 30:-1 31:-1 32:-1 33:-1 34:-1 35:1 
-2048 1:-0.213811 2:0.782793 3:-0.121145 4:-0.0555985 5:-0.66222 6:-0.505731 7:-0.297534 8:0.283444 9:0.897394 10:-0.523585 11:-0.252092 12:-0.272212 13:-0.552636 14:-1 15:-1 16:-1 17:-1 18:1 19:-1 20:-1 21:-1 22:-1 23:1 24:-1 25:-1 26:-1 27:-1 28:-1 29:-1 30:-1 31:-1 32:-1 33:-1 34:1 35:-1 
-2048 1:0.566019 2:0.327506 3:-0.995447 4:-0.0133785 5:-0.705353 6:-0.0161393 7:-0.869678 8:-0.212985 9:0.970581 10:-0.333583 11:0.0515567 12:0.0615979 13:0.41461 14:1 15:-1 16:-1 17:-1 18:-1 19:-1 20:-1 21:-1 22:-1 23:1 24:-1 25:-1 26:-1 27:-1 28:-1 29:-1 30:-1 31:-1 32:-1 33:-1 34:-1 35:1 
-2048 1:0.239134 2:0.29629 3:-0.855904 4:0.71824 5:-0.408542 6:-0.217546 7:-0.751439 8:0.212423 9:0.924025 10:-0.497199 11:-0.0920656 12:0.316102 13:-0.39528 14:-1 15:-1 16:-1 17:-1 18:-1 19:-1 20:1 21:-1 22:-1 23:1 24:-1 25:-1 26:-1 27:-1 28:-1 29:-1 30:-1 31:-1 32:-1 33:-1 34:1 35:-1 
-2048 1:0.463021 2:0.192652 3:-0.981396 4:-0.433857 5:-0.149219 6:-0.218999 7:-0.697124 8:0.305995 9:0.975855 10:-0.220802 11:0.411115 12:0.575892 13:0.585974 14:-1 15:-1 16:-1 17:-1 18:-1 19:-1 20:1 21:-1 22:-1 23:1 24:-1 25:-1 26:-1 27:-1 28:-1 29:-1 30:-1 31:-1 32:-1 33:-1 34:1 35:-1 
-2048 1:0.463021 2:0.306575 3:-0.976251 4:-0.399664 5:-0.0344826 6:-0.203778 7:-0.697124 8:0.434636 9:0.970828 10:-0.220802 11:0.411115 12:0.439495 13:0.400329 14:-1 15:-1 16:-1 17:-1 18:-1 19:-1 20:1 21:-1 22:-1 23:1 24:-1 25:-1 26:-1 27:-1 28:-1 29:-1 30:-1 31:-1 32:-1 33:-1 34:1 35:-1 
-2048 1:0.575681 2:0.739858 3:-0.916571 4:0.404574 5:-0.847808 6:-0.138726 7:-1 8:0.320119 9:0.966138 10:-0.214648 11:0.394376 12:0.440383 13:-0.111674 14:-1 15:-1 16:-1 17:-1 18:-1 19:1 20:-1 21:-1 22:-1 23:1 24:-1 25:-1 26:-1 27:-1 28:-1 29:-1 30:-1 31:-1 32:-1 33:-1 34:1 35:-1 
-2048 1:-0.248237 2:0.660767 3:-0.59139 4:-0.314412 5:-0.984873 6:-0.0349189 7:-0.731642 8:0.190755 9:0.982163 10:-0.172258 11:0.0150653 12:-0.17315 13:-0.997905 14:-1 15:-1 16:-1 17:-1 18:-1 19:1 20:-1 21:-1 22:-1 23:-1 24:-1 25:1 26:-1 27:-1 28:-1 29:-1 30:-1 31:-1 32:-1 33:-1 34:1 35:-1 
-2048 1:-0.248237 2:0.660767 3:-0.59139 4:-0.546935 5:0.458796 6:-0.0492019 7:-0.599608 8:0.190755 9:0.982163 10:-0.172258 11:0.0150653 12:-0.447217 13:0.171663 14:-1 15:-1 16:-1 17:-1 18:-1 19:1 20:-1 21:-1 22:-1 23:-1 24:-1 25:1 26:-1 27:-1 28:-1 29:-1 30:-1 31:-1 32:-1 33:-1 34:1 35:-1 
-2048 1:0.0691314 2:0.736984 3:-0.596789 4:0.0368126 5:0.251778 6:-0.318482 7:-0.765421 8:0.0582618 9:0.955552 10:-0.496906 11:-0.0261132 12:0.131459 13:0.937605 14:-1 15:-1 16:-1 17:-1 18:-1 19:-1 20:1 21:-1 22:-1 23:1 24:-1 25:-1 26:-1 27:-1 28:-1 29:-1 30:-1 31:-1 32:-1 33:-1 34:1 35:-1 
-2048 1:0.620989 2:0.531292 3:-0.977603 4:0.183553 5:0.463058 6:0.0360539 7:-0.751147 8:0.139475 9:0.924994 10:-0.830217 11:-0.818547 12:-0.222948 13:0.284618 14:-1 15:-1 16:-1 17:-1 18:-1 19:-1 20:-1 21:-0.333333 22:-1 23:-1 24:-1 25:-1 26:-1 27:-1 28:-1 29:-1 30:-0.333333 31:-1 32:1 33:-1 34:-1 35:-1 
-2048 1:0.514363 2:0.839447 3:-0.730236 4:-0.0209522 5:-0.986028 6:-0.183995 7:-0.714594 8:-0.170452 9:0.827074 10:-0.882239 11:-0.167727 12:-0.226983 13:-0.953311 14:1 15:-1 16:-1 17:-1 18:-1 19:-1 20:-1 21:-1 22:-1 23:1 24:-1 25:-1 26:-1 27:-1 28:-1 29:-1 30:-1 31:-1 32:-1 33:-1 34:-1 35:1 
-2048 1:0.514363 2:0.839447 3:-0.730236 4:-0.34204 5:-0.844014 6:-0.188951 7:-0.479107 8:-0.170452 9:0.827074 10:-0.882239 11:-0.167727 12:-0.626519 13:-0.223402 14:1 15:-1 16:-1 17:-1 18:-1 19:-1 20:-1 21:-1 22:-1 23:1 24:-1 25:-1 26:-1 27:-1 28:-1 29:-1 30:-1 31:-1 32:-1 33:-1 34:-1 35:1 
-2048 1:0.462909 2:0.258166 3:-0.989437 4:-0.505361 5:-0.499784 6:-0.284681 7:-0.566739 8:0.22125 9:0.879738 10:-0.592268 11:-0.159357 12:0.00973257 13:-0.715454 14:-1 15:-1 16:-1 17:1 18:-1 19:-1 20:-1 21:-1 22:-1 23:1 24:-1 25:-1 26:-1 27:-1 28:-1 29:-1 30:-1 31:-1 32:-1 33:-1 34:1 35:-1 
-2048 1:-0.673814 2:0.672051 3:0.526982 4:0.283237 5:-0.898318 6:-0.434256 7:-0.317588 8:0.166359 9:0.995935 10:-0.274289 11:0.907934 12:0.442141 13:0.101755 14:-1 15:-1 16:-1 17:-1 18:-1 19:-1 20:-1 21:0.333333 22:-1 23:1 24:-1 25:-1 26:-1 27:-1 28:-1 29:-1 30:-1 31:-1 32:-1 33:-1 34:1 35:-1 
-2048 1:-0.00288899 2:0.541655 3:-0.439279 4:0.0209654 5:-0.610692 6:-0.133962 7:-0.842974 8:-0.248455 9:0.908937 10:-0.74618 11:-0.799464 12:-0.253031 13:0.505102 14:1 15:-1 16:-1 17:-1 18:-1 19:-1 20:-1 21:-1 22:-1 23:1 24:-1 25:-1 26:-1 27:-1 28:-1 29:-1 30:-1 31:-1 32:-1 33:-1 34:-1 35:1 
-2048 1:0.0989561 2:0.416994 3:-0.406146 4:-0.584007 5:0.543858 6:-0.0730544 7:-0.706821 8:-0.113875 9:0.396404 10:-0.882017 11:-0.0950787 12:0.435114 13:0.86863 14:1 15:-1 16:-1 17:-1 18:-1 19:-1 20:-1 21:-1 22:-1 23:1 24:-1 25:-1 26:-1 27:-1 28:-1 29:-1 30:-1 31:-1 32:-1 33:-1 34:-1 35:1 
-2048 1:0.208548 2:0.73521 3:-0.739345 4:-0.24004 5:0.584021 6:-0.321029 7:-0.48639 8:-0.0955782 9:0.9768 10:-0.201742 11:-0.0776699 12:-0.0528786 13:-0.325312 14:-1 15:1 16:-1 17:-1 18:-1 19:-1 20:-1 21:-1 22:-1 23:1 24:-1 25:-1 26:-1 27:-1 28:-1 29:-1 30:-1 31:-1 32:-1 33:-1 34:-1 35:1 
-2048 1:0.224513 2:0.378172 3:-0.970828 4:-0.109333 5:-0.146149 6:-0.389255 7:-0.749994 8:0.16652 9:0.964369 10:-0.441828 11:-0.162035 12:0.314451 13:0.380436 14:-1 15:-1 16:-1 17:-1 18:-1 19:1 20:-1 21:-1 22:-1 23:-1 24:-1 25:-1 26:1 27:-1 28:-1 29:-1 30:-1 31:-1 32:-1 33:-1 34:1 35:-1 
-2048 1:0.224513 2:0.378172 3:-0.970828 4:0.118213 5:-0.548653 6:-0.37548 7:-0.626318 8:0.16652 9:0.964369 10:-0.441828 11:-0.162035 12:-0.244875 13:-0.426524 14:-1 15:-1 16:-1 17:-1 18:-1 19:1 20:-1 21:-1 22:-1 23:-1 24:-1 25:-1 26:1 27:-1 28:-1 29:-1 30:-1 31:-1 32:-1 33:-1 34:1 35:-1 
-2048 1:0.500123 2:0.499707 3:-0.903995 4:-0.73683 5:-0.265698 6:-0.240011 7:-0.444641 8:0.119011 9:0.909124 10:-0.637079 11:0.117509 12:-0.0234432 13:-0.855271 14:-1 15:-1 16:-1 17:-1 18:1 19:-1 20:-1 21:-1 22:-1 23:1 24:-1 25:-1 26:-1 27:-1 28:-1 29:-1 30:-1 31:-1 32:-1 33:-1 34:1 35:-1 
-2048 1:0.500123 2:0.499707 3:-0.903995 4:-0.629705 5:0.100496 6:-0.196494 7:-0.569323 8:0.119011 9:0.909124 10:-0.637079 11:-0.905256 12:0.697562 13:0.184921 14:-1 15:-1 16:-1 17:-1 18:1 19:-1 20:-1 21:-1 22:-1 23:-1 24:-1 25:-1 26:1 27:-1 28:-1 29:-1 30:-1 31:-1 32:-1 33:-1 34:1 35:-1 
-2048 1:0.500123 2:0.499707 3:-0.903995 4:-0.57042 5:-0.550915 6:-0.215428 7:-0.444641 8:0.119011 9:0.909124 10:-0.637079 11:-0.905256 12:0.0236997 13:-0.653136 14:-1 15:-1 16:-1 17:-1 18:1 19:-1 20:-1 21:-1 22:-1 23:-1 24:-1 25:-1 26:1 27:-1 28:-1 29:-1 30:-1 31:-1 32:-1 33:-1 34:1 35:-1 
-2048 1:0.139305 2:0.212807 3:-0.939357 4:-0.191912 5:0.67183 6:0.0132406 7:-0.91918 8:0.0129203 9:0.974217 10:-0.393594 11:-0.254101 12:0.522031 13:-0.638331 14:-1 15:-1 16:-1 17:-1 18:1 19:-1 20:-1 21:-1 22:-1 23:1 24:-1 25:-1 26:-1 27:-1 28:-1 29:-1 30:-1 31:-1 32:-1 33:-1 34:1 35:-1 
-2048 1:0.183191 2:0.748106 3:-0.675072 4:-0.453444 5:0.926949 6:-0.0819945 7:-0.877706 8:0.146136 9:0.929286 10:-0.565275 11:0.0682959 12:-0.580949 13:0.571067 14:-1 15:-1 16:-1 17:-1 18:-1 19:-1 20:1 21:-1 22:-1 23:1 24:-1 25:-1 26:-1 27:-1 28:-1 29:-1 30:-1 31:-1 32:-1 33:-1 34:1 35:-1 
-2048 1:0.471115 2:0.616919 3:-0.833047 4:-0.0199277 5:-0.99998 6:-0.114636 7:-0.7959 8:0.959875 9:0.443409 10:-0.0842067 11:-0.571142 12:0.360912 13:0.30564 14:-1 15:-1 16:-1 17:-1 18:1 19:-1 20:-1 21:-1 22:-1 23:-1 24:-1 25:-1 26:-1 27:-1 28:-1 29:1 30:-1 31:-1 32:-1 33:1 34:-1 35:-1 
-2048 1:0.202335 2:0.261093 3:-0.987318 4:-0.185179 5:-0.904809 6:0.0348308 7:-0.783849 8:0.293636 9:0.995244 10:-0.574414 11:0.083696 12:-0.677937 13:0.192048 14:-1 15:-1 16:-1 17:1 18:-1 19:-1 20:-1 21:-1 22:-1 23:1 24:-1 25:-1 26:-1 27:-1 28:-1 29:-1 30:-1 31:-1 32:-1 33:-1 34:1 35:-1 
-2048 1:-0.367704 2:-0.0214277 3:-0.878974 4:-0.123088 5:-0.791965 6:-0.0922368 7:-0.851656 8:0.388492 9:0.994275 10:-0.0340567 11:-0.540341 12:0.21969 13:0.19008 14:-1 15:-1 16:-1 17:1 18:-1 19:-1 20:-1 21:-1 22:-1 23:1 24:-1 25:-1 26:-1 27:-1 28:-1 29:-1 30:-1 31:-1 32:-1 33:-1 34:1 35:-1 
-2048 1:0.940776 2:0.834893 3:-0.996244 4:0.0937693 5:-0.65249 6:-0.173304 7:-0.90986 8:0.116203 9:0.964879 10:-0.474878 11:-0.0528959 12:0.28454 13:-0.792535 14:-1 15:-1 16:-1 17:-1 18:1 19:-1 20:-1 21:-1 22:-1 23:1 24:-1 25:-1 26:-1 27:-1 28:-1 29:-1 30:-1 31:-1 32:-1 33:-1 34:1 35:-1 
-2048 1:-0.854774 2:0.329629 3:-0.2429 4:0.635617 5:-0.000188276 6:-0.424956 7:-0.428849 8:0.362411 9:0.99849 10:-0.701373 11:-0.376297 12:-0.360002 13:0.0131196 14:-1 15:-1 16:-1 17:1 18:-1 19:-1 20:-1 21:-1 22:-1 23:-1 24:-1 25:-1 26:1 27:-1 28:-1 29:-1 30:-1 31:-1 32:-1 33:-1 34:1 35:-1 
-2048 1:-0.854774 2:0.329629 3:-0.2429 4:0.611204 5:0.277732 6:-0.435931 7:-0.438017 8:0.362411 9:0.99849 10:-0.701373 11:-0.376297 12:-0.432987 13:0.487048 14:-1 15:-1 16:-1 17:1 18:-1 19:-1 20:-1 21:-1 22:-1 23:-1 24:-1 25:-1 26:1 27:-1 28:-1 29:-1 30:-1 31:-1 32:-1 33:-1 34:1 35:-1 
-2048 1:-0.854774 2:0.329629 3:-0.2429 4:0.469934 5:-0.852968 6:-0.429774 7:-0.426496 8:0.362411 9:0.99849 10:-0.701373 11:-0.376297 12:0.299283 13:-0.927595 14:-1 15:-1 16:-1 17:1 18:-1 19:-1 20:-1 21:-1 22:-1 23:-1 24:-1 25:-1 26:1 27:-1 28:-1 29:-1 30:-1 31:-1 32:-1 33:-1 34:1 35:-1 
-2048 1:-0.854774 2:0.329629 3:-0.2429 4:0.715024 5:-0.225844 6:-0.405077 7:-0.453779 8:0.362411 9:0.99849 10:-0.701373 11:-0.376297 12:-0.342864 13:-0.318259 14:-1 15:-1 16:-1 17:1 18:-1 19:-1 20:-1 21:-1 22:-1 23:-1 24:-1 25:-1 26:1 27:-1 28:-1 29:-1 30:-1 31:-1 32:-1 33:-1 34:1 35:-1 
-2048 1:-0.854774 2:0.329629 3:-0.2429 4:0.566737 5:0.279186 6:-0.380475 7:-0.496791 8:0.362411 9:0.99849 10:-0.701373 11:-0.376297 12:0.444771 13:0.44988 14:-1 15:-1 16:-1 17:1 18:-1 19:-1 20:-1 21:-1 22:-1 23:-1 24:-1 25:-1 26:1 27:-1 28:-1 29:-1 30:-1 31:-1 32:-1 33:-1 34:1 35:-1 
-2048 1:-0.482905 2:0.571954 3:-0.951449 4:0.161638 5:-0.735508 6:-0.112372 7:-0.598429 8:-0.258968 9:0.993957 10:1.87228e-05 11:0.0462002 12:-0.00748708 13:-0.478452 14:1 15:-1 16:-1 17:-1 18:-1 19:-1 20:-1 21:-1 22:-1 23:1 24:-1 25:-1 26:-1 27:-1 28:-1 29:-1 30:-1 31:-1 32:-1 33:-1 34:-1 35:1 
-2048 1:0.109278 2:0.697361 3:-0.902693 4:-0.0235249 5:-0.101078 6:-0.223177 7:-0.464949 8:-0.31097 9:0.975547 10:-0.252967 11:0.446602 12:0.352584 13:-0.557788 14:1 15:-1 16:-1 17:-1 18:-1 19:-1 20:-1 21:-1 22:-1 23:1 24:-1 25:-1 26:-1 27:-1 28:-1 29:-1 30:-1 31:-1 32:-1 33:-1 34:-1 35:1 
-2048 1:0.217662 2:0.814304 3:-0.68055 4:-0.35263 5:-0.553076 6:-0.180655 7:-0.563437 8:0.223417 9:0.935344 10:-0.421021 11:0.830599 12:-0.0602031 13:0.447895 14:-1 15:-1 16:-1 17:-1 18:-1 19:1 20:-1 21:-1 22:-1 23:-1 24:-1 25:-1 26:1 27:-1 28:-1 29:-1 30:-1 31:-1 32:-1 33:-1 34:1 35:-1 
-2048 1:0.217662 2:0.77676 3:0.0871146 4:-0.39767 5:-0.961558 6:-0.566624 7:-0.712963 8:-0.102078 9:-0.227531 10:-0.315425 11:0.513559 12:0.0998089 13:0.302997 14:-1 15:-1 16:-1 17:-1 18:-1 19:1 20:-1 21:-1 22:-1 23:-1 24:-1 25:-1 26:-1 27:-1 28:-1 29:1 30:-1 31:-1 32:-1 33:1 34:-1 35:-1 
-2048 1:-0.509674 2:-0.787281 3:-0.712877 4:-0.187638 5:-0.930699 6:-0.0570287 7:-0.601943 8:0.197737 9:0.917041 10:-0.507255 11:0.458989 12:0.503751 13:-0.489057 14:-1 15:-1 16:-1 17:-1 18:1 19:-1 20:-1 21:-1 22:-1 23:1 24:-1 25:-1 26:-1 27:-1 28:-1 29:-1 30:-1 31:-1 32:-1 33:-1 34:1 35:-1 
-2048 1:0.672768 2:0.617442 3:-0.995026 4:0.146367 5:-0.198626 6:-0.300873 7:-0.604046 8:0.398684 9:0.999227 10:0.0968237 11:0.0281219 12:-0.22383 13:-0.0817654 14:-1 15:-1 16:-1 17:-1 18:1 19:-1 20:-1 21:-1 22:-1 23:1 24:-1 25:-1 26:-1 27:-1 28:-1 29:-1 30:-1 31:-1 32:-1 33:-1 34:1 35:-1 
-2048 1:0.672768 2:0.821372 3:-0.982562 4:0.146367 5:-0.999219 6:-0.221844 7:-0.604046 8:0.104646 9:0.995372 10:0.0968237 11:-0.750586 12:-0.22383 13:-0.0817654 14:-1 15:-1 16:-1 17:-1 18:1 19:-1 20:-1 21:-1 22:-1 23:1 24:-1 25:-1 26:-1 27:-1 28:-1 29:-1 30:-1 31:-1 32:-1 33:-1 34:1 35:-1 
-2048 1:0.474127 2:0.724357 3:-0.924616 4:-0.451154 5:-1 6:0.242287 7:-1 8:0.373566 9:0.832526 10:-0.655 11:0.728155 12:-0.573446 13:-0.995414 14:-1 15:-1 16:-1 17:-1 18:-1 19:1 20:-1 21:-1 22:-1 23:-1 24:1 25:-1 26:-1 27:-1 28:-1 29:-1 30:-1 31:-1 32:-1 33:-1 34:1 35:-1 
-2048 1:0.474127 2:0.768244 3:-0.823439 4:-0.451154 5:-1 6:0.274455 7:-1 8:0.508707 9:0.695571 10:-0.655 11:-0.141614 12:-0.573446 13:-0.995414 14:-1 15:-1 16:-1 17:-1 18:-1 19:1 20:-1 21:-1 22:-1 23:-1 24:1 25:-1 26:-1 27:-1 28:-1 29:-1 30:-1 31:-1 32:-1 33:-1 34:1 35:-1 
-2048 1:-0.460794 2:0.643548 3:-0.358842 4:0.266298 5:0.43078 6:-0.238984 7:-0.604169 8:0.237461 9:0.951204 10:-0.317927 11:0.117844 12:0.195574 13:0.485886 14:-1 15:-1 16:-1 17:-1 18:-1 19:1 20:-1 21:-1 22:-1 23:-1 24:1 25:-1 26:-1 27:-1 28:-1 29:-1 30:-1 31:-1 32:-1 33:-1 34:1 35:-1 
-2048 1:-0.460794 2:0.643548 3:-0.358842 4:0.317248 5:0.337888 6:-0.245427 7:-0.614225 8:0.237461 9:0.951204 10:-0.317927 11:0.117844 12:0.101867 13:0.303199 14:-1 15:-1 16:-1 17:-1 18:-1 19:1 20:-1 21:-1 22:-1 23:-1 24:1 25:-1 26:-1 27:-1 28:-1 29:-1 30:-1 31:-1 32:-1 33:-1 34:1 35:-1 
-2048 1:-0.419181 2:-0.101006 3:-0.68862 4:-0.243891 5:0.05043 6:-0.250468 7:-0.65163 8:0.162026 9:0.979173 10:-0.306932 11:-0.519585 12:-0.943084 13:0.869175 14:-1 15:-1 16:-1 17:-1 18:-1 19:1 20:-1 21:-1 22:-1 23:-1 24:1 25:-1 26:-1 27:-1 28:-1 29:-1 30:-1 31:-1 32:-1 33:-1 34:1 35:-1 
-2048 1:-0.164025 2:0.422489 3:0.13879 4:-0.386646 5:-1 6:-0.0363567 7:-0.87944 8:-0.140518 9:0.907912 10:-0.617626 11:0.839973 12:0.155856 13:0.861427 14:-1 15:-1 16:-1 17:-1 18:-1 19:-1 20:-1 21:-0.333333 22:-1 23:-1 24:-1 25:-1 26:-1 27:-1 28:-1 29:1 30:-1 31:-1 32:1 33:-1 34:-1 35:-1 
-2048 1:-0.0576907 2:0.414503 3:0.0598636 4:-0.598993 5:0.491744 6:-0.0106874 7:-0.811407 8:0.320841 9:0.639991 10:-0.73554 11:0.484433 12:0.0363126 13:0.0742269 14:-1 15:-1 16:-1 17:-1 18:-1 19:1 20:-1 21:-1 22:-1 23:-1 24:1 25:-1 26:-1 27:-1 28:-1 29:-1 30:-1 31:-1 32:-1 33:-1 34:1 35:-1 
-2048 1:0.683202 2:0.713209 3:-0.957698 4:-0.00589485 5:-0.995308 6:-0.311639 7:-0.459441 8:0.158735 9:0.932017 10:-0.529371 11:-0.321727 12:0.447454 13:-0.549075 14:-1 15:-1 16:-1 17:-1 18:1 19:-1 20:-1 21:-1 22:-1 23:-1 24:-1 25:-1 26:1 27:-1 28:-1 29:-1 30:-1 31:-1 32:-1 33:-1 34:1 35:-1 
-2048 1:0.317514 2:0.848343 3:-0.350235 4:-0.134206 5:-0.553024 6:-0.43387 7:-0.819191 8:-0.171736 9:0.652454 10:-0.106278 11:-0.985939 12:0.906458 13:-0.668438 14:-1 15:-1 16:-1 17:-1 18:-1 19:-1 20:1 21:-1 22:-1 23:-1 24:-1 25:-1 26:-1 27:-1 28:1 29:-1 30:-1 31:-1 32:-1 33:1 34:-1 35:-1 
-2048 1:-0.254025 2:0.485206 3:-0.797349 4:0.155317 5:-0.80164 6:-0.201766 7:-0.887245 8:-0.150068 9:0.957443 10:-0.505893 11:-0.0944091 12:0.381209 13:-0.973418 14:1 15:-1 16:-1 17:-1 18:-1 19:-1 20:-1 21:-1 22:-1 23:1 24:-1 25:-1 26:-1 27:-1 28:-1 29:-1 30:-1 31:-1 32:-1 33:-1 34:-1 35:1 
-2048 1:0.418889 2:0.644365 3:-0.793627 4:-0.924493 5:-0.442073 6:-0.206272 7:-0.543055 8:0.218201 9:0.92238 10:-0.487702 11:-0.153666 12:0.246504 13:0.26022 14:-1 15:-1 16:-1 17:-1 18:1 19:-1 20:-1 21:-1 22:-1 23:1 24:-1 25:-1 26:-1 27:-1 28:-1 29:-1 30:-1 31:-1 32:-1 33:-1 34:1 35:-1 
-2048 1:-0.155483 2:0.327459 3:-0.76745 4:-0.147109 5:-0.940386 6:-0.333771 7:-0.534641 8:0.325576 9:0.977755 10:-0.173121 11:-0.728825 12:0.108938 13:-0.492444 14:-1 15:-1 16:-1 17:1 18:-1 19:-1 20:-1 21:-1 22:-1 23:1 24:-1 25:-1 26:-1 27:-1 28:-1 29:-1 30:-1 31:-1 32:-1 33:-1 34:1 35:-1 
-2048 1:-0.753168 2:0.431288 3:0.11879 4:-0.0533251 5:-0.988437 6:-0.116798 7:-0.877434 8:0.270203 9:0.957768 10:-0.309325 11:0.0796786 12:0.992651 13:-0.997794 14:-1 15:-1 16:-1 17:-1 18:-1 19:-1 20:1 21:-1 22:-1 23:1 24:-1 25:-1 26:-1 27:-1 28:-1 29:-1 30:-1 31:-1 32:-1 33:-1 34:1 35:-1 
-2048 1:-0.233493 2:0.691808 3:-0.426111 4:0.0701149 5:-0.95688 6:-0.0901227 7:-0.7602 8:0.0851457 9:0.947886 10:-0.251084 11:-0.380984 12:-0.842915 13:-0.992105 14:-1 15:1 16:-1 17:-1 18:-1 19:-1 20:-1 21:-1 22:-1 23:-1 24:-1 25:-1 26:1 27:-1 28:-1 29:-1 30:-1 31:-1 32:-1 33:-1 34:-1 35:1 
-2048 1:-0.233493 2:0.571198 3:-0.451889 4:-0.113759 5:0.252999 6:-0.090271 7:-0.66909 8:-0.0685338 9:0.941066 10:-0.666049 11:-0.380984 12:-0.0927284 13:0.1461 14:-1 15:1 16:-1 17:-1 18:-1 19:-1 20:-1 21:-1 22:-1 23:-1 24:-1 25:-1 26:1 27:-1 28:-1 29:-1 30:-1 31:-1 32:-1 33:-1 34:-1 35:1 
-2048 1:0.704194 2:0.796189 3:-0.954812 4:-0.320619 5:-0.13249 6:-0.321973 7:-0.74777 8:0.282883 9:0.964172 10:-0.194009 11:0.00401741 12:-0.599063 13:-0.844138 14:-1 15:-1 16:-1 17:-1 18:1 19:-1 20:-1 21:-1 22:-1 23:1 24:-1 25:-1 26:-1 27:-1 28:-1 29:-1 30:-1 31:-1 32:-1 33:-1 34:1 35:-1 
-2048 1:0.609502 2:0.690465 3:-0.928404 4:-0.668849 5:0.115772 6:-0.169421 7:-1 8:0.285691 9:0.951545 10:-0.340345 11:0.228323 12:0.242911 13:-0.702669 14:-1 15:-1 16:-1 17:-1 18:-1 19:1 20:-1 21:-1 22:-1 23:1 24:-1 25:-1 26:-1 27:-1 28:-1 29:-1 30:-1 31:-1 32:-1 33:-1 34:1 35:-1 
-2048 1:0.423882 2:0.7909 3:-0.856623 4:0.684574 5:-0.935797 6:-0.287106 7:-0.879229 8:0.303748 9:0.931668 10:-0.489948 11:-0.486776 12:0.289269 13:-0.897291 14:-1 15:-1 16:-1 17:-1 18:-1 19:1 20:-1 21:-1 22:-1 23:-1 24:1 25:-1 26:-1 27:-1 28:-1 29:-1 30:-1 31:-1 32:-1 33:-1 34:1 35:-1 
-2048 1:0.468944 2:0.731886 3:-0.951815 4:-0.11311 5:0.603666 6:-0.239279 7:-0.80219 8:-0.0950165 9:0.978055 10:-0.558453 11:0.029461 12:-0.1531 13:-0.35816 14:-1 15:-1 16:-1 17:-1 18:1 19:-1 20:-1 21:-1 22:-1 23:-1 24:-1 25:-1 26:-1 27:-1 28:-1 29:1 30:-1 31:-1 32:1 33:-1 34:-1 35:-1 
-2048 1:0.0610819 2:0.709857 3:0.713465 4:0.196821 5:-0.868289 6:-0.029146 7:-0.950877 8:-0.0527245 9:-0.159514 10:-0.902721 11:0.692333 12:-0.01367 13:-0.94009 14:-1 15:1 16:-1 17:-1 18:-1 19:-1 20:-1 21:-1 22:-1 23:-1 24:-1 25:-1 26:1 27:-1 28:-1 29:-1 30:-1 31:-1 32:-1 33:-1 34:-1 35:1 
-2048 1:0.00358199 2:0.790563 3:-0.64253 4:-0.16887 5:-0.884196 6:-0.292643 7:-0.786739 8:0.308723 9:0.988146 10:-0.663083 11:-0.210914 12:-0.14425 13:-0.959734 14:-1 15:-1 16:-1 17:-1 18:-1 19:1 20:-1 21:-1 22:-1 23:-1 24:1 25:-1 26:-1 27:-1 28:-1 29:-1 30:-1 31:-1 32:-1 33:-1 34:1 35:-1 
-2048 1:0.00358199 2:0.704073 3:-0.26832 4:-0.424194 5:-0.725311 6:-0.502491 7:-0.669961 8:-0.135382 9:0.933767 10:0.173365 11:-0.796117 12:0.800282 13:-0.949308 14:-1 15:-1 16:-1 17:-1 18:-1 19:1 20:-1 21:-1 22:-1 23:-1 24:-1 25:-1 26:-1 27:-1 28:-1 29:1 30:-1 31:-1 32:-1 33:1 34:-1 35:-1 
-2048 1:-0.217663 2:0.819408 3:-0.0198329 4:-0.484194 5:0.759912 6:-0.210636 7:-0.758411 8:0.146617 9:0.920672 10:-0.530817 11:-0.102109 12:-0.408252 13:0.716529 14:-1 15:-1 16:-1 17:-1 18:1 19:-1 20:-1 21:-1 22:-1 23:1 24:-1 25:-1 26:-1 27:-1 28:-1 29:-1 30:-1 31:-1 32:-1 33:-1 34:1 35:-1 
-2048 1:-0.217663 2:0.473041 3:-0.0243377 4:-0.247352 5:0.884841 6:-0.156025 7:-0.758411 8:0.104646 9:0.942056 10:-0.530817 11:-0.102109 12:-0.17215 13:0.682326 14:-1 15:-1 16:-1 17:-1 18:1 19:-1 20:-1 21:-1 22:-1 23:1 24:-1 25:-1 26:-1 27:-1 28:-1 29:-1 30:-1 31:-1 32:-1 33:-1 34:1 35:-1 
-2048 1:0.578614 2:0.696179 3:-0.945545 4:-0.0326924 5:-0.345016 6:0.281583 7:-0.886258 8:0.214991 9:0.949049 10:-0.359698 11:-0.0703047 12:-0.218983 13:-0.538608 14:-1 15:-1 16:-1 17:-1 18:-1 19:-1 20:-1 21:-0.333333 22:-1 23:-1 24:1 25:-1 26:-1 27:-1 28:-1 29:-1 30:-1 31:-1 32:-1 33:-1 34:1 35:-1 
-2048 1:0.440697 2:0.372602 3:-0.994308 4:-0.236888 5:0.611213 6:-0.151876 7:-0.803803 8:0.20183 9:0.996312 10:-0.532569 11:-0.292266 12:0.140484 13:0.323678 14:-1 15:-1 16:-1 17:-1 18:1 19:-1 20:-1 21:-1 22:-1 23:1 24:-1 25:-1 26:-1 27:-1 28:-1 29:-1 30:-1 31:-1 32:-1 33:-1 34:1 35:-1 
-2048 1:0.618951 2:0.862789 3:-0.885118 4:-0.817778 5:-0.998126 6:-0.765413 7:-0.894275 8:0.458069 9:0.839414 10:-0.572139 11:-0.961165 12:-0.920632 13:-0.0480818 14:-1 15:-1 16:-1 17:-1 18:-1 19:-1 20:1 21:-1 22:-1 23:-1 24:1 25:-1 26:-1 27:-1 28:-1 29:-1 30:-1 31:-1 32:-1 33:-1 34:1 35:-1 
-2048 1:0.154508 2:0.645284 3:-0.795066 4:0.63323 5:-0.198808 6:-0.263679 7:-0.928142 8:0.293716 9:0.938568 10:-0.35236 11:-0.33378 12:0.241513 13:0.0546928 14:-1 15:-1 16:-1 17:-1 18:-1 19:1 20:-1 21:-1 22:-1 23:-1 24:1 25:-1 26:-1 27:-1 28:-1 29:-1 30:-1 31:-1 32:-1 33:-1 34:1 35:-1 
-2048 1:0.154508 2:0.645284 3:-0.795066 4:0.668545 5:0.266261 6:-0.261553 7:-1 8:0.293716 9:0.938568 10:-0.35236 11:-0.33378 12:0.233394 13:0.964508 14:-1 15:-1 16:-1 17:-1 18:-1 19:1 20:-1 21:-1 22:-1 23:-1 24:1 25:-1 26:-1 27:-1 28:-1 29:-1 30:-1 31:-1 32:-1 33:-1 34:1 35:-1 
-2048 1:0.0343359 2:-0.0483249 3:-0.911204 4:-0.0251501 5:-0.977403 6:-0.27573 7:-0.421974 8:0.378862 9:0.973279 10:-0.704349 11:0.104118 12:0.869742 13:-0.0438006 14:-1 15:-1 16:-1 17:1 18:-1 19:-1 20:-1 21:-1 22:-1 23:-1 24:-1 25:1 26:-1 27:-1 28:-1 29:-1 30:-1 31:-1 32:-1 33:-1 34:1 35:-1 
-2048 1:0.40392 2:0.722938 3:-0.855373 4:-0.026575 5:-0.98009 6:-0.336557 7:-0.681126 8:0.306556 9:0.927301 10:-0.550127 11:0.037161 12:-0.0245848 13:-0.928566 14:-1 15:-1 16:-1 17:-1 18:1 19:-1 20:-1 21:-1 22:-1 23:1 24:-1 25:-1 26:-1 27:-1 28:-1 29:-1 30:-1 31:-1 32:-1 33:-1 34:1 35:-1 
-2048 1:-0.673099 2:0.656313 3:-0.229281 4:-0.731605 5:-0.994064 6:0.1382 7:-0.599377 8:0.277907 9:0.986596 10:-0.107645 11:-0.58989 12:-0.823413 13:-0.188535 14:-1 15:-1 16:-1 17:-1 18:1 19:-1 20:-1 21:-1 22:-1 23:1 24:-1 25:-1 26:-1 27:-1 28:-1 29:-1 30:-1 31:-1 32:-1 33:-1 34:1 35:-1 
-2048 1:-0.673099 2:0.656313 3:-0.229281 4:-0.703972 5:-0.999526 6:0.191554 7:-0.839444 8:0.277907 9:0.986596 10:-0.107645 11:-0.58989 12:0.0151462 13:-0.59854 14:-1 15:-1 16:-1 17:-1 18:1 19:-1 20:-1 21:-1 22:-1 23:1 24:-1 25:-1 26:-1 27:-1 28:-1 29:-1 30:-1 31:-1 32:-1 33:-1 34:1 35:-1 
-2048 1:0.287286 2:0.63237 3:-0.927138 4:0.105571 5:-0.563371 6:-0.0992174 7:-0.810902 8:0.209694 9:0.963313 10:-0.462597 11:-0.265819 12:0.467401 13:-0.76243 14:-1 15:-1 16:-1 17:-1 18:1 19:-1 20:-1 21:-1 22:-1 23:1 24:-1 25:-1 26:-1 27:-1 28:-1 29:-1 30:-1 31:-1 32:-1 33:-1 34:1 35:-1 
-2048 1:-0.276304 2:-0.521325 3:-0.539914 4:-0.311337 5:-0.0722421 6:-0.0769069 7:-0.903045 8:0.633818 9:-0.249017 10:-0.318974 11:-0.024774 12:0.0866768 13:0.368798 14:-1 15:-1 16:-1 17:1 18:-1 19:-1 20:-1 21:-1 22:-1 23:-1 24:-1 25:-1 26:-1 27:-1 28:-1 29:1 30:-1 31:-1 32:-1 33:1 34:-1 35:-1 
-2048 1:-0.376996 2:0.76336 3:0.235513 4:0.279738 5:-0.839076 6:-0.455115 7:-0.540958 8:0.317792 9:0.88371 10:-0.537622 11:-0.165718 12:-0.761446 13:-0.957731 14:-1 15:-1 16:-1 17:1 18:-1 19:-1 20:-1 21:-1 22:-1 23:1 24:-1 25:-1 26:-1 27:-1 28:-1 29:-1 30:-1 31:-1 32:-1 33:-1 34:1 35:-1 
-2048 1:0.176048 2:0.488649 3:-0.797638 4:-0.36779 5:-0.322994 6:-0.387482 7:-0.486265 8:-0.242035 9:0.938081 10:-0.51419 11:0.319049 12:-0.87479 13:-0.685189 14:1 15:-1 16:-1 17:-1 18:-1 19:-1 20:-1 21:-1 22:-1 23:-1 24:-1 25:-1 26:1 27:-1 28:-1 29:-1 30:-1 31:-1 32:-1 33:-1 34:-1 35:1 
-2048 1:0.176048 2:0.535009 3:-0.781191 4:-0.36779 5:-0.322994 6:-0.391785 7:-0.486265 8:-0.394029 9:0.967062 10:-0.472235 11:0.319049 12:-0.87479 13:-0.685189 14:1 15:-1 16:-1 17:-1 18:-1 19:-1 20:-1 21:-1 22:-1 23:-1 24:-1 25:-1 26:1 27:-1 28:-1 29:-1 30:-1 31:-1 32:-1 33:-1 34:-1 35:1 
-2048 1:0.0302048 2:0.553919 3:-0.520439 4:-0.156404 5:-0.95063 6:-0.162442 7:-0.831679 8:-0.263141 9:0.906535 10:-0.640709 11:-0.13157 12:0.362394 13:-0.9328 14:1 15:-1 16:-1 17:-1 18:-1 19:-1 20:-1 21:-1 22:-1 23:1 24:-1 25:-1 26:-1 27:-1 28:-1 29:-1 30:-1 31:-1 32:-1 33:-1 34:-1 35:1 
-2048 1:0.4897 2:0.572821 3:-0.895744 4:0.40961 5:-0.853949 6:-0.236882 7:-0.737934 8:0.201428 9:0.998976 10:-0.361819 11:-0.34918 12:0.380921 13:-0.165959 14:-1 15:-1 16:-1 17:1 18:-1 19:-1 20:-1 21:-1 22:-1 23:1 24:-1 25:-1 26:-1 27:-1 28:-1 29:-1 30:-1 31:-1 32:-1 33:-1 34:1 35:-1 
-2048 1:0.4897 2:0.572821 3:-0.895744 4:0.342277 5:-0.826029 6:-0.251763 7:-0.724906 8:0.201428 9:0.998976 10:-0.361819 11:-0.34918 12:0.729196 13:-0.258824 14:-1 15:-1 16:-1 17:1 18:-1 19:-1 20:-1 21:-1 22:-1 23:1 24:-1 25:-1 26:-1 27:-1 28:-1 29:-1 30:-1 31:-1 32:-1 33:-1 34:1 35:-1 
-2048 1:0.723987 2:0.791081 3:-0.975744 4:-0.517806 5:0.983245 6:-0.204905 7:-0.930309 8:0.360966 9:0.796141 10:-0.696246 11:0.0361567 12:-0.816951 13:0.952429 14:-1 15:-1 16:-1 17:-1 18:1 19:-1 20:-1 21:-1 22:-1 23:1 24:-1 25:-1 26:-1 27:-1 28:-1 29:-1 30:-1 31:-1 32:-1 33:-1 34:1 35:-1 
-2048 1:0.723987 2:0.984948 3:-0.915071 4:-0.83042 5:0.846186 6:-0.272332 7:-0.930309 8:0.215071 9:0.792899 10:-0.696246 11:0.0361567 12:-0.203364 13:0.411575 14:-1 15:-1 16:-1 17:-1 18:1 19:-1 20:-1 21:-1 22:-1 23:1 24:-1 25:-1 26:-1 27:-1 28:-1 29:-1 30:-1 31:-1 32:-1 33:-1 34:1 35:-1 
-2048 1:-0.469952 2:0.632468 3:-0.752323 4:-0.679194 5:-0.980593 6:-0.0038739 7:-1 8:0.214429 9:0.980881 10:-0.506126 11:0.0686307 12:-0.134042 13:-0.806786 14:-1 15:-1 16:-1 17:-1 18:1 19:-1 20:-1 21:-1 22:-1 23:1 24:-1 25:-1 26:-1 27:-1 28:-1 29:-1 30:-1 31:-1 32:-1 33:-1 34:1 35:-1 
-2048 1:-0.653656 2:0.687999 3:-0.908228 4:0.0750096 5:-0.88371 6:-0.374906 7:-0.654676 8:0.179119 9:0.988569 10:0.0316412 11:-0.125209 12:-0.461794 13:-0.944578 14:-1 15:-1 16:-1 17:-1 18:-1 19:1 20:-1 21:-1 22:-1 23:1 24:-1 25:-1 26:-1 27:-1 28:-1 29:-1 30:-1 31:-1 32:-1 33:-1 34:1 35:-1 
-2048 1:0.29753 2:0.357144 3:-0.999774 4:-0.0810328 5:-0.962043 6:-0.145048 7:-0.627678 8:0.273413 9:0.956573 10:-0.377731 11:-0.00770003 12:0.64295 13:0.0136122 14:-1 15:-1 16:-1 17:-1 18:-1 19:-1 20:1 21:-1 22:-1 23:1 24:-1 25:-1 26:-1 27:-1 28:-1 29:-1 30:-1 31:-1 32:-1 33:-1 34:1 35:-1 
-2048 1:0.7212 2:0.771991 3:-0.9557 4:-0.597225 5:-0.356475 6:-0.477073 7:-0.192088 8:0.167242 9:0.943583 10:-0.437698 11:-0.0816873 12:-0.562825 13:-0.0564161 14:-1 15:-1 16:-1 17:1 18:-1 19:-1 20:-1 21:-1 22:-1 23:1 24:-1 25:-1 26:-1 27:-1 28:-1 29:-1 30:-1 31:-1 32:-1 33:-1 34:1 35:-1 
-2048 1:0.7212 2:0.771991 3:-0.9557 4:-0.646336 5:0.120811 6:-0.480733 7:-0.150244 8:0.167242 9:0.943583 10:-0.437698 11:-0.0816873 12:-0.662075 13:0.90764 14:-1 15:-1 16:-1 17:1 18:-1 19:-1 20:-1 21:-1 22:-1 23:1 24:-1 25:-1 26:-1 27:-1 28:-1 29:-1 30:-1 31:-1 32:-1 33:-1 34:1 35:-1 
-2048 1:0.565381 2:0.656777 3:-0.917074 4:-0.428881 5:0.202964 6:-0.20787 7:-0.579229 8:0.304309 9:0.911712 10:-0.459607 11:-0.13224 12:-0.0407004 13:0.148595 14:-1 15:-1 16:-1 17:-1 18:1 19:-1 20:-1 21:-1 22:-1 23:1 24:-1 25:-1 26:-1 27:-1 28:-1 29:-1 30:-1 31:-1 32:-1 33:-1 34:1 35:-1 
-2048 1:0.119242 2:0.336146 3:-0.868881 4:-0.666846 5:0.932615 6:0.0321895 7:-1 8:0.356713 9:0.968055 10:-0.191437 11:-0.0281219 12:-0.474516 13:0.801309 14:-1 15:-1 16:-1 17:-1 18:1 19:-1 20:-1 21:-1 22:-1 23:1 24:-1 25:-1 26:-1 27:-1 28:-1 29:-1 30:-1 31:-1 32:-1 33:-1 34:1 35:-1 
-2048 1:0.119242 2:0.336146 3:-0.868881 4:-0.693133 5:-0.293236 6:0.0243976 7:-0.871889 8:0.356713 9:0.968055 10:-0.191437 11:-0.0281219 12:-0.660498 13:-0.769659 14:-1 15:-1 16:-1 17:-1 18:1 19:-1 20:-1 21:-1 22:-1 23:1 24:-1 25:-1 26:-1 27:-1 28:-1 29:-1 30:-1 31:-1 32:-1 33:-1 34:1 35:-1 
-2048 1:0.119242 2:0.308463 3:-0.853991 4:-0.666846 5:0.932615 6:0.0250214 7:-0.93183 8:0.327181 9:0.973801 10:-0.191437 11:-0.0281219 12:-0.474516 13:0.801309 14:-1 15:-1 16:-1 17:-1 18:1 19:-1 20:-1 21:-1 22:-1 23:1 24:-1 25:-1 26:-1 27:-1 28:-1 29:-1 30:-1 31:-1 32:-1 33:-1 34:1 35:-1 
-2048 1:0.119242 2:0.308463 3:-0.853991 4:-0.693133 5:-0.293236 6:0.0158351 7:-0.803718 8:0.327181 9:0.973801 10:-0.191437 11:-0.0281219 12:-0.660498 13:-0.769659 14:-1 15:-1 16:-1 17:-1 18:1 19:-1 20:-1 21:-1 22:-1 23:1 24:-1 25:-1 26:-1 27:-1 28:-1 29:-1 30:-1 31:-1 32:-1 33:-1 34:1 35:-1 
-2048 1:0.852321 2:0.819762 3:-0.998155 4:-0.412934 5:-0.00925559 6:0.153395 7:-1 8:0.0946152 9:0.980761 10:-0.367523 11:0.633077 12:-0.00182329 13:-0.354724 14:-1 15:-1 16:-1 17:-1 18:-1 19:1 20:-1 21:-1 22:-1 23:1 24:-1 25:-1 26:-1 27:-1 28:-1 29:-1 30:-1 31:-1 32:-1 33:-1 34:1 35:-1 
-2048 1:0.852321 2:0.819762 3:-0.998155 4:-0.409726 5:0.296427 6:0.151701 7:-0.959692 8:0.0946152 9:0.980761 10:-0.367523 11:0.633077 12:-0.188931 13:-0.0266074 14:-1 15:-1 16:-1 17:-1 18:-1 19:1 20:-1 21:-1 22:-1 23:1 24:-1 25:-1 26:-1 27:-1 28:-1 29:-1 30:-1 31:-1 32:-1 33:-1 34:1 35:-1 
-2048 1:0.0772705 2:0.249339 3:-0.863664 4:-0.0798759 5:0.902094 6:-0.0896989 7:-0.574468 8:0.265147 9:0.964988 10:-0.2621 11:-0.285236 12:-0.435564 13:0.712225 14:-1 15:-1 16:-1 17:-1 18:-1 19:-1 20:-1 21:-0.333333 22:-1 23:1 24:-1 25:-1 26:-1 27:-1 28:-1 29:-1 30:-1 31:-1 32:-1 33:-1 34:1 35:-1 
-2048 1:0.0772705 2:0.249339 3:-0.863664 4:0.01064 5:0.776564 6:-0.108071 7:-0.561599 8:0.265147 9:0.964988 10:-0.2621 11:-0.285236 12:-0.158971 13:0.529164 14:-1 15:-1 16:-1 17:-1 18:-1 19:-1 20:-1 21:-0.333333 22:-1 23:1 24:-1 25:-1 26:-1 27:-1 28:-1 29:-1 30:-1 31:-1 32:-1 33:-1 34:1 35:-1 
-2048 1:0.0332611 2:0.757294 3:-0.833703 4:-0.443357 5:-0.312699 6:0.0118539 7:-0.924105 8:0.235615 9:0.980433 10:-0.0902468 11:0.561768 12:-0.15939 13:-0.590935 14:-1 15:-1 16:-1 17:1 18:-1 19:-1 20:-1 21:-1 22:-1 23:1 24:-1 25:-1 26:-1 27:-1 28:-1 29:-1 30:-1 31:-1 32:-1 33:-1 34:1 35:-1 
-2048 1:0.0332611 2:0.757294 3:-0.833703 4:-0.301309 5:-0.87894 6:-0.0121539 7:-0.869626 8:0.235615 9:0.980433 10:-0.0902468 11:0.561768 12:-0.6185 13:-0.953405 14:-1 15:-1 16:-1 17:1 18:-1 19:-1 20:-1 21:-1 22:-1 23:1 24:-1 25:-1 26:-1 27:-1 28:-1 29:-1 30:-1 31:-1 32:-1 33:-1 34:1 35:-1 
-2048 1:-0.20378 2:0.604417 3:0.703306 4:0.11445 5:-0.996153 6:-0.218408 7:-0.663714 8:0.521547 9:0.680898 10:-0.664313 11:0.9461 12:0.200972 13:0.146768 14:-1 15:-1 16:-1 17:-1 18:1 19:-1 20:-1 21:-1 22:-1 23:-1 24:1 25:-1 26:-1 27:-1 28:-1 29:-1 30:-1 31:-1 32:-1 33:-1 34:1 35:-1 
-2048 1:-0.20378 2:0.604417 3:0.703306 4:0.11445 5:0.721635 6:-0.231118 7:-0.790653 8:0.521547 9:0.680898 10:-0.664313 11:0.168396 12:0.200972 13:0.146768 14:-1 15:-1 16:-1 17:-1 18:1 19:-1 20:-1 21:-1 22:-1 23:-1 24:1 25:-1 26:-1 27:-1 28:-1 29:-1 30:-1 31:-1 32:-1 33:-1 34:1 35:-1 
-2048 1:0.282953 2:0.45506 3:-0.884604 4:0.125342 5:-0.999855 6:-0.243136 7:-1 8:0.0902014 9:0.954086 10:-0.45279 11:-0.0937395 12:-0.0893633 13:0.502565 14:-1 15:-1 16:-1 17:-1 18:-1 19:-1 20:1 21:-1 22:-1 23:1 24:-1 25:-1 26:-1 27:-1 28:-1 29:-1 30:-1 31:-1 32:-1 33:-1 34:1 35:-1 
-2048 1:-0.496799 2:0.569965 3:-0.734433 4:-0.619347 5:-0.196186 6:-0.144158 7:-0.595253 8:0.210176 9:0.996594 10:-0.0164845 11:-0.080683 12:0.285516 13:-0.538454 14:-1 15:-1 16:-1 17:-1 18:1 19:-1 20:-1 21:-1 22:-1 23:1 24:-1 25:-1 26:-1 27:-1 28:-1 29:-1 30:-1 31:-1 32:-1 33:-1 34:1 35:-1 
-2048 1:-0.496799 2:0.569965 3:-0.734433 4:-0.34432 5:0.609755 6:-0.0990517 7:-0.513243 8:0.210176 9:0.996594 10:-0.0164845 11:-0.080683 12:-0.0290413 13:0.637215 14:-1 15:-1 16:-1 17:-1 18:1 19:-1 20:-1 21:-1 22:-1 23:1 24:-1 25:-1 26:-1 27:-1 28:-1 29:-1 30:-1 31:-1 32:-1 33:-1 34:1 35:-1 
-2048 1:-0.496799 2:0.569965 3:-0.734433 4:-0.36557 5:-0.310143 6:-0.186206 7:-0.595253 8:0.210176 9:0.996594 10:-0.0164845 11:0.33378 12:-0.777793 13:-0.982182 14:-1 15:-1 16:-1 17:-1 18:1 19:-1 20:-1 21:-1 22:-1 23:1 24:-1 25:-1 26:-1 27:-1 28:-1 29:-1 30:-1 31:-1 32:-1 33:-1 34:1 35:-1 
-2048 1:-0.41234 2:0.425037 3:-0.25174 4:-0.657044 5:0.905513 6:-0.122956 7:-0.659815 8:0.220608 9:0.91188 10:-0.52885 11:-0.175427 12:-0.464039 13:0.738061 14:-1 15:-1 16:-1 17:-1 18:-1 19:1 20:-1 21:-1 22:-1 23:1 24:-1 25:-1 26:-1 27:-1 28:-1 29:-1 30:-1 31:-1 32:-1 33:-1 34:1 35:-1 
-2048 1:-0.41234 2:0.425037 3:-0.25174 4:-0.609834 5:0.213443 6:-0.104164 7:-0.682301 8:0.220608 9:0.91188 10:-0.52885 11:-0.175427 12:-0.390616 13:-0.385021 14:-1 15:-1 16:-1 17:-1 18:-1 19:1 20:-1 21:-1 22:-1 23:1 24:-1 25:-1 26:-1 27:-1 28:-1 29:-1 30:-1 31:-1 32:-1 33:-1 34:1 35:-1 
-2048 1:0.216945 2:0.576137 3:-0.606578 4:0.00537109 5:0.769912 6:-0.415199 7:-0.314319 8:0.233288 9:0.842487 10:-0.749545 11:0.0729829 12:0.161741 13:0.805552 14:-1 15:-1 16:-1 17:-1 18:-1 19:1 20:-1 21:-1 22:-1 23:1 24:-1 25:-1 26:-1 27:-1 28:-1 29:-1 30:-1 31:-1 32:-1 33:-1 34:1 35:-1 
-2048 1:0.70369 2:0.613965 3:-0.98894 4:0.392347 5:-0.959256 6:-0.208543 7:-0.472053 8:0.121098 9:0.996066 10:-0.185304 11:0.129896 12:0.118486 13:-0.99561 14:-1 15:-1 16:-1 17:-1 18:-1 19:1 20:-1 21:-1 22:-1 23:-1 24:-1 25:-1 26:1 27:-1 28:-1 29:-1 30:-1 31:-1 32:-1 33:-1 34:1 35:-1 
-2048 1:0.70369 2:0.613965 3:-0.98894 4:0.156764 5:-0.69097 6:-0.229398 7:-0.485837 8:0.121098 9:0.996066 10:-0.185304 11:0.129896 12:0.853792 13:-0.322686 14:-1 15:-1 16:-1 17:-1 18:-1 19:1 20:-1 21:-1 22:-1 23:-1 24:-1 25:-1 26:1 27:-1 28:-1 29:-1 30:-1 31:-1 32:-1 33:-1 34:1 35:-1 
-2048 1:-0.607319 2:0.770634 3:0.324429 4:-0.0775731 5:-0.248761 6:-0.223996 7:-0.755345 8:0.190274 9:0.997141 10:-0.192457 11:0.0324741 12:0.220847 13:-0.0602428 14:-1 15:-1 16:-1 17:-1 18:1 19:-1 20:-1 21:-1 22:-1 23:1 24:-1 25:-1 26:-1 27:-1 28:-1 29:-1 30:-1 31:-1 32:-1 33:-1 34:1 35:-1 
-2048 1:-0.443912 2:0.494423 3:-0.774049 4:-0.335551 5:0.358308 6:0.1879 7:-0.895231 8:-0.115801 9:0.990997 10:-0.0663522 11:-0.104453 12:-0.138552 13:-0.0387503 14:1 15:-1 16:-1 17:-1 18:-1 19:-1 20:-1 21:-1 22:-1 23:1 24:-1 25:-1 26:-1 27:-1 28:-1 29:-1 30:-1 31:-1 32:-1 33:-1 34:-1 35:1 
-2048 1:-0.443912 2:0.242106 3:-0.890203 4:-0.236108 5:0.536403 6:0.217585 7:-0.895231 8:0.0284889 9:0.979331 10:-0.0663522 11:-0.104453 12:-0.391167 13:0.488013 14:1 15:-1 16:-1 17:-1 18:-1 19:-1 20:-1 21:-1 22:-1 23:1 24:-1 25:-1 26:-1 27:-1 28:-1 29:-1 30:-1 31:-1 32:-1 33:-1 34:-1 35:1 
-2048 1:0.0383327 2:0.438288 3:-0.823116 4:-0.326991 5:-0.313096 6:-0.129826 7:-0.747001 8:0.245566 9:0.988737 10:-0.153481 11:0.121861 12:0.439032 13:-0.799035 14:-1 15:-1 16:-1 17:1 18:-1 19:-1 20:-1 21:-1 22:-1 23:1 24:-1 25:-1 26:-1 27:-1 28:-1 29:-1 30:-1 31:-1 32:-1 33:-1 34:1 35:-1 
-2048 1:0.514196 2:0.458532 3:-0.989582 4:0.0575646 5:-0.503609 6:-0.319719 7:-0.181317 8:0.252227 9:0.96356 10:-0.471199 11:0.157349 12:0.263511 13:-0.188008 14:-1 15:-1 16:-1 17:1 18:-1 19:-1 20:-1 21:-1 22:-1 23:1 24:-1 25:-1 26:-1 27:-1 28:-1 29:-1 30:-1 31:-1 32:-1 33:-1 34:1 35:-1 
-2048 1:0.429513 2:0.692435 3:-0.788981 4:-0.516582 5:0.983021 6:-0.249581 7:-0.5272 8:0.334163 9:0.686046 10:-0.711307 11:0.0723134 12:-0.083909 13:0.857038 14:-1 15:-1 16:-1 17:1 18:-1 19:-1 20:-1 21:-1 22:-1 23:1 24:-1 25:-1 26:-1 27:-1 28:-1 29:-1 30:-1 31:-1 32:-1 33:-1 34:1 35:-1 
-2048 1:0.294294 2:0.695345 3:-0.730293 4:-0.448771 5:-0.293561 6:-0.136254 7:-0.8397 8:0.111709 9:0.968169 10:-0.378838 11:-0.312354 12:-0.542779 13:0.204057 14:-1 15:-1 16:-1 17:-1 18:1 19:-1 20:-1 21:-1 22:-1 23:-1 24:-1 25:1 26:-1 27:-1 28:-1 29:-1 30:-1 31:-1 32:-1 33:-1 34:1 35:-1 
-2048 1:0.617977 2:0.695378 3:-0.914526 4:-0.786777 5:0.653848 6:-0.0965929 7:-0.544335 8:0.371238 9:0.880969 10:-0.505193 11:0.354536 12:0.351217 13:0.0449468 14:-1 15:-1 16:-1 17:-1 18:1 19:-1 20:-1 21:-1 22:-1 23:-1 24:-1 25:-1 26:1 27:-1 28:-1 29:-1 30:-1 31:-1 32:-1 33:-1 34:1 35:-1 
-2048 1:0.635711 2:0.500151 3:-0.99732 4:-0.219499 5:0.128463 6:-0.174809 7:-0.34578 8:0.186983 9:0.969831 10:-0.339244 11:-0.218949 12:-0.295996 13:-0.3306 14:-1 15:-1 16:-1 17:-1 18:-1 19:1 20:-1 21:-1 22:-1 23:1 24:-1 25:-1 26:-1 27:-1 28:-1 29:-1 30:-1 31:-1 32:-1 33:-1 34:1 35:-1 
-2048 1:0.635711 2:0.509279 3:-0.993877 4:0.0272355 5:-0.699427 6:-0.151681 7:-0.581645 8:0.4681 9:0.988673 10:-0.188295 11:-0.218949 12:-0.312859 13:-0.920161 14:-1 15:-1 16:-1 17:-1 18:-1 19:1 20:-1 21:-1 22:-1 23:1 24:-1 25:-1 26:-1 27:-1 28:-1 29:-1 30:-1 31:-1 32:-1 33:-1 34:1 35:-1 
-2048 1:0.635711 2:0.509279 3:-0.993877 4:-0.180012 5:0.790188 6:-0.176671 7:-0.34578 8:0.4681 9:0.988673 10:-0.188295 11:-0.218949 12:-0.55709 13:0.580367 14:-1 15:-1 16:-1 17:-1 18:-1 19:1 20:-1 21:-1 22:-1 23:1 24:-1 25:-1 26:-1 27:-1 28:-1 29:-1 30:-1 31:-1 32:-1 33:-1 34:1 35:-1 
-2048 1:-0.550291 2:0.0851682 3:-0.815505 4:-0.273915 5:0.0148618 6:-0.0876758 7:-0.748125 8:0.265067 9:0.972961 10:-0.606687 11:-0.116505 12:-0.0135731 13:-0.612926 14:-1 15:-1 16:-1 17:-1 18:1 19:-1 20:-1 21:-1 22:-1 23:1 24:-1 25:-1 26:-1 27:-1 28:-1 29:-1 30:-1 31:-1 32:-1 33:-1 34:1 35:-1 
-2048 1:-0.187592 2:0.719953 3:-0.43439 4:-0.379978 5:-0.731215 6:-0.0651408 7:-0.490486 8:0.245967 9:0.994857 10:-0.193635 11:-0.779712 12:-0.465825 13:-0.0642898 14:-1 15:-1 16:-1 17:-1 18:1 19:-1 20:-1 21:-1 22:-1 23:1 24:-1 25:-1 26:-1 27:-1 28:-1 29:-1 30:-1 31:-1 32:-1 33:-1 34:1 35:-1 
-2048 1:-0.187592 2:0.719953 3:-0.43439 4:-0.642468 5:-0.990221 6:-0.191162 7:-0.353539 8:0.245967 9:0.994857 10:-0.193635 11:-0.779712 12:-0.144531 13:-0.176498 14:-1 15:-1 16:-1 17:-1 18:1 19:-1 20:-1 21:-1 22:-1 23:1 24:-1 25:-1 26:-1 27:-1 28:-1 29:-1 30:-1 31:-1 32:-1 33:-1 34:1 35:-1 
-2048 1:0.603423 2:0.696552 3:-0.924424 4:-0.777294 5:-0.702329 6:-0.0387099 7:-0.744201 8:0.24043 9:0.962087 10:-0.326311 11:0.111483 12:-0.928816 13:0.928556 14:-1 15:-1 16:-1 17:-1 18:1 19:-1 20:-1 21:-1 22:-1 23:1 24:-1 25:-1 26:-1 27:-1 28:-1 29:-1 30:-1 31:-1 32:-1 33:-1 34:1 35:-1 
-2048 1:0.197084 2:0.835794 3:-0.68587 4:-0.0337118 5:0.45481 6:-0.286563 7:-0.695082 8:0.236177 9:0.972206 10:-0.237332 11:-0.229662 12:0.0958558 13:-0.363362 14:-1 15:-1 16:-1 17:-1 18:-1 19:1 20:-1 21:-1 22:-1 23:-1 24:1 25:-1 26:-1 27:-1 28:-1 29:-1 30:-1 31:-1 32:-1 33:-1 34:1 35:-1 
-2048 1:0.197084 2:0.835794 3:-0.68587 4:-0.0337118 5:0.349832 6:-0.29251 7:-0.638847 8:0.236177 9:0.972206 10:-0.237332 11:-0.919317 12:0.0958558 13:-0.363362 14:-1 15:-1 16:-1 17:-1 18:-1 19:1 20:-1 21:-1 22:-1 23:-1 24:1 25:-1 26:-1 27:-1 28:-1 29:-1 30:-1 31:-1 32:-1 33:-1 34:1 35:-1 
-2048 1:0.197084 2:0.835794 3:-0.68587 4:0.155863 5:0.409774 6:-0.278643 7:-0.825074 8:0.236177 9:0.972206 10:-0.237332 11:-0.919317 12:-0.9877 13:-0.443966 14:-1 15:-1 16:-1 17:-1 18:-1 19:1 20:-1 21:-1 22:-1 23:-1 24:1 25:-1 26:-1 27:-1 28:-1 29:-1 30:-1 31:-1 32:-1 33:-1 34:1 35:-1 
-2048 1:0.387026 2:0.31334 3:-0.929978 4:-0.444562 5:0.39807 6:0.224578 7:-0.691411 8:0.25632 9:0.938164 10:-0.395021 11:-0.252762 12:-0.78203 13:0.547194 14:-1 15:-1 16:-1 17:-1 18:1 19:-1 20:-1 21:-1 22:-1 23:1 24:-1 25:-1 26:-1 27:-1 28:-1 29:-1 30:-1 31:-1 32:-1 33:-1 34:1 35:-1 
-2048 1:0.283312 2:0.342339 3:-0.86057 4:-0.689772 5:-0.803837 6:-0.248761 7:-0.83769 8:0.186662 9:0.921908 10:-0.498458 11:-0.0572481 12:-0.173019 13:-0.69408 14:-1 15:-1 16:-1 17:1 18:-1 19:-1 20:-1 21:-1 22:-1 23:1 24:-1 25:-1 26:-1 27:-1 28:-1 29:-1 30:-1 31:-1 32:-1 33:-1 34:1 35:-1 
-2048 1:0.283312 2:0.342339 3:-0.86057 4:-0.571239 5:-0.199016 6:-0.269944 7:-0.735085 8:0.186662 9:0.921908 10:-0.498458 11:-0.0572481 12:-0.771869 13:0.782336 14:-1 15:-1 16:-1 17:1 18:-1 19:-1 20:-1 21:-1 22:-1 23:1 24:-1 25:-1 26:-1 27:-1 28:-1 29:-1 30:-1 31:-1 32:-1 33:-1 34:1 35:-1 
-2048 1:0.283312 2:0.342339 3:-0.86057 4:-0.557639 5:-0.58747 6:-0.286185 7:-0.708988 8:0.186662 9:0.921908 10:-0.498458 11:-0.0572481 12:-0.806919 13:0.212758 14:-1 15:-1 16:-1 17:1 18:-1 19:-1 20:-1 21:-1 22:-1 23:1 24:-1 25:-1 26:-1 27:-1 28:-1 29:-1 30:-1 31:-1 32:-1 33:-1 34:1 35:-1 
