svm_type c_svc
kernel_type rbf
gamma 0.000122
nr_class 2
total_sv 4542
rho 4.48036
label 1 -1
probA -1.46589
probB 3.23179
nr_sv 183 4359
SV
800 1:-0.204575 2:0.806735 3:0.669845 4:-0.442524 5:-0.736363 6:-0.0396554 7:-0.542706 8:0.215275 9:0.787034 10:-0.722378 11:0.327837 12:0.805669 13:-0.66777 14:-1 15:-1 16:-1 17:-1 18:-1 19:-1 20:-1 21:-1 22:-1 23:1 24:-1 25:-1 26:-1 27:-1 28:-1 29:-1 30:-1 31:1 32:-1 33:-1 34:-1 35:-1 36:-1 37:1 38:-1 39:-1 40:-1 41:1 42:-1 
800 1:-0.429111 2:0.474141 3:-0.503579 4:-0.222086 5:0.335268 6:-0.223625 7:-0.679095 8:0.254503 9:0.989636 10:-0.160598 11:0.199376 12:0.967636 13:-0.309638 14:-1 15:-1 16:-1 17:-1 18:-1 19:-1 20:1 21:-1 22:-1 23:-1 24:-1 25:-1 26:-1 27:-1 28:-1 29:-1 30:-1 31:1 32:-1 33:-1 34:-1 35:-1 36:-1 37:1 38:-1 39:-1 40:-1 41:1 42:-1 
126.3447528213172 1:-0.31906 2:0.820452 3:-0.981246 4:-0.00879282 5:-0.671129 6:-0.00957475 7:-0.736775 8:0.282603 9:0.989074 10:0.140654 11:-0.162078 12:0.558366 13:-0.771818 14:-1 15:-1 16:-1 17:-1 18:-1 19:1 20:-1 21:-1 22:-1 23:-1 24:-1 25:-1 26:-1 27:1 28:-1 29:-1 30:-1 31:-1 32:-1 33:-1 34:-1 35:-1 36:-1 37:1 38:-1 39:-1 40:-1 41:-1 42:1 
800 1:-0.376414 2:0.862513 3:-0.114132 4:-0.124262 5:-0.938133 6:-0.0586388 7:-0.671946 8:0.107678 9:0.957574 10:-0.570844 11:-0.116536 12:0.980336 13:-0.506886 14:-1 15:-1 16:-1 17:-1 18:-1 19:-1 20:1 21:-1 22:-1 23:-1 24:-1 25:-1 26:-1 27:1 28:-1 29:-1 30:-1 31:-1 32:-1 33:-1 34:-1 35:-1 36:-1 37:1 38:-1 39:-1 40:-1 41:-1 42:1 
800 1:-0.0144987 2:0.604153 3:-0.597985 4:0.097582 5:-0.354012 6:-0.430819 7:-0.24959 8:0.204948 9:0.945184 10:-0.389326 11:0.201217 12:0.933481 13:-0.525213 14:-1 15:-1 16:-1 17:-1 18:1 19:-1 20:-1 21:-1 22:-1 23:-1 24:-1 25:-1 26:-1 27:-1 28:-1 29:-1 30:-1 31:-1 32:1 33:-1 34:-1 35:-1 36:-1 37:1 38:-1 39:-1 40:-1 41:1 42:-1 
800 1:-0.0877953 2:0.622224 3:-0.721629 4:-0.261442 5:-0.00308733 6:-0.155555 7:-0.773612 8:0.477144 9:0.911123 10:-0.49732 11:0.248359 12:0.942123 13:-0.356018 14:-1 15:-1 16:-1 17:-1 18:-1 19:1 20:-1 21:-1 22:-1 23:-1 24:-1 25:-1 26:-1 27:-1 28:-1 29:-1 30:1 31:-1 32:-1 33:-1 34:-1 35:-1 36:-1 37:1 38:-1 39:-1 40:-1 41:1 42:-1 
800 1:0.263596 2:0.388768 3:-0.972301 4:-0.346731 5:0.997455 6:-0.518152 7:-0.418864 8:-0.131615 9:0.432924 10:-0.81676 11:0.116216 12:0.997441 13:-0.257772 14:1 15:-1 16:-1 17:-1 18:-1 19:-1 20:-1 21:-1 22:-1 23:-1 24:-1 25:-1 26:-1 27:-1 28:-1 29:-1 30:1 31:-1 32:-1 33:-1 34:-1 35:-1 36:-1 37:-1 38:1 39:-1 40:-1 41:1 42:-1 
800 1:-0.0835858 2:0.806005 3:-0.931939 4:-0.238528 5:-0.256801 6:0.124275 7:-0.89527 8:0.184613 9:0.983636 10:0.0115136 11:0.595566 12:0.886103 13:-0.420036 14:-1 15:-1 16:-1 17:-1 18:-1 19:-1 20:-1 21:-1 22:-1 23:1 24:-1 25:-1 26:-1 27:-1 28:-1 29:-1 30:-1 31:-1 32:1 33:-1 34:-1 35:-1 36:-1 37:1 38:-1 39:-1 40:-1 41:1 42:-1 
800 1:-0.57421 2:0.74934 3:-0.902656 4:-0.281716 5:-0.463595 6:-0.156389 7:-0.398213 8:0.141142 9:0.992054 10:-0.447193 11:0.45862 12:0.92475 13:-0.454092 14:-1 15:-1 16:-1 17:-1 18:-1 19:1 20:-1 21:-1 22:-1 23:-1 24:-1 25:-1 26:-1 27:-1 28:-1 29:-1 30:-1 31:1 32:-1 33:-1 34:-1 35:-1 36:-1 37:1 38:-1 39:-1 40:-1 41:1 42:-1 
800 1:-0.404817 2:0.557283 3:-0.508671 4:-0.358603 5:-1 6:-0.297913 7:-0.611609 8:0.242254 9:0.987809 10:-0.146488 11:0.300704 12:0.930522 13:-0.548356 14:-1 15:-1 16:-1 17:-1 18:-1 19:-1 20:1 21:-1 22:-1 23:-1 24:-1 25:-1 26:-1 27:-1 28:-1 29:-1 30:-1 31:-1 32:1 33:-1 34:-1 35:-1 36:-1 37:1 38:-1 39:-1 40:-1 41:1 42:-1 
800 1:0.654934 2:0.78617 3:-0.960349 4:0.355206 5:0.633756 6:-0.343796 7:-0.282948 8:0.202546 9:0.969235 10:-0.483356 11:0.219225 12:0.938513 13:-0.686889 14:-1 15:-1 16:-1 17:-1 18:1 19:-1 20:-1 21:-1 22:-1 23:-1 24:-1 25:-1 26:-1 27:-1 28:-1 29:-1 30:-1 31:-1 32:1 33:-1 34:-1 35:-1 36:-1 37:1 38:-1 39:-1 40:-1 41:1 42:-1 
800 1:-0.109694 2:0.376362 3:-0.642221 4:0.0324091 5:-0.593589 6:-0.250954 7:-0.443084 8:0.26387 9:0.927789 10:-0.653612 11:0.239955 12:0.953959 13:-0.348241 14:-1 15:-1 16:-1 17:-1 18:-1 19:1 20:-1 21:-1 22:-1 23:-1 24:-1 25:-1 26:-1 27:-1 28:-1 29:-1 30:-1 31:1 32:-1 33:-1 34:-1 35:-1 36:-1 37:1 38:-1 39:-1 40:-1 41:1 42:-1 
686.2205496435562 1:-0.0641953 2:0.384442 3:-0.994185 4:-0.286927 5:-0.343024 6:-0.107913 7:-0.832702 8:0.378032 9:0.959191 10:-0.461358 11:0.244597 12:0.85638 13:-0.765431 14:-1 15:-1 16:-1 17:-1 18:-1 19:-1 20:1 21:-1 22:-1 23:-1 24:-1 25:-1 26:-1 27:-1 28:-1 29:-1 30:1 31:-1 32:-1 33:-1 34:-1 35:-1 36:-1 37:1 38:-1 39:-1 40:-1 41:1 42:-1 
800 1:0.157195 2:0.364963 3:-0.81542 4:-0.345479 5:0.627534 6:0.165866 7:-0.560868 8:0.278921 9:0.942526 10:-0.361625 11:-0.179766 12:0.827881 13:-0.842268 14:-1 15:-1 16:-1 17:-1 18:-1 19:-1 20:-1 21:-1 22:-1 23:1 24:-1 25:-1 26:1 27:-1 28:-1 29:-1 30:-1 31:-1 32:-1 33:-1 34:-1 35:-1 36:-1 37:1 38:-1 39:-1 40:-1 41:-1 42:1 
800 1:0.737959 2:0.754655 3:-0.97429 4:-0.524519 5:-0.680503 6:-0.100677 7:-0.746828 8:0.199183 9:0.991111 10:-0.0534173 11:0.154954 12:0.986854 13:-0.397328 14:-1 15:-1 16:-1 17:-1 18:-1 19:1 20:-1 21:-1 22:-1 23:-1 24:-1 25:-1 26:-1 27:-1 28:-1 29:-1 30:1 31:-1 32:-1 33:-1 34:-1 35:-1 36:-1 37:1 38:-1 39:-1 40:-1 41:1 42:-1 
800 1:0.412048 2:0.508386 3:-0.911324 4:-0.502782 5:-0.013895 6:0.000276816 7:-0.661223 8:0.205988 9:0.994093 10:-0.697019 11:0.266848 12:0.909932 13:-0.477993 14:-1 15:-1 16:-1 17:-1 18:-1 19:-1 20:-1 21:-1 22:-1 23:1 24:-1 25:-1 26:-1 27:-1 28:-1 29:-1 30:-1 31:1 32:-1 33:-1 34:-1 35:-1 36:-1 37:1 38:-1 39:-1 40:-1 41:1 42:-1 
800 1:-0.495377 2:0.789944 3:-0.877938 4:-0.143695 5:-0.57389 6:-0.353607 7:-0.646503 8:0.251781 9:0.965042 10:-0.331805 11:0.210581 12:0.994372 13:-0.436533 14:-1 15:-1 16:-1 17:-1 18:-1 19:-1 20:-1 21:1 22:-1 23:-1 24:-1 25:-1 26:-1 27:-1 28:-1 29:1 30:-1 31:-1 32:-1 33:-1 34:-1 35:-1 36:-1 37:1 38:-1 39:-1 40:-1 41:1 42:-1 
800 1:-0.500281 2:0.637044 3:-0.0154934 4:-0.0934981 5:-0.00306731 6:0.177729 7:-0.863812 8:0.155472 9:0.930662 10:-0.519465 11:0.126301 12:0.83339 13:-0.680512 14:-1 15:-1 16:-1 17:-1 18:-1 19:-1 20:-1 21:1 22:-1 23:-1 24:-1 25:-1 26:-1 27:-1 28:-1 29:-1 30:1 31:-1 32:-1 33:-1 34:-1 35:-1 36:-1 37:1 38:-1 39:-1 40:-1 41:1 42:-1 
455.7597338779962 1:0.207362 2:0.642928 3:-0.685186 4:-0.352958 5:-0.996798 6:0.0975253 7:-0.843573 8:-0.356737 9:0.999525 10:-0.357321 11:0.258684 12:0.652451 13:-0.733446 14:-1 15:1 16:-1 17:-1 18:-1 19:-1 20:-1 21:-1 22:-1 23:-1 24:-1 25:-1 26:-1 27:-1 28:-1 29:-1 30:-1 31:1 32:-1 33:-1 34:-1 35:-1 36:-1 37:-1 38:1 39:-1 40:-1 41:1 42:-1 
800 1:0.412977 2:0.825151 3:-0.761562 4:0.357541 5:-0.621511 6:-0.140191 7:-0.626398 8:0.26395 9:0.966905 10:-0.703645 11:0.14503 12:0.922408 13:-0.61412 14:-1 15:-1 16:-1 17:-1 18:-1 19:-1 20:-1 21:1 22:-1 23:-1 24:-1 25:-1 26:-1 27:-1 28:-1 29:-1 30:1 31:-1 32:-1 33:-1 34:-1 35:-1 36:-1 37:1 38:-1 39:-1 40:-1 41:1 42:-1 
800 1:-0.00183661 2:0.778483 3:-0.126775 4:-0.294665 5:0.5874 6:-0.224421 7:-0.62475 8:0.260027 9:0.864154 10:-0.602375 11:0.257404 12:0.940459 13:-0.51182 14:-1 15:-1 16:-1 17:-1 18:-1 19:-1 20:1 21:-1 22:-1 23:-1 24:-1 25:-1 26:-1 27:-1 28:-1 29:-1 30:-1 31:1 32:-1 33:-1 34:-1 35:-1 36:-1 37:1 38:-1 39:-1 40:-1 41:1 42:-1 
800 1:-0.0106362 2:0.528528 3:-0.218547 4:-0.123126 5:-0.947844 6:-0.156748 7:-0.613989 8:0.206228 9:1 10:-0.480347 11:-0.295742 12:0.952916 13:-0.586358 14:-1 15:-1 16:-1 17:-1 18:-1 19:-1 20:1 21:-1 22:-1 23:-1 24:-1 25:-1 26:1 27:-1 28:-1 29:-1 30:-1 31:-1 32:-1 33:-1 34:-1 35:-1 36:-1 37:1 38:-1 39:-1 40:-1 41:-1 42:1 
800 1:0.684344 2:0.77662 3:-0.959374 4:-0.220555 5:-0.413406 6:-0.120249 7:-0.687724 8:0.106156 9:0.871442 10:-0.677562 11:0.277013 12:0.895514 13:-0.542754 14:-1 15:-1 16:-1 17:-1 18:-1 19:-1 20:-1 21:1 22:-1 23:-1 24:-1 25:-1 26:-1 27:-1 28:-1 29:-1 30:-1 31:1 32:-1 33:-1 34:-1 35:-1 36:-1 37:1 38:-1 39:-1 40:-1 41:1 42:-1 
800 1:0.650299 2:0.717888 3:-0.938638 4:-0.556574 5:-0.925559 6:-0.213324 7:-0.295305 8:0.247939 9:0.910733 10:-0.496518 11:0.085401 12:0.919589 13:-0.561427 14:-1 15:-1 16:-1 17:-1 18:1 19:-1 20:-1 21:-1 22:-1 23:-1 24:-1 25:-1 26:-1 27:-1 28:-1 29:-1 30:-1 31:1 32:-1 33:-1 34:-1 35:-1 36:-1 37:1 38:-1 39:-1 40:-1 41:1 42:-1 
800 1:0.0113628 2:0.424786 3:-0.511026 4:-0.118544 5:-1 6:0.0131647 7:-0.502192 8:-0.171003 9:0.995563 10:-0.420235 11:0.293341 12:0.87989 13:-0.619604 14:1 15:-1 16:-1 17:-1 18:-1 19:-1 20:-1 21:-1 22:-1 23:-1 24:-1 25:-1 26:-1 27:-1 28:-1 29:-1 30:-1 31:1 32:-1 33:-1 34:-1 35:-1 36:-1 37:-1 38:1 39:-1 40:-1 41:1 42:-1 
800 1:0.0237674 2:0.455406 3:-0.559795 4:-0.280236 5:-0.566075 6:0.175414 7:-0.51821 8:0.421904 9:0.936104 10:-0.382409 11:0.168081 12:0.977702 13:-0.411585 14:-1 15:-1 16:-1 17:-1 18:-1 19:-1 20:-1 21:-1 22:1 23:-1 24:-1 25:-1 26:-1 27:-1 28:-1 29:1 30:-1 31:-1 32:-1 33:-1 34:-1 35:-1 36:-1 37:1 38:-1 39:-1 40:-1 41:1 42:-1 
800 1:0.644936 2:0.592124 3:-0.996048 4:-0.498866 5:-0.255396 6:-0.157167 7:-0.560911 8:0.261388 9:0.973601 10:-0.103338 11:0.284857 12:0.837936 13:-0.605579 14:-1 15:-1 16:-1 17:-1 18:1 19:-1 20:-1 21:-1 22:-1 23:-1 24:-1 25:-1 26:-1 27:-1 28:-1 29:-1 30:-1 31:-1 32:-1 33:0.333333 34:-1 35:-1 36:-1 37:1 38:-1 39:-1 40:-1 41:1 42:-1 
800 1:0.0546109 2:0.488833 3:-0.741833 4:0.093958 5:-0.984503 6:-0.237752 7:-0.408834 8:0.251941 9:0.925879 10:-0.54869 11:0.109733 12:0.943635 13:-0.454398 14:-1 15:-1 16:-1 17:-1 18:-1 19:1 20:-1 21:-1 22:-1 23:-1 24:-1 25:-1 26:-1 27:-1 28:-1 29:-1 30:1 31:-1 32:-1 33:-1 34:-1 35:-1 36:-1 37:1 38:-1 39:-1 40:-1 41:1 42:-1 
800 1:0.127997 2:0.671428 3:-0.39882 4:-0.0711623 5:-0.728755 6:-0.365113 7:-0.517496 8:0.235209 9:0.820272 10:-0.705337 11:0.308548 12:0.942483 13:-0.67868 14:-1 15:-1 16:-1 17:-1 18:1 19:-1 20:-1 21:-1 22:-1 23:-1 24:-1 25:-1 26:-1 27:-1 28:-1 29:-1 30:-1 31:-1 32:1 33:-1 34:-1 35:-1 36:-1 37:1 38:-1 39:-1 40:-1 41:1 42:-1 
800 1:0.339905 2:0.737023 3:-0.802527 4:-0.402485 5:-0.880144 6:-0.144698 7:-0.55323 8:0.300937 9:0.979886 10:-0.198306 11:0.347447 12:0.826319 13:-0.742001 14:-1 15:-1 16:-1 17:-1 18:1 19:-1 20:-1 21:-1 22:-1 23:-1 24:-1 25:-1 26:-1 27:-1 28:-1 29:-1 30:-1 31:-1 32:1 33:-1 34:-1 35:-1 36:-1 37:1 38:-1 39:-1 40:-1 41:1 42:-1 
800 1:0.467645 2:0.45938 3:-0.96353 4:-0.569601 5:0.184257 6:-0.0292631 7:-0.314187 8:0.325354 9:0.877934 10:-0.548077 11:0.301024 12:0.975727 13:-0.331179 14:-1 15:-1 16:-1 17:-1 18:1 19:-1 20:-1 21:-1 22:-1 23:-1 24:-1 25:-1 26:-1 27:-1 28:-1 29:-1 30:-1 31:-1 32:1 33:-1 34:-1 35:-1 36:-1 37:1 38:-1 39:-1 40:-1 41:1 42:-1 
800 1:0.143201 2:0.364002 3:-0.63233 4:-0.390279 5:-0.00957034 6:-0.193773 7:-0.710625 8:0.286606 9:0.997689 10:-0.441024 11:0.391308 12:0.916205 13:-0.38686 14:-1 15:-1 16:-1 17:-1 18:-1 19:-1 20:-1 21:1 22:-1 23:-1 24:-1 25:-1 26:-1 27:-1 28:-1 29:1 30:-1 31:-1 32:-1 33:-1 34:-1 35:-1 36:-1 37:1 38:-1 39:-1 40:-1 41:1 42:-1 
800 1:-0.429044 2:0.368624 3:-0.531284 4:-0.603194 5:-0.941464 6:0.0555588 7:-0.815771 8:0.239933 9:0.98525 10:-0.181398 11:-0.0751561 12:0.938648 13:-0.430488 14:-1 15:-1 16:-1 17:-1 18:-1 19:1 20:-1 21:-1 22:-1 23:-1 24:-1 25:-1 26:1 27:-1 28:-1 29:-1 30:-1 31:-1 32:-1 33:-1 34:-1 35:-1 36:-1 37:1 38:-1 39:-1 40:-1 41:-1 42:1 
800 1:-0.257451 2:0.46958 3:-0.554562 4:-0.427746 5:-0.778755 6:-0.222251 7:-0.657975 8:0.25042 9:0.920767 10:-0.498057 11:0.18801 12:0.940704 13:-0.444662 14:-1 15:-1 16:-1 17:-1 18:-1 19:-1 20:1 21:-1 22:-1 23:-1 24:-1 25:-1 26:-1 27:-1 28:-1 29:-1 30:-1 31:1 32:-1 33:-1 34:-1 35:-1 36:-1 37:1 38:-1 39:-1 40:-1 41:1 42:-1 
800 1:0.533776 2:0.722086 3:-0.876349 4:-0.343471 5:-1 6:-0.132312 7:-0.80522 8:0.27812 9:0.899611 10:-0.54693 11:0.210101 12:0.999457 13:-0.251022 14:-1 15:-1 16:-1 17:-1 18:-1 19:-1 20:1 21:-1 22:-1 23:-1 24:-1 25:-1 26:-1 27:-1 28:-1 29:-1 30:1 31:-1 32:-1 33:-1 34:-1 35:-1 36:-1 37:1 38:-1 39:-1 40:-1 41:1 42:-1 
800 1:0.632845 2:0.670322 3:-0.954538 4:-0.142705 5:-0.999935 6:-0.218622 7:-0.463509 8:0.272036 9:0.937444 10:-0.370358 11:0.33264 12:0.93702 13:-0.473612 14:-1 15:-1 16:-1 17:-1 18:-1 19:1 20:-1 21:-1 22:-1 23:-1 24:-1 25:-1 26:-1 27:-1 28:-1 29:-1 30:1 31:-1 32:-1 33:-1 34:-1 35:-1 36:-1 37:1 38:-1 39:-1 40:-1 41:1 42:-1 
800 1:0.469067 2:0.763369 3:-0.933718 4:-0.0883288 5:-0.995635 6:-0.550922 7:0.0822047 8:0.233368 9:0.987662 10:-0.0376264 11:0.512406 12:0.84652 13:-0.506392 14:-1 15:-1 16:-1 17:-1 18:-1 19:1 20:-1 21:-1 22:-1 23:-1 24:-1 25:-1 26:-1 27:-1 28:-1 29:-1 30:1 31:-1 32:-1 33:-1 34:-1 35:-1 36:-1 37:1 38:-1 39:-1 40:-1 41:1 42:-1 
800 1:0.601543 2:0.486686 3:-0.983427 4:-0.489826 5:-0.180427 6:0.18602 7:-0.823351 8:0.266832 9:0.999153 10:-0.0690023 11:0.288298 12:0.748053 13:-0.693779 14:-1 15:-1 16:-1 17:-1 18:-1 19:-1 20:1 21:-1 22:-1 23:-1 24:-1 25:-1 26:-1 27:-1 28:-1 29:-1 30:1 31:-1 32:-1 33:-1 34:-1 35:-1 36:-1 37:1 38:-1 39:-1 40:-1 41:1 42:-1 
800 1:-0.374265 2:0.721438 3:0.0552934 4:-0.513236 5:-0.15758 6:0.292752 7:-0.83258 8:0.419422 9:0.87101 10:-0.704058 11:0.274212 12:0.942854 13:-0.465306 14:-1 15:-1 16:-1 17:-1 18:-1 19:-1 20:-1 21:-1 22:-1 23:1 24:-1 25:-1 26:-1 27:-1 28:-1 29:-1 30:1 31:-1 32:-1 33:-1 34:-1 35:-1 36:-1 37:1 38:-1 39:-1 40:-1 41:1 42:-1 
800 1:-0.0670949 2:0.781185 3:-0.178244 4:-0.238022 5:-0.686956 6:-0.462349 7:-0.166633 8:0.22272 9:0.915722 10:-0.494447 11:0.177605 12:0.835582 13:-0.655021 14:-1 15:-1 16:-1 17:-1 18:-1 19:1 20:-1 21:-1 22:-1 23:-1 24:-1 25:-1 26:-1 27:-1 28:-1 29:-1 30:1 31:-1 32:-1 33:-1 34:-1 35:-1 36:-1 37:1 38:-1 39:-1 40:-1 41:1 42:-1 
800 1:-0.0767566 2:0.692744 3:-0.975524 4:-0.472257 5:0.24827 6:-0.0368817 7:-0.576702 8:0.280682 9:0.983479 10:0.053883 11:0.314631 12:0.961406 13:-0.499861 14:-1 15:-1 16:-1 17:-1 18:-1 19:-1 20:1 21:-1 22:-1 23:-1 24:-1 25:-1 26:-1 27:-1 28:-1 29:-1 30:1 31:-1 32:-1 33:-1 34:-1 35:-1 36:-1 37:1 38:-1 39:-1 40:-1 41:1 42:-1 
800 1:-0.358557 2:0.797299 3:-0.815915 4:0.0229047 5:-0.020334 6:-0.0961787 7:-0.679818 8:0.315187 9:0.99119 10:0.0933413 11:-0.204418 12:0.939293 13:-0.546417 14:-1 15:-1 16:-1 17:-1 18:-1 19:-1 20:-1 21:1 22:-1 23:-1 24:-1 25:-1 26:1 27:-1 28:-1 29:-1 30:-1 31:-1 32:-1 33:-1 34:-1 35:-1 36:-1 37:1 38:-1 39:-1 40:-1 41:-1 42:1 
800 1:0.423311 2:0.60752 3:-0.916141 4:-0.308622 5:0.566432 6:-0.0683803 7:-0.640749 8:0.23625 9:0.949596 10:-0.323397 11:0.338643 12:0.891216 13:-0.532002 14:-1 15:-1 16:-1 17:-1 18:-1 19:1 20:-1 21:-1 22:-1 23:-1 24:-1 25:-1 26:-1 27:-1 28:-1 29:-1 30:-1 31:1 32:-1 33:-1 34:-1 35:-1 36:-1 37:1 38:-1 39:-1 40:-1 41:1 42:-1 
800 1:-0.253768 2:0.445317 3:-0.742135 4:-0.426919 5:0.0477496 6:0.00418668 7:-0.692156 8:0.239532 9:0.998243 10:-0.0743093 11:0.215623 12:0.949654 13:-0.370426 14:-1 15:-1 16:-1 17:-1 18:-1 19:-1 20:1 21:-1 22:-1 23:-1 24:-1 25:-1 26:-1 27:-1 28:-1 29:-1 30:-1 31:-1 32:1 33:-1 34:-1 35:-1 36:-1 37:1 38:-1 39:-1 40:-1 41:1 42:-1 
800 1:0.364938 2:0.472944 3:-0.921394 4:-0.0807028 5:0.0878048 6:0.124491 7:-0.837358 8:0.269394 9:0.696887 10:-0.725825 11:-0.181447 12:0.568229 13:-0.816948 14:-1 15:-1 16:-1 17:-1 18:-1 19:-1 20:1 21:-1 22:-1 23:-1 24:-1 25:-1 26:-1 27:1 28:-1 29:-1 30:-1 31:-1 32:-1 33:-1 34:-1 35:-1 36:-1 37:1 38:-1 39:-1 40:-1 41:-1 42:1 
512.6449369924047 1:0.0945899 2:0.853859 3:0.980226 4:-0.486006 5:-0.588986 6:-0.101319 7:-0.888487 8:-0.159235 9:0.534651 10:-0.797622 11:-0.0230511 12:0.928305 13:-0.401859 14:-1 15:-1 16:1 17:-1 18:-1 19:-1 20:-1 21:-1 22:-1 23:-1 24:-1 25:-1 26:1 27:-1 28:-1 29:-1 30:-1 31:-1 32:-1 33:-1 34:-1 35:-1 36:-1 37:-1 38:1 39:-1 40:-1 41:-1 42:1 
211.1979349624941 1:-0.268927 2:0.727501 3:-0.62863 4:-0.462913 5:-0.689611 6:-0.177444 7:-1 8:0.29189 9:0.943317 10:-0.367051 11:-0.171282 12:0.966014 13:-0.272698 14:-1 15:-1 16:-1 17:-1 18:-1 19:1 20:-1 21:-1 22:-1 23:-1 24:-1 25:-1 26:-1 27:1 28:-1 29:-1 30:-1 31:-1 32:-1 33:-1 34:-1 35:-1 36:-1 37:1 38:-1 39:-1 40:-1 41:-1 42:1 
443.9814070805101 1:0.444213 2:0.704412 3:-0.796733 4:-0.535144 5:-0.834523 6:0.025093 7:-0.876969 8:0.439917 9:0.81621 10:-0.768808 11:0.050024 12:0.929958 13:-0.676788 14:-1 15:-1 16:-1 17:-1 18:-1 19:-1 20:1 21:-1 22:-1 23:-1 24:-1 25:-1 26:-1 27:-1 28:-1 29:-1 30:-1 31:1 32:-1 33:-1 34:-1 35:-1 36:-1 37:1 38:-1 39:-1 40:-1 41:1 42:-1 
800 1:0.524048 2:0.790618 3:-0.858985 4:-0.0796351 5:-1 6:-0.246831 7:-0.284126 8:0.149308 9:0.946102 10:-0.416175 11:0.18849 12:0.936443 13:-0.691641 14:-1 15:-1 16:-1 17:-1 18:-1 19:-1 20:1 21:-1 22:-1 23:-1 24:-1 25:-1 26:-1 27:-1 28:-1 29:-1 30:-1 31:-1 32:-1 33:0.333333 34:-1 35:-1 36:-1 37:1 38:-1 39:-1 40:-1 41:1 42:-1 
800 1:-0.23684 2:0.665528 3:-0.759243 4:-0.656578 5:0.743497 6:-0.122151 7:-0.767647 8:-0.0596429 9:0.958197 10:-0.53169 11:0.302145 12:0.953283 13:-0.335472 14:-1 15:1 16:-1 17:-1 18:-1 19:-1 20:-1 21:-1 22:-1 23:-1 24:-1 25:-1 26:-1 27:-1 28:-1 29:-1 30:1 31:-1 32:-1 33:-1 34:-1 35:-1 36:-1 37:-1 38:1 39:-1 40:-1 41:1 42:-1 
800 1:-0.0176782 2:0.727038 3:0.190417 4:-0.329034 5:-0.783238 6:-0.056738 7:-0.648404 8:0.213834 9:0.946712 10:-0.555082 11:0.400912 12:0.420708 13:-0.758918 14:-1 15:-1 16:-1 17:-1 18:-1 19:-1 20:1 21:-1 22:-1 23:-1 24:-1 25:-1 26:-1 27:-1 28:-1 29:-1 30:1 31:-1 32:-1 33:-1 34:-1 35:-1 36:-1 37:1 38:-1 39:-1 40:-1 41:1 42:-1 
373.2984157549473 1:-0.760499 2:0.665021 3:-0.23418 4:-0.172961 5:0.832727 6:-0.0991917 7:-0.730958 8:0.200464 9:0.972382 10:-0.192381 11:-0.169121 12:0.887848 13:-0.596664 14:-1 15:-1 16:-1 17:-1 18:-1 19:1 20:-1 21:-1 22:-1 23:-1 24:-1 25:-1 26:-1 27:-1 28:1 29:-1 30:-1 31:-1 32:-1 33:-1 34:-1 35:-1 36:-1 37:1 38:-1 39:-1 40:-1 41:-1 42:1 
800 1:-0.537931 2:0.767841 3:-0.908138 4:-0.382012 5:0.407742 6:-0.310773 7:-0.489116 8:-0.120967 9:0.97932 10:-0.443025 11:-0.129262 12:0.917937 13:-0.513423 14:1 15:-1 16:-1 17:-1 18:-1 19:-1 20:-1 21:-1 22:-1 23:-1 24:-1 25:-1 26:1 27:-1 28:-1 29:-1 30:-1 31:-1 32:-1 33:-1 34:-1 35:-1 36:-1 37:-1 38:1 39:-1 40:-1 41:-1 42:1 
686.0406445538362 1:0.32544 2:0.6217 3:-0.661316 4:-0.599597 5:-0.763839 6:0.0970307 7:-1 8:-0.201025 9:0.670165 10:-0.902121 11:0.246438 12:0.947098 13:-0.422353 14:-1 15:-1 16:1 17:-1 18:-1 19:-1 20:-1 21:-1 22:-1 23:-1 24:-1 25:-1 26:-1 27:-1 28:-1 29:-1 30:1 31:-1 32:-1 33:-1 34:-1 35:-1 36:-1 37:-1 38:1 39:-1 40:-1 41:1 42:-1 
800 1:-0.768366 2:0.673144 3:0.675223 4:0.0775964 5:-0.755896 6:-0.751297 7:0.036941 8:0.182531 9:0.926537 10:-0.495623 11:0.321834 12:0.899885 13:-0.475525 14:-1 15:-1 16:-1 17:-1 18:1 19:-1 20:-1 21:-1 22:-1 23:-1 24:-1 25:-1 26:-1 27:-1 28:-1 29:-1 30:1 31:-1 32:-1 33:-1 34:-1 35:-1 36:-1 37:1 38:-1 39:-1 40:-1 41:1 42:-1 
376.8682690116311 1:-0.161103 2:0.576504 3:-0.966948 4:-0.30062 5:-0.437254 6:-0.371425 7:-0.720293 8:0.30622 9:0.998027 10:-0.516551 11:-0.0467424 12:0.999153 13:-0.509135 14:-1 15:-1 16:-1 17:-1 18:-1 19:1 20:-1 21:-1 22:-1 23:-1 24:-1 25:-1 26:-1 27:-1 28:-1 29:-1 30:-1 31:1 32:-1 33:-1 34:-1 35:-1 36:-1 37:1 38:-1 39:-1 40:-1 41:1 42:-1 
800 1:0.0935039 2:0.203877 3:-0.993073 4:-0.412076 5:0.598556 6:-0.243937 7:-0.535597 8:0.114803 9:0.988573 10:-0.485307 11:0.261405 12:0.928578 13:-0.493531 14:-1 15:-1 16:-1 17:-1 18:-1 19:-1 20:1 21:-1 22:-1 23:-1 24:-1 25:-1 26:-1 27:-1 28:-1 29:1 30:-1 31:-1 32:-1 33:-1 34:-1 35:-1 36:-1 37:1 38:-1 39:-1 40:-1 41:1 42:-1 
800 1:0.587425 2:0.640379 3:-0.940481 4:-0.513656 5:-0.949831 6:-0.886573 7:-0.0492761 8:0.334881 9:0.842485 10:-0.622319 11:0.235713 12:0.943088 13:-0.377912 14:-1 15:-1 16:-1 17:-1 18:-1 19:-1 20:1 21:-1 22:-1 23:-1 24:-1 25:-1 26:-1 27:-1 28:-1 29:-1 30:1 31:-1 32:-1 33:-1 34:-1 35:-1 36:-1 37:1 38:-1 39:-1 40:-1 41:1 42:-1 
800 1:0.155907 2:0.709935 3:-0.432876 4:-0.516882 5:0.0699335 6:-0.500068 7:-0.271856 8:0.142262 9:0.954025 10:-0.485443 11:0.372979 12:0.913993 13:-0.495993 14:-1 15:-1 16:-1 17:-1 18:-1 19:-1 20:1 21:-1 22:-1 23:-1 24:-1 25:-1 26:-1 27:-1 28:-1 29:1 30:-1 31:-1 32:-1 33:-1 34:-1 35:-1 36:-1 37:1 38:-1 39:-1 40:-1 41:1 42:-1 
710.2582810515329 1:0.66932 2:0.899885 3:-0.987959 4:0.0115444 5:-0.98931 6:-0.103695 7:-0.697246 8:0.323113 9:0.901778 10:-0.608502 11:0.0918841 12:0.980679 13:-0.548846 14:-1 15:-1 16:-1 17:-1 18:-1 19:-1 20:-1 21:-1 22:1 23:-1 24:-1 25:-1 26:-1 27:-1 28:-1 29:-1 30:1 31:-1 32:-1 33:-1 34:-1 35:-1 36:-1 37:1 38:-1 39:-1 40:-1 41:1 42:-1 
513.8193915956685 1:0.362654 2:0.345448 3:-0.92178 4:-0.282834 5:0.842115 6:0.0224208 7:-0.713234 8:-0.0321031 9:0.726695 10:-0.77672 11:-0.160957 12:0.90224 13:-0.770315 14:-1 15:-1 16:-1 17:1 18:-1 19:-1 20:-1 21:-1 22:-1 23:-1 24:-1 25:-1 26:1 27:-1 28:-1 29:-1 30:-1 31:-1 32:-1 33:-1 34:-1 35:-1 36:-1 37:-1 38:1 39:-1 40:-1 41:-1 42:1 
800 1:0.293835 2:0.524129 3:-0.913349 4:-0.61235 5:-0.228831 6:0.0511236 7:-0.806749 8:0.307101 9:0.981576 10:-0.107133 11:-0.267088 12:0.936465 13:-0.502282 14:-1 15:-1 16:-1 17:-1 18:-1 19:1 20:-1 21:-1 22:-1 23:-1 24:-1 25:-1 26:1 27:-1 28:-1 29:-1 30:-1 31:-1 32:-1 33:-1 34:-1 35:-1 36:-1 37:1 38:-1 39:-1 40:-1 41:-1 42:1 
800 1:0.320022 2:0.423285 3:-0.905305 4:-0.382145 5:0.95043 6:-0.312176 7:-0.53664 8:0.237131 9:0.973913 10:-0.228825 11:0.265247 12:0.924791 13:-0.452216 14:-1 15:-1 16:-1 17:-1 18:-1 19:1 20:-1 21:-1 22:-1 23:-1 24:-1 25:-1 26:-1 27:-1 28:-1 29:-1 30:-1 31:1 32:-1 33:-1 34:-1 35:-1 36:-1 37:1 38:-1 39:-1 40:-1 41:1 42:-1 
800 1:0.463357 2:0.867793 3:-0.74125 4:-0.318895 5:-0.778044 6:-0.0432152 7:-0.686356 8:0.25002 9:0.928113 10:-0.429185 11:0.0836401 12:0.945143 13:-0.532887 14:-1 15:-1 16:-1 17:-1 18:-1 19:1 20:-1 21:-1 22:-1 23:-1 24:-1 25:-1 26:-1 27:-1 28:-1 29:-1 30:1 31:-1 32:-1 33:-1 34:-1 35:-1 36:-1 37:1 38:-1 39:-1 40:-1 41:1 42:-1 
800 1:-0.623375 2:0.562421 3:0.292112 4:-0.599693 5:0.785883 6:0.0454156 7:-0.595654 8:0.163878 9:0.984747 10:-0.733808 11:0.207219 12:0.971076 13:-0.56157 14:-1 15:-1 16:-1 17:-1 18:-1 19:1 20:-1 21:-1 22:-1 23:-1 24:-1 25:-1 26:-1 27:-1 28:-1 29:1 30:-1 31:-1 32:-1 33:-1 34:-1 35:-1 36:-1 37:1 38:-1 39:-1 40:-1 41:1 42:-1 
800 1:-0.277211 2:0.581922 3:0.82927 4:-0.475881 5:-0.418898 6:-0.344528 7:-0.466934 8:-0.165639 9:0.713388 10:-0.772817 11:0.238835 12:0.982876 13:-0.323916 14:1 15:-1 16:-1 17:-1 18:-1 19:-1 20:-1 21:-1 22:-1 23:-1 24:-1 25:-1 26:-1 27:-1 28:-1 29:-1 30:-1 31:1 32:-1 33:-1 34:-1 35:-1 36:-1 37:-1 38:1 39:-1 40:-1 41:1 42:-1 
800 1:0.0469868 2:0.485321 3:-0.810399 4:-0.546428 5:-0.719267 6:-0.299021 7:-0.192117 8:-0.0766952 9:0.968528 10:-0.669576 11:0.282456 12:0.936448 13:-0.437279 14:1 15:-1 16:-1 17:-1 18:-1 19:-1 20:-1 21:-1 22:-1 23:-1 24:-1 25:-1 26:-1 27:-1 28:-1 29:1 30:-1 31:-1 32:-1 33:-1 34:-1 35:-1 36:-1 37:-1 38:1 39:-1 40:-1 41:1 42:-1 
764.6525176097069 1:0.59 2:0.568663 3:-0.967711 4:-0.658256 5:-0.759741 6:-0.123996 7:-0.902511 8:-0.16644 9:0.953319 10:-0.426637 11:-0.206659 12:0.947513 13:-0.404021 14:1 15:-1 16:-1 17:-1 18:-1 19:-1 20:-1 21:-1 22:-1 23:-1 24:-1 25:-1 26:-1 27:-1 29:-1 30:-1 31:-1 32:-1 33:-1 34:-1 35:-1 36:-1 37:-1 38:1 39:-1 40:-1 41:-1 42:1 
800 1:-0.292963 2:0.378893 3:-0.914732 4:-0.378415 5:-0.827184 6:-0.15821 7:-0.746173 8:0.176927 9:0.96535 10:-0.443464 11:0.0723547 12:0.907184 13:-0.652676 14:-1 15:-1 16:-1 17:-1 18:-1 19:1 20:-1 21:-1 22:-1 23:-1 24:-1 25:-1 26:-1 27:-1 28:-1 29:-1 30:-1 31:1 32:-1 33:-1 34:-1 35:-1 36:-1 37:1 38:-1 39:-1 40:-1 41:1 42:-1 
800 1:0.373267 2:0.778902 3:-0.718327 4:0.0489563 5:0.4203 6:-0.0794904 7:-0.859167 8:-0.294132 9:0.200705 10:-0.333372 11:0.0461021 12:0.50538 13:-0.729864 14:-1 15:-1 16:-1 17:-1 18:-1 19:-1 20:1 21:-1 22:-1 23:-1 24:-1 25:-1 26:-1 27:-1 28:-1 29:-1 30:1 31:-1 32:-1 33:-1 34:-1 35:-1 36:1 37:-1 38:-1 39:1 40:-1 41:-1 42:-1 
215.3684370651847 1:-0.948424 2:0.341968 3:0.409858 4:-0.00520792 5:-0.995583 6:-0.106935 7:-0.825163 8:-0.829477 9:0.722285 10:-0.00591442 11:0.0545862 12:0.801435 13:-0.602467 14:-1 15:-1 16:-1 17:-1 18:-1 19:1 20:-1 21:-1 22:-1 23:-1 24:-1 25:-1 26:-1 27:-1 28:-1 29:1 30:-1 31:-1 32:-1 33:-1 34:-1 35:-1 36:1 37:-1 38:-1 39:1 40:-1 41:-1 42:-1 
800 1:-0.0195254 2:0.476106 3:-0.526854 4:-0.0550253 5:-0.701702 6:-0.113739 7:-0.677342 8:-0.079177 9:0.973845 10:-0.376825 11:-0.298063 12:-0.00287449 13:-0.354971 14:-1 15:-1 16:-1 17:-1 18:-1 19:1 20:-1 21:-1 22:-1 23:-1 24:-1 25:-1 26:-1 27:-1 28:-1 29:1 30:-1 31:-1 32:-1 33:-1 34:-1 35:1 36:-1 37:-1 38:-1 39:-1 40:1 41:-1 42:-1 
800 1:-0.211404 2:0.283596 3:-0.663941 4:0.0836136 5:-0.393933 6:-0.029599 7:-0.750468 8:-0.256825 9:0.946002 10:-0.464144 11:-0.0298543 12:0.335108 13:-0.209774 14:-1 15:-1 16:-1 17:-1 18:-1 19:1 20:-1 21:-1 22:-1 23:-1 24:-1 25:-1 26:-1 27:-1 28:-1 29:-1 30:1 31:-1 32:-1 33:-1 34:-1 35:1 36:-1 37:-1 38:-1 39:-1 40:1 41:-1 42:-1 
800 1:0.0452515 2:0.857078 3:-0.871474 4:-0.172588 5:-1 6:-0.00172364 7:-0.94853 8:0.0810984 9:0.967064 10:-0.0468581 11:-0.317032 12:0.818642 13:-0.0443641 14:-1 15:-1 16:-1 17:-1 18:-1 19:1 20:-1 21:-1 22:-1 23:-1 24:-1 25:-1 26:-1 27:-1 28:-1 29:-1 30:1 31:-1 32:-1 33:-1 34:-1 35:1 36:-1 37:-1 38:-1 39:-1 40:1 41:-1 42:-1 
800 1:0.18122 2:0.275233 3:-0.919725 4:-0.312811 5:0.649193 6:0.215053 7:-1 8:0.13858 9:0.489858 10:-0.155779 11:-0.0351369 12:0.84275 13:-0.586431 14:-1 15:-1 16:-1 17:-1 18:-1 19:-1 20:1 21:-1 22:-1 23:-1 24:-1 25:-1 26:-1 27:-1 28:-1 29:-1 30:-1 31:1 32:-1 33:-1 34:-1 35:-1 36:1 37:-1 38:-1 39:1 40:-1 41:-1 42:-1 
800 1:0.312689 2:0.796948 3:-0.73253 4:-0.162944 5:-0.558205 6:0.0592244 7:-0.922396 8:0.856297 9:0.754687 10:0.19824 11:0.0607492 12:0.867655 13:-0.502946 14:-1 15:-1 16:-1 17:-1 18:-1 19:1 20:-1 21:-1 22:-1 23:-1 24:-1 25:-1 26:-1 27:-1 28:-1 29:-1 30:-1 31:1 32:-1 33:-1 34:-1 35:-1 36:1 37:-1 38:-1 39:1 40:-1 41:-1 42:-1 
800 1:0.309005 2:0.68305 3:-0.675024 4:-0.432537 5:-0.846862 6:-0.128556 7:-0.33272 8:-0.18061 9:0.130435 10:-0.337963 11:0.0869217 12:0.646834 13:-0.722479 14:-1 15:-1 16:-1 17:-1 18:-1 19:-1 20:-1 21:1 22:-1 23:-1 24:-1 25:-1 26:-1 27:-1 28:-1 29:1 30:-1 31:-1 32:-1 33:-1 34:-1 35:-1 36:1 37:-1 38:-1 39:1 40:-1 41:-1 42:-1 
800 1:-0.457704 2:0.817203 3:-0.6439 4:-0.356023 5:-1 6:0.8221 7:-0.648793 8:-0.232007 9:0.996306 10:-0.529992 11:-0.995038 12:0.739731 13:-0.204683 14:-1 15:-1 16:-1 17:-1 18:-1 19:-1 20:-1 21:-1 22:-1 23:1 24:-1 25:-1 26:-1 27:-1 28:-1 29:-1 30:-1 31:1 32:-1 33:-1 34:-1 35:1 36:-1 37:-1 38:-1 39:-1 40:1 41:-1 42:-1 
800 1:-0.147131 2:0.710998 3:0.0958961 4:-0.167299 5:0.622386 6:0.100915 7:-0.957647 8:-0.258266 9:0.917206 10:-0.579187 11:-0.00320154 12:-0.0660685 13:-0.346017 14:-1 15:-1 16:-1 17:-1 18:-1 19:-1 20:1 21:-1 22:-1 23:-1 24:-1 25:-1 26:-1 27:-1 28:-1 29:-1 30:-1 31:1 32:-1 33:-1 34:-1 35:1 36:-1 37:-1 38:-1 39:-1 40:1 41:-1 42:-1 
800 1:0.37395 2:0.609197 3:-0.995098 4:0.382674 5:0.658613 6:0.0107632 7:-0.890282 8:-0.237291 9:0.876439 10:0.427716 11:0.286457 12:-0.526965 13:-0.471668 14:-1 15:-1 16:-1 17:-1 18:-1 19:-1 20:-1 21:-1 22:1 23:-1 24:-1 25:-1 26:-1 27:-1 28:-1 29:-1 30:1 31:-1 32:-1 33:-1 34:-1 35:-1 36:1 37:-1 38:-1 39:-1 40:1 41:-1 42:-1 
800 1:-0.54504 2:0.299578 3:-0.49293 4:0.332388 5:0.792224 6:0.0683249 7:-0.511243 8:-0.544312 9:0.8193 10:0.150634 11:-0.352409 12:0.551827 13:-0.137068 14:-1 15:-1 16:-1 17:-1 18:-1 19:-1 20:-1 21:-1 22:-1 23:-1 24:1 25:-1 26:-1 27:-1 28:-1 29:-1 30:1 31:-1 32:-1 33:-1 34:-1 35:-1 36:1 37:-1 38:-1 39:-1 40:1 41:-1 42:-1 
800 1:0.0999861 2:0.737847 3:-0.788087 4:-0.22389 5:-0.0309154 6:-0.0444468 7:-0.880411 8:-0.0756545 9:0.938232 10:-0.491313 11:-0.0457019 12:0.866016 13:-0.782975 14:-1 15:-1 16:-1 17:-1 18:-1 19:-1 20:-1 21:1 22:-1 23:-1 24:-1 25:-1 26:-1 27:-1 28:-1 29:-1 30:-1 31:1 32:-1 33:-1 34:-1 35:1 36:-1 37:-1 38:-1 39:1 40:-1 41:-1 42:-1 
800 1:0.773348 2:0.7398 3:-0.992464 4:0.5046 5:-0.252663 6:-0.177538 7:-0.911413 8:0.271956 9:0.923798 10:0.570333 11:0.172963 12:-0.371416 13:-0.465877 14:-1 15:-1 16:-1 17:-1 18:-1 19:1 20:-1 21:-1 22:-1 23:-1 24:-1 25:-1 26:-1 27:-1 28:-1 29:-1 30:-1 31:1 32:-1 33:-1 34:-1 35:-1 36:1 37:-1 38:-1 39:-1 40:1 41:-1 42:-1 
800 1:-0.303353 2:0.445912 3:-0.335572 4:-0.0811277 5:-0.375357 6:-0.123356 7:-0.607968 8:-0.881034 9:0.336741 10:-0.31004 11:-0.00992476 12:0.760512 13:-0.671834 14:-1 15:-1 16:-1 17:-1 18:1 19:-1 20:-1 21:-1 22:-1 23:-1 24:-1 25:-1 26:-1 27:-1 28:-1 29:-1 30:-1 31:1 32:-1 33:-1 34:-1 35:-1 36:1 37:-1 38:-1 39:1 40:-1 41:-1 42:-1 
800 1:0.371185 2:0.743061 3:-0.838568 4:-0.662693 5:0.623173 6:-0.0958736 7:-0.883405 8:0.309343 9:0.577156 10:-0.053813 11:-0.47863 12:0.598057 13:-0.106956 14:-1 15:-1 16:-1 17:-1 18:1 19:-1 20:-1 21:-1 22:-1 23:-1 24:-1 25:-1 26:-1 27:-1 28:-1 29:-1 30:-1 31:-1 32:-1 33:-0.333333 34:-1 35:-1 36:1 37:-1 38:-1 39:-1 40:1 41:-1 42:-1 
800 1:0.234231 2:0.698413 3:-0.472788 4:0.333003 5:-0.172672 6:-0.144086 7:-0.702371 8:-0.909855 9:-0.185417 10:-0.461981 11:-0.105331 12:0.476006 13:-0.773218 14:-1 15:-1 16:-1 17:-1 18:-1 19:1 20:-1 21:-1 22:-1 23:-1 24:-1 25:-1 26:-1 27:-1 28:-1 29:-1 30:1 31:-1 32:-1 33:-1 34:-1 35:-1 36:1 37:-1 38:-1 39:1 40:-1 41:-1 42:-1 
800 1:-0.104656 2:0.722904 3:-0.142735 4:-0.471684 5:-0.34074 6:-0.188242 7:-0.830495 8:-0.00384277 9:-0.268685 10:-0.474341 11:0.202497 12:0.834096 13:0.194811 14:-1 15:-1 16:-1 17:-1 18:1 19:-1 20:-1 21:-1 22:-1 23:-1 24:-1 25:-1 26:-1 27:-1 28:-1 29:-1 30:1 31:-1 32:-1 33:-1 34:-1 35:-1 36:1 37:-1 38:-1 39:-1 40:1 41:-1 42:-1 
800 1:-0.883803 2:0.320889 3:-0.911556 4:-0.467342 5:-0.999135 6:0.549418 7:-0.888276 8:0.112241 9:0.934475 10:-0.295306 11:-0.0597887 12:0.914332 13:-0.463005 14:-1 15:-1 16:-1 17:-1 18:-1 19:-1 20:-1 21:-1 22:1 23:-1 24:-1 25:-1 26:-1 27:-1 28:-1 29:1 30:-1 31:-1 32:-1 33:-1 34:-1 35:1 36:-1 37:-1 38:-1 39:1 40:-1 41:-1 42:-1 
800 1:0.0196475 2:0.158125 3:-0.498912 4:-0.0642171 5:-0.966982 6:-0.0858652 7:-0.776248 8:0.0293011 9:0.149614 10:-0.24512 11:-0.136466 12:0.915597 13:-0.526047 14:-1 15:-1 16:-1 17:-1 18:1 19:-1 20:-1 21:-1 22:-1 23:-1 24:-1 25:-1 26:-1 27:-1 28:-1 29:-1 30:1 31:-1 32:-1 33:-1 34:-1 35:-1 36:1 37:-1 38:-1 39:1 40:-1 41:-1 42:-1 
800 1:0.524686 2:0.622196 3:-0.953433 4:-0.398523 5:-0.377253 6:0.102151 7:-0.831147 8:0.00312225 9:0.951986 10:-0.231237 11:0.797743 12:0.894751 13:0.35189 14:-1 15:-1 16:-1 17:-1 18:-1 19:-1 20:-1 21:-1 22:-1 23:-1 24:1 25:-1 26:-1 27:-1 28:-1 29:-1 30:1 31:-1 32:-1 33:-1 34:-1 35:1 36:-1 37:-1 38:-1 39:-1 40:1 41:-1 42:-1 
800 1:0.0207334 2:0.778624 3:0.413405 4:0.268573 5:0.963284 6:-0.176192 7:-0.796228 8:0.0368265 9:-0.160714 10:-0.340755 11:0.221146 12:0.313688 13:-0.230492 14:-1 15:-1 16:-1 17:-1 18:-1 19:1 20:-1 21:-1 22:-1 23:-1 24:-1 25:-1 26:-1 27:-1 28:-1 29:1 30:-1 31:-1 32:-1 33:-1 34:-1 35:-1 36:1 37:-1 38:-1 39:-1 40:1 41:-1 42:-1 
800 1:-0.713877 2:0.677364 3:0.74499 4:-0.186821 5:0.0158731 6:0.108682 7:-0.901978 8:-0.253543 9:-0.174503 10:-0.492636 11:-0.12558 12:0.684334 13:-0.743691 14:-1 15:-1 16:-1 17:-1 18:1 19:-1 20:-1 21:-1 22:-1 23:-1 24:-1 25:-1 26:-1 27:-1 28:-1 29:-1 30:-1 31:1 32:-1 33:-1 34:-1 35:-1 36:1 37:-1 38:-1 39:1 40:-1 41:-1 42:-1 
800 1:0.104016 2:0.580316 3:-0.650894 4:-0.242728 5:-1 6:-0.134247 7:-0.954162 8:-0.0142503 9:0.941796 10:-0.366152 11:0.136706 12:0.897873 13:-0.436113 14:-1 15:-1 16:-1 17:-1 18:1 19:-1 20:-1 21:-1 22:-1 23:-1 24:-1 25:-1 26:-1 27:-1 28:-1 29:-1 30:-1 31:-1 32:1 33:-1 34:-1 35:1 36:-1 37:-1 38:-1 39:1 40:-1 41:-1 42:-1 
800 1:-0.26175 2:0.366581 3:0.730045 4:-0.226098 5:-0.635693 6:0.0196945 7:-0.944884 8:-0.0786166 9:0.699575 10:-0.722634 11:-0.557388 12:0.420577 13:-0.259239 14:-1 15:-1 16:-1 17:-1 18:-1 19:-1 20:-1 21:-1 22:1 23:-1 24:-1 25:-1 26:-1 27:-1 28:-1 29:-1 30:1 31:-1 32:-1 33:-1 34:-1 35:1 36:-1 37:-1 38:-1 39:-1 40:1 41:-1 42:-1 
800 1:0.285338 2:0.688534 3:-0.488761 4:-0.380253 5:-0.999584 6:0.0158252 7:-0.893352 8:0.0282603 9:0.0713473 10:-0.287685 11:0.0704338 12:0.974833 13:-0.376403 14:-1 15:-1 16:-1 17:-1 18:-1 19:-1 20:1 21:-1 22:-1 23:-1 24:-1 25:-1 26:-1 27:-1 28:-1 29:-1 30:-1 31:1 32:-1 33:-1 34:-1 35:-1 36:1 37:-1 38:-1 39:1 40:-1 41:-1 42:-1 
800 1:0.340991 2:0.632085 3:-0.831981 4:0.202394 5:0.550008 6:0.15593 7:-0.813252 8:-0.259787 9:0.149795 10:-0.390892 11:0.628382 12:0.796936 13:0.168261 14:-1 15:-1 16:-1 17:-1 18:-1 19:-1 20:-1 21:-1 22:-1 23:1 24:-1 25:-1 26:-1 27:-1 28:-1 29:-1 30:-1 31:-1 32:1 33:-1 34:-1 35:-1 36:1 37:-1 38:-1 39:-1 40:1 41:-1 42:-1 
800 1:0.486923 2:0.800707 3:-0.7893 4:-0.226138 5:-0.738566 6:-0.0756371 7:-0.667722 8:-0.0484349 9:0.0407808 10:-0.278458 11:0.269649 12:0.62949 13:-0.68967 14:-1 15:-1 16:-1 17:-1 18:-1 19:-1 20:1 21:-1 22:-1 23:-1 24:-1 25:-1 26:-1 27:-1 28:-1 29:1 30:-1 31:-1 32:-1 33:-1 34:-1 35:-1 36:1 37:-1 38:-1 39:1 40:-1 41:-1 42:-1 
800 1:-0.0426552 2:0.590722 3:-0.142064 4:-0.293021 5:-0.514219 6:-0.127164 7:-0.709399 8:-0.350893 9:0.368472 10:-0.224087 11:0.0565872 12:0.73598 13:-0.853904 14:-1 15:-1 16:-1 17:-1 18:1 19:-1 20:-1 21:-1 22:-1 23:-1 24:-1 25:-1 26:-1 27:-1 28:-1 29:-1 30:-1 31:-1 32:-1 33:-0.333333 34:-1 35:-1 36:1 37:-1 38:-1 39:1 40:-1 41:-1 42:-1 
800 1:0.372618 2:0.405246 3:-0.899059 4:-0.191688 5:-0.896823 6:-0.0321303 7:-0.875695 8:-0.197262 9:0.978244 10:-0.755744 11:0.339123 12:0.675515 13:-0.635876 14:-1 15:-1 16:-1 17:-1 18:-1 19:-1 20:1 21:-1 22:-1 23:-1 24:-1 25:-1 26:-1 27:-1 28:-1 29:-1 30:1 31:-1 32:-1 33:-1 34:-1 35:1 36:-1 37:-1 38:-1 39:1 40:-1 41:-1 42:-1 
800 1:-0.63289 2:0.802602 3:-0.118123 4:0.065777 5:-0.729888 6:-0.46716 7:-0.512869 8:0.157473 9:0.957799 10:-0.155356 11:-0.0161678 12:-0.119768 13:-0.404612 14:-1 15:-1 16:-1 17:-1 18:1 19:-1 20:-1 21:-1 22:-1 23:-1 24:-1 25:-1 26:-1 27:-1 28:-1 29:-1 30:1 31:-1 32:-1 33:-1 34:-1 35:1 36:-1 37:-1 38:-1 39:-1 40:1 41:-1 42:-1 
800 1:0.33771 2:0.575724 3:-0.730494 4:-0.397909 5:0.223882 6:-0.224847 7:-0.77883 8:0.0517172 9:0.758142 10:-0.660672 11:-0.421722 12:0.428468 13:-0.235624 14:-1 15:-1 16:-1 17:-1 18:-1 19:1 20:-1 21:-1 22:-1 23:-1 24:-1 25:-1 26:-1 27:-1 28:-1 29:-1 30:1 31:-1 32:-1 33:-1 34:-1 35:1 36:-1 37:-1 38:-1 39:-1 40:1 41:-1 42:-1 
800 1:0.00783626 2:0.462917 3:-0.945228 4:-0.0648423 5:-1 6:-0.142072 7:-0.514327 8:-0.0539589 9:0.887726 10:0.438227 11:-0.0674724 12:0.948476 13:-0.73341 14:-1 15:-1 16:-1 17:-1 18:1 19:-1 20:-1 21:-1 22:-1 23:-1 24:-1 25:-1 26:-1 27:-1 28:-1 29:-1 30:-1 31:-1 32:-1 33:-1 34:1 35:-1 36:1 37:-1 38:-1 39:1 40:-1 41:-1 42:-1 
800 1:0.239963 2:0.441749 3:-0.705012 4:-0.608973 5:0.580279 6:-0.213667 7:-0.239018 8:-0.172284 9:0.737063 10:-0.804699 11:-0.983032 12:0.783149 13:-0.017353 14:-1 15:-1 16:-1 17:-1 18:1 19:-1 20:-1 21:-1 22:-1 23:-1 24:-1 25:-1 26:-1 27:-1 28:-1 29:-1 30:-1 31:1 32:-1 33:-1 34:-1 35:1 36:-1 37:-1 38:-1 39:-1 40:1 41:-1 42:-1 
800 1:-0.856607 2:0.450529 3:0.875687 4:0.622706 5:0.180481 6:-0.244592 7:-0.547118 8:0.157553 9:0.784381 10:0.124381 11:-0.168721 12:0.545027 13:-0.140847 14:-1 15:-1 16:-1 17:-1 18:-1 19:1 20:-1 21:-1 22:-1 23:-1 24:-1 25:-1 26:-1 27:-1 28:-1 29:-1 30:-1 31:1 32:-1 33:-1 34:-1 35:-1 36:1 37:-1 38:-1 39:-1 40:1 41:-1 42:-1 
800 1:0.0363959 2:0.67816 3:-0.210946 4:-0.274698 5:0.0656909 6:-0.151338 7:-1 8:-0.756945 9:0.616094 10:-0.137251 11:-0.050104 12:-0.0628682 13:-0.417796 14:-1 15:-1 16:-1 17:-1 18:1 19:-1 20:-1 21:-1 22:-1 23:-1 24:-1 25:-1 26:-1 27:-1 28:-1 29:-1 30:1 31:-1 32:-1 33:-1 34:-1 35:-1 36:1 37:-1 38:-1 39:-1 40:1 41:-1 42:-1 
800 1:-0.286369 2:0.489108 3:-0.143231 4:-0.209135 5:-0.939751 6:-0.231253 7:-0.584735 8:-0.0100072 9:0.998806 10:-0.314252 11:0.0553866 12:0.972951 13:-0.214306 14:-1 15:-1 16:-1 17:-1 18:-1 19:-1 20:1 21:-1 22:-1 23:-1 24:-1 25:-1 26:-1 27:-1 28:-1 29:1 30:-1 31:-1 32:-1 33:-1 34:-1 35:1 36:-1 37:-1 38:-1 39:1 40:-1 41:-1 42:-1 
800 1:-0.213196 2:0.618122 3:-0.120929 4:-0.56478 5:-0.927938 6:0.0217282 7:-1 8:-0.0327436 9:0.47959 10:-0.14716 11:0.122139 12:0.901947 13:-0.419636 14:-1 15:-1 16:-1 17:-1 18:1 19:-1 20:-1 21:-1 22:-1 23:-1 24:-1 25:-1 26:-1 27:-1 28:-1 29:-1 30:1 31:-1 32:-1 33:-1 34:-1 35:-1 36:1 37:-1 38:-1 39:1 40:-1 41:-1 42:-1 
800 1:-0.0251903 2:0.29824 3:-0.777087 4:-0.255044 5:-1 6:-0.165452 7:-0.81535 8:0.300857 9:0.671742 10:0.0473021 11:-0.819753 12:0.688669 13:-0.0740244 14:-1 15:-1 16:-1 17:-1 18:-1 19:-1 20:1 21:-1 22:-1 23:-1 24:-1 25:-1 26:-1 27:-1 28:-1 29:1 30:-1 31:-1 32:-1 33:-1 34:-1 35:-1 36:1 37:-1 38:-1 39:-1 40:1 41:-1 42:-1 
800 1:-0.383064 2:0.370578 3:-0.0425228 4:0.147087 5:-0.969012 6:-0.00961596 7:-0.907634 8:-0.602594 9:0.593999 10:-0.122528 11:-0.00296142 12:0.925036 13:-0.376154 14:-1 15:-1 16:-1 17:-1 18:1 19:-1 20:-1 21:-1 22:-1 23:-1 24:-1 25:-1 26:-1 27:-1 28:-1 29:-1 30:-1 31:-1 32:1 33:-1 34:-1 35:-1 36:1 37:-1 38:-1 39:1 40:-1 41:-1 42:-1 
800 1:-0.499004 2:0.143683 3:0.241307 4:-0.459022 5:0.0260922 6:-0.316693 7:-0.318767 8:0.0237771 9:-0.110009 10:-0.392367 11:0.0425804 12:-0.00661397 13:-0.403414 14:-1 15:-1 16:-1 17:-1 18:-1 19:1 20:-1 21:-1 22:-1 23:-1 24:-1 25:-1 26:-1 27:-1 28:-1 29:-1 30:1 31:-1 32:-1 33:-1 34:-1 35:-1 36:1 37:-1 38:-1 39:-1 40:1 41:-1 42:-1 
800 1:-0.257686 2:0.230499 3:-0.121902 4:-0.0722758 5:-0.629464 6:0.126115 7:-1 8:0.0778961 9:0.946757 10:-0.446082 11:0.0776373 12:0.953146 13:0.2725 14:-1 15:-1 16:-1 17:-1 18:-1 19:1 20:-1 21:-1 22:-1 23:-1 24:-1 25:-1 26:-1 27:-1 28:-1 29:-1 30:1 31:-1 32:-1 33:-1 34:-1 35:1 36:-1 37:-1 38:-1 39:-1 40:1 41:-1 42:-1 
800 1:0.212612 2:0.338098 3:-0.971284 4:-0.36187 5:-0.628897 6:0.0237366 7:-0.91482 8:0.0537987 9:0.934981 10:-0.497173 11:0.0338563 12:-0.0440838 13:-0.434003 14:-1 15:-1 16:-1 17:-1 18:-1 19:-1 20:1 21:-1 22:-1 23:-1 24:-1 25:-1 26:-1 27:-1 28:-1 29:-1 30:1 31:-1 32:-1 33:-1 34:-1 35:1 36:-1 37:-1 38:-1 39:-1 40:1 41:-1 42:-1 
800 1:0.268668 2:0.609044 3:-0.696556 4:-0.665961 5:-0.871244 6:-0.214349 7:-0.45725 8:0.290609 9:0.662892 10:-0.197086 11:-0.031215 12:0.891871 13:-0.559996 14:-1 15:-1 16:-1 17:-1 18:-1 19:1 20:-1 21:-1 22:-1 23:-1 24:-1 25:-1 26:-1 27:-1 28:-1 29:1 30:-1 31:-1 32:-1 33:-1 34:-1 35:-1 36:1 37:-1 38:-1 39:1 40:-1 41:-1 42:-1 
800 1:-0.0914227 2:0.699499 3:-0.660315 4:-0.50572 5:0.190422 6:-0.020704 7:-1 8:-0.137459 9:0.951703 10:-0.325978 11:0.225628 12:0.869392 13:0.248957 14:-1 15:-1 16:-1 17:-1 18:-1 19:1 20:-1 21:-1 22:-1 23:-1 24:-1 25:-1 26:-1 27:-1 28:-1 29:-1 30:-1 31:1 32:-1 33:-1 34:-1 35:1 36:-1 37:-1 38:-1 39:-1 40:1 41:-1 42:-1 
144.3058543574288 1:0.154542 2:0.197596 3:-0.751545 4:-0.129424 5:0.61309 6:0.146589 7:-0.954081 8:-0.299175 9:0.92295 10:-0.659814 11:-0.514007 12:0.955467 13:0.255723 14:-1 15:-1 16:-1 17:-1 18:-1 19:1 20:-1 21:-1 22:-1 23:-1 24:-1 25:-1 26:-1 27:-1 28:-1 29:-1 30:1 31:-1 32:-1 33:-1 34:-1 35:1 36:-1 37:-1 38:-1 39:-1 40:1 41:-1 42:-1 
800 1:-0.134324 2:0.248615 3:0.818624 4:-0.398299 5:0.0835462 6:-0.0111834 7:-0.458813 8:0.0386678 9:0.30392 10:-0.779112 11:0.609252 12:-0.687148 13:-0.420145 14:-1 15:-1 16:-1 17:-1 18:-1 19:1 20:-1 21:-1 22:-1 23:-1 24:-1 25:-1 26:-1 27:-1 28:-1 29:-1 30:-1 31:1 32:-1 33:-1 34:-1 35:1 36:-1 37:-1 38:-1 39:-1 40:1 41:-1 42:-1 
800 1:-0.510469 2:0.792374 3:-0.539425 4:-0.339827 5:0.377758 6:-0.016887 7:-1 8:-0.0643663 9:0.961289 10:-0.52534 11:-0.706579 12:0.472318 13:-0.22469 14:-1 15:-1 16:-1 17:-1 18:-1 19:-1 20:-1 21:1 22:-1 23:-1 24:-1 25:-1 26:-1 27:-1 28:-1 29:-1 30:1 31:-1 32:-1 33:-1 34:-1 35:1 36:-1 37:-1 38:-1 39:-1 40:1 41:-1 42:-1 
800 1:0.4868 2:0.71571 3:-0.807236 4:0.168489 5:-0.999246 6:-0.294824 7:-0.471364 8:-0.429589 9:0.293308 10:-0.260158 11:-0.107332 12:0.752502 13:0.0896699 14:-1 15:-1 16:-1 17:-1 18:-1 19:-1 20:-1 21:-1 22:-1 23:-1 24:-1 25:1 26:-1 27:-1 28:-1 29:-1 30:1 31:-1 32:-1 33:-1 34:-1 35:-1 36:1 37:-1 38:-1 39:-1 40:1 41:-1 42:-1 
800 1:-0.637889 2:0.700857 3:0.19216 4:-0.367578 5:-0.993579 6:-0.15258 7:-0.663821 8:-0.213514 9:0.524626 10:-0.143664 11:-0.91676 12:0.0904729 13:-0.427968 14:-1 15:-1 16:-1 17:-1 18:-1 19:1 20:-1 21:-1 22:-1 23:-1 24:-1 25:-1 26:-1 27:-1 28:-1 29:-1 30:-1 31:-1 32:1 33:-1 34:-1 35:-1 36:1 37:-1 38:-1 39:-1 40:1 41:-1 42:-1 
800 1:-0.0938633 2:0.382926 3:-0.879802 4:-0.432134 5:0.828545 6:0.0515782 7:-1 8:-0.0227364 9:0.932851 10:-0.464204 11:-0.00560269 12:-0.387565 13:-0.499861 14:-1 15:-1 16:-1 17:-1 18:-1 19:1 20:-1 21:-1 22:-1 23:-1 24:-1 25:-1 26:-1 27:-1 28:-1 29:-1 30:-1 31:1 32:-1 33:-1 34:-1 35:1 36:-1 37:-1 38:-1 39:-1 40:1 41:-1 42:-1 
800 1:-0.927813 2:0.46619 3:-0.535217 4:-0.434218 5:0.00810876 6:0.112492 7:-0.899753 8:0.301497 9:0.60465 10:-0.0379462 11:0.0715543 12:0.795877 13:-0.593024 14:-1 15:-1 16:-1 17:-1 18:-1 19:1 20:-1 21:-1 22:-1 23:-1 24:-1 25:-1 26:-1 27:-1 28:-1 29:1 30:-1 31:-1 32:-1 33:-1 34:-1 35:-1 36:1 37:-1 38:-1 39:1 40:-1 41:-1 42:-1 
800 1:0.719252 2:0.662716 3:-0.999461 4:-0.475505 5:-1 6:-0.161152 7:-0.479193 8:0.954207 9:0.762826 10:0.278886 11:0.0451417 12:0.345742 13:-0.20051 14:-1 15:-1 16:-1 17:-1 18:-1 19:-1 20:1 21:-1 22:-1 23:-1 24:-1 25:-1 26:-1 27:-1 28:-1 29:-1 30:1 31:-1 32:-1 33:-1 34:-1 35:-1 36:1 37:-1 38:-1 39:-1 40:1 41:-1 42:-1 
800 1:0.404514 2:0.282862 3:-0.945884 4:-0.342398 5:0.912986 6:0.142752 7:-0.93369 8:-0.810744 9:0.48065 10:-0.218179 11:0.0377781 12:-0.250206 13:-0.416645 14:-1 15:-1 16:-1 17:-1 18:-1 19:1 20:-1 21:-1 22:-1 23:-1 24:-1 25:-1 26:-1 27:-1 28:-1 29:1 30:-1 31:-1 32:-1 33:-1 34:-1 35:-1 36:1 37:-1 38:-1 39:-1 40:1 41:-1 42:-1 
800 1:0.402107 2:0.172913 3:-0.974651 4:-0.057653 5:-0.435697 6:-0.0112172 7:-0.762706 8:-0.189576 9:0.953493 10:-0.559484 11:-0.789339 12:0.724205 13:-0.0370747 14:-1 15:-1 16:-1 17:-1 18:-1 19:1 20:-1 21:-1 22:-1 23:-1 24:-1 25:-1 26:-1 27:-1 28:-1 29:1 30:-1 31:-1 32:-1 33:-1 34:-1 35:1 36:-1 37:-1 38:-1 39:-1 40:1 41:-1 42:-1 
800 1:-0.943632 2:0.470101 3:-0.452265 4:-0.21403 5:-0.275237 6:-0.0542067 7:-0.675341 8:-0.543351 9:0.858336 10:0.2846 11:-0.211462 12:0.0238223 13:-0.296179 14:-1 15:-1 16:-1 17:-1 18:1 19:-1 20:-1 21:-1 22:-1 23:-1 24:-1 25:-1 26:-1 27:-1 28:-1 29:1 30:-1 31:-1 32:-1 33:-1 34:-1 35:-1 36:1 37:-1 38:-1 39:-1 40:1 41:-1 42:-1 
800 1:0.634379 2:0.494653 3:-0.999784 4:-0.039074 5:-1 6:-0.239453 7:-0.811633 8:0.183332 9:0.979442 10:-0.616129 11:0.563871 12:-0.159339 13:-0.475157 14:-1 15:-1 16:-1 17:-1 18:-1 19:-1 20:1 21:-1 22:-1 23:-1 24:-1 25:-1 26:-1 27:-1 28:-1 29:-1 30:-1 31:1 32:-1 33:-1 34:-1 35:1 36:-1 37:-1 38:-1 39:-1 40:1 41:-1 42:-1 
800 1:-0.190805 2:0.528952 3:-0.790797 4:-0.179197 5:-0.535126 6:0.0301692 7:-0.814255 8:-0.312945 9:0.65274 10:-0.0301131 11:0.0356171 12:-0.0176263 13:-0.272641 14:-1 15:-1 16:-1 17:-1 18:-1 19:1 20:-1 21:-1 22:-1 23:-1 24:-1 25:-1 26:-1 27:-1 28:-1 29:-1 30:1 31:-1 32:-1 33:-1 34:-1 35:-1 36:1 37:-1 38:-1 39:-1 40:1 41:-1 42:-1 
800 1:-0.275375 2:0.384394 3:0.441509 4:-0.331515 5:-0.992306 6:-0.153758 7:-0.871586 8:-0.238171 9:-0.410579 10:-0.436503 11:0.323275 12:0.854281 13:-0.727521 14:-1 15:-1 16:-1 17:-1 18:-1 19:1 20:-1 21:-1 22:-1 23:-1 24:-1 25:-1 26:-1 27:-1 28:-1 29:-1 30:-1 31:1 32:-1 33:-1 34:-1 35:-1 36:1 37:-1 38:-1 39:1 40:-1 41:-1 42:-1 
800 1:0.1652 2:0.260112 3:-0.962983 4:-0.324153 5:-0.763773 6:-0.0263246 7:-0.90319 8:-0.0592427 9:0.684435 10:0.0369537 11:0.534577 12:0.791775 13:-0.503495 14:-1 15:-1 16:-1 17:-1 18:-1 19:-1 20:1 21:-1 22:-1 23:-1 24:-1 25:-1 26:-1 27:-1 28:-1 29:1 30:-1 31:-1 32:-1 33:-1 34:-1 35:-1 36:1 37:-1 38:-1 39:1 40:-1 41:-1 42:-1 
800 1:-0.750641 2:0.435129 3:-0.338408 4:0.0575913 5:0.31307 6:-0.0276367 7:-0.900761 8:-0.655752 9:0.384525 10:-0.307411 11:-0.0767568 12:0.993703 13:-0.111607 14:-1 15:-1 16:-1 17:-1 18:-1 19:1 20:-1 21:-1 22:-1 23:-1 24:-1 25:-1 26:-1 27:-1 28:-1 29:-1 30:1 31:-1 32:-1 33:-1 34:-1 35:-1 36:1 37:-1 38:-1 39:1 40:-1 41:-1 42:-1 
800 1:0.0414898 2:0.600197 3:-0.70401 4:-0.548893 5:-1 6:0.470698 7:-0.884951 8:-0.18117 9:0.0682499 10:-0.430367 11:0.224668 12:0.514956 13:-0.108931 14:-1 15:-1 16:-1 17:-1 18:-1 19:-1 20:-1 21:-1 22:1 23:-1 24:-1 25:-1 26:-1 27:-1 28:-1 29:-1 30:1 31:-1 32:-1 33:-1 34:-1 35:-1 36:1 37:-1 38:-1 39:-1 40:1 41:-1 42:-1 
800 1:0.299825 2:0.666892 3:-0.662507 4:-0.221819 5:-1 6:-0.125595 7:-1 8:-0.107998 9:0.304982 10:-0.246318 11:-0.121578 12:0.889296 13:-0.550677 14:-1 15:-1 16:-1 17:-1 18:-1 19:-1 20:1 21:-1 22:-1 23:-1 24:-1 25:-1 26:-1 27:-1 28:-1 29:-1 30:-1 31:1 32:-1 33:-1 34:-1 35:-1 36:1 37:-1 38:-1 39:1 40:-1 41:-1 42:-1 
800 1:-0.284679 2:0.329654 3:0.121686 4:-0.50275 5:-0.987123 6:0.194106 7:-0.816733 8:0.140581 9:0.715804 10:-0.967177 11:-0.676085 12:0.478027 13:-0.223353 14:-1 15:-1 16:-1 17:-1 18:-1 19:-1 20:1 21:-1 22:-1 23:-1 24:-1 25:-1 26:-1 27:-1 28:-1 29:-1 30:-1 31:1 32:-1 33:-1 34:-1 35:1 36:-1 37:-1 38:-1 39:-1 40:1 41:-1 42:-1 
800 1:0.0717175 2:0.459328 3:-0.680479 4:-0.302109 5:-0.384671 6:-0.181111 7:-0.936929 8:-0.0657273 9:0.913656 10:0.246112 11:-0.184569 12:0.991726 13:-0.178481 14:-1 15:-1 16:-1 17:-1 18:-1 19:-1 20:1 21:-1 22:-1 23:-1 24:-1 25:-1 26:-1 27:-1 28:-1 29:-1 30:1 31:-1 32:-1 33:-1 34:-1 35:-1 36:1 37:-1 38:-1 39:1 40:-1 41:-1 42:-1 
800 1:0.166767 2:0.333607 3:-0.716847 4:0.535858 5:-0.974793 6:-0.0606811 7:-0.904012 8:-0.115843 9:0.804054 10:-0.770345 11:0.10381 12:-0.363074 13:-0.39429 14:-1 15:-1 16:-1 17:-1 18:-1 19:1 20:-1 21:-1 22:-1 23:-1 24:-1 25:-1 26:-1 27:-1 28:-1 29:-1 30:1 31:-1 32:-1 33:-1 34:-1 35:1 36:-1 37:-1 38:-1 39:-1 40:1 41:-1 42:-1 
800 1:-0.169701 2:0.716068 3:-0.670552 4:-0.627036 5:-0.619887 6:0.284202 7:-1 8:-0.885758 9:0.82772 10:0.166029 11:-0.0136866 12:0.634697 13:-0.75243 14:-1 15:-1 16:-1 17:-1 18:-1 19:1 20:-1 21:-1 22:-1 23:-1 24:-1 25:-1 26:-1 27:-1 28:-1 29:-1 30:1 31:-1 32:-1 33:-1 34:-1 35:-1 36:1 37:-1 38:-1 39:1 40:-1 41:-1 42:-1 
800 1:0.083831 2:0.616289 3:-0.8345 4:-0.215992 5:0.69653 6:0.057395 7:-0.820329 8:-0.609079 9:0.0712635 10:-0.491048 11:-0.120858 12:0.914049 13:-0.857541 14:-1 15:-1 16:-1 17:-1 18:-1 19:-1 20:1 21:-1 22:-1 23:-1 24:-1 25:-1 26:-1 27:-1 28:-1 29:1 30:-1 31:-1 32:-1 33:-1 34:-1 35:-1 36:1 37:-1 38:-1 39:1 40:-1 41:-1 42:-1 
800 1:0.132677 2:0.507 3:-0.430979 4:0.227801 5:-0.201175 6:-0.0997306 7:-0.70061 8:0.106317 9:0.184715 10:-0.250677 11:-0.10501 12:0.440936 13:-0.17522 14:-1 15:-1 16:-1 17:-1 18:-1 19:-1 20:-1 21:1 22:-1 23:-1 24:-1 25:-1 26:-1 27:-1 28:-1 29:-1 30:-1 31:1 32:-1 33:-1 34:-1 35:-1 36:1 37:-1 38:-1 39:-1 40:1 41:-1 42:-1 
800 1:-0.158058 2:0.827294 3:-0.0124532 4:-0.420891 5:0.575413 6:-0.0155232 7:-0.93457 8:-0.131375 9:0.897764 10:-0.545251 11:-0.10517 12:0.809362 13:0.121171 14:-1 15:-1 16:-1 17:-1 18:-1 19:1 20:-1 21:-1 22:-1 23:-1 24:-1 25:-1 26:-1 27:-1 28:-1 29:-1 30:1 31:-1 32:-1 33:-1 34:-1 35:1 36:-1 37:-1 38:-1 39:-1 40:1 41:-1 42:-1 
800 1:0.199514 2:0.299149 3:-0.953439 4:-0.267922 5:0.377017 6:0.227947 7:-1 8:0.131775 9:0.109234 10:-0.440249 11:-0.012486 12:0.734941 13:-0.663886 14:-1 15:-1 16:-1 17:-1 18:1 19:-1 20:-1 21:-1 22:-1 23:-1 24:-1 25:-1 26:-1 27:-1 28:-1 29:-1 30:1 31:-1 32:-1 33:-1 34:-1 35:-1 36:1 37:-1 38:-1 39:1 40:-1 41:-1 42:-1 
800 1:-0.333782 2:0.556023 3:-0.955653 4:-0.554691 5:0.238824 6:-0.142392 7:-0.904121 8:-0.27796 9:0.166307 10:-0.473967 11:-0.0120858 12:0.908841 13:-0.468941 14:-1 15:-1 16:-1 17:-1 18:1 19:-1 20:-1 21:-1 22:-1 23:-1 24:-1 25:-1 26:-1 27:-1 28:-1 29:-1 30:-1 31:1 32:-1 33:-1 34:-1 35:-1 36:1 37:-1 38:-1 39:1 40:-1 41:-1 42:-1 
800 1:-0.169466 2:0.624111 3:-0.523166 4:-0.344382 5:0.410025 6:0.0311492 7:-1 8:0.310143 9:0.656869 10:0.0348666 11:-0.783656 12:0.633874 13:-0.109585 14:-1 15:-1 16:-1 17:-1 18:-1 19:1 20:-1 21:-1 22:-1 23:-1 24:-1 25:-1 26:-1 27:-1 28:-1 29:-1 30:-1 31:-1 32:-1 33:-1 34:1 35:-1 36:1 37:-1 38:-1 39:-1 40:1 41:-1 42:-1 
502.2332521500832 1:0.0257938 2:0.727393 3:-0.814234 4:-0.407956 5:0.355063 6:-0.118269 7:-0.917115 8:0.0956689 9:0.623404 10:-0.0319074 11:-0.0637906 12:0.959275 13:-0.381059 14:-1 15:-1 16:-1 17:-1 18:1 19:-1 20:-1 21:-1 22:-1 23:-1 24:-1 25:-1 26:-1 27:-1 28:-1 29:-1 30:-1 31:1 32:-1 33:-1 34:-1 35:-1 36:1 37:-1 38:-1 39:1 40:-1 41:-1 42:-1 
800 1:0.654027 2:0.723517 3:-0.942986 4:-0.425871 5:0.132916 6:0.129159 7:-0.768369 8:0.0352254 9:0.919068 10:-0.385916 11:0.157676 12:0.940147 13:-0.490223 14:-1 15:-1 16:-1 17:-1 18:-1 19:-1 20:1 21:-1 22:-1 23:-1 24:-1 25:-1 26:-1 27:-1 28:-1 29:-1 30:-1 31:1 32:-1 33:-1 34:-1 35:1 36:-1 37:-1 38:-1 39:1 40:-1 41:-1 42:-1 
800 1:-0.452331 2:0.3279 3:-0.726794 4:-5.03547e-05 5:-0.258151 6:-0.00713446 7:-0.957586 8:-0.0257786 9:0.981708 10:-0.119909 11:0.0400192 12:0.433619 13:-0.167697 14:-1 15:-1 16:-1 17:-1 18:-1 19:-1 20:-1 21:-1 22:-1 23:-1 24:-1 25:1 26:-1 27:-1 28:-1 29:-1 30:1 31:-1 32:-1 33:-1 34:-1 35:1 36:-1 37:-1 38:-1 39:-1 40:1 41:-1 42:-1 
800 1:0.364109 2:0.824424 3:-0.817173 4:-0.466363 5:-0.439951 6:-0.0269139 7:-0.803571 8:0.216236 9:0.991519 10:0.616253 11:-0.0357772 12:0.837166 13:-0.590031 14:-1 15:-1 16:-1 17:-1 18:-1 19:1 20:-1 21:-1 22:-1 23:-1 24:-1 25:-1 26:-1 27:-1 28:-1 29:-1 30:-1 31:1 32:-1 33:-1 34:-1 35:-1 36:1 37:-1 38:-1 39:1 40:-1 41:-1 42:-1 
800 1:-0.670992 2:0.39855 3:-0.784984 4:-0.395487 5:-0.999669 6:0.0789792 7:-0.815991 8:0.359619 9:0.905151 10:-0.526867 11:-0.161037 12:0.767642 13:-0.767976 14:-1 15:-1 16:-1 17:-1 18:-1 19:1 20:-1 21:-1 22:-1 23:-1 24:-1 25:-1 26:-1 27:-1 28:-1 29:-1 30:-1 31:1 32:-1 33:-1 34:-1 35:1 36:-1 37:-1 38:-1 39:1 40:-1 41:-1 42:-1 
51.21774115370988 1:0.699111 2:0.798091 3:-0.99774 4:-0.483754 5:-0.98211 6:-0.0255452 7:-0.955018 8:-0.0479545 9:0.983466 10:0.0120611 11:-0.0276133 12:0.916335 13:-0.42621 14:-1 15:-1 16:-1 17:-1 18:-1 19:1 20:-1 21:-1 22:-1 23:-1 24:-1 25:-1 26:-1 27:-1 28:-1 29:-1 30:1 31:-1 32:-1 33:-1 34:-1 35:1 36:-1 37:-1 38:-1 39:1 40:-1 41:-1 42:-1 
800 1:-0.178971 2:0.786329 3:0.937244 4:-0.564049 5:-0.804408 6:-0.070262 7:-0.930046 8:0.0224962 9:0.479566 10:-0.856255 11:0.00552265 12:0.846473 13:-0.689106 14:-1 15:-1 16:-1 17:-1 18:-1 19:-1 20:1 21:-1 22:-1 23:-1 24:-1 25:-1 26:-1 27:-1 28:-1 29:1 30:-1 31:-1 32:-1 33:-1 34:-1 35:1 36:-1 37:-1 38:-1 39:1 40:-1 41:-1 42:-1 
800 1:-0.594003 2:0.635059 3:-0.239339 4:-0.536929 5:-0.832318 6:-0.103413 7:-0.863174 8:0.102554 9:0.992957 10:-0.0752742 11:-0.0308148 12:0.947178 13:-0.352975 14:-1 15:-1 16:-1 17:-1 18:-1 19:1 20:-1 21:-1 22:-1 23:-1 24:-1 25:-1 26:-1 27:-1 28:-1 29:-1 30:-1 31:1 32:-1 33:-1 34:-1 35:1 36:-1 37:-1 38:-1 39:1 40:-1 41:-1 42:-1 
679.2525517692563 1:0.39942 2:0.806761 3:-0.60959 4:0.040038 5:-0.961684 6:0.740507 7:-1 8:-0.434873 9:-0.467482 10:-0.51155 11:0.380263 12:0.439413 13:-0.140691 14:-1 15:-1 16:-1 17:-1 18:-1 19:-1 20:-1 21:-1 22:-1 23:-1 24:1 25:-1 26:-1 27:-1 28:-1 29:1 30:-1 31:-1 32:-1 33:-1 34:-1 35:-1 36:1 37:-1 38:-1 39:-1 40:1 41:-1 42:-1 
800 1:0.611708 2:0.817889 3:-0.950059 4:-0.141725 5:-0.0260001 6:0.0378284 7:-0.645447 8:-0.65247 9:0.861416 10:0.302613 11:0.0131263 12:0.83089 13:-0.575083 14:-1 15:-1 16:-1 17:-1 18:-1 19:-1 20:1 21:-1 22:-1 23:-1 24:-1 25:-1 26:-1 27:-1 28:-1 29:-1 30:-1 31:1 32:-1 33:-1 34:-1 35:-1 36:1 37:-1 38:-1 39:1 40:-1 41:-1 42:-1 
270.327649911755 1:-0.317235 2:0.300284 3:-0.67001 4:0.210795 5:-0.805736 6:-0.0123651 7:-0.958594 8:0.0140901 9:0.925589 10:-0.370071 11:-0.0310549 12:0.980084 13:0.471008 14:-1 15:-1 16:-1 17:-1 18:-1 19:1 20:-1 21:-1 22:-1 23:-1 24:-1 25:-1 26:-1 27:-1 28:-1 29:-1 30:1 31:-1 32:-1 33:-1 34:-1 35:1 36:-1 37:-1 38:-1 39:-1 40:1 41:-1 42:-1 
800 1:-0.693306 2:0.28773 3:-0.0413223 4:-0.178866 5:-0.330551 6:0.101645 7:-1 8:-0.743495 9:0.617773 10:-0.10736 11:-0.342564 12:-0.319195 13:-0.429606 14:-1 15:-1 16:-1 17:-1 18:1 19:-1 20:-1 21:-1 22:-1 23:-1 24:-1 25:-1 26:-1 27:-1 28:-1 29:-1 30:1 31:-1 32:-1 33:-1 34:-1 35:-1 36:1 37:-1 38:-1 39:-1 40:1 41:-1 42:-1 
800 1:-0.357964 2:0.440344 3:-0.698704 4:0.0635889 5:-0.51279 6:-0.113063 7:-0.867736 8:-0.156593 9:0.951819 10:-0.536805 11:-0.0794781 12:0.33715 13:-0.224804 14:-1 15:-1 16:-1 17:-1 18:-1 19:1 20:-1 21:-1 22:-1 23:-1 24:-1 25:-1 26:-1 27:-1 28:-1 29:-1 30:1 31:-1 32:-1 33:-1 34:-1 35:1 36:-1 37:-1 38:-1 39:-1 40:1 41:-1 42:-1 
800 1:-0.237647 2:0.423706 3:-0.798919 4:-0.320509 5:0.346386 6:0.12444 7:-0.87434 8:-0.102474 9:0.941038 10:-0.482537 11:0.0494637 12:0.182271 13:-0.828075 14:-1 15:-1 16:-1 17:-1 18:-1 19:1 20:-1 21:-1 22:-1 23:-1 24:-1 25:-1 26:-1 27:-1 28:-1 29:-1 30:-1 31:1 32:-1 33:-1 34:-1 35:1 36:-1 37:-1 38:-1 39:1 40:-1 41:-1 42:-1 
800 1:-0.879865 2:0.259624 3:-0.590755 4:-0.562273 5:-0.717549 6:0.113926 7:-0.932489 8:-0.643263 9:0.900967 10:0.345189 11:0.0275332 12:0.958604 13:0.199887 14:-1 15:-1 16:-1 17:-1 18:1 19:-1 20:-1 21:-1 22:-1 23:-1 24:-1 25:-1 26:-1 27:-1 28:-1 29:1 30:-1 31:-1 32:-1 33:-1 34:-1 35:-1 36:1 37:-1 38:-1 39:-1 40:1 41:-1 42:-1 
800 1:-0.266296 2:0.192075 3:-0.291834 4:-0.510596 5:-0.99993 6:0.121921 7:-0.653591 8:0.609319 9:-0.493916 10:-0.473728 11:0.064591 12:0.774537 13:-0.614577 14:-1 15:-1 16:-1 17:-1 18:1 19:-1 20:-1 21:-1 22:-1 23:-1 24:-1 25:-1 26:-1 27:-1 28:-1 29:-1 30:-1 31:1 32:-1 33:-1 34:-1 35:-1 36:1 37:-1 38:-1 39:1 40:-1 41:-1 42:-1 
800 1:-0.0804511 2:0.374554 3:-0.799984 4:0.113856 5:-0.97911 6:-0.036787 7:-0.820416 8:0.584901 9:0.820543 10:0.295382 11:-0.325836 12:0.971384 13:-0.894888 14:-1 15:-1 16:-1 17:-1 18:-1 19:-1 20:-1 21:1 22:-1 23:-1 24:-1 25:-1 26:-1 27:-1 28:-1 29:-1 30:-1 31:-1 32:1 33:-1 34:-1 35:-1 36:1 37:-1 38:-1 39:1 40:-1 41:-1 42:-1 
800 1:0.373637 2:0.753636 3:-0.748208 4:-0.0622049 5:0.289821 6:-0.08857 7:-0.556572 8:0.252582 9:-0.156475 10:-0.459759 11:0.0472227 12:0.593537 13:-0.068337 14:-1 15:-1 16:-1 17:-1 18:-1 19:-1 20:1 21:-1 22:-1 23:-1 24:-1 25:-1 26:-1 27:-1 28:-1 29:1 30:-1 31:-1 32:-1 33:-1 34:-1 35:-1 36:1 37:-1 38:-1 39:-1 40:1 41:-1 42:-1 
800 1:0.496585 2:0.793775 3:-0.89166 4:-0.318437 5:-1 6:0.235764 7:-0.656855 8:-0.0184133 9:0.992785 10:-0.0691649 11:-0.240756 12:0.395064 13:-0.206446 14:-1 15:-1 16:-1 17:-1 18:-1 19:-1 20:-1 21:-1 22:1 23:-1 24:-1 25:-1 26:-1 27:-1 28:-1 29:1 30:-1 31:-1 32:-1 33:-1 34:-1 35:1 36:-1 37:-1 38:-1 39:-1 40:1 41:-1 42:-1 
800 1:-0.403798 2:0.827584 3:-0.734912 4:-0.405845 5:0.424 6:-0.177171 7:-0.812346 8:0.193419 9:0.746463 10:0.168951 11:-0.694974 12:0.782477 13:0.0371565 14:-1 15:-1 16:-1 17:-1 18:-1 19:-1 20:-1 21:1 22:-1 23:-1 24:-1 25:-1 26:-1 27:-1 28:-1 29:-1 30:-1 31:-1 32:-1 33:1 34:-1 35:-1 36:1 37:-1 38:-1 39:-1 40:1 41:-1 42:-1 
231.8710487051216 1:-0.124113 2:0.457636 3:-0.63595 4:-0.331921 5:0.854895 6:-0.201326 7:-0.875337 8:0.0748539 9:0.998202 10:-0.150911 11:-0.0180887 12:0.966781 13:-0.240726 14:-1 15:-1 16:-1 17:-1 18:-1 19:1 20:-1 21:-1 22:-1 23:-1 24:-1 25:-1 26:-1 27:-1 28:-1 29:-1 30:-1 31:1 32:-1 33:-1 34:-1 35:1 36:-1 37:-1 38:-1 39:1 40:-1 41:-1 42:-1 
800 1:0.533553 2:0.775285 3:-0.8535 4:-0.0268736 5:0.613641 6:-0.145333 7:-0.800135 8:0.0670883 9:0.881309 10:-0.588831 11:0.0800384 12:-0.242597 13:-0.48789 14:-1 15:-1 16:-1 17:-1 18:-1 19:1 20:-1 21:-1 22:-1 23:-1 24:-1 25:-1 26:-1 27:-1 28:-1 29:-1 30:-1 31:-1 32:1 33:-1 34:-1 35:1 36:-1 37:-1 38:-1 39:-1 40:1 41:-1 42:-1 
800 1:-0.469359 2:0.537705 3:0.0697778 4:0.71355 5:-0.829106 6:-0.200484 7:-0.547281 8:-0.841726 9:0.619252 10:-0.118646 11:-0.0862014 12:0.998655 13:-0.330096 14:-1 15:-1 16:-1 17:-1 18:-1 19:-1 20:1 21:-1 22:-1 23:-1 24:-1 25:-1 26:-1 27:-1 28:-1 29:-1 30:1 31:-1 32:-1 33:-1 34:-1 35:-1 36:1 37:-1 38:-1 39:1 40:-1 41:-1 42:-1 
800 1:0.448792 2:0.565306 3:-0.909507 4:-0.540802 5:0.681212 6:-0.0424512 7:-0.641523 8:-0.205828 9:0.943876 10:-0.615203 11:0.244998 12:0.381418 13:-0.174691 14:-1 15:-1 16:-1 17:-1 18:-1 19:-1 20:1 21:-1 22:-1 23:-1 24:-1 25:-1 26:-1 27:-1 28:-1 29:-1 30:-1 31:-1 32:-1 33:-1 34:1 35:1 36:-1 37:-1 38:-1 39:-1 40:1 41:-1 42:-1 
800 1:-0.180953 2:0.646952 3:-0.288341 4:-0.427434 5:0.944042 6:-0.211577 7:-0.674373 8:-0.0820591 9:0.909288 10:-0.484418 11:0.22939 12:0.50673 13:-0.126704 14:-1 15:-1 16:-1 17:-1 18:-1 19:-1 20:1 21:-1 22:-1 23:-1 24:-1 25:-1 26:-1 27:-1 28:-1 29:-1 30:-1 31:1 32:-1 33:-1 34:-1 35:1 36:-1 37:-1 38:-1 39:-1 40:1 41:-1 42:-1 
800 1:0.147343 2:0.807422 3:-0.836844 4:0.188455 5:-1 6:-0.140995 7:-0.954175 8:0.0592427 9:0.750582 10:0.156657 11:-0.186409 12:-0.0348846 13:-0.309492 14:-1 15:-1 16:-1 17:-1 18:-1 19:-1 20:1 21:-1 22:-1 23:-1 24:-1 25:-1 26:-1 27:-1 28:-1 29:1 30:-1 31:-1 32:-1 33:-1 34:-1 35:-1 36:1 37:-1 38:-1 39:-1 40:1 41:-1 42:-1 
800 1:0.446586 2:0.77501 3:-0.822918 4:-0.380857 5:-0.934241 6:-0.411388 7:-0.126461 8:-0.66728 9:-0.0566521 10:-0.503646 11:0.176165 12:0.639567 13:-0.0715722 14:-1 15:-1 16:-1 17:-1 18:-1 19:1 20:-1 21:-1 22:-1 23:-1 24:-1 25:-1 26:-1 27:-1 28:-1 29:-1 30:1 31:-1 32:-1 33:-1 34:-1 35:-1 36:1 37:-1 38:-1 39:-1 40:1 41:-1 42:-1 
800 1:0.696222 2:0.549393 3:-0.996815 4:-0.514808 5:-0.33846 6:0.00562551 7:-0.792319 8:-0.0846209 9:0.985437 10:-0.141018 11:-0.107251 12:0.917955 13:-0.462382 14:-1 15:-1 16:-1 17:-1 18:-1 19:-1 20:1 21:-1 22:-1 23:-1 24:-1 25:-1 26:-1 27:-1 28:-1 29:-1 30:-1 31:1 32:-1 33:-1 34:-1 35:1 36:-1 37:-1 38:-1 39:1 40:-1 41:-1 42:-1 
800 1:0.669185 2:0.785543 3:-0.912791 4:-0.395439 5:0.869075 6:-0.3194 7:-0.675227 8:-0.20815 9:0.973993 10:0.313449 11:-0.617576 12:0.725908 13:-0.00927561 14:-1 15:-1 16:-1 17:-1 18:-1 19:1 20:-1 21:-1 22:-1 23:-1 24:-1 25:-1 26:-1 27:-1 28:-1 29:1 30:-1 31:-1 32:-1 33:-1 34:-1 35:-1 36:1 37:-1 38:-1 39:-1 40:1 41:-1 42:-1 
800 1:-0.190525 2:0.775859 3:-0.453845 4:-0.155165 5:-0.438486 6:0.110467 7:-0.859596 8:0.178769 9:0.843395 10:0.279022 11:0.257243 12:-0.0795319 13:-0.773409 14:-1 15:-1 16:-1 17:-1 18:-1 19:1 20:-1 21:-1 22:-1 23:-1 24:-1 25:-1 26:-1 27:-1 28:-1 29:-1 30:-1 31:1 32:-1 33:-1 34:-1 35:-1 36:1 37:-1 38:-1 39:1 40:-1 41:-1 42:-1 
800 1:0.0441991 2:0.51174 3:-0.542184 4:-0.224154 5:-0.42082 6:0.16657 7:-1 8:0.0178529 9:0.421419 10:-0.181805 11:-0.776613 12:0.180932 13:-0.326041 14:-1 15:-1 16:-1 17:-1 18:-1 19:-1 20:-1 21:-1 22:-1 23:1 24:-1 25:-1 26:-1 27:-1 28:-1 29:-1 30:1 31:-1 32:-1 33:-1 34:-1 35:-1 36:1 37:-1 38:-1 39:-1 40:1 41:-1 42:-1 
800 1:-0.000448378 2:0.395972 3:-0.845799 4:-0.47644 5:0.113372 6:0.00932562 7:-1 8:-0.715075 9:0.748352 10:0.0537366 11:-0.0713142 12:0.976602 13:-0.224358 14:-1 15:-1 16:-1 17:-1 18:-1 19:1 20:-1 21:-1 22:-1 23:-1 24:-1 25:-1 26:-1 27:-1 28:-1 29:-1 30:1 31:-1 32:-1 33:-1 34:-1 35:-1 36:1 37:-1 38:-1 39:1 40:-1 41:-1 42:-1 
800 1:-0.230437 2:0.260599 3:0.216024 4:-0.010219 5:-0.999414 6:-0.435006 7:-0.467515 8:-0.108398 9:0.560257 10:-0.817213 11:0.0408996 12:0.780828 13:0.0822769 14:-1 15:-1 16:-1 17:-1 18:-1 19:1 20:-1 21:-1 22:-1 23:-1 24:-1 25:-1 26:-1 27:-1 28:-1 29:1 30:-1 31:-1 32:-1 33:-1 34:-1 35:1 36:-1 37:-1 38:-1 39:-1 40:1 41:-1 42:-1 
800 1:0.172286 2:0.554577 3:-0.563352 4:0.0483898 5:-0.902793 6:-0.0091503 7:-0.759939 8:-0.898167 9:0.823763 10:-0.0243832 11:-0.00360173 12:0.825049 13:-0.595135 14:-1 15:-1 16:-1 17:-1 18:-1 19:-1 20:1 21:-1 22:-1 23:-1 24:-1 25:-1 26:-1 27:-1 28:-1 29:-1 30:-1 31:1 32:-1 33:-1 34:-1 35:-1 36:1 37:-1 38:-1 39:1 40:-1 41:-1 42:-1 
800 1:-0.163409 2:0.296456 3:-0.731845 4:-0.580824 5:0.691847 6:0.384687 7:-1 8:0.640541 9:-0.113408 10:-0.45095 11:-0.0565071 12:0.692766 13:-0.0938394 14:-1 15:-1 16:-1 17:-1 18:-1 19:-1 20:-1 21:1 22:-1 23:-1 24:-1 25:-1 26:-1 27:-1 28:-1 29:-1 30:-1 31:-1 32:-1 33:-1 34:1 35:-1 36:1 37:-1 38:-1 39:-1 40:1 41:-1 42:-1 
800 1:-0.246278 2:0.74415 3:-0.885798 4:-0.0647153 5:-0.0915589 6:0.295048 7:-0.761626 8:-0.00552398 9:0.995844 10:0.102817 11:0.255563 12:0.288328 13:-0.251992 14:-1 15:-1 16:-1 17:-1 18:-1 19:-1 20:-1 21:-1 22:-1 23:1 24:-1 25:-1 26:-1 27:-1 28:-1 29:-1 30:1 31:-1 32:-1 33:-1 34:-1 35:1 36:-1 37:-1 38:-1 39:-1 40:1 41:-1 42:-1 
800 1:0.0184384 2:0.70809 3:-0.15048 4:0.0239597 5:-1 6:-0.0223753 7:-0.891064 8:-0.654231 9:0.195608 10:-0.322714 11:-0.885465 12:0.474677 13:-0.219895 14:-1 15:-1 16:-1 17:-1 18:-1 19:1 20:-1 21:-1 22:-1 23:-1 24:-1 25:-1 26:-1 27:-1 28:-1 29:1 30:-1 31:-1 32:-1 33:-1 34:-1 35:-1 36:1 37:-1 38:-1 39:-1 40:1 41:-1 42:-1 
800 1:0.169599 2:0.778057 3:-0.0208679 4:-0.476794 5:-0.717054 6:-0.129823 7:-0.553283 8:0.23561 9:-0.993662 10:-0.511929 11:-0.663839 12:0.734167 13:-0.0625304 14:-1 15:-1 16:-1 17:-1 18:1 19:-1 20:-1 21:-1 22:-1 23:-1 24:-1 25:-1 26:-1 27:-1 28:-1 29:-1 30:-1 31:1 32:-1 33:-1 34:-1 35:-1 36:1 37:-1 38:-1 39:-1 40:1 41:-1 42:-1 
800 1:0.0641718 2:0.395181 3:-0.334842 4:-0.253303 5:-0.520102 6:0.0377484 7:-1 8:-0.0638059 9:0.885059 10:-0.0301998 11:-0.150552 12:0.556777 13:-0.110611 14:-1 15:-1 16:-1 17:-1 18:-1 19:1 20:-1 21:-1 22:-1 23:-1 24:-1 25:-1 26:-1 27:-1 28:-1 29:-1 30:1 31:-1 32:-1 33:-1 34:-1 35:-1 36:1 37:-1 38:-1 39:-1 40:1 41:-1 42:-1 
800 1:0.473332 2:0.472832 3:-0.96996 4:-0.237686 5:-0.519739 6:0.0224658 7:-1 8:0.00176127 9:0.911821 10:-0.518482 11:0.0372979 12:0.00672409 13:-0.336472 14:-1 15:-1 16:-1 17:-1 18:1 19:-1 20:-1 21:-1 22:-1 23:-1 24:-1 25:-1 26:-1 27:-1 28:-1 29:-1 30:1 31:-1 32:-1 33:-1 34:-1 35:1 36:-1 37:-1 38:-1 39:-1 40:1 41:-1 42:-1 
800 1:-0.25622 2:0.729584 3:-0.894069 4:0.0245555 5:-0.996794 6:0.0159464 7:-0.707669 8:-0.0862221 9:0.973213 10:-0.466578 11:-0.0725948 12:0.977058 13:-0.571392 14:-1 15:-1 16:-1 17:-1 18:-1 19:-1 20:-1 21:-1 22:1 23:-1 24:-1 25:-1 26:-1 27:-1 28:-1 29:-1 30:1 31:-1 32:-1 33:-1 34:-1 35:1 36:-1 37:-1 38:-1 39:1 40:-1 41:-1 42:-1 
-32 1:0.0968849 2:0.790165 3:-0.571573 4:-0.613067 5:-0.917428 6:-0.0704521 7:-0.859709 8:-0.131775 9:0.936334 10:-0.671565 11:-0.132544 12:0.927781 13:-0.553899 14:1 15:-1 16:-1 17:-1 18:-1 19:-1 20:-1 21:-1 22:-1 23:-1 24:-1 25:-1 26:1 27:-1 28:-1 29:-1 30:-1 31:-1 32:-1 33:-1 34:-1 35:-1 36:-1 37:-1 38:1 39:-1 40:-1 41:-1 42:1 
-32 1:-0.944602 2:0.703241 3:-0.422239 4:-0.414071 5:-0.0718796 6:-0.2611 7:-0.789997 8:0.195981 9:0.927979 10:-0.482824 11:-0.105811 12:0.956301 13:-0.362053 14:1 15:-1 16:-1 17:-1 18:-1 19:-1 20:-1 21:-1 22:-1 23:-1 24:-1 25:-1 26:-1 27:1 28:-1 29:-1 30:-1 31:-1 32:-1 33:-1 34:-1 35:-1 36:-1 37:-1 38:1 39:-1 40:-1 41:-1 42:1 
-32 1:-0.663776 2:0.707838 3:-0.166058 4:-0.296568 5:-0.995975 6:-0.269502 7:-0.799928 8:-0.683612 9:0.926851 10:0.386403 11:-0.426525 12:0.56421 13:-0.129737 14:-1 15:-1 16:-1 17:-1 18:-1 19:1 20:-1 21:-1 22:-1 23:-1 24:-1 25:-1 26:-1 27:-1 28:-1 29:-1 30:-1 31:1 32:-1 33:-1 34:-1 35:-1 36:1 37:-1 38:-1 39:-1 40:1 41:-1 42:-1 
-32 1:0.54936 2:0.766296 3:-0.911665 4:-0.945423 5:-1 6:-0.013484 7:-0.340003 8:0.251701 9:0.958586 10:-0.254401 11:0.182888 12:0.884104 13:-0.434837 14:-1 15:-1 16:-1 17:-1 18:-1 19:-1 20:1 21:-1 22:-1 23:-1 24:-1 25:-1 26:1 27:-1 28:-1 29:-1 30:-1 31:-1 32:-1 33:-1 34:-1 35:-1 36:-1 37:1 38:-1 39:-1 40:-1 41:-1 42:1 
-32 1:0.436533 2:0.461257 3:-0.907726 4:-0.211736 5:-0.947265 6:-0.125923 7:-0.601656 8:-0.473061 9:0.346508 10:-0.276279 11:0.0991676 12:0.244132 13:-0.277795 14:-1 15:-1 16:-1 17:-1 18:-1 19:-1 20:1 21:-1 22:-1 23:-1 24:-1 25:-1 26:-1 27:-1 28:-1 29:-1 30:-1 31:1 32:-1 33:-1 34:-1 35:-1 36:1 37:-1 38:-1 39:-1 40:1 41:-1 42:-1 
-32 1:-0.854774 2:0.236262 3:-0.315575 4:0.444624 5:-0.728385 6:-0.285481 7:-0.618921 8:-0.759907 9:0.350466 10:-0.326888 11:-0.821114 12:0.62889 13:-0.201593 14:-1 15:-1 16:-1 17:-1 18:1 19:-1 20:-1 21:-1 22:-1 23:-1 24:-1 25:-1 26:-1 27:-1 28:-1 29:-1 30:-1 31:-1 32:1 33:-1 34:-1 35:-1 36:1 37:-1 38:-1 39:-1 40:1 41:-1 42:-1 
-32 1:0.275766 2:0.868455 3:0.090985 4:0.321165 5:-1 6:-0.0569816 7:-0.688993 8:0.552077 9:-0.954684 10:-0.437392 11:0.162238 12:0.936218 13:-0.0354157 14:-1 15:-1 16:-1 17:-1 18:-1 19:-1 20:-1 21:-1 22:1 23:-1 24:-1 25:-1 26:-1 27:-1 28:-1 29:-1 30:-1 31:1 32:-1 33:-1 34:-1 35:-1 36:1 37:-1 38:-1 39:-1 40:1 41:-1 42:-1 
-32 1:0.275766 2:0.860975 3:0.0125705 4:0.321165 5:-1 6:-0.070353 7:-0.708586 8:-0.965095 9:-0.326583 10:-0.424079 11:0.162238 12:0.936218 13:-0.0354157 14:-1 15:-1 16:-1 17:-1 18:-1 19:-1 20:-1 21:-1 22:1 23:-1 24:-1 25:-1 26:-1 27:-1 28:-1 29:-1 30:-1 31:1 32:-1 33:-1 34:-1 35:-1 36:1 37:-1 38:-1 39:-1 40:1 41:-1 42:-1 
-32 1:-0.0325122 2:0.639019 3:-0.146547 4:-0.836522 5:-0.396947 6:0.202649 7:-0.649958 8:-0.183092 9:0.849921 10:0.0359942 11:-0.0744357 12:0.727968 13:-0.698577 14:-1 15:-1 16:-1 17:-1 18:-1 19:-1 20:1 21:-1 22:-1 23:-1 24:-1 25:-1 26:-1 27:-1 28:-1 29:-1 30:1 31:-1 32:-1 33:-1 34:-1 35:-1 36:1 37:-1 38:-1 39:1 40:-1 41:-1 42:-1 
-32 1:0.413459 2:0.521515 3:-0.879537 4:-0.452655 5:-0.179194 6:-0.349216 7:-0.380072 8:0.181651 9:0.919885 10:-0.5224 11:0.148951 12:0.99086 13:-0.120524 14:-1 15:-1 16:-1 17:-1 18:-1 19:-1 20:-1 21:1 22:-1 23:-1 24:-1 25:-1 26:-1 27:-1 28:-1 29:-1 30:-1 31:1 32:-1 33:-1 34:-1 35:-1 36:-1 37:1 38:-1 39:-1 40:-1 41:1 42:-1 
-32 1:-0.454368 2:0.970345 3:-0.697888 4:-0.212166 5:0.341775 6:-0.18026 7:-0.427416 8:0.284765 9:0.7589 10:0.206816 11:-0.135345 12:0.472896 13:-0.162108 14:-1 15:-1 16:-1 17:-1 18:-1 19:1 20:-1 21:-1 22:-1 23:-1 24:-1 25:-1 26:-1 27:-1 28:-1 29:-1 30:-1 31:1 32:-1 33:-1 34:-1 35:-1 36:1 37:-1 38:-1 39:-1 40:1 41:-1 42:-1 
-32 1:-0.131077 2:0.779647 3:-0.929965 4:-0.111039 5:-0.934628 6:-0.249794 7:-0.475387 8:0.073573 9:0.976965 10:0.0766993 11:-0.97839 12:-0.0249136 13:-0.418351 14:-1 15:-1 16:-1 17:-1 18:-1 19:1 20:-1 21:-1 22:-1 23:-1 24:-1 25:-1 26:-1 27:-1 28:-1 29:-1 30:-1 31:-1 32:1 33:-1 34:-1 35:1 36:-1 37:-1 38:-1 39:-1 40:1 41:-1 42:-1 
-32 1:-0.243782 2:0.378685 3:-0.358616 4:-0.0802408 5:-0.487983 6:-0.0833511 7:-0.581178 8:0.276359 9:0.965575 10:-0.392627 11:0.0850808 12:0.916356 13:-0.465312 14:-1 15:-1 16:-1 17:-1 18:-1 19:1 20:-1 21:-1 22:-1 23:-1 24:-1 25:-1 26:-1 27:-1 28:1 29:-1 30:-1 31:-1 32:-1 33:-1 34:-1 35:-1 36:-1 37:1 38:-1 39:-1 40:-1 41:-1 42:1 
-32 1:-0.0272167 2:0.437278 3:-0.654452 4:0.200997 5:0.694724 6:-0.258631 7:-0.620588 8:0.217997 9:0.97005 10:-0.314816 11:-0.116616 12:0.988451 13:-0.674227 14:-1 15:-1 16:-1 17:-1 18:1 19:-1 20:-1 21:-1 22:-1 23:-1 24:-1 25:-1 26:1 27:-1 28:-1 29:-1 30:-1 31:-1 32:-1 33:-1 34:-1 35:-1 36:-1 37:1 38:-1 39:-1 40:-1 41:-1 42:1 
-32 1:0.16979 2:0.778341 3:-0.634518 4:-0.118618 5:-0.725624 6:0.0272116 7:-0.787901 8:0.244896 9:0.977696 10:-0.264906 11:-0.236914 12:0.887137 13:-0.625492 14:-1 15:-1 16:-1 17:-1 18:-1 19:-1 20:1 21:-1 22:-1 23:-1 24:-1 25:-1 26:1 27:-1 28:-1 29:-1 30:-1 31:-1 32:-1 33:-1 34:-1 35:-1 36:-1 37:1 38:-1 39:-1 40:-1 41:-1 42:1 
-32 1:0.16979 2:0.778341 3:-0.634518 4:-0.118618 5:-0.642984 6:0.0185436 7:-0.762283 8:0.244896 9:0.977696 10:-0.264906 11:-0.227789 12:0.99444 13:-0.829033 14:-1 15:-1 16:-1 17:-1 18:-1 19:-1 20:1 21:-1 22:-1 23:-1 24:-1 25:-1 26:1 27:-1 28:-1 29:-1 30:-1 31:-1 32:-1 33:-1 34:-1 35:-1 36:-1 37:1 38:-1 39:-1 40:-1 41:-1 42:1 
-32 1:-0.647535 2:0.634596 3:-0.108007 4:-0.382555 5:-0.952197 6:0.990558 7:-0.694818 8:0.0313826 9:0.925818 10:-0.359386 11:0.287498 12:-0.745607 13:-0.462476 14:-1 15:-1 16:-1 17:-1 18:-1 19:-1 20:-1 21:-1 22:1 23:-1 24:-1 25:-1 26:-1 27:-1 28:-1 29:-1 30:1 31:-1 32:-1 33:-1 34:-1 35:1 36:-1 37:-1 38:-1 39:-1 40:1 41:-1 42:-1 
-32 1:-0.647535 2:0.635815 3:-0.101324 4:-0.382555 5:-0.952197 6:0.990613 7:-0.694818 8:-0.27732 9:0.9601 10:-0.386968 11:0.287498 12:-0.745607 13:-0.462476 14:-1 15:-1 16:-1 17:-1 18:-1 19:-1 20:-1 21:-1 22:1 23:-1 24:-1 25:-1 26:-1 27:-1 28:-1 29:-1 30:1 31:-1 32:-1 33:-1 34:-1 35:1 36:-1 37:-1 38:-1 39:-1 40:1 41:-1 42:-1 
-32 1:0.325362 2:0.347307 3:-0.86836 4:0.524752 5:-0.200873 6:-0.451386 7:-0.380638 8:-0.864302 9:0.921581 10:-0.0823267 11:0.81303 12:-0.297934 13:-0.40484 14:-1 15:-1 16:-1 17:-1 18:-1 19:-1 20:1 21:-1 22:-1 23:-1 24:-1 25:-1 26:-1 27:-1 28:-1 29:-1 30:-1 31:1 32:-1 33:-1 34:-1 35:-1 36:1 37:-1 38:-1 39:-1 40:1 41:-1 42:-1 
-32 1:-0.0632549 2:0.980936 3:-0.587712 4:-0.177008 5:-0.935928 6:-0.332749 7:-0.821983 8:-0.294932 9:0.974315 10:-0.468551 11:-0.399232 12:0.513886 13:-0.159024 14:-1 15:-1 16:-1 17:-1 18:-1 19:-1 20:1 21:-1 22:-1 23:-1 24:-1 25:-1 26:-1 27:-1 28:-1 29:-1 30:-1 31:-1 32:-1 33:0.333333 34:-1 35:1 36:-1 37:-1 38:-1 39:-1 40:1 41:-1 42:-1 
-32 1:-0.0632549 2:0.907935 3:-0.571333 4:-0.177008 5:-0.935928 6:-0.338084 7:-0.76775 8:-0.974782 9:0.0969672 10:-0.500182 11:-0.399232 12:0.513886 13:-0.159024 14:-1 15:-1 16:-1 17:-1 18:-1 19:-1 20:1 21:-1 22:-1 23:-1 24:-1 25:-1 26:-1 27:-1 28:-1 29:-1 30:-1 31:-1 32:-1 33:0.333333 34:-1 35:-1 36:1 37:-1 38:-1 39:-1 40:1 41:-1 42:-1 
-32 1:-0.0632549 2:0.907935 3:-0.571333 4:-0.177008 5:-0.855434 6:-0.340377 7:-0.734233 8:-0.974782 9:0.0969672 10:-0.500182 11:-0.309669 12:0.502567 13:-0.159024 14:-1 15:-1 16:-1 17:-1 18:-1 19:-1 20:1 21:-1 22:-1 23:-1 24:-1 25:-1 26:-1 27:-1 28:-1 29:-1 30:-1 31:-1 32:-1 33:0.333333 34:-1 35:-1 36:1 37:-1 38:-1 39:-1 40:1 41:-1 42:-1 
-32 1:0.0980381 2:0.759082 3:-0.397126 4:-0.741397 5:0.0410784 6:-0.223159 7:-0.538467 8:0.0363462 9:0.996663 10:-0.346615 11:-0.118057 12:0.922909 13:-0.543092 14:-1 15:-1 16:-1 17:-1 18:-1 19:1 20:-1 21:-1 22:-1 23:-1 24:-1 25:-1 26:1 27:-1 28:-1 29:-1 30:-1 31:-1 32:-1 33:-1 34:-1 35:-1 36:-1 37:1 38:-1 39:-1 40:-1 41:-1 42:1 
-32 1:-0.472359 2:0.718273 3:0.403606 4:-0.69923 5:-0.998502 6:-0.186157 7:-0.418803 8:0.234889 9:0.913046 10:-0.492918 11:-0.0884425 12:0.866535 13:-0.737275 14:-1 15:-1 16:-1 17:-1 18:-1 19:-1 20:1 21:-1 22:-1 23:-1 24:-1 25:-1 26:-1 27:1 28:-1 29:-1 30:-1 31:-1 32:-1 33:-1 34:-1 35:-1 36:-1 37:1 38:-1 39:-1 40:-1 41:-1 42:1 
-32 1:0.701596 2:0.688775 3:-0.980168 4:-0.690453 5:-1 6:-0.0896803 7:-0.703061 8:0.256345 9:0.913888 10:-0.477176 11:-0.303986 12:0.958266 13:-0.47666 14:-1 15:-1 16:-1 17:-1 18:-1 19:-1 20:1 21:-1 22:-1 23:-1 24:-1 25:-1 26:-1 27:1 28:-1 29:-1 30:-1 31:-1 32:-1 33:-1 34:-1 35:-1 36:-1 37:1 38:-1 39:-1 40:-1 41:-1 42:1 
-32 1:-0.0655164 2:0.878372 3:-0.0848718 4:-0.447284 5:-0.999805 6:0.177704 7:-0.819849 8:-0.170363 9:0.989126 10:-0.407843 11:0.0623499 12:0.555169 13:-0.711809 14:-1 15:-1 16:1 17:-1 18:-1 19:-1 20:-1 21:-1 22:-1 23:-1 24:-1 25:-1 26:1 27:-1 28:-1 29:-1 30:-1 31:-1 32:-1 33:-1 34:-1 35:-1 36:-1 37:-1 38:1 39:-1 40:-1 41:-1 42:1 
-32 1:-0.0655164 2:0.931373 3:-0.139281 4:-0.447284 5:-0.999805 6:0.194443 7:-0.779035 8:-0.384197 9:0.99714 10:-0.407843 11:0.0623499 12:0.555169 13:-0.711809 14:-1 15:-1 16:1 17:-1 18:-1 19:-1 20:-1 21:-1 22:-1 23:-1 24:-1 25:-1 26:1 27:-1 28:-1 29:-1 30:-1 31:-1 32:-1 33:-1 34:-1 35:-1 36:-1 37:-1 38:1 39:-1 40:-1 41:-1 42:1 
-32 1:-0.0655164 2:0.742328 3:-0.142584 4:-0.447284 5:-0.999805 6:0.139887 7:-0.662568 8:-0.259467 9:0.997993 10:-0.407843 11:0.0623499 12:0.555169 13:-0.711809 14:-1 15:-1 16:1 17:-1 18:-1 19:-1 20:-1 21:-1 22:-1 23:-1 24:-1 25:-1 26:1 27:-1 28:-1 29:-1 30:-1 31:-1 32:-1 33:-1 34:-1 35:-1 36:-1 37:-1 38:1 39:-1 40:-1 41:-1 42:1 
-32 1:0.0997062 2:0.904358 3:-0.130048 4:-0.861303 5:0.314698 6:-0.0106223 7:-0.652426 8:-0.905212 9:0.765126 10:-0.058746 11:0.151753 12:0.240473 13:-0.2476 14:-1 15:-1 16:-1 17:-1 18:-1 19:-1 20:1 21:-1 22:-1 23:-1 24:-1 25:-1 26:-1 27:-1 28:-1 29:-1 30:1 31:-1 32:-1 33:-1 34:-1 35:-1 36:1 37:-1 38:-1 39:-1 40:1 41:-1 42:-1 
-32 1:0.341114 2:0.402846 3:-0.891822 4:-0.0856386 5:0.908381 6:0.0896963 7:-0.521606 8:-0.811865 9:0.253497 10:-0.290298 11:-0.931727 12:-0.30174 13:-0.477982 14:-1 15:-1 16:-1 17:-1 18:-1 19:-1 20:-1 21:-1 22:1 23:-1 24:-1 25:-1 26:-1 27:-1 28:-1 29:-1 30:-1 31:1 32:-1 33:-1 34:-1 35:-1 36:1 37:-1 38:-1 39:-1 40:1 41:-1 42:-1 
-32 1:-0.416505 2:0.734246 3:-0.62251 4:-0.407547 5:-0.977553 6:-0.149648 7:-0.947191 8:0.327196 9:0.950817 10:-0.243077 11:-0.200576 12:0.971143 13:-0.322848 14:-1 15:-1 16:-1 17:-1 18:-1 19:-1 20:-1 21:-1 22:1 23:-1 24:-1 25:-1 26:1 27:-1 28:-1 29:-1 30:-1 31:-1 32:-1 33:-1 34:-1 35:-1 36:-1 37:1 38:-1 39:-1 40:-1 41:-1 42:1 
-32 1:-0.522761 2:0.503779 3:-0.0274168 4:-0.678203 5:-0.998691 6:-0.124902 7:-0.957304 8:0.359059 9:0.718632 10:0.102329 11:0.339683 12:0.878049 13:0.392038 14:-1 15:-1 16:-1 17:-1 18:-1 19:1 20:-1 21:-1 22:-1 23:-1 24:-1 25:-1 26:-1 27:-1 28:-1 29:-1 30:-1 31:1 32:-1 33:-1 34:-1 35:-1 36:1 37:-1 38:-1 39:-1 40:1 41:-1 42:-1 
-32 1:0.590873 2:0.642492 3:-0.97355 4:-0.830062 5:-0.108976 6:-0.255631 7:-0.613702 8:0.302698 9:0.851619 10:-0.587034 11:-0.277413 12:0.954127 13:-0.484847 14:-1 15:-1 16:-1 17:-1 18:-1 19:-1 20:1 21:-1 22:-1 23:-1 24:-1 25:-1 26:1 27:-1 28:-1 29:-1 30:-1 31:-1 32:-1 33:-1 34:-1 35:-1 36:-1 37:1 38:-1 39:-1 40:-1 41:-1 42:1 
-32 1:-0.293747 2:-0.646112 3:-0.581755 4:0.818352 5:-0.973048 6:-0.0750534 7:-0.738883 8:0.188216 9:0.834363 10:-0.568156 11:0.299104 12:-0.528002 13:-0.259623 14:-1 15:-1 16:-1 17:-1 18:-1 19:-1 20:1 21:-1 22:-1 23:-1 24:-1 25:-1 26:-1 27:-1 28:-1 29:-1 30:1 31:-1 32:-1 33:-1 34:-1 35:1 36:-1 37:-1 38:-1 39:-1 40:1 41:-1 42:-1 
-32 1:-0.293747 2:-0.646112 3:-0.581755 4:0.818352 5:-0.988479 6:-0.0781469 7:-0.765508 8:0.188216 9:0.834363 10:-0.568156 11:0.370018 12:-0.822526 13:-0.259623 14:-1 15:-1 16:-1 17:-1 18:-1 19:-1 20:1 21:-1 22:-1 23:-1 24:-1 25:-1 26:-1 27:-1 28:-1 29:-1 30:1 31:-1 32:-1 33:-1 34:-1 35:1 36:-1 37:-1 38:-1 39:-1 40:1 41:-1 42:-1 
-32 1:0.159848 2:0.252981 3:-0.960656 4:-0.792028 5:-0.242682 6:0.129723 7:-0.880638 8:0.0451525 9:0.962367 10:-0.143122 11:0.239875 12:0.975403 13:0.397368 14:-1 15:-1 16:-1 17:-1 18:-1 19:1 20:-1 21:-1 22:-1 23:-1 24:-1 25:-1 26:-1 27:-1 28:-1 29:-1 30:-1 31:1 32:-1 33:-1 34:-1 35:1 36:-1 37:-1 38:-1 39:-1 40:1 41:-1 42:-1 
-32 1:-0.158696 2:-0.17518 3:-0.245931 4:-0.165592 5:-0.2145 6:0.40329 7:-1 8:-0.330638 9:-0.918759 10:-0.344777 11:-0.29206 12:0.733522 13:-0.947714 14:-1 15:-1 16:-1 17:-1 18:-1 19:-1 20:-1 21:-1 22:1 23:-1 24:-1 25:-1 26:-1 27:-1 28:-1 29:-1 30:-1 31:1 32:-1 33:-1 34:-1 35:-1 36:1 37:-1 38:-1 39:1 40:-1 41:-1 42:-1 
-32 1:0.113432 2:0.552567 3:-0.79724 4:-0.419193 5:-0.151396 6:-0.182556 7:-0.523123 8:0.400048 9:0.920646 10:-0.425201 11:-0.110053 12:0.890012 13:-0.537414 14:-1 15:-1 16:-1 17:-1 18:-1 19:1 20:-1 21:-1 22:-1 23:-1 24:-1 25:-1 26:1 27:-1 28:-1 29:-1 30:-1 31:-1 32:-1 33:-1 34:-1 35:-1 36:-1 37:1 38:-1 39:-1 40:-1 41:-1 42:1 
-32 1:0.113432 2:0.437452 3:-0.706157 4:-0.245372 5:0.11996 6:-0.148792 7:-0.523123 8:0.481146 9:0.909183 10:-0.425201 11:-0.110053 12:0.890012 13:-0.537414 14:-1 15:-1 16:-1 17:-1 18:-1 19:1 20:-1 21:-1 22:-1 23:-1 24:-1 25:-1 26:1 27:-1 28:-1 29:-1 30:-1 31:-1 32:-1 33:-1 34:-1 35:-1 36:-1 37:1 38:-1 39:-1 40:-1 41:-1 42:1 
-32 1:0.150858 2:0.944685 3:-0.668843 4:-0.297362 5:-1 6:0.70791 7:-0.883827 8:-0.613722 9:0.78186 10:0.114342 11:0.178085 12:0.413418 13:-0.166069 14:-1 15:-1 16:-1 17:-1 18:-1 19:-1 20:-1 21:-1 22:1 23:-1 24:-1 25:-1 26:-1 27:-1 28:-1 29:-1 30:1 31:-1 32:-1 33:-1 34:-1 35:-1 36:1 37:-1 38:-1 39:-1 40:1 41:-1 42:-1 
-32 1:0.222464 2:0.789606 3:-0.839436 4:-0.396636 5:-0.999976 6:0.0206099 7:-0.818317 8:-0.196461 9:0.96056 10:-0.303698 11:-0.300784 12:0.40043 13:-0.208458 14:-1 15:-1 16:-1 17:-1 18:-1 19:-1 20:1 21:-1 22:-1 23:-1 24:-1 25:-1 26:-1 27:-1 28:-1 29:-1 30:1 31:-1 32:-1 33:-1 34:-1 35:1 36:-1 37:-1 38:-1 39:-1 40:1 41:-1 42:-1 
-32 1:-0.548365 2:0.690019 3:-0.454202 4:-0.092362 5:-0.289166 6:-0.388611 7:-0.198402 8:-0.141462 9:0.954577 10:-0.44747 11:-0.912198 12:0.587626 13:-0.152419 14:-1 15:-1 16:-1 17:-1 18:-1 19:1 20:-1 21:-1 22:-1 23:-1 24:-1 25:-1 26:-1 27:-1 28:-1 29:-1 30:-1 31:1 32:-1 33:-1 34:-1 35:1 36:-1 37:-1 38:-1 39:-1 40:1 41:-1 42:-1 
-32 1:0.518092 2:0.856511 3:-0.821765 4:-0.238466 5:0.839893 6:-0.0046585 7:-0.724383 8:-0.732527 9:0.125014 10:-0.309623 11:0.398591 12:-0.453776 13:-0.293701 14:-1 15:-1 16:-1 17:-1 18:-1 19:-1 20:1 21:-1 22:-1 23:-1 24:-1 25:-1 26:-1 27:-1 28:-1 29:-1 30:1 31:-1 32:-1 33:-1 34:-1 35:-1 36:1 37:-1 38:-1 39:-1 40:1 41:-1 42:-1 
-32 1:0.518092 2:0.856511 3:-0.821765 4:-0.238466 5:0.969353 6:-0.011208 7:-0.716027 8:-0.732527 9:0.125014 10:-0.309623 11:0.515447 12:-0.539362 13:-0.293701 14:-1 15:-1 16:-1 17:-1 18:-1 19:-1 20:1 21:-1 22:-1 23:-1 24:-1 25:-1 26:-1 27:-1 28:-1 29:-1 30:1 31:-1 32:-1 33:-1 34:-1 35:-1 36:1 37:-1 38:-1 39:-1 40:1 41:-1 42:-1 
-32 1:0.797933 2:0.976251 3:-0.915286 4:-0.693332 5:-0.773123 6:0.2259 7:-0.741189 8:0.225682 9:0.981231 10:-0.108417 11:-0.173843 12:0.802962 13:-0.679348 14:-1 15:-1 16:-1 17:-1 18:-1 19:-1 20:-1 21:-1 22:1 23:-1 24:-1 25:-1 26:-1 27:1 28:-1 29:-1 30:-1 31:-1 32:-1 33:-1 34:-1 35:-1 36:-1 37:1 38:-1 39:-1 40:-1 41:-1 42:1 
-32 1:0.346734 2:0.657968 3:-0.739363 4:-0.669925 5:0.335006 6:-0.0520789 7:-0.58722 8:-0.54223 9:0.731309 10:-0.041177 11:-0.446214 12:0.8119 13:0.106556 14:-1 15:-1 16:-1 17:-1 18:-1 19:-1 20:1 21:-1 22:-1 23:-1 24:-1 25:-1 26:-1 27:-1 28:-1 29:-1 30:-1 31:1 32:-1 33:-1 34:-1 35:-1 36:1 37:-1 38:-1 39:-1 40:1 41:-1 42:-1 
-32 1:0.346734 2:0.624016 3:-0.759876 4:-0.669925 5:0.335006 6:-0.0413415 7:-0.63183 8:-0.226483 9:0.571158 10:-0.113139 11:-0.446214 12:0.8119 13:0.106556 14:-1 15:-1 16:-1 17:-1 18:-1 19:-1 20:1 21:-1 22:-1 23:-1 24:-1 25:-1 26:-1 27:-1 28:-1 29:-1 30:-1 31:1 32:-1 33:-1 34:-1 35:-1 36:1 37:-1 38:-1 39:-1 40:1 41:-1 42:-1 
-32 1:0.346734 2:0.443263 3:-0.840723 4:-0.463115 5:-0.360475 6:0.0126142 7:-0.63183 8:0.462093 9:0.481642 10:-0.113139 11:-0.91748 12:0.850549 13:0.106556 14:-1 15:-1 16:-1 17:-1 18:-1 19:-1 20:1 21:-1 22:-1 23:-1 24:-1 25:-1 26:-1 27:-1 28:-1 29:-1 30:-1 31:1 32:-1 33:-1 34:-1 35:-1 36:1 37:-1 38:-1 39:-1 40:1 41:-1 42:-1 
-32 1:-0.0595492 2:0.907602 3:0.961587 4:0.123067 5:-0.471918 6:-0.0705671 7:-0.507107 8:0.121367 9:0.49981 10:-0.817208 11:0.339043 12:0.907497 13:-0.643368 14:-1 15:-1 16:1 17:-1 18:-1 19:-1 20:-1 21:-1 22:-1 23:-1 24:-1 25:-1 26:-1 27:-1 28:-1 29:-1 30:1 31:-1 32:-1 33:-1 34:-1 35:-1 36:-1 37:-1 38:1 39:-1 40:-1 41:1 42:-1 
-32 1:-0.136227 2:0.576297 3:-0.00204639 4:-0.52843 5:-0.99852 6:0.0115758 7:-0.27046 8:-0.248339 9:0.885996 10:-0.63487 11:0.0429006 12:0.857159 13:-0.545904 14:1 15:-1 16:-1 17:-1 18:-1 19:-1 20:-1 21:-1 22:-1 23:-1 24:-1 25:-1 26:-1 27:-1 28:1 29:-1 30:-1 31:-1 32:-1 33:-1 34:-1 35:-1 36:-1 37:-1 38:1 39:-1 40:-1 41:-1 42:1 
-32 1:0.00121974 2:0.324417 3:-0.105597 4:-0.315157 5:-1 6:-0.107025 7:-0.796594 8:-0.370187 9:-0.262682 10:-0.348843 11:-0.66584 12:0.478367 13:-0.255439 14:-1 15:-1 16:-1 17:-1 18:-1 19:-1 20:-1 21:-1 22:-1 23:1 24:-1 25:-1 26:-1 27:-1 28:-1 29:-1 30:-1 31:-1 32:-1 33:-1 34:1 35:-1 36:1 37:-1 38:-1 39:-1 40:1 41:-1 42:-1 
-32 1:-0.134245 2:0.990835 3:0.0528331 4:-0.362631 5:-1 6:-0.362749 7:-0.549543 8:-0.229765 9:0.855189 10:0.145311 11:0.0650712 12:0.917737 13:-0.393761 14:-1 15:-1 16:-1 17:-1 18:-1 19:-1 20:1 21:-1 22:-1 23:-1 24:-1 25:-1 26:-1 27:-1 28:-1 29:-1 30:-1 31:1 32:-1 33:-1 34:-1 35:-1 36:1 37:-1 38:-1 39:1 40:-1 41:-1 42:-1 
-32 1:-0.134245 2:0.990835 3:0.0528331 4:-0.362631 5:-1 6:-0.357132 7:-0.533943 8:-0.229765 9:0.855189 10:0.145311 11:-0.54242 12:0.989211 13:-0.612196 14:-1 15:-1 16:-1 17:-1 18:-1 19:-1 20:1 21:-1 22:-1 23:-1 24:-1 25:-1 26:-1 27:-1 28:-1 29:-1 30:-1 31:1 32:-1 33:-1 34:-1 35:-1 36:1 37:-1 38:-1 39:1 40:-1 41:-1 42:-1 
-32 1:-0.134245 2:0.990835 3:0.0528331 4:-0.362631 5:-1 6:-0.370439 7:-0.600997 8:-0.229765 9:0.855189 10:0.145311 11:-0.835201 12:0.997841 13:0.290454 14:-1 15:-1 16:-1 17:-1 18:-1 19:-1 20:1 21:-1 22:-1 23:-1 24:-1 25:-1 26:-1 27:-1 28:-1 29:-1 30:-1 31:1 32:-1 33:-1 34:-1 35:-1 36:1 37:-1 38:-1 39:-1 40:1 41:-1 42:-1 
-32 1:-0.134245 2:0.72693 3:-0.186284 4:-0.2778 5:-1 6:-0.174244 7:-0.549543 8:-0.506124 9:0.864713 10:0.145311 11:0.0650712 12:0.917737 13:-0.393761 14:-1 15:-1 16:-1 17:-1 18:-1 19:-1 20:1 21:-1 22:-1 23:-1 24:-1 25:-1 26:-1 27:-1 28:-1 29:-1 30:-1 31:1 32:-1 33:-1 34:-1 35:-1 36:1 37:-1 38:-1 39:1 40:-1 41:-1 42:-1 
-32 1:-0.134245 2:0.72693 3:-0.186284 4:-0.2778 5:-1 6:-0.174959 7:-0.533943 8:-0.506124 9:0.864713 10:0.145311 11:-0.54242 12:0.989211 13:-0.612196 14:-1 15:-1 16:-1 17:-1 18:-1 19:-1 20:1 21:-1 22:-1 23:-1 24:-1 25:-1 26:-1 27:-1 28:-1 29:-1 30:-1 31:1 32:-1 33:-1 34:-1 35:-1 36:1 37:-1 38:-1 39:1 40:-1 41:-1 42:-1 
-32 1:-0.134245 2:0.72693 3:-0.186284 4:-0.2778 5:-1 6:-0.166554 7:-0.600997 8:-0.506124 9:0.864713 10:0.145311 11:-0.835201 12:0.997841 13:0.290454 14:-1 15:-1 16:-1 17:-1 18:-1 19:-1 20:1 21:-1 22:-1 23:-1 24:-1 25:-1 26:-1 27:-1 28:-1 29:-1 30:-1 31:1 32:-1 33:-1 34:-1 35:-1 36:1 37:-1 38:-1 39:-1 40:1 41:-1 42:-1 
-32 1:0.420187 2:0.584706 3:-0.851003 4:-0.356903 5:0.149211 6:-0.0753751 7:-0.774152 8:-0.800817 9:0.842561 10:-0.1006 11:0.706259 12:0.746014 13:0.0177821 14:-1 15:-1 16:-1 17:-1 18:-1 19:1 20:-1 21:-1 22:-1 23:-1 24:-1 25:-1 26:-1 27:-1 28:-1 29:-1 30:-1 31:-1 32:1 33:-1 34:-1 35:-1 36:1 37:-1 38:-1 39:-1 40:1 41:-1 42:-1 
-32 1:0.420187 2:0.660405 3:-0.755358 4:-0.413596 5:0.146957 6:-0.0270351 7:-0.774152 8:-0.769274 9:0.903882 10:0.0312184 11:0.0881223 12:0.586691 13:-0.108289 14:-1 15:-1 16:-1 17:-1 18:-1 19:1 20:-1 21:-1 22:-1 23:-1 24:-1 25:-1 26:-1 27:-1 28:-1 29:-1 30:-1 31:-1 32:1 33:-1 34:-1 35:-1 36:1 37:-1 38:-1 39:-1 40:1 41:-1 42:-1 
-32 1:0.0298129 2:0.85271 3:0.954216 4:-0.143152 5:-0.989792 6:-0.268734 7:-0.910034 8:0.122248 9:-0.330526 10:-0.349016 11:-0.379462 12:0.59902 13:-0.0967064 14:-1 15:-1 16:-1 17:-1 18:-1 19:-1 20:-1 21:1 22:-1 23:-1 24:-1 25:-1 26:-1 27:-1 28:-1 29:-1 30:-1 31:1 32:-1 33:-1 34:-1 35:-1 36:1 37:-1 38:-1 39:-1 40:1 41:-1 42:-1 
-32 1:0.661349 2:0.66462 3:-0.969957 4:0.238927 5:-1 6:0.168845 7:-0.730926 8:-0.246658 9:0.917916 10:-0.57729 11:-0.0240916 12:0.960107 13:-0.282233 14:-1 15:-1 16:-0.333333 17:-1 18:-1 19:-1 20:-1 21:-1 22:-1 23:-1 24:-1 25:-1 26:-1 27:-1 28:1 29:-1 30:-1 31:-1 32:-1 33:-1 34:-1 35:-1 36:-1 37:-1 38:1 39:-1 40:-1 41:-1 42:1 
-32 1:0.337072 2:0.774522 3:-0.424125 4:0.0256105 5:-0.940435 6:-0.576525 7:-0.709409 8:-0.353294 9:0.447088 10:-0.90593 11:-0.990075 12:0.65374 13:-0.107848 14:-1 15:-1 16:-1 17:-1 18:-1 19:-1 20:1 21:-1 22:-1 23:-1 24:-1 25:-1 26:-1 27:-1 28:-1 29:-1 30:1 31:-1 32:-1 33:-1 34:-1 35:1 36:-1 37:-1 38:-1 39:-1 40:1 41:-1 42:-1 
-32 1:0.266272 2:0.676349 3:-0.822774 4:-0.700656 5:-0.896075 6:-0.00325474 7:-0.854393 8:0.137059 9:0.969759 10:-0.263226 11:0.14527 12:0.950301 13:-0.398209 14:-1 15:-1 16:-1 17:-1 18:-1 19:-1 20:1 21:-1 22:-1 23:-1 24:-1 25:-1 26:-1 27:-1 28:-1 29:-1 30:1 31:-1 32:-1 33:-1 34:-1 35:-1 36:-1 37:1 38:-1 39:-1 40:-1 41:1 42:-1 
-32 1:0.690267 2:0.860701 3:-0.911318 4:-0.352576 5:-0.99846 6:-0.16843 7:-0.299276 8:-0.159475 9:0.931718 10:-0.495249 11:0.264687 12:0.817504 13:-0.632462 14:1 15:-1 16:-1 17:-1 18:-1 19:-1 20:-1 21:-1 22:-1 23:-1 24:-1 25:-1 26:-1 27:-1 28:-1 29:-1 30:1 31:-1 32:-1 33:-1 34:-1 35:-1 36:-1 37:-1 38:1 39:-1 40:-1 41:1 42:-1 
-32 1:-0.483465 2:-0.0600067 3:0.113057 4:-0.338083 5:-0.712415 6:-0.429502 7:-0.939002 8:0.462093 9:0.166399 10:-0.246053 11:0.267809 12:0.981868 13:-0.577946 14:-1 15:-1 16:-1 17:-1 18:-1 19:1 20:-1 21:-1 22:-1 23:-1 24:-1 25:-1 26:-1 27:-1 28:-1 29:-1 30:-1 31:1 32:-1 33:-1 34:-1 35:-1 36:1 37:-1 38:-1 39:1 40:-1 41:-1 42:-1 
-32 1:0.10283 2:0.947794 3:-0.455695 4:-0.209141 5:-1 6:-0.2405 7:-0.580776 8:-0.114562 9:0.914173 10:-0.526155 11:-0.118137 12:0.888203 13:-0.631834 14:1 15:-1 16:-1 17:-1 18:-1 19:-1 20:-1 21:-1 22:-1 23:-1 24:-1 25:-1 26:1 27:-1 28:-1 29:-1 30:-1 31:-1 32:-1 33:-1 34:-1 35:-1 36:-1 37:-1 38:1 39:-1 40:-1 41:-1 42:1 
-32 1:0.258211 2:0.868329 3:-0.111323 4:0.195859 5:-0.999991 6:-0.735336 7:-0.108269 8:-0.344168 9:0.875539 10:-0.0814214 11:-0.106451 12:0.970032 13:-0.403725 14:-1 15:-1 16:-1 17:-1 18:-1 19:-1 20:-1 21:-1 22:-1 23:1 24:-1 25:-1 26:-1 27:-1 28:-1 29:-1 30:-1 31:1 32:-1 33:-1 34:-1 35:-1 36:1 37:-1 38:-1 39:1 40:-1 41:-1 42:-1 
-32 1:0.258211 2:0.838389 3:-0.303593 4:0.195859 5:-0.999988 6:-0.67343 7:-0.108269 8:-0.790329 9:0.919404 10:-0.0814214 11:-0.0597887 12:0.977037 13:-0.403725 14:-1 15:-1 16:-1 17:-1 18:-1 19:-1 20:-1 21:-1 22:-1 23:1 24:-1 25:-1 26:-1 27:-1 28:-1 29:-1 30:-1 31:1 32:-1 33:-1 34:-1 35:-1 36:1 37:-1 38:-1 39:1 40:-1 41:-1 42:-1 
-32 1:-0.0404385 2:0.852294 3:0.0191997 4:-0.213137 5:-0.899041 6:-0.240318 7:-0.838203 8:0.101833 9:0.960173 10:-0.481838 11:-0.207059 12:0.876058 13:-0.687739 14:-1 15:-1 16:-1 17:-1 18:-1 19:-1 20:1 21:-1 22:-1 23:-1 24:-1 25:-1 26:-1 27:1 28:-1 29:-1 30:-1 31:-1 32:-1 33:-1 34:-1 35:-1 36:-1 37:1 38:-1 39:-1 40:-1 41:-1 42:1 
-32 1:-0.0404385 2:0.462503 3:-0.318789 4:-0.213137 5:-0.844946 6:-0.176343 7:-0.838203 8:0.225522 9:0.962701 10:-0.481838 11:0.0783576 12:0.869186 13:-0.687739 14:-1 15:-1 16:-1 17:-1 18:-1 19:-1 20:1 21:-1 22:-1 23:-1 24:-1 25:-1 26:-1 27:1 28:-1 29:-1 30:-1 31:-1 32:-1 33:-1 34:-1 35:-1 36:-1 37:1 38:-1 39:-1 40:-1 41:-1 42:1 
-32 1:-0.0404385 2:0.819202 3:-0.193652 4:-0.213137 5:-0.679129 6:-0.16319 7:-0.838203 8:-0.206709 9:0.876752 10:-0.70647 11:0.101409 12:0.959945 13:-0.472902 14:-1 15:1 16:-1 17:-1 18:-1 19:-1 20:-1 21:-1 22:-1 23:-1 24:-1 25:-1 26:-1 27:-1 28:-1 29:-1 30:-1 31:1 32:-1 33:-1 34:-1 35:-1 36:-1 37:-1 38:1 39:-1 40:-1 41:1 42:-1 
-32 1:-0.613426 2:0.509435 3:0.207466 4:0.0542897 5:0.718252 6:-0.496232 7:-0.7948 8:-0.0852614 9:0.124104 10:-0.356459 11:0.886906 12:0.228471 13:-0.28609 14:-1 15:-1 16:-1 17:-1 18:-1 19:1 20:-1 21:-1 22:-1 23:-1 24:-1 25:-1 26:-1 27:-1 28:-1 29:-1 30:-1 31:1 32:-1 33:-1 34:-1 35:-1 36:1 37:-1 38:-1 39:-1 40:1 41:-1 42:-1 
-32 1:-0.613426 2:0.444599 3:0.229555 4:0.0542897 5:0.718252 6:-0.49609 7:-0.690735 8:-0.0560403 9:0.120356 10:-0.356459 11:0.886906 12:0.228471 13:-0.28609 14:-1 15:-1 16:-1 17:-1 18:-1 19:1 20:-1 21:-1 22:-1 23:-1 24:-1 25:-1 26:-1 27:-1 28:-1 29:-1 30:-1 31:1 32:-1 33:-1 34:-1 35:-1 36:1 37:-1 38:-1 39:-1 40:1 41:-1 42:-1 
-32 1:-0.239852 2:0.700843 3:0.198344 4:-0.0188344 5:-0.0785428 6:-0.590458 7:-0.640107 8:-0.0674085 9:0.580437 10:-0.0852648 11:-0.426045 12:0.779764 13:0.118366 14:-1 15:-1 16:-1 17:-1 18:-1 19:1 20:-1 21:-1 22:-1 23:-1 24:-1 25:-1 26:-1 27:-1 28:-1 29:-1 30:-1 31:1 32:-1 33:-1 34:-1 35:-1 36:1 37:-1 38:-1 39:-1 40:1 41:-1 42:-1 
-32 1:-0.152427 2:0.432319 3:0.753702 4:-0.617027 5:-1 6:0.165199 7:-0.849754 8:-0.571451 9:0.755509 10:-0.189193 11:0.777653 12:0.299849 13:-0.162186 14:-1 15:-1 16:-1 17:-1 18:-1 19:1 20:-1 21:-1 22:-1 23:-1 24:-1 25:-1 26:-1 27:-1 28:-1 29:-1 30:-1 31:1 32:-1 33:-1 34:-1 35:-1 36:1 37:-1 38:-1 39:-1 40:1 41:-1 42:-1 
-32 1:-0.0322995 2:0.420072 3:-0.577102 4:0.154579 5:-0.498586 6:-0.185896 7:-0.328463 8:0.326955 9:0.859716 10:-0.642195 11:0.117416 12:0.415749 13:-0.844061 14:-1 15:-1 16:-1 17:-1 18:-1 19:1 20:-1 21:-1 22:-1 23:-1 24:-1 25:-1 26:1 27:-1 28:-1 29:-1 30:-1 31:-1 32:-1 33:-1 34:-1 35:-1 36:-1 37:1 38:-1 39:-1 40:-1 41:-1 42:1 
-32 1:0.322507 2:0.589423 3:-0.851062 4:0.490612 5:0.420975 6:0.0844362 7:-0.722306 8:0.245217 9:0.924588 10:-0.527117 11:-0.355611 12:0.971492 13:-0.39752 14:-1 15:-1 16:-1 17:-1 18:-1 19:-1 20:-1 21:-1 22:1 23:-1 24:-1 25:-1 26:1 27:-1 28:-1 29:-1 30:-1 31:-1 32:-1 33:-1 34:-1 35:-1 36:-1 37:1 38:-1 39:-1 40:-1 41:-1 42:1 
-32 1:0.0316378 2:0.0711744 3:-0.68917 4:-0.48071 5:0.335679 6:0.07214 7:-0.939711 8:0.409735 9:0.676775 10:-0.713839 11:-0.109012 12:0.996917 13:-0.153253 14:-1 15:-1 16:-1 17:-1 18:-1 19:-1 20:1 21:-1 22:-1 23:-1 24:-1 25:-1 26:-1 27:-1 28:1 29:-1 30:-1 31:-1 32:-1 33:-1 34:-1 35:-1 36:-1 37:1 38:-1 39:-1 40:-1 41:-1 42:1 
-32 1:-0.0246977 2:0.447064 3:0.0832017 4:-0.529518 5:-0.647071 6:0.00141545 7:-0.571163 8:-0.923785 9:0.11709 10:-0.331182 11:-0.693213 12:0.751944 13:-0.00473401 14:-1 15:-1 16:-1 17:-1 18:-1 19:-1 20:1 21:-1 22:-1 23:-1 24:-1 25:-1 26:-1 27:-1 28:-1 29:-1 30:-1 31:1 32:-1 33:-1 34:-1 35:-1 36:1 37:-1 38:-1 39:-1 40:1 41:-1 42:-1 
-32 1:-0.513995 2:-0.62353 3:-0.000544754 4:-0.0129052 5:-1 6:-0.414861 7:-0.688295 8:0.16692 9:0.404058 10:-0.762081 11:0.151913 12:0.953684 13:-0.36464 14:-1 15:1 16:-1 17:-1 18:-1 19:-1 20:-1 21:-1 22:-1 23:-1 24:-1 25:-1 26:-1 27:-1 28:-1 29:-1 30:-1 31:1 32:-1 33:-1 34:-1 35:-1 36:-1 37:-1 38:1 39:-1 40:-1 41:1 42:-1 
-32 1:0.318812 2:0.316396 3:-0.856735 4:0.198477 5:-0.979183 6:-0.298225 7:-0.615763 8:-0.366504 9:0.938584 10:-0.776543 11:0.259645 12:0.725696 13:-0.599681 14:-1 15:-1 16:-1 17:-1 18:-1 19:-1 20:-1 21:1 22:-1 23:-1 24:-1 25:-1 26:-1 27:-1 28:-1 29:-1 30:-1 31:1 32:-1 33:-1 34:-1 35:1 36:-1 37:-1 38:-1 39:1 40:-1 41:-1 42:-1 
-32 1:0.318812 2:0.245185 3:-0.934178 4:0.198477 5:-0.998621 6:-0.245766 7:-0.936994 8:-0.979265 9:-0.160473 10:-0.501564 11:0.404754 12:0.546963 13:-0.754756 14:-1 15:-1 16:-1 17:-1 18:-1 19:-1 20:-1 21:1 22:-1 23:-1 24:-1 25:-1 26:-1 27:-1 28:-1 29:-1 30:-1 31:-1 32:1 33:-1 34:-1 35:-1 36:1 37:-1 38:-1 39:1 40:-1 41:-1 42:-1 
-32 1:0.318812 2:0.233131 3:-0.935377 4:0.198477 5:-0.998621 6:-0.246753 7:-0.936994 8:-0.190777 9:0.244964 10:-0.295783 11:0.404754 12:0.546963 13:-0.754756 14:-1 15:-1 16:-1 17:-1 18:-1 19:-1 20:-1 21:1 22:-1 23:-1 24:-1 25:-1 26:-1 27:-1 28:-1 29:-1 30:-1 31:-1 32:1 33:-1 34:-1 35:-1 36:1 37:-1 38:-1 39:1 40:-1 41:-1 42:-1 
-32 1:-0.445412 2:0.628758 3:0.267627 4:-0.480145 5:-1 6:-0.743415 7:-0.157859 8:-0.244496 9:0.941417 10:-0.492544 11:0.5004 12:0.946925 13:-0.466551 14:1 15:-1 16:-1 17:-1 18:-1 19:-1 20:-1 21:-1 22:-1 23:-1 24:-1 25:-1 26:-1 27:-1 28:-1 29:-1 30:-1 31:1 32:-1 33:-1 34:-1 35:-1 36:-1 37:-1 38:1 39:-1 40:-1 41:1 42:-1 
-32 1:-0.445412 2:0.639896 3:0.277266 4:-0.480145 5:-1 6:-0.745333 7:-0.157859 8:0.102314 9:0.889328 10:-0.454132 11:0.5004 12:0.946925 13:-0.466551 14:1 15:-1 16:-1 17:-1 18:-1 19:-1 20:-1 21:-1 22:-1 23:-1 24:-1 25:-1 26:-1 27:-1 28:-1 29:-1 30:-1 31:1 32:-1 33:-1 34:-1 35:-1 36:-1 37:-1 38:1 39:-1 40:-1 41:1 42:-1 
-32 1:0.278598 2:0.647094 3:-0.708059 4:-0.0240311 5:-0.635845 6:-0.397629 7:-0.30601 8:0.284605 9:0.911778 10:-0.746804 11:0.168641 12:0.809307 13:-0.550187 14:-1 15:-1 16:-1 17:-1 18:-1 19:-1 20:1 21:-1 22:-1 23:-1 24:-1 25:-1 26:-1 27:1 28:-1 29:-1 30:-1 31:-1 32:-1 33:-1 34:-1 35:-1 36:-1 37:1 38:-1 39:-1 40:-1 41:-1 42:1 
-32 1:0.278598 2:0.647094 3:-0.708059 4:-0.0240311 5:-0.859853 6:-0.380507 7:-0.437277 8:0.284605 9:0.911778 10:-0.746804 11:0.170642 12:0.698404 13:-0.692666 14:-1 15:-1 16:-1 17:-1 18:-1 19:-1 20:1 21:-1 22:-1 23:-1 24:-1 25:-1 26:-1 27:1 28:-1 29:-1 30:-1 31:-1 32:-1 33:-1 34:-1 35:-1 36:-1 37:1 38:-1 39:-1 40:-1 41:-1 42:1 
-32 1:0.278598 2:0.647094 3:-0.708059 4:-0.0240311 5:-0.517761 6:-0.402055 7:-0.231998 8:0.284605 9:0.911778 10:-0.746804 11:0.195774 12:0.610461 13:-0.692666 14:-1 15:-1 16:-1 17:-1 18:-1 19:-1 20:1 21:-1 22:-1 23:-1 24:-1 25:-1 26:-1 27:1 28:-1 29:-1 30:-1 31:-1 32:-1 33:-1 34:-1 35:-1 36:-1 37:1 38:-1 39:-1 40:-1 41:-1 42:1 
-32 1:0.278598 2:0.703782 3:-0.692267 4:-0.0240311 5:-0.807755 6:-0.373071 7:-0.51664 8:-0.267072 9:0.979173 10:-0.379536 11:0.600368 12:0.761506 13:0.0365551 14:-1 15:-1 16:-1 17:-1 18:-1 19:-1 20:1 21:-1 22:-1 23:-1 24:-1 25:-1 26:-1 27:-1 28:-1 29:-1 30:-1 31:-1 32:1 33:-1 34:-1 35:1 36:-1 37:-1 38:-1 39:-1 40:1 41:-1 42:-1 
-32 1:-0.341093 2:0.534355 3:-0.553345 4:0.0362187 5:-0.122038 6:-0.163162 7:-0.871054 8:0.029141 9:0.976758 10:-0.706176 11:-0.203698 12:0.976714 13:-0.293861 14:1 15:-1 16:-1 17:-1 18:-1 19:-1 20:-1 21:-1 22:-1 23:-1 24:-1 25:-1 26:1 27:-1 28:-1 29:-1 30:-1 31:-1 32:-1 33:-1 34:-1 35:-1 36:-1 37:-1 38:1 39:-1 40:-1 41:-1 42:1 
-32 1:0.612268 2:0.618831 3:-0.970126 4:-0.856123 5:0.793813 6:-0.112114 7:-0.307051 8:0.279561 9:0.942874 10:-0.339123 11:-0.006243 12:0.959917 13:-0.388151 14:-1 15:-1 16:-1 17:-1 18:-1 19:-1 20:1 21:-1 22:-1 23:-1 24:-1 25:-1 26:1 27:-1 28:-1 29:-1 30:-1 31:-1 32:-1 33:-1 34:-1 35:-1 36:-1 37:1 38:-1 39:-1 40:-1 41:-1 42:1 
-32 1:0.612268 2:0.618831 3:-0.970126 4:-0.856123 5:0.888067 6:-0.113257 7:-0.298702 8:0.279561 9:0.942874 10:-0.339123 11:-0.336642 12:0.968317 13:-0.494552 14:-1 15:-1 16:-1 17:-1 18:-1 19:-1 20:1 21:-1 22:-1 23:-1 24:-1 25:-1 26:1 27:-1 28:-1 29:-1 30:-1 31:-1 32:-1 33:-1 34:-1 35:-1 36:-1 37:1 38:-1 39:-1 40:-1 41:-1 42:1 
-32 1:-0.462866 2:0.158532 3:0.891713 4:-0.167771 5:-0.988809 6:-0.243828 7:-0.679293 8:-0.100953 9:0.421232 10:-0.859512 11:0.0407396 12:0.87098 13:-0.701673 14:-1 15:-1 16:-1 17:-1 18:-1 19:1 20:-1 21:-1 22:-1 23:-1 24:-1 25:-1 26:-1 27:-1 28:-1 29:-1 30:-1 31:1 32:-1 33:-1 34:-1 35:1 36:-1 37:-1 38:-1 39:1 40:-1 41:-1 42:-1 
-32 1:-0.462866 2:0.272226 3:0.903036 4:-0.167771 5:-0.988809 6:-0.21268 7:-0.64045 8:0.230086 9:0.225213 10:-0.859512 11:0.0407396 12:0.87098 13:-0.701673 14:-1 15:-1 16:-1 17:-1 18:-1 19:1 20:-1 21:-1 22:-1 23:-1 24:-1 25:-1 26:-1 27:-1 28:-1 29:-1 30:-1 31:1 32:-1 33:-1 34:-1 35:1 36:-1 37:-1 38:-1 39:1 40:-1 41:-1 42:-1 
-32 1:-0.997721 2:0.211019 3:-0.0820043 4:0.0831936 5:0.0220498 6:-0.147917 7:-0.590117 8:0.248659 9:0.558927 10:-0.0797355 11:-0.760045 12:0.385472 13:-0.257819 14:-1 15:-1 16:-1 17:-1 18:-1 19:1 20:-1 21:-1 22:-1 23:-1 24:-1 25:-1 26:-1 27:-1 28:-1 29:-1 30:-1 31:1 32:-1 33:-1 34:-1 35:-1 36:1 37:-1 38:-1 39:-1 40:1 41:-1 42:-1 
-32 1:-0.39454 2:0.334901 3:-0.38535 4:-0.376106 5:-1 6:0.0189194 7:-1 8:-0.00432311 9:0.376227 10:-0.223708 11:0.200656 12:0.377717 13:-0.196399 14:-1 15:-1 16:-1 17:-1 18:1 19:-1 20:-1 21:-1 22:-1 23:-1 24:-1 25:-1 26:-1 27:-1 28:-1 29:-1 30:-1 31:1 32:-1 33:-1 34:-1 35:-1 36:1 37:-1 38:-1 39:-1 40:1 41:-1 42:-1 
-32 1:0.26887 2:0.615891 3:-0.691581 4:-0.512034 5:0.705648 6:0.0338767 7:-0.579354 8:0.210952 9:0.90844 10:-0.522254 11:0.399392 12:0.822467 13:-0.57519 14:-1 15:-1 16:-1 17:-1 18:-1 19:-1 20:1 21:-1 22:-1 23:-1 24:-1 25:-1 26:-1 27:-1 28:-1 29:-1 30:1 31:-1 32:-1 33:-1 34:-1 35:-1 36:-1 37:1 38:-1 39:-1 40:-1 41:1 42:-1 
-32 1:0.419023 2:0.651159 3:-0.823868 4:-0.0282509 5:0.274094 6:-0.0946304 7:-0.857901 8:0.29221 9:0.885148 10:-0.5636 11:0.279094 12:0.978759 13:-0.208603 14:-1 15:-1 16:-1 17:-1 18:-1 19:-1 20:1 21:-1 22:-1 23:-1 24:-1 25:-1 26:-1 27:-1 28:-1 29:-1 30:-1 31:1 32:-1 33:-1 34:-1 35:-1 36:-1 37:1 38:-1 39:-1 40:-1 41:1 42:-1 
-32 1:0.736257 2:0.847429 3:-0.945233 4:-0.176541 5:-0.0200777 6:-0.0591223 7:-0.849719 8:0.261548 9:0.92191 10:-0.462594 11:-0.103009 12:0.94245 13:-0.394969 14:-1 15:-1 16:-1 17:-1 18:-1 19:-1 20:-1 21:1 22:-1 23:-1 24:-1 25:-1 26:1 27:-1 28:-1 29:-1 30:-1 31:-1 32:-1 33:-1 34:-1 35:-1 36:-1 37:1 38:-1 39:-1 40:-1 41:-1 42:1 
-32 1:0.736257 2:0.82151 3:-0.947474 4:-0.176541 5:-0.0200777 6:-0.0625241 7:-0.8405 8:0.236971 9:0.924131 10:-0.462594 11:-0.103009 12:0.94245 13:-0.394969 14:-1 15:-1 16:-1 17:-1 18:-1 19:-1 20:-1 21:1 22:-1 23:-1 24:-1 25:-1 26:1 27:-1 28:-1 29:-1 30:-1 31:-1 32:-1 33:-1 34:-1 35:-1 36:-1 37:1 38:-1 39:-1 40:-1 41:-1 42:1 
-32 1:0.736257 2:0.757939 3:-0.959795 4:-0.176541 5:-0.0200777 6:-0.0576207 7:-0.750867 8:0.381234 9:0.89611 10:-0.462594 11:-0.103009 12:0.94245 13:-0.394969 14:-1 15:-1 16:-1 17:-1 18:-1 19:-1 20:-1 21:1 22:-1 23:-1 24:-1 25:-1 26:1 27:-1 28:-1 29:-1 30:-1 31:-1 32:-1 33:-1 34:-1 35:-1 36:-1 37:1 38:-1 39:-1 40:-1 41:-1 42:1 
-32 1:0.736257 2:0.773608 3:-0.959165 4:-0.176541 5:-0.0200777 6:-0.0616579 7:-0.811513 8:0.273237 9:0.915443 10:-0.462594 11:-0.103009 12:0.94245 13:-0.394969 14:-1 15:-1 16:-1 17:-1 18:-1 19:-1 20:-1 21:1 22:-1 23:-1 24:-1 25:-1 26:1 27:-1 28:-1 29:-1 30:-1 31:-1 32:-1 33:-1 34:-1 35:-1 36:-1 37:1 38:-1 39:-1 40:-1 41:-1 42:1 
-32 1:-0.204575 2:0.752249 3:0.741429 4:-0.442524 5:-0.736363 6:-0.0624429 7:-0.483802 8:0.199344 9:0.790365 10:-0.722378 11:0.327837 12:0.805669 13:-0.66777 14:-1 15:-1 16:-1 17:-1 18:-1 19:-1 20:-1 21:-1 22:-1 23:1 24:-1 25:-1 26:-1 27:-1 28:-1 29:-1 30:-1 31:1 32:-1 33:-1 34:-1 35:-1 36:-1 37:1 38:-1 39:-1 40:-1 41:1 42:-1 
-32 1:0.278184 2:0.591696 3:-0.498868 4:0.338298 5:-0.99883 6:-0.316706 7:-0.704891 8:-0.602914 9:0.594505 10:-0.192657 11:0.33424 12:0.865839 13:0.132027 14:-1 15:-1 16:-1 17:-1 18:-1 19:-1 20:1 21:-1 22:-1 23:-1 24:-1 25:-1 26:-1 27:-1 28:-1 29:-1 30:-1 31:1 32:-1 33:-1 34:-1 35:-1 36:1 37:-1 38:-1 39:-1 40:1 41:-1 42:-1 
-32 1:0.117608 2:0.169422 3:-0.953874 4:-0.76101 5:-0.0853702 6:0.146095 7:-0.669294 8:0.0632455 9:0.780728 10:-0.78126 11:0.576117 12:0.610728 13:-0.758487 14:-1 15:-1 16:-1 17:-1 18:-1 19:-1 20:1 21:-1 22:-1 23:-1 24:-1 25:-1 26:-1 27:-1 28:-1 29:-1 30:-1 31:-1 32:1 33:-1 34:-1 35:-1 36:-1 37:1 38:-1 39:-1 40:-1 41:1 42:-1 
-32 1:0.117608 2:0.169422 3:-0.953874 4:-0.586574 5:-0.999883 6:0.141593 7:-0.642373 8:0.0632455 9:0.780728 10:-0.78126 11:0.524092 12:0.423718 13:-0.758487 14:-1 15:-1 16:-1 17:-1 18:-1 19:-1 20:1 21:-1 22:-1 23:-1 24:-1 25:-1 26:-1 27:-1 28:-1 29:-1 30:-1 31:-1 32:1 33:-1 34:-1 35:-1 36:-1 37:1 38:-1 39:-1 40:-1 41:1 42:-1 
-32 1:0.117608 2:0.169422 3:-0.953874 4:-0.586574 5:-0.283256 6:0.184313 7:-0.626788 8:0.0632455 9:0.780728 10:-0.78126 11:0.158716 12:0.707585 13:-0.758487 14:-1 15:-1 16:-1 17:-1 18:-1 19:-1 20:1 21:-1 22:-1 23:-1 24:-1 25:-1 26:-1 27:-1 28:-1 29:-1 30:-1 31:-1 32:1 33:-1 34:-1 35:-1 36:-1 37:1 38:-1 39:-1 40:-1 41:1 42:-1 
-32 1:-0.205639 2:-0.130084 3:-0.363658 4:-0.265347 5:-0.209725 6:-0.0141084 7:-0.820356 8:0.200384 9:0.827265 10:-0.685632 11:0.383144 12:0.973859 13:-0.31238 14:-1 15:-1 16:-1 17:-1 18:-1 19:-1 20:-1 21:-1 22:-1 23:1 24:-1 25:-1 26:-1 27:-1 28:-1 29:1 30:-1 31:-1 32:-1 33:-1 34:-1 35:-1 36:-1 37:1 38:-1 39:-1 40:-1 41:1 42:-1 
-32 1:0.098094 2:0.666151 3:-0.691706 4:-0.312973 5:0.748873 6:-0.367763 7:-0.196449 8:0.423665 9:0.959826 10:-0.219463 11:0.154314 12:0.879436 13:-0.613209 14:-1 15:-1 16:-1 17:-1 18:-1 19:-1 20:1 21:-1 22:-1 23:-1 24:-1 25:-1 26:-1 27:-1 28:-1 29:-1 30:1 31:-1 32:-1 33:-1 34:-1 35:-1 36:-1 37:1 38:-1 39:-1 40:-1 41:1 42:-1 
-32 1:-0.901628 2:0.460786 3:0.080475 4:-0.589979 5:-0.499586 6:-0.172529 7:-0.503313 8:0.196141 9:0.979304 10:-0.216336 11:0.257804 12:0.875609 13:-0.600046 14:-1 15:-1 16:-1 17:-1 18:-1 19:1 20:-1 21:-1 22:-1 23:-1 24:-1 25:-1 26:-1 27:-1 28:-1 29:-1 30:1 31:-1 32:-1 33:-1 34:-1 35:-1 36:-1 37:1 38:-1 39:-1 40:-1 41:1 42:-1 
-32 1:-0.901628 2:0.460786 3:0.080475 4:-0.589979 5:-0.909815 6:-0.154073 7:-0.4689 8:0.196141 9:0.979304 10:-0.216336 11:0.349608 12:0.827191 13:-0.600046 14:-1 15:-1 16:-1 17:-1 18:-1 19:1 20:-1 21:-1 22:-1 23:-1 24:-1 25:-1 26:-1 27:-1 28:-1 29:-1 30:1 31:-1 32:-1 33:-1 34:-1 35:-1 36:-1 37:1 38:-1 39:-1 40:-1 41:1 42:-1 
-32 1:-0.429111 2:0.474141 3:-0.503579 4:-0.222086 5:0.335268 6:-0.223625 7:-0.679095 8:0.145625 9:0.947165 10:-0.425504 11:0.199376 12:0.967636 13:-0.309638 14:-1 15:-1 16:-1 17:-1 18:-1 19:-1 20:1 21:-1 22:-1 23:-1 24:-1 25:-1 26:-1 27:-1 28:-1 29:-1 30:-1 31:1 32:-1 33:-1 34:-1 35:-1 36:-1 37:1 38:-1 39:-1 40:-1 41:1 42:-1 
-32 1:0.332796 2:0.84503 3:-0.493526 4:-0.319516 5:-1 6:-0.00608072 7:-0.62858 8:0.334321 9:0.408471 10:-0.153866 11:0.400672 12:-0.278801 13:-0.842121 14:-1 15:-1 16:-1 17:-1 18:-1 19:1 20:-1 21:-1 22:-1 23:-1 24:-1 25:-1 26:-1 27:-1 28:-1 29:-1 30:-1 31:1 32:-1 33:-1 34:-1 35:-1 36:1 37:-1 38:-1 39:1 40:-1 41:-1 42:-1 
-32 1:0.332796 2:0.845951 3:-0.490531 4:-0.319516 5:-1 6:-0.00594785 7:-0.63795 8:0.496117 9:0.367537 10:-0.161926 11:0.400672 12:-0.278801 13:-0.842121 14:-1 15:-1 16:-1 17:-1 18:-1 19:1 20:-1 21:-1 22:-1 23:-1 24:-1 25:-1 26:-1 27:-1 28:-1 29:-1 30:-1 31:1 32:-1 33:-1 34:-1 35:-1 36:1 37:-1 38:-1 39:1 40:-1 41:-1 42:-1 
-32 1:0.332796 2:0.845951 3:-0.490531 4:-0.319516 5:-0.998829 6:-0.0172216 7:-0.77519 8:0.496117 9:0.367537 10:-0.161926 11:0.441812 12:-0.555006 13:-0.842121 14:-1 15:-1 16:-1 17:-1 18:-1 19:1 20:-1 21:-1 22:-1 23:-1 24:-1 25:-1 26:-1 27:-1 28:-1 29:-1 30:-1 31:-1 32:-1 33:0.333333 34:-1 35:-1 36:1 37:-1 38:-1 39:1 40:-1 41:-1 42:-1 
-32 1:-0.402041 2:0.651984 3:-0.894634 4:-0.50822 5:-0.974701 6:0.69367 7:-0.453616 8:0.0651669 9:0.996529 10:-0.00227703 11:0.176325 12:0.988313 13:-0.587114 14:-1 15:-1 16:-1 17:-1 18:-1 19:-1 20:-1 21:-1 22:-1 23:1 24:-1 25:-1 26:-1 27:-1 28:-1 29:-1 30:-1 31:-1 32:1 33:-1 34:-1 35:-1 36:-1 37:1 38:-1 39:-1 40:-1 41:1 42:-1 
-32 1:-0.402041 2:0.506851 3:-0.903066 4:-0.50822 5:-0.996041 6:0.681969 7:-0.453616 8:0.29189 9:0.985384 10:-0.00227703 11:-0.0681127 12:0.992625 13:-0.587114 14:-1 15:-1 16:-1 17:-1 18:-1 19:-1 20:-1 21:-1 22:-1 23:1 24:-1 25:-1 26:-1 27:-1 28:-1 29:-1 30:-1 31:-1 32:1 33:-1 34:-1 35:-1 36:-1 37:1 38:-1 39:-1 40:-1 41:1 42:-1 
-32 1:-0.800634 2:0.581706 3:0.250718 4:0.00455043 5:-0.456954 6:0.856942 7:-0.866186 8:-0.328156 9:0.984184 10:-0.303454 11:0.214503 12:0.940833 13:-0.389867 14:-1 15:-1 16:1 17:-1 18:-1 19:-1 20:-1 21:-1 22:-1 23:-1 24:-1 25:-1 26:-1 27:-1 28:-1 29:-1 30:-1 31:-1 32:1 33:-1 34:-1 35:-1 36:-1 37:-1 38:1 39:-1 40:-1 41:1 42:-1 
-32 1:-0.800634 2:0.581706 3:0.250718 4:0.00455043 5:-0.806744 6:0.85672 7:-0.913445 8:-0.328156 9:0.984184 10:-0.303454 11:0.160957 12:0.950364 13:-0.389867 14:-1 15:-1 16:1 17:-1 18:-1 19:-1 20:-1 21:-1 22:-1 23:-1 24:-1 25:-1 26:-1 27:-1 28:-1 29:-1 30:-1 31:-1 32:1 33:-1 34:-1 35:-1 36:-1 37:-1 38:1 39:-1 40:-1 41:1 42:-1 
-32 1:0.30502 2:0.470098 3:-0.857918 4:-0.177731 5:-0.999771 6:-0.0611818 7:-0.937484 8:0.183092 9:0.418719 10:-0.879834 11:-0.147591 12:0.928399 13:-0.478516 14:-1 15:-1 16:-1 17:-1 18:-1 19:-1 20:-1 21:1 22:-1 23:-1 24:-1 25:-1 26:-1 27:-1 28:-1 29:-1 30:-1 31:-1 32:1 33:-1 34:-1 35:1 36:-1 37:-1 38:-1 39:1 40:-1 41:-1 42:-1 
